mw,Sw
0.217667,0.025
-0.241259,0.025
0.120882,0.025
0.0637343,0.025
-0.413931,0.025
0.189487,0.025
-0.327418,0.025
-0.175776,0.025
0.0548038,0.025
0.0940736,0.025
0.147973,0.025
-0.284065,0.025
0.00565923,0.025
-0.168489,0.025
0.0878114,0.025
0.122073,0.025
-0.20578,0.025
0.302455,0.025
-0.0360176,0.025
-0.115295,0.025
-0.228454,0.025
-0.0145301,0.025
0.0786969,0.025
0.117607,0.025
0.0312463,0.025
0.00819435,0.025
0.00417058,0.025
0.0137668,0.025
0.0501641,0.025
-0.0280315,0.025
0.0518608,0.025
-0.00261829,0.025
-0.025764,0.025
0.287897,0.025
0.0798825,0.025
-0.0628808,0.025
0.210956,0.025
0.0944576,0.025
0.142983,0.025
-0.202425,0.025
-0.107595,0.025
-0.231383,0.025
0.200195,0.025
0.0870934,0.025
-0.0637234,0.025
0.0653895,0.025
-0.164055,0.025
-0.079722,0.025
0.0503105,0.025
0.10538,0.025
0.229687,0.025
0.0327657,0.025
-0.269409,0.025
0.0817119,0.025
0.00309112,0.025
-0.00658403,0.025
0.0872551,0.025
0.101854,0.025
0.00858318,0.025
0.144457,0.025
0.171059,0.025
-0.104971,0.025
-0.156284,0.025
-0.0289264,0.025
0.0011049,0.00666667
-0.0484066,0.00666667
0.146326,0.00666667
-0.0307338,0.00666667
-0.128057,0.00666667
-0.0630478,0.00666667
-0.126406,0.00666667
0.00637267,0.00666667
-0.181783,0.00666667
-0.0224585,0.00666667
0.0354782,0.00666667
0.00055946,0.00666667
0.114834,0.00666667
-0.095729,0.00666667
-0.0278212,0.00666667
0.160028,0.00666667
0.0447062,0.00666667
-0.0415566,0.00666667
0.0517945,0.00666667
0.0346066,0.00666667
0.0457168,0.00666667
0.0281749,0.00666667
-0.0255731,0.00666667
-0.0941756,0.00666667
0.0141572,0.00666667
0.052158,0.00666667
-0.159696,0.00666667
-0.0845017,0.00666667
0.177863,0.00666667
-0.178297,0.00666667
-0.179654,0.00666667
-0.0266764,0.00666667
0.0306684,0.00666667
0.0611685,0.00666667
-0.123435,0.00666667
-0.00991567,0.00666667
0.0782741,0.00666667
-0.143605,0.00666667
-0.0282693,0.00666667
-0.062518,0.00666667
-0.0178224,0.00666667
0.0906322,0.00666667
0.0446358,0.00666667
-0.121926,0.00666667
0.0735083,0.00666667
0.0301441,0.00666667
0.0947698,0.00666667
-0.0711719,0.00666667
0.00480401,0.00666667
-0.0414934,0.00666667
-0.0668208,0.00666667
0.0543601,0.00666667
-0.0802196,0.00666667
0.0376582,0.00666667
0.0722863,0.00666667
-0.0330656,0.00666667
0.0192088,0.00666667
-0.0466799,0.00666667
-0.000102647,0.00666667
-0.0351356,0.00666667
-0.233128,0.00666667
-0.0531319,0.00666667
-0.0216965,0.00666667
0.0572001,0.00666667
0.101073,0.00666667
0.0288545,0.00666667
0.0404899,0.00666667
-0.0086377,0.00666667
-0.180779,0.00666667
-0.00458944,0.00666667
0.0636486,0.00666667
-0.0337396,0.00666667
0.0561016,0.00666667
-0.0145412,0.00666667
0.0891284,0.00666667
-0.0748823,0.00666667
-0.153137,0.00666667
-0.111347,0.00666667
-0.0532162,0.00666667
-0.0818302,0.00666667
0.0536557,0.00666667
-0.00693566,0.00666667
0.0684583,0.00666667
0.0468763,0.00666667
0.0136423,0.00666667
0.0531502,0.00666667
0.00909323,0.00666667
-0.114033,0.00666667
-0.00557663,0.00666667
0.00255128,0.00666667
-0.0581783,0.00666667
-0.0916823,0.00666667
0.0672321,0.00666667
-0.0217639,0.00666667
-0.0139507,0.00666667
-0.00011849,0.00666667
-0.13355,0.00666667
-0.106125,0.00666667
0.0325216,0.00666667
0.0644535,0.00666667
0.0114628,0.00666667
-0.105164,0.00666667
0.0908997,0.00666667
-0.0840079,0.00666667
0.125108,0.00666667
0.087575,0.00666667
0.0469895,0.00666667
0.0171819,0.00666667
-0.0112641,0.00666667
-0.0678292,0.00666667
0.0698648,0.00666667
-0.00266864,0.00666667
-0.102662,0.00666667
0.0727755,0.00666667
0.0386024,0.00666667
0.0866702,0.00666667
-0.0669509,0.00666667
-0.145507,0.00666667
0.0413384,0.00666667
0.0276972,0.00666667
0.149381,0.00666667
0.0438484,0.00666667
-0.0479147,0.00666667
0.0889551,0.00666667
0.0535688,0.00666667
-0.0575926,0.00666667
0.087549,0.00666667
-0.104155,0.00666667
0.1247,0.00666667
-0.0183589,0.00666667
-0.0496071,0.00666667
-0.0365851,0.00666667
-0.0890498,0.00666667
-0.0835797,0.00666667
0.0113163,0.00666667
0.0564116,0.00666667
0.0205812,0.00666667
0.0724947,0.00666667
0.106246,0.00666667
-0.12509,0.00666667
0.158644,0.00666667
-0.0845753,0.00666667
-0.101459,0.00666667
0.125917,0.00666667
-0.0597437,0.00666667
-0.0790189,0.00666667
0.0263124,0.00666667
-0.00188195,0.00666667
-0.00733188,0.00666667
-0.0951246,0.00666667
0.170687,0.00666667
-0.0639107,0.00666667
-0.0824002,0.00666667
-0.0105158,0.00666667
-0.0389737,0.00666667
-0.0493342,0.00666667
0.0971074,0.00666667
0.0489927,0.00666667
0.0131354,0.00666667
-0.147626,0.00666667
0.0141987,0.00666667
0.0166033,0.00666667
0.100933,0.00666667
-0.0454467,0.00666667
-0.0719915,0.00666667
0.082036,0.00666667
0.0517327,0.00666667
0.0656788,0.00666667
0.0284942,0.00666667
-0.0858985,0.00666667
0.0466313,0.00666667
-0.0506795,0.00666667
-0.0574886,0.00666667
-0.184186,0.00666667
-0.0838723,0.00666667
0.0392906,0.00666667
-0.059799,0.00666667
0.0843757,0.00666667
-0.0657943,0.00666667
0.00119455,0.00666667
-0.00754775,0.00666667
-0.110469,0.00666667
0.0263809,0.00666667
-0.0206613,0.00666667
0.0780506,0.00666667
0.0614159,0.00666667
-0.129434,0.00666667
0.114161,0.00666667
0.0740562,0.00666667
0.0351427,0.00666667
-0.0672883,0.00666667
0.055406,0.00666667
0.0855842,0.00666667
-0.0392971,0.00666667
-0.0249382,0.00666667
0.0540742,0.00666667
-0.161904,0.00666667
-0.014193,0.00666667
-0.168003,0.00666667
-0.0180077,0.00666667
0.164381,0.00666667
-0.108315,0.00666667
-0.0410885,0.00666667
0.0497178,0.00666667
-0.0803086,0.00666667
-0.0157132,0.00666667
-0.102815,0.00666667
-0.00585409,0.00666667
0.0186549,0.00666667
-0.0393268,0.00666667
-0.0894627,0.00666667
-0.0298299,0.00666667
-0.0687956,0.00666667
0.026173,0.00666667
-0.0360679,0.00666667
-0.0239226,0.00666667
0.00752129,0.00666667
-0.109509,0.00666667
-0.0093461,0.00666667
-0.088459,0.00666667
-0.00601864,0.00666667
1.12929e-05,0.00666667
-0.02844,0.00666667
0.121083,0.00666667
-0.0942459,0.00666667
-0.0584358,0.00666667
-0.279168,0.00666667
0.0675948,0.00666667
0.0840259,0.00666667
0.0343773,0.00666667
-0.0591898,0.00666667
-0.0267663,0.00666667
-0.00412744,0.00666667
0.173895,0.00666667
-0.10166,0.00666667
-0.027037,0.00666667
-0.00118828,0.00666667
0.00989254,0.00666667
-0.0129971,0.00666667
0.0821725,0.00666667
0.229937,0.00666667
0.0568701,0.00666667
0.049336,0.00666667
0.0122994,0.00666667
0.0230455,0.00666667
0.00672252,0.00666667
0.0002196,0.00666667
-0.0649453,0.00666667
0.0256884,0.00666667
0.00404305,0.00666667
0.0533123,0.00666667
-0.209456,0.00666667
-0.00353183,0.00666667
-0.0165624,0.00666667
-0.0501326,0.00666667
0.108015,0.00666667
-0.03642,0.00666667
-0.0125192,0.00666667
-0.0856937,0.00666667
0.118341,0.00666667
-0.0668955,0.00666667
0.229298,0.00666667
0.031479,0.00666667
0.058103,0.00666667
-0.063859,0.00666667
-0.0631036,0.00666667
-0.0640973,0.00666667
0.0689983,0.00666667
-0.120156,0.00666667
-0.0877777,0.00666667
-0.00531138,0.00666667
-0.0211434,0.00666667
0.0356392,0.00666667
0.175931,0.00666667
-0.0898157,0.00666667
0.025214,0.00666667
0.157872,0.00666667
0.101496,0.00666667
0.0321578,0.00666667
0.0259259,0.00666667
0.0898074,0.00666667
0.153205,0.00666667
0.144928,0.00666667
-0.0538969,0.00666667
-0.0386668,0.00666667
-0.0776039,0.00666667
0.174322,0.00666667
0.070021,0.00666667
0.136332,0.00666667
0.0223403,0.00666667
0.123123,0.00666667
0.051331,0.00666667
0.00680537,0.00666667
0.0362741,0.00666667
0.0651233,0.00666667
-0.132715,0.00666667
0.0678072,0.00666667
-0.0181788,0.00666667
0.137588,0.00666667
0.0171396,0.00666667
-0.0975328,0.00666667
-0.0568102,0.00666667
0.0837043,0.00666667
0.0232056,0.00666667
-0.0107439,0.00666667
0.0598943,0.00666667
-0.1181,0.00666667
0.154821,0.00666667
0.0452312,0.00666667
0.00801225,0.00666667
0.111679,0.00666667
0.0412693,0.00666667
0.0824508,0.00666667
0.047201,0.00666667
0.0912625,0.00666667
0.164723,0.00666667
0.088952,0.00666667
-0.00354009,0.00666667
0.170105,0.00666667
0.0546455,0.00666667
-0.069813,0.00666667
0.064312,0.00666667
0.134325,0.00666667
-0.0167987,0.00666667
-0.128311,0.00666667
0.170459,0.00666667
-0.0295743,0.00666667
-0.119605,0.00666667
-0.0183926,0.00666667
0.121048,0.00666667
0.0455615,0.00666667
-0.0227271,0.00666667
-0.0305273,0.00666667
0.126249,0.00666667
0.0509133,0.00666667
0.0201511,0.00666667
-0.165415,0.00666667
0.0786748,0.00666667
-0.0778865,0.00666667
0.0349438,0.00666667
-0.0618019,0.00666667
-0.0265611,0.00666667
0.0925558,0.00666667
0.000222665,0.00666667
0.0273624,0.00666667
-0.0127234,0.00666667
0.0933823,0.00666667
-0.0810042,0.00666667
0.109122,0.00666667
-0.0908954,0.00666667
0.116021,0.00666667
-0.0822812,0.00666667
-0.0735108,0.00666667
-0.0865502,0.00666667
0.185151,0.00666667
-0.0294624,0.00666667
-0.00584623,0.00666667
0.0708264,0.00666667
0.0350253,0.00666667
-0.0643268,0.00666667
0.179137,0.00666667
0.0218233,0.00666667
0.0116176,0.00666667
-0.0834638,0.00666667
-0.0278969,0.00666667
-0.091491,0.00666667
0.137951,0.00666667
-0.0924262,0.00666667
0.0623166,0.00666667
-0.00988047,0.00666667
0.0608433,0.00666667
-0.00747778,0.00666667
-0.0342113,0.00666667
0.0457696,0.00666667
-0.0392445,0.00666667
-0.00226043,0.00666667
-0.00174083,0.00666667
0.144077,0.00666667
0.055045,0.00666667
0.0822323,0.00666667
-0.0662388,0.00666667
0.00375691,0.00666667
-0.0266921,0.00666667
-0.0740798,0.00666667
-0.0069244,0.00666667
0.0751302,0.00666667
0.191578,0.00666667
-0.057782,0.00666667
-0.044606,0.00666667
-0.245291,0.00666667
-0.0273551,0.00666667
-0.120319,0.00666667
0.0338518,0.00666667
0.102466,0.00666667
0.0371165,0.00666667
-0.122396,0.00666667
-0.00358417,0.00666667
0.061181,0.00666667
0.0420224,0.00666667
0.103258,0.00666667
0.081617,0.00666667
-0.0780954,0.00666667
-0.0148001,0.00666667
-0.0865883,0.00666667
-0.128176,0.00666667
0.138161,0.00666667
0.0477638,0.00666667
-0.0148513,0.00666667
0.0823508,0.00666667
-0.00389564,0.00666667
0.0107401,0.00666667
-0.114261,0.00666667
0.104706,0.00666667
0.127485,0.00666667
0.0443916,0.00666667
-0.106845,0.00666667
-0.204646,0.00666667
-0.0168429,0.00666667
0.073094,0.00666667
-0.145545,0.00666667
-0.0716385,0.00666667
-0.0434533,0.00666667
-0.0469734,0.00666667
-0.107905,0.00666667
0.0277202,0.00666667
0.0600837,0.00666667
0.0787005,0.00666667
0.00519155,0.00666667
0.0740434,0.00666667
-0.00470986,0.00666667
-0.0203006,0.00666667
0.0447869,0.00666667
0.0990207,0.00666667
0.0964986,0.00666667
0.0581137,0.00666667
0.0803152,0.00666667
-0.0885961,0.00666667
0.0576089,0.00666667
0.0821242,0.00666667
0.165735,0.00666667
-0.060147,0.00666667
-0.0269575,0.00666667
-0.0122763,0.00666667
-0.126786,0.00666667
-0.0512144,0.00666667
0.0266348,0.00666667
0.01507,0.00666667
-0.066582,0.00666667
0.0602316,0.00666667
0.0411865,0.00666667
-0.112863,0.00666667
-0.0801415,0.00666667
0.0142238,0.00666667
-0.00150652,0.00666667
-0.0616374,0.00666667
0.0109279,0.00666667
-0.00502127,0.00666667
0.111597,0.00666667
0.0218583,0.00666667
0.070101,0.00666667
-0.15759,0.00666667
0.164181,0.00666667
0.0239413,0.00666667
0.00475253,0.00666667
0.0639272,0.00666667
-0.0518325,0.00666667
-0.0984477,0.00666667
-0.0255935,0.00666667
-0.108334,0.00666667
-0.0641315,0.00666667
-0.0313461,0.00666667
0.109868,0.00666667
0.00435981,0.00666667
0.00384364,0.00666667
0.049842,0.00666667
-0.0347639,0.00666667
-0.129666,0.00666667
-0.0290118,0.00666667
-0.0207734,0.00666667
0.0085638,0.00666667
-0.12385,0.00666667
-0.162348,0.00666667
0.0580422,0.00666667
0.283998,0.00666667
0.0211146,0.00666667
-0.147094,0.00666667
0.152395,0.00666667
-0.0500875,0.00666667
0.0417646,0.00666667
0.131256,0.00666667
-0.118256,0.00666667
-0.100377,0.00666667
0.0462082,0.00666667
-0.00346474,0.00666667
0.00793447,0.00666667
0.11648,0.00666667
0.032971,0.00666667
0.124889,0.00666667
-0.00687588,0.00666667
0.0595957,0.00666667
-0.0627214,0.00666667
0.00163163,0.00666667
0.230659,0.00666667
-0.00531903,0.00666667
-0.132942,0.00666667
0.066831,0.00666667
-0.00337596,0.00666667
0.0479042,0.00666667
-0.185807,0.00666667
0.0535554,0.00666667
-0.0526114,0.00666667
-0.0782142,0.00666667
-0.00644861,0.00666667
-0.0826174,0.00666667
0.0317742,0.00666667
0.0345607,0.00666667
0.0833959,0.00666667
-0.171069,0.00666667
0.11639,0.00666667
-0.0404221,0.00666667
-0.0683726,0.00666667
-0.0767136,0.00666667
-0.10842,0.00666667
-0.0165951,0.00666667
-0.0708397,0.00666667
0.00596262,0.00666667
-0.0294066,0.00666667
0.176711,0.00666667
-0.0762733,0.00666667
-0.162766,0.00666667
0.000241504,0.00666667
0.0800941,0.00666667
-0.196252,0.00666667
-0.10822,0.00666667
-0.0468696,0.00666667
0.0645154,0.00666667
0.0892054,0.00666667
-0.173841,0.00666667
-0.0280299,0.00666667
0.037692,0.00666667
0.120965,0.00666667
0.0503535,0.00666667
-0.00792028,0.00666667
0.154174,0.00666667
0.0655399,0.00666667
-0.16292,0.00666667
0.0176743,0.00666667
0.0662972,0.00666667
-0.0555198,0.00666667
-0.018482,0.00666667
-0.119375,0.00666667
-0.0151205,0.00666667
0.0848439,0.00666667
0.00931576,0.00666667
0.0866693,0.00666667
0.03988,0.00666667
0.120339,0.00666667
0.0581957,0.00666667
0.103773,0.00666667
0.0263701,0.00666667
-0.0635027,0.00666667
0.108226,0.00666667
-0.0261392,0.00666667
-0.0442812,0.00666667
-0.00574678,0.00666667
-0.051035,0.00666667
0.0699504,0.00666667
0.0834791,0.00666667
-0.0133767,0.00666667
-0.0770649,0.00666667
-0.0711895,0.00666667
-0.189176,0.00666667
-0.0912015,0.00666667
-0.0103051,0.00666667
0.0888425,0.00666667
0.00582323,0.00666667
0.0614898,0.00666667
0.0656971,0.00666667
-0.0818558,0.00666667
-0.00865962,0.00666667
0.0658054,0.00666667
0.140351,0.00666667
0.107104,0.00666667
0.0658163,0.00666667
-0.00389386,0.00666667
0.0748482,0.00666667
0.00461353,0.00666667
0.0291884,0.00666667
0.0148054,0.00666667
0.0888146,0.00666667
-0.0666773,0.00666667
-0.108631,0.00666667
-0.133644,0.00666667
-0.0473793,0.00666667
-0.061502,0.00666667
-0.00750678,0.00666667
0.151186,0.00666667
0.126185,0.00666667
-0.156836,0.00666667
0.0152766,0.00666667
0.0363051,0.00666667
0.0336156,0.00666667
0.0243656,0.00666667
0.0131739,0.00666667
0.0635834,0.00666667
-0.0174425,0.00666667
0.208455,0.00666667
-0.0254587,0.00666667
-0.0676959,0.00666667
-0.0459128,0.00666667
-0.0194336,0.00666667
-0.132331,0.00666667
0.00986083,0.00666667
0.0420396,0.00666667
0.129686,0.00666667
0.0419894,0.00666667
-0.0427575,0.00666667
-0.000545471,0.00666667
-0.115493,0.00666667
-0.121516,0.00666667
0.0587351,0.00666667
0.0105286,0.00666667
0.0822037,0.00666667
0.0005571,0.00666667
0.033535,0.00666667
0.08966,0.00666667
0.0727775,0.00666667
0.0509122,0.00666667
0.125936,0.00666667
0.0694752,0.00666667
-0.110509,0.00666667
0.0320971,0.00666667
0.0433374,0.00666667
0.0507085,0.00666667
-0.0106044,0.00666667
0.0118956,0.00666667
-0.0447289,0.00666667
0.0282634,0.00666667
-0.0206255,0.00666667
-0.00538312,0.00666667
-0.0482643,0.00666667
0.0938092,0.00666667
0.0373171,0.00666667
0.0405369,0.00666667
0.0909338,0.00666667
-0.0898609,0.00666667
-0.0446175,0.00666667
0.111655,0.00666667
-0.185266,0.00666667
-0.0777131,0.00666667
0.0594768,0.00666667
0.0056651,0.00666667
0.016928,0.00666667
0.0359238,0.00666667
-0.143767,0.00666667
-0.00274243,0.00666667
0.0575935,0.00666667
0.165845,0.00666667
-0.0258966,0.00666667
-0.0393246,0.00666667
0.10912,0.00666667
0.0172998,0.00666667
-0.131492,0.00666667
0.0635455,0.00666667
-0.0967468,0.00666667
-0.028325,0.00666667
0.0122864,0.00666667
-0.0487976,0.00666667
-0.0557118,0.00666667
0.133681,0.00666667
0.119577,0.00666667
-0.00777185,0.00666667
-0.106286,0.00666667
0.0103504,0.00666667
-0.104873,0.00666667
0.0152583,0.00666667
-0.0995741,0.00666667
0.0483937,0.00666667
0.0354738,0.00666667
-0.00710752,0.00666667
-0.039813,0.00666667
-0.0864466,0.00666667
0.212851,0.00666667
-0.0937805,0.00666667
0.0733281,0.00666667
0.0349808,0.00666667
-0.208662,0.00666667
0.00625032,0.00666667
-0.104302,0.00666667
0.0916345,0.00666667
-0.0737925,0.00666667
0.010136,0.00666667
0.0137426,0.00666667
-0.115048,0.00666667
0.038216,0.00666667
0.13855,0.00666667
0.160483,0.00666667
-0.00546455,0.00666667
-0.0444753,0.00666667
-0.0896066,0.00666667
-0.0383466,0.00666667
-0.00559096,0.00666667
0.0377535,0.00666667
-0.0375286,0.00666667
0.0531873,0.00666667
-0.0167308,0.00666667
-0.010561,0.00666667
-0.0474692,0.00666667
0.00784558,0.00666667
-0.0957116,0.00666667
0.0871071,0.00666667
0.0471798,0.00666667
-0.0055401,0.00666667
-0.0673144,0.00666667
-0.0035452,0.00666667
0.16898,0.00666667
-0.0327291,0.00666667
0.11903,0.00666667
-0.143868,0.00666667
0.0157328,0.00666667
-0.0436354,0.00666667
-0.047613,0.00666667
-0.0335673,0.00666667
-0.0581103,0.00666667
-0.023745,0.00666667
-0.0153284,0.00666667
0.0464024,0.00666667
-0.101022,0.00666667
0.00350081,0.00666667
0.121422,0.00666667
0.0354641,0.00666667
0.0833536,0.00666667
0.0051751,0.00666667
-0.0142145,0.00666667
-0.0163799,0.00666667
-0.094233,0.00666667
-0.0905791,0.00666667
0.12336,0.00666667
0.0316728,0.00666667
0.153694,0.00666667
0.0166061,0.00666667
0.00119088,0.00666667
0.0606895,0.00666667
0.128216,0.00666667
-0.124914,0.00666667
0.195809,0.00666667
0.0792411,0.00666667
0.183416,0.00666667
0.11886,0.00666667
0.00163163,0.00666667
-0.215999,0.00666667
-0.00576779,0.00666667
-0.03385,0.00666667
-0.0588195,0.00666667
-0.0309357,0.00666667
0.0879865,0.00666667
0.079923,0.00666667
-0.0237882,0.00666667
0.155342,0.00666667
-0.0162486,0.00666667
-0.0451005,0.00666667
0.043632,0.00666667
0.0180793,0.00666667
-0.22474,0.00666667
0.0328048,0.00666667
0.0723225,0.00666667
0.188482,0.00666667
0.114555,0.00666667
-0.0512837,0.00666667
-0.0291179,0.00666667
-0.100382,0.00666667
0.0331512,0.00666667
-0.03042,0.00666667
0.0564228,0.00666667
-0.118562,0.00666667
0.00817802,0.00666667
0.0141171,0.00666667
0.0115971,0.00666667
-0.0454833,0.00666667
-0.0886398,0.00666667
-0.000886446,0.00666667
0.0472635,0.00666667
0.027245,0.00666667
-0.10003,0.00666667
0.0973652,0.00666667
-0.00232552,0.00666667
-0.0435421,0.00666667
0.0557576,0.00666667
-0.0494986,0.00666667
0.0205591,0.00666667
0.058185,0.00666667
-0.0261253,0.00666667
-0.10401,0.00666667
-0.0892996,0.00666667
-0.0548924,0.00666667
0.0894439,0.00666667
0.0774539,0.00666667
0.121058,0.00666667
0.0142977,0.00666667
-0.123904,0.00666667
-0.0670042,0.0135135
0.227069,0.0135135
-0.0923714,0.0135135
-0.0397894,0.0135135
-0.0840115,0.0135135
-0.029739,0.0135135
-0.0623055,0.0135135
0.00689948,0.0135135
0.0625833,0.0135135
-0.0709069,0.0135135
0.0703355,0.0135135
0.0853464,0.0135135
-0.0211884,0.0135135
0.00421291,0.0135135
-0.0200145,0.0135135
0.0468213,0.0135135
-0.0518303,0.0135135
0.171455,0.0135135
-0.00633916,0.0135135
0.0588402,0.0135135
0.121283,0.0135135
0.0322849,0.0135135
-0.194578,0.0135135
-0.0399009,0.0135135
0.116458,0.0135135
0.00386978,0.0135135
-0.0946803,0.0135135
0.139832,0.0135135
-0.188603,0.0135135
0.0149708,0.0135135
0.0122798,0.0135135
0.163057,0.0135135
0.223015,0.0135135
0.199275,0.0135135
-0.0622433,0.0135135
0.00855719,0.0135135
-0.0123194,0.0135135
0.0197684,0.0135135
0.122934,0.0135135
0.0125513,0.0135135
0.23791,0.0135135
0.195869,0.0135135
-0.0473463,0.0135135
0.193254,0.0135135
0.000462907,0.0135135
-0.0318669,0.0135135
-0.163898,0.0135135
-0.0176782,0.0135135
0.075555,0.0135135
0.0510365,0.0135135
0.0325508,0.0135135
-0.166694,0.0135135
0.187685,0.0135135
0.159435,0.0135135
-0.22365,0.0135135
-0.0513292,0.0135135
0.0770706,0.0135135
0.114263,0.0135135
-0.0148844,0.0135135
-0.20447,0.0135135
0.00712924,0.0135135
-0.156829,0.0135135
0.0462355,0.0135135
0.155891,0.0135135
0.0740663,0.0135135
0.0530527,0.0135135
-0.0370597,0.0135135
0.0295327,0.0135135
0.0717775,0.0135135
-0.0960599,0.0135135
0.0860673,0.0135135
0.0642588,0.0135135
0.0925414,0.0135135
-0.0359476,0.0135135
-0.159195,0.0135135
-0.00143143,0.0135135
-0.0651145,0.0135135
-0.0197167,0.0135135
-0.00998492,0.0135135
-0.217144,0.0135135
0.287425,0.0135135
0.0764789,0.0135135
0.136349,0.0135135
0.196243,0.0135135
-0.0160158,0.0135135
-0.140267,0.0135135
0.116264,0.0135135
0.218142,0.0135135
-0.142986,0.0135135
-0.132404,0.0135135
-0.0651754,0.0135135
-0.063545,0.0135135
-0.250938,0.0135135
0.0178729,0.0135135
-0.201974,0.0135135
-0.107249,0.0135135
-0.123441,0.0135135
-0.0725792,0.0135135
0.0708016,0.0135135
-0.163645,0.0135135
0.0214024,0.0135135
-0.185619,0.0135135
-0.0812978,0.0135135
-0.0135131,0.0135135
0.0711426,0.0135135
-0.248897,0.0135135
0.0738288,0.0135135
0.108328,0.0135135
-0.0970699,0.0135135
-0.159149,0.0135135
-0.0540603,0.0135135
0.0306712,0.0135135
-0.0547537,0.0135135
-0.0281287,0.0135135
-0.119441,0.0135135
-0.321658,0.0135135
0.103964,0.0135135
0.225067,0.0135135
0.0680536,0.0135135
0.0714954,0.0135135
-0.131021,0.0135135
0.000871147,0.0135135
-0.217175,0.0135135
-0.0486763,0.0135135
-0.133527,0.0135135
-0.101486,0.0135135
0.169613,0.0135135
0.22644,0.0135135
-0.0825243,0.0135135
-0.0910207,0.0135135
-0.0245919,0.0135135
0.00301876,0.0135135
0.00148574,0.0135135
0.116297,0.0135135
-0.0464391,0.0135135
-0.0358118,0.0135135
-0.0250995,0.0135135
-0.0835755,0.0135135
0.120866,0.0135135
-0.370964,0.0135135
-0.0512296,0.0135135
-0.021447,0.0135135
-0.0732695,0.0135135
-0.0460339,0.0135135
0.164923,0.0135135
-0.0618099,0.0135135
-0.0802998,0.0135135
0.019404,0.0135135
-0.301662,0.0135135
0.183435,0.0135135
-0.130183,0.0135135
-0.18906,0.0135135
0.105588,0.0135135
0.0533017,0.0135135
-0.273328,0.0135135
0.0107735,0.0135135
0.204712,0.0135135
0.0956208,0.0135135
0.0703787,0.0135135
-0.0822142,0.0135135
-0.168948,0.0135135
0.0327691,0.0135135
0.141142,0.0135135
-0.180874,0.0135135
-0.172252,0.0135135
-0.0282818,0.0135135
-0.0231345,0.0135135
-0.172157,0.0135135
-0.0640903,0.0135135
0.0427268,0.0135135
0.0864274,0.0135135
-0.0661291,0.0135135
0.0716497,0.0135135
-0.0717505,0.0135135
-0.0900281,0.0135135
0.0605779,0.0135135
0.14185,0.0135135
-0.057711,0.0135135
0.132195,0.0135135
-0.035865,0.0135135
-0.0586438,0.0135135
-0.085538,0.0135135
-0.11848,0.0135135
-0.0173645,0.0135135
-0.113449,0.0135135
-0.0910639,0.0135135
-0.000662797,0.0135135
0.0934837,0.0135135
-0.0443361,0.0135135
-0.014845,0.0135135
-0.0883506,0.0135135
-0.087854,0.0135135
0.10033,0.0135135
0.0624989,0.0135135
0.00478827,0.0135135
0.0688919,0.0135135
-0.121093,0.0135135
-0.130224,0.0135135
-0.0701565,0.0135135
-0.0383783,0.0135135
-0.166357,0.0135135
-0.0739239,0.0135135
-0.0433722,0.0135135
0.0888611,0.0135135
-0.101582,0.0135135
0.129515,0.0135135
-0.0188957,0.0135135
0.0257923,0.0135135
0.0478529,0.0135135
-0.0982558,0.0135135
0.0627025,0.0135135
0.134839,0.0135135
0.221579,0.0135135
-0.0870951,0.0135135
0.00217234,0.0135135
-0.00663065,0.0135135
-0.0259908,0.0135135
-0.035027,0.0135135
-0.0322634,0.0135135
-0.0966991,0.0135135
0.0119192,0.0135135
-0.0674499,0.0135135
-0.0662867,0.0135135
-0.0756337,0.0135135
0.0773138,0.0135135
0.159087,0.0135135
0.100141,0.0135135
-0.0363616,0.0135135
0.109606,0.0135135
0.110229,0.0135135
-0.023461,0.0135135
0.00106858,0.0135135
-0.0330876,0.0135135
-0.0586791,0.0135135
-0.00204283,0.0135135
0.0458943,0.0135135
0.076991,0.0135135
0.0287738,0.0135135
0.0488962,0.0135135
0.111414,0.0135135
0.0341774,0.0135135
0.157134,0.0135135
0.0518236,0.0135135
0.131421,0.0135135
-0.240363,0.0135135
0.0909811,0.0135135
-0.284965,0.0135135
0.138921,0.0135135
-0.0329578,0.0135135
0.0414153,0.0135135
0.073206,0.0135135
-0.0334693,0.0135135
-0.0679668,0.0135135
0.0280993,0.0135135
0.0206877,0.0135135
0.0628313,0.0135135
0.062291,0.0135135
-0.0555164,0.0135135
0.0165621,0.0135135
-0.0514346,0.0135135
0.0124314,0.0135135
-0.178913,0.0135135
0.018709,0.0135135
-0.264124,0.0135135
0.0456332,0.0135135
-0.00983599,0.0135135
-0.160477,0.0135135
-0.19139,0.0135135
0.100906,0.0135135
-0.168007,0.0135135
-0.000526872,0.0135135
0.190416,0.0135135
-0.0277586,0.0135135
0.0870658,0.0135135
0.0781609,0.0135135
-0.0689566,0.0135135
0.101493,0.0135135
-0.126954,0.0135135
-0.13467,0.0135135
-0.257261,0.0135135
-0.0240186,0.0135135
-0.0735573,0.0135135
-0.0320401,0.0135135
-0.0527899,0.0135135
-0.105545,0.0135135
0.146285,0.0135135
-0.109458,0.0135135
0.0765745,0.0135135
0.0588549,0.0135135
-0.0338,0.0135135
-0.169774,0.0135135
-0.141375,0.0135135
0.164982,0.0135135
0.0384025,0.0135135
0.228689,0.0135135
0.195933,0.0135135
-0.179097,0.0135135
0.188917,0.0135135
0.072969,0.0135135
0.176356,0.0135135
0.0728135,0.0135135
0.143076,0.0135135
-0.226151,0.0135135
-0.0219971,0.0135135
0.0479159,0.0135135
-0.11843,0.0135135
0.0694446,0.0135135
-0.150103,0.0135135
0.0280852,0.0135135
0.0696654,0.0135135
0.16682,0.0135135
-0.14845,0.0135135
0.064687,0.0135135
0.0346677,0.0135135
-0.0299976,0.0135135
0.0107102,0.0135135
-0.0774005,0.0135135
0.136313,0.0135135
0.00176256,0.0135135
-0.0202811,0.0135135
-0.225394,0.0135135
0.0513138,0.0135135
0.206162,0.0135135
-0.0355749,0.0135135
0.047532,0.0135135
-0.0326289,0.0135135
-0.0565085,0.0135135
0.0385213,0.0135135
0.0720786,0.0135135
-0.0179673,0.0135135
-0.194056,0.0135135
-0.0513888,0.0135135
-0.176074,0.0135135
0.167277,0.0135135
0.0757843,0.0135135
-0.122974,0.0135135
0.0554495,0.0135135
-0.00228649,0.0135135
-0.129895,0.0135135
0.0950335,0.0135135
0.0627868,0.0135135
-0.0656429,0.0135135
-0.127795,0.0135135
-0.0397897,0.0135135
0.00347099,0.0135135
0.0120828,0.0135135
-0.0457775,0.0135135
-0.0897872,0.0135135
0.121191,0.0135135
-0.135767,0.0135135
0.227831,0.0135135
-0.0159403,0.0135135
0.136947,0.0135135
-0.0384146,0.0135135
-0.0717953,0.0135135
0.0860807,0.0135135
-0.147633,0.0135135
0.0266973,0.0135135
-0.0475216,0.0135135
-0.0975477,0.0135135
-0.172845,0.0135135
0.140364,0.0135135
0.0765993,0.0135135
0.0479409,0.0135135
0.0934538,0.0135135
0.115928,0.0135135
0.168488,0.0135135
0.126623,0.0135135
0.00680553,0.0135135
-0.104476,0.0135135
0.0154372,0.0135135
0.175949,0.0135135
0.0451339,0.0135135
-0.034397,0.0135135
0.145019,0.0135135
-0.0435617,0.0135135
-0.195504,0.0135135
-0.0341646,0.0135135
-0.0416589,0.0135135
-0.11414,0.0135135
-0.0277567,0.0135135
0.00315211,0.0135135
0.0774553,0.0135135
0.178158,0.0135135
0.0570907,0.0135135
0.0228312,0.0135135
-0.115826,0.0135135
-0.0491936,0.0135135
0.12658,0.0135135
-0.0635199,0.0135135
-0.0368148,0.0135135
0.0231298,0.0135135
-0.0151062,0.0135135
0.0837657,0.0135135
0.094656,0.0135135
-0.0943137,0.0135135
-0.0347462,0.0135135
-0.220444,0.0135135
-0.0837513,0.0135135
-0.128468,0.0135135
-0.164621,0.0135135
-0.182486,0.0135135
0.0988195,0.0135135
0.0862113,0.0135135
0.0432355,0.0135135
-0.0816057,0.0135135
-0.0649814,0.0135135
0.10691,0.0135135
0.0230638,0.0135135
0.131163,0.0135135
0.127689,0.0135135
-0.128555,0.0135135
0.0320303,0.0135135
0.0731828,0.0135135
0.0662555,0.0135135
0.000890929,0.0135135
-0.0117407,0.0135135
0.0970244,0.0135135
0.0863617,0.0135135
-0.0763168,0.0135135
-0.197005,0.0135135
0.0439016,0.0135135
0.0369346,0.0135135
0.119126,0.0135135
-0.00716469,0.0135135
0.0421538,0.0135135
0.126825,0.0135135
0.00842571,0.0135135
-0.140168,0.0135135
0.0652052,0.0135135
-0.0586837,0.0135135
-0.0285573,0.0135135
0.0500969,0.0135135
-0.0775754,0.0135135
-0.153632,0.0135135
0.0773927,0.0135135
0.203759,0.0135135
0.135428,0.0135135
-0.0388136,0.0135135
0.0386287,0.0135135
-0.00169078,0.0135135
0.0230882,0.0135135
0.0887535,0.0135135
0.262786,0.0135135
-0.0494247,0.0135135
-0.00315349,0.0135135
0.000785241,0.0135135
-0.0781593,0.0135135
-0.123205,0.0135135
-0.0579127,0.0135135
-0.16929,0.0135135
-0.0628565,0.0135135
-0.0559276,0.0135135
-0.045988,0.0135135
-0.0363437,0.0135135
0.1179,0.0135135
-0.0664778,0.0135135
0.0582935,0.0135135
0.0799303,0.0135135
-0.0696522,0.0135135
-0.192328,0.0135135
0.0373144,0.0135135
-0.262523,0.0135135
0.0841486,0.0135135
-0.0612957,0.0135135
-0.0115517,0.0135135
0.0017024,0.0135135
0.122907,0.0135135
0.128832,0.0135135
-0.125095,0.0135135
-0.149967,0.0135135
0.0794888,0.0135135
0.094986,0.0135135
-0.114744,0.0135135
0.023613,0.0135135
0.163023,0.0135135
0.286265,0.0135135
0.0785853,0.0135135
0.0841439,0.0135135
-0.0236887,0.0135135
-0.0042481,0.0135135
0.0397836,0.0135135
-0.209043,0.0135135
0.0648999,0.0135135
0.0286195,0.0135135
0.0210982,0.0135135
-0.0900992,0.0135135
0.00973979,0.0135135
0.146448,0.0135135
0.0497987,0.0135135
-0.0357715,0.0135135
-0.0722514,0.0135135
-0.156744,0.0135135
-0.00524141,0.0135135
-0.0658117,0.0135135
0.0259128,0.0135135
-0.0057012,0.0135135
0.039383,0.0135135
0.0173861,0.0135135
0.123952,0.0135135
0.00101707,0.0135135
0.166326,0.0135135
-0.0584491,0.0135135
0.0651095,0.0135135
0.0475059,0.0135135
-0.139636,0.0135135
-0.354798,0.0135135
0.0311608,0.0135135
0.167794,0.0135135
-0.146377,0.0135135
-0.0826149,0.0135135
0.0644953,0.0135135
-0.0550606,0.0135135
-0.0369859,0.0135135
-0.00750402,0.0135135
-0.109489,0.0135135
-0.246417,0.0135135
-0.0866266,0.0135135
-0.093571,0.0135135
-0.257319,0.0135135
-0.0225539,0.0135135
-0.112839,0.0135135
0.0665292,0.0135135
-0.128109,0.0135135
-0.0632345,0.0135135
0.0440573,0.0135135
0.0174513,0.0135135
-0.0637316,0.0135135
0.0185975,0.0135135
-0.173481,0.0135135
-0.00764462,0.0135135
0.011648,0.0135135
-0.0754117,0.0135135
0.128513,0.0135135
0.153169,0.0135135
-0.139862,0.0135135
0.00312365,0.0135135
-0.101817,0.0135135
-0.117634,0.0135135
0.162704,0.0135135
0.0746802,0.0135135
0.0128524,0.0135135
0.171455,0.0135135
0.122483,0.0135135
-0.259095,0.0135135
0.157209,0.0135135
-0.0782582,0.0135135
0.121949,0.0135135
-0.165623,0.0135135
-0.0501995,0.0135135
-0.127777,0.0135135
-0.0848281,0.0135135
0.133713,0.0135135
0.0301126,0.0135135
-0.0664921,0.0135135
-0.122723,0.0135135
-0.164637,0.0135135
-0.0199703,0.0135135
0.119946,0.0135135
-0.0167087,0.0135135
-0.145883,0.0135135
-0.0963122,0.0135135
-0.0790113,0.0135135
0.203767,0.0135135
0.0326868,0.0135135
0.041316,0.0135135
0.247954,0.0135135
0.0812611,0.0135135
0.00217817,0.0135135
0.131951,0.0135135
0.0852847,0.0135135
0.0138063,0.0135135
0.0747014,0.0135135
-0.0586322,0.0135135
0.052682,0.0135135
0.0252568,0.0135135
0.234552,0.0135135
0.028251,0.0135135
-0.0648685,0.0135135
0.355548,0.0135135
-0.0461566,0.0135135
0.0135756,0.0135135
0.160313,0.0135135
-0.0477242,0.0135135
-0.0361577,0.0135135
-0.0680932,0.0135135
-0.118451,0.0135135
0.0487721,0.0135135
0.0906763,0.0135135
-0.0239148,0.0135135
-0.138863,0.0135135
-0.102448,0.0135135
0.00267819,0.0135135
0.0234693,0.0135135
0.107826,0.0135135
0.232608,0.0135135
0.0152361,0.0135135
-0.152017,0.0135135
0.0559938,0.0135135
0.132416,0.0135135
-0.132868,0.0135135
-0.0104169,0.0135135
0.292095,0.0135135
0.21473,0.0135135
-0.0665027,0.0135135
-0.0666858,0.0135135
0.190328,0.0135135
-0.00896115,0.0135135
-0.0573599,0.0135135
0.00922668,0.0135135
-0.0176657,0.0135135
-0.041935,0.0135135
-0.0664384,0.0135135
-0.000426835,0.0135135
0.0277571,0.0135135
-0.0907844,0.0135135
0.0659883,0.0135135
-0.0509709,0.0135135
0.0298069,0.0135135
0.172506,0.0135135
-0.0631327,0.0135135
0.0910508,0.0135135
0.137146,0.0135135
0.0249033,0.0135135
0.113141,0.0135135
-0.0936821,0.0135135
0.0584625,0.0135135
0.0608223,0.0135135
-0.106032,0.0135135
-0.123121,0.0135135
-0.210567,0.0135135
-0.035105,0.0135135
-0.0512021,0.0135135
-0.0386412,0.0135135
0.145545,0.0135135
0.145311,0.0135135
0.0380905,0.0135135
0.381182,0.0135135
-0.0147436,0.0135135
-0.0779547,0.0135135
0.193511,0.0135135
-0.00963309,0.0135135
0.203681,0.0135135
0.0946339,0.0135135
-0.105441,0.0135135
0.0447119,0.0135135
0.0728431,0.0135135
0.154126,0.0135135
0.0485605,0.0135135
0.0548384,0.0135135
-0.0654178,0.0135135
-0.0811813,0.0135135
-0.125526,0.0135135
-0.0381605,0.0135135
0.11989,0.0135135
-0.114313,0.0135135
-0.0490171,0.0135135
-0.0352363,0.0135135
-0.0210337,0.0135135
0.0860777,0.0135135
-0.127183,0.0135135
0.0441303,0.0135135
-0.162177,0.0135135
-0.131988,0.0135135
0.013774,0.0135135
0.150438,0.0135135
-0.062964,0.0135135
-0.167945,0.0135135
0.0163939,0.0135135
-0.00072523,0.0135135
-0.102891,0.0135135
-0.138219,0.0135135
-0.189154,0.0135135
-0.0469151,0.0135135
0.212193,0.0135135
-0.110545,0.0135135
-0.104836,0.0135135
-0.0130478,0.0135135
0.0186366,0.0135135
-0.156571,0.0135135
-0.0384974,0.0135135
0.178941,0.0135135
0.0345157,0.0135135
-0.0476808,0.0135135
-0.0659353,0.0135135
-0.0247811,0.0135135
-0.124501,0.0135135
-0.00535059,0.0135135
0.232402,0.0135135
0.0800764,0.0135135
0.0977985,0.0135135
-0.0677874,0.0135135
-0.134971,0.0135135
0.0636905,0.0135135
0.0792108,0.0135135
-0.12964,0.0135135
-0.201937,0.0135135
0.0535951,0.0135135
0.070807,0.0135135
-0.062358,0.0135135
-0.0119701,0.0135135
-0.0119841,0.0135135
-0.0591533,0.0135135
0.00275742,0.0135135
0.186361,0.0135135
0.0422307,0.0135135
0.18146,0.0135135
0.187927,0.0135135
-0.0223586,0.0135135
0.0117082,0.0135135
-0.0616369,0.0135135
-0.184209,0.0135135
-0.03842,0.0135135
-0.302341,0.0135135
-0.105384,0.0135135
0.110485,0.0135135
0.029597,0.0135135
-0.0488648,0.0135135
0.290648,0.0135135
-0.048823,0.0135135
-0.166606,0.0135135
-0.161696,0.0135135
0.0354456,0.0135135
0.146651,0.0135135
0.138551,0.0135135
-0.265094,0.0135135
0.0896533,0.0135135
0.0523562,0.0135135
-0.0887211,0.0135135
-0.0802672,0.0135135
0.15432,0.0135135
-0.15131,0.0135135
0.167179,0.0135135
-0.0623629,0.0135135
-0.0382112,0.0135135
-0.106312,0.0135135
-0.153858,0.0135135
0.153509,0.0135135
0.0271548,0.0135135
-0.0690154,0.0135135
0.215256,0.0135135
0.102253,0.0135135
-0.203774,0.0135135
-0.131711,0.0135135
-0.0322721,0.0135135
-0.114917,0.0135135
-0.0688646,0.0135135
0.0742938,0.0135135
0.00893742,0.0135135
0.0172978,0.0135135
-0.0396054,0.0135135
0.0663545,0.0135135
0.0939078,0.0135135
-0.129714,0.0135135
0.15453,0.0135135
-0.0219993,0.0135135
0.17059,0.0135135
-0.145513,0.0135135
0.17782,0.0135135
0.0267418,0.0135135
0.1699,0.0135135
0.141068,0.0135135
0.0717957,0.0135135
-0.16018,0.0135135
-0.0654653,0.0135135
0.0440998,0.0135135
-0.107028,0.0135135
-0.0871611,0.0135135
0.103568,0.0135135
-0.104433,0.0135135
0.00617255,0.0135135
0.061024,0.0135135
0.067091,0.0135135
0.0786013,0.0135135
0.0868472,0.0135135
0.272019,0.0135135
-0.123816,0.0135135
0.16509,0.0135135
-0.114349,0.0135135
-0.053685,0.0135135
-0.0435609,0.0135135
-0.0189893,0.0135135
0.00390533,0.0135135
0.0548483,0.0135135
-0.0609389,0.0135135
-0.024743,0.0135135
-0.0401851,0.0135135
0.0899744,0.0135135
0.179294,0.0135135
-0.166749,0.0135135
0.304348,0.0135135
-0.139939,0.0135135
-0.107638,0.0135135
-0.0712934,0.0135135
-0.0833635,0.0135135
0.0515553,0.0135135
0.181599,0.0135135
-0.0630678,0.0135135
-0.0882581,0.0135135
0.0863823,0.0135135
0.227344,0.0135135
0.00471873,0.0135135
-0.0903037,0.0135135
-0.0389634,0.0135135
-0.124496,0.0135135
0.0335219,0.0135135
-0.055725,0.0135135
-0.114604,0.0135135
0.181637,0.0135135
0.0164442,0.0135135
-0.0516179,0.0135135
-0.146576,0.0135135
0.248277,0.0135135
-0.151229,0.0135135
0.0462768,0.0135135
0.107124,0.0135135
-0.0803275,0.0135135
-0.0809486,0.0135135
0.0670261,0.0135135
0.0978607,0.0135135
-0.0163398,0.0135135
-0.0515376,0.0135135
-0.20414,0.0135135
0.22886,0.0135135
0.0108513,0.0135135
-0.0576142,0.0135135
-0.0223523,0.0135135
-0.0695208,0.0135135
-0.0960781,0.0135135
0.0368514,0.0135135
0.0855153,0.0135135
-0.162199,0.0135135
0.0548443,0.0135135
0.160576,0.0135135
-0.0372156,0.0135135
0.00872683,0.0135135
0.125773,0.0135135
0.155576,0.0135135
0.0228378,0.0135135
-0.228367,0.0135135
0.0707313,0.0135135
-0.0868031,0.0135135
0.227583,0.0135135
0.0911525,0.0135135
-0.187559,0.0135135
-0.000401727,0.0135135
-0.130654,0.0135135
0.108235,0.0135135
-0.0225001,0.0135135
0.0180294,0.0135135
-0.212132,0.0135135
-0.00799308,0.0135135
-0.220235,0.0135135
0.0647761,0.0135135
0.019506,0.0135135
0.0454534,0.0135135
0.0846586,0.0135135
0.10875,0.0135135
0.244423,0.0135135
-0.00497862,0.0135135
0.0794196,0.0135135
0.0416125,0.0135135
-0.0989846,0.0135135
0.132551,0.0135135
-0.171594,0.0135135
0.0361526,0.0135135
-0.16228,0.0135135
-0.169696,0.0135135
-0.137886,0.0135135
-0.0500714,0.0135135
-0.088581,0.0135135
0.0694764,0.0135135
-0.185081,0.0135135
0.0409202,0.0135135
0.0399457,0.0135135
0.0200754,0.0135135
0.00568828,0.0135135
0.0877346,0.0135135
0.014992,0.0135135
-0.143673,0.0135135
0.0644761,0.0135135
-0.130742,0.0135135
0.327034,0.0135135
-0.0979184,0.0135135
0.0103595,0.0135135
-0.0248878,0.0135135
-0.0162044,0.0135135
-0.169444,0.0135135
-0.13054,0.0135135
-0.083512,0.0135135
-0.118294,0.0135135
-0.00640424,0.0135135
-0.000641254,0.0135135
0.0158271,0.0135135
0.0599569,0.0135135
0.00294063,0.0135135
-0.0334147,0.0135135
-0.00620841,0.0135135
-0.0245547,0.0135135
-0.225274,0.0135135
0.0453469,0.0135135
0.126898,0.0135135
-0.10359,0.0135135
0.195726,0.0135135
-0.0974061,0.0135135
-0.123407,0.0135135
0.0977133,0.0135135
0.00426036,0.0135135
-0.0177439,0.0135135
-0.000367963,0.0135135
0.237023,0.0135135
0.150188,0.0135135
0.261168,0.0135135
0.244542,0.0135135
0.215991,0.0135135
0.0808412,0.0135135
0.0960533,0.0135135
-0.0854966,0.0135135
-0.0944856,0.0135135
0.053682,0.0135135
-0.0762528,0.0135135
-0.0850056,0.0135135
-0.178205,0.0135135
-0.103572,0.0135135
-0.0763098,0.0135135
-0.127607,0.0135135
-0.013313,0.0135135
0.00858575,0.0135135
0.10272,0.0135135
-0.107339,0.0135135
-0.262266,0.0135135
0.154038,0.0135135
-0.0622561,0.0135135
0.0980583,0.0135135
-0.279976,0.0135135
-0.055877,0.0135135
-0.0063708,0.0135135
-0.129489,0.0135135
0.0465547,0.0135135
-1.90731e-05,0.0135135
-0.136635,0.0135135
0.132803,0.0135135
-0.206802,0.0135135
0.157683,0.0135135
0.0646161,0.0135135
0.00925202,0.0135135
-0.0068007,0.0135135
-0.0189254,0.0135135
0.130057,0.0135135
0.222874,0.0135135
0.0119837,0.0135135
-0.0568985,0.0135135
0.0927092,0.0135135
0.0353596,0.0135135
-0.0668326,0.0135135
-0.0856586,0.0135135
-0.11306,0.0135135
0.238669,0.0135135
0.298264,0.0135135
-0.0440353,0.0135135
0.0170886,0.0135135
-0.0355686,0.0135135
0.216368,0.0135135
0.121432,0.0135135
-0.0692318,0.0135135
0.0494839,0.0135135
0.120428,0.0135135
-0.0505498,0.0135135
0.056306,0.0135135
0.00864657,0.0135135
0.132035,0.0135135
0.0612736,0.0135135
-0.01768,0.0135135
0.0981651,0.0135135
-0.196067,0.0135135
-0.0159539,0.0135135
0.0293111,0.0135135
0.0256802,0.0135135
-0.024601,0.0135135
-0.0163658,0.0135135
-0.0567572,0.0135135
0.0872676,0.0135135
0.0094436,0.0135135
0.119132,0.0135135
-0.110962,0.0135135
0.123088,0.0135135
0.0872632,0.0135135
0.0510818,0.0135135
-0.289511,0.0135135
0.0170341,0.0135135
0.210889,0.0135135
-0.027626,0.0135135
0.0387262,0.0135135
-0.143118,0.0135135
-0.0202982,0.0135135
-0.00458132,0.0135135
0.198304,0.0135135
0.102249,0.0135135
0.0487783,0.0135135
0.107787,0.0135135
-0.0186223,0.0135135
0.00323612,0.0135135
0.1039,0.0135135
-0.0530678,0.0135135
0.128616,0.0135135
0.134444,0.0135135
0.00407677,0.0135135
0.0623785,0.0135135
0.155512,0.0135135
-0.0733178,0.0135135
0.147507,0.0135135
-0.00701671,0.0135135
0.0415631,0.0135135
-0.0401988,0.0135135
-0.169356,0.0135135
0.0914553,0.0135135
0.187153,0.0135135
0.0849955,0.0135135
-0.0339267,0.0135135
-0.0963918,0.0135135
-0.0415301,0.0135135
-0.106043,0.0135135
0.153789,0.0135135
0.0838052,0.0135135
0.00447307,0.0135135
0.0995016,0.0135135
-0.0639582,0.0135135
-0.0277317,0.0135135
-0.11029,0.0135135
0.0483936,0.0135135
0.0721318,0.0135135
-0.0181923,0.0135135
-0.00400376,0.0135135
-0.279804,0.0135135
-0.0737232,0.0135135
0.0732479,0.0135135
0.0120951,0.0135135
0.0381645,0.0135135
0.163618,0.0135135
-0.153621,0.0135135
0.148998,0.0135135
0.18573,0.0135135
-0.0852288,0.0135135
-0.0602015,0.0135135
0.123107,0.0135135
0.160942,0.0135135
-0.0969307,0.0135135
0.043996,0.0135135
0.0429583,0.0135135
-0.087154,0.0135135
-0.101143,0.0135135
0.0795616,0.0135135
-0.0393369,0.0135135
-0.0209026,0.0135135
-0.0358422,0.0135135
0.0542464,0.0135135
0.0694336,0.0135135
0.0275182,0.0135135
-0.181345,0.0135135
-0.00126495,0.0135135
-0.0219385,0.0135135
0.0428207,0.0135135
-0.172567,0.0135135
-0.15026,0.0135135
0.183901,0.0135135
0.168213,0.0135135
-0.113158,0.0135135
0.111357,0.0135135
-0.0362196,0.0135135
-0.21807,0.0135135
0.0911048,0.0135135
0.0684875,0.0135135
-0.136862,0.0135135
0.101289,0.0135135
0.115603,0.0135135
-0.0311239,0.0135135
0.0330972,0.0135135
0.165059,0.0135135
-0.0110868,0.0135135
0.0676694,0.0135135
-0.115164,0.0135135
-0.328183,0.0135135
-0.190734,0.0135135
0.104027,0.0135135
0.153985,0.0135135
0.0210892,0.0135135
-0.0573152,0.0135135
-0.147581,0.0135135
0.105513,0.0135135
0.0968217,0.0135135
0.00590168,0.0135135
0.0399725,0.0135135
0.022873,0.0135135
0.116352,0.0135135
0.155401,0.0135135
-0.158603,0.0135135
-0.0768722,0.0135135
-0.0439468,0.0135135
-0.0616105,0.0135135
-0.187366,0.0135135
-0.0112759,0.0135135
0.0600323,0.0135135
0.086066,0.0135135
-0.0198888,0.0135135
-0.137421,0.0135135
0.000252702,0.0135135
0.0363525,0.0135135
-0.091792,0.0135135
0.151259,0.0135135
-0.103842,0.0135135
0.0889358,0.0135135
-0.00473738,0.0135135
-0.0895784,0.0135135
-0.056413,0.0135135
0.207087,0.0135135
0.139824,0.0135135
-0.00244085,0.0135135
-0.125135,0.0135135
-0.139141,0.0135135
-0.0822655,0.0135135
-0.188297,0.0135135
-0.00267506,0.0135135
0.238595,0.0135135
0.0183182,0.0135135
-0.0362353,0.0135135
0.103651,0.0135135
0.121907,0.0135135
-0.0741359,0.0135135
0.165451,0.0135135
0.0936419,0.0135135
0.0933087,0.0135135
0.0127787,0.0135135
0.0740015,0.0135135
-0.139033,0.0135135
0.0316881,0.0135135
0.0997317,0.0135135
-0.146615,0.0135135
-0.104501,0.0135135
0.0884534,0.0135135
0.00217818,0.0135135
0.0367628,0.0135135
0.063632,0.0135135
0.238819,0.0135135
-0.112839,0.0135135
0.130337,0.0135135
-0.13731,0.0135135
0.11799,0.0135135
-0.131459,0.0135135
-0.0345003,0.0135135
-0.100695,0.0135135
-0.0673509,0.0135135
0.126458,0.0135135
-0.174914,0.0135135
-0.0356193,0.0135135
0.0378005,0.0135135
0.100312,0.0135135
0.263874,0.0135135
0.114411,0.0135135
0.255287,0.0135135
-0.0977217,0.0135135
-0.192505,0.0135135
0.0166953,0.0135135
-0.0599009,0.0135135
0.119732,0.0135135
-0.0741233,0.0135135
-0.105637,0.0135135
-0.0090569,0.0135135
-0.0292411,0.0135135
0.030311,0.0135135
0.00525272,0.0135135
-0.0503745,0.0135135
0.0103119,0.0135135
-0.109715,0.0135135
-0.142308,0.0135135
-0.148162,0.0135135
-0.0799936,0.0135135
0.155376,0.0135135
-0.00717107,0.0135135
0.0339609,0.0135135
-0.275116,0.0135135
-0.00751488,0.0135135
-0.0704422,0.0135135
-0.105248,0.0135135
-0.100575,0.0135135
-0.134986,0.0135135
0.132573,0.0135135
-0.0680087,0.0135135
-0.327827,0.0135135
0.0547611,0.0135135
-0.0468314,0.0135135
0.103744,0.0135135
0.0786522,0.0135135
-0.0643887,0.0135135
0.164591,0.0135135
0.0822672,0.0135135
0.138746,0.0135135
0.0614956,0.0135135
-0.117667,0.0135135
-0.0537386,0.0135135
0.113821,0.0135135
-0.111214,0.0135135
0.0797636,0.0135135
-0.0502251,0.0135135
-0.0224345,0.0135135
0.0389324,0.0135135
0.118969,0.0135135
0.144429,0.0135135
-0.235496,0.0135135
-0.132048,0.0135135
-0.140917,0.0135135
-0.0814896,0.0135135
-0.000827386,0.0135135
-0.0115867,0.0135135
-0.00178481,0.0135135
-0.0222183,0.0135135
-0.0324235,0.0135135
0.16831,0.0135135
0.101535,0.0135135
0.126525,0.0135135
0.0295578,0.0135135
-0.0027675,0.0135135
-0.0310128,0.0135135
0.0706029,0.0135135
-0.0102011,0.0135135
-0.0623731,0.0135135
-0.162532,0.0135135
-0.0305542,0.0135135
0.0796329,0.0135135
0.0689095,0.0135135
-0.153426,0.0135135
-0.00417612,0.0135135
0.0508806,0.0135135
-0.066742,0.0135135
0.14287,0.0135135
-0.147649,0.0135135
-0.0515367,0.0135135
0.0392214,0.0135135
0.113067,0.0135135
0.0345315,0.0135135
0.0633319,0.0135135
-0.140965,0.0135135
0.0932837,0.0135135
-0.154728,0.0135135
-0.0681188,0.0135135
-0.102073,0.0135135
-0.144379,0.0135135
-0.086206,0.0135135
0.151159,0.0135135
-0.0905313,0.0135135
0.106651,0.0135135
0.26863,0.0135135
-0.118113,0.0135135
-0.118528,0.0135135
-0.0877406,0.0135135
-0.110818,0.0135135
0.121453,0.0135135
-0.0803054,0.0135135
0.0501916,0.0135135
0.0875869,0.0135135
-0.0224527,0.0135135
-0.040052,0.0135135
0.232355,0.0135135
0.00318254,0.0135135
-0.208191,0.0135135
-0.129243,0.0135135
-0.12559,0.0135135
0.0521893,0.0135135
-0.107777,0.0135135
-0.122884,0.0135135
0.0891197,0.0135135
-0.125085,0.0135135
-0.204385,0.0135135
0.0188391,0.0135135
-0.0179656,0.0135135
0.0245986,0.0135135
0.0808485,0.0135135
0.0735424,0.0135135
0.0412791,0.0135135
-0.0602045,0.0135135
0.0533243,0.0135135
0.13749,0.0135135
0.14432,0.0135135
0.0166904,0.0135135
-0.145539,0.0135135
-0.0367504,0.0135135
-0.0546107,0.0135135
0.15802,0.0135135
-0.00629836,0.0135135
0.178233,0.0135135
-0.374062,0.0135135
-0.195008,0.0135135
0.185566,0.0135135
-0.00314801,0.0135135
-0.0696893,0.0135135
0.10941,0.0135135
-0.0624815,0.0135135
-0.07871,0.0135135
0.0188926,0.0135135
-0.07022,0.0135135
-0.0856333,0.0135135
0.1009,0.0135135
-0.0723711,0.0135135
-0.100986,0.0135135
-0.053885,0.0135135
0.1403,0.0135135
0.0261033,0.0135135
-0.169625,0.0135135
0.00784421,0.0135135
-0.0338369,0.0135135
-0.180731,0.0135135
0.0072769,0.0135135
-0.089049,0.0135135
0.110525,0.0135135
-0.0402292,0.0135135
0.0388628,0.0135135
0.0337712,0.0135135
0.0355975,0.0135135
-0.0108961,0.0135135
-0.0278027,0.0135135
-0.165495,0.0135135
-0.0813516,0.0135135
0.0552823,0.0135135
0.0416679,0.0135135
0.0376392,0.0135135
0.132386,0.0135135
0.104288,0.0135135
-0.239468,0.0135135
0.273484,0.0135135
-0.0347679,0.0135135
-0.156026,0.0135135
0.010494,0.0135135
-0.20953,0.0135135
-0.0200504,0.0135135
-0.0105385,0.0135135
-0.0534668,0.0135135
0.124044,0.0135135
0.0137491,0.0135135
0.113455,0.0135135
-0.0888606,0.0135135
-0.184873,0.0135135
-0.0401682,0.0135135
0.228084,0.0135135
-0.0216934,0.0135135
-0.0773959,0.0135135
0.0581408,0.0135135
0.158692,0.0135135
-0.126305,0.0135135
-0.192206,0.0135135
0.128779,0.0135135
0.0532947,0.0135135
-0.14831,0.0135135
-0.083784,0.0135135
0.0144641,0.0135135
0.0296168,0.0135135
-0.0511948,0.0135135
0.114074,0.0135135
0.0597152,0.0135135
-0.141889,0.0135135
0.107937,0.0135135
-0.0302972,0.0135135
0.0634015,0.0135135
0.022863,0.0135135
-0.109075,0.0135135
0.0335024,0.0135135
0.116603,0.0135135
0.0395419,0.0135135
-0.0889653,0.0135135
-0.0993769,0.0135135
0.0732107,0.0135135
0.0644278,0.0135135
0.129297,0.0135135
-0.0493314,0.0135135
0.177702,0.0135135
-0.0181507,0.0135135
0.0526052,0.0135135
0.0919409,0.0135135
-0.0125387,0.0135135
0.10396,0.0135135
-0.0838545,0.0135135
0.0841496,0.0135135
0.0456272,0.0135135
0.24661,0.0135135
-0.0986309,0.0135135
-0.065518,0.0135135
0.113265,0.0135135
0.0222193,0.0135135
-0.2567,0.0135135
0.30183,0.0135135
-0.18474,0.0135135
-0.105675,0.0135135
-0.145171,0.0135135
-0.0188407,0.0135135
0.120784,0.0135135
0.0432953,0.0135135
0.278471,0.0135135
0.110445,0.0135135
-0.0390936,0.0135135
-0.0701411,0.0135135
0.0309649,0.0135135
0.0903194,0.0135135
0.0652358,0.0135135
-0.149476,0.0135135
0.0852182,0.0135135
0.0458696,0.0135135
0.0674887,0.0135135
-0.026837,0.0135135
-0.150769,0.0135135
-0.149697,0.0135135
-0.0471403,0.0135135
-0.0487882,0.0135135
0.158636,0.0135135
0.0249587,0.0135135
0.0690762,0.0135135
0.0666922,0.0135135
0.154504,0.0135135
0.0828888,0.0135135
-0.112638,0.0135135
-0.107426,0.0135135
-0.183203,0.0135135
0.0774735,0.0135135
0.0794303,0.0135135
-0.022877,0.0135135
-0.0206755,0.0135135
0.209496,0.0135135
0.000517712,0.0135135
0.040536,0.0135135
-0.00907456,0.0135135
0.0862294,0.0135135
0.303374,0.0135135
0.133617,0.0135135
0.0483031,0.0135135
0.141328,0.0135135
-0.0761492,0.0135135
-0.11297,0.0135135
0.0487765,0.0135135
0.0033463,0.0135135
0.150058,0.0135135
-0.0266086,0.0135135
-0.0438376,0.0135135
0.143487,0.0135135
-0.0532103,0.0135135
-0.0984659,0.0135135
-0.268042,0.0135135
-0.0298375,0.0135135
-0.0327201,0.0135135
0.100581,0.0135135
-0.073631,0.0135135
-0.143034,0.0135135
0.0631796,0.0135135
-0.061076,0.0135135
0.185509,0.0135135
0.167084,0.0135135
0.148721,0.0135135
-0.116507,0.0135135
-0.139848,0.0135135
0.082483,0.0135135
0.0336203,0.0135135
0.0919242,0.0135135
0.024419,0.0135135
-0.0392538,0.0135135
0.0389315,0.0135135
0.0282676,0.0135135
-0.147363,0.0135135
0.0642895,0.0135135
-0.0756351,0.0135135
0.146419,0.0135135
-0.0673923,0.0135135
0.041373,0.0135135
0.00732001,0.0135135
0.182552,0.0135135
0.0374913,0.0135135
-0.0175415,0.0135135
0.0654454,0.0135135
0.0362839,0.0135135
0.189038,0.0135135
-0.00152567,0.0135135
0.0116067,0.0135135
0.0466811,0.0135135
0.0959563,0.0135135
0.159584,0.0135135
-0.0770656,0.0135135
0.0794418,0.0135135
-0.0408324,0.0135135
0.0952635,0.0135135
0.146041,0.0135135
0.122677,0.0135135
-0.0312074,0.0135135
-0.00372554,0.0135135
-0.223989,0.0135135
0.0197942,0.0135135
0.0662471,0.0135135
-0.122847,0.0135135
0.0872563,0.0135135
0.28338,0.0135135
-0.0680021,0.0135135
-0.042702,0.0135135
-0.0322585,0.0135135
-0.120681,0.0135135
-0.0759945,0.0135135
0.173451,0.0135135
-0.0132648,0.0135135
-0.0176193,0.0135135
-0.190263,0.0135135
-0.102696,0.0135135
0.04223,0.0135135
-0.0555897,0.0135135
-0.136166,0.0135135
0.0122301,0.0135135
0.00118471,0.0135135
-0.0294486,0.0135135
0.0421733,0.0135135
0.0310237,0.0135135
0.134792,0.0135135
-0.208535,0.0135135
0.202473,0.0135135
-0.141299,0.0135135
-0.110952,0.0135135
0.31765,0.0135135
0.0451633,0.0135135
0.0485156,0.0135135
-0.244579,0.0135135
0.0510225,0.0135135
0.0284436,0.0135135
-0.153982,0.0135135
0.120361,0.0135135
-0.0107058,0.0135135
0.0204828,0.0135135
0.325365,0.0135135
0.0057241,0.0135135
0.0245651,0.0135135
0.20266,0.0135135
-0.0253221,0.0135135
0.0820633,0.0135135
-0.0213707,0.0135135
-0.043204,0.0135135
0.0503502,0.0135135
-0.0995938,0.0135135
0.202781,0.0135135
-0.0486548,0.0135135
0.131974,0.0135135
0.141515,0.0135135
0.0263008,0.0135135
0.015469,0.0135135
0.156603,0.0135135
0.0454443,0.0135135
0.0623895,0.0135135
-0.0114065,0.0135135
0.016637,0.0135135
0.100282,0.0135135
-0.0706998,0.0135135
-0.244022,0.0135135
-0.00313917,0.0135135
0.0111034,0.0135135
0.0357994,0.0135135
-0.00990274,0.0135135
-0.0483673,0.0135135
-0.0182927,0.0135135
-0.0171694,0.0135135
0.15739,0.0135135
0.0668705,0.0135135
-0.0579771,0.0135135
-0.0903303,0.0135135
0.022471,0.0135135
-0.00564617,0.0135135
-0.150601,0.0135135
-0.0517508,0.0135135
0.0217909,0.0135135
0.046487,0.0135135
-0.0612785,0.0135135
-0.172307,0.0135135
0.0537583,0.0135135
0.166599,0.0135135
0.081875,0.0135135
0.0199537,0.0135135
-0.112623,0.0135135
-0.0160106,0.0135135
0.0233906,0.0135135
0.194317,0.0135135
-0.213273,0.0135135
0.257527,0.0135135
0.10003,0.0135135
0.0844375,0.0135135
-0.157518,0.0135135
-0.0277109,0.0135135
0.207339,0.0135135
0.0652822,0.0135135
-0.0634205,0.0135135
-0.0270605,0.0135135
-0.0955056,0.0135135
-0.002837,0.0135135
0.0774264,0.0135135
0.0257082,0.0135135
0.1446,0.0135135
-0.130037,0.0135135
-0.0271098,0.0135135
-0.16843,0.0135135
-0.0229646,0.0135135
0.100552,0.0135135
-0.149395,0.0135135
-0.215466,0.0135135
0.0372785,0.0135135
-0.125115,0.0135135
0.0914026,0.0135135
0.150789,0.0135135
0.185087,0.0135135
0.103148,0.0135135
-0.0332485,0.0135135
-0.112693,0.0135135
0.00634353,0.0135135
-0.116016,0.0135135
0.130853,0.0135135
0.10658,0.0135135
0.092107,0.0135135
0.106879,0.0135135
0.283538,0.0135135
-0.181529,0.0135135
0.120026,0.0135135
0.00896958,0.0135135
-0.149617,0.0135135
0.0587638,0.0135135
-0.0424582,0.0135135
0.0887636,0.0135135
0.157387,0.0135135
-0.0405816,0.0135135
-0.105646,0.0135135
0.0733518,0.0135135
0.00853598,0.0135135
0.0802161,0.0135135
0.121164,0.0135135
0.112904,0.0135135
-0.113561,0.0135135
0.0739502,0.0135135
-0.0746176,0.0135135
0.0228963,0.0135135
0.117868,0.0135135
0.0235308,0.0135135
0.0369503,0.0135135
0.0374623,0.0135135
-0.0693432,0.0135135
0.150384,0.0135135
-0.0251428,0.0135135
-0.0788556,0.0135135
0.00269991,0.0135135
-0.0537091,0.0135135
0.0475263,0.0135135
-0.0272219,0.0135135
-0.178908,0.0135135
0.16399,0.0135135
0.0295499,0.0135135
-0.0210367,0.0135135
0.156732,0.0135135
0.0522866,0.0135135
0.0461565,0.0135135
0.00906542,0.0135135
0.119483,0.0135135
0.0363263,0.0135135
0.0614342,0.0135135
0.100977,0.0135135
-0.109631,0.0135135
0.0674976,0.0135135
0.111936,0.0135135
0.0832346,0.0135135
0.0215873,0.0135135
-0.0207396,0.0135135
-0.0129518,0.0135135
0.0845822,0.0135135
-0.199298,0.0135135
-0.140944,0.0135135
0.142131,0.0135135
-0.00919159,0.0135135
-0.196325,0.0135135
-0.157518,0.0135135
0.11523,0.0135135
0.0204353,0.0135135
0.0106702,0.0135135
0.088198,0.0135135
-0.0210996,0.0135135
-0.136688,0.0135135
0.0453525,0.0135135
-0.0943406,0.0135135
-0.173061,0.0135135
0.197684,0.0135135
-0.085705,0.0135135
0.0833027,0.0135135
-0.0771295,0.0135135
-0.199485,0.0135135
-0.0193532,0.0135135
0.143551,0.0135135
0.112907,0.0135135
0.1175,0.0135135
-0.112996,0.0135135
-0.135967,0.0135135
-0.0334443,0.0135135
0.0917185,0.0135135
0.0664798,0.0135135
0.240271,0.0135135
-0.172153,0.0135135
0.0819592,0.0135135
0.0939188,0.0135135
0.0247774,0.0135135
-0.0154929,0.0135135
0.175377,0.0135135
-0.266745,0.0135135
0.22884,0.0135135
0.410018,0.0135135
0.0218299,0.0135135
0.0856098,0.0135135
0.11488,0.0135135
-0.0543244,0.0135135
0.0386416,0.0135135
0.0327105,0.0135135
-0.0351116,0.0135135
0.0231291,0.0135135
-0.133794,0.0135135
-0.232848,0.0135135
-0.147289,0.0135135
0.0169521,0.0135135
-0.00453062,0.0135135
0.188587,0.0135135
0.0347152,0.0135135
-0.134781,0.0135135
-0.0786072,0.0135135
-0.0133449,0.0135135
0.040952,0.0135135
-0.0612449,0.0135135
-0.172145,0.0135135
-0.130681,0.0135135
0.0533884,0.0135135
-0.0305431,0.0135135
0.18012,0.0135135
-0.115799,0.0135135
0.126452,0.0135135
0.0606694,0.0135135
0.15698,0.0135135
0.139924,0.0135135
0.0975421,0.0135135
0.10857,0.0135135
0.0163542,0.0135135
0.0419897,0.0135135
0.226504,0.0135135
-0.0895833,0.0135135
0.0961654,0.0135135
0.00845676,0.0135135
-0.119538,0.0135135
0.152565,0.0135135
0.159253,0.0135135
0.165693,0.0135135
0.152173,0.0135135
-0.115329,0.0135135
0.130914,0.0135135
0.111622,0.0135135
-0.00435222,0.0135135
0.204416,0.0135135
-0.00905518,0.0135135
0.0373194,0.0135135
-0.0479092,0.0135135
0.103415,0.0135135
0.0193485,0.0135135
-0.122907,0.0135135
0.0144443,0.0135135
0.0117899,0.0135135
0.147211,0.0135135
-0.216814,0.0135135
0.0162622,0.0135135
0.247035,0.0135135
0.137092,0.0135135
0.106422,0.0135135
-0.174053,0.0135135
-0.0880753,0.0135135
0.046578,0.0135135
-0.187474,0.0135135
0.0986042,0.0135135
0.0231331,0.0135135
-0.138822,0.0135135
-0.185842,0.0135135
-0.0861559,0.0135135
0.14843,0.0135135
-0.0344733,0.0135135
0.0412628,0.0135135
0.11288,0.0135135
-0.0978002,0.0135135
-0.335923,0.0135135
0.0152929,0.0135135
0.224431,0.0135135
0.0179488,0.0135135
-0.055495,0.0135135
-0.225628,0.0135135
-0.101498,0.0135135
-0.00245281,0.0135135
-0.162838,0.0135135
-0.0474911,0.0135135
-0.168841,0.0135135
-0.112752,0.0135135
0.0436973,0.0135135
0.201818,0.0135135
0.197298,0.0135135
0.0299861,0.0135135
0.0164968,0.0135135
-0.0837558,0.0135135
0.0205491,0.0135135
-0.081079,0.0135135
-0.0686384,0.0135135
-0.100062,0.0135135
-0.111596,0.0135135
-0.0587951,0.0135135
-0.0726308,0.0135135
-0.27324,0.0135135
-0.0326333,0.0135135
0.0231466,0.0135135
0.0270424,0.0135135
0.21513,0.0135135
-0.0382789,0.0135135
0.0622084,0.0135135
0.0832142,0.0135135
0.0644704,0.0135135
0.15031,0.0135135
0.0711707,0.0135135
0.165549,0.0135135
-0.035412,0.0135135
-0.0422747,0.0135135
-0.00832254,0.0135135
0.104359,0.0135135
0.0470972,0.0135135
0.0295926,0.0135135
0.100791,0.0135135
0.204988,0.0135135
0.0709745,0.0135135
0.0455858,0.0135135
-0.210031,0.0135135
-0.0327506,0.0135135
-0.102176,0.0135135
0.0960876,0.0135135
0.115902,0.0135135
-0.0156914,0.0135135
-0.0844668,0.0135135
-0.0442293,0.0135135
0.0169925,0.0135135
0.15256,0.0135135
0.0478488,0.0135135
-0.076845,0.0135135
0.0418127,0.0135135
0.0286809,0.0135135
0.247904,0.0135135
-0.00745484,0.0135135
-0.0598439,0.0135135
0.0622534,0.0135135
0.146647,0.0135135
-0.140111,0.0135135
0.0373073,0.0135135
0.0841269,0.0135135
-0.0314456,0.0135135
-0.0136511,0.0135135
-0.162992,0.0135135
0.00427858,0.0135135
0.0489311,0.0135135
-0.0440097,0.0135135
-0.232508,0.0135135
-0.0795169,0.0135135
0.0267731,0.0135135
-0.0855476,0.0135135
-0.119917,0.0135135
0.0631256,0.0135135
0.0420751,0.0135135
-0.0893539,0.0135135
0.0962132,0.0135135
-0.227379,0.0135135
0.0297037,0.0135135
0.259902,0.0135135
-0.0466558,0.0135135
0.0540014,0.0135135
-0.210076,0.0135135
-0.0324586,0.0135135
0.126868,0.0135135
-0.0660294,0.0135135
0.00231503,0.0135135
-0.189481,0.0135135
0.136273,0.0135135
-0.0650225,0.0135135
0.0358805,0.0135135
-0.0708296,0.0135135
-0.134914,0.0135135
-0.122187,0.0135135
0.107666,0.0135135
-0.0142752,0.0135135
0.0591464,0.0135135
0.0529489,0.0135135
-0.161689,0.0135135
0.0444657,0.0135135
0.0797226,0.0135135
-0.0740832,0.0135135
0.0964613,0.0135135
-0.0566111,0.0135135
-0.120073,0.0135135
-0.0957601,0.0135135
-0.0368519,0.0135135
0.0450505,0.0135135
-0.200873,0.0135135
0.108122,0.0135135
-0.0637954,0.0135135
-0.058244,0.0135135
0.052416,0.0135135
-0.0623436,0.0135135
0.107701,0.0135135
0.0240521,0.0135135
0.0798315,0.0135135
0.00415265,0.0135135
-0.203766,0.0135135
0.231786,0.0135135
0.256334,0.0135135
-0.065044,0.0135135
0.112206,0.0135135
-0.0261603,0.0135135
0.20652,0.0135135
0.0904244,0.0135135
-0.170488,0.0135135
0.218553,0.0135135
-0.123027,0.0135135
-0.0331268,0.0135135
0.0140691,0.0135135
0.150692,0.0135135
0.210706,0.0135135
-0.305367,0.0135135
-0.0555961,0.0135135
0.00853593,0.0135135
-0.101857,0.0135135
-0.00114448,0.0135135
-0.154826,0.0135135
-0.133554,0.0135135
0.111341,0.0135135
-0.110151,0.0135135
-0.0603473,0.0135135
0.138662,0.0135135
0.0713373,0.0135135
0.0853617,0.0135135
-0.0363257,0.0135135
0.192459,0.0135135
0.264638,0.0135135
-0.179093,0.0135135
-0.111396,0.0135135
-0.137719,0.0135135
-0.157531,0.0135135
0.015414,0.0135135
0.0131886,0.0135135
-0.0483905,0.0135135
-0.0719433,0.0135135
-0.224826,0.0135135
0.0739077,0.0135135
0.0487641,0.0135135
0.170429,0.0135135
0.0247699,0.0135135
0.0722778,0.0135135
0.0264692,0.0135135
-0.0223145,0.0135135
-0.0127027,0.0135135
-0.235282,0.0135135
-0.0260766,0.0135135
-0.0611563,0.0135135
-0.167819,0.0135135
0.0417985,0.0135135
0.215034,0.0135135
-0.0614878,0.0135135
-0.0919555,0.0135135
-0.0787922,0.0135135
0.210634,0.0135135
0.0966471,0.0135135
0.080755,0.0135135
-0.140647,0.0135135
-0.094708,0.0135135
0.212383,0.0135135
-0.0658775,0.0135135
0.0205676,0.0135135
0.0232613,0.0135135
0.0293521,0.0135135
-0.176829,0.0135135
-0.0800337,0.0135135
0.0299124,0.0135135
0.11303,0.0135135
0.108424,0.0135135
0.0955263,0.0135135
0.102898,0.0135135
0.0835911,0.0135135
0.00426451,0.0135135
-0.0449003,0.0135135
0.00952973,0.0135135
0.0644466,0.0135135
-0.203484,0.0135135
0.00628923,0.0135135
-0.146378,0.0135135
0.000402733,0.0135135
-0.0192925,0.0135135
0.0344016,0.0135135
-0.102672,0.0135135
0.0620006,0.0135135
-0.0430097,0.0135135
-0.116048,0.0135135
-0.127704,0.0135135
0.0947895,0.0135135
0.0762908,0.0135135
-0.066892,0.0135135
0.114231,0.0135135
0.103664,0.0135135
-0.0202376,0.0135135
-0.0996791,0.0135135
-0.172061,0.0135135
-0.129071,0.0135135
0.209333,0.0135135
-0.0668027,0.0135135
-0.0531034,0.0135135
-0.106048,0.0135135
0.166535,0.0135135
0.00932925,0.0135135
0.0350793,0.0135135
-0.0873445,0.0135135
-0.0442429,0.0135135
0.0569941,0.0135135
-0.27038,0.0135135
0.121479,0.0135135
-0.0132866,0.0135135
0.04162,0.0135135
-0.0382566,0.0135135
0.126309,0.0135135
-0.103398,0.0135135
0.0141902,0.0135135
0.118478,0.0135135
-0.127153,0.0135135
0.00349685,0.0135135
-0.100702,0.0135135
0.0539657,0.0135135
-0.0261063,0.0135135
0.0154434,0.0135135
0.00332353,0.0135135
0.0140932,0.0135135
0.264075,0.0135135
-0.0257003,0.0135135
-0.253744,0.0135135
-0.192743,0.0135135
-0.0701654,0.0135135
0.0654166,0.0135135
-0.1799,0.0135135
0.0398996,0.0135135
0.0516061,0.0135135
0.0523877,0.0135135
-0.00331713,0.0135135
0.153017,0.0135135
0.0260864,0.0135135
-0.0295163,0.0135135
-0.139346,0.0135135
-0.128588,0.0135135
0.0483198,0.0135135
0.0863789,0.0135135
-0.154042,0.0135135
-0.131654,0.0135135
0.121367,0.0135135
-0.0745568,0.0135135
-0.0201446,0.0135135
0.273653,0.0135135
-0.0815886,0.0135135
0.00822379,0.0135135
-0.109104,0.0135135
0.0282144,0.0135135
-0.211847,0.0135135
-0.0381868,0.0135135
-0.0304804,0.0135135
-0.00375875,0.0135135
0.112477,0.0135135
0.0636758,0.0135135
0.0594444,0.0135135
-0.319413,0.0135135
-0.0555981,0.0135135
0.0402383,0.0135135
0.00385876,0.0135135
-0.0825877,0.0135135
0.09053,0.0135135
0.0296856,0.0135135
0.142836,0.0135135
-0.0845085,0.0135135
0.0241168,0.0135135
-0.178029,0.0135135
-0.132522,0.0135135
-0.0981313,0.0135135
-0.0366178,0.0135135
-0.108916,0.0135135
-0.0720205,0.0135135
0.0359153,0.0135135
-0.132409,0.0135135
-0.0401028,0.0135135
0.00357758,0.0135135
-0.0128879,0.0135135
0.0234552,0.0135135
0.0845552,0.0135135
0.10435,0.0135135
-0.0276421,0.0135135
-0.0282206,0.0135135
-0.0264453,0.0135135
0.273777,0.0135135
0.0132084,0.0135135
0.208415,0.0135135
-0.0756012,0.0135135
-0.0450201,0.0135135
0.0761121,0.0135135
-0.0658045,0.0135135
0.00354621,0.0135135
-0.0569466,0.0135135
0.115862,0.0135135
-0.109482,0.0135135
-0.0339219,0.0135135
0.053385,0.0135135
-0.347866,0.0135135
0.0278054,0.0135135
0.00174248,0.0135135
-0.0193853,0.0135135
0.183501,0.0135135
-0.267938,0.0135135
0.0705645,0.0135135
0.116474,0.0135135
-0.221899,0.0135135
-0.160975,0.0135135
0.198176,0.0135135
0.187447,0.0135135
-0.060244,0.0135135
0.103763,0.0135135
-0.0222758,0.0135135
0.220481,0.0135135
0.0314689,0.0135135
-0.0432475,0.0135135
0.0705855,0.0135135
-0.13425,0.0135135
-0.363694,0.0135135
-0.0247187,0.0135135
0.282196,0.0135135
-0.196375,0.0135135
-0.0158852,0.0135135
-0.00611541,0.0135135
0.184692,0.0135135
0.0643932,0.0135135
-0.0268688,0.0135135
-0.0625695,0.0135135
0.0408196,0.0135135
0.143796,0.0135135
-0.0777425,0.0135135
-0.0724432,0.0135135
-0.201128,0.0135135
0.0165665,0.0135135
0.0546937,0.0135135
0.138528,0.0135135
-0.151308,0.0135135
-0.04653,0.0135135
-0.10546,0.0135135
0.0601587,0.0135135
-0.0233348,0.0135135
0.272616,0.0135135
-0.15459,0.0135135
-0.0639385,0.0135135
-0.160847,0.0135135
0.22974,0.0135135
0.0372343,0.0135135
0.0144003,0.0135135
-0.128345,0.0135135
-0.276839,0.0135135
-0.110543,0.0135135
0.0868821,0.0135135
0.0422661,0.0135135
0.0480704,0.0135135
0.0526391,0.0135135
-0.110372,0.0135135
0.119061,0.0135135
-0.0157984,0.0135135
0.253323,0.0135135
-0.223873,0.0135135
0.00602861,0.0135135
0.0838475,0.0135135
-0.0218863,0.0135135
0.0285575,0.0135135
0.01044,0.0135135
-0.135751,0.0135135
0.0981183,0.0135135
-0.00998709,0.0135135
0.0541617,0.0135135
0.14829,0.0135135
0.165783,0.0135135
-0.0596981,0.0135135
0.184214,0.0135135
-0.0692799,0.0135135
-0.00055906,0.0135135
-0.209359,0.0135135
-0.0770831,0.0135135
-0.104443,0.0135135
0.107994,0.0135135
-0.177011,0.0135135
0.0433718,0.0135135
-0.145768,0.0135135
-0.136925,0.0135135
0.137981,0.0135135
0.276077,0.0135135
0.124495,0.0135135
-0.0837325,0.0135135
0.202707,0.0135135
-0.212564,0.0135135
0.130783,0.0135135
-0.00576518,0.0135135
-0.00431178,0.0135135
0.03668,0.0135135
-0.0188317,0.0135135
0.00184191,0.0135135
-0.0144967,0.0135135
-0.157159,0.0135135
0.00349551,0.0135135
-0.170055,0.0135135
0.0814337,0.0135135
-0.0148178,0.0135135
-0.0820596,0.0135135
-0.0323894,0.0135135
-0.046392,0.0135135
0.0893739,0.0135135
-0.101671,0.0135135
-0.0522248,0.0135135
-0.134574,0.0135135
0.0964233,0.0135135
-0.00644603,0.0135135
-0.0888444,0.0135135
0.0157234,0.0135135
0.0156943,0.0135135
0.29653,0.0135135
0.040007,0.0135135
-0.0171727,0.0135135
0.0025153,0.0135135
0.0641323,0.0135135
0.0190375,0.0135135
0.0200125,0.0135135
-0.0643824,0.0135135
0.0668327,0.0135135
0.056615,0.0135135
-0.0372228,0.0135135
0.0184476,0.0135135
0.0380525,0.0135135
0.136465,0.0135135
-0.0506361,0.0135135
-0.0937772,0.0135135
0.1517,0.0135135
0.00469486,0.0135135
0.0996187,0.0135135
0.0252676,0.0135135
-0.218029,0.0135135
-0.143753,0.0135135
0.0674985,0.0135135
0.0900998,0.0135135
0.120637,0.0135135
0.0162034,0.0135135
-0.152321,0.0135135
0.244288,0.0135135
-0.0212439,0.0135135
-0.0344538,0.0135135
-0.0496221,0.0135135
-0.0103848,0.0135135
-0.0992074,0.0135135
-0.144362,0.0135135
-0.121401,0.0135135
-0.134327,0.0135135
0.0289784,0.0135135
-0.116621,0.0135135
0.134201,0.0135135
0.0261612,0.0135135
-0.163532,0.0135135
0.0591468,0.0135135
0.144954,0.0135135
0.123919,0.0135135
-0.0978158,0.0135135
0.0878357,0.0135135
0.0789323,0.0135135
-0.0340192,0.0135135
-0.0596557,0.0135135
-0.182202,0.0135135
-0.175355,0.0135135
0.409187,0.0135135
0.0744041,0.0135135
0.161717,0.0135135
-0.157399,0.0135135
-0.0237391,0.0135135
-0.0504081,0.0135135
0.0751844,0.0135135
-0.064524,0.0135135
0.0163104,0.0135135
-0.0435348,0.0135135
-0.104345,0.0135135
-0.130314,0.0135135
0.06847,0.0135135
0.0935922,0.0135135
-0.121219,0.0135135
-0.0910387,0.0135135
-0.24458,0.0135135
-0.000242976,0.0135135
0.0331686,0.0135135
-0.00480253,0.0135135
-0.154022,0.0135135
0.0409905,0.0135135
-0.0565112,0.0135135
0.0471774,0.0135135
0.0560466,0.0135135
0.0962894,0.0135135
0.15058,0.0135135
-0.0393883,0.0135135
0.0722611,0.0135135
-0.0776313,0.0135135
0.136148,0.0135135
0.0216402,0.0135135
0.10801,0.0135135
0.0445733,0.0135135
-0.165358,0.0135135
-0.188298,0.0135135
-0.163565,0.0135135
0.0292976,0.0135135
-0.12558,0.0135135
0.126002,0.0135135
-0.145839,0.0135135
-0.130519,0.0135135
-0.14794,0.0135135
0.0363995,0.0135135
-0.077411,0.0135135
-0.286641,0.0135135
-0.105276,0.0135135
0.0757732,0.0135135
0.130718,0.0135135
-0.000301423,0.0135135
0.143075,0.0135135
-0.0349919,0.0135135
0.265529,0.0135135
0.0905787,0.0135135
-0.127356,0.0135135
-0.0668956,0.0135135
-0.253398,0.0135135
0.100368,0.0135135
0.123295,0.0135135
-0.0831613,0.0135135
0.0892084,0.0135135
0.151637,0.0135135
-0.0870686,0.0135135
0.0100022,0.0135135
0.0862247,0.0135135
0.00112106,0.0135135
-0.211991,0.0135135
0.213014,0.0135135
-0.105132,0.0135135
0.0916973,0.0135135
-0.180063,0.0135135
0.16469,0.0135135
-0.248962,0.0135135
0.23031,0.0135135
-0.0515007,0.0135135
0.0742175,0.0135135
-0.0328172,0.0135135
-0.00517826,0.0135135
0.0496812,0.0135135
-0.121649,0.0135135
0.137711,0.0135135
-0.0162288,0.0135135
-0.0932979,0.0135135
0.214105,0.0135135
-0.11663,0.0135135
0.0141657,0.0135135
0.0271877,0.0135135
0.065371,0.0135135
0.0409207,0.0135135
0.0734223,0.0135135
-0.0673097,0.0135135
0.0559283,0.0135135
-0.0862755,0.0135135
0.0788927,0.0135135
0.00911694,0.0135135
0.0963734,0.0135135
-0.147171,0.0135135
-0.055379,0.0135135
0.0719916,0.0135135
0.0328438,0.0135135
-0.0440746,0.0135135
0.00825408,0.0135135
0.000505884,0.0135135
0.0339428,0.0135135
-0.161868,0.0135135
-0.164692,0.0135135
-0.0891262,0.0135135
-0.00701342,0.0135135
0.175665,0.0135135
-0.325481,0.0135135
0.160576,0.0135135
0.0752759,0.0135135
0.0293973,0.0135135
-0.0638439,0.0135135
-0.0262721,0.0135135
0.116981,0.0135135
-0.0125371,0.0135135
0.0602931,0.0135135
-0.0986618,0.0135135
0.19583,0.0135135
0.159714,0.0135135
-0.207743,0.0135135
-0.103768,0.0135135
-0.158839,0.0135135
-0.156707,0.0135135
-0.141214,0.0135135
-0.0400852,0.0135135
-0.00110636,0.0135135
0.13032,0.0135135
0.0331263,0.0135135
0.139897,0.0135135
0.0554186,0.0135135
-0.157078,0.0135135
-0.0917699,0.0135135
0.0890922,0.0135135
-0.0395933,0.0135135
0.128907,0.0135135
-0.0968755,0.0135135
-0.0664329,0.0135135
-0.196278,0.0135135
-0.084423,0.0135135
0.0490549,0.0135135
-0.15374,0.0135135
-0.135049,0.0135135
0.0890409,0.0135135
-0.0711473,0.0135135
-0.0474721,0.0135135
0.0532156,0.0135135
0.140711,0.0135135
-0.13276,0.0135135
0.0428238,0.0135135
0.0444128,0.0135135
-0.066284,0.0135135
0.0538553,0.0135135
0.0402423,0.0135135
0.159469,0.0135135
-0.0228756,0.0135135
-0.046638,0.0135135
-0.245361,0.0135135
-0.0596334,0.0135135
-0.00539937,0.0135135
0.108815,0.0135135
-0.252103,0.0135135
-0.0217485,0.0135135
0.0261968,0.0135135
-0.0535517,0.0135135
-0.193903,0.0135135
0.0140994,0.0135135
-0.104131,0.0135135
-0.0245163,0.0135135
-0.0159721,0.0135135
-0.183291,0.0135135
-0.0327494,0.0135135
-0.142871,0.0135135
-0.0969518,0.0135135
0.176481,0.0135135
0.217415,0.0135135
0.13169,0.0135135
0.141287,0.0135135
0.236482,0.0135135
0.0254088,0.0135135
-0.0893032,0.0135135
-0.264472,0.0135135
-0.159575,0.0135135
-0.0858463,0.0135135
-0.0383756,0.0135135
0.000836756,0.0135135
0.0659324,0.0135135
0.0348118,0.0135135
0.0894788,0.0135135
-0.109356,0.0135135
-0.0313196,0.0135135
0.0116058,0.0135135
-0.0312795,0.0135135
-0.0685546,0.0135135
-0.0172044,0.0135135
-0.1705,0.0135135
0.00269699,0.0135135
0.0550309,0.0135135
0.116752,0.0135135
0.0104744,0.0135135
-0.106103,0.0135135
0.248774,0.0135135
0.00210399,0.0135135
0.106589,0.0135135
0.0674438,0.0135135
-0.132761,0.0135135
-0.207487,0.0135135
-0.112367,0.0135135
0.0544642,0.0135135
0.0197219,0.0135135
0.0385303,0.0135135
-0.00708536,0.0135135
-0.0551332,0.0135135
0.0290034,0.0135135
-0.278669,0.0135135
0.111932,0.0135135
0.200513,0.0135135
-0.0331305,0.0135135
-0.08302,0.0135135
0.0790764,0.0135135
0.0873756,0.0135135
0.0026167,0.0135135
0.161343,0.0135135
0.0232321,0.0135135
-0.0321171,0.0135135
-0.0227452,0.0135135
-0.168514,0.0135135
-0.18446,0.0135135
-0.0595765,0.0135135
0.182779,0.0135135
-0.124675,0.0135135
0.161624,0.0135135
-0.0951275,0.0135135
0.132988,0.0135135
0.211877,0.0135135
-0.0369673,0.0135135
0.039375,0.0135135
-0.0167191,0.0135135
-0.175389,0.0135135
-0.0986571,0.0135135
0.165929,0.0135135
0.111717,0.0135135
0.11942,0.0135135
0.0161419,0.0135135
0.0172221,0.0135135
0.168197,0.0135135
0.119179,0.0135135
-0.0264614,0.0135135
-0.0201007,0.0135135
-0.0852624,0.0135135
-0.0669185,0.0135135
-0.126151,0.0135135
0.10847,0.0135135
0.133447,0.0135135
0.0241609,0.0135135
0.0844484,0.0135135
0.112209,0.0135135
0.0908924,0.0135135
-0.0448256,0.0135135
-0.0623684,0.0135135
-0.0998029,0.0135135
0.308856,0.0135135
0.0587702,0.0135135
-0.0147772,0.0135135
-0.221287,0.0135135
0.00327915,0.0135135
0.104208,0.0135135
0.154042,0.0135135
-0.0223967,0.0135135
-0.242492,0.0135135
-0.192515,0.0135135
0.085629,0.0135135
0.032456,0.0135135
0.0699548,0.0135135
0.0305962,0.0135135
0.0667819,0.0135135
0.0612987,0.0135135
-0.196092,0.0135135
-0.159285,0.0135135
0.010842,0.0135135
0.0400406,0.0135135
-0.0398038,0.0135135
0.158373,0.0135135
0.180094,0.0135135
-0.0768065,0.0135135
-0.0733407,0.0135135
-0.138703,0.0645161
-0.28477,0.0645161
0.0597026,0.0645161
0.463012,0.0645161
-0.228559,0.0645161
0.161967,0.0645161
0.444727,0.0645161
-0.287819,0.0645161
-0.00628098,0.0645161
0.175284,0.0645161
0.100943,0.0645161
-0.183846,0.0645161
0.191301,0.0645161
0.44539,0.0645161
-0.0617646,0.0645161
0.345066,0.0645161
0.685058,0.0645161
0.290617,0.0645161
0.283458,0.0645161
0.432341,0.0645161
-0.0870144,0.0645161
0.00660661,0.0645161
0.0373802,0.0645161
0.505324,0.0645161
-0.447033,0.0645161
-0.492119,0.0645161
0.216964,0.0645161
0.220439,0.0645161
-0.438748,0.0645161
-0.0319151,0.0645161
-0.152772,0.0645161
-0.107606,0.0645161
-0.0882792,0.0645161
-0.483104,0.0645161
0.263011,0.0645161
0.174823,0.0645161
-0.0114145,0.0645161
0.0277037,0.0645161
-0.424824,0.0645161
-0.271242,0.0645161
-0.0438889,0.0645161
0.0618964,0.0645161
0.131987,0.0645161
0.0229412,0.0645161
-0.454644,0.0645161
0.176168,0.0645161
-0.10276,0.0645161
0.35046,0.0645161
-0.160555,0.0645161
-0.241942,0.0645161
-0.2632,0.0645161
0.246062,0.0645161
0.209714,0.0645161
-0.107009,0.0645161
0.311076,0.0645161
0.0610965,0.0645161
-0.00282863,0.0645161
-0.145397,0.0645161
-0.799992,0.0645161
-0.4943,0.0645161
-0.378742,0.0645161
0.0962886,0.0645161
0.202596,0.0645161
-0.368472,0.0645161
0.0597959,0.0645161
0.0150393,0.0645161
-0.0461253,0.0645161
-0.0670165,0.0645161
-0.289719,0.0645161
0.120161,0.0645161
0.352673,0.0645161
-0.363536,0.0645161
0.354209,0.0645161
-0.496691,0.0645161
0.237248,0.0645161
0.315426,0.0645161
0.605609,0.0645161
0.261689,0.0645161
-0.0887144,0.0645161
0.472018,0.0645161
-0.116823,0.0645161
-0.0829918,0.0645161
0.395538,0.0645161
-0.0567026,0.0645161
0.176704,0.0645161
0.232025,0.0645161
-0.0131962,0.0645161
-0.39658,0.0645161
0.516443,0.0645161
0.357774,0.0645161
0.420829,0.0645161
0.242627,0.0645161
0.171789,0.0645161
0.168338,0.0645161
-0.240151,0.0645161
-0.381975,0.0645161
0.0484343,0.0645161
-0.259627,0.0645161
0.115037,0.0645161
-0.449965,0.0645161
-0.0915492,0.0645161
0.0484395,0.0645161
-0.151481,0.0645161
0.0773483,0.0645161
-0.0127191,0.0645161
-0.140339,0.0645161
-0.151552,0.0645161
-0.0104427,0.0645161
0.0172546,0.0645161
-0.0406844,0.0645161
-0.0428746,0.0645161
0.177312,0.0645161
0.138912,0.0645161
-0.198544,0.0645161
-0.402411,0.0645161
0.111681,0.0645161
0.0246749,0.0645161
0.00197751,0.0645161
0.0865455,0.0645161
0.14462,0.0645161
0.115657,0.0645161
0.161981,0.0645161
-0.134679,0.0645161
0.244348,0.0645161
0.210754,0.0645161
-0.120734,0.0645161
-0.49614,0.0645161
-0.0547263,0.0645161
0.193574,0.0645161
0.394964,0.0645161
0.559418,0.0645161
0.0430952,0.0645161
-0.248823,0.0645161
0.223848,0.0645161
0.0281286,0.0645161
0.283767,0.0645161
-0.0379611,0.0645161
0.0737587,0.0645161
0.241053,0.0645161
-0.0262049,0.0645161
0.193713,0.0645161
0.30789,0.0645161
-0.324242,0.0645161
0.374226,0.0645161
-0.221885,0.0645161
0.732932,0.0645161
0.397213,0.0645161
-0.422576,0.0645161
-0.667088,0.0645161
0.289725,0.0645161
-0.211186,0.0645161
0.209276,0.0645161
-0.021163,0.0645161
-0.0947296,0.0645161
-0.178185,0.0645161
-0.0888721,0.0645161
-0.0294287,0.0645161
-0.320166,0.0645161
0.0366036,0.0645161
-0.0156587,0.0645161
0.0175621,0.0645161
-0.499353,0.0645161
0.0923558,0.0645161
-0.120721,0.0645161
-0.0366786,0.0645161
0.108732,0.0645161
0.195155,0.0645161
-0.0244176,0.0645161
0.401599,0.0645161
-0.145494,0.0645161
0.0100148,0.0645161
-0.0107418,0.0645161
0.56398,0.0645161
-0.279721,0.0645161
0.0551301,0.0645161
-0.31449,0.0645161
-0.233784,0.0645161
-0.0875186,0.0645161
-0.130769,0.0645161
0.020694,0.0645161
0.146879,0.0645161
0.385895,0.0645161
-0.0298134,0.0645161
0.215752,0.0645161
-0.532701,0.0645161
0.116029,0.0645161
0.165438,0.0645161
0.0359184,0.0645161
-0.179114,0.0645161
0.110704,0.0645161
-0.324729,0.0645161
-0.0452875,0.0645161
-0.28194,0.0645161
-0.285427,0.0645161
0.0990289,0.0645161
-0.172658,0.0645161
-0.0503961,0.0645161
0.0349207,0.0645161
0.0958854,0.0645161
-0.108682,0.0645161
-0.110328,0.0645161
-0.127639,0.0645161
-0.323769,0.0645161
0.40117,0.0645161
-0.0465619,0.0645161
-0.196981,0.0645161
0.298583,0.0645161
0.0735324,0.0645161
-0.090944,0.0645161
0.106568,0.0645161
0.0880508,0.0645161
-0.0138038,0.0645161
-0.129955,0.0645161
0.00534895,0.0645161
-0.345408,0.0645161
-0.00139758,0.0645161
-0.478638,0.0645161
0.0499746,0.0645161
-0.214806,0.0645161
-0.35862,0.0645161
