mw,Sw
-0.361880570650101,0.025000000372529
0.078948594629765,0.025000000372529
0.145478472113609,0.025000000372529
0.021816076710820,0.025000000372529
0.148618683218956,0.025000000372529
-0.296195238828659,0.025000000372529
-0.031106991693377,0.025000000372529
-0.020352406427264,0.025000000372529
-0.202185511589050,0.025000000372529
-0.082440212368965,0.025000000372529
0.017264718189836,0.025000000372529
0.370145589113235,0.025000000372529
0.262582987546921,0.025000000372529
0.097470469772816,0.025000000372529
-0.071678079664707,0.025000000372529
-0.119543284177780,0.025000000372529
0.103649698197842,0.025000000372529
-0.224035680294037,0.025000000372529
0.080768629908562,0.025000000372529
-0.202302917838097,0.025000000372529
0.117062762379646,0.025000000372529
-0.159089595079422,0.025000000372529
0.188750535249710,0.025000000372529
-0.002417504787445,0.025000000372529
0.359780937433243,0.025000000372529
-0.190932974219322,0.025000000372529
0.065245881676674,0.025000000372529
-0.089012011885643,0.025000000372529
0.239394694566727,0.025000000372529
0.046098195016384,0.025000000372529
0.045042898505926,0.025000000372529
0.002807076554745,0.025000000372529
0.184403881430626,0.025000000372529
0.034777577966452,0.025000000372529
0.154947534203529,0.025000000372529
0.054724968969822,0.025000000372529
-0.017317298799753,0.025000000372529
-0.151377379894257,0.025000000372529
-0.219043523073196,0.025000000372529
0.181223481893539,0.025000000372529
-0.060646940022707,0.025000000372529
0.014133970253170,0.025000000372529
0.249904990196228,0.025000000372529
0.059867769479752,0.025000000372529
0.023971306160092,0.025000000372529
-0.136009678244591,0.025000000372529
-0.124870322644711,0.025000000372529
-0.199863359332085,0.025000000372529
0.216743662953377,0.025000000372529
-0.333473443984985,0.025000000372529
-0.015413231216371,0.025000000372529
0.040239855647087,0.025000000372529
-0.015945764258504,0.025000000372529
-0.136723399162292,0.025000000372529
0.396765828132629,0.025000000372529
-0.081043541431427,0.025000000372529
0.334681570529938,0.025000000372529
-0.039950009435415,0.025000000372529
0.061141118407249,0.025000000372529
0.113345786929131,0.025000000372529
0.166929170489311,0.025000000372529
0.011540137231350,0.025000000372529
0.120619565248489,0.025000000372529
-0.077288597822189,0.025000000372529
-0.078186139464378,0.006666667293757
0.133947432041168,0.006666667293757
-0.052892711013556,0.006666667293757
0.119426302611828,0.006666667293757
0.069750472903252,0.006666667293757
0.026154536753893,0.006666667293757
0.034441396594048,0.006666667293757
-0.113362394273281,0.006666667293757
-0.019922876730561,0.006666667293757
0.015057108364999,0.006666667293757
0.088003605604172,0.006666667293757
0.094608150422573,0.006666667293757
-0.064632341265678,0.006666667293757
-0.073505699634552,0.006666667293757
-0.105871357023716,0.006666667293757
0.059904277324677,0.006666667293757
0.073616720736027,0.006666667293757
0.058756634593010,0.006666667293757
-0.201334536075592,0.006666667293757
0.057185884565115,0.006666667293757
-0.074811309576035,0.006666667293757
-0.033976081758738,0.006666667293757
-0.104492448270321,0.006666667293757
-0.126818373799324,0.006666667293757
-0.087430946528912,0.006666667293757
0.049329534173012,0.006666667293757
-0.025903098285198,0.006666667293757
-0.019499665126204,0.006666667293757
0.074884325265884,0.006666667293757
0.233257248997688,0.006666667293757
0.053820412606001,0.006666667293757
0.069918639957905,0.006666667293757
0.014259528368711,0.006666667293757
0.057048130780458,0.006666667293757
0.050566181540489,0.006666667293757
-0.070517241954803,0.006666667293757
-0.113490886986256,0.006666667293757
0.097772888839245,0.006666667293757
0.023492865264416,0.006666667293757
-0.029331238940358,0.006666667293757
-0.075773634016514,0.006666667293757
-0.042650785297155,0.006666667293757
0.099353037774563,0.006666667293757
0.004165684338659,0.006666667293757
0.076471827924252,0.006666667293757
-0.098758444190025,0.006666667293757
-0.029249576851726,0.006666667293757
0.063107900321484,0.006666667293757
-0.131331518292427,0.006666667293757
0.078145802021027,0.006666667293757
-0.079434826970100,0.006666667293757
-0.017752293497324,0.006666667293757
-0.087231941521168,0.006666667293757
0.068401262164116,0.006666667293757
0.078551083803177,0.006666667293757
0.049803990870714,0.006666667293757
-0.151311039924622,0.006666667293757
0.015953334048390,0.006666667293757
0.087020382285118,0.006666667293757
0.176280945539474,0.006666667293757
-0.075093016028404,0.006666667293757
0.081086717545986,0.006666667293757
-0.118876174092293,0.006666667293757
0.088510118424892,0.006666667293757
-0.046898722648621,0.006666667293757
-0.043286539614201,0.006666667293757
-0.107625275850296,0.006666667293757
-0.124558754265308,0.006666667293757
-0.135742157697678,0.006666667293757
0.120795220136642,0.006666667293757
0.088260285556316,0.006666667293757
-0.209215804934502,0.006666667293757
-0.090350970625877,0.006666667293757
0.097929559648037,0.006666667293757
0.037591353058815,0.006666667293757
0.181338280439377,0.006666667293757
0.092573374509811,0.006666667293757
-0.127628251910210,0.006666667293757
-0.078505992889404,0.006666667293757
0.015902413055301,0.006666667293757
-0.042268890887499,0.006666667293757
0.144692733883858,0.006666667293757
0.013878211379051,0.006666667293757
-0.101049587130547,0.006666667293757
0.019442910328507,0.006666667293757
-0.157709330320358,0.006666667293757
0.109385423362255,0.006666667293757
-0.031626902520657,0.006666667293757
-0.013031575828791,0.006666667293757
0.016232836991549,0.006666667293757
0.191397845745087,0.006666667293757
-0.072038888931274,0.006666667293757
0.023409068584442,0.006666667293757
-0.054968416690826,0.006666667293757
-0.151091948151588,0.006666667293757
0.057133879512548,0.006666667293757
-0.063217468559742,0.006666667293757
-0.032734613865614,0.006666667293757
-0.017969684675336,0.006666667293757
-0.019200878217816,0.006666667293757
-0.056089844554663,0.006666667293757
-0.072525829076767,0.006666667293757
0.244583576917648,0.006666667293757
-0.144229516386986,0.006666667293757
-0.087198965251446,0.006666667293757
-0.013139552436769,0.006666667293757
-0.104993171989918,0.006666667293757
-0.027710843831301,0.006666667293757
-0.053695932030678,0.006666667293757
0.005599272903055,0.006666667293757
0.104391820728779,0.006666667293757
-0.111495703458786,0.006666667293757
-0.076575212180614,0.006666667293757
0.080522254109383,0.006666667293757
-0.062333166599274,0.006666667293757
-0.081480346620083,0.006666667293757
0.204054132103920,0.006666667293757
-0.062927924096584,0.006666667293757
0.093417152762413,0.006666667293757
-0.016527378931642,0.006666667293757
-0.002948196139187,0.006666667293757
-0.000973046582658,0.006666667293757
-0.056425549089909,0.006666667293757
0.028299508616328,0.006666667293757
-0.110138371586800,0.006666667293757
-0.010289594531059,0.006666667293757
-0.051172636449337,0.006666667293757
0.048545960336924,0.006666667293757
0.071666345000267,0.006666667293757
-0.094786494970322,0.006666667293757
-0.195753142237663,0.006666667293757
-0.093928992748260,0.006666667293757
-0.035638809204102,0.006666667293757
0.025325272232294,0.006666667293757
0.112157374620438,0.006666667293757
0.076497949659824,0.006666667293757
-0.049640189856291,0.006666667293757
0.128727048635483,0.006666667293757
0.026693720370531,0.006666667293757
-0.063915640115738,0.006666667293757
0.051073253154755,0.006666667293757
-0.188197895884514,0.006666667293757
0.172958105802536,0.006666667293757
-0.072436891496181,0.006666667293757
0.076609976589680,0.006666667293757
-0.083741500973701,0.006666667293757
-0.179276525974274,0.006666667293757
0.108519650995731,0.006666667293757
0.097688779234886,0.006666667293757
-0.011051303707063,0.006666667293757
-0.039065171033144,0.006666667293757
-0.118300907313824,0.006666667293757
-0.120259501039982,0.006666667293757
-0.067906819283962,0.006666667293757
0.158385321497917,0.006666667293757
0.054948717355728,0.006666667293757
0.103962451219559,0.006666667293757
0.045341756194830,0.006666667293757
0.024686401709914,0.006666667293757
0.114048957824707,0.006666667293757
0.188943237066269,0.006666667293757
0.079372711479664,0.006666667293757
-0.061572778970003,0.006666667293757
0.080856502056122,0.006666667293757
-0.027629224583507,0.006666667293757
-0.036766316741705,0.006666667293757
0.050583273172379,0.006666667293757
0.100534118711948,0.006666667293757
0.077147655189037,0.006666667293757
0.045801419764757,0.006666667293757
0.010344467125833,0.006666667293757
0.078479267656803,0.006666667293757
-0.055194646120071,0.006666667293757
0.039029188454151,0.006666667293757
0.055353693664074,0.006666667293757
-0.030949013307691,0.006666667293757
-0.035533420741558,0.006666667293757
-0.146129101514816,0.006666667293757
0.087857894599438,0.006666667293757
-0.048882801085711,0.006666667293757
-0.099769510328770,0.006666667293757
-0.023568334057927,0.006666667293757
0.067019134759903,0.006666667293757
-0.128724411129951,0.006666667293757
-0.024293899536133,0.006666667293757
-0.056735839694738,0.006666667293757
0.060778040438890,0.006666667293757
0.087684251368046,0.006666667293757
-0.002592878183350,0.006666667293757
0.068944014608860,0.006666667293757
-0.129839375615120,0.006666667293757
0.029533974826336,0.006666667293757
0.111773699522018,0.006666667293757
-0.038338210433722,0.006666667293757
-0.083752110600471,0.006666667293757
0.017307074740529,0.006666667293757
-0.106509238481522,0.006666667293757
-0.032803934067488,0.006666667293757
0.010554019361734,0.006666667293757
0.204807385802269,0.006666667293757
-0.076215863227844,0.006666667293757
-0.049262132495642,0.006666667293757
0.019871925935149,0.006666667293757
0.093700617551804,0.006666667293757
0.062788307666779,0.006666667293757
-0.022286958992481,0.006666667293757
-0.046664703637362,0.006666667293757
-0.045606933534145,0.006666667293757
0.023608222603798,0.006666667293757
-0.160235717892647,0.006666667293757
-0.050486464053392,0.006666667293757
-0.020956370979548,0.006666667293757
0.149263039231300,0.006666667293757
-0.050941772758961,0.006666667293757
-0.020999321714044,0.006666667293757
-0.036926697939634,0.006666667293757
0.083836883306503,0.006666667293757
-0.147704094648361,0.006666667293757
0.074390806257725,0.006666667293757
0.010562025010586,0.006666667293757
0.146337255835533,0.006666667293757
-0.050549007952213,0.006666667293757
-0.034422427415848,0.006666667293757
-0.191531211137772,0.006666667293757
-0.054174892604351,0.006666667293757
-0.072561234235764,0.006666667293757
0.097117692232132,0.006666667293757
-0.221201628446579,0.006666667293757
-0.231378093361855,0.006666667293757
-0.057898610830307,0.006666667293757
-0.005645753350109,0.006666667293757
-0.119503602385521,0.006666667293757
0.180326223373413,0.006666667293757
-0.097036868333817,0.006666667293757
0.063742302358150,0.006666667293757
0.015400999225676,0.006666667293757
0.043240245431662,0.006666667293757
-0.063457556068897,0.006666667293757
0.059612609446049,0.006666667293757
-0.041952833533287,0.006666667293757
-0.067163169384003,0.006666667293757
0.100383862853050,0.006666667293757
0.035857304930687,0.006666667293757
0.058408066630363,0.006666667293757
-0.142566844820976,0.006666667293757
-0.089554063975811,0.006666667293757
-0.012182196602225,0.006666667293757
0.046285416930914,0.006666667293757
-0.056469239294529,0.006666667293757
0.054806403815746,0.006666667293757
-0.045221716165543,0.006666667293757
-0.040892072021961,0.006666667293757
-0.015065731480718,0.006666667293757
0.053046230226755,0.006666667293757
0.184976145625114,0.006666667293757
0.018918583169580,0.006666667293757
-0.040175657719374,0.006666667293757
0.059704404324293,0.006666667293757
-0.030416805297136,0.006666667293757
0.039823103696108,0.006666667293757
0.126454815268517,0.006666667293757
0.054833076894283,0.006666667293757
-0.024626674130559,0.006666667293757
-0.085831180214882,0.006666667293757
0.013481045141816,0.006666667293757
0.009423509240150,0.006666667293757
-0.033147156238556,0.006666667293757
0.059686858206987,0.006666667293757
0.043816246092319,0.006666667293757
0.075764656066895,0.006666667293757
-0.158147692680359,0.006666667293757
-0.027279863134027,0.006666667293757
0.045343238860369,0.006666667293757
0.005757630337030,0.006666667293757
0.033814638853073,0.006666667293757
-0.018305348232388,0.006666667293757
0.019709555432200,0.006666667293757
-0.048988368362188,0.006666667293757
-0.046805236488581,0.006666667293757
0.081705383956432,0.006666667293757
0.102654963731766,0.006666667293757
0.011126163415611,0.006666667293757
-0.015925219282508,0.006666667293757
0.079904563724995,0.006666667293757
0.102390639483929,0.006666667293757
0.063826814293861,0.006666667293757
0.022760273888707,0.006666667293757
0.057194489985704,0.006666667293757
-0.145783260464668,0.006666667293757
-0.033752042800188,0.006666667293757
0.000429577281466,0.006666667293757
-0.116573430597782,0.006666667293757
0.025621837005019,0.006666667293757
-0.148712530732155,0.006666667293757
-0.034694496542215,0.006666667293757
-0.132659882307053,0.006666667293757
-0.080485455691814,0.006666667293757
0.033035911619663,0.006666667293757
-0.107201024889946,0.006666667293757
-0.045541174709797,0.006666667293757
0.056197974830866,0.006666667293757
0.054110694676638,0.006666667293757
-0.012182905338705,0.006666667293757
-0.072056204080582,0.006666667293757
0.116414204239845,0.006666667293757
-0.018476488068700,0.006666667293757
-0.048966430127621,0.006666667293757
-0.074637405574322,0.006666667293757
-0.048085644841194,0.006666667293757
-0.086176998913288,0.006666667293757
-0.018331671133637,0.006666667293757
0.069342121481895,0.006666667293757
-0.103462390601635,0.006666667293757
0.024094372987747,0.006666667293757
-0.054386489093304,0.006666667293757
-0.097626991569996,0.006666667293757
-0.062935844063759,0.006666667293757
0.048062007874250,0.006666667293757
0.147125154733658,0.006666667293757
-0.055448904633522,0.006666667293757
-0.008443825878203,0.006666667293757
0.023605177178979,0.006666667293757
0.018710430711508,0.006666667293757
0.226807564496994,0.006666667293757
-0.016293788328767,0.006666667293757
-0.085169531404972,0.006666667293757
-0.013678569346666,0.006666667293757
-0.046244319528341,0.006666667293757
0.035375252366066,0.006666667293757
0.002635745564476,0.006666667293757
-0.128067001700401,0.006666667293757
0.002259107772261,0.006666667293757
-0.089104793965816,0.006666667293757
0.015519763343036,0.006666667293757
-0.013753286562860,0.006666667293757
0.024352286010981,0.006666667293757
-0.097762428224087,0.006666667293757
-0.125531375408173,0.006666667293757
-0.098872356116772,0.006666667293757
0.132203564047813,0.006666667293757
0.061727885156870,0.006666667293757
0.035105470567942,0.006666667293757
-0.021162122488022,0.006666667293757
0.094052501022816,0.006666667293757
0.000648624729365,0.006666667293757
-0.020865283906460,0.006666667293757
0.056706957519054,0.006666667293757
-0.035982221364975,0.006666667293757
0.045371759682894,0.006666667293757
0.007184378802776,0.006666667293757
0.082351058721542,0.006666667293757
0.081071972846985,0.006666667293757
-0.083033427596092,0.006666667293757
0.043201927095652,0.006666667293757
-0.001696553896181,0.006666667293757
-0.085658304393291,0.006666667293757
-0.022912377491593,0.006666667293757
0.067368961870670,0.006666667293757
0.096155092120171,0.006666667293757
0.016902478411794,0.006666667293757
0.077315434813499,0.006666667293757
0.180479124188423,0.006666667293757
0.003160381456837,0.006666667293757
-0.123365975916386,0.006666667293757
0.042672943323851,0.006666667293757
0.053459733724594,0.006666667293757
-0.148607954382896,0.006666667293757
0.031389202922583,0.006666667293757
0.022210670635104,0.006666667293757
-0.099848091602325,0.006666667293757
-0.045109644532204,0.006666667293757
0.007577571086586,0.006666667293757
0.084277480840683,0.006666667293757
-0.010606441646814,0.006666667293757
-0.029576562345028,0.006666667293757
-0.061228100210428,0.006666667293757
-0.144975200295448,0.006666667293757
-0.055474717170000,0.006666667293757
-0.077277131378651,0.006666667293757
-0.033274836838245,0.006666667293757
0.051289401948452,0.006666667293757
0.054483737796545,0.006666667293757
0.004107216373086,0.006666667293757
0.096407733857632,0.006666667293757
0.073532626032829,0.006666667293757
-0.055676382035017,0.006666667293757
0.015723884105682,0.006666667293757
0.102938808500767,0.006666667293757
-0.116666689515114,0.006666667293757
-0.110547654330730,0.006666667293757
0.058125313371420,0.006666667293757
0.041274957358837,0.006666667293757
0.075388491153717,0.006666667293757
0.006166499573737,0.006666667293757
-0.084294788539410,0.006666667293757
0.065008223056793,0.006666667293757
0.048432029783726,0.006666667293757
0.008451635949314,0.006666667293757
-0.019466562196612,0.006666667293757
0.036625411361456,0.006666667293757
-0.005917278118432,0.006666667293757
-0.062455788254738,0.006666667293757
-0.024680828675628,0.006666667293757
0.040958281606436,0.006666667293757
-0.105552271008492,0.006666667293757
-0.033241245895624,0.006666667293757
-0.044808875769377,0.006666667293757
0.002291013719514,0.006666667293757
0.034383237361908,0.006666667293757
0.085753910243511,0.006666667293757
-0.116358935832977,0.006666667293757
0.013986955396831,0.006666667293757
-0.069099761545658,0.006666667293757
0.049645561724901,0.006666667293757
-0.091402806341648,0.006666667293757
0.164918705821037,0.006666667293757
0.105229012668133,0.006666667293757
-0.047158136963844,0.006666667293757
-0.214006155729294,0.006666667293757
-0.135979115962982,0.006666667293757
-0.113721482455730,0.006666667293757
-0.011655330657959,0.006666667293757
-0.003863734658808,0.006666667293757
-0.032142054289579,0.006666667293757
-0.023534862324595,0.006666667293757
0.096601121127605,0.006666667293757
0.155240908265114,0.006666667293757
-0.070269495248795,0.006666667293757
-0.089311704039574,0.006666667293757
0.024379441514611,0.006666667293757
-0.061687570065260,0.006666667293757
0.105531841516495,0.006666667293757
-0.030807975679636,0.006666667293757
0.081742614507675,0.006666667293757
0.001656309701502,0.006666667293757
0.110795386135578,0.006666667293757
0.157851085066795,0.006666667293757
0.051723916083574,0.006666667293757
0.083195127546787,0.006666667293757
0.072005696594715,0.006666667293757
0.053250115364790,0.006666667293757
-0.128432571887970,0.006666667293757
0.024514323100448,0.006666667293757
0.207459211349487,0.006666667293757
-0.061739474534988,0.006666667293757
-0.103223122656345,0.006666667293757
0.062270201742649,0.006666667293757
0.005610838066787,0.006666667293757
-0.077900826931000,0.006666667293757
-0.043320391327143,0.006666667293757
-0.000839665939566,0.006666667293757
0.001105058123358,0.006666667293757
-0.096270091831684,0.006666667293757
0.062981471419334,0.006666667293757
-0.041996143758297,0.006666667293757
-0.106838539242744,0.006666667293757
0.117704845964909,0.006666667293757
0.101334609091282,0.006666667293757
-0.036811292171478,0.006666667293757
-0.068153530359268,0.006666667293757
0.130202412605286,0.006666667293757
0.021483967080712,0.006666667293757
0.112669944763184,0.006666667293757
0.122794665396214,0.006666667293757
0.031388249248266,0.006666667293757
0.141742631793022,0.006666667293757
0.001065582735464,0.006666667293757
0.066147245466709,0.006666667293757
-0.048811741173267,0.006666667293757
0.052421402186155,0.006666667293757
0.084670081734657,0.006666667293757
-0.113402806222439,0.006666667293757
0.099352888762951,0.006666667293757
0.021381374448538,0.006666667293757
0.028074949979782,0.006666667293757
-0.051232393831015,0.006666667293757
0.099457681179047,0.006666667293757
-0.027476081624627,0.006666667293757
-0.114181093871593,0.006666667293757
0.067197382450104,0.006666667293757
0.075956501066685,0.006666667293757
-0.028140403330326,0.006666667293757
0.138624712824821,0.006666667293757
0.121131740510464,0.006666667293757
0.018060775473714,0.006666667293757
0.022729279473424,0.006666667293757
0.067955434322357,0.006666667293757
-0.117864079773426,0.006666667293757
0.086151145398617,0.006666667293757
0.098439350724220,0.006666667293757
0.087270140647888,0.006666667293757
0.037104327231646,0.006666667293757
-0.024862855672836,0.006666667293757
-0.068245440721512,0.006666667293757
-0.003804879263043,0.006666667293757
-0.003956278786063,0.006666667293757
-0.106585115194321,0.006666667293757
0.111467994749546,0.006666667293757
-0.128482133150101,0.006666667293757
0.038888454437256,0.006666667293757
-0.072176001966000,0.006666667293757
0.125380441546440,0.006666667293757
0.038994334638119,0.006666667293757
-0.021695505827665,0.006666667293757
-0.002313606673852,0.006666667293757
-0.055903274565935,0.006666667293757
0.090885460376740,0.006666667293757
0.028819745406508,0.006666667293757
-0.138958573341370,0.006666667293757
-0.075924634933472,0.006666667293757
-0.060560576617718,0.006666667293757
0.046069875359535,0.006666667293757
-0.003103679511696,0.006666667293757
0.003599520772696,0.006666667293757
0.114333674311638,0.006666667293757
-0.029934316873550,0.006666667293757
0.137753725051880,0.006666667293757
0.110387586057186,0.006666667293757
0.023742642253637,0.006666667293757
0.006832171231508,0.006666667293757
0.065515957772732,0.006666667293757
-0.000047241228458,0.006666667293757
-0.071915045380592,0.006666667293757
-0.012306874617934,0.006666667293757
0.039468411356211,0.006666667293757
0.047251977026463,0.006666667293757
-0.148799747228622,0.006666667293757
0.045809105038643,0.006666667293757
-0.135180577635765,0.006666667293757
0.046736385673285,0.006666667293757
-0.008701602928340,0.006666667293757
0.082239881157875,0.006666667293757
0.095980212092400,0.006666667293757
0.122159995138645,0.006666667293757
0.006128480192274,0.006666667293757
-0.096732445061207,0.006666667293757
0.032927550375462,0.006666667293757
0.021186606958508,0.006666667293757
0.052318960428238,0.006666667293757
0.075972989201546,0.006666667293757
0.115495726466179,0.006666667293757
-0.050583582371473,0.006666667293757
0.018127260729671,0.006666667293757
0.014832952059805,0.006666667293757
0.028935318812728,0.006666667293757
-0.080571174621582,0.006666667293757
0.032743420451880,0.006666667293757
0.128666520118713,0.006666667293757
0.268848985433578,0.006666667293757
0.005275101400912,0.006666667293757
-0.069083683192730,0.006666667293757
-0.051191855221987,0.006666667293757
0.064699418842793,0.006666667293757
0.014412006363273,0.006666667293757
0.009387592785060,0.006666667293757
-0.129936158657074,0.006666667293757
-0.002074276562780,0.006666667293757
-0.247483983635902,0.006666667293757
0.005510508082807,0.006666667293757
-0.027341382578015,0.006666667293757
-0.107833527028561,0.006666667293757
0.059055965393782,0.006666667293757
-0.154817014932632,0.006666667293757
-0.056759592145681,0.006666667293757
-0.065312549471855,0.006666667293757
0.021508689969778,0.006666667293757
0.004854028113186,0.006666667293757
0.100697688758373,0.006666667293757
-0.017382714897394,0.006666667293757
-0.044998023658991,0.006666667293757
-0.000431012478657,0.006666667293757
0.053933128714561,0.006666667293757
0.150394424796104,0.006666667293757
0.060085088014603,0.006666667293757
0.049329921603203,0.006666667293757
-0.039449904114008,0.006666667293757
0.142769634723663,0.006666667293757
0.023104866966605,0.006666667293757
-0.028856508433819,0.006666667293757
0.018223606050014,0.006666667293757
0.018212186172605,0.006666667293757
-0.060741495341063,0.006666667293757
0.057911518961191,0.006666667293757
-0.076945044100285,0.006666667293757
0.028909178450704,0.006666667293757
0.034655772149563,0.006666667293757
-0.112644731998444,0.006666667293757
0.006037208717316,0.006666667293757
0.217576131224632,0.006666667293757
-0.101379007101059,0.006666667293757
0.031207989901304,0.006666667293757
-0.091508626937866,0.006666667293757
0.074066549539566,0.006666667293757
0.000998808420263,0.006666667293757
0.089649304747581,0.006666667293757
-0.120918653905392,0.006666667293757
-0.042041119188070,0.006666667293757
-0.024399276822805,0.006666667293757
0.105473913252354,0.006666667293757
-0.046884119510651,0.006666667293757
-0.089454106986523,0.006666667293757
0.105782523751259,0.006666667293757
-0.111956961452961,0.006666667293757
-0.072979465126991,0.006666667293757
-0.009406488388777,0.006666667293757
0.094252407550812,0.006666667293757
0.184143960475922,0.006666667293757
-0.051021967083216,0.006666667293757
-0.091864660382271,0.006666667293757
-0.053183022886515,0.006666667293757
-0.054278939962387,0.006666667293757
-0.090578429400921,0.006666667293757
-0.008954930119216,0.006666667293757
0.041616193950176,0.006666667293757
-0.021767988801003,0.006666667293757
-0.039670005440712,0.006666667293757
-0.003659640671685,0.006666667293757
-0.041770689189434,0.006666667293757
-0.033199302852154,0.006666667293757
0.084894523024559,0.006666667293757
0.180169343948364,0.006666667293757
-0.014131709933281,0.006666667293757
0.064112044870853,0.006666667293757
0.030780900269747,0.006666667293757
0.111551597714424,0.006666667293757
0.085778705775738,0.006666667293757
0.053780004382133,0.006666667293757
-0.086344264447689,0.006666667293757
-0.051325399428606,0.006666667293757
0.037449907511473,0.006666667293757
-0.013386388309300,0.006666667293757
0.071910604834557,0.006666667293757
-0.023173848167062,0.006666667293757
-0.142325192689896,0.006666667293757
0.090418078005314,0.006666667293757
-0.048087615519762,0.006666667293757
0.086226493120193,0.006666667293757
-0.117429621517658,0.006666667293757
0.109632186591625,0.006666667293757
0.025651261210442,0.006666667293757
-0.005175480619073,0.006666667293757
-0.078076884150505,0.006666667293757
-0.053228005766869,0.006666667293757
0.042634706944227,0.006666667293757
0.004224285949022,0.006666667293757
-0.130223497748375,0.006666667293757
0.148379623889923,0.006666667293757
-0.027011934667826,0.006666667293757
-0.006335338111967,0.006666667293757
-0.062141526490450,0.006666667293757
0.053756915032864,0.006666667293757
-0.155191272497177,0.006666667293757
-0.076315507292747,0.006666667293757
0.036428134888411,0.006666667293757
0.008272803388536,0.006666667293757
0.050599351525307,0.006666667293757
0.084977500140667,0.006666667293757
-0.011800644919276,0.006666667293757
-0.015857802703977,0.006666667293757
0.040986940264702,0.006666667293757
-0.032370358705521,0.006666667293757
0.165692821145058,0.006666667293757
0.102830417454243,0.006666667293757
0.093628659844398,0.006666667293757
-0.078994467854500,0.006666667293757
-0.114669173955917,0.006666667293757
-0.005849943030626,0.006666667293757
-0.032686546444893,0.006666667293757
-0.165567249059677,0.006666667293757
0.038810890167952,0.006666667293757
-0.055412717163563,0.006666667293757
0.090285561978817,0.006666667293757
-0.141070201992989,0.006666667293757
0.095344327390194,0.006666667293757
0.007499353494495,0.006666667293757
-0.083939589560032,0.006666667293757
0.030692130327225,0.006666667293757
0.153108254075050,0.006666667293757
0.071684688329697,0.006666667293757
-0.020871838554740,0.006666667293757
-0.063519671559334,0.006666667293757
-0.040811914950609,0.006666667293757
0.120976716279984,0.006666667293757
0.059849604964256,0.006666667293757
-0.089539289474487,0.006666667293757
0.016104742884636,0.006666667293757
-0.157101973891258,0.006666667293757
0.017597008496523,0.006666667293757
-0.132172301411629,0.006666667293757
0.003732981393114,0.006666667293757
0.002391081536189,0.006666667293757
-0.113478817045689,0.006666667293757
0.004447422455996,0.006666667293757
0.128257870674133,0.006666667293757
0.062805913388729,0.006666667293757
0.016794873401523,0.006666667293757
-0.108533188700676,0.006666667293757
0.021664779633284,0.006666667293757
-0.096257820725441,0.006666667293757
0.002397035481408,0.006666667293757
-0.031411655247211,0.006666667293757
-0.063485018908978,0.006666667293757
0.088168695569038,0.006666667293757
-0.030680142343044,0.006666667293757
0.021605703979731,0.006666667293757
0.067512415349483,0.006666667293757
0.022887328639627,0.006666667293757
-0.096360102295876,0.006666667293757
0.022628216072917,0.006666667293757
0.063161976635456,0.006666667293757
-0.074282884597778,0.006666667293757
-0.048214312642813,0.006666667293757
0.043422907590866,0.006666667293757
0.033551845699549,0.006666667293757
-0.000917066936381,0.006666667293757
-0.016239931806922,0.006666667293757
0.003991777542979,0.006666667293757
0.033298648893833,0.006666667293757
0.036436550319195,0.006666667293757
0.037053391337395,0.006666667293757
0.125033855438232,0.006666667293757
-0.143054008483887,0.006666667293757
-0.165900513529778,0.006666667293757
-0.090474352240562,0.006666667293757
-0.166214242577553,0.006666667293757
0.023469673469663,0.006666667293757
0.185150787234306,0.006666667293757
-0.035341497510672,0.006666667293757
-0.034444447606802,0.006666667293757
0.070713616907597,0.006666667293757
-0.066912569105625,0.006666667293757
-0.066500715911388,0.006666667293757
0.057404972612858,0.006666667293757
-0.072024650871754,0.006666667293757
0.064677953720093,0.006666667293757
-0.015348210930824,0.006666667293757
0.083762750029564,0.006666667293757
-0.175788596272469,0.006666667293757
0.099932983517647,0.006666667293757
-0.072698697447777,0.006666667293757
-0.150341317057610,0.006666667293757
0.012501149438322,0.006666667293757
-0.093807816505432,0.006666667293757
0.080432191491127,0.006666667293757
-0.005666069686413,0.006666667293757
-0.006243374664336,0.006666667293757
0.111571058630943,0.006666667293757
-0.036424063146114,0.006666667293757
-0.053844906389713,0.006666667293757
0.043552022427320,0.006666667293757
-0.009637816809118,0.006666667293757
-0.012158791534603,0.006666667293757
-0.083505704998970,0.006666667293757
-0.096080571413040,0.006666667293757
0.068570420145988,0.006666667293757
-0.088546112179756,0.006666667293757
-0.002571017248556,0.006666667293757
0.080550119280815,0.006666667293757
0.000335702730808,0.006666667293757
-0.083844915032387,0.006666667293757
0.002905079862103,0.006666667293757
0.038097657263279,0.006666667293757
-0.029123928397894,0.006666667293757
0.111886568367481,0.006666667293757
-0.022486692294478,0.006666667293757
0.025441847741604,0.006666667293757
0.016538789495826,0.006666667293757
0.101905085146427,0.006666667293757
0.166710704565048,0.006666667293757
0.086892068386078,0.006666667293757
0.074562683701515,0.006666667293757
-0.010365073569119,0.006666667293757
-0.027705105021596,0.006666667293757
-0.061971843242645,0.006666667293757
0.034366838634014,0.006666667293757
-0.074018470942974,0.006666667293757
-0.009865666739643,0.006666667293757
0.080697402358055,0.006666667293757
0.046804159879684,0.006666667293757
-0.172040149569511,0.006666667293757
-0.088191166520119,0.006666667293757
-0.015608163550496,0.006666667293757
0.021345410495996,0.006666667293757
0.064707472920418,0.006666667293757
0.054967317730188,0.006666667293757
-0.013824512250721,0.006666667293757
0.051514733582735,0.006666667293757
-0.145676240324974,0.006666667293757
0.107871495187283,0.006666667293757
0.090404339134693,0.006666667293757
-0.069969177246094,0.006666667293757
-0.022860443219543,0.006666667293757
-0.014017535373569,0.006666667293757
0.043788369745016,0.006666667293757
0.030691999942064,0.006666667293757
-0.044954273849726,0.006666667293757
0.030301526188850,0.006666667293757
0.056510567665100,0.006666667293757
0.005865317303687,0.006666667293757
0.034123085439205,0.006666667293757
-0.044020418077707,0.013513513840735
0.180216327309608,0.013513513840735
0.002240067347884,0.013513513840735
0.083823502063751,0.013513513840735
-0.108656845986843,0.013513513840735
-0.046950101852417,0.013513513840735
-0.037068568170071,0.013513513840735
0.198554143309593,0.013513513840735
-0.198072031140327,0.013513513840735
-0.031111411750317,0.013513513840735
-0.073076352477074,0.013513513840735
-0.062419425696135,0.013513513840735
0.052770163863897,0.013513513840735
-0.132679313421249,0.013513513840735
-0.251751363277435,0.013513513840735
0.103253066539764,0.013513513840735
0.063758395612240,0.013513513840735
-0.109024375677109,0.013513513840735
-0.035790458321571,0.013513513840735
-0.118268094956875,0.013513513840735
0.010998663492501,0.013513513840735
-0.218189045786858,0.013513513840735
-0.040851857513189,0.013513513840735
0.080894790589809,0.013513513840735
-0.013322697021067,0.013513513840735
-0.330289363861084,0.013513513840735
-0.013303050771356,0.013513513840735
0.108112402260303,0.013513513840735
0.068530716001987,0.013513513840735
0.119631558656693,0.013513513840735
0.075080014765263,0.013513513840735
-0.032786145806313,0.013513513840735
-0.018287856131792,0.013513513840735
0.049955345690250,0.013513513840735
0.151470571756363,0.013513513840735
0.102172084152699,0.013513513840735
-0.055504765361547,0.013513513840735
-0.123706929385662,0.013513513840735
-0.038303039968014,0.013513513840735
0.075499512255192,0.013513513840735
-0.157576233148575,0.013513513840735
-0.196533605456352,0.013513513840735
0.267351925373077,0.013513513840735
0.080378830432892,0.013513513840735
-0.000322954409057,0.013513513840735
-0.140991881489754,0.013513513840735
0.153668984770775,0.013513513840735
-0.048241779208183,0.013513513840735
-0.084707707166672,0.013513513840735
-0.060903858393431,0.013513513840735
-0.133341386914253,0.013513513840735
-0.111425817012787,0.013513513840735
0.109271846711636,0.013513513840735
-0.154258698225021,0.013513513840735
0.068024672567844,0.013513513840735
-0.005368198268116,0.013513513840735
-0.128971561789513,0.013513513840735
0.003340872237459,0.013513513840735
0.044920425862074,0.013513513840735
-0.096344716846943,0.013513513840735
0.076705969870090,0.013513513840735
-0.284758120775223,0.013513513840735
0.170837908983231,0.013513513840735
-0.015408607199788,0.013513513840735
0.044688444584608,0.013513513840735
-0.026872947812080,0.013513513840735
-0.131602600216866,0.013513513840735
-0.201110556721687,0.013513513840735
0.135674357414246,0.013513513840735
-0.153275594115257,0.013513513840735
0.221874266862869,0.013513513840735
-0.071268446743488,0.013513513840735
0.043671686202288,0.013513513840735
-0.092486895620823,0.013513513840735
0.006782244890928,0.013513513840735
-0.118593722581863,0.013513513840735
0.162816360592842,0.013513513840735
-0.143256515264511,0.013513513840735
-0.110135734081268,0.013513513840735
-0.026196110993624,0.013513513840735
0.046927738934755,0.013513513840735
-0.089396603405476,0.013513513840735
-0.154900223016739,0.013513513840735
0.029969910159707,0.013513513840735
0.029707700014114,0.013513513840735
-0.086381852626801,0.013513513840735
0.165135324001312,0.013513513840735
-0.086572587490082,0.013513513840735
-0.146671235561371,0.013513513840735
-0.030827470123768,0.013513513840735
0.035483740270138,0.013513513840735
-0.047941520810127,0.013513513840735
-0.058041725307703,0.013513513840735
0.046931471675634,0.013513513840735
0.462763577699661,0.013513513840735
0.112611047923565,0.013513513840735
0.031860955059528,0.013513513840735
0.134232193231583,0.013513513840735
0.007612104993314,0.013513513840735
-0.006285379640758,0.013513513840735
-0.073066458106041,0.013513513840735
0.022229759022593,0.013513513840735
0.188801348209381,0.013513513840735
0.141786620020866,0.013513513840735
-0.073847256600857,0.013513513840735
0.074571073055267,0.013513513840735
-0.111898526549339,0.013513513840735
-0.182324022054672,0.013513513840735
-0.082473188638687,0.013513513840735
0.074827015399933,0.013513513840735
0.015478462912142,0.013513513840735
-0.086505673825741,0.013513513840735
0.026193479076028,0.013513513840735
-0.124678075313568,0.013513513840735
-0.058402702212334,0.013513513840735
0.108065120875835,0.013513513840735
0.058417044579983,0.013513513840735
0.066807761788368,0.013513513840735
0.180408671498299,0.013513513840735
-0.102910362184048,0.013513513840735
-0.020301986485720,0.013513513840735
0.059695024043322,0.013513513840735
0.142890781164169,0.013513513840735
0.111468121409416,0.013513513840735
-0.150952696800232,0.013513513840735
0.065877735614777,0.013513513840735
-0.032459907233715,0.013513513840735
0.006385611835867,0.013513513840735
0.060367230325937,0.013513513840735
0.075863331556320,0.013513513840735
0.065833337605000,0.013513513840735
-0.023170171305537,0.013513513840735
-0.189498439431190,0.013513513840735
-0.023158852010965,0.013513513840735
0.041528131812811,0.013513513840735
-0.016917927190661,0.013513513840735
0.035498358309269,0.013513513840735
-0.139161512255669,0.013513513840735
0.224888533353806,0.013513513840735
0.131846204400063,0.013513513840735
0.142488807439804,0.013513513840735
0.052536245435476,0.013513513840735
0.016434146091342,0.013513513840735
0.013267550617456,0.013513513840735
0.004667625296861,0.013513513840735
0.160074889659882,0.013513513840735
0.136867851018906,0.013513513840735
-0.232786014676094,0.013513513840735
-0.188363820314407,0.013513513840735
0.092764638364315,0.013513513840735
-0.103277817368507,0.013513513840735
0.152063772082329,0.013513513840735
0.122248813509941,0.013513513840735
-0.077217191457748,0.013513513840735
-0.035889234393835,0.013513513840735
-0.034139551222324,0.013513513840735
-0.131132245063782,0.013513513840735
0.138449668884277,0.013513513840735
0.102557763457298,0.013513513840735
-0.127577021718025,0.013513513840735
-0.077086716890335,0.013513513840735
0.087454155087471,0.013513513840735
0.002517740475014,0.013513513840735
0.050302781164646,0.013513513840735
-0.102461695671082,0.013513513840735
-0.110520213842392,0.013513513840735
-0.153117284178734,0.013513513840735
0.326399356126785,0.013513513840735
-0.122227929532528,0.013513513840735
-0.113877557218075,0.013513513840735
-0.082148984074593,0.013513513840735
0.386237353086472,0.013513513840735
0.148194894194603,0.013513513840735
0.094515331089497,0.013513513840735
0.136541023850441,0.013513513840735
0.119610816240311,0.013513513840735
0.068848498165607,0.013513513840735
-0.230457127094269,0.013513513840735
-0.092492267489433,0.013513513840735
-0.095381870865822,0.013513513840735
0.047705043107271,0.013513513840735
0.144473150372505,0.013513513840735
-0.117790125310421,0.013513513840735
-0.045590210705996,0.013513513840735
-0.160564348101616,0.013513513840735
0.061068706214428,0.013513513840735
0.121149696409702,0.013513513840735
0.149590194225311,0.013513513840735
-0.139626428484917,0.013513513840735
-0.173322051763535,0.013513513840735
-0.034666456282139,0.013513513840735
-0.054100852459669,0.013513513840735
0.130186527967453,0.013513513840735
-0.088206976652145,0.013513513840735
-0.004612117540091,0.013513513840735
-0.110360085964203,0.013513513840735
-0.010325917974114,0.013513513840735
0.170989349484444,0.013513513840735
-0.013124245218933,0.013513513840735
0.169415295124054,0.013513513840735
0.119213081896305,0.013513513840735
0.119561456143856,0.013513513840735
0.086690172553062,0.013513513840735
-0.058741331100464,0.013513513840735
0.130048587918282,0.013513513840735
-0.008083133026958,0.013513513840735
0.115066625177860,0.013513513840735
0.063440881669521,0.013513513840735
-0.171881273388863,0.013513513840735
0.178809389472008,0.013513513840735
0.034924767911434,0.013513513840735
0.082131743431091,0.013513513840735
0.023366494104266,0.013513513840735
0.122328206896782,0.013513513840735
-0.090082004666328,0.013513513840735
0.051004268229008,0.013513513840735
-0.159557983279228,0.013513513840735
-0.014395229518414,0.013513513840735
-0.159690812230110,0.013513513840735
0.095115244388580,0.013513513840735
-0.011590350419283,0.013513513840735
0.026103084906936,0.013513513840735
0.031137146055698,0.013513513840735
-0.121762588620186,0.013513513840735
-0.007446920033544,0.013513513840735
-0.163473904132843,0.013513513840735
0.091773837804794,0.013513513840735
0.040613919496536,0.013513513840735
0.005373873747885,0.013513513840735
0.030132874846458,0.013513513840735
0.033566407859325,0.013513513840735
-0.057123284786940,0.013513513840735
0.115425467491150,0.013513513840735
-0.062920294702053,0.013513513840735
0.125069782137871,0.013513513840735
0.179045915603638,0.013513513840735
0.055721629410982,0.013513513840735
-0.197473317384720,0.013513513840735
-0.019646491855383,0.013513513840735
-0.203768387436867,0.013513513840735
0.006672684103251,0.013513513840735
0.131805911660194,0.013513513840735
-0.193486690521240,0.013513513840735
0.080983042716980,0.013513513840735
-0.199488356709480,0.013513513840735
-0.015249731019139,0.013513513840735
-0.256721377372742,0.013513513840735
0.098830729722977,0.013513513840735
-0.006804138422012,0.013513513840735
0.004927213769406,0.013513513840735
-0.037242095917463,0.013513513840735
0.110062338411808,0.013513513840735
-0.120238073170185,0.013513513840735
0.045625545084476,0.013513513840735
0.053292043507099,0.013513513840735
-0.306017845869064,0.013513513840735
-0.111137390136719,0.013513513840735
-0.025642454624176,0.013513513840735
-0.214264482259750,0.013513513840735
-0.080758333206177,0.013513513840735
-0.222538873553276,0.013513513840735
-0.123169526457787,0.013513513840735
0.066099852323532,0.013513513840735
0.014718895778060,0.013513513840735
-0.114723064005375,0.013513513840735
0.214849010109901,0.013513513840735
-0.133093550801277,0.013513513840735
0.084699876606464,0.013513513840735
-0.020360471680760,0.013513513840735
-0.112684071063995,0.013513513840735
-0.189295217394829,0.013513513840735
0.179019764065742,0.013513513840735
0.178048685193062,0.013513513840735
-0.035931795835495,0.013513513840735
-0.018210759386420,0.013513513840735
0.059075906872749,0.013513513840735
-0.111263446509838,0.013513513840735
0.014358225278556,0.013513513840735
0.041117705404758,0.013513513840735
-0.063735000789165,0.013513513840735
0.022190993651748,0.013513513840735
-0.079262234270573,0.013513513840735
0.096046619117260,0.013513513840735
-0.120182342827320,0.013513513840735
0.030934600159526,0.013513513840735
-0.059355236589909,0.013513513840735
-0.177718505263329,0.013513513840735
0.212278142571449,0.013513513840735
0.043800950050354,0.013513513840735
-0.114240802824497,0.013513513840735
0.110443472862244,0.013513513840735
0.075210802257061,0.013513513840735
0.113868370652199,0.013513513840735
-0.020008048042655,0.013513513840735
-0.172626346349716,0.013513513840735
0.044403310865164,0.013513513840735
-0.146394953131676,0.013513513840735
-0.046801660209894,0.013513513840735
0.094682462513447,0.013513513840735
0.042300943285227,0.013513513840735
0.032359328120947,0.013513513840735
-0.094103492796421,0.013513513840735
-0.013551447540522,0.013513513840735
-0.144347727298737,0.013513513840735
-0.073003724217415,0.013513513840735
0.002682778751478,0.013513513840735
-0.131261885166168,0.013513513840735
0.052946183830500,0.013513513840735
-0.358062207698822,0.013513513840735
-0.107300281524658,0.013513513840735
-0.085628092288971,0.013513513840735
0.174688279628754,0.013513513840735
-0.052986521273851,0.013513513840735
-0.028032692149282,0.013513513840735
-0.117796398699284,0.013513513840735
0.101697087287903,0.013513513840735
-0.076718717813492,0.013513513840735
-0.047853786498308,0.013513513840735
0.053527012467384,0.013513513840735
0.015282084234059,0.013513513840735
0.026719253510237,0.013513513840735
-0.112851470708847,0.013513513840735
-0.181202501058578,0.013513513840735
0.000511053774972,0.013513513840735
-0.230322375893593,0.013513513840735
-0.067554987967014,0.013513513840735
-0.101016744971275,0.013513513840735
-0.012032039463520,0.013513513840735
0.017843862995505,0.013513513840735
-0.092197529971600,0.013513513840735
-0.012599457986653,0.013513513840735
0.099000617861748,0.013513513840735
-0.166007637977600,0.013513513840735
-0.015036127530038,0.013513513840735
-0.067185595631599,0.013513513840735
-0.002376139163971,0.013513513840735
0.081314876675606,0.013513513840735
0.123887971043587,0.013513513840735
-0.029181852936745,0.013513513840735
0.259434491395950,0.013513513840735
-0.031253993511200,0.013513513840735
-0.186431556940079,0.013513513840735
0.097140938043594,0.013513513840735
0.165998294949532,0.013513513840735
0.028379220515490,0.013513513840735
0.061699837446213,0.013513513840735
-0.136133253574371,0.013513513840735
-0.076837234199047,0.013513513840735
-0.060740206390619,0.013513513840735
-0.025371130555868,0.013513513840735
0.095289438962936,0.013513513840735
0.094035230576992,0.013513513840735
0.078823342919350,0.013513513840735
-0.161035716533661,0.013513513840735
-0.130861878395081,0.013513513840735
0.106356188654900,0.013513513840735
-0.068694025278091,0.013513513840735
0.076771035790443,0.013513513840735
-0.210300222039223,0.013513513840735
0.170287653803825,0.013513513840735
-0.253785610198975,0.013513513840735
-0.103281751275063,0.013513513840735
-0.029463429003954,0.013513513840735
0.024259442463517,0.013513513840735
0.017367104068398,0.013513513840735
-0.205865934491158,0.013513513840735
0.032773844897747,0.013513513840735
0.142138406634331,0.013513513840735
0.039551571011543,0.013513513840735
-0.408098012208939,0.013513513840735
0.033055309206247,0.013513513840735
0.017371792346239,0.013513513840735
0.047467350959778,0.013513513840735
0.054526932537556,0.013513513840735
0.034988075494766,0.013513513840735
-0.148880288004875,0.013513513840735
0.051388889551163,0.013513513840735
0.170579969882965,0.013513513840735
-0.085202023386955,0.013513513840735
-0.023761853575706,0.013513513840735
-0.083225078880787,0.013513513840735
-0.041162218898535,0.013513513840735
0.117410019040108,0.013513513840735
0.082774952054024,0.013513513840735
-0.033948160707951,0.013513513840735
0.050309363752604,0.013513513840735
-0.084809981286526,0.013513513840735
0.056822840124369,0.013513513840735
-0.035112839192152,0.013513513840735
-0.171758279204369,0.013513513840735
-0.024828517809510,0.013513513840735
-0.157174631953239,0.013513513840735
-0.167870342731476,0.013513513840735
-0.124601587653160,0.013513513840735
0.000413935136748,0.013513513840735
0.060732316225767,0.013513513840735
0.042353436350822,0.013513513840735
-0.143722072243690,0.013513513840735
0.106430567800999,0.013513513840735
0.054632149636745,0.013513513840735
-0.058596778661013,0.013513513840735
0.145130515098572,0.013513513840735
-0.015025111846626,0.013513513840735
0.107221402227879,0.013513513840735
0.001451439922675,0.013513513840735
-0.109281986951828,0.013513513840735
0.031274802982807,0.013513513840735
-0.164005830883980,0.013513513840735
-0.165319904685020,0.013513513840735
0.043991282582283,0.013513513840735
0.004100796766579,0.013513513840735
0.148500949144363,0.013513513840735
-0.126680403947830,0.013513513840735
-0.025795033201575,0.013513513840735
-0.105787880718708,0.013513513840735
-0.019116710871458,0.013513513840735
0.002802845090628,0.013513513840735
0.129181504249573,0.013513513840735
0.070680931210518,0.013513513840735
-0.062103793025017,0.013513513840735
-0.168081551790237,0.013513513840735
-0.053748164325953,0.013513513840735
0.078685007989407,0.013513513840735
0.087544955313206,0.013513513840735
0.034588210284710,0.013513513840735
-0.241280734539032,0.013513513840735
0.121944040060043,0.013513513840735
-0.212004274129868,0.013513513840735
0.078646577894688,0.013513513840735
-0.114814475178719,0.013513513840735
-0.097592607140541,0.013513513840735
0.104110896587372,0.013513513840735
0.035181570798159,0.013513513840735
-0.049567263573408,0.013513513840735
0.157071560621262,0.013513513840735
0.064379893243313,0.013513513840735
-0.337784320116043,0.013513513840735
0.081627406179905,0.013513513840735
-0.215932995080948,0.013513513840735
-0.000869391136803,0.013513513840735
-0.027793632820249,0.013513513840735
0.031069204211235,0.013513513840735
-0.116168990731239,0.013513513840735
0.113479770720005,0.013513513840735
0.150419160723686,0.013513513840735
-0.064368575811386,0.013513513840735
0.201245769858360,0.013513513840735
0.009128173813224,0.013513513840735
-0.027195204049349,0.013513513840735
0.034960642457008,0.013513513840735
-0.076227277517319,0.013513513840735
-0.219340488314629,0.013513513840735
0.145628809928894,0.013513513840735
0.025836644694209,0.013513513840735
0.059150092303753,0.013513513840735
-0.087394438683987,0.013513513840735
-0.172047376632690,0.013513513840735
-0.052382871508598,0.013513513840735
-0.145296856760979,0.013513513840735
0.030896855518222,0.013513513840735
0.156805485486984,0.013513513840735
0.059502400457859,0.013513513840735
0.042970117181540,0.013513513840735
-0.052447292953730,0.013513513840735
0.242298007011414,0.013513513840735
0.006145175080746,0.013513513840735
0.038781497627497,0.013513513840735
-0.001944775111042,0.013513513840735
-0.090251967310905,0.013513513840735
-0.065522283315659,0.013513513840735
-0.156906813383102,0.013513513840735
0.043835643678904,0.013513513840735
-0.043870680034161,0.013513513840735
0.068557858467102,0.013513513840735
0.107878103852272,0.013513513840735
-0.022126320749521,0.013513513840735
-0.085774824023247,0.013513513840735
-0.003982602152973,0.013513513840735
0.008358928374946,0.013513513840735
0.074448600411415,0.013513513840735
-0.072207562625408,0.013513513840735
0.190568402409554,0.013513513840735
-0.107062138617039,0.013513513840735
0.143559798598289,0.013513513840735
-0.179225891828537,0.013513513840735
0.133461028337479,0.013513513840735
0.026131130754948,0.013513513840735
0.105471663177013,0.013513513840735
0.009489447809756,0.013513513840735
-0.185643792152405,0.013513513840735
-0.049228947609663,0.013513513840735
0.054461974650621,0.013513513840735
-0.033419422805309,0.013513513840735
-0.071579121053219,0.013513513840735
-0.138200923800468,0.013513513840735
0.081395104527473,0.013513513840735
-0.016510156914592,0.013513513840735
-0.052191223949194,0.013513513840735
0.002794263651595,0.013513513840735
0.062734954059124,0.013513513840735
0.037268642336130,0.013513513840735
0.010401783511043,0.013513513840735
-0.171758010983467,0.013513513840735
0.040894627571106,0.013513513840735
0.046651624143124,0.013513513840735
-0.039589002728462,0.013513513840735
0.031457334756851,0.013513513840735
0.000092103415227,0.013513513840735
-0.155411183834076,0.013513513840735
0.256612122058868,0.013513513840735
0.124851100146770,0.013513513840735
0.003698194399476,0.013513513840735
0.126233100891113,0.013513513840735
0.088471174240112,0.013513513840735
0.018859321251512,0.013513513840735
0.156010583043098,0.013513513840735
0.003436037106439,0.013513513840735
0.086013048887253,0.013513513840735
0.168841704726219,0.013513513840735
0.321354359388351,0.013513513840735
0.084259882569313,0.013513513840735
0.063564106822014,0.013513513840735
0.152252852916718,0.013513513840735
0.108515501022339,0.013513513840735
-0.138033375144005,0.013513513840735
-0.014158332720399,0.013513513840735
0.096599094569683,0.013513513840735
-0.030902165919542,0.013513513840735
0.131626754999161,0.013513513840735
0.000269380398095,0.013513513840735
0.092066749930382,0.013513513840735
0.021531188860536,0.013513513840735
0.084951683878899,0.013513513840735
-0.135466724634171,0.013513513840735
0.115620300173759,0.013513513840735
0.076642528176308,0.013513513840735
-0.124905079603195,0.013513513840735
-0.180083468556404,0.013513513840735
-0.005930048413575,0.013513513840735
-0.025798847898841,0.013513513840735
0.120569661259651,0.013513513840735
0.005271315108985,0.013513513840735
0.065724387764931,0.013513513840735
0.085912749171257,0.013513513840735
-0.084550678730011,0.013513513840735
0.020128557458520,0.013513513840735
0.041812770068645,0.013513513840735
0.087856858968735,0.013513513840735
0.007730320096016,0.013513513840735
-0.047170825302601,0.013513513840735
0.234400093555450,0.013513513840735
0.072413243353367,0.013513513840735
0.107152111828327,0.013513513840735
-0.032177790999413,0.013513513840735
0.088447369635105,0.013513513840735
-0.089946977794170,0.013513513840735
-0.002343990141526,0.013513513840735
0.031181709840894,0.013513513840735
0.003745350753888,0.013513513840735
-0.084937773644924,0.013513513840735
-0.198653802275658,0.013513513840735
-0.107050225138664,0.013513513840735
0.114266052842140,0.013513513840735
0.109740093350410,0.013513513840735
0.146448791027069,0.013513513840735
0.051114395260811,0.013513513840735
-0.100966721773148,0.013513513840735
0.053242042660713,0.013513513840735
-0.164203345775604,0.013513513840735
-0.094553001224995,0.013513513840735
-0.028991620987654,0.013513513840735
0.297182053327560,0.013513513840735
-0.057616360485554,0.013513513840735
0.079118862748146,0.013513513840735
0.003059381619096,0.013513513840735
-0.033616166561842,0.013513513840735
0.072321400046349,0.013513513840735
-0.058583926409483,0.013513513840735
-0.011126358062029,0.013513513840735
-0.009073957800865,0.013513513840735
0.079495251178741,0.013513513840735
0.086515329778194,0.013513513840735
0.067971900105476,0.013513513840735
-0.110913746058941,0.013513513840735
0.124927029013634,0.013513513840735
0.002835080027580,0.013513513840735
-0.007269386202097,0.013513513840735
-0.038252107799053,0.013513513840735
-0.036469791084528,0.013513513840735
0.121836297214031,0.013513513840735
0.029085597023368,0.013513513840735
0.098851360380650,0.013513513840735
0.056767757982016,0.013513513840735
-0.027004165574908,0.013513513840735
0.033342514187098,0.013513513840735
-0.057158697396517,0.013513513840735
0.078020945191383,0.013513513840735
-0.058109708130360,0.013513513840735
0.020020471885800,0.013513513840735
-0.113572947680950,0.013513513840735
-0.089674912393093,0.013513513840735
-0.146303728222847,0.013513513840735
-0.044862378388643,0.013513513840735
-0.067807033658028,0.013513513840735
0.026876138523221,0.013513513840735
0.201591908931732,0.013513513840735
0.072046868503094,0.013513513840735
0.184410601854324,0.013513513840735
0.127778276801109,0.013513513840735
0.005991300567985,0.013513513840735
-0.289446383714676,0.013513513840735
0.106832586228848,0.013513513840735
0.006870102137327,0.013513513840735
0.221833258867264,0.013513513840735
-0.023132596164942,0.013513513840735
0.247693628072739,0.013513513840735
0.049616988748312,0.013513513840735
0.058919962495565,0.013513513840735
0.003146097762510,0.013513513840735
0.160973086953163,0.013513513840735
0.069967031478882,0.013513513840735
0.013004492036998,0.013513513840735
-0.116618707776070,0.013513513840735
-0.070894874632359,0.013513513840735
-0.104174621403217,0.013513513840735
0.131332352757454,0.013513513840735
-0.013198182918131,0.013513513840735
0.007855950854719,0.013513513840735
-0.014464923180640,0.013513513840735
0.053479235619307,0.013513513840735
0.033559121191502,0.013513513840735
-0.210412383079529,0.013513513840735
0.269002437591553,0.013513513840735
-0.109931252896786,0.013513513840735
-0.096846304833889,0.013513513840735
0.104042567312717,0.013513513840735
0.160847514867783,0.013513513840735
-0.109581388533115,0.013513513840735
0.186156183481216,0.013513513840735
-0.261166274547577,0.013513513840735
-0.031149111688137,0.013513513840735
0.086351446807384,0.013513513840735
-0.056596577167511,0.013513513840735
0.099165812134743,0.013513513840735
0.084999650716782,0.013513513840735
0.070002838969231,0.013513513840735
-0.134838566184044,0.013513513840735
-0.081635184586048,0.013513513840735
-0.054077886044979,0.013513513840735
-0.184947505593300,0.013513513840735
0.097891308367252,0.013513513840735
0.091444998979568,0.013513513840735
0.191159576177597,0.013513513840735
-0.008720420300961,0.013513513840735
-0.103073850274086,0.013513513840735
0.050229910761118,0.013513513840735
-0.081310071051121,0.013513513840735
-0.084398925304413,0.013513513840735
-0.300127118825912,0.013513513840735
-0.154224589467049,0.013513513840735
-0.175928279757500,0.013513513840735
-0.049763645976782,0.013513513840735
0.009645854122937,0.013513513840735
-0.087036110460758,0.013513513840735
-0.130181744694710,0.013513513840735
0.053605198860168,0.013513513840735
0.166752129793167,0.013513513840735
-0.090295083820820,0.013513513840735
0.009522113949060,0.013513513840735
0.001401918823831,0.013513513840735
-0.046462919563055,0.013513513840735
0.058521740138531,0.013513513840735
0.014271900057793,0.013513513840735
-0.149983361363411,0.013513513840735
-0.138364374637604,0.013513513840735
0.059573240578175,0.013513513840735
-0.096345819532871,0.013513513840735
0.119403444230556,0.013513513840735
0.026691272854805,0.013513513840735
-0.076213121414185,0.013513513840735
0.077698528766632,0.013513513840735
-0.081324316561222,0.013513513840735
0.020181184634566,0.013513513840735
0.124540545046329,0.013513513840735
-0.003768363269046,0.013513513840735
-0.004168363288045,0.013513513840735
0.145521298050880,0.013513513840735
-0.061333652585745,0.013513513840735
-0.092249393463135,0.013513513840735
0.095234945416451,0.013513513840735
-0.041349712759256,0.013513513840735
-0.044676687568426,0.013513513840735
0.018408168107271,0.013513513840735
-0.064012043178082,0.013513513840735
-0.180825695395470,0.013513513840735
-0.017268683761358,0.013513513840735
0.192397564649582,0.013513513840735
-0.081727936863899,0.013513513840735
-0.046881724148989,0.013513513840735
-0.123005189001560,0.013513513840735
0.132190763950348,0.013513513840735
0.006795565597713,0.013513513840735
0.134580627083778,0.013513513840735
-0.005126968491822,0.013513513840735
0.022094471380115,0.013513513840735
0.097136065363884,0.013513513840735
-0.052335076034069,0.013513513840735
0.028314549475908,0.013513513840735
0.063900917768478,0.013513513840735
-0.143470376729965,0.013513513840735
-0.044718049466610,0.013513513840735
0.072489179670811,0.013513513840735
0.052033748477697,0.013513513840735
-0.199533671140671,0.013513513840735
-0.053156659007072,0.013513513840735
-0.012507781386375,0.013513513840735
0.095496423542500,0.013513513840735
-0.056080952286720,0.013513513840735
-0.007682011462748,0.013513513840735
-0.010526527650654,0.013513513840735
-0.053180057555437,0.013513513840735
0.164729371666908,0.013513513840735
0.068172454833984,0.013513513840735
-0.295034974813461,0.013513513840735
-0.154608860611916,0.013513513840735
-0.113303549587727,0.013513513840735
-0.053892184048891,0.013513513840735
-0.120260275900364,0.013513513840735
0.047522719949484,0.013513513840735
-0.212115421891212,0.013513513840735
-0.013934852555394,0.013513513840735
-0.005473303608596,0.013513513840735
-0.059532802551985,0.013513513840735
-0.003362285671756,0.013513513840735
-0.166820466518402,0.013513513840735
0.257343173027039,0.013513513840735
0.142501249909401,0.013513513840735
-0.041633825749159,0.013513513840735
-0.217695742845535,0.013513513840735
0.132362544536591,0.013513513840735
0.050668559968472,0.013513513840735
-0.131634652614594,0.013513513840735
-0.056754104793072,0.013513513840735
0.056517317891121,0.013513513840735
-0.186820968985558,0.013513513840735
0.123012930154800,0.013513513840735
-0.110290139913559,0.013513513840735
-0.031800478696823,0.013513513840735
0.036699924618006,0.013513513840735
-0.084038808941841,0.013513513840735
0.114963337779045,0.013513513840735
0.044711615890265,0.013513513840735
-0.224214345216751,0.013513513840735
-0.067312315106392,0.013513513840735
0.082842528820038,0.013513513840735
0.143215030431747,0.013513513840735
-0.064519599080086,0.013513513840735
-0.208683699369431,0.013513513840735
0.371996372938156,0.013513513840735
0.070099346339703,0.013513513840735
0.062270618975163,0.013513513840735
-0.188339456915855,0.013513513840735
0.037150267511606,0.013513513840735
0.152956873178482,0.013513513840735
0.194356858730316,0.013513513840735
-0.080420836806297,0.013513513840735
-0.053172875195742,0.013513513840735
0.014137802645564,0.013513513840735
-0.014047544449568,0.013513513840735
0.089360743761063,0.013513513840735
0.022734986618161,0.013513513840735
0.158900931477547,0.013513513840735
-0.045383308082819,0.013513513840735
-0.147189587354660,0.013513513840735
-0.097329869866371,0.013513513840735
0.217146247625351,0.013513513840735
0.023440325632691,0.013513513840735
-0.280960142612457,0.013513513840735
-0.064976878464222,0.013513513840735
0.004425360355526,0.013513513840735
-0.223773807287216,0.013513513840735
-0.024049388244748,0.013513513840735
0.074951946735382,0.013513513840735
-0.137845084071159,0.013513513840735
0.134496361017227,0.013513513840735
0.207022756338120,0.013513513840735
-0.003309637075290,0.013513513840735
0.091822005808353,0.013513513840735
-0.139612868428230,0.013513513840735
0.073999188840389,0.013513513840735
0.140451654791832,0.013513513840735
-0.139879181981087,0.013513513840735
0.028776988387108,0.013513513840735
-0.114766366779804,0.013513513840735
0.082773245871067,0.013513513840735
-0.259266227483749,0.013513513840735
-0.038995612412691,0.013513513840735
0.045975212007761,0.013513513840735
-0.234609782695770,0.013513513840735
-0.069336608052254,0.013513513840735
-0.000290008669253,0.013513513840735
0.117544546723366,0.013513513840735
-0.034151036292315,0.013513513840735
0.032051481306553,0.013513513840735
-0.031705901026726,0.013513513840735
0.008171255700290,0.013513513840735
0.200118348002434,0.013513513840735
-0.237645700573921,0.013513513840735
0.046673715114594,0.013513513840735
-0.194203674793243,0.013513513840735
0.129618197679520,0.013513513840735
-0.124631926417351,0.013513513840735
0.005351341329515,0.013513513840735
0.067368909716606,0.013513513840735
-0.118143163621426,0.013513513840735
-0.147206813097000,0.013513513840735
-0.040475901216269,0.013513513840735
-0.076732881367207,0.013513513840735
-0.044807717204094,0.013513513840735
0.094547182321548,0.013513513840735
0.050303753465414,0.013513513840735
-0.195507615804672,0.013513513840735
-0.112946465611458,0.013513513840735
-0.109291836619377,0.013513513840735
-0.028748258948326,0.013513513840735
-0.074529416859150,0.013513513840735
-0.011936701834202,0.013513513840735
0.093803517520428,0.013513513840735
-0.140239909291267,0.013513513840735
0.133749887347221,0.013513513840735
-0.174865350127220,0.013513513840735
-0.058125745505095,0.013513513840735
0.031267032027245,0.013513513840735
-0.002865973627195,0.013513513840735
0.132226020097733,0.013513513840735
0.052354283630848,0.013513513840735
-0.169846579432487,0.013513513840735
0.081954330205917,0.013513513840735
0.080493919551373,0.013513513840735
-0.139563828706741,0.013513513840735
-0.044382255524397,0.013513513840735
0.133882179856300,0.013513513840735
-0.249941393733025,0.013513513840735
-0.060909889638424,0.013513513840735
0.085203610360622,0.013513513840735
-0.168156802654266,0.013513513840735
-0.085443578660488,0.013513513840735
0.121037043631077,0.013513513840735
-0.055789437144995,0.013513513840735
0.120428733527660,0.013513513840735
0.107610277831554,0.013513513840735
0.077687732875347,0.013513513840735
0.242496475577354,0.013513513840735
0.039087280631065,0.013513513840735
0.061174850910902,0.013513513840735
-0.117103621363640,0.013513513840735
-0.005895801819861,0.013513513840735
0.060516934841871,0.013513513840735
0.089467197656631,0.013513513840735
0.001316339476034,0.013513513840735
-0.049977928400040,0.013513513840735
-0.029720345512033,0.013513513840735
-0.020393759012222,0.013513513840735
-0.000252721918514,0.013513513840735
-0.017854336649179,0.013513513840735
-0.034677233546972,0.013513513840735
0.008810572326183,0.013513513840735
0.027499206364155,0.013513513840735
-0.075463809072971,0.013513513840735
0.025042649358511,0.013513513840735
-0.048464130610228,0.013513513840735
-0.051945161074400,0.013513513840735
0.226166158914566,0.013513513840735
0.073591135442257,0.013513513840735
0.160911321640015,0.013513513840735
0.002952642273158,0.013513513840735
0.092490822076797,0.013513513840735
-0.125233545899391,0.013513513840735
-0.069459557533264,0.013513513840735
0.115715019404888,0.013513513840735
0.035349596291780,0.013513513840735
0.013611325062811,0.013513513840735
0.160345360636711,0.013513513840735
-0.086590468883514,0.013513513840735
0.175308927893639,0.013513513840735
-0.007148433011025,0.013513513840735
0.029103307053447,0.013513513840735
-0.060334581881762,0.013513513840735
0.041436828672886,0.013513513840735
0.124561905860901,0.013513513840735
0.119879625737667,0.013513513840735
-0.085705898702145,0.013513513840735
-0.014162529259920,0.013513513840735
0.074924670159817,0.013513513840735
-0.049332600086927,0.013513513840735
0.225605562329292,0.013513513840735
0.236735716462135,0.013513513840735
0.102721482515335,0.013513513840735
0.207676500082016,0.013513513840735
-0.017715483903885,0.013513513840735
-0.119240522384644,0.013513513840735
-0.171305060386658,0.013513513840735
-0.118151836097240,0.013513513840735
-0.012182741425931,0.013513513840735
0.016159532591701,0.013513513840735
0.084396205842495,0.013513513840735
0.048279505223036,0.013513513840735
0.123922862112522,0.013513513840735
0.061965525150299,0.013513513840735
-0.055352959781885,0.013513513840735
-0.009973229840398,0.013513513840735
0.032005131244659,0.013513513840735
-0.312522709369659,0.013513513840735
-0.026727348566055,0.013513513840735
0.093800157308578,0.013513513840735
0.095063835382462,0.013513513840735
0.126566305756569,0.013513513840735
-0.016182931140065,0.013513513840735
0.000136238537380,0.013513513840735
0.149971053004265,0.013513513840735
0.010424176231027,0.013513513840735
-0.042852364480495,0.013513513840735
-0.032998934388161,0.013513513840735
0.135014697909355,0.013513513840735
0.001114204525948,0.013513513840735
0.121432766318321,0.013513513840735
0.190933808684349,0.013513513840735
-0.073440492153168,0.013513513840735
0.057821188122034,0.013513513840735
0.221370458602905,0.013513513840735
0.013250122778118,0.013513513840735
-0.021282052621245,0.013513513840735
0.005078838672489,0.013513513840735
0.043233931064606,0.013513513840735
-0.031797453761101,0.013513513840735
0.070490643382072,0.013513513840735
-0.149738088250160,0.013513513840735
0.055381841957569,0.013513513840735
0.003653020132333,0.013513513840735
0.015109831467271,0.013513513840735
0.010815437883139,0.013513513840735
0.217038974165916,0.013513513840735
0.150880709290504,0.013513513840735
-0.119481772184372,0.013513513840735
-0.182814627885818,0.013513513840735
0.094770297408104,0.013513513840735
-0.014236568473279,0.013513513840735
-0.110359691083431,0.013513513840735
0.007126044947654,0.013513513840735
-0.053680591285229,0.013513513840735
-0.223144918680191,0.013513513840735
-0.061606317758560,0.013513513840735
-0.094749659299850,0.013513513840735
0.065922394394875,0.013513513840735
0.021279726177454,0.013513513840735
0.160482078790665,0.013513513840735
-0.226577818393707,0.013513513840735
0.080893673002720,0.013513513840735
-0.182076275348663,0.013513513840735
0.037499893456697,0.013513513840735
-0.194331899285316,0.013513513840735
-0.054168760776520,0.013513513840735
0.023810151964426,0.013513513840735
0.018570248037577,0.013513513840735
-0.230346411466599,0.013513513840735
-0.048360429704189,0.013513513840735
-0.073475286364555,0.013513513840735
-0.078530088067055,0.013513513840735
0.051379125565290,0.013513513840735
0.083017788827419,0.013513513840735
-0.217489302158356,0.013513513840735
0.012427301146090,0.013513513840735
0.000369281333406,0.013513513840735
-0.045498564839363,0.013513513840735
0.055217187851667,0.013513513840735
0.019147094339132,0.013513513840735
-0.095013059675694,0.013513513840735
-0.046338636428118,0.013513513840735
-0.093637064099312,0.013513513840735
0.036688558757305,0.013513513840735
-0.018789837136865,0.013513513840735
0.016454894095659,0.013513513840735
-0.125598102807999,0.013513513840735
-0.028737060725689,0.013513513840735
0.047625087201595,0.013513513840735
0.104578226804733,0.013513513840735
-0.172954872250557,0.013513513840735
-0.019215701147914,0.013513513840735
-0.000184156931937,0.013513513840735
-0.097191460430622,0.013513513840735
-0.010861514136195,0.013513513840735
0.142248809337616,0.013513513840735
-0.181776344776154,0.013513513840735
-0.116550572216511,0.013513513840735
-0.100156635046005,0.013513513840735
0.033743735402822,0.013513513840735
-0.126400917768478,0.013513513840735
-0.062518648803234,0.013513513840735
0.066210657358170,0.013513513840735
0.075451150536537,0.013513513840735
0.080311633646488,0.013513513840735
0.110685005784035,0.013513513840735
0.151697337627411,0.013513513840735
0.035972706973553,0.013513513840735
-0.058855429291725,0.013513513840735
0.043682213872671,0.013513513840735
-0.198203399777412,0.013513513840735
-0.060219340026379,0.013513513840735
-0.138651818037033,0.013513513840735
0.020766815170646,0.013513513840735
-0.021799841895700,0.013513513840735
-0.019770527258515,0.013513513840735
-0.063623368740082,0.013513513840735
0.105255082249641,0.013513513840735
-0.040434472262859,0.013513513840735
0.075708724558353,0.013513513840735
0.009041833691299,0.013513513840735
0.093475207686424,0.013513513840735
0.040746055543423,0.013513513840735
-0.095522910356522,0.013513513840735
-0.152764290571213,0.013513513840735
-0.079376593232155,0.013513513840735
0.081573002040386,0.013513513840735
0.206674247980118,0.013513513840735
0.130429193377495,0.013513513840735
-0.118023045361042,0.013513513840735
0.086777776479721,0.013513513840735
-0.011678204871714,0.013513513840735
0.275922417640686,0.013513513840735
0.168613284826279,0.013513513840735
-0.097146913409233,0.013513513840735
-0.141573652625084,0.013513513840735
0.092041313648224,0.013513513840735
0.109912507236004,0.013513513840735
-0.050175651907921,0.013513513840735
-0.048489812761545,0.013513513840735
-0.325916856527328,0.013513513840735
0.009614920243621,0.013513513840735
0.021060666069388,0.013513513840735
-0.078448697924614,0.013513513840735
-0.062787905335426,0.013513513840735
-0.003476962447166,0.013513513840735
0.189437285065651,0.013513513840735
-0.281446278095245,0.013513513840735
0.110531300306320,0.013513513840735
-0.084244243800640,0.013513513840735
-0.164028689265251,0.013513513840735
-0.155588909983635,0.013513513840735
-0.015729388222098,0.013513513840735
0.005425550043583,0.013513513840735
-0.098742097616196,0.013513513840735
-0.057799085974693,0.013513513840735
0.084903284907341,0.013513513840735
-0.013075611554086,0.013513513840735
-0.100767433643341,0.013513513840735
-0.015005688183010,0.013513513840735
0.076263383030891,0.013513513840735
-0.105474025011063,0.013513513840735
0.083461768925190,0.013513513840735
-0.033119220286608,0.013513513840735
0.132349386811256,0.013513513840735
0.009486969560385,0.013513513840735
-0.060791440308094,0.013513513840735
-0.256920188665390,0.013513513840735
0.008328010328114,0.013513513840735
-0.186358258128166,0.013513513840735
-0.049140568822622,0.013513513840735
-0.161092936992645,0.013513513840735
0.094806298613548,0.013513513840735
-0.049832388758659,0.013513513840735
0.116251252591610,0.013513513840735
0.153662472963333,0.013513513840735
-0.055096827447414,0.013513513840735
0.067690439522266,0.013513513840735
-0.073511652648449,0.013513513840735
-0.118553310632706,0.013513513840735
-0.066204987466335,0.013513513840735
-0.230827078223228,0.013513513840735
0.099307328462601,0.013513513840735
0.126202598214149,0.013513513840735
0.120586790144444,0.013513513840735
-0.036978006362915,0.013513513840735
0.037781219929457,0.013513513840735
-0.117656342685223,0.013513513840735
0.115784525871277,0.013513513840735
0.067206054925919,0.013513513840735
0.027200652286410,0.013513513840735
0.112029798328876,0.013513513840735
-0.073907688260078,0.013513513840735
-0.029430067166686,0.013513513840735
-0.138324081897736,0.013513513840735
-0.050197232514620,0.013513513840735
0.015898242592812,0.013513513840735
0.106946669518948,0.013513513840735
0.082374185323715,0.013513513840735
0.036601141095161,0.013513513840735
0.036158230155706,0.013513513840735
-0.106158725917339,0.013513513840735
0.084153018891811,0.013513513840735
-0.065901733934879,0.013513513840735
-0.202022820711136,0.013513513840735
0.041544135659933,0.013513513840735
0.204583853483200,0.013513513840735
-0.190426737070084,0.013513513840735
0.107936225831509,0.013513513840735
-0.097116835415363,0.013513513840735
0.153322383761406,0.013513513840735
0.001523052458651,0.013513513840735
-0.263457715511322,0.013513513840735
-0.151237934827805,0.013513513840735
-0.082037866115570,0.013513513840735
0.214252352714539,0.013513513840735
-0.033440355211496,0.013513513840735
-0.058778379112482,0.013513513840735
0.108369871973991,0.013513513840735
0.064218312501907,0.013513513840735
-0.049607958644629,0.013513513840735
-0.073155023157597,0.013513513840735
-0.052558667957783,0.013513513840735
-0.182353854179382,0.013513513840735
0.061034187674522,0.013513513840735
0.052445366978645,0.013513513840735
0.062224362045527,0.013513513840735
-0.208345785737038,0.013513513840735
0.204060122370720,0.013513513840735
0.010561939328909,0.013513513840735
0.026097482070327,0.013513513840735
-0.212545096874237,0.013513513840735
-0.136811196804047,0.013513513840735
-0.035510126501322,0.013513513840735
0.006433197297156,0.013513513840735
-0.023939946666360,0.013513513840735
-0.007363768294454,0.013513513840735
0.123036660254002,0.013513513840735
-0.016835726797581,0.013513513840735
0.039365053176880,0.013513513840735
0.039178349077702,0.013513513840735
0.140885010361671,0.013513513840735
-0.076523892581463,0.013513513840735
0.116037271916866,0.013513513840735
-0.270502120256424,0.013513513840735
-0.128957882523537,0.013513513840735
-0.021792981773615,0.013513513840735
0.085235930979252,0.013513513840735
-0.090732574462891,0.013513513840735
-0.084370605647564,0.013513513840735
-0.021845908835530,0.013513513840735
0.172880560159683,0.013513513840735
0.049568809568882,0.013513513840735
0.071667827665806,0.013513513840735
0.110052123665810,0.013513513840735
0.037320405244827,0.013513513840735
0.024295771494508,0.013513513840735
-0.087989352643490,0.013513513840735
0.323689639568329,0.013513513840735
0.028516273945570,0.013513513840735
0.026173712685704,0.013513513840735
0.147421598434448,0.013513513840735
0.119259476661682,0.013513513840735
-0.051186095923185,0.013513513840735
0.034633517265320,0.013513513840735
-0.071580715477467,0.013513513840735
0.105525873601437,0.013513513840735
-0.072375304996967,0.013513513840735
-0.068681530654430,0.013513513840735
0.022520946338773,0.013513513840735
0.051273297518492,0.013513513840735
0.079840175807476,0.013513513840735
-0.184633046388626,0.013513513840735
0.026707403361797,0.013513513840735
0.198889657855034,0.013513513840735
-0.045809596776962,0.013513513840735
-0.119160532951355,0.013513513840735
-0.049220543354750,0.013513513840735
0.114785276353359,0.013513513840735
-0.166462779045105,0.013513513840735
-0.015685724094510,0.013513513840735
-0.259085983037949,0.013513513840735
-0.078228399157524,0.013513513840735
0.104547478258610,0.013513513840735
-0.270041555166245,0.013513513840735
-0.137453734874725,0.013513513840735
-0.056520968675613,0.013513513840735
-0.062787771224976,0.013513513840735
-0.111984670162201,0.013513513840735
0.166427880525589,0.013513513840735
-0.062730178236961,0.013513513840735
-0.029074825346470,0.013513513840735
-0.032834537327290,0.013513513840735
0.015574954450130,0.013513513840735
-0.157246306538582,0.013513513840735
0.078521497547626,0.013513513840735
0.180224627256393,0.013513513840735
-0.056994564831257,0.013513513840735
0.117502368986607,0.013513513840735
0.153413474559784,0.013513513840735
-0.025786995887756,0.013513513840735
-0.153654843568802,0.013513513840735
-0.202788978815079,0.013513513840735
0.108164489269257,0.013513513840735
0.117285728454590,0.013513513840735
0.042495146393776,0.013513513840735
-0.121191173791885,0.013513513840735
0.037239290773869,0.013513513840735
-0.185267671942711,0.013513513840735
0.023195879533887,0.013513513840735
0.022919159382582,0.013513513840735
0.101889774203300,0.013513513840735
0.114152818918228,0.013513513840735
-0.034641429781914,0.013513513840735
-0.137515336275101,0.013513513840735
0.069824062287807,0.013513513840735
0.154140874743462,0.013513513840735
0.172297090291977,0.013513513840735
-0.044052422046661,0.013513513840735
-0.217478200793266,0.013513513840735
0.009140152484179,0.013513513840735
-0.073438912630081,0.013513513840735
-0.026068730279803,0.013513513840735
0.005109133198857,0.013513513840735
0.028491999953985,0.013513513840735
0.031479824334383,0.013513513840735
-0.028166702017188,0.013513513840735
0.123810864984989,0.013513513840735
-0.081488199532032,0.013513513840735
0.132470563054085,0.013513513840735
-0.118613556027412,0.013513513840735
0.040438983589411,0.013513513840735
0.073069430887699,0.013513513840735
-0.111345939338207,0.013513513840735
-0.051972646266222,0.013513513840735
0.034491855651140,0.013513513840735
0.112986832857132,0.013513513840735
-0.047486439347267,0.013513513840735
0.192261323332787,0.013513513840735
-0.051654003560543,0.013513513840735
0.094300732016563,0.013513513840735
0.076533265411854,0.013513513840735
-0.111252740025520,0.013513513840735
-0.104503169655800,0.013513513840735
0.197814539074898,0.013513513840735
-0.302484899759293,0.013513513840735
-0.128165215253830,0.013513513840735
0.173290938138962,0.013513513840735
-0.154919520020485,0.013513513840735
0.135281771421432,0.013513513840735
0.069158710539341,0.013513513840735
-0.093892149627209,0.013513513840735
-0.042781442403793,0.013513513840735
0.077377326786518,0.013513513840735
-0.109068110585213,0.013513513840735
0.039883449673653,0.013513513840735
-0.068619854748249,0.013513513840735
0.069805972278118,0.013513513840735
-0.055955275893211,0.013513513840735
0.199066519737244,0.013513513840735
0.047566410154104,0.013513513840735
0.175755262374878,0.013513513840735
-0.111556135118008,0.013513513840735
-0.348541200160980,0.013513513840735
-0.178062871098518,0.013513513840735
-0.046004917472601,0.013513513840735
0.001685535884462,0.013513513840735
0.056782763451338,0.013513513840735
-0.020567871630192,0.013513513840735
0.020951544865966,0.013513513840735
0.366709619760513,0.013513513840735
0.053349241614342,0.013513513840735
-0.072025090456009,0.013513513840735
-0.155662238597870,0.013513513840735
-0.108383044600487,0.013513513840735
0.044208452105522,0.013513513840735
-0.039759390056133,0.013513513840735
0.192042812705040,0.013513513840735
-0.145479008555412,0.013513513840735
0.211988329887390,0.013513513840735
-0.219326406717300,0.013513513840735
-0.052859108895063,0.013513513840735
-0.088433869183064,0.013513513840735
-0.073931269347668,0.013513513840735
0.129902690649033,0.013513513840735
-0.198514968156815,0.013513513840735
0.110039256513119,0.013513513840735
0.059832796454430,0.013513513840735
-0.102297976613045,0.013513513840735
-0.069797672331333,0.013513513840735
-0.149897083640099,0.013513513840735
0.140340745449066,0.013513513840735
0.101891033351421,0.013513513840735
0.036409571766853,0.013513513840735
-0.004992791451514,0.013513513840735
0.145547807216644,0.013513513840735
-0.010149205103517,0.013513513840735
-0.040885403752327,0.013513513840735
-0.041393756866455,0.013513513840735
0.135636582970619,0.013513513840735
-0.122515760362148,0.013513513840735
-0.257164686918259,0.013513513840735
0.053808178752661,0.013513513840735
0.110205113887787,0.013513513840735
-0.020629370585084,0.013513513840735
0.088679492473602,0.013513513840735
0.001719965483062,0.013513513840735
-0.023309698328376,0.013513513840735
-0.164809316396713,0.013513513840735
0.073630094528198,0.013513513840735
-0.128754198551178,0.013513513840735
-0.106322556734085,0.013513513840735
0.047666050493717,0.013513513840735
0.060073085129261,0.013513513840735
-0.044433005154133,0.013513513840735
0.071549125015736,0.013513513840735
0.133214712142944,0.013513513840735
0.108265101909637,0.013513513840735
0.107798285782337,0.013513513840735
0.205409765243530,0.013513513840735
0.029748262837529,0.013513513840735
-0.014665127731860,0.013513513840735
0.035357948392630,0.013513513840735
-0.124886579811573,0.013513513840735
0.074475355446339,0.013513513840735
0.061598766595125,0.013513513840735
0.277806252241135,0.013513513840735
0.124758929014206,0.013513513840735
-0.027032997459173,0.013513513840735
-0.167819201946259,0.013513513840735
-0.110448524355888,0.013513513840735
-0.061913967132568,0.013513513840735
-0.084543161094189,0.013513513840735
-0.054387617856264,0.013513513840735
0.080259039998055,0.013513513840735
0.197511747479439,0.013513513840735
0.005011448636651,0.013513513840735
0.124660775065422,0.013513513840735
-0.118689119815826,0.013513513840735
0.206175088882446,0.013513513840735
0.088867440819740,0.013513513840735
0.075983718037605,0.013513513840735
0.076076813042164,0.013513513840735
0.012514401227236,0.013513513840735
-0.190628468990326,0.013513513840735
-0.021308487281203,0.013513513840735
0.092893332242966,0.013513513840735
0.070256985723972,0.013513513840735
-0.090839378535748,0.013513513840735
-0.091629639267921,0.013513513840735
0.114770643413067,0.013513513840735
-0.049378488212824,0.013513513840735
-0.159385323524475,0.013513513840735
-0.152038738131523,0.013513513840735
-0.062729075551033,0.013513513840735
-0.105380661785603,0.013513513840735
0.101116672158241,0.013513513840735
0.071362748742104,0.013513513840735
0.155241787433624,0.013513513840735
-0.104965478181839,0.013513513840735
-0.033255241811275,0.013513513840735
0.059659879654646,0.013513513840735
0.040102712810040,0.013513513840735
-0.074209466576576,0.013513513840735
0.006963420193642,0.013513513840735
-0.052240647375584,0.013513513840735
0.153218522667885,0.013513513840735
-0.025827899575233,0.013513513840735
-0.108597531914711,0.013513513840735
-0.208076193928719,0.013513513840735
0.052322056144476,0.013513513840735
-0.091510549187660,0.013513513840735
-0.077395513653755,0.013513513840735
-0.062438160181046,0.013513513840735
-0.245559111237526,0.013513513840735
-0.026263579726219,0.013513513840735
-0.200046420097351,0.013513513840735
0.093927562236786,0.013513513840735
-0.196740865707397,0.013513513840735
-0.068180002272129,0.013513513840735
-0.063241474330425,0.013513513840735
-0.086171567440033,0.013513513840735
-0.272984057664871,0.013513513840735
0.096243135631084,0.013513513840735
0.046754375100136,0.013513513840735
-0.069612361490726,0.013513513840735
-0.002275463659316,0.013513513840735
0.050552912056446,0.013513513840735
0.028167335316539,0.013513513840735
-0.087511375546455,0.013513513840735
-0.085456676781178,0.013513513840735
-0.037533320486546,0.013513513840735
0.030339187011123,0.013513513840735
0.042861483991146,0.013513513840735
-0.134775310754776,0.013513513840735
-0.089529804885387,0.013513513840735
-0.037170022726059,0.013513513840735
-0.071303717792034,0.013513513840735
0.164158418774605,0.013513513840735
-0.049417443573475,0.013513513840735
-0.098601005971432,0.013513513840735
0.002854154212400,0.013513513840735
0.049053292721510,0.013513513840735
0.068303227424622,0.013513513840735
0.185660988092422,0.013513513840735
-0.048665575683117,0.013513513840735
-0.106394961476326,0.013513513840735
0.092399150133133,0.013513513840735
0.010871973820031,0.013513513840735
0.051386609673500,0.013513513840735
0.104904338717461,0.013513513840735
0.114815160632133,0.013513513840735
0.093806497752666,0.013513513840735
0.186243355274200,0.013513513840735
-0.046629428863525,0.013513513840735
-0.096273474395275,0.013513513840735
-0.120511256158352,0.013513513840735
-0.081213459372520,0.013513513840735
0.046021662652493,0.013513513840735
-0.039437223225832,0.013513513840735
-0.085460297763348,0.013513513840735
0.017026308923960,0.013513513840735
-0.125035464763641,0.013513513840735
0.192111596465111,0.013513513840735
0.154290676116943,0.013513513840735
0.186759799718857,0.013513513840735
0.038777370005846,0.013513513840735
-0.087526403367519,0.013513513840735
-0.041149094700813,0.013513513840735
0.011292090639472,0.013513513840735
0.028373625129461,0.013513513840735
0.214117348194122,0.013513513840735
-0.007662638556212,0.013513513840735
0.070727661252022,0.013513513840735
0.106091544032097,0.013513513840735
0.044950239360332,0.013513513840735
0.092537924647331,0.013513513840735
0.189046278595924,0.013513513840735
0.207863003015518,0.013513513840735
0.106741420924664,0.013513513840735
-0.009064910933375,0.013513513840735
0.016651332378387,0.013513513840735
-0.127788424491882,0.013513513840735
0.086822092533112,0.013513513840735
-0.220247000455856,0.013513513840735
-0.027740264311433,0.013513513840735
-0.150058820843697,0.013513513840735
0.012285799719393,0.013513513840735
-0.065422624349594,0.013513513840735
-0.059814520180225,0.013513513840735
-0.001737440587021,0.013513513840735
0.012838732451200,0.013513513840735
0.043425355106592,0.013513513840735
0.072960779070854,0.013513513840735
-0.012264510616660,0.013513513840735
0.068461894989014,0.013513513840735
-0.111193940043449,0.013513513840735
0.180153533816338,0.013513513840735
-0.180820047855377,0.013513513840735
-0.147039681673050,0.013513513840735
0.135765135288239,0.013513513840735
-0.347906678915024,0.013513513840735
-0.147725716233253,0.013513513840735
-0.113596178591251,0.013513513840735
0.013989353552461,0.013513513840735
-0.072682909667492,0.013513513840735
0.073589876294136,0.013513513840735
-0.203990235924721,0.013513513840735
0.165290817618370,0.013513513840735
0.051994748413563,0.013513513840735
-0.004531943704933,0.013513513840735
0.014602804556489,0.013513513840735
0.160591840744019,0.013513513840735
-0.130182921886444,0.013513513840735
0.212211370468140,0.013513513840735
-0.178104519844055,0.013513513840735
0.111359484493732,0.013513513840735
-0.112440817058086,0.013513513840735
0.040030807256699,0.013513513840735
-0.035245429724455,0.013513513840735
0.108610875904560,0.013513513840735
0.044155623763800,0.013513513840735
-0.019870698451996,0.013513513840735
-0.189998924732208,0.013513513840735
-0.117294773459435,0.013513513840735
0.044642247259617,0.013513513840735
0.102956287562847,0.013513513840735
-0.122673794627190,0.013513513840735
-0.044925387948751,0.013513513840735
-0.040170330554247,0.013513513840735
0.053640805184841,0.013513513840735
0.109504930675030,0.013513513840735
-0.161577016115189,0.013513513840735
0.186941221356392,0.013513513840735
-0.015718422830105,0.013513513840735
0.085584789514542,0.013513513840735
-0.009605163708329,0.013513513840735
0.030083363875747,0.013513513840735
0.213166490197182,0.013513513840735
0.213590934872627,0.013513513840735
0.150854110717773,0.013513513840735
-0.014911156147718,0.013513513840735
-0.044497478753328,0.013513513840735
-0.068810582160950,0.013513513840735
-0.032943334430456,0.013513513840735
-0.032675758004189,0.013513513840735
-0.136319667100906,0.013513513840735
-0.160564005374908,0.013513513840735
-0.021297065541148,0.013513513840735
-0.077866919338703,0.013513513840735
0.029407262802124,0.013513513840735
-0.033376526087523,0.013513513840735
-0.175677895545959,0.013513513840735
0.000138756615343,0.013513513840735
-0.143311396241188,0.013513513840735
0.203811019659042,0.013513513840735
-0.044674754142761,0.013513513840735
0.238077282905579,0.013513513840735
-0.014250493608415,0.013513513840735
-0.102957800030708,0.013513513840735
0.054185718297958,0.013513513840735
-0.066024012863636,0.013513513840735
-0.016578808426857,0.013513513840735
0.003546702209860,0.013513513840735
0.056362330913544,0.013513513840735
-0.124041527509689,0.013513513840735
0.102206744253635,0.013513513840735
-0.191992118954659,0.013513513840735
0.062198802828789,0.013513513840735
0.026801234111190,0.013513513840735
-0.092416472733021,0.013513513840735
-0.037329107522964,0.013513513840735
0.005384977906942,0.013513513840735
-0.045276094228029,0.013513513840735
0.064522333443165,0.013513513840735
-0.203557491302490,0.013513513840735
-0.053183287382126,0.013513513840735
0.089934691786766,0.013513513840735
0.139067262411118,0.013513513840735
0.019024506211281,0.013513513840735
-0.024823170155287,0.013513513840735
0.172504544258118,0.013513513840735
0.103503987193108,0.013513513840735
-0.092916697263718,0.013513513840735
0.102805674076080,0.013513513840735
0.028252916410565,0.013513513840735
-0.074149198830128,0.013513513840735
-0.065535366535187,0.013513513840735
-0.117570824921131,0.013513513840735
0.052030529826880,0.013513513840735
-0.014949164353311,0.013513513840735
-0.121481977403164,0.013513513840735
0.196444705128670,0.013513513840735
-0.175102457404137,0.013513513840735
-0.142652139067650,0.013513513840735
0.028388507664204,0.013513513840735
-0.114868052303791,0.013513513840735
0.093343704938889,0.013513513840735
0.025006487965584,0.013513513840735
0.050727516412735,0.013513513840735
0.014554965309799,0.013513513840735
0.176377475261688,0.013513513840735
-0.064048118889332,0.013513513840735
-0.165042668581009,0.013513513840735
-0.136719912290573,0.013513513840735
0.208445534110069,0.013513513840735
0.023314496502280,0.013513513840735
-0.007626236416399,0.013513513840735
-0.036477539688349,0.013513513840735
0.071434020996094,0.013513513840735
0.152714967727661,0.013513513840735
-0.063009530305862,0.013513513840735
-0.129332989454269,0.013513513840735
0.022715598344803,0.013513513840735
0.000245888222707,0.013513513840735
-0.185016348958015,0.013513513840735
0.024859815835953,0.013513513840735
0.111168548464775,0.013513513840735
-0.031189803034067,0.013513513840735
-0.216404139995575,0.013513513840735
-0.142707958817482,0.013513513840735
0.032317932695150,0.013513513840735
-0.100249908864498,0.013513513840735
-0.014029622077942,0.013513513840735
0.260251611471176,0.013513513840735
-0.069283664226532,0.013513513840735
0.104117199778557,0.013513513840735
-0.086179569363594,0.013513513840735
-0.179773554205894,0.013513513840735
-0.143208995461464,0.013513513840735
-0.081437125802040,0.013513513840735
0.144252106547356,0.013513513840735
-0.101496547460556,0.013513513840735
0.027111392468214,0.013513513840735
0.079239331185818,0.013513513840735
-0.051210142672062,0.013513513840735
-0.019988879561424,0.013513513840735
0.146872013807297,0.013513513840735
0.023266566917300,0.013513513840735
0.105347253382206,0.013513513840735
-0.130206987261772,0.013513513840735
-0.151441007852554,0.013513513840735
0.083342276513577,0.013513513840735
0.094645529985428,0.013513513840735
0.132448941469193,0.013513513840735
0.106590904295444,0.013513513840735
-0.135208874940872,0.013513513840735
0.238511830568314,0.013513513840735
-0.017162207514048,0.013513513840735
0.128166034817696,0.013513513840735
-0.215851277112961,0.013513513840735
0.081619262695312,0.013513513840735
-0.075017429888248,0.013513513840735
-0.209330156445503,0.013513513840735
0.063113689422607,0.013513513840735
0.179287955164909,0.013513513840735
0.167784333229065,0.013513513840735
0.062519825994968,0.013513513840735
-0.027801629155874,0.013513513840735
-0.157696679234505,0.013513513840735
-0.123479925096035,0.013513513840735
-0.160830691456795,0.013513513840735
-0.146330937743187,0.013513513840735
-0.196547523140907,0.013513513840735
0.087074905633926,0.013513513840735
-0.147385492920876,0.013513513840735
0.287852793931961,0.013513513840735
0.050696030259132,0.013513513840735
-0.086859159171581,0.013513513840735
-0.068215377628803,0.013513513840735
0.119975455105305,0.013513513840735
-0.131480321288109,0.013513513840735
0.022064652293921,0.013513513840735
0.220808193087578,0.013513513840735
-0.030740266665816,0.013513513840735
-0.044874828308821,0.013513513840735
0.121355250477791,0.013513513840735
-0.033032793551683,0.013513513840735
0.006984935607761,0.013513513840735
0.011125424876809,0.013513513840735
-0.105335511267185,0.013513513840735
0.096163548529148,0.013513513840735
-0.183748275041580,0.013513513840735
-0.028303418308496,0.013513513840735
0.247339248657227,0.013513513840735
0.125157549977303,0.013513513840735
0.146159023046494,0.013513513840735
0.008514475077391,0.013513513840735
-0.046934895217419,0.013513513840735
0.066033221781254,0.013513513840735
-0.037420295178890,0.013513513840735
0.111080639064312,0.013513513840735
0.071838602423668,0.013513513840735
-0.025898680090904,0.013513513840735
0.236841827630997,0.013513513840735
-0.110389702022076,0.013513513840735
0.235488697886467,0.013513513840735
-0.003526337211952,0.013513513840735
0.099156983196735,0.013513513840735
0.038523454219103,0.013513513840735
0.147451013326645,0.013513513840735
-0.020097337663174,0.013513513840735
-0.180226981639862,0.013513513840735
-0.027863238006830,0.013513513840735
0.046353656798601,0.013513513840735
0.108863823115826,0.013513513840735
-0.216087222099304,0.013513513840735
-0.082952074706554,0.013513513840735
-0.086957678198814,0.013513513840735
-0.055526323616505,0.013513513840735
0.137816831469536,0.013513513840735
-0.055062659084797,0.013513513840735
0.015169285237789,0.013513513840735
0.029675381258130,0.013513513840735
0.063780382275581,0.013513513840735
0.100958667695522,0.013513513840735
0.046597711741924,0.013513513840735
0.048906888812780,0.013513513840735
-0.137097135186195,0.013513513840735
0.008900785818696,0.013513513840735
0.029783872887492,0.013513513840735
0.099856801331043,0.013513513840735
-0.004675750155002,0.013513513840735
0.105433203279972,0.013513513840735
-0.063182875514030,0.013513513840735
0.052395157516003,0.013513513840735
0.228863105177879,0.013513513840735
-0.022297315299511,0.013513513840735
0.186548784375191,0.013513513840735
-0.111112661659718,0.013513513840735
-0.096096940338612,0.013513513840735
-0.069125317037106,0.013513513840735
0.085884973406792,0.013513513840735
-0.163626953959465,0.013513513840735
-0.110275074839592,0.013513513840735
-0.184766098856926,0.013513513840735
-0.223671719431877,0.013513513840735
0.133924275636673,0.013513513840735
0.085951425135136,0.013513513840735
0.010177160613239,0.013513513840735
0.164307281374931,0.013513513840735
0.071572937071323,0.013513513840735
-0.013515458442271,0.013513513840735
-0.099712818861008,0.013513513840735
0.194131627678871,0.013513513840735
0.137785062193871,0.013513513840735
0.074059188365936,0.013513513840735
0.177045121788979,0.013513513840735
0.012343976646662,0.013513513840735
-0.019460657611489,0.013513513840735
0.032211359590292,0.013513513840735
-0.259433418512344,0.013513513840735
0.175023451447487,0.013513513840735
-0.025356940925121,0.013513513840735
0.076511822640896,0.013513513840735
0.013857539743185,0.013513513840735
-0.074161581695080,0.013513513840735
-0.105724774301052,0.013513513840735
-0.237542673945427,0.013513513840735
0.012195295654237,0.013513513840735
-0.199424952268600,0.013513513840735
0.075659029185772,0.013513513840735
0.116373270750046,0.013513513840735
-0.046966176480055,0.013513513840735
-0.026391223073006,0.013513513840735
-0.065247014164925,0.013513513840735
0.116710029542446,0.013513513840735
-0.014766360633075,0.013513513840735
-0.056763000786304,0.013513513840735
-0.016335062682629,0.013513513840735
-0.054651733487844,0.013513513840735
0.176514267921448,0.013513513840735
0.000696154078469,0.013513513840735
0.187418356537819,0.013513513840735
0.299119859933853,0.013513513840735
0.043560627847910,0.013513513840735
0.040763564407825,0.013513513840735
0.088856123387814,0.013513513840735
0.191477045416832,0.013513513840735
0.049355026334524,0.013513513840735
0.322833240032196,0.013513513840735
-0.024980958551168,0.013513513840735
0.011641960591078,0.013513513840735
-0.083127677440643,0.013513513840735
-0.105784043669701,0.013513513840735
0.107844524085522,0.013513513840735
-0.119978740811348,0.013513513840735
0.087516076862812,0.013513513840735
-0.063794352114201,0.013513513840735
0.092542625963688,0.013513513840735
-0.140768557786942,0.013513513840735
0.014286907389760,0.013513513840735
0.019000481814146,0.013513513840735
-0.088613063097000,0.013513513840735
0.150829687714577,0.013513513840735
0.044158712029457,0.013513513840735
0.103426583111286,0.013513513840735
0.027719222009182,0.013513513840735
-0.100479669868946,0.013513513840735
-0.054155580699444,0.013513513840735
0.206470832228661,0.013513513840735
0.034931503236294,0.013513513840735
-0.104898065328598,0.013513513840735
0.029692076146603,0.013513513840735
0.079443112015724,0.013513513840735
-0.013102822005749,0.013513513840735
0.046215560287237,0.013513513840735
0.112620703876019,0.013513513840735
0.229218631982803,0.013513513840735
0.050606254488230,0.013513513840735
-0.008428372442722,0.013513513840735
0.067448452115059,0.013513513840735
-0.136247768998146,0.013513513840735
0.046678118407726,0.013513513840735
0.214905664324760,0.013513513840735
-0.007862460799515,0.013513513840735
0.097260937094688,0.013513513840735
0.006066299509257,0.013513513840735
0.112362280488014,0.013513513840735
0.219368845224380,0.013513513840735
-0.019870117306709,0.013513513840735
0.019423695281148,0.013513513840735
-0.000403719663154,0.013513513840735
0.075566530227661,0.013513513840735
0.037443213164806,0.013513513840735
-0.046316355466843,0.013513513840735
0.077653780579567,0.013513513840735
0.022119706496596,0.013513513840735
0.100538223981857,0.013513513840735
0.116695456206799,0.013513513840735
-0.174781143665314,0.013513513840735
0.002489955164492,0.013513513840735
0.141484484076500,0.013513513840735
0.018634304404259,0.013513513840735
0.131852880120277,0.013513513840735
-0.036603301763535,0.013513513840735
-0.034035108983517,0.013513513840735
0.242423892021179,0.013513513840735
-0.146702781319618,0.013513513840735
-0.025460978969932,0.013513513840735
0.163542270660400,0.013513513840735
0.010794312693179,0.013513513840735
0.116141863167286,0.013513513840735
-0.146867945790291,0.013513513840735
0.131920263171196,0.013513513840735
-0.065969891846180,0.013513513840735
-0.049997162073851,0.013513513840735
0.117556758224964,0.013513513840735
0.146468684077263,0.013513513840735
-0.034870550036430,0.013513513840735
-0.015412879176438,0.013513513840735
0.027159424498677,0.013513513840735
-0.080908864736557,0.013513513840735
-0.044469386339188,0.013513513840735
0.065356366336346,0.013513513840735
0.007482766639441,0.013513513840735
-0.209655955433846,0.013513513840735
-0.008907885290682,0.013513513840735
0.045499179512262,0.013513513840735
-0.148312807083130,0.013513513840735
-0.138825729489326,0.013513513840735
0.173874750733376,0.013513513840735
-0.103172518312931,0.013513513840735
0.023654470220208,0.013513513840735
0.042497109621763,0.013513513840735
0.145103946328163,0.013513513840735
-0.021843032911420,0.013513513840735
0.017820145934820,0.013513513840735
0.042881004512310,0.013513513840735
0.024902967736125,0.013513513840735
-0.084751486778259,0.013513513840735
0.067494794726372,0.013513513840735
0.088780567049980,0.013513513840735
0.464713513851166,0.013513513840735
0.051071144640446,0.013513513840735
0.038762148469687,0.013513513840735
0.121659480035305,0.013513513840735
0.025243151932955,0.013513513840735
0.026100078597665,0.013513513840735
-0.151358038187027,0.013513513840735
0.088660687208176,0.013513513840735
0.117374151945114,0.013513513840735
-0.086891159415245,0.013513513840735
-0.066598944365978,0.013513513840735
-0.039742134511471,0.013513513840735
-0.030190978199244,0.013513513840735
0.048115298151970,0.013513513840735
-0.150248408317566,0.013513513840735
-0.126266926527023,0.013513513840735
0.005454588215798,0.013513513840735
-0.080155022442341,0.013513513840735
0.014012171886861,0.013513513840735
0.160486802458763,0.013513513840735
-0.060848180204630,0.013513513840735
-0.070206299424171,0.013513513840735
0.266148239374161,0.013513513840735
-0.047505944967270,0.013513513840735
0.050608385354280,0.013513513840735
0.254547417163849,0.013513513840735
-0.002494790125638,0.013513513840735
0.213702633976936,0.013513513840735
-0.017470180988312,0.013513513840735
0.200956195592880,0.013513513840735
-0.150029256939888,0.013513513840735
-0.084147356450558,0.013513513840735
-0.030479108914733,0.013513513840735
0.066551610827446,0.013513513840735
0.133011937141418,0.013513513840735
-0.217735290527344,0.013513513840735
-0.008633346296847,0.013513513840735
-0.218977063894272,0.013513513840735
-0.212453737854958,0.013513513840735
-0.124108500778675,0.013513513840735
0.014844368211925,0.013513513840735
0.124368213117123,0.013513513840735
0.022222897037864,0.013513513840735
0.130058273673058,0.013513513840735
0.000919712299947,0.013513513840735
-0.012629989534616,0.013513513840735
0.103591367602348,0.013513513840735
