mw,Sw
0.006794017739594,0.024999998509884
0.139667659997940,0.024999998509884
0.031320810317993,0.024999998509884
0.099831141531467,0.024999998509884
0.182841345667839,0.024999998509884
-0.316595047712326,0.024999998509884
-0.070340268313885,0.024999998509884
-0.132281184196472,0.024999998509884
-0.219426751136780,0.024999998509884
0.086495459079742,0.024999998509884
-0.060084450989962,0.024999998509884
-0.068342193961143,0.024999998509884
-0.157880648970604,0.024999998509884
-0.078110478818417,0.024999998509884
-0.067089162766933,0.024999998509884
0.016408029943705,0.024999998509884
0.051777578890324,0.024999998509884
0.119544371962547,0.024999998509884
0.138950273394585,0.024999998509884
-0.261852443218231,0.024999998509884
0.252329170703888,0.024999998509884
-0.129237562417984,0.024999998509884
-0.059303101152182,0.024999998509884
-0.127687513828278,0.024999998509884
0.107372395694256,0.024999998509884
-0.024031536653638,0.024999998509884
0.007205522619188,0.024999998509884
0.255638718605042,0.024999998509884
0.021885693073273,0.024999998509884
-0.118382960557938,0.024999998509884
-0.280086547136307,0.024999998509884
0.041753992438316,0.024999998509884
-0.218728020787239,0.024999998509884
-0.251986622810364,0.024999998509884
0.093011967837811,0.024999998509884
0.220786288380623,0.024999998509884
0.201413452625275,0.024999998509884
0.269024401903152,0.024999998509884
-0.099540941417217,0.024999998509884
0.046541184186935,0.024999998509884
0.070463091135025,0.024999998509884
0.007198996376246,0.024999998509884
0.109247207641602,0.024999998509884
0.045307073742151,0.024999998509884
-0.134486511349678,0.024999998509884
-0.144409745931625,0.024999998509884
-0.123446866869926,0.024999998509884
-0.265056967735291,0.024999998509884
-0.232371911406517,0.024999998509884
-0.006203325930983,0.024999998509884
0.044433705508709,0.024999998509884
-0.054551184177399,0.024999998509884
-0.092179611325264,0.024999998509884
-0.136495128273964,0.024999998509884
-0.067454017698765,0.024999998509884
0.036579202860594,0.024999998509884
0.150784581899643,0.024999998509884
0.000668067194056,0.024999998509884
0.209560468792915,0.024999998509884
-0.012560091912746,0.024999998509884
0.097112871706486,0.024999998509884
-0.050331301987171,0.024999998509884
0.065471760928631,0.024999998509884
0.177439346909523,0.024999998509884
0.003512907773256,0.006666666828096
0.072128117084503,0.006666666828096
0.016178037971258,0.006666666828096
0.051557324826717,0.006666666828096
0.094423070549965,0.006666666828096
-0.163484469056129,0.006666666828096
-0.036319263279438,0.006666666828096
-0.068304687738419,0.006666666828096
-0.113306969404221,0.006666666828096
0.044670283794403,0.006666666828096
-0.031022969633341,0.006666666828096
-0.035286732017994,0.006666666828096
-0.081526324152946,0.006666666828096
-0.040333405137062,0.006666666828096
-0.034642100334167,0.006666666828096
0.008476668968797,0.006666666828096
0.026756104081869,0.006666666828096
0.061750516295433,0.006666666828096
0.071771681308746,0.006666666828096
-0.135203078389168,0.006666666828096
0.130319014191628,0.006666666828096
-0.066721647977829,0.006666666828096
-0.030607650056481,0.006666666828096
-0.065922304987907,0.006666666828096
0.055463351309299,0.006666666828096
-0.012398139573634,0.006666666362435
0.003733140882105,0.006666666828096
0.132022410631180,0.006666666828096
0.011313370428979,0.006666666828096
-0.061121359467506,0.006666666828096
-0.144625127315521,0.006666666362435
0.021572051569819,0.006666666828096
-0.112988658249378,0.006666666828096
-0.130162894725800,0.006666666828096
0.047993518412113,0.006666666828096
0.113976255059242,0.006666666362435
0.103971451520920,0.006666666828096
0.138886004686356,0.006666666828096
-0.051440320909023,0.006666666828096
0.023996843025088,0.006666666828096
0.036348443478346,0.006666666362435
0.003679946530610,0.006666666828096
0.056377422064543,0.006666666828096
0.023359648883343,0.006666666828096
-0.069486916065216,0.006666666828096
-0.074611447751522,0.006666666828096
-0.063785724341869,0.006666666828096
-0.136912107467651,0.006666666828096
-0.120017059147358,0.006666666828096
-0.003223863197491,0.006666666828096
0.022931883111596,0.006666666828096
-0.028182251378894,0.006666666828096
-0.047614056617022,0.006666666828096
-0.070498101413250,0.006666666828096
-0.034845404326916,0.006666666828096
0.018878629431129,0.006666666828096
0.077851988375187,0.006666666828096
0.000332536292262,0.006666666828096
0.108204111456871,0.006666666828096
-0.006496874149889,0.006666666828096
0.050134159624577,0.006666666828096
-0.026005389168859,0.006666666828096
0.033795062452555,0.006666666828096
0.091616503894329,0.006666666828096
-0.100189410150051,0.006666666828096
-0.088029459118843,0.006666666828096
-0.112683214247227,0.006666666828096
-0.048285089433193,0.006666666828096
-0.047833245247602,0.006666666828096
-0.166306644678116,0.006666666828096
-0.002551800804213,0.006666666828096
0.104259818792343,0.006666666828096
-0.066754579544067,0.006666666828096
0.008317373692989,0.006666666828096
0.123958297073841,0.006666666828096
-0.006348654162139,0.006666666828096
-0.052061311900616,0.006666666828096
0.030236685648561,0.006666666828096
-0.037544377148151,0.006666666828096
-0.006851225625724,0.006666666828096
0.092332713305950,0.006666666828096
-0.063181951642036,0.006666666828096
-0.046911314129829,0.006666666828096
-0.088307678699493,0.006666666828096
0.026565317064524,0.006666666828096
-0.005422979127616,0.006666666828096
-0.093400277197361,0.006666666828096
-0.019615260884166,0.006666666828096
0.046703357249498,0.006666666828096
-0.012804495170712,0.006666666828096
-0.089372277259827,0.006666666828096
-0.004560585599393,0.006666666828096
-0.064120166003704,0.006666666828096
0.005258228629827,0.006666666828096
0.018906161189079,0.006666666828096
0.165169879794121,0.006666666828096
0.150937393307686,0.006666666828096
-0.039238516241312,0.006666666828096
0.086902357637882,0.006666666828096
0.141934171319008,0.006666666828096
0.096200644969940,0.006666665431112
0.041907336562872,0.006666665431112
0.034563302993774,0.006666665431112
-0.011822003871202,0.006666665431112
-0.087041817605495,0.006666665431112
-0.168937236070633,0.006666665431112
0.075848244130611,0.006666665431112
0.152408927679062,0.006666665431112
0.035924855619669,0.006666665431112
-0.012709948234260,0.006666665431112
0.068774074316025,0.006666665431112
-0.068994402885437,0.006666665431112
0.137323707342148,0.006666665431112
0.159706562757492,0.006666665431112
-0.101957947015762,0.006666665431112
-0.036245945841074,0.006666665431112
0.141848921775818,0.006666665431112
-0.064994953572750,0.006666665431112
-0.082185983657837,0.006666665431112
0.022237632423639,0.006666665431112
0.006239291280508,0.006666665431112
0.076547682285309,0.006666665431112
0.050708688795567,0.006666665431112
-0.180170714855194,0.006666665431112
0.164547473192215,0.006666665431112
-0.002587874885648,0.006666664034128
-0.016105940565467,0.006666664034128
-0.008582122623920,0.006666664034128
-0.039796512573957,0.006666664034128
-0.086773425340652,0.006666664034128
-0.043939378112555,0.006666664034128
0.070939548313618,0.006666664034128
0.024407749995589,0.006666664034128
0.104046240448952,0.006666664034128
0.013542328029871,0.006666664034128
-0.189963936805725,0.006666664034128
0.025070156902075,0.006666664034128
0.087985031306744,0.006666664034128
-0.101670049130917,0.006666664034128
-0.001133234938607,0.006666664034128
-0.025768296793103,0.006666664034128
-0.005451702047139,0.006666664034128
-0.140378028154373,0.006666664034128
0.130347982048988,0.006666664034128
-0.120691686868668,0.006666664034128
-0.004700785968453,0.006666664034128
0.105699315667152,0.006666664034128
0.055015780031681,0.006666664034128
-0.080813176929951,0.006666664034128
0.100446827709675,0.006666664034128
0.107101596891880,0.006666665896773
0.018249310553074,0.006666665896773
0.105596587061882,0.006666665896773
-0.146593719720840,0.006666665896773
-0.024228332564235,0.006666665896773
-0.119512677192688,0.006666665896773
-0.092242203652859,0.006666665896773
0.120400205254555,0.006666665896773
0.030047608539462,0.006666665896773
-0.063637971878052,0.006666665896773
-0.094800770282745,0.006666665896773
0.148761034011841,0.006666665896773
-0.001620689290576,0.006666665896773
-0.119933612644672,0.006666665896773
0.032038312405348,0.006666665896773
-0.142462342977524,0.006666665896773
0.094433210790157,0.006666665896773
-0.103017702698708,0.006666665896773
-0.040770865976810,0.006666665896773
0.044611830264330,0.006666665896773
0.030743097886443,0.006666665896773
0.073419839143753,0.006666665896773
-0.076168514788151,0.006666665896773
0.025632718577981,0.006666665896773
-0.102704368531704,0.006666665896773
0.174196034669876,0.006666665431112
0.131090044975281,0.006666665431112
0.082908563315868,0.006666665431112
-0.064413510262966,0.006666665431112
-0.077551513910294,0.006666665431112
-0.087866485118866,0.006666665431112
0.078730612993240,0.006666665431112
-0.092623494565487,0.006666665431112
0.070272706449032,0.006666665431112
-0.077116854488850,0.006666665431112
0.143209964036942,0.006666665431112
-0.080307573080063,0.006666665431112
0.049341171979904,0.006666665431112
-0.134745344519615,0.006666665431112
0.130336120724678,0.006666665431112
-0.147778376936913,0.006666665431112
0.048266220837831,0.006666665431112
-0.001699778484181,0.006666665431112
-0.179364234209061,0.006666665431112
-0.180122002959251,0.006666665431112
0.155124619603157,0.006666665431112
-0.002396595431492,0.006666665431112
-0.051555465906858,0.006666665431112
-0.044812399893999,0.006666665431112
0.045847024768591,0.006666665431112
-0.044573817402124,0.006666664034128
0.054512273520231,0.006666664034128
0.089205756783485,0.006666664034128
0.205063715577126,0.006666664034128
0.001936844200827,0.006666664034128
0.014246091246605,0.006666664034128
0.038454551249743,0.006666664034128
0.197246864438057,0.006666664034128
-0.049498040229082,0.006666664034128
0.028333043679595,0.006666664034128
0.077566169202328,0.006666664034128
0.019222568720579,0.006666664034128
0.013315187767148,0.006666664034128
0.083745077252388,0.006666664034128
-0.121183484792709,0.006666664034128
0.020313894376159,0.006666664034128
-0.010478951036930,0.006666664034128
-0.086470954120159,0.006666664034128
0.061610709875822,0.006666664034128
-0.035455826669931,0.006666664034128
-0.020840434357524,0.006666664499789
0.078220330178738,0.006666664499789
0.002629172522575,0.006666664499789
-0.036644320935011,0.006666664499789
0.053998120129108,0.006666664499789
0.037162337452173,0.006666661705822
-0.056515794247389,0.006666661705822
-0.065323762595654,0.006666661705822
-0.057656951248646,0.006666661705822
-0.113920114934444,0.006666662171483
-0.033854573965073,0.006666661705822
0.012633583508432,0.006666662171483
-0.024528579786420,0.006666662171483
0.048436336219311,0.006666662171483
-0.025140501558781,0.006666662171483
-0.009128522127867,0.006666661705822
-0.029736477881670,0.006666662171483
0.011977156624198,0.006666662171483
-0.061178248375654,0.006666662171483
0.111603498458862,0.006666662171483
-0.110749430954456,0.006666661705822
0.084338814020157,0.006666662171483
0.126281797885895,0.006666662171483
0.157700791954994,0.006666662171483
0.038993891328573,0.006666662171483
0.060504846274853,0.006666661705822
-0.116697520017624,0.006666662171483
0.109005197882652,0.006666662171483
0.054190117865801,0.006666662171483
-0.045536700636148,0.006666662171483
-0.129038959741592,0.006666665431112
-0.096833802759647,0.006666665431112
0.023579603061080,0.006666665431112
0.087557122111320,0.006666665431112
0.052060246467590,0.006666665431112
-0.006044873502105,0.006666664965451
-0.012853456661105,0.006666664965451
-0.014191662892699,0.006666664965451
-0.095017403364182,0.006666664965451
-0.046208113431931,0.006666664965451
-0.115475282073021,0.006666664965451
0.034929305315018,0.006666664965451
0.067745171487331,0.006666664965451
-0.051555477082729,0.006666664965451
-0.011264929547906,0.006666664965451
0.034628614783287,0.006666664965451
-0.072831436991692,0.006666664965451
0.016484022140503,0.006666664965451
-0.068873070180416,0.006666664965451
0.024989731609821,0.006666664965451
0.034344572573900,0.006666665431112
0.024306962266564,0.006666665431112
0.047658190131187,0.006666665431112
-0.056447841227055,0.006666665431112
-0.065337158739567,0.006666665431112
-0.018416078761220,0.006666664499789
0.088239550590515,0.006666664499789
-0.100920215249062,0.006666664499789
0.105426616966724,0.006666664499789
-0.034177035093307,0.006666664499789
0.050903711467981,0.006666664499789
-0.024791078642011,0.006666664499789
0.064725697040558,0.006666664499789
0.053784720599651,0.006666664499789
0.110166728496552,0.006666664499789
0.142372772097588,0.006666664499789
0.046652331948280,0.006666664499789
-0.160572230815887,0.006666664499789
0.182553157210350,0.006666664499789
0.146983161568642,0.006666664499789
0.090031355619431,0.006666664499789
-0.054112236946821,0.006666664499789
0.054030667990446,0.006666664499789
-0.070490859448910,0.006666664499789
0.173454090952873,0.006666664499789
-0.111567638814449,0.006666664499789
0.164337292313576,0.006666664499789
0.036313802003860,0.006666664499789
-0.036772873252630,0.006666664499789
-0.054826185107231,0.006666664499789
0.008785168640316,0.006666665431112
0.124120458960533,0.006666665431112
-0.024402188137174,0.006666665431112
-0.007787590846419,0.006666665431112
0.004603030625731,0.006666665431112
-0.003893274348229,0.006666665431112
0.086916185915470,0.006666665431112
-0.094328649342060,0.006666665431112
-0.120893642306328,0.006666665431112
-0.026355354115367,0.006666665431112
0.000359996512998,0.006666665431112
-0.093965902924538,0.006666665431112
0.130329832434654,0.006666665431112
-0.059273868799210,0.006666665431112
-0.280063986778259,0.006666665431112
-0.046243678778410,0.006666665431112
-0.021319936960936,0.006666665431112
0.092753268778324,0.006666665431112
-0.037075430154800,0.006666665431112
0.096682958304882,0.006666665431112
-0.076061293482780,0.006666665431112
0.093042515218258,0.006666665431112
0.110436290502548,0.006666665431112
0.006959317717701,0.006666665431112
0.015455772168934,0.006666665431112
0.151172593235970,0.006666664034128
0.021822219714522,0.006666664034128
0.113008946180344,0.006666664034128
0.005511856172234,0.006666664034128
0.144577100872993,0.006666664034128
0.018647149205208,0.006666664034128
-0.055710833519697,0.006666664034128
-0.052894443273544,0.006666664034128
0.089699611067772,0.006666664034128
0.009084886871278,0.006666664034128
0.092258326709270,0.006666664034128
0.130548745393753,0.006666664034128
0.026493338868022,0.006666664034128
-0.035779118537903,0.006666664034128
-0.008199085481465,0.006666664034128
-0.210862129926682,0.006666664034128
0.031605690717697,0.006666664034128
0.025173317641020,0.006666664034128
-0.081861272454262,0.006666664034128
0.227753877639771,0.006666664034128
-0.046067457646132,0.006666664034128
0.074185647070408,0.006666664034128
0.031611450016499,0.006666664034128
0.020206246525049,0.006666664034128
-0.016757573932409,0.006666664034128
0.074813015758991,0.006666665896773
-0.121993727982044,0.006666665896773
-0.025236383080482,0.006666665896773
0.008608066476882,0.006666665896773
-0.031313780695200,0.006666665896773
0.121179848909378,0.006666665896773
-0.023539120331407,0.006666665896773
0.022706655785441,0.006666665896773
-0.156385019421577,0.006666665896773
0.169640496373177,0.006666665896773
-0.029897918924689,0.006666665896773
-0.149593636393547,0.006666665896773
-0.011021349579096,0.006666665896773
-0.050322007387877,0.006666665896773
-0.223822817206383,0.006666665896773
-0.103747949004173,0.006666665896773
-0.017215877771378,0.006666665896773
-0.047422472387552,0.006666665896773
0.056031242012978,0.006666665896773
-0.046801205724478,0.006666665896773
-0.158455207943916,0.006666665896773
0.022531941533089,0.006666665896773
0.056790221482515,0.006666665896773
0.040825992822647,0.006666665896773
-0.150615453720093,0.006666665896773
0.040828157216311,0.006666665431112
-0.112034916877747,0.006666665431112
-0.048923306167126,0.006666665431112
0.038668859750032,0.006666665431112
0.026083521544933,0.006666665431112
-0.036020398139954,0.006666665431112
-0.007076665759087,0.006666665431112
0.049912571907043,0.006666665431112
0.016038822010159,0.006666665431112
0.035570073872805,0.006666665431112
-0.132771223783493,0.006666665431112
-0.109365776181221,0.006666665431112
-0.136621668934822,0.006666665431112
0.022447811439633,0.006666665431112
-0.064241357147694,0.006666665431112
0.008445177227259,0.006666665431112
-0.079823546111584,0.006666665431112
0.106409557163715,0.006666665431112
0.015480931848288,0.006666665431112
-0.058355301618576,0.006666665431112
0.176648288965225,0.006666665431112
0.069060191512108,0.006666665431112
-0.142090380191803,0.006666665431112
0.088340364396572,0.006666665431112
0.014813167043030,0.006666665431112
-0.026672413572669,0.006666663102806
0.003771039890125,0.006666663102806
-0.107715696096420,0.006666663102806
0.068146787583828,0.006666663102806
0.021233716979623,0.006666663102806
-0.050614755600691,0.006666663102806
0.018441706895828,0.006666663102806
0.061826072633266,0.006666663102806
-0.075589790940285,0.006666663102806
0.025882139801979,0.006666663102806
0.033825129270554,0.006666663102806
0.052026815712452,0.006666663102806
0.122921548783779,0.006666663102806
0.066223837435246,0.006666663102806
-0.081224985420704,0.006666663102806
0.014420108869672,0.006666663102806
-0.097243025898933,0.006666663102806
-0.003651117440313,0.006666663102806
0.019054289907217,0.006666663102806
-0.119439013302326,0.006666663102806
0.123160883784294,0.006666663102806
-0.029309840872884,0.006666663102806
0.041445109993219,0.006666663102806
0.060955263674259,0.006666663102806
0.010153697803617,0.006666663102806
0.045063674449921,0.006666659843177
0.065190203487873,0.006666660308838
-0.050314750522375,0.006666660308838
-0.067934840917587,0.006666660308838
0.149656563997269,0.006666660308838
-0.061431188136339,0.006666659843177
0.067685559391975,0.006666660308838
0.031717766076326,0.006666660308838
0.159122213721275,0.006666660308838
-0.069958753883839,0.006666660308838
-0.107745125889778,0.006666659843177
-0.003958137705922,0.006666660308838
-0.010971275158226,0.006666660308838
0.013578147627413,0.006666660308838
0.023607451468706,0.006666660308838
0.030809447169304,0.006666659843177
0.008100728504360,0.006666660308838
0.002635954646394,0.006666660308838
0.064967796206474,0.006666660308838
-0.086747162044048,0.006666660308838
0.083848156034946,0.006666659843177
-0.140110492706299,0.006666660308838
0.041041087359190,0.006666660308838
0.109141238033772,0.006666660308838
0.042563214898109,0.006666660308838
0.072169028222561,0.006666664499789
-0.285069644451141,0.006666664499789
0.176314592361450,0.006666664499789
0.078281626105309,0.006666664499789
0.208076074719429,0.006666664499789
-0.045849658548832,0.006666664499789
-0.005575422197580,0.006666664499789
0.008792840875685,0.006666664499789
-0.002362501109019,0.006666664499789
-0.101721920073032,0.006666664499789
-0.112823270261288,0.006666664499789
-0.045654360204935,0.006666664499789
0.020610857754946,0.006666664499789
0.045104730874300,0.006666664499789
0.011531697586179,0.006666664499789
-0.105302184820175,0.006666664499789
-0.105724744498730,0.006666664499789
-0.098978415131569,0.006666664499789
-0.066376976668835,0.006666664499789
-0.064145274460316,0.006666664499789
0.063111171126366,0.006666664499789
0.092899568378925,0.006666664499789
0.001262731500901,0.006666664499789
-0.001598461181857,0.006666664499789
-0.107764400541782,0.006666664499789
-0.064039818942547,0.006666663568467
-0.005052126478404,0.006666663568467
0.063833907246590,0.006666663568467
0.021973730996251,0.006666663568467
-0.081398852169514,0.006666663568467
0.026988642290235,0.006666663568467
0.056549236178398,0.006666663102806
0.069425486028194,0.006666663102806
-0.067438177764416,0.006666663102806
0.050550326704979,0.006666663102806
-0.033311869949102,0.006666663568467
-0.016002472490072,0.006666663102806
-0.029520992189646,0.006666663102806
-0.015374056994915,0.006666663102806
0.012959878891706,0.006666663102806
-0.075737021863461,0.006666663568467
0.168451562523842,0.006666663102806
-0.055942665785551,0.006666663102806
0.029288560152054,0.006666663102806
-0.024167142808437,0.006666663102806
0.008134743198752,0.006666663102806
0.033858165144920,0.006666663102806
-0.023082837462425,0.006666663102806
0.024178337305784,0.006666663102806
0.099479600787163,0.006666663102806
0.089999243617058,0.006666667293757
0.063059799373150,0.006666667293757
0.043763812631369,0.006666667293757
-0.001302603515796,0.006666667293757
0.055673092603683,0.006666667293757
0.104173935949802,0.006666667293757
0.090690739452839,0.006666667293757
0.078995034098625,0.006666667293757
-0.059005238115788,0.006666667293757
-0.099632941186428,0.006666667293757
0.013143497519195,0.006666667293757
0.019659938290715,0.006666667293757
-0.149032354354858,0.006666667293757
0.069319739937782,0.006666667293757
-0.095765784382820,0.006666667293757
0.022862011566758,0.006666667293757
-0.053629163652658,0.006666667293757
-0.116206921637058,0.006666667293757
0.084996506571770,0.006666667293757
-0.052605912089348,0.006666667293757
-0.142691537737846,0.006666667293757
0.066793031990528,0.006666667293757
-0.001658112276345,0.006666667293757
0.021476540714502,0.006666667293757
-0.066385559737682,0.006666667293757
0.079806797206402,0.006666666828096
-0.055957332253456,0.006666666828096
0.127430513501167,0.006666666828096
-0.061547555029392,0.006666666828096
-0.068297393620014,0.006666666828096
0.019731694832444,0.006666666828096
0.096969015896320,0.006666666828096
0.052680220454931,0.006666666828096
-0.078533165156841,0.006666666828096
-0.051501672714949,0.006666666828096
0.022211113944650,0.006666666828096
0.153652340173721,0.006666666828096
0.000933608389460,0.006666666828096
0.023950077593327,0.006666666828096
0.036490090191364,0.006666666828096
0.085169494152069,0.006666666828096
0.029471307992935,0.006666666828096
-0.166138321161270,0.006666666828096
-0.029858872294426,0.006666666828096
-0.009093276225030,0.006666666828096
-0.025310426950455,0.006666666828096
0.102394476532936,0.006666666828096
-0.030519839376211,0.006666666828096
-0.023175219073892,0.006666666828096
0.039511915296316,0.006666666828096
-0.004920549690723,0.006666667293757
-0.025827012956142,0.006666667293757
0.000606007932220,0.006666667293757
0.008398829028010,0.006666667293757
0.026282228529453,0.006666667293757
-0.033063396811485,0.006666667293757
-0.058022230863571,0.006666667293757
-0.014320533722639,0.006666667293757
0.031044971197844,0.006666667293757
0.079034358263016,0.006666667293757
-0.034472610801458,0.006666667293757
-0.034591447561979,0.006666667293757
0.037427872419357,0.006666667293757
0.041701357811689,0.006666667293757
0.080098539590836,0.006666667293757
0.058686684817076,0.006666667293757
-0.077945351600647,0.006666667293757
-0.069699779152870,0.006666667293757
-0.042727548629045,0.006666667293757
-0.047141168266535,0.006666667293757
-0.025025220587850,0.006666667293757
0.068102598190308,0.006666667293757
0.114209339022636,0.006666667293757
0.019089464098215,0.006666667293757
-0.186479553580284,0.006666667293757
0.023830421268940,0.006666667293757
-0.076141104102135,0.006666667293757
-0.122803859412670,0.006666667293757
-0.050843026489019,0.006666667293757
0.061216600239277,0.006666667293757
0.095483660697937,0.006666667293757
0.138011887669563,0.006666667293757
-0.082900859415531,0.006666667293757
0.043839789927006,0.006666667293757
0.050000954419374,0.006666667293757
0.084242433309555,0.006666667293757
0.140112638473511,0.006666667293757
-0.008590481244028,0.006666667293757
-0.104938022792339,0.006666667293757
0.050203930586576,0.006666667293757
-0.020668644458055,0.006666667293757
0.061613928526640,0.006666667293757
-0.036726493388414,0.006666667293757
0.007411686703563,0.006666667293757
-0.015660988166928,0.006666667293757
0.135671705007553,0.006666667293757
-0.024372393265367,0.006666667293757
-0.152692914009094,0.006666667293757
-0.067876271903515,0.006666667293757
-0.097076512873173,0.006666667293757
-0.066048666834831,0.006666667293757
0.050721168518066,0.006666667293757
-0.085877440869808,0.006666667293757
0.041599530726671,0.006666667293757
0.078648991882801,0.006666667293757
0.065660469233990,0.006666667293757
-0.099507912993431,0.006666667293757
-0.068305552005768,0.006666667293757
0.056199166923761,0.006666667293757
0.072662368416786,0.006666667293757
-0.092453427612782,0.006666667293757
-0.038913249969482,0.006666667293757
-0.013082030229270,0.006666667293757
-0.076081097126007,0.006666667293757
-0.034547019749880,0.006666667293757
-0.083661466836929,0.006666667293757
-0.073489733040333,0.006666667293757
-0.014023365452886,0.006666667293757
-0.047207266092300,0.006666667293757
0.031307358294725,0.006666667293757
0.017316419631243,0.006666667293757
-0.045799501240253,0.006666667293757
0.036230571568012,0.006666667293757
-0.035638842731714,0.006666667293757
-0.037313271313906,0.006666667293757
0.025168810039759,0.006666667293757
0.088946990668774,0.006666667293757
0.060411654412746,0.006666667293757
-0.050949532538652,0.006666667293757
0.064628675580025,0.006666667293757
0.011795277707279,0.006666667293757
0.000781709153671,0.006666667293757
-0.012676938436925,0.006666667293757
0.021651841700077,0.006666667293757
-0.058749400079250,0.006666667293757
0.027509622275829,0.006666667293757
-0.058981753885746,0.006666667293757
-0.018718812614679,0.006666667293757
0.013515388593078,0.006666667293757
-0.035645939409733,0.006666667293757
0.000271119264653,0.006666667293757
-0.071867428719997,0.006666667293757
-0.065497942268848,0.006666667293757
-0.025558851659298,0.006666667293757
0.005638560745865,0.006666667293757
-0.027434727177024,0.006666667293757
0.072068840265274,0.006666667293757
0.023950373753905,0.006666667293757
-0.113857947289944,0.006666667293757
-0.115752555429935,0.006666667293757
0.004002657253295,0.006666667293757
-0.027150472626090,0.006666667293757
0.013987782411277,0.006666667293757
-0.086020246148109,0.006666667293757
-0.046922918409109,0.006666667293757
-0.061079621315002,0.006666667293757
-0.110021851956844,0.006666667293757
-0.155303731560707,0.006666667293757
0.008656358346343,0.006666667293757
-0.013788617216051,0.006666667293757
-0.197195231914520,0.006666667293757
0.018176905810833,0.006666667293757
-0.012826453894377,0.006666667293757
0.089077316224575,0.006666667293757
0.109164923429489,0.006666667293757
0.027303488925099,0.006666667293757
-0.066695109009743,0.006666667293757
0.037786103785038,0.006666667293757
0.025856956839561,0.006666667293757
-0.009991333819926,0.006666667293757
-0.022862695157528,0.006666667293757
0.056195665150881,0.006666667293757
0.127968311309814,0.006666667293757
-0.050929758697748,0.006666667293757
-0.006002535577863,0.006666667293757
-0.188037768006325,0.006666667293757
-0.136313319206238,0.006666667293757
-0.081450544297695,0.006666667293757
0.044711463153362,0.006666667293757
-0.127646222710609,0.006666667293757
-0.034179944545031,0.006666667293757
-0.011193885467947,0.006666667293757
-0.037515264004469,0.006666667293757
0.058861605823040,0.006666667293757
-0.086445815861225,0.006666667293757
-0.007822683081031,0.006666667293757
-0.070456616580486,0.006666667293757
-0.120918139815331,0.006666667293757
0.004191448912024,0.006666667293757
0.084609143435955,0.006666667293757
0.005482380744070,0.006666667293757
0.116889767348766,0.006666667293757
-0.078723482787609,0.006666667293757
0.013412119820714,0.006666667293757
0.014249934814870,0.006666667293757
0.013215874321759,0.006666667293757
-0.115875713527203,0.006666667293757
0.045807894319296,0.006666667293757
0.003095481544733,0.006666667293757
-0.017007205635309,0.006666667293757
0.155374482274055,0.006666667293757
-0.052040044218302,0.006666667293757
0.065632916986942,0.006666667293757
-0.065740860998631,0.006666667293757
0.026925215497613,0.006666667293757
0.155385717749596,0.006666667293757
-0.078282132744789,0.006666667293757
0.155803263187408,0.006666667293757
-0.237677618861198,0.006666667293757
0.006900016684085,0.006666667293757
0.033686053007841,0.006666667293757
0.099859654903412,0.006666667293757
-0.092604018747807,0.006666667293757
-0.309225738048553,0.006666667293757
-0.027884602546692,0.006666667293757
-0.039219852536917,0.006666667293757
0.174424350261688,0.006666667293757
-0.111596018075943,0.006666667293757
-0.031355813145638,0.006666667293757
0.002281643915921,0.006666667293757
0.044490195810795,0.006666667293757
-0.014802831225097,0.006666667293757
-0.018821364268661,0.006666667293757
-0.176515981554985,0.006666667293757
-0.066172197461128,0.006666667293757
-0.017338454723358,0.006666667293757
-0.025228001177311,0.006666667293757
0.105575583875179,0.006666667293757
-0.069213174283504,0.006666667293757
0.071947306394577,0.006666667293757
0.015436227433383,0.006666667293757
-0.042184192687273,0.006666667293757
0.072870932519436,0.006666667293757
-0.019875409081578,0.006666667293757
0.191889539361000,0.006666667293757
0.033216591924429,0.006666667293757
-0.122219212353230,0.006666667293757
-0.057683087885380,0.006666667293757
0.023521406576037,0.006666667293757
0.026609364897013,0.006666667293757
-0.063150428235531,0.006666667293757
0.018011964857578,0.006666667293757
0.084826663136482,0.006666667293757
-0.014727526344359,0.006666667293757
-0.041269674897194,0.006666667293757
-0.066880904138088,0.006666667293757
0.043408501893282,0.006666667293757
-0.022301442921162,0.006666667293757
-0.001758990110829,0.006666667293757
-0.166806042194366,0.006666667293757
-0.085471883416176,0.006666667293757
-0.072509713470936,0.006666667293757
-0.028352554887533,0.006666667293757
-0.023772204294801,0.006666667293757
0.035666693001986,0.006666667293757
-0.098489925265312,0.006666667293757
0.057194843888283,0.006666667293757
-0.011318385601044,0.006666667293757
-0.009590863250196,0.006666667293757
-0.066824190318584,0.006666667293757
0.016259815543890,0.006666667293757
0.001569125801325,0.006666667293757
-0.053016409277916,0.006666667293757
0.001421788474545,0.006666667293757
-0.083756834268570,0.006666667293757
0.035787351429462,0.006666667293757
-0.011428585276008,0.006666667293757
-0.006490724626929,0.006666667293757
-0.012397621758282,0.006666667293757
-0.084527313709259,0.006666667293757
-0.036238178610802,0.006666667293757
-0.149956852197647,0.006666667293757
-0.175963789224625,0.006666667293757
0.116339080035686,0.006666667293757
0.045740574598312,0.006666667293757
0.019553562626243,0.006666667293757
-0.052701935172081,0.006666667293757
0.053086362779140,0.006666667293757
0.166799575090408,0.006666667293757
0.099460303783417,0.006666667293757
0.029590204358101,0.006666667293757
-0.104581251740456,0.006666667293757
-0.075254365801811,0.006666667293757
-0.110717698931694,0.006666667293757
0.077089175581932,0.006666667293757
-0.043679822236300,0.006666667293757
-0.062026519328356,0.006666667293757
0.035763073712587,0.006666667293757
0.084031499922276,0.006666667293757
-0.099401146173477,0.006666667293757
-0.065473236143589,0.006666667293757
-0.222702771425247,0.006666667293757
0.150845721364021,0.006666667293757
0.041612353175879,0.006666667293757
-0.077575348317623,0.006666667293757
-0.081858247518539,0.006666667293757
-0.036837652325630,0.006666667293757
-0.040908411145210,0.006666667293757
0.144791916012764,0.006666667293757
0.080754354596138,0.006666667293757
0.005018858704716,0.013513513840735
0.102709151804447,0.013513513840735
0.023050965741277,0.013513513840735
0.073421761393547,0.013513513840735
0.134451448917389,0.013513513840735
-0.232741802930832,0.013513513840735
-0.051691696047783,0.013513513840735
-0.097230531275272,0.013513513840735
-0.161301940679550,0.013513513840735
0.063616223633289,0.013513513840735
-0.044151470065117,0.013513513840735
-0.050221644341946,0.013513513840735
-0.116054676473141,0.013513513840735
-0.057406801730394,0.013513513840735
-0.049303766340017,0.013513513840735
0.012085603550076,0.013513513840735
0.038108423352242,0.013513511046767
0.087931230664253,0.013513511046767
0.102198734879494,0.013513511046767
-0.192478731274605,0.013513511046767
0.185554623603821,0.013513511046767
-0.094979181885719,0.013513511046767
-0.043562348932028,0.013513511046767
-0.093841120600700,0.013513511046767
0.078980267047882,0.013513511046767
-0.017630178481340,0.013513511046767
0.005335764959455,0.013513511046767
0.187985911965370,0.013513511046767
0.016128068789840,0.013513511046767
-0.086999826133251,0.013513511046767
-0.205886662006378,0.013513511046767
0.030733654275537,0.013513511046767
-0.160849049687386,0.013513503596187
-0.185300663113594,0.013513503596187
0.068347357213497,0.013513503596187
0.162290021777153,0.013513503596187
0.148045107722282,0.013513503596187
0.197754234075546,0.013513503596187
-0.073220387101173,0.013513503596187
0.034182406961918,0.013513503596187
0.051768485456705,0.013513503596187
0.005256373435259,0.013513503596187
0.080283708870411,0.013513503596187
0.033275071531534,0.013513503596187
-0.098913833498955,0.013513503596187
-0.106208972632885,0.013513503596187
-0.090796753764153,0.013513503596187
-0.194909498095512,0.013513503596187
-0.170851469039917,0.013513511978090
-0.004568543285131,0.013513511978090
0.032660543918610,0.013513511978090
-0.040112394839525,0.013513511978090
-0.067778177559376,0.013513511978090
-0.100359030067921,0.013513511978090
-0.049598988145590,0.013513511978090
0.026889991015196,0.013513511978090
0.110852658748627,0.013513511978090
0.000485360855237,0.013513511978090
0.154066115617752,0.013513511978090
-0.009237939491868,0.013513511978090
0.071389608085155,0.013513511978090
-0.037012934684753,0.013513511978090
0.048127174377441,0.013513511978090
0.130449697375298,0.013513511978090
-0.142634600400925,0.013513505458832
-0.125322163105011,0.013513505458832
-0.160422474145889,0.013513505458832
-0.068736493587494,0.013513505458832
-0.068093195557594,0.013513505458832
-0.236768186092377,0.013513505458832
-0.003624152392149,0.013513505458832
0.148447632789612,0.013513505458832
-0.095031879842281,0.013513505458832
0.011850834824145,0.013513505458832
0.176493048667908,0.013513505458832
-0.009027697145939,0.013513505458832
-0.074110321700573,0.013513505458832
0.043060380965471,0.013513505458832
-0.053442019969225,0.013513505458832
-0.009743206202984,0.013513505458832
0.131474882364273,0.013513513840735
-0.089936949312687,0.013513513840735
-0.066771849989891,0.013513513840735
-0.125709384679794,0.013513513840735
0.037839394062757,0.013513513840735
-0.007703508716077,0.013513513840735
-0.132959887385368,0.013513513840735
-0.027909446507692,0.013513513840735
0.066510818898678,0.013513513840735
-0.018212856724858,0.013513513840735
-0.127225220203400,0.013513513840735
-0.006475548259914,0.013513513840735
-0.091272719204426,0.013513513840735
0.007503868546337,0.013513513840735
0.026934782043099,0.013513513840735
0.235175684094429,0.013513513840735
0.214912995696068,0.013513513840735
-0.055847462266684,0.013513513840735
0.123743951320648,0.013513513840735
0.202094629406929,0.013513513840735
0.136946126818657,0.013513513840735
0.059646587818861,0.013513513840735
0.049190610647202,0.013513513840735
-0.016849856823683,0.013513513840735
-0.123943008482456,0.013513513840735
-0.240539520978928,0.013513513840735
0.107970446348190,0.013513513840735
0.216972723603249,0.013513513840735
0.051130045205355,0.013513513840735
-0.018113061785698,0.013513513840735
0.097898848354816,0.013513513840735
-0.098247379064560,0.013513513840735
0.195495232939720,0.013513513840735
0.227362513542175,0.013513513840735
-0.145178839564323,0.013513513840735
-0.051622144877911,0.013513513840735
0.201937943696976,0.013513513840735
-0.092553324997425,0.013513513840735
-0.117028832435608,0.013513513840735
0.031642988324165,0.013513513840735
0.008865576237440,0.013513513840735
0.108966082334518,0.013513513840735
0.072178147733212,0.013513513840735
-0.256533384323120,0.013513513840735
0.234254673123360,0.013513513840735
-0.003708247328177,0.013513513840735
-0.022954026237130,0.013513513840735
-0.012242088094354,0.013513513840735
-0.056670106947422,0.013513511978090
-0.123552814126015,0.013513511978090
-0.062568664550781,0.013513511978090
0.100989118218422,0.013513511978090
0.034739855676889,0.013513511978090
0.148124158382416,0.013513511978090
0.019270470365882,0.013513511978090
-0.270469337701797,0.013513511978090
0.035682950168848,0.013513511978090
0.125257223844528,0.013513511978090
-0.144761726260185,0.013513511978090
-0.001623646123335,0.013513511978090
-0.036697790026665,0.013513511978090
-0.007771857548505,0.013513511978090
-0.199871450662613,0.013513511978090
0.185571208596230,0.013513511978090
-0.171812638640404,0.013513493351638
-0.006672313436866,0.013513493351638
0.150508791208267,0.013513493351638
0.078348718583584,0.013513493351638
-0.115036159753799,0.013513493351638
0.143030881881714,0.013513493351638
0.152514755725861,0.013513493351638
0.026012383401394,0.013513493351638
0.150371566414833,0.013513493351638
-0.208680674433708,0.013513493351638
-0.034464545547962,0.013513493351638
-0.170124918222427,0.013513493351638
-0.131299570202827,0.013513493351638
0.171447679400444,0.013513493351638
0.042809352278709,0.013513493351638
-0.090574331581593,0.013513493351638
-0.134898871183395,0.013513433746994
0.211869165301323,0.013513433746994
-0.002234859624878,0.013513433746994
-0.170681133866310,0.013513432815671
0.045686237514019,0.013513434678316
-0.202756583690643,0.013513433746994
0.134520307183266,0.013513433746994
-0.146597608923912,0.013513433746994
-0.057974867522717,0.013513434678316
0.063587762415409,0.013513433746994
0.043842274695635,0.013513433746994
0.104602895677090,0.013513433746994
-0.108372136950493,0.013513434678316
0.036566179245710,0.013513434678316
-0.146152064204216,0.013513434678316
0.248079925775528,0.013513433746994
0.186662003397942,0.013513496145606
0.118064165115356,0.013513496145606
-0.091683723032475,0.013513496145606
-0.110388964414597,0.013513497076929
-0.125075489282608,0.013513497076929
0.112114764750004,0.013513497076929
-0.131848409771919,0.013513497076929
0.100072816014290,0.013513497076929
-0.109770998358727,0.013513497076929
0.203916475176811,0.013513497076929
-0.114313773810863,0.013513497076929
0.070271812379360,0.013513497076929
-0.191818535327911,0.013513496145606
0.185587570071220,0.013513496145606
-0.210374146699905,0.013513496145606
0.068741582334042,0.013513497076929
-0.002359878038988,0.013513450510800
-0.255307346582413,0.013513450510800
-0.256386250257492,0.013513450510800
0.220917016267776,0.013513450510800
-0.003351763123646,0.013513450510800
-0.073341079056263,0.013513450510800
-0.063740722835064,0.013513450510800
0.065334402024746,0.013513450510800
-0.063351146876812,0.013513450510800
0.077721320092678,0.013513450510800
0.127115711569786,0.013513450510800
0.292066991329193,0.013513450510800
0.002866853727028,0.013513451442122
0.020392568781972,0.013513451442122
0.054859012365341,0.013513451442122
0.280937522649765,0.013513451442122
-0.070432171225548,0.013513512909412
0.040378302335739,0.013513512909412
0.110473819077015,0.013513512909412
0.027407865971327,0.013513512909412
0.018997240811586,0.013513512909412
0.119270816445351,0.013513512909412
-0.172494009137154,0.013513512909412
0.028961569070816,0.013513512909412
-0.014879354275763,0.013513512909412
-0.123072035610676,0.013513512909412
0.087757304310799,0.013513512909412
-0.050440341234207,0.013513512909412
-0.029631659388542,0.013513512909412
0.111404716968536,0.013513512909412
0.003782792715356,0.013513512909412
-0.052132308483124,0.013513512909412
0.076912380754948,0.013513513840735
0.052953891456127,0.013513513840735
-0.080419026315212,0.013513513840735
-0.092959254980087,0.013513513840735
-0.082043744623661,0.013513513840735
-0.162148177623749,0.013513513840735
-0.048155520111322,0.013513513840735
0.018031479790807,0.013513513840735
-0.034877642989159,0.013513513840735
0.069005176424980,0.013513513840735
-0.035749416798353,0.013513513840735
-0.012952132150531,0.013513513840735
-0.042292330414057,0.013513513840735
0.017096893861890,0.013513513840735
-0.087057165801525,0.013513513840735
0.158938050270081,0.013513513840735
-0.157632276415825,0.013513513840735
0.120122194290161,0.013513513840735
0.179837986826897,0.013513513840735
0.224570378661156,0.013513513840735
0.055562403053045,0.013513513840735
0.086188487708569,0.013513513840735
-0.166100978851318,0.013513513840735
0.155240327119827,0.013513513840735
0.077198043465614,0.013513513840735
-0.064787216484547,0.013513513840735
-0.183687821030617,0.013513513840735
-0.137836173176765,0.013513513840735
0.033600911498070,0.013513513840735
0.124688096344471,0.013513513840735
0.074149943888187,0.013513513840735
-0.008576560765505,0.013513513840735
-0.018254816532135,0.013513512909412
-0.020160000771284,0.013513512909412
-0.135234594345093,0.013513512909412
-0.065742872655392,0.013513512909412
-0.164361506700516,0.013513512909412
0.049775119870901,0.013513512909412
0.096496276557446,0.013513512909412
-0.073356427252293,0.013513512909412
-0.015993287786841,0.013513512909412
0.049347035586834,0.013513512909412
-0.103647835552692,0.013513512909412
0.023513924330473,0.013513512909412
-0.098011896014214,0.013513512909412
0.035624217242002,0.013513512909412
0.048942524939775,0.013513512909412
0.034651625901461,0.013513512909412
0.067939922213554,0.013513499870896
-0.080279164016247,0.013513499870896
-0.092935107648373,0.013513499870896
-0.026126470416784,0.013513499870896
0.125722855329514,0.013513499870896
-0.143590345978737,0.013513499870896
0.150193274021149,0.013513499870896
-0.048565074801445,0.013513499870896
0.072566375136375,0.013513499870896
-0.035202562808990,0.013513499870896
0.092245772480965,0.013513499870896
0.076668649911880,0.013513499870896
0.156941607594490,0.013513499870896
0.202794536948204,0.013513499870896
0.066513784229755,0.013513499870896
-0.228519529104233,0.013513499870896
0.260060280561447,0.013513457961380
0.209418788552284,0.013513457961380
0.128333821892738,0.013513457961380
-0.076888449490070,0.013513457961380
0.077077679336071,0.013513458892703
-0.100208014249802,0.013513458892703
0.247106015682220,0.013513458892703
-0.158689975738525,0.013513457961380
0.234125524759293,0.013513458892703
0.051853954792023,0.013513458892703
-0.052202250808477,0.013513458892703
-0.077904492616653,0.013513457961380
0.012651718221605,0.013513458892703
0.176859214901924,0.013513458892703
-0.034597974270582,0.013513458892703
-0.010942835360765,0.013513458892703
0.006634159944952,0.013513501733541
-0.005462812259793,0.013513501733541
0.123826153576374,0.013513501733541
-0.134218961000443,0.013513501733541
-0.172040536999702,0.013513501733541
-0.037442971020937,0.013513501733541
0.000592413358390,0.013513501733541
-0.133702829480171,0.013513501733541
0.185635611414909,0.013513501733541
-0.084310337901115,0.013513501733541
-0.398657321929932,0.013513501733541
-0.065759122371674,0.013513501733541
-0.030273485928774,0.013513501733541
0.132136628031731,0.013513501733541
-0.052705287933350,0.013513501733541
0.137731358408928,0.013513501733541
-0.108159840106964,0.013513470068574
0.132599651813507,0.013513470068574
0.157363817095757,0.013513470068574
0.010039897635579,0.013513470068574
0.022136790677905,0.013513470068574
0.215369969606400,0.013513470068574
0.031208593398333,0.013513470068574
0.161034569144249,0.013513470068574
0.007986946962774,0.013513470068574
0.205979317426682,0.013513470068574
0.026688586920500,0.013513470068574
-0.079178012907505,0.013513470068574
-0.075168848037720,0.013513470068574
0.127847552299500,0.013513470068574
0.013073456473649,0.013513470068574
0.131491005420685,0.013513470068574
0.185909241437912,0.013513513840735
0.037761639803648,0.013513513840735
-0.050897959619761,0.013513513840735
-0.011631133966148,0.013513513840735
-0.300169706344604,0.013513513840735
0.045040145516396,0.013513513840735
0.035882141441107,0.013513513840735
-0.116506919264793,0.013513513840735
0.324303716421127,0.013513513840735
-0.065545268356800,0.013513513840735
0.105663053691387,0.013513513840735
0.045048631727695,0.013513513840735
0.028810549527407,0.013513513840735
-0.023816203698516,0.013513513840735
0.106543704867363,0.013513513840735
-0.173657193779945,0.013513513840735
-0.035908296704292,0.013513513840735
0.012277270667255,0.013513513840735
-0.044560942798853,0.013513513840735
0.172549828886986,0.013513513840735
-0.033491842448711,0.013513513840735
0.032349947839975,0.013513513840735
-0.222629502415657,0.013513513840735
0.241545066237450,0.013513513840735
-0.042545180767775,0.013513513840735
-0.212960362434387,0.013513513840735
-0.015669856220484,0.013513513840735
-0.071623668074608,0.013513513840735
-0.318643152713776,0.013513513840735
-0.147688239812851,0.013513513840735
-0.024489251896739,0.013513513840735
-0.067495502531528,0.013513513840735
0.079797200858593,0.013513513840735
-0.066609121859074,0.013513513840735
-0.225574776530266,0.013513513840735
0.032103389501572,0.013513513840735
0.080878131091595,0.013513513840735
0.058149311691523,0.013513513840735
-0.214412957429886,0.013513513840735
0.058155592530966,0.013513513840735
-0.159481152892113,0.013513513840735
-0.069626778364182,0.013513513840735
0.055081427097321,0.013513513840735
0.037163127213717,0.013513513840735
-0.051256384700537,0.013513513840735
-0.010047998279333,0.013513513840735
0.071089684963226,0.013513513840735
0.022862372919917,0.013513513840735
0.050670910626650,0.013513510115445
-0.189002797007561,0.013513510115445
-0.155679494142532,0.013513510115445
-0.194484710693359,0.013513510115445
0.031988289207220,0.013513510115445
-0.091434344649315,0.013513510115445
0.012052151374519,0.013513510115445
-0.113619185984135,0.013513510115445
0.151527732610703,0.013513510115445
0.022069303318858,0.013513510115445
-0.083054147660732,0.013513510115445
0.251528948545456,0.013513510115445
0.098351962864399,0.013513510115445
-0.202270895242691,0.013513510115445
0.125801876187325,0.013513510115445
0.021118413656950,0.013513510115445
-0.038106936961412,0.013513473793864
0.005237322766334,0.013513472862542
-0.153490468859673,0.013513472862542
0.096891425549984,0.013513473793864
0.030100239440799,0.013513473793864
-0.072194769978523,0.013513472862542
0.026124114170671,0.013513472862542
0.087892025709152,0.013513472862542
-0.107752151787281,0.013513473793864
0.036718048155308,0.013513472862542
0.048025414347649,0.013513472862542
0.073940463364124,0.013513472862542
0.174875691533089,0.013513473793864
0.094153217971325,0.013513472862542
-0.115774400532246,0.013513472862542
0.020397679880261,0.013513473793864
-0.138565227389336,0.013513355515897
-0.005314908921719,0.013513354584575
0.027011616155505,0.013513354584575
-0.170165628194809,0.013513353653252
0.175232931971550,0.013513356447220
-0.041844584047794,0.013513355515897
0.058891858905554,0.013513355515897
0.086669273674488,0.013513354584575
0.014341784641147,0.013513356447220
0.063995786011219,0.013513355515897
0.092649042606354,0.013513355515897
-0.071799539029598,0.013513354584575
-0.096886120736599,0.013513357378542
0.212907657027245,0.013513356447220
-0.087624996900558,0.013513356447220
0.096201725304127,0.013513355515897
0.044976510107517,0.013513479381800
0.226366907358170,0.013513479381800
-0.099783316254616,0.013513479381800
-0.153580397367477,0.013513479381800
-0.005816675256938,0.013513479381800
-0.015801576897502,0.013513480313122
0.019150342792273,0.013513480313122
0.033430233597755,0.013513480313122
0.043684862554073,0.013513479381800
0.011351939290762,0.013513480313122
0.003571538953111,0.013513480313122
0.092315644025803,0.013513480313122
-0.123685553669930,0.013513479381800
0.119200311601162,0.013513479381800
-0.199659511446953,0.013513479381800
0.058252632617950,0.013513479381800
0.155222550034523,0.013513388112187
0.060433816164732,0.013513388112187
0.102654188871384,0.013513388112187
-0.405959457159042,0.013513388112187
0.250930368900299,0.013513388112187
0.111357174813747,0.013513388112187
0.296150177717209,0.013513388112187
-0.065373137593269,0.013513388112187
-0.008032935671508,0.013513388112187
0.012423684820533,0.013513388112187
-0.003458586521447,0.013513388112187
-0.144920408725739,0.013513388112187
-0.160726115107536,0.013513389043510
-0.065094955265522,0.013513389974833
0.029249278828502,0.013513389974833
0.064122125506401,0.013513389043510
0.016297807916999,0.013513512909412
-0.150043070316315,0.013513512909412
-0.150644391775131,0.013513512909412
-0.141039371490479,0.013513512909412
-0.094623528420925,0.013513512909412
-0.091446354985237,0.013513512909412
0.089736349880695,0.013513512909412
0.132147490978241,0.013513512909412
0.001680749701336,0.013513512909412
-0.002392855938524,0.013513512909412
-0.153545469045639,0.013513512909412
-0.091319069266319,0.013513512909412
-0.007335910573602,0.013513512909412
0.090739674866199,0.013513512909412
0.031141782179475,0.013513512909412
-0.116034492850304,0.013513512909412
0.038279723376036,0.013513513840735
0.080366529524326,0.013513513840735
0.098698921501637,0.013513513840735
-0.096158929169178,0.013513513840735
0.071824736893177,0.013513513840735
-0.047572363168001,0.013513513840735
-0.022928027436137,0.013513513840735
-0.042174845933914,0.013513513840735
-0.022033322602510,0.013513513840735
0.018305823206902,0.013513513840735
-0.107974611222744,0.013513513840735
0.239685997366905,0.013513513840735
-0.079792350530624,0.013513513840735
0.041554484516382,0.013513513840735
-0.034553293138742,0.013513513840735
0.011435019783676,0.013513513840735
0.048059195280075,0.013513513840735
-0.033009808510542,0.013513513840735
0.034277673810720,0.013513513840735
0.141486033797264,0.013513513840735
0.128156244754791,0.013513513840735
0.089801654219627,0.013513513840735
0.062329240143299,0.013513513840735
-0.001833480200730,0.013513513840735
0.079284816980362,0.013513513840735
0.148337185382843,0.013513513840735
0.129140734672546,0.013513513840735
0.112489126622677,0.013513513840735
-0.083986945450306,0.013513513840735
-0.141830176115036,0.013513513840735
0.018733816221356,0.013513513840735
0.028011584654450,0.013513513840735
-0.212148085236549,0.013513510115445
0.098727934062481,0.013513510115445
-0.136310532689095,0.013513510115445
0.032584298402071,0.013513510115445
-0.076319202780724,0.013513510115445
-0.165413409471512,0.013513510115445
0.121047332882881,0.013513510115445
-0.074862375855446,0.013513510115445
-0.203120782971382,0.013513510115445
0.095130272209644,0.013513510115445
-0.002326148794964,0.013513510115445
0.030611539259553,0.013513510115445
-0.094480879604816,0.013513510115445
0.113665558397770,0.013513510115445
-0.079627022147179,0.013513510115445
0.181469067931175,0.013513510115445
-0.087551198899746,0.013513469137251
-0.097160853445530,0.013513468205929
0.028169667348266,0.013513468205929
0.138135060667992,0.013513468205929
0.075079284608364,0.013513469137251
-0.111733607947826,0.013513468205929
-0.073247984051704,0.013513468205929
0.031699877232313,0.013513468205929
0.218837007880211,0.013513469137251
0.001406173571013,0.013513468205929
0.034175571054220,0.013513468205929
0.052029091864824,0.013513468205929
0.121335417032242,0.013513469137251
0.042036127299070,0.013513468205929
-0.236460536718369,0.013513468205929
-0.042434498667717,0.013513468205929
-0.012820847332478,0.013513335958123
-0.035909470170736,0.013513335958123
0.145908534526825,0.013513335958123
-0.043326247483492,0.013513335026801
-0.032870195806026,0.013513336889446
0.056379850953817,0.013513336889446
-0.006890094373375,0.013513336889446
-0.036655105650425,0.013513335958123
0.000978134805337,0.013513336889446
0.012073226273060,0.013513336889446
0.037534497678280,0.013513336889446
-0.046957779675722,0.013513335958123
-0.082493200898170,0.013513337820768
-0.020273324102163,0.013513337820768
0.044315222650766,0.013513337820768
0.112639769911766,0.013513336889446
-0.049017067998648,0.013513475656509
-0.049186356365681,0.013513475656509
0.053350210189819,0.013513475656509
0.059434413909912,0.013513475656509
0.114101894199848,0.013513475656509
0.083616882562637,0.013513475656509
-0.110911168158054,0.013513475656509
-0.099171772599220,0.013513475656509
-0.060770161449909,0.013513475656509
-0.067054092884064,0.013513475656509
-0.035567048937082,0.013513475656509
0.097022362053394,0.013513475656509
0.162666738033295,0.013513475656509
0.027240946888924,0.013513475656509
-0.265435218811035,0.013513475656509
0.033993791788816,0.013513475656509
-0.108297176659107,0.013513373211026
-0.174732685089111,0.013513373211026
-0.072279386222363,0.013513373211026
0.087264232337475,0.013513373211026
0.136051550507545,0.013513373211026
0.196600586175919,0.013513373211026
-0.117921061813831,0.013513373211026
0.062524333596230,0.013513372279704
0.071296297013760,0.013513373211026
0.120046973228455,0.013513373211026
0.199591502547264,0.013513373211026
-0.012122575193644,0.013513372279704
-0.149296641349792,0.013513374142349
0.071584776043892,0.013513374142349
-0.029319282621145,0.013513374142349
0.087829522788525,0.013513374142349
-0.052261009812355,0.013513512909412
0.010580088943243,0.013513512909412
-0.022269209846854,0.013513512909412
0.193188726902008,0.013513512909412
-0.034672025591135,0.013513512909412
-0.217366755008698,0.013513512909412
-0.096610173583031,0.013513512909412
-0.138183489441872,0.013513512909412
-0.094027385115623,0.013513512909412
0.072222091257572,0.013513512909412
-0.122258387506008,0.013513512909412
0.059235315769911,0.013513512909412
0.111983947455883,0.013513512909412
0.093491636216640,0.013513512909412
-0.141664668917656,0.013513512909412
-0.097240686416626,0.013513512909412
0.080014608800411,0.013513513840735
0.103453859686852,0.013513513840735
-0.131627619266510,0.013513513840735
-0.055400475859642,0.013513513840735
-0.018623616546392,0.013513513840735
-0.108317740261555,0.013513513840735
-0.049184128642082,0.013513513840735
-0.119110226631165,0.013513513840735
-0.104628302156925,0.013513513840735
-0.019963854923844,0.013513513840735
-0.067209005355835,0.013513513840735
0.044575177133083,0.013513513840735
0.024655712768435,0.013513513840735
-0.065204761922359,0.013513513840735
0.051584485918283,0.013513513840735
-0.050738658756018,0.013513513840735
-0.053121093660593,0.013513513840735
0.035837259143591,0.013513513840735
0.126640543341637,0.013513513840735
0.086013741791248,0.013513513840735
-0.072535313665867,0.013513513840735
0.092017687857151,0.013513513840735
0.016796875745058,0.013513513840735
0.001116393483244,0.013513513840735
-0.018045209348202,0.013513513840735
0.030829975381494,0.013513513840735
-0.083640232682228,0.013513513840735
0.039169967174530,0.013513513840735
-0.083970993757248,0.013513513840735
-0.026647124439478,0.013513513840735
0.019245900213718,0.013513513840735
-0.050746887922287,0.013513513840735
0.000386763131246,0.013513513840735
-0.102319613099098,0.013513513840735
-0.093251138925552,0.013513513840735
-0.036388378590345,0.013513513840735
0.008028542622924,0.013513513840735
-0.039059117436409,0.013513513840735
0.102607734501362,0.013513513840735
0.034099690616131,0.013513513840735
-0.162103116512299,0.013513513840735
-0.164800524711609,0.013513513840735
0.005699143279344,0.013513513840735
-0.038654711097479,0.013513513840735
0.019915344193578,0.013513513840735
-0.122469775378704,0.013513513840735
-0.066805474460125,0.013513513840735
-0.086960911750793,0.013513513840735
-0.156641960144043,0.013513513840735
-0.221111461520195,0.013513513840735
0.012324584648013,0.013513513840735
-0.019631156697869,0.013513513840735
-0.280753940343857,0.013513513840735
0.025879338383675,0.013513513840735
-0.018261289224029,0.013513513840735
0.126822873950005,0.013513513840735
0.155422359704971,0.013513513840735
0.038873180747032,0.013513513840735
-0.094956085085869,0.013513513840735
0.053797677159309,0.013513513840735
0.036813717335463,0.013513513840735
-0.014224826358259,0.013513513840735
-0.032550331205130,0.013513513840735
0.080007985234261,0.013513513840735
0.182193085551262,0.013513513840735
-0.072510711848736,0.013513513840735
-0.008546173572540,0.013513513840735
-0.267716288566589,0.013513513840735
-0.194074273109436,0.013513513840735
-0.115964114665985,0.013513513840735
0.063657395541668,0.013513513840735
-0.181734621524811,0.013513513840735
-0.048663239926100,0.013513513840735
-0.015937129035592,0.013513513840735
-0.053411852568388,0.013513513840735
0.083803460001945,0.013513513840735
-0.123076096177101,0.013513513840735
-0.011137433350086,0.013513513840735
-0.100311666727066,0.013513513840735
-0.172155603766441,0.013513513840735
0.005967840552330,0.013513513840735
0.120461478829384,0.013513513840735
0.007805778644979,0.013513513840735
0.166420593857765,0.013513513840735
-0.112081207334995,0.013513513840735
0.019095653668046,0.013513513840735
0.020288472995162,0.013513513840735
0.018816275522113,0.013513513840735
-0.164976179599762,0.013513513840735
0.065218754112720,0.013513513840735
0.004407509230077,0.013513513840735
-0.024213436990976,0.013513513840735
0.221212297677994,0.013513513840735
-0.074091397225857,0.013513513840735
0.093443937599659,0.013513513840735
-0.093597754836082,0.013513513840735
0.038334134966135,0.013513513840735
0.221228063106537,0.013513513840735
-0.111453458666801,0.013513513840735
0.221822574734688,0.013513513840735
-0.338390707969666,0.013513513840735
0.009823537431657,0.013513513840735
0.047959771007299,0.013513513840735
0.142173588275909,0.013513513840735
-0.131844058632851,0.013513513840735
-0.440256416797638,0.013513513840735
-0.039700608700514,0.013513513840735
-0.055839058011770,0.013513513840735
0.248334094882011,0.013513513840735
-0.158883675932884,0.013513513840735
-0.044642712920904,0.013513513840735
0.003248192835599,0.013513513840735
0.063342414796352,0.013513513840735
-0.021075248718262,0.013513513840735
-0.026796581223607,0.013513513840735
-0.251312255859375,0.013513513840735
-0.094211690127850,0.013513513840735
-0.024685116484761,0.013513513840735
-0.035917799919844,0.013513513840735
0.150312095880508,0.013513513840735
-0.098541110754013,0.013513513840735
0.102434292435646,0.013513513840735
0.021977411583066,0.013513513840735
-0.060058955103159,0.013513513840735
0.103749282658100,0.013513513840735
-0.028297113254666,0.013513513840735
0.273200482130051,0.013513513840735
0.047291971743107,0.013513513840735
-0.174007713794708,0.013513513840735
-0.082125261425972,0.013513513840735
0.033488575369120,0.013513513840735
0.037885036319494,0.013513513840735
-0.089909270405769,0.013513513840735
0.025644579902291,0.013513513840735
0.120771132409573,0.013513513840735
-0.020967841148376,0.013513513840735
-0.058756858110428,0.013513513840735
-0.095220595598221,0.013513513840735
0.061802461743355,0.013513513840735
-0.031751211732626,0.013513513840735
-0.002504163421690,0.013513513840735
-0.237487718462944,0.013513513840735
-0.121689297258854,0.013513513840735
-0.103234574198723,0.013513513840735
-0.040366403758526,0.013513513840735
-0.033845189958811,0.013513513840735
0.050780165940523,0.013513513840735
-0.140223592519760,0.013513513840735
0.081430576741695,0.013513513840735
-0.016114238649607,0.013513513840735
-0.013654701411724,0.013513513840735
-0.095139905810356,0.013513513840735
0.023149859160185,0.013513513840735
0.002234186744317,0.013513513840735
-0.075481250882149,0.013513513840735
0.002024417044595,0.013513513840735
-0.119247533380985,0.013513513840735
0.050951927900314,0.013513513840735
-0.016271132975817,0.013513513840735
-0.009240920655429,0.013513513840735
-0.017649943009019,0.013513512909412
-0.120343640446663,0.013513512909412
-0.051592778414488,0.013513512909412
-0.213498249650002,0.013513512909412
-0.250525295734406,0.013513512909412
0.165637090802193,0.013513512909412
0.065123401582241,0.013513512909412
0.027840178459883,0.013513512909412
-0.075032636523247,0.013513512909412
0.075582072138786,0.013513512909412
0.237479776144028,0.013513512909412
0.141606330871582,0.013513512909412
0.042129706591368,0.013513512909412
-0.148895144462585,0.013513512909412
-0.107141375541687,0.013513512909412
-0.157631829380989,0.013513512909412
0.109757699072361,0.013513502664864
-0.062185533344746,0.013513502664864
-0.088306404650211,0.013513502664864
0.050920251756907,0.013513502664864
0.119641780853271,0.013513502664864
-0.141518056392670,0.013513502664864
-0.093213617801666,0.013513502664864
-0.317067116498947,0.013513502664864
0.214767664670944,0.013513502664864
0.059248100966215,0.013513502664864
-0.110443852841854,0.013513502664864
-0.116541475057602,0.013513502664864
-0.052444033324718,0.013513503596187
-0.058239694684744,0.013513502664864
0.206148743629456,0.013513502664864
0.114976055920124,0.013513502664864
-0.116129785776138,0.013513470999897
0.107984200119972,0.013513470999897
0.144569069147110,0.013513470999897
0.077468313276768,0.013513470999897
0.077444881200790,0.013513471931219
0.109110392630100,0.013513470999897
0.056035742163658,0.013513470999897
-0.179511249065399,0.013513470999897
-0.181913122534752,0.013513471931219
0.050211906433105,0.013513470999897
0.076514422893524,0.013513470999897
0.033700719475746,0.013513470999897
-0.095769047737122,0.013513471931219
-0.059614125639200,0.013513471931219
-0.059499889612198,0.013513471931219
0.254357904195786,0.013513470999897
-0.008607852272689,0.013513504527509
0.118050500750542,0.013513504527509
-0.009211426600814,0.013513504527509
0.102211870253086,0.013513504527509
-0.079638980329037,0.013513504527509
-0.135880380868912,0.013513504527509
0.082420989871025,0.013513504527509
-0.074111625552177,0.013513504527509
0.200224757194519,0.013513504527509
0.196947023272514,0.013513504527509
-0.041876584291458,0.013513504527509
-0.084497898817062,0.013513504527509
-0.095414325594902,0.013513504527509
0.047249607741833,0.013513504527509
0.066657871007919,0.013513504527509
0.027099024504423,0.013513504527509
0.001298608956859,0.013513480313122
0.148205891251564,0.013513480313122
-0.265501677989960,0.013513480313122
-0.061236027628183,0.013513480313122
0.078561432659626,0.013513480313122
0.205484554171562,0.013513480313122
0.013871836476028,0.013513480313122
0.177901968359947,0.013513480313122
-0.138770490884781,0.013513480313122
0.007539416197687,0.013513480313122
0.202078059315681,0.013513480313122
-0.214033246040344,0.013513480313122
0.079303570091724,0.013513480313122
-0.167606309056282,0.013513480313122
0.181609421968460,0.013513480313122
0.094645597040653,0.013513480313122
-0.023446695879102,0.013513513840735
-0.097588807344437,0.013513513840735
0.133315414190292,0.013513513840735
-0.084274232387543,0.013513513840735
0.041754007339478,0.013513513840735
-0.084272556006908,0.013513513840735
0.181151255965233,0.013513513840735
-0.194357126951218,0.013513513840735
0.030747015029192,0.013513513840735
0.133865833282471,0.013513513840735
0.092457279562950,0.013513513840735
0.030605386942625,0.013513513840735
0.009135255590081,0.013513513840735
0.014510328881443,0.013513513840735
0.024311238899827,0.013513513840735
-0.142259314656258,0.013513513840735
0.114525139331818,0.013513513840735
-0.255751222372055,0.013513513840735
0.081007793545723,0.013513513840735
0.183239445090294,0.013513513840735
-0.104682579636574,0.013513513840735
-0.021544743329287,0.013513513840735
-0.072069413959980,0.013513513840735
0.033644538372755,0.013513513840735
0.219880104064941,0.013513513840735
0.132333770394325,0.013513513840735
0.100409068167210,0.013513513840735
-0.092886708676815,0.013513513840735
-0.058542963117361,0.013513513840735
0.069978334009647,0.013513513840735
-0.328010916709900,0.013513513840735
-0.024776872247458,0.013513513840735
-0.012657543644309,0.013513513840735
0.136011943221092,0.013513513840735
-0.074474290013313,0.013513513840735
-0.059579133987427,0.013513513840735
-0.236462563276291,0.013513513840735
-0.167115360498428,0.013513513840735
-0.062917843461037,0.013513513840735
0.181958049535751,0.013513513840735
0.103987999260426,0.013513513840735
-0.101559735834599,0.013513513840735
-0.029141953215003,0.013513513840735
0.017876755446196,0.013513513840735
0.037797499448061,0.013513513840735
0.051171038299799,0.013513513840735
-0.006088750436902,0.013513513840735
0.078548125922680,0.013513513840735
-0.103191733360291,0.013513512909412
-0.156660050153732,0.013513512909412
-0.078090086579323,0.013513512909412
0.050308417528868,0.013513512909412
0.083540119230747,0.013513512909412
0.045909300446510,0.013513512909412
-0.170785620808601,0.013513512909412
-0.039418254047632,0.013513512909412
-0.319869756698608,0.013513512909412
0.025917658582330,0.013513512909412
-0.083804525434971,0.013513512909412
0.200600996613503,0.013513512909412
-0.086743198335171,0.013513512909412
-0.135903388261795,0.013513512909412
-0.154229879379272,0.013513512909412
0.032114848494530,0.013513512909412
-0.141088411211967,0.013513507321477
0.000447817379609,0.013513506390154
-0.024438438937068,0.013513506390154
0.120099551975727,0.013513506390154
-0.041585825383663,0.013513507321477
-0.043807778507471,0.013513506390154
0.065286166965961,0.013513506390154
0.118560239672661,0.013513506390154
-0.001099934685044,0.013513507321477
-0.038188830018044,0.013513506390154
-0.022637693211436,0.013513506390154
0.001953242812306,0.013513506390154
0.093451902270317,0.013513507321477
-0.087607003748417,0.013513506390154
0.017605137079954,0.013513506390154
-0.031996291130781,0.013513506390154
0.064126871526241,0.013513486832380
0.171056166291237,0.013513485901058
-0.013531850650907,0.013513485901058
0.044507723301649,0.013513485901058
-0.109685853123665,0.013513486832380
0.153053849935532,0.013513486832380
0.244846075773239,0.013513486832380
0.023863933980465,0.013513485901058
-0.082753330469131,0.013513486832380
0.192101910710335,0.013513486832380
-0.078238300979137,0.013513486832380
-0.028048180043697,0.013513485901058
-0.136660054326057,0.013513486832380
-0.170860633254051,0.013513486832380
-0.134667932987213,0.013513486832380
0.005470019765198,0.013513486832380
0.086778186261654,0.013513508252800
-0.036046613007784,0.013513508252800
-0.115856401622295,0.013513508252800
0.017330178990960,0.013513508252800
0.052841488271952,0.013513508252800
0.027771528810263,0.013513508252800
0.073508694767952,0.013513508252800
-0.113987617194653,0.013513508252800
-0.132020831108093,0.013513508252800
-0.167291790246964,0.013513508252800
-0.031713034957647,0.013513508252800
-0.001615086453967,0.013513508252800
0.078458487987518,0.013513508252800
0.084297686815262,0.013513508252800
-0.076117031276226,0.013513508252800
0.100354261696339,0.013513508252800
0.069004349410534,0.013513492420316
0.004845703486353,0.013513492420316
-0.028691861778498,0.013513492420316
-0.108532860875130,0.013513492420316
0.075511008501053,0.013513492420316
0.246707931160927,0.013513492420316
-0.000561608350836,0.013513492420316
0.108938217163086,0.013513492420316
0.076411895453930,0.013513492420316
0.203408703207970,0.013513492420316
0.045596811920404,0.013513492420316
0.016883494332433,0.013513492420316
-0.094717711210251,0.013513492420316
-0.065969564020634,0.013513492420316
-0.175974309444427,0.013513492420316
-0.068613409996033,0.013513492420316
0.128966629505157,0.013513513840735
0.004502824973315,0.013513513840735
0.100626304745674,0.013513513840735
-0.143773525953293,0.013513513840735
0.046313397586346,0.013513513840735
0.195200741291046,0.013513513840735
0.007219537161291,0.013513513840735
0.057421587407589,0.013513513840735
0.081781230866909,0.013513513840735
0.110012084245682,0.013513513840735
0.179010674357414,0.013513513840735
-0.077887892723083,0.013513513840735
-0.085787653923035,0.013513513840735
0.147491112351418,0.013513513840735
-0.066425435245037,0.013513513840735
0.028037320822477,0.013513513840735
-0.032439906150103,0.013513513840735
-0.020832767710090,0.013513513840735
-0.029939627274871,0.013513513840735
-0.244972050189972,0.013513513840735
0.287809371948242,0.013513513840735
0.010252038016915,0.013513513840735
-0.064676344394684,0.013513513840735
0.012426022440195,0.013513513840735
-0.102431729435921,0.013513513840735
-0.225773259997368,0.013513513840735
0.159595772624016,0.013513513840735
0.132641941308975,0.013513513840735
0.058109600096941,0.013513513840735
0.002838019514456,0.013513513840735
-0.043675817549229,0.013513513840735
0.236195489764214,0.013513513840735
0.011562310159206,0.013513513840735
-0.036095537245274,0.013513513840735
0.075703598558903,0.013513513840735
0.133714392781258,0.013513513840735
-0.005745842587203,0.013513513840735
0.094243481755257,0.013513513840735
0.119974732398987,0.013513513840735
0.053582374006510,0.013513513840735
-0.058643255382776,0.013513513840735
-0.055079288780689,0.013513513840735
0.063940361142159,0.013513513840735
-0.148818001151085,0.013513513840735
-0.437291234731674,0.013513513840735
-0.012639774940908,0.013513513840735
0.031627435237169,0.013513513840735
0.292616277933121,0.013513513840735
0.076337203383446,0.013513513840735
0.103419922292233,0.013513513840735
-0.067521400749683,0.013513513840735
-0.012510857544839,0.013513513840735
0.065692141652107,0.013513513840735
-0.019797675311565,0.013513513840735
-0.016133595257998,0.013513513840735
0.065691828727722,0.013513513840735
-0.005651216488332,0.013513513840735
0.228693947196007,0.013513513840735
0.139470830559731,0.013513513840735
-0.190309047698975,0.013513513840735
-0.090302951633930,0.013513513840735
-0.079775311052799,0.013513513840735
0.045046672224998,0.013513513840735
0.077927798032761,0.013513513840735
-0.067393183708191,0.013513512909412
-0.059623733162880,0.013513512909412
-0.036892831325531,0.013513512909412
-0.100659005343914,0.013513512909412
-0.230581328272820,0.013513512909412
0.021470585837960,0.013513512909412
0.006989888381213,0.013513512909412
-0.110555775463581,0.013513512909412
-0.084144838154316,0.013513512909412
-0.308511376380920,0.013513512909412
-0.064091339707375,0.013513512909412
-0.153455898165703,0.013513512909412
-0.145092934370041,0.013513512909412
-0.051380444318056,0.013513512909412
0.106911391019821,0.013513512909412
0.081867933273315,0.013513512909412
-0.056195650249720,0.013513511046767
0.093078605830669,0.013513511046767
-0.090110756456852,0.013513511046767
0.012420766986907,0.013513511046767
0.051803492009640,0.013513511046767
0.109109617769718,0.013513511046767
-0.098555371165276,0.013513511046767
0.282774746417999,0.013513511046767
-0.230684027075768,0.013513511046767
-0.158076971769333,0.013513511046767
0.088353514671326,0.013513511046767
0.172440946102142,0.013513511046767
-0.089205563068390,0.013513511046767
-0.108167603611946,0.013513511046767
-0.002878357423469,0.013513511046767
0.073962755501270,0.013513511046767
0.138554021716118,0.013513512909412
-0.085852511227131,0.013513512909412
0.047516953200102,0.013513512909412
-0.338558465242386,0.013513512909412
-0.097966291010380,0.013513512909412
0.072466649115086,0.013513512909412
0.236743941903114,0.013513512909412
0.023869071155787,0.013513512909412
0.103265494108200,0.013513512909412
-0.147252514958382,0.013513512909412
-0.022056657820940,0.013513512909412
0.118543319404125,0.013513512909412
0.104379490017891,0.013513512909412
-0.310644716024399,0.013513512909412
0.074269674718380,0.013513512909412
0.082281470298767,0.013513512909412
0.142106279730797,0.013513511046767
0.114300772547722,0.013513511046767
-0.039016559720039,0.013513511046767
0.006735339760780,0.013513511046767
0.146341413259506,0.013513511046767
0.056309044361115,0.013513511046767
0.116347081959248,0.013513511046767
0.130144223570824,0.013513511046767
-0.024618871510029,0.013513511046767
-0.141661182045937,0.013513511046767
-0.260173738002777,0.013513511046767
0.012794239446521,0.013513511046767
0.003409395460039,0.013513511046767
-0.126852810382843,0.013513511046767
0.093225516378880,0.013513511046767
0.075212530791759,0.013513511046767
0.102008424699306,0.013513513840735
0.085103474557400,0.013513513840735
-0.093866206705570,0.013513513840735
0.054271183907986,0.013513513840735
-0.123063199222088,0.013513513840735
0.100063033401966,0.013513513840735
0.029970632866025,0.013513513840735
-0.056378994137049,0.013513513840735
-0.231322839856148,0.013513513840735
0.010909972712398,0.013513513840735
-0.014208549633622,0.013513513840735
0.160055696964264,0.013513513840735
-0.071209430694580,0.013513513840735
0.000652471790090,0.013513513840735
-0.082110956311226,0.013513513840735
0.199907630681992,0.013513513840735
0.058332048356533,0.013513513840735
0.026930285617709,0.013513513840735
-0.072458855807781,0.013513513840735
-0.138474494218826,0.013513513840735
-0.060816988348961,0.013513513840735
-0.089967012405396,0.013513513840735
-0.154342532157898,0.013513513840735
0.101572975516319,0.013513513840735
-0.090671367943287,0.013513513840735
0.057612821459770,0.013513513840735
0.011404451914132,0.013513513840735
0.211357176303864,0.013513513840735
-0.133553788065910,0.013513513840735
-0.286084145307541,0.013513513840735
-0.168351218104362,0.013513513840735
0.030518623068929,0.013513513840735
0.120149888098240,0.013513513840735
0.089944466948509,0.013513513840735
-0.045399814844131,0.013513513840735
0.209236115217209,0.013513513840735
-0.083586379885674,0.013513513840735
-0.117117114365101,0.013513513840735
-0.015643017366529,0.013513513840735
0.037975113838911,0.013513513840735
0.043252706527710,0.013513513840735
0.003264318918809,0.013513513840735
-0.019462440162897,0.013513513840735
0.129380568861961,0.013513513840735
0.059830367565155,0.013513513840735
-0.211772069334984,0.013513513840735
0.014113770797849,0.013513513840735
0.028218924999237,0.013513513840735
0.042077343910933,0.013513512909412
-0.013085469603539,0.013513512909412
-0.164426982402802,0.013513512909412
-0.075851574540138,0.013513512909412
-0.094065107405186,0.013513512909412
0.024495597928762,0.013513512909412
-0.084763973951340,0.013513512909412
-0.140951484441757,0.013513512909412
-0.269265711307526,0.013513512909412
-0.122430011630058,0.013513512909412
0.005382664501667,0.013513512909412
-0.056801833212376,0.013513512909412
-0.169874861836433,0.013513512909412
0.075669832527637,0.013513512909412
-0.054198034107685,0.013513512909412
0.180667415261269,0.013513512909412
-0.162831380963326,0.013513502664864
-0.171414032578468,0.013513502664864
-0.053944054991007,0.013513502664864
0.056522626429796,0.013513502664864
-0.028667567297816,0.013513502664864
-0.172155201435089,0.013513502664864
-0.115476816892624,0.013513502664864
0.173347607254982,0.013513502664864
-0.052736349403858,0.013513502664864
0.016074476763606,0.013513502664864
-0.031677674502134,0.013513502664864
-0.214857086539268,0.013513502664864
0.068599246442318,0.013513502664864
0.082159325480461,0.013513502664864
-0.013843858614564,0.013513502664864
0.051142033189535,0.013513502664864
-0.100774049758911,0.013513469137251
0.127564340829849,0.013513469137251
-0.026232946664095,0.013513469137251
0.054501995444298,0.013513468205929
0.128415450453758,0.013513469137251
-0.005117348395288,0.013513469137251
-0.075097538530827,0.013513469137251
0.104679606854916,0.013513469137251
-0.087066732347012,0.013513469137251
0.022956013679504,0.013513469137251
0.031525127589703,0.013513469137251
0.053113676607609,0.013513469137251
0.115961112082005,0.013513469137251
0.044006418436766,0.013513469137251
0.056828148663044,0.013513469137251
-0.095838077366352,0.013513469137251
0.065668553113937,0.013513504527509
-0.067720107734203,0.013513504527509
-0.059134844690561,0.013513504527509
0.057725448161364,0.013513504527509
0.101773746311665,0.013513504527509
-0.254950582981110,0.013513504527509
0.077490709722042,0.013513504527509
-0.132304280996323,0.013513504527509
-0.107211619615555,0.013513504527509
-0.244685769081116,0.013513504527509
0.017171235755086,0.013513504527509
0.075185306370258,0.013513504527509
0.173585176467896,0.013513504527509
-0.128005191683769,0.013513504527509
0.040234480053186,0.013513504527509
-0.172350555658340,0.013513504527509
-0.039982043206692,0.013513478450477
0.132223159074783,0.013513478450477
0.115190342068672,0.013513478450477
-0.050760224461555,0.013513478450477
-0.241643473505974,0.013513478450477
0.050945091992617,0.013513478450477
-0.045293156057596,0.013513478450477
0.035287261009216,0.013513478450477
0.071862757205963,0.013513478450477
0.059229675680399,0.013513478450477
-0.029441697522998,0.013513478450477
0.011518714018166,0.013513478450477
-0.119918532669544,0.013513478450477
0.098324678838253,0.013513478450477
-0.115415088832378,0.013513478450477
-0.076722487807274,0.013513478450477
0.092243023216724,0.013513513840735
-0.062348533421755,0.013513513840735
-0.100896030664444,0.013513513840735
0.034860324114561,0.013513513840735
0.028754496946931,0.013513513840735
-0.165755257010460,0.013513513840735
-0.102890364825726,0.013513513840735
-0.042214911431074,0.013513513840735
-0.024080060422421,0.013513513840735
-0.083732627332211,0.013513513840735
-0.035913180559874,0.013513513840735
-0.027889110147953,0.013513513840735
0.142101496458054,0.013513513840735
-0.209201350808144,0.013513513840735
0.118710972368717,0.013513513840735
-0.061882078647614,0.013513513840735
-0.099992558360100,0.013513513840735
0.139432102441788,0.013513513840735
0.052581664174795,0.013513513840735
0.208752974867821,0.013513513840735
-0.080846421420574,0.013513513840735
0.037825014442205,0.013513513840735
0.052554793655872,0.013513513840735
-0.145771428942680,0.013513513840735
-0.017988258972764,0.013513513840735
0.061709672212601,0.013513513840735
0.017382660880685,0.013513513840735
-0.038319110870361,0.013513513840735
-0.181617245078087,0.013513513840735
-0.261175751686096,0.013513513840735
0.058728635311127,0.013513513840735
-0.053455222398043,0.013513513840735
0.008741609752178,0.013513513840735
0.120695754885674,0.013513513840735
0.105616353452206,0.013513513840735
0.022358432412148,0.013513513840735
0.036240898072720,0.013513513840735
-0.051358234137297,0.013513513840735
-0.142093956470490,0.013513513840735
0.128290042281151,0.013513513840735
-0.022927619516850,0.013513513840735
-0.072440333664417,0.013513513840735
0.213820070028305,0.013513513840735
-0.069861166179180,0.013513513840735
0.006791102234274,0.013513513840735
-0.086391285061836,0.013513513840735
0.054889094084501,0.013513513840735
0.103020675480366,0.013513513840735
0.062836214900017,0.013513510115445
-0.083862684667110,0.013513510115445
0.084868863224983,0.013513510115445
-0.006383047904819,0.013513510115445
-0.260791063308716,0.013513510115445
0.153865173459053,0.013513510115445
-0.013429678045213,0.013513510115445
0.201769143342972,0.013513510115445
-0.169416666030884,0.013513510115445
-0.014063587412238,0.013513510115445
0.240222960710526,0.013513510115445
-0.040568377822638,0.013513510115445
0.016966188326478,0.013513510115445
0.083985514938831,0.013513510115445
0.026308646425605,0.013513510115445
-0.053050685673952,0.013513510115445
0.156244769692421,0.013513473793864
-0.239082977175713,0.013513472862542
0.131691709160805,0.013513472862542
-0.043380513787270,0.013513472862542
0.085396312177181,0.013513472862542
0.071615271270275,0.013513471931219
0.168188944458961,0.013513471931219
-0.081348463892937,0.013513472862542
-0.039744175970554,0.013513472862542
-0.114333681762218,0.013513471931219
-0.105797879397869,0.013513471931219
0.027253352105618,0.013513472862542
-0.117375537753105,0.013513473793864
0.080690182745457,0.013513472862542
-0.006122666876763,0.013513472862542
0.234788596630096,0.013513472862542
0.130712270736694,0.013513352721930
-0.130711629986763,0.013513352721930
-0.077790223062038,0.013513352721930
-0.031587611883879,0.013513351790607
0.041669011116028,0.013513354584575
-0.050673853605986,0.013513353653252
-0.007080204784870,0.013513353653252
-0.137043192982674,0.013513352721930
-0.122386090457439,0.013513354584575
-0.033379554748535,0.013513353653252
-0.028810150921345,0.013513353653252
-0.075058482587337,0.013513352721930
0.083827629685402,0.013513354584575
-0.132941350340843,0.013513354584575
0.092611476778984,0.013513354584575
-0.043108262121677,0.013513353653252
0.133810907602310,0.013513478450477
0.034500788897276,0.013513479381800
-0.287758111953735,0.013513479381800
-0.103094488382339,0.013513479381800
-0.191907376050949,0.013513479381800
0.223774760961533,0.013513479381800
0.007875273935497,0.013513479381800
0.012164008803666,0.013513479381800
0.149982601404190,0.013513479381800
0.245936572551727,0.013513479381800
0.216742917895317,0.013513479381800
0.030588073655963,0.013513479381800
-0.086465291678905,0.013513479381800
-0.068061158061028,0.013513479381800
0.129169628024101,0.013513479381800
-0.042154021561146,0.013513479381800
-0.015038887038827,0.013513387180865
0.217477887868881,0.013513387180865
0.050968211144209,0.013513387180865
-0.070529788732529,0.013513386249542
0.138407677412033,0.013513386249542
0.211122363805771,0.013513386249542
0.076014429330826,0.013513386249542
0.090671122074127,0.013513386249542
0.007234236691147,0.013513386249542
0.238242328166962,0.013513386249542
0.123734526336193,0.013513386249542
0.101884074509144,0.013513386249542
0.204587131738663,0.013513388112187
-0.071043178439140,0.013513388112187
-0.056492749601603,0.013513388112187
0.037353355437517,0.013513388112187
0.139431998133659,0.013513512909412
-0.006878948304802,0.013513512909412
0.048878896981478,0.013513512909412
-0.175315052270889,0.013513512909412
-0.084251001477242,0.013513512909412
0.089632287621498,0.013513512909412
-0.132979765534401,0.013513512909412
-0.006616298109293,0.013513512909412
0.205625876784325,0.013513512909412
-0.139267072081566,0.013513512909412
0.078260175883770,0.013513512909412
0.118577010929585,0.013513512909412
0.140320315957069,0.013513512909412
-0.028052972629666,0.013513512909412
-0.079365253448486,0.013513512909412
0.155192509293556,0.013513512909412
-0.112509846687317,0.013513513840735
0.069271348416805,0.013513513840735
0.085319779813290,0.013513513840735
0.080202013254166,0.013513513840735
-0.101983986794949,0.013513513840735
0.068100869655609,0.013513513840735
-0.058287136256695,0.013513513840735
0.111344277858734,0.013513513840735
0.214684963226318,0.013513513840735
0.006447738967836,0.013513513840735
-0.073305793106556,0.013513513840735
0.082007929682732,0.013513513840735
0.020734820514917,0.013513513840735
0.070890203118324,0.013513513840735
-0.174237415194511,0.013513513840735
0.086165033280849,0.013513513840735
0.003428857773542,0.013513513840735
0.067906454205513,0.013513513840735
0.149583220481873,0.013513513840735
0.180784016847610,0.013513513840735
0.095222145318985,0.013513513840735
0.006790783721954,0.013513513840735
-0.008897623978555,0.013513513840735
0.140671521425247,0.013513513840735
0.164964675903320,0.013513513840735
0.102886728942394,0.013513513840735
0.161000862717628,0.013513513840735
-0.097577579319477,0.013513513840735
0.078395120799541,0.013513513840735
-0.094479337334633,0.013513513840735
-0.145973086357117,0.013513513840735
-0.042524021118879,0.013513513840735
0.141728833317757,0.013513512909412
0.235802218317986,0.013513512909412
-0.070771075785160,0.013513512909412
0.059195436537266,0.013513512909412
0.101271979510784,0.013513512909412
0.010320661589503,0.013513512909412
0.071501970291138,0.013513512909412
-0.051392853260040,0.013513512909412
0.153300866484642,0.013513512909412
0.094164289534092,0.013513512909412
-0.000941151054576,0.013513512909412
-0.135137870907784,0.013513512909412
0.105111107230186,0.013513512909412
-0.022835953161120,0.013513512909412
-0.003321725409478,0.013513512909412
0.143952026963234,0.013513512909412
-0.080732375383377,0.013513498939574
0.097556151449680,0.013513498008251
-0.002633354626596,0.013513498008251
0.039106972515583,0.013513498939574
-0.098300874233246,0.013513498939574
0.102091088891029,0.013513498008251
-0.053886447101831,0.013513498008251
0.058278333395720,0.013513498008251
0.124963797628880,0.013513498939574
0.060162827372551,0.013513498008251
-0.050665590912104,0.013513498008251
-0.071175828576088,0.013513498008251
-0.040444999933243,0.013513498939574
0.218274340033531,0.013513498008251
0.062376793473959,0.013513498008251
0.124499745666981,0.013513498939574
0.041829958558083,0.013513453304768
-0.038405321538448,0.013513453304768
0.112123660743237,0.013513453304768
-0.078018680214882,0.013513453304768
0.102413021028042,0.013513454236090
-0.026547931134701,0.013513454236090
-0.018480977043509,0.013513454236090
-0.004127941094339,0.013513453304768
0.090219587087631,0.013513454236090
0.190332397818565,0.013513454236090
0.097441516816616,0.013513454236090
-0.178606733679771,0.013513453304768
0.136850997805595,0.013513454236090
0.068467512726784,0.013513454236090
-0.138293489813805,0.013513454236090
0.184304058551788,0.013513454236090
0.062625683844090,0.013513500802219
0.056485440582037,0.013513500802219
0.092059418559074,0.013513500802219
-0.026209976524115,0.013513500802219
-0.081341624259949,0.013513500802219
-0.028309801593423,0.013513500802219
-0.059156481176615,0.013513500802219
0.272069275379181,0.013513500802219
0.059771109372377,0.013513500802219
0.256727844476700,0.013513500802219
0.058187011629343,0.013513500802219
0.008332289755344,0.013513500802219
-0.019349960610271,0.013513500802219
-0.180063113570213,0.013513500802219
0.116954497992992,0.013513500802219
0.209923207759857,0.013513500802219
-0.046736244112253,0.013513466343284
-0.036156889051199,0.013513466343284
0.013099835254252,0.013513466343284
0.050552397966385,0.013513466343284
0.211837351322174,0.013513466343284
0.212440952658653,0.013513466343284
-0.173782303929329,0.013513466343284
0.037810072302818,0.013513466343284
-0.090820603072643,0.013513466343284
-0.035430219024420,0.013513466343284
-0.114480599761009,0.013513466343284
0.019712781533599,0.013513466343284
-0.125166311860085,0.013513466343284
0.175288155674934,0.013513466343284
0.120231136679649,0.013513466343284
-0.071318097412586,0.013513466343284
0.126844480633736,0.013513513840735
-0.081369295716286,0.013513513840735
0.192857429385185,0.013513513840735
-0.254947066307068,0.013513513840735
0.076875582337379,0.013513513840735
0.040526360273361,0.013513513840735
-0.004005844239146,0.013513513840735
0.098872490227222,0.013513513840735
-0.232315436005592,0.013513513840735
0.061543617397547,0.013513513840735
0.063377432525158,0.013513513840735
0.230065569281578,0.013513513840735
0.172858238220215,0.013513513840735
0.070460572838783,0.013513513840735
-0.084268122911453,0.013513513840735
0.071978382766247,0.013513513840735
0.002708514919505,0.013513513840735
0.005537542048842,0.013513513840735
-0.055486034601927,0.013513513840735
0.065569974482059,0.013513513840735
-0.036625843495131,0.013513513840735
-0.034851040691137,0.013513513840735
-0.074259981513023,0.013513513840735
-0.139485448598862,0.013513513840735
-0.062037155032158,0.013513513840735
0.195869997143745,0.013513513840735
-0.010381096974015,0.013513513840735
-0.081235647201538,0.013513513840735
0.254263371229172,0.013513513840735
-0.040353067219257,0.013513513840735
-0.103633582592010,0.013513513840735
-0.022377118468285,0.013513513840735
0.202424407005310,0.013513513840735
-0.067431882023811,0.013513513840735
-0.144696235656738,0.013513513840735
0.195113703608513,0.013513513840735
-0.184374496340752,0.013513513840735
0.138119503855705,0.013513513840735
0.022246835753322,0.013513513840735
0.026432394981384,0.013513513840735
-0.079012796282768,0.013513513840735
0.040800377726555,0.013513513840735
0.020060218870640,0.013513513840735
0.000526426534634,0.013513513840735
-0.001302427612245,0.013513513840735
-0.044150620698929,0.013513513840735
0.051794368773699,0.013513513840735
0.329216808080673,0.013513513840735
-0.174904242157936,0.013513512909412
-0.015322246588767,0.013513512909412
-0.048450689762831,0.013513512909412
-0.002138598822057,0.013513512909412
-0.069198407232761,0.013513512909412
0.022721219807863,0.013513512909412
0.012671409174800,0.013513512909412
0.078683681786060,0.013513512909412
0.003570006461814,0.013513512909412
0.035856150090694,0.013513512909412
0.039873305708170,0.013513512909412
0.066180668771267,0.013513512909412
0.065166801214218,0.013513512909412
-0.164405077695847,0.013513512909412
0.281225174665451,0.013513512909412
0.069890111684799,0.013513512909412
-0.040519386529922,0.013513504527509
-0.171609714627266,0.013513504527509
-0.006196892820299,0.013513504527509
0.122545547783375,0.013513504527509
-0.004691293928772,0.013513504527509
-0.074150614440441,0.013513504527509
-0.000682715384755,0.013513504527509
-0.032270114868879,0.013513504527509
-0.112991631031036,0.013513504527509
0.203430712223053,0.013513504527509
-0.141103699803352,0.013513504527509
-0.072538614273071,0.013513504527509
0.107656531035900,0.013513504527509
0.037445362657309,0.013513504527509
-0.094583317637444,0.013513504527509
0.090241938829422,0.013513504527509
0.076074071228504,0.013513476587832
-0.060418132692575,0.013513476587832
-0.067921541631222,0.013513476587832
-0.076531052589417,0.013513476587832
0.114255182445049,0.013513477519155
-0.134142681956291,0.013513476587832
-0.133386731147766,0.013513476587832
0.187033459544182,0.013513476587832
-0.037211179733276,0.013513477519155
0.300982415676117,0.013513476587832
-0.010578617453575,0.013513476587832
0.148178279399872,0.013513476587832
0.184465542435646,0.013513477519155
0.012809675186872,0.013513477519155
0.126422345638275,0.013513477519155
-0.127666726708412,0.013513476587832
0.001847581588663,0.013513505458832
0.003254949813709,0.013513505458832
0.111785247921944,0.013513505458832
-0.007306548301131,0.013513505458832
-0.054311610758305,0.013513505458832
-0.084126330912113,0.013513506390154
-0.050575882196426,0.013513506390154
0.083257757127285,0.013513506390154
-0.038458127528429,0.013513505458832
-0.133798941969872,0.013513506390154
0.199981018900871,0.013513506390154
0.007955547422171,0.013513506390154
-0.050243113189936,0.013513505458832
0.028332823887467,0.013513505458832
0.086029380559921,0.013513505458832
0.076021730899811,0.013513505458832
-0.123056106269360,0.013513484969735
0.000320197228575,0.013513484969735
-0.171119749546051,0.013513484969735
0.045959185808897,0.013513484969735
0.278766930103302,0.013513484969735
-0.091886058449745,0.013513484969735
0.040573779493570,0.013513484969735
-0.098865754902363,0.013513484969735
0.030836680904031,0.013513484969735
0.142716407775879,0.013513484969735
0.195977300405502,0.013513484969735
0.043276853859425,0.013513484969735
-0.020913571119308,0.013513484969735
0.086660563945770,0.013513484969735
-0.123834960162640,0.013513484969735
-0.179881244897842,0.013513484969735
-0.118803106248379,0.013513513840735
-0.040040679275990,0.013513513840735
-0.043160341680050,0.013513513840735
0.195802807807922,0.013513513840735
0.029957616701722,0.013513513840735
0.044630900025368,0.013513513840735
0.075136251747608,0.013513513840735
-0.069380782544613,0.013513513840735
-0.042578000575304,0.013513513840735
0.086631119251251,0.013513513840735
-0.102215893566608,0.013513513840735
0.112198099493980,0.013513513840735
-0.047531321644783,0.013513513840735
0.030008509755135,0.013513513840735
0.090455040335655,0.013513513840735
-0.140880003571510,0.013513513840735
0.116636291146278,0.013513513840735
-0.004443820100278,0.013513513840735
0.051452662795782,0.013513513840735
-0.148019433021545,0.013513513840735
0.171596229076385,0.013513513840735
-0.114173717796803,0.013513513840735
-0.071168296039104,0.013513513840735
0.020860651507974,0.013513513840735
0.071739137172699,0.013513513840735
-0.077955208718777,0.013513513840735
-0.064831241965294,0.013513513840735
-0.048360679298639,0.013513513840735
-0.125093147158623,0.013513513840735
0.040973961353302,0.013513513840735
-0.082363255321980,0.013513513840735
0.019535236060619,0.013513513840735
-0.000695656344760,0.013513513840735
-0.066958919167519,0.013513513840735
-0.073302991688251,0.013513513840735
0.018586780875921,0.013513513840735
-0.164823532104492,0.013513513840735
-0.103217519819736,0.013513513840735
0.005291082896292,0.013513513840735
0.046893812716007,0.013513513840735
0.100429326295853,0.013513513840735
0.171038210391998,0.013513513840735
-0.173701524734497,0.013513513840735
0.082566700875759,0.013513513840735
-0.049759943038225,0.013513513840735
-0.168171778321266,0.013513513840735
-0.031179344281554,0.013513513840735
-0.126518294215202,0.013513513840735
0.024699838832021,0.013513512909412
-0.058559771627188,0.013513512909412
0.099233217537403,0.013513512909412
0.043199181556702,0.013513512909412
0.201511859893799,0.013513512909412
-0.275256544351578,0.013513512909412
0.047602467238903,0.013513512909412
-0.130087271332741,0.013513512909412
0.036032021045685,0.013513512909412
0.025614516809583,0.013513512909412
-0.003782570129260,0.013513512909412
0.067882284522057,0.013513512909412
-0.167380988597870,0.013513512909412
-0.006491551175714,0.013513512909412
0.070562541484833,0.013513512909412
0.034529753029346,0.013513512909412
0.174186095595360,0.013513501733541
-0.038470495492220,0.013513501733541
0.087454527616501,0.013513501733541
0.332473278045654,0.013513501733541
-0.044951099902391,0.013513501733541
-0.081745155155659,0.013513501733541
0.135957807302475,0.013513501733541
0.234430506825447,0.013513501733541
-0.022319894284010,0.013513501733541
-0.068797372281551,0.013513501733541
0.065463878214359,0.013513501733541
0.060525458306074,0.013513501733541
-0.081930212676525,0.013513501733541
0.078885369002819,0.013513501733541
-0.031472768634558,0.013513501733541
0.077258393168449,0.013513501733541
0.038832966238260,0.013513465411961
0.096385076642036,0.013513465411961
0.026543952524662,0.013513465411961
-0.039175320416689,0.013513465411961
0.074809990823269,0.013513466343284
-0.003105014329776,0.013513465411961
-0.010645199567080,0.013513465411961
-0.263286858797073,0.013513465411961
-0.083123736083508,0.013513466343284
0.060931582003832,0.013513465411961
0.022882435470819,0.013513465411961
-0.088187083601952,0.013513465411961
0.112983070313931,0.013513466343284
-0.089675717055798,0.013513466343284
-0.186066448688507,0.013513466343284
0.138285934925079,0.013513465411961
-0.025057980790734,0.013513503596187
-0.020829038694501,0.013513503596187
0.040925689041615,0.013513503596187
-0.209392666816711,0.013513503596187
0.198031604290009,0.013513503596187
-0.054266460239887,0.013513503596187
0.013213129714131,0.013513503596187
-0.050489816814661,0.013513503596187
-0.089289553463459,0.013513503596187
-0.280818760395050,0.013513503596187
-0.190905466675758,0.013513503596187
-0.081006780266762,0.013513503596187
0.243377774953842,0.013513503596187
0.123410068452358,0.013513503596187
-0.088290743529797,0.013513503596187
-0.000431710475823,0.013513503596187
-0.014276495203376,0.013513475656509
-0.157397225499153,0.013513475656509
-0.053300231695175,0.013513475656509
0.148206532001495,0.013513475656509
-0.105907835066319,0.013513475656509
0.044839859008789,0.013513475656509
0.182465255260468,0.013513475656509
0.043438602238894,0.013513475656509
0.026605149731040,0.013513475656509
0.070542216300964,0.013513475656509
0.008598768152297,0.013513475656509
-0.183019474148750,0.013513475656509
-0.052106868475676,0.013513475656509
-0.007021450903267,0.013513475656509
-0.074463546276093,0.013513475656509
0.186831176280975,0.013513475656509
-0.080982089042664,0.013513513840735
-0.033536508679390,0.013513513840735
0.112490162253380,0.013513513840735
0.055401507765055,0.013513513840735
-0.121943593025208,0.013513513840735
-0.053318701684475,0.013513513840735
-0.097144268453121,0.013513513840735
-0.049780402332544,0.013513513840735
0.251390963792801,0.013513513840735
-0.093387648463249,0.013513513840735
0.058969762176275,0.013513513840735
-0.146400332450867,0.013513513840735
0.037893824279308,0.013513513840735
0.129462033510208,0.013513513840735
0.120880909264088,0.013513513840735
-0.070202261209488,0.013513513840735
-0.071030452847481,0.013513513840735
0.059267893433571,0.013513513840735
0.233214184641838,0.013513513840735
-0.111719250679016,0.013513513840735
-0.046591985970736,0.013513513840735
-0.082004100084305,0.013513513840735
0.068215608596802,0.013513513840735
0.141271770000458,0.013513513840735
0.035309582948685,0.013513513840735
0.059477061033249,0.013513513840735
-0.037319418042898,0.013513513840735
-0.119672037661076,0.013513513840735
0.003545874729753,0.013513513840735
-0.148265138268471,0.013513513840735
0.127223059535027,0.013513513840735
-0.032119650393724,0.013513513840735
0.047278828918934,0.013513513840735
-0.247852087020874,0.013513513840735
0.182520180940628,0.013513513840735
0.024343539029360,0.013513513840735
-0.048586539924145,0.013513513840735
0.019639631733298,0.013513513840735
0.109797418117523,0.013513513840735
0.078810147941113,0.013513513840735
-0.035423584282398,0.013513513840735
0.138466179370880,0.013513513840735
-0.173148423433304,0.013513513840735
-0.026538290083408,0.013513513840735
-0.029203657060862,0.013513513840735
-0.087127730250359,0.013513513840735
0.115607313811779,0.013513513840735
-0.069606401026249,0.013513513840735
0.053927768021822,0.013513511046767
0.051747076213360,0.013513511046767
-0.004964279942214,0.013513511046767
0.057643879204988,0.013513511046767
-0.026731103658676,0.013513511046767
0.027763761579990,0.013513511046767
-0.062218293547630,0.013513511046767
0.043264716863632,0.013513511046767
-0.052978768944740,0.013513511046767
-0.013003382831812,0.013513511046767
0.035403229296207,0.013513511046767
-0.000814900558908,0.013513511046767
-0.102379217743874,0.013513511046767
0.045093193650246,0.013513511046767
0.017818065360188,0.013513511046767
0.030605657026172,0.013513511046767
0.047509308904409,0.013513484038413
0.063594140112400,0.013513483107090
-0.106465585529804,0.013513483107090
0.203370749950409,0.013513483107090
-0.130981996655464,0.013513484038413
-0.096537865698338,0.013513483107090
-0.207268148660660,0.013513483107090
0.009689766913652,0.013513483107090
0.174669563770294,0.013513484038413
-0.049031596630812,0.013513483107090
-0.074759006500244,0.013513483107090
-0.098774999380112,0.013513483107090
0.026976086199284,0.013513484038413
-0.213299587368965,0.013513483107090
0.072970800101757,0.013513483107090
-0.196387514472008,0.013513483107090
-0.076542973518372,0.013513394631445
-0.001697897212580,0.013513393700123
-0.011836102232337,0.013513393700123
-0.056536883115768,0.013513393700123
0.108668908476830,0.013513395562768
0.310843616724014,0.013513394631445
-0.052379399538040,0.013513394631445
0.058758974075317,0.013513394631445
-0.029098225757480,0.013513395562768
-0.256585210561752,0.013513394631445
0.019177420064807,0.013513394631445
0.192293778061867,0.013513394631445
-0.021236736327410,0.013513395562768
0.089024990797043,0.013513395562768
-0.009974664077163,0.013513395562768
-0.049410577863455,0.013513394631445
-0.046328425407410,0.013513487763703
0.135041892528534,0.013513487763703
0.230382218956947,0.013513487763703
0.105805099010468,0.013513487763703
0.140271216630936,0.013513487763703
0.026822164654732,0.013513488695025
0.331035733222961,0.013513488695025
-0.046699300408363,0.013513488695025
-0.070161029696465,0.013513487763703
-0.096238799393177,0.013513488695025
-0.146474689245224,0.013513488695025
-0.125680938363075,0.013513488695025
0.069786995649338,0.013513487763703
-0.119440793991089,0.013513487763703
0.053258802741766,0.013513487763703
0.116364136338234,0.013513487763703
-0.122028544545174,0.013513419777155
-0.042081382125616,0.013513419777155
0.166441172361374,0.013513419777155
0.003609073581174,0.013513419777155
0.092156067490578,0.013513418845832
-0.185807541012764,0.013513418845832
0.225069120526314,0.013513418845832
0.094936728477478,0.013513418845832
0.090415865182877,0.013513418845832
-0.072896338999271,0.013513418845832
0.076167359948158,0.013513418845832
0.054872985929251,0.013513418845832
-0.009969186037779,0.013513420708477
0.216869652271271,0.013513420708477
0.034146875143051,0.013513420708477
0.359824836254120,0.013513419777155
-0.021590128540993,0.013513512909412
0.148726761341095,0.013513512909412
0.160523414611816,0.013513512909412
