mw,Sw
1.467109799385071,0.519986927509308
-1.031242609024048,0.753230988979340
2.156224012374878,0.502037346363068
-0.899212956428528,0.510319769382477
-0.576318800449371,0.112464733421803
0.352060645818710,0.242563888430595
-1.817331790924072,0.538988471031189
-0.076168619096279,0.687852859497070
3.228209495544434,0.163832873106003
-1.978595614433289,0.054110158234835
0.334210515022278,0.052557695657015
0.120692394673824,0.098606094717979
0.249477162957191,0.013403385877609
-0.378371387720108,0.094663903117180
-0.320742368698120,0.095019795000553
-0.050811927765608,0.014291644096375
-0.331479161977768,0.098617218434811
-0.289281994104385,0.073116838932037
0.789615988731384,0.019095771014690
-0.539579451084137,0.060761064291000
0.326621919870377,0.098426729440689
-0.574464797973633,0.099395677447319
-0.200325727462769,0.085763514041901
0.242478102445602,0.098526492714882
-0.056421056389809,0.099214293062687
0.146311566233635,0.083654887974262
-0.293476551771164,0.099262297153473
0.001322990981862,0.098521865904331
-0.447390526533127,0.094579488039017
-0.230227753520012,0.082617223262787
0.290607720613480,0.099971763789654
-0.311653405427933,0.099977321922779
-0.102001830935478,0.099699653685093
0.089669033885002,0.099946431815624
0.256664395332336,0.099969491362572
-0.799849092960358,0.099611297249794
-0.499789118766785,0.099960230290890
0.088971711695194,0.099957808852196
-0.321981251239777,0.099892079830170
-0.181731030344963,0.099113702774048
0.001466707093641,0.098650269210339
0.074071295559406,0.099042654037476
-0.175993070006371,0.091109611093998
0.215253829956055,0.096817553043365
0.071500048041344,0.099301733076572
0.217351496219635,0.072271928191185
0.524532437324524,0.097307816147804
-0.172813981771469,0.097456015646458
-0.442380279302597,0.093435987830162
-0.476488500833511,0.064096726477146
-0.192991405725479,0.098410837352276
-0.238582849502563,0.099658608436584
-0.462679743766785,0.087959438562393
-0.580119311809540,0.099054954946041
-0.163698926568031,0.099455028772354
-0.324900239706039,0.086558945477009
-0.223194226622581,0.099306769669056
-0.217052459716797,0.098707906901836
-0.009276716969907,0.093547612428665
-0.357837349176407,0.086466901004314
-0.275721102952957,0.091232426464558
0.343911647796631,0.099729478359222
0.330988854169846,0.063567526638508
-0.259213119745255,0.099191866815090
-0.011073329485953,0.099684946238995
-0.917192399501801,0.065520495176315
-0.111932165920734,0.099433071911335
-0.475445687770844,0.096815437078476
0.651285946369171,0.066627040505409
-0.528277933597565,0.090361945331097
-0.094290621578693,0.098957628011703
-0.031610339879990,0.099298208951950
-0.036203116178513,0.091114237904549
-0.284374684095383,0.097888201475143
-0.064275972545147,0.099172651767731
-0.171704530715942,0.082375273108482
-0.352124929428101,0.098481081426144
-0.335779875516891,0.098266795277596
-0.280228525400162,0.095847368240356
-0.075803510844707,0.071358345448971
-0.523195445537567,0.096248373389244
0.223360806703568,0.051932767033577
-0.086785018444061,0.065055467188358
0.249859198927879,0.028356220573187
0.867651462554932,0.058794319629669
-0.354034721851349,0.015143771655858
0.325749754905701,0.030453789979219
-0.022259602323174,0.051413908600807
-0.537884116172791,0.093204177916050
0.677138805389404,0.002332174452022
-0.544072687625885,0.098123982548714
-0.276074498891830,0.099323384463787
-0.062951788306236,0.083755187690258
-0.111647263169289,0.098394870758057
0.045959498733282,0.099100679159164
0.030259896069765,0.082262903451920
0.057698797434568,0.099069207906723
-0.237890705466270,0.098331607878208
-0.055387150496244,0.093431517481804
-0.261209398508072,0.080926120281219
-0.278930962085724,0.097099155187607
-0.262685924768448,0.095106393098831
-0.147171393036842,0.076627768576145
0.018292026594281,0.087705053389072
-0.174150630831718,0.095198161900043
-0.328085094690323,0.058627713471651
0.311967909336090,0.089482270181179
0.305851131677628,0.092649221420288
-0.011354912072420,0.089234828948975
0.035499386489391,0.029330261051655
-0.424412965774536,0.098930552601814
-0.115648485720158,0.098935246467590
-0.077088519930840,0.088489994406700
-0.431994676589966,0.097342520952225
0.384666830301285,0.098488487303257
-0.092713981866837,0.083667345345020
-0.092707484960556,0.098037734627724
-0.363043606281281,0.097888484597206
0.169954538345337,0.096001379191875
0.246383890509605,0.067604511976242
0.088445462286472,0.097612813115120
0.444253206253052,0.096124924719334
-0.035080693662167,0.080720394849777
-0.546428501605988,0.090388976037502
-0.371176451444626,0.096334546804428
-0.506710290908813,0.064865767955780
-0.164924025535583,0.092013940215111
0.371760398149490,0.094473138451576
-0.459275573492050,0.091326378285885
-0.000666206527967,0.035387564450502
0.345434963703156,0.096351191401482
0.305135041475296,0.093994311988354
-0.511866986751556,0.074417814612389
-0.151255145668983,0.083749130368233
-0.329249143600464,0.094605274498463
0.218559384346008,0.043274071067572
0.172994822263718,0.086533129215240
-0.278464466333389,0.089496746659279
-0.204865396022797,0.086408361792564
-0.029730986803770,0.022122798487544
0.555846035480499,0.081286370754242
0.428265482187271,0.097885578870773
0.219666793942451,0.036733523011208
0.015411100350320,0.095080792903900
-0.021654294803739,0.097165152430534
-0.317519575357437,0.037944376468658
-0.132913082838058,0.097583740949631
0.257099330425262,0.090221680700779
0.293160825967789,0.049062639474869
-0.494537830352783,0.060996081680059
-0.620493531227112,0.096964836120605
0.287306874990463,0.096973881125450
-0.117135800421238,0.080278418958187
-0.146420732140541,0.090205222368240
-0.326938241720200,0.097536787390709
0.302761912345886,0.047427859157324
0.316706538200378,0.091601431369781
0.172415494918823,0.092535935342312
-0.330316185951233,0.086983151733875
-0.251125246286392,0.033445250242949
0.288716554641724,0.001242784433998
0.064181059598923,0.018753629177809
-0.028490139171481,0.047938980162144
-0.168555691838264,0.011375652626157
-0.290153503417969,0.064023062586784
0.306084901094437,0.019795466214418
-0.111496761441231,0.015214580111206
-0.350848972797394,0.000590277952142
0.082947954535484,0.026075951755047
-0.148846149444580,0.005192654207349
-0.056495789438486,0.004790489096195
-0.228822603821754,0.018812449648976
-0.177352428436279,0.004608656279743
0.181297734379768,0.002738299546763
-0.235304653644562,0.010946007445455
