mw,Sw
-0.786911845207214,0.367214083671570
2.099651336669922,0.327799350023270
0.052680041640997,0.404247790575027
1.870207190513611,0.391150981187820
2.149809837341309,0.206978768110275
-1.988035321235657,0.247367903590202
-0.288927018642426,0.516609191894531
-1.027334570884705,0.559524238109589
-2.329680919647217,0.050698768347502
2.430212259292603,0.303298354148865
-0.086531274020672,0.081618919968605
0.385087668895721,0.018835257738829
-0.123428076505661,0.036896433681250
0.285872161388397,0.019439248368144
0.448721498250961,0.011140541173518
-0.681342184543610,0.099275343120098
-0.130946189165115,0.097055539488792
-0.295002967119217,0.098275020718575
-0.454209208488464,0.094860427081585
0.328707218170166,0.016260009258986
-0.182585388422012,0.099400639533997
-0.161391615867615,0.099579840898514
-0.366596698760986,0.099614858627319
-0.184276133775711,0.099645860493183
-0.154011443257332,0.099415972828865
-0.047924842685461,0.099543869495392
0.058137353509665,0.099820040166378
0.176685139536858,0.099694222211838
0.188808158040047,0.099237769842148
-0.549516499042511,0.099664822220802
0.401155114173889,0.087102994322777
-0.294377565383911,0.095423080027103
-0.185695409774780,0.087252423167229
-0.287604451179504,0.095415674149990
0.196014598011971,0.091682657599449
-0.057097721844912,0.096811912953854
-0.023144939914346,0.099269405007362
0.471157968044281,0.096892438828945
-0.000558728293981,0.083880417048931
-0.281820207834244,0.095005571842194
-0.618928253650665,0.099473923444748
0.052197244018316,0.098497807979584
-0.499780744314194,0.099213987588882
-0.542858183383942,0.098652750253677
0.152293607592583,0.097593382000923
0.357564449310303,0.099459432065487
0.352355718612671,0.099748276174068
0.474226117134094,0.099671058356762
-0.282279610633850,0.099327214062214
0.059104193001986,0.098495848476887
0.140100017189980,0.078867696225643
-0.009646882303059,0.056087005883455
0.107335828244686,0.055748499929905
0.037273850291967,0.056561004370451
-0.311470866203308,0.040757164359093
-0.357344329357147,0.098103299736977
-0.264460921287537,0.098337635397911
-0.559888482093811,0.097088612616062
-0.468140572309494,0.088338658213615
-0.019163815304637,0.053099364042282
0.135211542248726,0.018548615276814
-0.221271336078644,0.087490610778332
-0.192010208964348,0.027540508657694
-0.372715413570404,0.087510615587234
-0.279637098312378,0.080788739025593
0.447459042072296,0.037986725568771
0.403703361749649,0.080866381525993
0.199028730392456,0.044513892382383
0.677371382713318,0.010196605697274
-0.148781999945641,0.087269708514214
0.137687966227531,0.095363408327103
-0.104235798120499,0.097446888685226
0.105628535151482,0.092218667268753
0.357746273279190,0.097427949309349
-0.375843733549118,0.094997502863407
-0.326609879732132,0.099281065165997
-0.443067103624344,0.099791504442692
-0.195463895797729,0.099189072847366
-0.204696267843246,0.095432005822659
-0.650218248367310,0.097195908427238
-0.074273191392422,0.098820798099041
0.342506170272827,0.082839019596577
-0.364798873662949,0.093048587441444
-0.022554883733392,0.084017850458622
0.376891642808914,0.072744257748127
-0.048358362168074,0.099806316196918
-0.221131205558777,0.099841132760048
0.095236182212830,0.099812835454941
-0.175155878067017,0.098943136632442
-0.045439671725035,0.080734960734844
0.329091459512711,0.052836835384369
-0.329425930976868,0.089824914932251
-0.220852941274643,0.063058704137802
-0.412132740020752,0.089992448687553
0.007499308325350,0.083128295838833
0.164843082427979,0.077578321099281
-0.332567632198334,0.095585465431213
0.003534362651408,0.080877520143986
0.324785292148590,0.038664799183607
-0.140601068735123,0.089150778949261
-0.494233965873718,0.089866057038307
0.038712609559298,0.056231971830130
-0.415393412113190,0.075262181460857
0.052044168114662,0.057445731014013
0.121687874197960,0.041462704539299
0.449767798185349,0.096176080405712
0.502983629703522,0.098465889692307
-0.288291156291962,0.096991859376431
0.129867792129517,0.086910828948021
0.634577631950378,0.051862444728613
0.258950531482697,0.075424179434776
0.084903508424759,0.091066561639309
0.042672723531723,0.077095940709114
-0.112803377211094,0.091081425547600
-0.413577914237976,0.084742695093155
-0.605124831199646,0.093826636672020
0.271981418132782,0.098560936748981
0.578181743621826,0.093614406883717
0.132170885801315,0.071097992360592
-0.134833335876465,0.090381413698196
0.191791757941246,0.096564002335072
-0.369674086570740,0.095886588096619
0.468554794788361,0.094770923256874
0.527135014533997,0.095994517207146
-0.508108913898468,0.092737250030041
-0.143629059195518,0.099547237157822
0.520740628242493,0.099818840622902
-0.274894654750824,0.099427975714207
-0.351245462894440,0.097044371068478
-0.019821533933282,0.095510840415955
-0.021012675017118,0.096961982548237
0.169870436191559,0.093779556453228
0.157607898116112,0.094201840460300
-0.802306413650513,0.094379156827927
0.492407768964767,0.089146070182323
0.015637855976820,0.099414952099323
-0.076691374182701,0.099800549447536
-0.031647663563490,0.099428698420525
-0.143899947404861,0.096660040318966
-0.456333160400391,0.093674615025520
-0.221970081329346,0.097228527069092
0.258095204830170,0.068178370594978
-0.022702993825078,0.083654522895813
0.380329102277756,0.069272957742214
-0.005780079867691,0.053851485252380
-0.759996831417084,0.099763251841068
0.085356056690216,0.099669694900513
0.322804600000381,0.099673353135586
-0.407304376363754,0.098489865660667
0.020825743675232,0.064225181937218
-0.123374417424202,0.099668860435486
-0.109185069799423,0.098883226513863
-0.583969116210938,0.099596321582794
0.421850353479385,0.098946571350098
-0.580487906932831,0.098170898854733
-0.015164322219789,0.099968761205673
0.395576030015945,0.099965140223503
0.208814054727554,0.099949218332767
-0.315837383270264,0.099796310067177
0.299877196550369,0.098820365965366
0.302308917045593,0.000920407066587
-0.005052425432950,0.015127579681575
-0.105336703360081,0.006326925009489
0.027159059420228,0.016106937080622
0.237137377262115,0.009936057031155
-0.696616888046265,0.007111796177924
-0.126552969217300,0.024196447804570
0.115283489227295,0.005643833894283
-0.398840457201004,0.018326193094254
0.168949261307716,0.002987991319969
-0.154046356678009,0.007388326339424
-0.053271435201168,0.006647180300206
-0.108819268643856,0.015834331512451
0.150564715266228,0.004801291041076
0.018327420577407,0.019387925043702
