mw,Sw
-1.607932567596436,0.083061859011650
2.032867670059204,0.350573837757111
-0.207448855042458,0.822437405586243
1.052639245986938,0.450808107852936
0.138995692133904,0.984217464923859
3.508256673812866,0.174301996827126
0.136702999472618,0.094528175890446
-1.993702530860901,0.042492222040892
0.881015956401825,0.309906452894211
-1.195985078811646,0.145121023058891
0.500935196876526,0.025428000837564
-0.361885845661163,0.077314473688602
0.059151273220778,0.065568104386330
-0.016863562166691,0.085302405059338
0.008605090901256,0.098884701728821
-0.218108952045441,0.063985534012318
-0.446477293968201,0.019956553354859
0.535676896572113,0.002239983994514
0.040568370372057,0.066757075488567
0.337633073329926,0.016347615048289
0.887847602367401,0.076677098870277
-0.385282993316650,0.093690551817417
0.040340755134821,0.095465078949928
0.461477935314178,0.097186185419559
0.128687381744385,0.099876038730145
-0.157898157835007,0.087240397930145
-0.344152092933655,0.072108559310436
-0.127478048205376,0.020719200372696
-0.579279720783234,0.093285441398621
0.349284350872040,0.068063899874687
0.330493688583374,0.096122927963734
0.055289827287197,0.051363736391068
-0.072017624974251,0.098173305392265
0.319961696863174,0.077975340187550
-0.200004771351814,0.099715709686279
0.308678865432739,0.030352128669620
-0.422299772500992,0.066105805337429
-0.192404985427856,0.061868242919445
-0.070654347538948,0.061806410551071
-0.621918141841888,0.092231668531895
-0.358595579862595,0.099754750728607
-0.193009421229362,0.098019659519196
0.102843634784222,0.099899798631668
-0.178082928061485,0.099275007843971
-0.285984247922897,0.099992826581001
0.178628236055374,0.095463506877422
-0.419602364301682,0.098778128623962
-0.220700666308403,0.095674283802509
-0.322653084993362,0.098409973084927
-0.061175119131804,0.099390476942062
-0.113885976374149,0.099802076816559
0.010084341280162,0.099045932292938
0.284282684326172,0.099944218993187
-0.442904502153397,0.099694371223450
0.147809565067291,0.099996238946915
0.224230915307999,0.097879059612751
-0.164546504616737,0.099411182105541
0.080372244119644,0.097116105258465
0.131882041692734,0.099264562129974
-0.261725902557373,0.099603854119778
-0.567420542240143,0.097470387816429
0.331781655550003,0.028221901506186
-0.106260746717453,0.096812032163143
0.208414122462273,0.057775173336267
0.149545788764954,0.099286906421185
0.457514613866806,0.014247206971049
-0.322616070508957,0.044888734817505
-0.520421385765076,0.069278478622437
0.298148840665817,0.037323389202356
0.379793763160706,0.093034178018570
0.280367553234100,0.090806476771832
-0.359782099723816,0.059281915426254
0.630880296230316,0.096357159316540
0.576549351215363,0.075168922543526
0.065393038094044,0.099789120256901
-0.075561396777630,0.035400889813900
0.245850935578346,0.032784044742584
-0.652873575687408,0.030033303424716
-0.480967164039612,0.062824785709381
-0.035084027796984,0.081250540912151
-0.313535988330841,0.096500568091869
0.005509574897587,0.071108937263489
0.145062282681465,0.098418772220612
-0.152145355939865,0.086892522871494
0.378050565719604,0.099884465336800
-0.188408434391022,0.051232337951660
0.102514952421188,0.057598978281021
-0.345771253108978,0.051518008112907
0.442803174257278,0.074924148619175
-0.200125440955162,0.091339044272900
-0.380244791507721,0.098814956843853
0.396007448434830,0.096052579581738
0.165818601846695,0.099702008068562
0.116443857550621,0.098907142877579
-0.104097671806812,0.099983826279640
-0.489394217729568,0.092190451920033
-0.690821766853333,0.097528994083405
-0.009224018082023,0.084431104362011
-0.084524028003216,0.096965692937374
-0.108404539525509,0.097700327634811
0.035199135541916,0.099542044103146
0.549215435981750,0.095202766358852
-0.126648426055908,0.099865332245827
0.051860123872757,0.098633281886578
-0.092523306608200,0.099984943866730
-0.072218649089336,0.090117081999779
0.269054770469666,0.096751935780048
-0.500404596328735,0.095022775232792
0.116483099758625,0.096486888825893
0.333745986223221,0.099222615361214
0.280648499727249,0.096032924950123
-0.159361600875854,0.088801197707653
0.092336826026440,0.099065437912941
-0.134270593523979,0.095884583890438
0.080033697187901,0.099947646260262
0.120469659566879,0.076846450567245
0.174894332885742,0.085847698152065
-0.083231166005135,0.061353765428066
-0.201266527175903,0.091484829783440
-0.262593805789948,0.093070536851883
1.057788372039795,0.095384933054447
-0.243523329496384,0.097390063107014
-0.168384641408920,0.099364541471004
-0.034421093761921,0.099101372063160
0.029079474508762,0.099975258111954
0.129690274596214,0.093556784093380
-0.071983747184277,0.094224728643894
0.042816966772079,0.066280424594879
-0.073712468147278,0.098229378461838
-0.134291306138039,0.093929782509804
-0.327692091464996,0.099185481667519
-0.094841420650482,0.094058975577354
0.390686482191086,0.099757201969624
-0.144790798425674,0.097882479429245
0.361093163490295,0.099978514015675
0.809149086475372,0.086377903819084
0.165105342864990,0.094645105302334
-0.238866105675697,0.089336879551411
0.053030055016279,0.095798924565315
0.570253014564514,0.098495021462440
-0.574035644531250,0.097202114760876
-0.438068777322769,0.098647326231003
0.052781827747822,0.099303640425205
-0.062416836619377,0.099449276924133
-0.162854164838791,0.099986739456654
-0.121969737112522,0.097606785595417
-0.338095605373383,0.093624837696552
0.294134885072708,0.064635902643204
-0.107377514243126,0.098231621086597
-0.352377802133560,0.094021067023277
0.173381954431534,0.098673895001411
0.262477368116379,0.038211118429899
0.156951799988747,0.098175033926964
-0.052863914519548,0.067388415336609
-0.161124855279922,0.099514514207840
0.574990868568420,0.019523721188307
-0.355421513319016,0.058118660002947
-0.297394126653671,0.083861716091633
-0.058216642588377,0.050856180489063
-0.722619235515594,0.096950002014637
-0.511116683483124,0.001525757252239
-0.256044685840607,0.007620925549418
0.279893010854721,0.010027805343270
-0.044840760529041,0.025179481133819
-0.016106175258756,0.008582786656916
0.326363563537598,0.002254058141261
-0.346827447414398,0.007507321890444
-0.196421712636948,0.005321008618921
-0.174402683973312,0.041814591735601
0.045170914381742,0.004744702018797
-0.146561145782471,0.015112582594156
-0.131707742810249,0.009507967159152
0.056231550872326,0.001661644782871
-0.076176494359970,0.009705717675388
0.352477550506592,0.006577597931027
