mb,Sb
0.389439,0.0999939
-0.161335,0.1
-0.14095,0.1
0.113974,0.0999938
0.648045,0.0999941
-0.622976,0.1
0.435472,0.0999973
0.421127,0.0999938
0.168497,0.0999938
-0.115067,0.0999937
0.311203,0.0999942
-0.211828,0.1
-0.162535,0.1
0.0756863,0.0999972
-0.0588984,0.1
-0.760477,0.0999999
-0.190323,0.1
0.0638276,0.0999932
-0.107093,0.1
-0.0503076,0.1
-0.181431,0.1
-0.311105,0.1
0.051655,0.0999994
0.100873,0.0999942
0.110654,0.0999997
-0.0534419,0.0999998
-0.0638886,0.1
-0.179481,0.1
-0.106131,0.1
0.116429,0.0999944
0.403847,0.0999933
-0.423527,0.1
0.324868,0.0999957
0.107702,0.0999933
0.0785997,0.1
0.235748,0.0999936
0.284841,0.0999923
-0.0159113,0.0999946
-0.359996,0.0999988
-0.0973391,0.1
-0.160952,0.0999987
-0.130898,0.1
0.0830473,0.1
-0.403762,0.1
-0.219741,0.1
-0.21487,0.1
0.319535,0.0999965
-0.0210687,0.0999999
0.464297,0.0999983
0.144877,0.0999947
0.137168,0.0999947
-0.287351,0.0999998
-0.300219,0.1
-0.0548843,0.0999958
0.486099,0.0999945
-0.398302,0.1
-0.582498,0.1
0.162733,0.0999941
-0.188623,0.1
-0.221223,0.1
-0.336023,0.1
-0.201069,0.1
0.0215421,0.0999958
0.363416,0.0999941
-0.784993,0.1
-0.162336,0.1
0.374665,0.0999945
-0.0620785,0.1
-0.212607,0.0999993
-0.536221,0.1
0.281743,0.0999948
0.396467,0.0999955
-0.736541,0.0999998
-0.00747317,0.0999942
0.435333,0.0999936
-0.14083,0.1
0.294384,0.0999975
-0.0115486,0.0999962
0.0554096,0.1
-0.348793,0.1
0.30387,0.0999948
0.0737039,0.0999941
0.136901,0.0999996
-0.501571,0.1
-0.0763326,0.1
-0.263455,0.1
0.0887729,0.0999921
0.109975,0.0999962
0.293519,0.099994
-0.184594,0.1
-0.561139,0.1
0.491786,0.0999972
0.226329,0.0999981
0.149731,0.0999969
0.400128,0.0999985
-0.259329,0.1
0.0340988,0.1
-0.118752,0.0999973
-0.0851656,0.1
0.0991259,0.0999938
0.254215,0.0999933
0.137452,0.0999933
0.217777,0.0999947
-0.279661,0.1
-0.315933,0.1
-0.129329,0.0999939
-0.236783,0.1
0.311366,0.0999936
0.22064,0.0999932
0.384775,0.0999935
-0.634392,0.1
0.658442,0.0999973
-0.0144549,0.0999948
0.261464,0.0999951
-0.0638638,0.1
-0.110087,0.1
0.164631,0.0999945
0.581246,0.0999958
0.0387919,0.0999972
-0.0947732,0.0999947
0.603697,0.0999949
0.231154,0.0999952
-0.102687,0.0999929
-0.144861,0.1
0.210938,0.0999934
0.188879,0.0999976
0.21532,0.0999952
-0.108559,0.0999935
0.140219,0.0999937
0.333868,0.0999953
-0.555822,0.1
-0.107889,0.1
0.36276,0.0999966
0.515517,0.099993
0.223409,0.0999938
0.346169,0.0999944
0.115757,0.1
0.442661,0.0999951
-0.555828,0.1
-0.0853523,0.0999999
-0.646393,0.0999993
0.54705,0.0999972
0.208751,0.0999975
0.208713,0.0999979
0.31132,0.0999948
-0.353804,0.1
-0.185333,0.0999976
0.486534,0.0999936
0.508956,0.0999918
0.193767,0.0999936
-0.211572,0.1
0.141978,0.0999929
0.716957,0.0999939
-0.0385789,0.1
0.575726,0.0999932
0.253036,0.099993
0.140856,0.099992
-0.00827287,0.0999919
-0.264511,0.1
-0.294372,0.0999999
-0.381033,0.1
-0.0334326,0.0999934
-0.281598,0.1
0.588739,0.099994
0.59967,0.0999936
0.318182,0.0999936
-0.126153,0.1
-0.0134726,0.1
0.0699636,0.0999948
0.351083,0.099995
-0.641122,0.1
-0.153598,0.1
0.251983,0.0999884
0.0682178,0.0999947
0.101948,0.1
-0.248313,0.1
0.281255,0.0999903
-0.230387,0.0999925
-0.42539,0.0999973
0.707417,0.0999937
-0.0376221,0.099992
-0.297144,0.1
0.132154,0.0999921
-0.539121,0.1
-0.199521,0.1
0.20388,0.0999939
-0.434082,0.1
0.177126,0.0999937
0.235704,0.0999971
0.095295,0.1
0.0230245,0.099997
-0.30335,0.0999998
0.0663955,0.0999976
0.0498687,0.0999998
-0.118567,0.1
-0.325928,0.1
-0.425964,0.0999994
0.567942,0.0999945
-0.241564,0.0999993
0.184769,0.0999957
0.185871,0.0999935
0.511304,0.0999948
-0.37637,0.0999991
-0.273882,0.0999999
-0.757446,0.0999991
0.0844775,0.0999999
0.21733,0.0999938
-0.395476,0.0999999
-0.28318,0.099998
0.407072,0.0999967
0.0875242,0.0999947
-0.155594,0.0999994
0.102112,0.0999937
0.243283,0.0999949
-0.123927,0.0999996
-0.065953,0.0999955
0.427559,0.0999974
0.314057,0.0999954
-0.323061,0.0999992
0.231129,0.099995
0.545417,0.0999958
-0.31577,0.1
-0.0972847,0.0999951
0.251282,0.0999973
-0.485198,0.0999987
0.712996,0.0999953
-0.283653,0.1
-0.245352,0.0999995
-0.127049,0.0999975
0.087417,0.0999942
0.285545,0.0999954
-0.141269,0.0999996
0.289823,0.099992
-0.266299,0.1
-0.0289954,0.0999963
0.104963,0.0999953
0.138937,0.099989
-0.208608,0.0999994
-0.328046,0.0999999
0.364297,0.0999978
-0.401541,0.0999996
-0.0541266,0.0999988
-0.0232876,0.0999997
-0.326134,0.0999993
-0.619428,0.0999998
-0.383416,0.1
-0.199338,0.0999996
0.633015,0.0999939
0.261887,0.0999943
-0.161599,0.0999997
-0.102661,0.0999936
-0.505843,0.1
0.0137916,0.0999927
-0.276804,0.0999991
0.00692791,0.0999952
-0.147638,0.0999998
0.511237,0.0999939
0.0971826,0.0999928
-0.307453,0.0999969
0.328743,0.0999935
-0.54977,0.0999993
-0.340831,0.0999995
-0.233756,0.1
0.38643,0.0999932
-0.167138,0.0999979
-0.420561,0.0999991
-0.0859194,0.0999998
0.0853814,0.0999997
0.00858062,0.0999941
-0.107374,0.1
0.844922,0.0999942
-0.229922,0.0999997
-0.306314,0.0999995
0.529506,0.0999951
-0.228719,0.0999995
-0.743624,0.1
-0.246661,0.0999994
-0.374556,0.1
-0.504225,0.0999991
0.0589016,0.0999999
0.333881,0.0999939
0.18961,0.0999933
0.433233,0.0999931
0.451029,0.0999958
-0.158131,0.1
0.126255,0.099993
0.0070642,0.0999944
0.0222124,0.0999951
0.233487,0.0999927
-0.387354,0.0999997
-0.492192,0.0999975
0.298573,0.0999966
-0.153689,0.1
-0.267583,0.0999997
0.211178,0.0999948
-0.670119,0.0999997
0.469581,0.0999949
-0.360706,0.0999992
0.318194,0.0999958
-0.103296,0.1
0.00689414,0.0999975
-0.0490753,0.1
-0.0835516,0.0999994
-0.369536,0.0999992
0.0344191,0.0999924
0.0191655,0.0999946
0.183218,0.0999947
0.753317,0.0999959
0.36789,0.0999947
-0.260264,0.0999993
-0.445395,0.1
0.273406,0.0999948
-0.260306,0.099997
-0.421562,0.0999996
-0.238925,0.0999955
-0.269211,0.1
-0.201737,0.1
0.481811,0.0999947
0.215047,0.0999935
-0.072344,0.0999997
-0.340517,0.0999983
0.324104,0.099997
-0.0261577,0.0999999
0.184387,0.099995
-0.241711,0.1
0.587462,0.0999929
-0.0034321,0.0999995
-0.075063,0.0999943
0.332436,0.0999971
-0.181986,0.1
-0.518263,0.0999995
-0.196135,0.1
-0.044877,0.0999999
-0.135523,0.0999951
0.421279,0.0999942
-0.416872,0.0999997
-0.0200105,0.0999981
-0.389464,0.0999991
0.0912542,0.0999931
-0.531071,0.0999995
0.0307572,0.0999944
-0.0561397,0.0999977
0.103634,0.0999983
0.205184,0.0999922
0.0727666,0.0999902
-0.676161,0.0999993
-0.111967,0.0999982
0.0719351,0.0999933
-0.471483,0.1
-0.140186,0.0999995
-0.141706,0.0999999
0.253346,0.0999928
-0.419262,0.0999996
-0.0202863,0.0999931
0.0918471,0.0999925
-0.290929,0.0999999
0.491381,0.0999954
0.306118,0.0999935
-0.731213,0.0999996
0.712797,0.0999943
-0.587928,0.0999996
0.497662,0.0999945
0.271984,0.0999921
0.114655,0.0999973
0.14389,0.0999949
0.135212,0.0999938
0.198698,0.0999922
0.287818,0.0999954
-0.0951303,0.0999931
-0.305243,0.0999994
0.178099,0.0999977
-0.0527266,0.0999983
0.679809,0.0999839
-0.354297,0.0999991
-0.0269298,0.0999853
0.571179,0.0999938
0.428603,0.0999912
0.516847,0.0999949
-0.109354,0.0999999
-0.494555,0.1
-0.0968186,0.0999928
-0.0174368,0.1
0.00945619,0.0999998
-0.383904,0.1
0.136554,0.0999998
0.326965,0.0999975
-0.114549,0.0999996
-0.0675638,0.1
-0.0168839,0.0999996
0.548241,0.0999979
0.244954,0.0999973
0.158803,0.0999999
0.148909,0.0999951
0.151066,0.099994
-0.17168,0.1
-0.313214,0.1
-0.502526,0.1
-0.334412,0.1
0.141741,0.0999971
-0.527592,0.1
-0.220003,0.1
-0.469847,0.1
-0.528774,0.1
-0.353325,0.1
-0.41203,0.1
-0.126933,0.1
-0.44379,0.1
-0.157955,0.0999997
-0.105663,0.1
-0.462272,0.1
-0.0909182,0.099993
-0.00907315,0.1
-0.0331214,0.1
0.254073,0.0999939
-0.383015,0.1
0.255809,0.099994
0.32941,0.0999944
0.0919099,0.0999947
-0.424932,0.1
0.514168,0.0999974
-0.091125,0.1
0.281568,0.099993
0.0168676,0.0999937
0.0183938,0.1
0.693188,0.0999896
0.100725,0.0999942
-0.709625,0.1
0.117545,0.0999943
-0.148741,0.0999952
0.388078,0.0999945
-0.196547,0.1
-0.254215,0.1
-0.588471,0.0999919
-0.322571,0.1
0.19866,0.0999964
0.317967,0.0999965
-0.538006,0.1
0.267813,0.0999963
0.0138057,0.0999976
0.19457,0.0999963
-0.261087,0.1
0.483762,0.0999945
0.448287,0.0999949
0.0684314,0.099994
-0.115052,0.0999982
0.110051,0.0999946
-0.189398,0.0999989
0.0610059,0.0999965
-0.175521,0.1
-0.127673,0.1
0.26058,0.0999911
0.196118,0.0999944
0.267395,0.0999938
-0.454049,0.1
-0.0484767,0.0999969
0.0668969,0.0999938
-0.440508,0.1
-0.116629,0.1
0.147415,0.0999926
-0.0586112,0.0999943
-0.429,0.1
0.0309994,0.0999958
-0.0468607,0.1
0.17285,0.0999958
-0.0053308,0.1
-0.105974,0.1
0.299634,0.0999939
0.0805494,0.0999959
-0.57489,0.0999977
0.040753,0.099994
-0.349694,0.1
0.724059,0.0999939
0.0979881,0.0999957
-0.101513,0.0999943
-0.311789,0.1
0.154418,0.0999964
-0.283905,0.1
0.212146,0.0999952
0.0564,0.0999874
0.580781,0.0999941
0.48795,0.0999934
-0.158053,0.1
0.171142,0.0999965
0.240013,0.0999972
-0.150626,0.1
-0.242009,0.1
0.000347351,0.0999971
-0.204907,0.1
-0.392622,0.1
0.271171,0.0999987
-0.146476,0.1
0.139647,0.0999941
-0.24888,0.0999987
0.0301467,0.099993
-0.574816,0.0999994
-0.123638,0.0999934
0.30837,0.0999971
-0.575114,0.1
0.336957,0.099993
-0.177788,0.0999937
0.266496,0.0999938
-0.197234,0.1
0.32089,0.0999957
0.265401,0.0999971
0.26389,0.0999931
-0.356611,0.1
0.54481,0.0999939
0.199479,0.0999944
0.00242846,0.0999852
0.167129,0.0999942
0.191248,0.0999945
0.570767,0.0999938
0.123087,0.0999954
0.309731,0.0999921
0.0569129,0.0999935
-0.522924,0.1
0.297493,0.0999936
-0.057693,0.0999969
-0.424693,0.1
-0.346599,0.1
-0.0897714,0.1
-0.320874,0.1
-0.0473857,0.0999937
-0.0907842,0.1
-0.315682,0.1
0.054017,0.1
0.397662,0.0999945
-0.0377283,0.1
0.259047,0.0999941
0.040955,0.0999925
0.189952,0.0999943
0.229884,0.0999976
0.274769,0.099996
0.150434,0.0999967
-0.087859,0.1
0.223318,0.0999964
0.187878,0.0999926
0.237556,0.0999954
0.288229,0.0999987
0.0771801,0.0999922
-0.00603512,0.09999
0.0942959,0.1
-0.360269,0.1
-0.187053,0.0999891
0.0362822,0.0999979
0.288861,0.0999945
0.360279,0.0999927
-0.772454,0.0999998
0.237256,0.0999934
-0.11373,0.1
0.281254,0.099993
0.0496363,0.1
0.0331354,0.0999966
0.21194,0.0999947
0.209867,0.099992
0.242455,0.0999933
0.205623,0.0999938
0.0528967,0.0999935
0.694704,0.0999922
-0.0971941,0.0999971
-0.315227,0.1
-0.248893,0.1
0.269085,0.0999863
-0.0281635,0.1
-0.071386,0.0999872
0.445783,0.0999941
-0.114994,0.1
-0.0644699,0.0999992
-0.224122,0.099996
-0.640935,0.099999
0.138816,0.0999937
0.0734867,0.1
0.246296,0.0999938
-0.0135136,0.1
-0.24124,0.1
-0.0662694,0.1
-0.0309739,0.0999993
0.145729,0.099993
-0.183588,0.1
0.0108928,0.1
0.320717,0.0999981
-0.0892173,0.0999998
0.0144629,0.1
0.0948543,0.0999981
0.283609,0.0999965
-0.281047,0.0999975
0.139068,0.0999976
0.242902,0.0999986
-0.258925,0.1
0.30323,0.0999954
-0.107074,0.0999943
-0.0784497,0.0999942
0.542024,0.0999931
0.0124338,0.0999961
-0.378296,0.1
-0.634798,0.1
0.289938,0.0999943
-0.0373951,0.1
-0.253312,0.1
-0.195228,0.1
-0.413628,0.1
0.0390252,0.0999997
0.0852166,0.1
0.318666,0.0999947
-0.280266,0.0999944
-0.000364444,0.1
-0.355754,0.1
-0.351855,0.1
0.00742655,0.0999983
0.0985209,0.0999943
-0.334888,0.0999982
-0.191071,0.1
0.511523,0.0999938
-0.384714,0.1
-0.598897,0.1
-0.296022,0.1
0.178153,0.0999942
0.386406,0.0999953
0.729984,0.0999948
-0.186426,0.1
-0.238313,0.1
0.0868215,0.0999955
0.286439,0.0999921
-0.462241,0.0999994
0.24887,0.099991
0.0837454,0.0999954
-0.307309,0.0999956
0.414785,0.0999937
0.133907,0.0999976
0.273312,0.0999971
0.242425,0.0999984
-0.0709465,0.099998
-0.107009,0.1
-0.021637,0.1
-0.431723,0.1
-0.649391,0.1
0.448543,0.0999997
0.127158,0.0999953
-0.677718,0.1
0.0901243,0.0999935
-0.403376,0.1
0.30421,0.099994
-0.0419211,0.0999944
0.13331,0.0999952
-0.0510314,0.0999923
-0.177331,0.1
-0.599617,0.0999973
-0.0503979,0.1
-0.223283,0.1
-0.145515,0.0999934
0.415048,0.0999963
-0.449249,0.0999994
0.702333,0.0999888
-0.383185,0.1
0.184982,0.0999913
-0.36551,0.1
0.0271497,0.0999901
-0.60418,0.1
-0.198685,0.1
-0.0255257,0.099993
-0.338682,0.1
0.0557134,0.1
-0.121007,0.1
-0.214984,0.0999998
-0.0811257,0.1
0.142054,0.099994
-0.0145322,0.0999935
0.318962,0.0999929
-0.299801,0.1
-0.294248,0.1
-0.260931,0.1
-0.0751991,0.1
0.915293,0.0999946
0.152357,0.0999953
-0.353595,0.1
-0.3315,0.1
0.33082,0.0999902
-0.214905,0.1
-0.00256973,0.0999953
-0.208403,0.1
0.153322,0.099996
0.141029,0.0999952
-0.0184956,0.0999895
-0.0875519,0.1
0.45133,0.0999948
0.0684913,0.1
0.0797763,0.0999947
0.224734,0.0999949
-0.131552,0.1
0.114826,0.0999944
-0.358557,0.1
-0.645553,0.0999998
-0.650047,0.1
0.0302023,0.0999952
0.0330951,0.0999951
0.0574557,0.1
0.0443865,0.0999971
0.197647,0.0999935
0.197656,0.0999941
-0.19936,0.1
0.189435,0.0999949
-0.252748,0.1
-0.00283572,0.1
0.461422,0.0999947
-0.829243,0.1
0.18253,0.0999954
0.169473,0.0999976
-0.0801428,0.1
0.772458,0.0999945
0.0129654,0.1
-0.0748147,0.1
0.110784,0.0999948
-0.149497,0.0999927
-0.410845,0.1
0.204818,0.0999944
0.607513,0.0999954
-0.561085,0.0999986
0.174836,0.0999958
-0.239869,0.0999991
0.0219029,0.1
0.212508,0.0999967
0.206534,0.0999944
-0.25459,0.1
0.224994,0.099996
-0.0434557,0.1
-0.276628,0.1
0.4035,0.099995
0.476806,0.0999963
-0.380562,0.0999965
0.335263,0.099997
-0.149903,0.1
0.0457899,0.0999975
-0.133478,0.0999969
0.232584,0.099997
0.0673477,0.0999991
-0.411933,0.0999993
-0.724737,0.0999959
-0.278244,0.1
0.304074,0.0999912
0.47612,0.0999946
0.554934,0.0999868
-0.114536,0.0999992
0.11505,0.099992
0.221419,0.0999933
0.0613656,0.0999926
-0.637825,0.1
-0.0276399,0.0999919
0.0435556,0.0999921
0.284942,0.0999964
0.226633,0.0999916
-0.1251,0.0999965
0.172751,0.0999918
-0.339135,0.0999994
-0.269225,0.0999999
0.161469,0.0999938
-0.173147,0.1
-0.0731451,0.0999923
0.0137682,0.0999941
0.155279,0.0999948
-0.454446,0.1
0.135343,0.0999934
-0.11533,0.1
0.411258,0.0999964
0.144742,0.0999923
-0.054484,0.0999939
0.288461,0.0999945
0.374727,0.0999949
0.156623,0.0999933
-0.0392817,0.1
0.407389,0.0999951
0.544581,0.099994
0.3004,0.099995
-0.167459,0.1
0.110156,0.0999932
-0.487736,0.1
-0.322348,0.1
-0.0734115,0.1
0.03659,0.0999975
0.2459,0.0999976
-0.0940704,0.1
0.249136,0.0999973
0.258812,0.099998
0.10008,0.1
-0.0101298,0.0999983
-0.436431,0.1
-0.0963411,0.1
0.0165254,0.1
-0.496676,0.1
0.0302628,0.1
0.343084,0.1
0.093301,0.1
-0.705938,0.1
0.225299,0.1
-0.384678,0.1
0.16513,0.1
-0.202624,0.1
-0.675207,0.1
-0.304978,0.1
0.320049,0.1
0.124577,0.1
0.236853,0.1
-0.246056,0.1
0.204065,0.1
0.0594943,0.1
0.56888,0.1
0.0125931,0.1
-0.787292,0.1
-0.294145,0.1
0.0103454,0.1
0.158993,0.1
-0.0027962,0.1
-0.423647,0.1
-0.176897,0.1
0.265662,0.1
0.30346,0.1
-0.430564,0.1
-0.420291,0.1
0.120242,0.1
-0.0123144,0.1
0.335616,0.1
-0.701277,0.1
-0.135329,0.1
0.260219,0.1
0.206207,0.0999999
0.461586,0.1
0.166969,0.1
-0.173837,0.1
-0.769513,0.1
-0.317643,0.1
0.0106661,0.1
0.568296,0.1
-0.258861,0.1
-0.351858,0.1
-0.0564633,0.1
0.0513624,0.0999979
0.473408,0.1
0.0939235,0.1
-0.171598,0.1
0.0844168,0.1
-0.00635306,0.1
0.0192398,0.1
0.570876,0.1
-0.251105,0.1
-0.0718649,0.1
-0.515828,0.0999974
0.165877,0.1
-0.107543,0.1
0.194116,0.1
-0.0524765,0.0999971
0.246026,0.1
0.121139,0.1
0.000288954,0.1
0.200614,0.1
-0.347015,0.1
0.338361,0.1
0.226608,0.1
-0.190178,0.1
0.183318,0.1
0.17033,0.1
0.0473001,0.1
-0.503628,0.1
0.196783,0.1
0.0398885,0.1
0.710345,0.1
0.0413991,0.1
-0.230873,0.1
-0.261579,0.1
0.145117,0.1
0.146671,0.1
-0.295996,0.1
-0.0479754,0.1
-0.0649643,0.1
-0.2654,0.1
-0.0502982,0.1
0.0649638,0.1
0.0788905,0.1
-0.146351,0.1
0.0232748,0.1
0.0548166,0.1
-0.715028,0.1
-0.25378,0.1
-0.336854,0.1
0.0319118,0.1
-0.0519602,0.1
-0.283891,0.1
-0.636983,0.1
-0.206268,0.1
-0.208493,0.1
-0.0014675,0.1
-0.470348,0.1
-0.353077,0.1
0.200411,0.1
0.118386,0.1
-0.0388006,0.1
-0.224507,0.1
-0.0104704,0.1
0.00765642,0.1
0.347278,0.1
-0.121719,0.1
-0.0017308,0.1
-0.0332613,0.1
0.153341,0.1
-0.0444727,0.1
-0.416789,0.1
0.2044,0.0999936
-0.110194,0.1
-0.021473,0.1
-0.351425,0.1
-0.302215,0.1
-0.34331,0.1
0.40518,0.1
0.654975,0.1
-0.280528,0.1
-0.35744,0.1
-0.00977875,0.1
0.414856,0.1
0.269061,0.1
0.138073,0.1
-0.0381092,0.1
-0.205731,0.1
0.231277,0.1
0.0941318,0.1
0.0557713,0.1
-0.0219174,0.1
-0.145266,0.0999996
-0.956704,0.0999987
-0.282556,0.1
0.293143,0.1
0.189308,0.1
0.0593257,0.0999994
0.0715976,0.1
-0.10725,0.1
-0.539277,0.1
0.156841,0.1
-0.0983569,0.1
-0.27686,0.1
-0.205814,0.1
0.297675,0.1
0.00984872,0.1
-0.386713,0.1
-0.24407,0.1
-0.120234,0.1
-0.219904,0.0999985
0.427518,0.1
-0.265103,0.1
-0.140437,0.1
-0.468918,0.1
-0.0313082,0.1
0.00405887,0.1
0.751199,0.1
-0.399153,0.1
0.195024,0.1
1.05361,0.1
0.149146,0.1
-0.0207398,0.1
-0.509537,0.1
-0.496909,0.1
-0.534006,0.1
0.271616,0.1
0.42923,0.1
0.536662,0.1
-0.0857421,0.1
0.640353,0.1
0.703227,0.1
-0.295365,0.1
-0.0350553,0.1
0.205029,0.1
-0.137024,0.1
-0.285477,0.1
-0.205451,0.1
-0.255369,0.1
-0.598119,0.1
0.268064,0.1
0.362039,0.1
0.137659,0.1
-0.668838,0.1
-0.159616,0.1
-0.0537233,0.1
0.30478,0.1
0.0771521,0.1
-0.125921,0.0999989
0.168379,0.0999999
0.548345,0.0999984
-0.196615,0.0999998
0.0901122,0.0999964
0.103111,0.0999999
0.162065,0.0999993
-0.0582623,0.0999997
-0.795072,0.0999983
0.396351,0.0999997
0.189685,0.0999989
-0.38035,0.0999999
0.810292,0.0999978
-0.274654,0.0999998
-0.248632,0.0999992
0.231146,0.0999997
-0.0848196,0.0999987
0.190153,0.0999996
-0.330422,0.0999978
0.73371,0.0999997
0.123823,0.0999986
-0.0262046,0.0999998
-0.0307765,0.0999984
-0.288715,0.0999994
0.282134,0.0999982
-0.147287,0.0999999
0.674628,0.0999994
-0.289311,0.0999998
0.109821,0.0999972
0.25242,0.0999988
0.406711,0.0999945
-0.035605,0.0999987
-0.0208329,0.0999903
-0.0573649,0.0999989
-0.226647,0.0999958
-0.658921,0.0999996
-0.0546163,0.0999896
-0.0631897,0.0999985
0.428229,0.0999897
-0.328537,0.0999998
0.489527,0.0999889
-0.519432,0.0999995
-0.204748,0.0999996
0.120609,0.0999998
0.0326813,0.0999993
0.339759,0.0999998
-0.445706,0.0999993
0.402822,0.0999998
-0.455474,0.0999991
0.0886624,0.0999998
-0.373045,0.0999997
-0.276103,0.0999999
0.159923,0.099999
0.0864147,0.0999998
0.109328,0.0999992
0.0186466,0.0999999
-0.580315,0.0999981
0.0458896,0.0999982
0.46415,0.099994
-0.00191713,0.0999992
-0.42539,0.0999932
0.33783,0.0999989
0.0302664,0.0999946
-0.382082,0.0999981
0.156646,0.099991
0.0142091,0.0999991
-0.0462238,0.0999909
-0.267313,0.099999
-0.237262,0.0999942
-0.185847,0.0999991
-0.484458,0.0999997
0.181904,0.0999996
-0.526041,0.099999
0.0404182,0.0999999
-0.182996,0.0999994
-0.221933,0.0999997
0.0177901,0.0999988
0.074275,0.0999997
-0.354263,0.0999989
0.19124,0.0999998
0.0393772,0.0999994
0.0366842,0.0999998
0.240626,0.0999987
0.381267,0.0999999
-0.288717,0.0999988
-0.62067,0.0999974
0.0710951,0.0999962
-0.133392,0.0999994
0.0485503,0.0999912
0.600048,0.0999983
-0.421117,0.0999979
-0.205779,0.0999994
0.346373,0.0999928
-0.360882,0.0999983
0.186749,0.0999968
-0.503756,0.0999985
-0.222761,0.0999972
0.607638,0.0999992
0.727733,0.0999997
-0.242978,0.0999997
-0.159002,0.0999985
-0.402693,0.0999997
-0.0975658,0.0999983
0.337748,0.0999995
0.247928,0.0999989
-0.805576,0.0999997
-0.219819,0.099999
-0.374669,0.0999996
0.0312516,0.0999995
-0.350419,0.0999998
0.178782,0.0999989
0.0528863,0.0999998
0.10345,0.0999987
-0.405256,0.0999997
-0.0742417,0.0999934
0.355122,0.0999994
0.0496435,0.0999929
0.100229,0.0999985
0.445861,0.0999868
0.415378,0.0999994
-0.245438,0.0999923
-0.17362,0.0999987
-0.432346,0.0999915
-0.270161,0.0999983
0.219533,0.0999969
0.178304,0.0999997
0.211377,0.0999996
-0.358019,0.0999999
-0.224058,0.0999989
0.29463,0.0999995
0.109742,0.099999
-0.181004,0.0999998
0.717637,0.0999993
-0.187002,0.0999997
-0.513517,0.0999994
0.128471,0.0999997
0.180667,0.0999981
0.423415,0.0999999
-0.434909,0.0999972
0.0656634,0.0999998
0.0149635,0.0999984
0.00542764,0.0999992
-0.185117,0.0999893
0.141226,0.0999988
-0.162459,0.0999847
-0.228774,0.0999992
0.44436,0.0999934
0.345468,0.0999983
0.573936,0.0999908
0.190482,0.0999986
-0.253325,0.0999972
0.130763,0.0999992
-0.152963,0.0999975
0.278973,0.0999994
-0.305527,0.0999997
0.533653,0.0999998
0.547762,0.0999988
-0.142076,0.0999997
0.347192,0.0999993
0.223924,0.0999997
-0.232671,0.0999993
-0.543632,0.0999997
-0.127854,0.0999987
0.195257,0.0999998
-0.420263,0.0999986
-0.0668665,0.0999998
-0.295245,0.0999985
0.202237,0.0999997
-0.450963,0.0999977
-0.614027,0.0999983
-0.226489,0.0999977
0.00650674,0.0999982
-0.0989013,0.0999951
-0.224546,0.0999995
-0.168651,0.0999907
-0.122991,0.0999981
-0.0679115,0.099994
-0.385046,0.0999988
0.332857,0.0999939
-0.280887,0.0999995
0.0408815,0.0999972
0.650768,0.0999993
0.158624,0.0999999
0.628287,0.0999999
1.01022,0.0999995
0.378954,0.0999998
0.186677,0.0999996
0.129158,0.1
0.293656,0.0999994
-0.115394,0.0999998
-0.51856,0.0999994
-0.900751,0.0999999
0.141719,0.0999991
0.200236,0.0999999
-0.178791,0.0999996
0.338176,0.0999998
-0.0311014,0.0999996
0.216327,0.0999974
0.51961,0.0999984
0.438507,0.0999985
-0.237828,0.0999995
-0.165035,0.0999996
0.360011,0.0999994
0.126544,0.0999991
-0.302316,0.099999
-0.248545,0.0999987
0.113105,0.0999996
-0.0209906,0.0999999
0.0840231,0.0999986
0.157651,0.0999994
-0.706177,0.0999991
0.390091,0.0999993
-0.541682,0.0999979
0.513645,0.0999992
-0.056223,0.0999988
0.123664,0.0999997
-0.179929,0.0999984
0.192807,0.0999993
-0.176397,0.0999979
0.323857,0.0999994
0.0559551,0.099999
0.106252,0.0999992
0.083944,0.0999978
-0.182876,0.0999999
-0.446153,0.099999
-0.0207147,0.0999974
0.396496,0.0999958
0.201184,0.0999975
-0.00274653,0.0999977
0.0125172,0.0999965
0.412736,0.0999974
-0.149996,0.0999969
0.432048,0.0999933
-0.286635,0.0999986
-0.231858,0.0999964
0.069797,0.0999993
-0.285139,0.0999966
-0.429789,0.0999995
0.412852,0.0999994
0.38924,0.0999994
-0.163527,0.0999991
-0.0572962,0.0999998
0.252076,0.0999992
0.191786,0.0999996
-0.105291,0.0999985
-0.0664095,0.0999992
0.707313,0.0999992
0.323709,0.0999997
0.352163,0.0999986
0.0631383,0.0999999
-0.0885276,0.0999994
-0.0693822,0.0999998
0.070485,0.0999995
0.54588,0.0999991
0.105959,0.0999986
0.645905,0.0999997
-0.246545,0.0999979
0.0381125,0.0999992
0.140496,0.0999981
0.114226,0.0999984
0.487314,0.0999915
-0.0251626,0.0999995
0.243643,0.0999967
-0.321974,0.0999982
0.458026,0.0999957
-0.126666,0.0999994
-0.346128,0.0999993
0.224996,0.0999993
0.328155,0.099999
-0.226928,0.0999998
-0.247585,0.0999996
-0.093245,0.0999997
0.457398,0.0999989
-0.00192723,0.0999994
-0.636792,0.0999986
0.357055,0.0999997
0.194082,0.0999979
0.012074,0.0999997
-0.803458,0.0999992
-0.0569324,0.0999998
-0.347748,0.0999987
-0.352207,0.0999954
0.114744,0.0999985
0.0686045,0.0999988
-0.0846338,0.0999974
0.250467,0.0999978
0.323728,0.099998
0.0997886,0.0999978
-0.0671605,0.0999954
-0.472617,0.0999967
-0.301564,0.0999975
0.490545,0.0999994
0.335176,0.0999969
-0.0805381,0.0999994
0.591231,0.0999997
0.0150522,0.0999997
-0.132705,0.0999976
0.116397,0.0999996
-0.294696,0.0999982
-0.0851051,0.0999997
0.445169,0.0999975
0.351726,0.0999994
-0.0844054,0.0999984
-0.0273016,0.0999996
-0.000450493,0.0999992
0.164581,0.0999996
-0.113836,0.099999
-0.106214,0.0999998
-0.217298,0.0999987
0.189964,0.0999987
-0.0186609,0.0999991
0.0682554,0.0999972
-0.201695,0.0999969
-0.0604759,0.0999973
0.380347,0.0999906
-0.307326,0.099998
0.0228141,0.0999911
0.795398,0.0999985
0.50148,0.1
0.569234,0.0999989
0.499532,0.0999979
-0.0953035,0.0999992
0.327502,0.0999997
-0.0544595,0.0999996
0.360882,0.0999986
-0.229417,0.0999992
-0.288986,0.0999972
-0.552716,0.0999996
-0.0167612,0.0999964
0.0424099,0.0999998
-0.0549675,0.0999996
0.302017,0.0999997
-0.343277,0.0999967
-0.622505,0.0999996
0.49312,0.0999993
-0.275617,0.0999999
0.29846,0.0999991
0.118867,0.0999988
0.153903,0.0999969
0.0863939,0.0999965
-0.322377,0.0999974
-0.338461,0.0999983
0.162306,0.0999979
0.20618,0.0999995
-0.120025,0.0999935
-0.389223,0.0999992
-0.116128,0.0999967
0.0352293,0.0999994
0.0311743,0.0999978
0.024373,0.0999997
-0.451677,0.0999999
0.260378,0.1
0.635028,0.0999986
0.0693061,0.0999993
-0.357665,0.099997
0.098654,0.0999999
-0.609549,0.0999991
-0.0520509,0.0999991
-0.286528,0.0999993
-0.227757,0.0999994
0.267443,0.0999985
-0.352832,0.0999996
-0.509124,0.0999991
0.326236,0.0999997
-0.175207,0.0999995
-0.207841,0.0999986
0.51492,0.0999961
-0.739614,0.099997
0.491757,0.0999969
-0.143944,0.0999998
0.0530464,0.0999978
0.325266,0.0999984
0.197064,0.0999982
-0.0284757,0.0999961
-0.233762,0.0999978
-0.084211,0.0999989
0.768552,0.0999959
0.323989,0.0999986
-0.0336047,0.0999997
0.893535,0.0999999
-0.116812,0.0999989
-0.593784,0.0999999
0.270609,0.0999994
0.331556,0.0999999
0.653223,0.0999997
0.213342,0.0999993
-0.289858,0.0999987
0.159199,0.0999996
-0.497804,0.0999972
0.0337278,0.1
-0.153812,0.0999988
0.299444,0.0999998
0.112686,0.0999993
-0.267126,0.0999997
0.37819,0.0999997
0.46682,0.0999998
-0.148329,0.0999975
-0.122604,0.0999997
-0.414725,0.0999961
-0.314191,0.0999994
-0.349299,0.0999995
0.23022,0.0999991
0.00951136,0.0999967
-0.406696,0.0999998
-0.0903456,0.0999991
-0.159212,0.1
-0.0354196,0.0999997
-0.078044,0.0999994
-0.168742,0.0999972
0.0580384,0.0999994
0.435431,0.0999942
0.364359,0.0999999
0.42061,0.0999982
0.143025,0.0999997
0.321344,0.0999964
-0.239172,0.0999994
0.542981,0.0999963
0.223186,0.0999997
-0.150665,0.0999945
-0.15119,0.0999998
-0.631863,0.0999981
0.170217,0.0999979
-0.082582,0.0999942
0.11034,0.0999966
0.0820762,0.0999918
-0.076936,0.0999983
0.249746,0.0999925
-0.221585,0.099999
-0.0549909,0.0999901
-0.341297,0.1
-0.48929,0.0999964
-0.154428,0.099999
-0.291092,0.0999901
0.268742,0.099999
-0.297008,0.0999996
-0.427798,0.0999998
-0.0769435,0.0999963
0.250782,0.0999994
0.353455,0.0999981
0.406587,0.0999998
-0.282288,0.099998
-0.269577,0.0999993
-0.585753,0.0999942
0.216145,0.0999997
0.437153,0.0999981
0.156322,0.0999998
-0.101372,0.0999992
-0.189369,0.1
0.00320932,0.0999983
0.228826,0.1
0.224507,0.0999908
0.349709,0.0999997
-0.302599,0.0999975
0.29157,0.0999992
-0.190005,0.0999959
0.0931376,0.1
0.468665,0.0999936
0.0357818,0.0999983
-0.271271,0.0999891
0.0700482,0.0999987
-0.0137864,0.1
0.0896205,0.0999994
0.521552,0.0999978
-0.0506774,0.0999996
0.344357,0.0999982
-0.373106,0.0999999
0.268414,0.0999984
-0.432349,0.0999999
-0.373953,0.099996
-0.148566,0.0999997
0.639641,0.0999968
0.0273488,0.1
0.0237849,0.0999976
-0.114209,0.1
0.174353,0.0999981
0.0120843,0.0999996
-0.126096,0.0999976
-0.135781,0.0999982
-0.19854,0.0999954
0.765756,0.1
-0.360825,0.0999978
0.0108273,0.0999996
-0.0130327,0.0999901
0.00849317,0.099997
-0.111017,0.0999964
-0.367673,0.0999984
-0.304128,0.0999919
0.604842,0.0999993
0.116128,0.099994
0.524022,0.0999993
-0.0135316,0.0999994
0.383252,0.0999997
-0.0614535,0.0999952
-0.191116,0.0999998
-0.152162,0.0999988
0.195574,0.0999999
0.21033,0.0999967
-0.00427773,0.0999993
-0.205823,0.0999991
-0.228494,0.0999994
0.401596,0.0999983
-0.475225,0.0999999
0.110192,0.0999966
0.213974,0.0999998
0.575273,0.0999975
0.990255,0.0999987
0.0869243,0.1
-0.561606,0.099998
0.0838106,0.0999962
0.147454,0.0999983
-0.209906,0.0999892
-0.420906,0.1
-0.121764,0.0999973
0.212883,0.0999962
0.210684,0.0999959
-0.472863,0.0999988
0.356129,0.0999976
-0.659912,0.1
0.0049491,0.0999984
-0.299667,0.0999996
0.0209704,0.0999983
-0.238752,0.0999992
-0.289394,0.0999974
-0.0984004,0.0999996
0.109108,0.0999967
-0.306414,0.1
0.269468,0.0999975
0.309501,0.0999997
0.237996,0.0999962
0.025313,0.0999996
0.694796,0.0999984
-0.499222,0.0999998
-0.32208,0.0999984
-0.221527,0.0999983
-0.0135083,0.1
-0.280472,0.1
0.37258,0.0999971
0.107857,0.0999973
-0.213238,0.0999986
0.259726,0.099999
-0.293554,0.0999969
-0.325473,0.0999981
-0.0174519,0.099993
-0.08054,0.1
-0.00779688,0.0999971
0.504173,0.0999997
0.236289,0.0999998
0.444855,0.0999999
0.0273211,0.0999974
0.138994,0.0999997
-0.138726,0.0999971
-0.330782,0.0999998
-0.268686,0.0999984
0.223186,0.0999996
-0.288789,0.099998
0.0960659,0.0999997
-0.731049,0.0999993
0.404957,0.0999999
-0.0397734,0.0999954
0.23358,0.1
0.225095,0.0999993
-0.108084,0.1
-0.387969,0.0999951
-0.177905,0.099998
-0.00362487,0.099996
0.522595,0.0999992
0.190387,0.099995
0.27356,0.099999
-0.0515994,0.0999948
-0.239284,0.0999958
0.18942,0.0999976
-0.381596,0.0999996
-0.0093707,0.0999979
0.227799,0.099999
-0.112666,0.0999995
-0.190623,0.0999999
-0.136382,0.0999987
0.252574,0.0999999
0.310667,0.0999987
0.402445,0.0999999
-0.0296442,0.0999987
-0.193662,0.0999999
0.20476,0.0999981
-0.685285,0.0999999
-0.158342,0.0999998
-0.666701,0.1
-0.812958,0.099999
-0.312059,0.0999998
-0.0483834,0.0138789
0.0635748,0.0138324
-0.106998,0.0138706
-0.00177264,0.0138608
-0.14496,0.0138872
0.188538,0.0138262
0.11015,0.0138193
0.0549932,0.0138232
-0.18392,0.0138889
-0.000737175,0.0126154
0.139185,0.0132639
0.141279,0.012852
0.0254193,0.00891783
