mw,Sw
-0.222439795732498,0.100000001490116
0.027143467217684,0.100000001490116
0.389962852001190,0.100000001490116
0.162950664758682,0.100000001490116
-0.369233667850494,0.100000001490116
0.597988545894623,0.100000001490116
-0.157537698745728,0.100000001490116
0.058835823088884,0.100000001490116
-0.246277391910553,0.100000001490116
0.225615158677101,0.100000001490116
0.258487403392792,0.100000001490116
-0.403236657381058,0.100000001490116
-0.270939260721207,0.100000001490116
-0.288635522127151,0.100000001490116
0.062939852476120,0.100000001490116
-0.400157332420349,0.100000001490116
-0.496200650930405,0.100000001490116
0.651872098445892,0.100000001490116
-0.401734471321106,0.100000001490116
0.435437411069870,0.100000001490116
0.085351511836052,0.100000001490116
0.431177794933319,0.100000001490116
-0.563378691673279,0.100000001490116
0.346169412136078,0.100000001490116
-0.066432371735573,0.100000001490116
0.193766221404076,0.100000001490116
-0.187089055776596,0.100000001490116
0.580994904041290,0.100000001490116
0.291682034730911,0.100000001490116
0.388754993677139,0.100000001490116
-0.214613854885101,0.100000001490116
-0.045348532497883,0.100000001490116
-0.273189127445221,0.100000001490116
-0.293607413768768,0.100000001490116
0.418381780385971,0.100000001490116
-0.251792460680008,0.100000001490116
0.097407974302769,0.100000001490116
0.400419801473618,0.100000001490116
0.215984418988228,0.100000001490116
0.357666820287704,0.100000001490116
0.577542424201965,0.100000001490116
-0.835741519927979,0.100000001490116
0.496326953172684,0.100000001490116
-0.502311587333679,0.100000001490116
0.302379071712494,0.100000001490116
-0.239007592201233,0.100000001490116
-0.386136621236801,0.100000001490116
0.552268028259277,0.100000001490116
0.454292267560959,0.100000001490116
-0.199510842561722,0.100000001490116
-0.436090707778931,0.100000001490116
-0.053937371820211,0.100000001490116
0.065254785120487,0.100000001490116
-0.245138913393021,0.100000001490116
-0.225577399134636,0.100000001490116
-0.327983915805817,0.100000001490116
-0.139508560299873,0.100000001490116
0.108768031001091,0.100000001490116
-0.000959439901635,0.100000001490116
-0.052981097251177,0.100000001490116
-0.136974483728409,0.100000001490116
0.526040732860565,0.100000001490116
0.397388726472855,0.100000001490116
0.200331375002861,0.100000001490116
-0.794323861598969,0.100000001490116
-0.147803246974945,0.100000001490116
0.299976199865341,0.100000001490116
0.395020663738251,0.100000001490116
-0.176245227456093,0.100000001490116
-0.219258427619934,0.100000001490116
0.325273364782333,0.100000001490116
-0.241474717855453,0.100000001490116
0.143679022789001,0.100000001490116
0.134731724858284,0.100000001490116
-0.116293452680111,0.100000001490116
0.343589782714844,0.100000001490116
-0.352168321609497,0.100000001490116
0.283514022827148,0.100000001490116
0.393356591463089,0.100000001490116
-0.051680289208889,0.100000001490116
-0.004488115664572,0.100000001490116
-0.035292342305183,0.100000001490116
0.002024334855378,0.100000001490116
0.269540697336197,0.100000001490116
0.253412604331970,0.100000001490116
-0.194744631648064,0.100000001490116
-0.515924036502838,0.100000001490116
0.461402744054794,0.100000001490116
0.309861987829208,0.100000001490116
-0.401414781808853,0.100000001490116
0.160582080483437,0.100000001490116
-0.056013233959675,0.100000001490116
-0.244682684540749,0.100000001490116
0.436711013317108,0.100000001490116
0.299346506595612,0.100000001490116
0.604611933231354,0.100000001490116
-0.422175794839859,0.100000001490116
0.282878756523132,0.100000001490116
-0.737816035747528,0.100000001490116
0.031372256577015,0.100000001490116
0.118539400398731,0.100000001490116
-0.402271032333374,0.100000001490116
0.045937161892653,0.100000001490116
-0.172460243105888,0.100000001490116
0.051720738410950,0.100000001490116
-0.020980771631002,0.100000001490116
-0.260350704193115,0.100000001490116
0.206395417451859,0.100000001490116
-0.195064932107925,0.100000001490116
-0.444538086652756,0.100000001490116
-0.257532835006714,0.100000001490116
0.256553292274475,0.100000001490116
0.312684983015060,0.100000001490116
0.127932414412498,0.100000001490116
-0.647389829158783,0.100000001490116
0.133501872420311,0.100000001490116
0.342974603176117,0.100000001490116
-0.224505171179771,0.100000001490116
0.081643760204315,0.100000001490116
0.065373450517654,0.100000001490116
0.622478365898132,0.100000001490116
-0.530674993991852,0.100000001490116
0.000565735448617,0.100000001490116
-0.374171167612076,0.100000001490116
0.317970842123032,0.100000001490116
0.114092618227005,0.100000001490116
-0.279472202062607,0.100000001490116
-0.061730254441500,0.100000001490116
-0.362653404474258,0.100000001490116
-0.518310546875000,0.100000001490116
-0.360199987888336,0.100000001490116
0.049403794109821,0.100000001490116
-0.494271337985992,0.100000001490116
0.155777230858803,0.100000001490116
0.273861646652222,0.100000001490116
-0.264295995235443,0.100000001490116
0.173501685261726,0.100000001490116
0.245262354612350,0.100000001490116
0.193764016032219,0.100000001490116
0.111204497516155,0.100000001490116
-0.128875494003296,0.100000001490116
0.614834487438202,0.100000001490116
0.340739041566849,0.100000001490116
-0.231302395462990,0.100000001490116
-0.503417968750000,0.100000001490116
-0.217350527644157,0.100000001490116
-0.006161862052977,0.100000001490116
0.163044795393944,0.100000001490116
-0.396401762962341,0.100000001490116
0.186920061707497,0.100000001490116
-0.134210273623466,0.100000001490116
-0.565888524055481,0.100000001490116
-0.209085538983345,0.100000001490116
0.129181325435638,0.100000001490116
0.127351164817810,0.100000001490116
0.009714890271425,0.100000001490116
0.266849607229233,0.100000001490116
0.122019775211811,0.100000001490116
-0.169984027743340,0.100000001490116
-0.108068078756332,0.100000001490116
-0.447243094444275,0.100000001490116
-0.537487864494324,0.100000001490116
-0.142014592885971,0.100000001490116
0.407301932573318,0.100000001490116
0.049534589052200,0.100000001490116
0.095083571970463,0.100000001490116
-0.407081425189972,0.100000001490116
0.213042542338371,0.100000001490116
-0.403338462114334,0.100000001490116
-0.370047271251678,0.100000001490116
0.167343378067017,0.100000001490116
0.351298540830612,0.100000001490116
0.031180510297418,0.100000001490116
-0.069527611136436,0.100000001490116
0.300911247730255,0.100000001490116
-0.004403081256896,0.100000001490116
0.468535482883453,0.100000001490116
-0.287747770547867,0.100000001490116
0.300735831260681,0.100000001490116
0.009451133199036,0.100000001490116
0.335308730602264,0.100000001490116
0.376108586788177,0.100000001490116
-0.032294001430273,0.100000001490116
0.011922259815037,0.100000001490116
0.021819775924087,0.100000001490116
0.409822255373001,0.100000001490116
-0.341130465269089,0.100000001490116
0.216304808855057,0.100000001490116
-0.330459594726562,0.100000001490116
0.027490079402924,0.100000001490116
-0.317635357379913,0.100000001490116
0.400047749280930,0.100000001490116
0.015303472056985,0.100000001490116
0.526646554470062,0.100000001490116
0.159667611122131,0.100000001490116
0.616251111030579,0.100000001490116
0.086900472640991,0.100000001490116
0.043363835662603,0.100000001490116
-0.269223362207413,0.100000001490116
0.637311339378357,0.100000001490116
0.217520773410797,0.100000001490116
0.172394990921021,0.100000001490116
0.033167883753777,0.100000001490116
-0.005208191927522,0.100000001490116
0.218494638800621,0.100000001490116
-0.137836098670959,0.100000001490116
0.570408940315247,0.100000001490116
-0.049674186855555,0.100000001490116
0.224804431200027,0.100000001490116
0.409438788890839,0.100000001490116
-0.251283437013626,0.100000001490116
-0.389416933059692,0.100000001490116
-0.027589572593570,0.100000001490116
-0.458068996667862,0.100000001490116
-0.257730007171631,0.100000001490116
-0.144580557942390,0.100000001490116
-0.235902070999146,0.100000001490116
0.428882896900177,0.100000001490116
-0.434041291475296,0.100000001490116
-0.162984639406204,0.100000001490116
-0.333473622798920,0.100000001490116
0.310966074466705,0.100000001490116
-0.573883831501007,0.100000001490116
0.076865144073963,0.100000001490116
0.015407895669341,0.100000001490116
0.721502304077148,0.100000001490116
0.094656765460968,0.100000001490116
-0.225080266594887,0.100000001490116
0.111160635948181,0.100000001490116
-0.277795374393463,0.100000001490116
-0.163684189319611,0.100000001490116
0.018078118562698,0.100000001490116
-0.336148381233215,0.100000001490116
0.295896112918854,0.100000001490116
-0.124873392283916,0.100000001490116
-0.063513927161694,0.100000001490116
-0.454537451267242,0.100000001490116
0.012680609710515,0.100000001490116
0.045326050370932,0.100000001490116
-0.125699758529663,0.100000001490116
-0.141838476061821,0.100000001490116
-0.525739312171936,0.100000001490116
0.162044182419777,0.100000001490116
0.060241810977459,0.100000001490116
0.540065288543701,0.100000001490116
-0.182778373360634,0.100000001490116
-0.259795486927032,0.100000001490116
0.050104681402445,0.100000001490116
0.008074934594333,0.100000001490116
0.445491731166840,0.100000001490116
0.058638997375965,0.100000001490116
-0.054594799876213,0.100000001490116
0.056564804166555,0.100000001490116
0.712670326232910,0.100000001490116
-0.667087137699127,0.100000001490116
0.335504710674286,0.100000001490116
0.438766777515411,0.100000001490116
-0.426362037658691,0.100000001490116
0.002792725805193,0.100000001490116
-0.298643946647644,0.100000001490116
-0.391559153795242,0.100000001490116
-0.356634348630905,0.100000001490116
-0.304827988147736,0.100000001490116
0.229564353823662,0.100000001490116
-0.263018190860748,0.100000001490116
0.199587926268578,0.100000001490116
-0.450630128383636,0.100000001490116
0.247001037001610,0.100000001490116
-0.338992238044739,0.100000001490116
0.469416111707687,0.100000001490116
-0.035208780318499,0.100000001490116
-0.088642492890358,0.100000001490116
-0.184218883514404,0.100000001490116
-0.242384299635887,0.100000001490116
-0.252187788486481,0.100000001490116
-0.465616345405579,0.100000001490116
-0.037335321307182,0.100000001490116
-0.439986199140549,0.100000001490116
0.208016932010651,0.100000001490116
0.079700633883476,0.100000001490116
-0.239596366882324,0.100000001490116
0.083889670670033,0.100000001490116
0.112279109656811,0.100000001490116
-0.205230414867401,0.100000001490116
-0.313538968563080,0.100000001490116
0.014088114723563,0.100000001490116
-0.586864531040192,0.100000001490116
-0.233124136924744,0.100000001490116
0.281651198863983,0.100000001490116
-0.370716750621796,0.100000001490116
0.384772807359695,0.100000001490116
-0.226202741265297,0.100000001490116
-0.420225232839584,0.100000001490116
0.097378306090832,0.100000001490116
0.023888207972050,0.100000001490116
-0.099342212080956,0.100000001490116
-0.103998929262161,0.100000001490116
-0.132736980915070,0.100000001490116
0.517288863658905,0.100000001490116
-0.409833818674088,0.100000001490116
-0.344753801822662,0.100000001490116
0.639442563056946,0.100000001490116
-0.016253268346190,0.100000001490116
-0.129488274455070,0.100000001490116
0.192868366837502,0.100000001490116
0.245315760374069,0.100000001490116
0.218557253479958,0.100000001490116
-0.111657150089741,0.100000001490116
-0.338372647762299,0.100000001490116
-0.122185483574867,0.100000001490116
-0.589413702487946,0.100000001490116
-0.539345562458038,0.100000001490116
-0.218738898634911,0.100000001490116
0.169416710734367,0.100000001490116
0.060480512678623,0.100000001490116
0.129758656024933,0.100000001490116
-0.302696734666824,0.100000001490116
-0.212864100933075,0.100000001490116
-0.118670426309109,0.100000001490116
0.050541732460260,0.100000001490116
0.147780522704124,0.100000001490116
0.161292031407356,0.100000001490116
-0.267636388540268,0.100000001490116
0.891007184982300,0.100000001490116
0.068616919219494,0.100000001490116
-0.300706118345261,0.100000001490116
0.188474223017693,0.100000001490116
-0.163390159606934,0.100000001490116
0.013081517070532,0.100000001490116
-0.469013810157776,0.100000001490116
-0.384062945842743,0.100000001490116
-0.181545197963715,0.100000001490116
0.129323497414589,0.100000001490116
-0.179018542170525,0.100000001490116
0.323700755834579,0.100000001490116
0.020629083737731,0.100000001490116
0.470239132642746,0.100000001490116
0.219488859176636,0.100000001490116
0.310094535350800,0.100000001490116
0.548991978168488,0.100000001490116
-0.124453760683537,0.100000001490116
0.236456498503685,0.100000001490116
0.502643883228302,0.100000001490116
-0.335261553525925,0.100000001490116
0.018094811588526,0.100000001490116
-0.312574714422226,0.100000001490116
0.654408037662506,0.100000001490116
-0.254545778036118,0.100000001490116
-0.355835855007172,0.100000001490116
-0.331119090318680,0.100000001490116
-0.007228874601424,0.100000001490116
0.656872987747192,0.100000001490116
-0.498060286045074,0.100000001490116
-0.528261303901672,0.100000001490116
0.092581018805504,0.100000001490116
0.384370356798172,0.100000001490116
-0.282069444656372,0.100000001490116
0.447420388460159,0.100000001490116
-0.241214886307716,0.100000001490116
-0.600685179233551,0.100000001490116
0.158100768923759,0.100000001490116
-0.133948639035225,0.100000001490116
-0.071629516780376,0.100000001490116
-0.142459794878960,0.100000001490116
-0.253670424222946,0.100000001490116
0.216026768088341,0.100000001490116
0.177062988281250,0.100000001490116
-0.222514972090721,0.100000001490116
0.065845124423504,0.100000001490116
0.164173915982246,0.100000001490116
0.103182516992092,0.100000001490116
0.103550605475903,0.100000001490116
0.261513292789459,0.100000001490116
-0.318230360746384,0.100000001490116
0.416273832321167,0.100000001490116
-0.069474957883358,0.100000001490116
-0.119530171155930,0.100000001490116
0.444410890340805,0.100000001490116
-0.337614864110947,0.100000001490116
-0.214678660035133,0.100000001490116
0.115663506090641,0.100000001490116
0.587069869041443,0.100000001490116
-0.431155741214752,0.100000001490116
0.043206971138716,0.100000001490116
-0.293028444051743,0.100000001490116
0.035426352173090,0.100000001490116
0.252182662487030,0.100000001490116
0.168627142906189,0.100000001490116
0.054582051932812,0.100000001490116
-0.576539278030396,0.100000001490116
0.170610308647156,0.100000001490116
0.265563249588013,0.100000001490116
-0.646841704845428,0.100000001490116
-0.339871883392334,0.100000001490116
0.304756402969360,0.100000001490116
-0.298072904348373,0.100000001490116
-0.063116997480392,0.100000001490116
0.207193076610565,0.100000001490116
0.460914313793182,0.100000001490116
-0.072507642209530,0.100000001490116
-0.227442696690559,0.100000001490116
-0.764115929603577,0.100000001490116
0.095817759633064,0.100000001490116
0.009878317825496,0.100000001490116
-0.139537751674652,0.100000001490116
0.164110675454140,0.100000001490116
0.346473574638367,0.100000001490116
-0.022836448624730,0.100000001490116
0.465431809425354,0.100000001490116
0.378430008888245,0.100000001490116
-0.086181275546551,0.100000001490116
-0.072481393814087,0.100000001490116
-0.110897734761238,0.100000001490116
0.767669975757599,0.100000001490116
-0.022308757528663,0.100000001490116
0.188425019383430,0.100000001490116
0.191372707486153,0.100000001490116
-0.419896274805069,0.100000001490116
-0.172044739127159,0.100000001490116
-0.199423283338547,0.100000001490116
0.287206977605820,0.100000001490116
0.253365695476532,0.100000001490116
-0.271623283624649,0.100000001490116
-0.522265970706940,0.100000001490116
0.047709766775370,0.100000001490116
-0.261611551046371,0.100000001490116
-0.081308186054230,0.100000001490116
0.024456854909658,0.100000001490116
-0.325833141803741,0.100000001490116
-0.002315352205187,0.100000001490116
0.525253415107727,0.100000001490116
0.019329024478793,0.100000001490116
0.022255783900619,0.100000001490116
-0.364438593387604,0.100000001490116
0.147538885474205,0.100000001490116
-0.156358763575554,0.100000001490116
0.271214425563812,0.100000001490116
-0.303327232599258,0.100000001490116
-0.485635727643967,0.100000001490116
0.120642155408859,0.100000001490116
-0.068128779530525,0.100000001490116
-0.059188235551119,0.100000001490116
0.391203343868256,0.100000001490116
0.461825400590897,0.100000001490116
0.070060350000858,0.100000001490116
0.232753857970238,0.100000001490116
0.043892916291952,0.100000001490116
-0.393791288137436,0.100000001490116
-0.004414230119437,0.100000001490116
-0.458231508731842,0.100000001490116
0.833519756793976,0.100000001490116
0.616827666759491,0.100000001490116
0.239227235317230,0.100000001490116
0.007966933771968,0.100000001490116
0.122097574174404,0.100000001490116
-0.033031467348337,0.100000001490116
0.039056915789843,0.100000001490116
0.174547642469406,0.100000001490116
-0.059454511851072,0.100000001490116
-0.067813031375408,0.100000001490116
-0.027200842276216,0.100000001490116
-0.300494015216827,0.100000001490116
0.500899970531464,0.100000001490116
-0.540911257266998,0.100000001490116
0.026256391778588,0.100000001490116
0.388393461704254,0.100000001490116
-0.295912384986877,0.100000001490116
-0.020417213439941,0.100000001490116
0.192986413836479,0.100000001490116
0.483307838439941,0.100000001490116
-0.436313122510910,0.100000001490116
0.422602087259293,0.100000001490116
0.054712999612093,0.100000001490116
0.054675489664078,0.100000001490116
-0.205107614398003,0.100000001490116
0.072808377444744,0.100000001490116
-0.220830559730530,0.100000001490116
-0.490868061780930,0.100000001490116
-0.007402444723994,0.100000001490116
-0.338781476020813,0.100000001490116
-0.020512795075774,0.100000001490116
-0.004671795759350,0.100000001490116
-0.092948310077190,0.100000001490116
-0.458925753831863,0.100000001490116
0.003092221682891,0.100000001490116
0.133834809064865,0.100000001490116
0.236479833722115,0.100000001490116
0.021664237603545,0.100000001490116
0.211728170514107,0.100000001490116
-0.250184774398804,0.100000001490116
0.229831218719482,0.100000001490116
0.059541869908571,0.100000001490116
0.725686550140381,0.100000001490116
-0.149573624134064,0.100000001490116
0.610328257083893,0.100000001490116
-0.052199795842171,0.100000001490116
0.262333422899246,0.100000001490116
0.188426792621613,0.100000001490116
0.043194532394409,0.100000001490116
0.082059971988201,0.100000001490116
-0.206554993987083,0.100000001490116
0.188216969370842,0.100000001490116
-0.573295950889587,0.100000001490116
0.326079577207565,0.100000001490116
0.075768746435642,0.100000001490116
-0.221338003873825,0.100000001490116
0.091155208647251,0.100000001490116
-0.551689088344574,0.100000001490116
0.544103562831879,0.100000001490116
0.006468167528510,0.100000001490116
-0.277698576450348,0.100000001490116
-0.013102773576975,0.100000001490116
0.000543410948012,0.100000001490116
0.284370303153992,0.100000001490116
0.087422527372837,0.100000001490116
-0.791254222393036,0.100000001490116
-0.348852127790451,0.100000001490116
-0.021929586306214,0.100000001490116
0.509974420070648,0.100000001490116
-0.395871043205261,0.100000001490116
-0.147924497723579,0.100000001490116
0.560645461082458,0.100000001490116
-0.247000128030777,0.100000001490116
-0.330651700496674,0.100000001490116
-0.126592382788658,0.100000001490116
-0.500534415245056,0.100000001490116
0.255866348743439,0.100000001490116
0.368496060371399,0.100000001490116
0.505184113979340,0.100000001490116
0.501182138919830,0.100000001490116
-0.127702295780182,0.100000001490116
-0.166289687156677,0.100000001490116
0.208758771419525,0.100000001490116
0.474468737840652,0.100000001490116
-0.072490155696869,0.100000001490116
-0.418714404106140,0.100000001490116
0.388524532318115,0.100000001490116
-0.371230155229568,0.100000001490116
0.521898567676544,0.100000001490116
-0.134964823722839,0.100000001490116
0.253494977951050,0.100000001490116
-0.481933802366257,0.100000001490116
0.748903274536133,0.100000001490116
0.256839036941528,0.100000001490116
-0.110885456204414,0.100000001490116
-0.551278352737427,0.100000001490116
-0.121399737894535,0.100000001490116
0.463613629341125,0.100000001490116
0.147839546203613,0.100000001490116
-0.320545345544815,0.100000001490116
-0.304827421903610,0.100000001490116
0.192316174507141,0.100000001490116
-1.009935021400452,0.100000001490116
-0.464422523975372,0.100000001490116
-0.407319068908691,0.100000001490116
0.096324123442173,0.100000001490116
-0.307445645332336,0.100000001490116
-0.318060755729675,0.100000001490116
0.135144174098969,0.100000001490116
0.321198880672455,0.100000001490116
0.633938610553741,0.100000001490116
-0.391004979610443,0.100000001490116
0.084254994988441,0.100000001490116
0.958033323287964,0.100000001490116
-0.359320372343063,0.100000001490116
-0.189070194959641,0.100000001490116
-0.181844547390938,0.100000001490116
0.148264274001122,0.100000001490116
-0.050120744854212,0.100000001490116
0.237487852573395,0.100000001490116
0.279240101575851,0.100000001490116
0.246201246976852,0.100000001490116
-0.064938470721245,0.100000001490116
0.334575474262238,0.100000001490116
-0.184868067502975,0.100000001490116
-0.065478608012199,0.100000001490116
0.029888153076172,0.100000001490116
-0.305064797401428,0.100000001490116
-0.037657663226128,0.100000001490116
0.191376328468323,0.100000001490116
0.139773651957512,0.100000001490116
0.240732684731483,0.100000001490116
0.222347706556320,0.100000001490116
0.175219774246216,0.100000001490116
-0.218030780553818,0.100000001490116
-0.019658965989947,0.100000001490116
-0.696676552295685,0.100000001490116
0.627770483493805,0.100000001490116
0.267933607101440,0.100000001490116
-0.271056592464447,0.100000001490116
0.407398581504822,0.100000001490116
-0.689660429954529,0.100000001490116
0.066496647894382,0.100000001490116
0.124213814735413,0.100000001490116
0.572850525379181,0.100000001490116
-0.519555568695068,0.100000001490116
0.243706375360489,0.100000001490116
0.305628448724747,0.100000001490116
0.133678346872330,0.100000001490116
-0.039720505475998,0.100000001490116
0.550132513046265,0.100000001490116
-0.102929800748825,0.100000001490116
0.053364671766758,0.100000001490116
0.424801141023636,0.100000001490116
-0.139556854963303,0.100000001490116
0.485339254140854,0.100000001490116
0.316687971353531,0.100000001490116
-0.121520087122917,0.100000001490116
-0.477482169866562,0.100000001490116
0.034542012959719,0.100000001490116
-0.266726404428482,0.100000001490116
-0.206661507487297,0.100000001490116
-0.545368492603302,0.100000001490116
-0.004355504177511,0.100000001490116
-0.650351047515869,0.100000001490116
-0.097415775060654,0.100000001490116
-0.235638648271561,0.100000001490116
-0.075577162206173,0.100000001490116
-0.005752958822995,0.100000001490116
0.131691858172417,0.100000001490116
0.295619100332260,0.100000001490116
0.726430237293243,0.100000001490116
-0.059885721653700,0.100000001490116
-0.132179930806160,0.100000001490116
-0.301754593849182,0.100000001490116
-0.184502750635147,0.100000001490116
-0.241844773292542,0.100000001490116
0.201621264219284,0.100000001490116
0.049590408802032,0.100000001490116
0.501047790050507,0.100000001490116
0.160420671105385,0.100000001490116
-0.217296868562698,0.100000001490116
-0.397696048021317,0.100000001490116
0.283438563346863,0.100000001490116
-0.207371726632118,0.100000001490116
0.339297145605087,0.100000001490116
0.360301673412323,0.100000001490116
-0.056120172142982,0.100000001490116
-0.208066403865814,0.100000001490116
-0.096828378736973,0.100000001490116
0.101399950683117,0.100000001490116
-0.225601568818092,0.100000001490116
0.238058701157570,0.100000001490116
0.561424136161804,0.100000001490116
-0.049410913139582,0.100000001490116
-0.646585047245026,0.100000001490116
-0.351612925529480,0.100000001490116
-0.110052235424519,0.100000001490116
0.017196862027049,0.100000001490116
0.213674530386925,0.100000001490116
0.548986673355103,0.100000001490116
-0.592226266860962,0.100000001490116
-0.136298194527626,0.100000001490116
0.058780696243048,0.100000001490116
-0.020722726359963,0.100000001490116
-0.046473443508148,0.100000001490116
-0.435853421688080,0.100000001490116
-0.079452112317085,0.100000001490116
-0.339965641498566,0.100000001490116
0.056186601519585,0.100000001490116
0.258011937141418,0.100000001490116
0.338247090578079,0.100000001490116
0.037006773054600,0.100000001490116
-0.174337983131409,0.100000001490116
0.084028221666813,0.100000001490116
-0.092726625502110,0.100000001490116
0.067534282803535,0.100000001490116
0.056340970098972,0.100000001490116
-0.055908907204866,0.100000001490116
-0.053062301129103,0.100000001490116
0.200666069984436,0.100000001490116
0.055902168154716,0.100000001490116
-0.181765481829643,0.100000001490116
0.227292969822884,0.100000001490116
-0.039330776780844,0.100000001490116
0.303496211767197,0.100000001490116
0.269561886787415,0.100000001490116
0.200353190302849,0.100000001490116
0.315377920866013,0.100000001490116
0.653479397296906,0.100000001490116
-0.103162445127964,0.100000001490116
0.412778764963150,0.100000001490116
-0.164368346333504,0.100000001490116
-0.045500617474318,0.100000001490116
0.372270673513412,0.100000001490116
-0.026015991345048,0.100000001490116
0.160726949572563,0.100000001490116
0.482527792453766,0.100000001490116
-0.204108908772469,0.100000001490116
0.400019854307175,0.100000001490116
-0.243139222264290,0.100000001490116
-0.386503010988235,0.100000001490116
-0.295326888561249,0.100000001490116
-0.220763549208641,0.100000001490116
0.857990622520447,0.100000001490116
-0.597718656063080,0.100000001490116
0.451692134141922,0.100000001490116
-0.127072244882584,0.100000001490116
-0.303878188133240,0.100000001490116
0.238507091999054,0.100000001490116
0.275792568922043,0.100000001490116
-0.008932840079069,0.100000001490116
-0.074367292225361,0.100000001490116
0.157235115766525,0.100000001490116
0.161870673298836,0.100000001490116
-0.010188176296651,0.100000001490116
0.345104008913040,0.100000001490116
-0.297189444303513,0.100000001490116
-0.022528020665050,0.100000001490116
0.292676061391830,0.100000001490116
0.138634279370308,0.100000001490116
-0.030110912397504,0.100000001490116
-0.360978037118912,0.100000001490116
-0.030463650822639,0.100000001490116
0.093480601906776,0.100000001490116
-0.222459584474564,0.100000001490116
-0.136292681097984,0.100000001490116
0.284914404153824,0.100000001490116
0.559181034564972,0.100000001490116
0.453557938337326,0.100000001490116
0.225615173578262,0.100000001490116
0.129328683018684,0.100000001490116
-0.125873699784279,0.100000001490116
0.189119860529900,0.100000001490116
-0.240864276885986,0.100000001490116
-0.200790062546730,0.100000001490116
-0.344760626554489,0.100000001490116
-0.414465337991714,0.100000001490116
0.077481664717197,0.100000001490116
0.393461704254150,0.100000001490116
-0.112480357289314,0.100000001490116
0.206406161189079,0.100000001490116
-0.526213467121124,0.100000001490116
-0.029296161606908,0.100000001490116
-0.193452939391136,0.100000001490116
-0.249844506382942,0.100000001490116
-0.231353044509888,0.100000001490116
-0.162683486938477,0.100000001490116
-0.454063534736633,0.100000001490116
0.158930569887161,0.100000001490116
-0.402779042720795,0.100000001490116
-0.455898612737656,0.100000001490116
-0.204145342111588,0.100000001490116
-0.060922887176275,0.100000001490116
0.522575199604034,0.100000001490116
-0.409972727298737,0.100000001490116
0.194835826754570,0.100000001490116
0.249857619404793,0.100000001490116
-0.029960891231894,0.100000001490116
-0.714603543281555,0.100000001490116
0.300057649612427,0.100000001490116
0.539570569992065,0.100000001490116
0.414826929569244,0.100000001490116
0.494650334119797,0.100000001490116
0.026780482381582,0.100000001490116
0.342891633510590,0.100000001490116
0.317989170551300,0.100000001490116
-0.372716546058655,0.100000001490116
-0.144442170858383,0.100000001490116
-0.100918039679527,0.100000001490116
0.198069959878922,0.100000001490116
-0.312575429677963,0.100000001490116
-0.259432703256607,0.100000001490116
-0.096811957657337,0.100000001490116
-0.168587699532509,0.100000001490116
0.303621321916580,0.100000001490116
0.529358088970184,0.100000001490116
-0.595533847808838,0.100000001490116
-0.200393334031105,0.100000001490116
0.432482093572617,0.100000001490116
-0.452279031276703,0.100000001490116
-0.444588601589203,0.100000001490116
-0.367302387952805,0.100000001490116
0.516839504241943,0.100000001490116
-0.093417324125767,0.100000001490116
-0.722717106342316,0.100000001490116
-0.141486793756485,0.100000001490116
0.396957099437714,0.100000001490116
0.446981787681580,0.100000001490116
-0.023000715300441,0.100000001490116
-0.146364390850067,0.100000001490116
0.496539652347565,0.100000001490116
0.233853310346603,0.100000001490116
-0.329255908727646,0.100000001490116
0.821768343448639,0.100000001490116
-0.137049600481987,0.100000001490116
-0.223905205726624,0.100000001490116
-0.557363748550415,0.100000001490116
-0.053321059793234,0.100000001490116
-0.039761316031218,0.100000001490116
-0.602668583393097,0.100000001490116
-0.387778937816620,0.100000001490116
0.016265315935016,0.100000001490116
0.384116023778915,0.100000001490116
0.480813294649124,0.100000001490116
0.083915017545223,0.100000001490116
0.197939708828926,0.100000001490116
0.233011871576309,0.100000001490116
0.325197041034698,0.100000001490116
0.021778412163258,0.100000001490116
0.123485974967480,0.100000001490116
-0.532044231891632,0.100000001490116
-0.199829101562500,0.100000001490116
0.052473310381174,0.100000001490116
0.050301060080528,0.100000001490116
0.509626865386963,0.100000001490116
0.155034989118576,0.100000001490116
-0.025575723499060,0.100000001490116
-0.193616375327110,0.100000001490116
0.198724284768105,0.100000001490116
-0.345383495092392,0.100000001490116
0.257708519697189,0.100000001490116
-0.295746594667435,0.100000001490116
0.380888134241104,0.100000001490116
-0.135054960846901,0.100000001490116
-0.256491422653198,0.100000001490116
0.444661855697632,0.100000001490116
0.276048034429550,0.100000001490116
-0.415321707725525,0.100000001490116
0.253881812095642,0.100000001490116
-0.049019441008568,0.100000001490116
-0.601304233074188,0.100000001490116
-0.194440945982933,0.100000001490116
0.241583064198494,0.100000001490116
-0.201096788048744,0.100000001490116
0.145715370774269,0.100000001490116
0.057079449295998,0.100000001490116
-0.084704004228115,0.100000001490116
-0.393618404865265,0.100000001490116
0.649695277214050,0.100000001490116
0.153806954622269,0.100000001490116
-0.023011084645987,0.100000001490116
0.107187300920486,0.100000001490116
0.299166321754456,0.100000001490116
0.633173346519470,0.100000001490116
0.013890632428229,0.100000001490116
0.146006941795349,0.100000001490116
-0.474461227655411,0.100000001490116
0.207317963242531,0.100000001490116
0.140270411968231,0.100000001490116
0.252654224634171,0.100000001490116
0.169119194149971,0.100000001490116
-0.569507896900177,0.100000001490116
-0.106054164469242,0.100000001490116
-0.126924365758896,0.100000001490116
0.044674556702375,0.100000001490116
0.090046800673008,0.100000001490116
0.140679031610489,0.100000001490116
0.151717111468315,0.100000001490116
0.161682039499283,0.100000001490116
-0.675800263881683,0.100000001490116
0.092887796461582,0.100000001490116
0.013849165290594,0.100000001490116
0.164857059717178,0.100000001490116
0.318771243095398,0.100000001490116
0.006715750321746,0.100000001490116
0.623360574245453,0.100000001490116
0.677985846996307,0.100000001490116
-0.015741700306535,0.100000001490116
0.061615973711014,0.100000001490116
0.013461490161717,0.100000001490116
0.411344528198242,0.100000001490116
-0.071268469095230,0.100000001490116
-0.118063561618328,0.100000001490116
-0.495652794837952,0.100000001490116
0.125489756464958,0.100000001490116
0.274633854627609,0.100000001490116
0.184753939509392,0.100000001490116
-0.374064117670059,0.100000001490116
0.397374689579010,0.100000001490116
-0.216194465756416,0.100000001490116
-0.014089191332459,0.100000001490116
0.179004177451134,0.100000001490116
0.411367446184158,0.100000001490116
0.484800010919571,0.100000001490116
-0.174128457903862,0.100000001490116
-0.607520699501038,0.100000001490116
-0.171636179089546,0.100000001490116
0.215352877974510,0.100000001490116
-0.264269709587097,0.100000001490116
0.006086305249482,0.100000001490116
0.115879409015179,0.100000001490116
-0.445509850978851,0.100000001490116
0.490617871284485,0.100000001490116
0.171452760696411,0.100000001490116
0.153015986084938,0.100000001490116
-0.198414728045464,0.100000001490116
-0.017859421670437,0.100000001490116
-0.177875116467476,0.100000001490116
-0.323169618844986,0.100000001490116
0.545601487159729,0.100000001490116
0.045132774859667,0.100000001490116
-0.153146132826805,0.100000001490116
0.075767681002617,0.100000001490116
0.080792784690857,0.100000001490116
-0.269053548574448,0.100000001490116
0.030544990673661,0.100000001490116
0.609615206718445,0.100000001490116
0.062328156083822,0.100000001490116
-0.242810323834419,0.100000001490116
0.115230694413185,0.100000001490116
-0.708269417285919,0.100000001490116
-0.153931662440300,0.100000001490116
-0.089412949979305,0.100000001490116
-0.233773693442345,0.100000001490116
-0.024447133764625,0.100000001490116
0.276849448680878,0.100000001490116
-0.310430347919464,0.100000001490116
-0.350252807140350,0.100000001490116
-0.809804856777191,0.100000001490116
-0.456922471523285,0.100000001490116
-0.284783005714417,0.100000001490116
0.161833226680756,0.100000001490116
0.199829980731010,0.100000001490116
0.097694016993046,0.100000001490116
0.074065454304218,0.100000001490116
-0.566706836223602,0.100000001490116
0.087441615760326,0.100000001490116
-0.430125713348389,0.100000001490116
0.210742518305779,0.100000001490116
0.142934411764145,0.100000001490116
-0.423507034778595,0.100000001490116
0.158540904521942,0.100000001490116
-0.149075895547867,0.100000001490116
-0.291039526462555,0.100000001490116
0.351235777139664,0.100000001490116
-0.748579323291779,0.100000001490116
-0.567695498466492,0.100000001490116
0.110284976661205,0.100000001490116
-0.754583597183228,0.100000001490116
0.062768958508968,0.100000001490116
0.138203397393227,0.100000001490116
0.300959914922714,0.100000001490116
-0.091451585292816,0.100000001490116
-0.009157065302134,0.100000001490116
0.313517332077026,0.100000001490116
0.368669360876083,0.100000001490116
-0.014319212175906,0.100000001490116
-0.162447750568390,0.100000001490116
0.256137579679489,0.100000001490116
0.478412985801697,0.100000001490116
-0.331818729639053,0.100000001490116
-0.243237093091011,0.100000001490116
0.116501040756702,0.100000001490116
0.522825956344604,0.100000001490116
0.064616009593010,0.100000001490116
-0.265366107225418,0.100000001490116
0.011692971922457,0.100000001490116
-0.028646552935243,0.100000001490116
0.236705467104912,0.100000001490116
0.728969037532806,0.100000001490116
-0.285124987363815,0.100000001490116
0.507924437522888,0.100000001490116
-0.011112461797893,0.100000001490116
0.851907789707184,0.100000001490116
0.157119527459145,0.100000001490116
-0.260939985513687,0.100000001490116
0.341221034526825,0.100000001490116
-0.542170405387878,0.100000001490116
-0.322257220745087,0.100000001490116
-0.393708616495132,0.100000001490116
-0.462878316640854,0.100000001490116
0.230575397610664,0.100000001490116
0.192961201071739,0.100000001490116
0.126631438732147,0.100000001490116
0.192635655403137,0.100000001490116
-0.146029293537140,0.100000001490116
0.236189320683479,0.100000001490116
-0.647069931030273,0.100000001490116
0.323955744504929,0.100000001490116
0.007921107113361,0.100000001490116
0.172908827662468,0.100000001490116
-0.332954317331314,0.100000001490116
-0.200711235404015,0.100000001490116
-0.123928688466549,0.100000001490116
-0.381825029850006,0.100000001490116
0.485747873783112,0.100000001490116
0.333552181720734,0.100000001490116
0.111297406256199,0.100000001490116
-0.285103678703308,0.100000001490116
-0.400031507015228,0.100000001490116
0.342060655355453,0.100000001490116
0.228811889886856,0.100000001490116
-0.166603103280067,0.100000001490116
-0.058215759694576,0.100000001490116
-0.288827776908875,0.100000001490116
-0.130439177155495,0.100000001490116
-0.303147226572037,0.100000001490116
0.329613775014877,0.100000001490116
-0.258100211620331,0.100000001490116
-0.314833045005798,0.100000001490116
0.004502854775637,0.100000001490116
0.137162864208221,0.100000001490116
-0.141068264842033,0.100000001490116
0.403820902109146,0.100000001490116
0.269082188606262,0.100000001490116
-0.227154478430748,0.100000001490116
-0.084433875977993,0.100000001490116
-0.380530029535294,0.100000001490116
-0.166739404201508,0.100000001490116
0.042877133935690,0.100000001490116
-0.042320869863033,0.100000001490116
0.610427498817444,0.100000001490116
-0.284317642450333,0.100000001490116
-0.078334540128708,0.100000001490116
0.049074102193117,0.100000001490116
-0.334893792867661,0.100000001490116
-0.334219396114349,0.100000001490116
0.091563843190670,0.100000001490116
-0.356464266777039,0.100000001490116
-0.031289596110582,0.100000001490116
-0.179953604936600,0.100000001490116
0.514032721519470,0.100000001490116
0.442419141530991,0.100000001490116
0.132726415991783,0.100000001490116
-0.505759000778198,0.100000001490116
0.293283134698868,0.100000001490116
-0.282438099384308,0.100000001490116
-0.096170879900455,0.100000001490116
-0.192921936511993,0.100000001490116
0.328771829605103,0.100000001490116
-0.268052428960800,0.100000001490116
0.255457878112793,0.100000001490116
-0.311006724834442,0.100000001490116
-0.173598781228065,0.100000001490116
0.075629211962223,0.100000001490116
0.218589931726456,0.100000001490116
-0.015647729858756,0.100000001490116
0.561680436134338,0.100000001490116
-0.047242783010006,0.100000001490116
-0.008381552994251,0.100000001490116
-0.145242348313332,0.100000001490116
0.017990279942751,0.100000001490116
-0.035055935382843,0.100000001490116
-0.309206604957581,0.100000001490116
0.470596164464951,0.100000001490116
0.334211796522141,0.100000001490116
0.265434265136719,0.100000001490116
0.479320049285889,0.100000001490116
0.234013661742210,0.100000001490116
-0.225840032100677,0.100000001490116
-0.160833343863487,0.100000001490116
0.226408854126930,0.100000001490116
-0.523328721523285,0.100000001490116
0.484657257795334,0.100000001490116
0.445555746555328,0.100000001490116
0.546124696731567,0.100000001490116
0.304491907358170,0.100000001490116
0.526579558849335,0.100000001490116
0.034395638853312,0.100000001490116
-0.298528194427490,0.100000001490116
-0.340157508850098,0.100000001490116
0.285500049591064,0.100000001490116
0.223675489425659,0.100000001490116
-0.149346247315407,0.100000001490116
0.074765853583813,0.100000001490116
-0.442213386297226,0.100000001490116
0.502217531204224,0.100000001490116
-0.092635966837406,0.100000001490116
-0.056030798703432,0.100000001490116
-0.416514694690704,0.100000001490116
0.291838496923447,0.100000001490116
0.418084651231766,0.100000001490116
0.338723629713058,0.100000001490116
-0.430603027343750,0.100000001490116
-0.365666776895523,0.100000001490116
0.119651719927788,0.100000001490116
0.160459205508232,0.100000001490116
0.396159082651138,0.100000001490116
-0.055386841297150,0.100000001490116
-0.127782091498375,0.100000001490116
-0.296096622943878,0.100000001490116
-0.053946919739246,0.100000001490116
1.035662174224854,0.100000001490116
0.143092602491379,0.100000001490116
-0.240054473280907,0.100000001490116
-0.395526409149170,0.100000001490116
-0.105179466307163,0.100000001490116
-0.096886485815048,0.100000001490116
0.013592494651675,0.100000001490116
0.391795486211777,0.100000001490116
0.109475858509541,0.100000001490116
-0.144698351621628,0.100000001490116
0.157961040735245,0.100000001490116
-0.510944902896881,0.100000001490116
0.397887110710144,0.100000001490116
-0.139240294694901,0.100000001490116
-0.273457854986191,0.100000001490116
0.012748805806041,0.100000001490116
0.031106961891055,0.100000001490116
0.189213916659355,0.100000001490116
-0.217650622129440,0.100000001490116
-0.368876159191132,0.100000001490116
0.494118124246597,0.100000001490116
-0.464243799448013,0.100000001490116
-0.462843120098114,0.100000001490116
-0.440587788820267,0.100000001490116
0.192772045731544,0.100000001490116
0.227777019143105,0.100000001490116
-0.042701162397861,0.100000001490116
0.447108477354050,0.100000001490116
-0.329953134059906,0.100000001490116
0.018933637067676,0.100000001490116
-0.111230947077274,0.100000001490116
-0.040464643388987,0.100000001490116
0.031725630164146,0.100000001490116
-0.103172160685062,0.100000001490116
-0.058632645756006,0.100000001490116
0.091492444276810,0.100000001490116
-0.136934459209442,0.100000001490116
0.134797990322113,0.100000001490116
0.253042578697205,0.100000001490116
-0.221187517046928,0.100000001490116
-0.289193838834763,0.100000001490116
-0.182117372751236,0.100000001490116
0.378074824810028,0.100000001490116
-0.201329931616783,0.100000001490116
-0.661100804805756,0.100000001490116
-0.407907515764236,0.100000001490116
0.071325667202473,0.100000001490116
-1.167004704475403,0.100000001490116
0.501556694507599,0.100000001490116
0.255022346973419,0.100000001490116
-0.207675397396088,0.100000001490116
0.163553908467293,0.100000001490116
-0.014291206374764,0.100000001490116
0.575100660324097,0.100000001490116
0.050588224083185,0.100000001490116
0.256390452384949,0.100000001490116
0.046549193561077,0.100000001490116
-0.513984322547913,0.100000001490116
-0.125679612159729,0.100000001490116
-0.038896519690752,0.100000001490116
0.600358188152313,0.100000001490116
-0.814814269542694,0.100000001490116
-0.359547972679138,0.100000001490116
0.112243399024010,0.100000001490116
0.417290568351746,0.100000001490116
0.052887879312038,0.100000001490116
-0.091186016798019,0.100000001490116
0.261572539806366,0.100000001490116
-0.191370621323586,0.100000001490116
-0.249520599842072,0.100000001490116
-0.218503654003143,0.100000001490116
0.437556624412537,0.100000001490116
-0.313485771417618,0.100000001490116
-0.298584580421448,0.100000001490116
0.456450730562210,0.100000001490116
0.003619333030656,0.100000001490116
0.089963428676128,0.100000001490116
-0.244230926036835,0.100000001490116
0.028927128762007,0.100000001490116
0.398751795291901,0.100000001490116
-0.139569848775864,0.100000001490116
-0.456524103879929,0.100000001490116
0.049408245831728,0.100000001490116
0.125678405165672,0.100000001490116
0.016489788889885,0.100000001490116
-0.234695151448250,0.100000001490116
-0.443987160921097,0.100000001490116
0.773563861846924,0.100000001490116
0.119020953774452,0.100000001490116
0.444927513599396,0.100000001490116
0.680173933506012,0.100000001490116
-0.223314210772514,0.100000001490116
0.171166151762009,0.100000001490116
0.125746756792068,0.100000001490116
0.429996907711029,0.100000001490116
-0.085708059370518,0.100000001490116
0.357349723577499,0.100000001490116
-0.196051344275475,0.100000001490116
-0.484656035900116,0.100000001490116
0.123390235006809,0.100000001490116
0.070457383990288,0.100000001490116
-0.395882457494736,0.100000001490116
0.052574001252651,0.100000001490116
-0.172184407711029,0.100000001490116
-0.339744061231613,0.100000001490116
-0.057336829602718,0.100000001490116
0.008147397078574,0.100000001490116
-0.332531690597534,0.100000001490116
-0.297906190156937,0.100000001490116
-0.016568671911955,0.100000001490116
-0.112675778567791,0.100000001490116
0.173022344708443,0.100000001490116
-0.404150128364563,0.100000001490116
0.363092154264450,0.100000001490116
0.224841609597206,0.100000001490116
-0.435410708189011,0.100000001490116
0.074154376983643,0.100000001490116
0.639680385589600,0.100000001490116
0.320684313774109,0.100000001490116
-0.262689620256424,0.100000001490116
-0.050146430730820,0.100000001490116
0.197293743491173,0.100000001490116
0.200092002749443,0.100000001490116
-0.108511634171009,0.100000001490116
0.516962826251984,0.100000001490116
0.175621852278709,0.100000001490116
-0.113864295184612,0.100000001490116
0.198009431362152,0.100000001490116
0.592413961887360,0.100000001490116
0.245545014739037,0.100000001490116
-0.408721953630447,0.100000001490116
-0.505435585975647,0.100000001490116
-0.407250314950943,0.100000001490116
0.091884382069111,0.100000001490116
-0.468688070774078,0.100000001490116
0.084444195032120,0.100000001490116
-0.307242810726166,0.100000001490116
0.173073709011078,0.100000001490116
0.250271618366241,0.100000001490116
0.153934538364410,0.100000001490116
0.055233154445887,0.100000001490116
-0.090879075229168,0.100000001490116
0.129359200596809,0.100000001490116
0.445019155740738,0.100000001490116
0.193505778908730,0.100000001490116
-0.477437376976013,0.100000001490116
-0.195101052522659,0.100000001490116
-0.606884956359863,0.100000001490116
0.316121786832809,0.100000001490116
-0.261407971382141,0.100000001490116
-0.238969117403030,0.100000001490116
0.022232668474317,0.100000001490116
-0.095542617142200,0.100000001490116
0.046593464910984,0.100000001490116
0.597218036651611,0.100000001490116
-0.020695155486465,0.100000001490116
-0.138189777731895,0.100000001490116
0.964879930019379,0.100000001490116
-0.092160254716873,0.100000001490116
-0.079430185258389,0.100000001490116
-0.196032673120499,0.100000001490116
-0.252688944339752,0.100000001490116
0.272688329219818,0.100000001490116
-0.211050152778625,0.100000001490116
-0.317545771598816,0.100000001490116
-0.256116658449173,0.100000001490116
-0.436672568321228,0.100000001490116
-0.056827481836081,0.100000001490116
0.021613195538521,0.100000001490116
0.121943309903145,0.100000001490116
0.188153490424156,0.100000001490116
-0.095888108015060,0.100000001490116
-0.217033684253693,0.100000001490116
-0.027702463790774,0.100000001490116
0.284887284040451,0.100000001490116
-0.591838419437408,0.100000001490116
0.122396565973759,0.100000001490116
0.095564320683479,0.100000001490116
0.512136340141296,0.100000001490116
-0.085170321166515,0.100000001490116
0.577238142490387,0.100000001490116
0.041233446449041,0.100000001490116
-0.116909362375736,0.100000001490116
-0.252860575914383,0.100000001490116
-0.144076019525528,0.100000001490116
-0.268774241209030,0.100000001490116
0.057331226766109,0.100000001490116
0.105346165597439,0.100000001490116
-0.292231470346451,0.100000001490116
0.330643832683563,0.100000001490116
0.375922203063965,0.100000001490116
0.590738713741302,0.100000001490116
-0.401792585849762,0.100000001490116
-0.076457031071186,0.100000001490116
0.096780851483345,0.100000001490116
0.020564703270793,0.100000001490116
-0.321609616279602,0.100000001490116
-0.267864555120468,0.100000001490116
0.173686310648918,0.100000001490116
0.136993974447250,0.100000001490116
0.048562809824944,0.100000001490116
0.195295795798302,0.100000001490116
0.421464443206787,0.100000001490116
-0.166094779968262,0.100000001490116
0.183024525642395,0.100000001490116
-0.637499928474426,0.100000001490116
0.342989832162857,0.100000001490116
-0.000206422802876,0.100000001490116
-0.100879184901714,0.100000001490116
0.227463811635971,0.100000001490116
0.261752367019653,0.100000001490116
-0.172366127371788,0.100000001490116
-0.263253927230835,0.100000001490116
-0.483957707881927,0.100000001490116
0.159089341759682,0.100000001490116
0.189654529094696,0.100000001490116
-0.634231507778168,0.100000001490116
-0.416391193866730,0.100000001490116
0.474874526262283,0.100000001490116
0.055680811405182,0.100000001490116
0.011866136454046,0.100000001490116
0.803059816360474,0.100000001490116
0.097955964505672,0.100000001490116
-0.840408325195312,0.100000001490116
0.084992699325085,0.100000001490116
0.170222446322441,0.100000001490116
0.383109599351883,0.100000001490116
0.272491008043289,0.100000001490116
0.079894706606865,0.100000001490116
0.384643673896790,0.100000001490116
-0.639232218265533,0.100000001490116
0.486622929573059,0.100000001490116
0.050705362111330,0.100000001490116
0.262169033288956,0.100000001490116
0.089334674179554,0.100000001490116
-0.339107692241669,0.100000001490116
0.130035042762756,0.100000001490116
0.158611744642258,0.100000001490116
0.062200486660004,0.100000001490116
-0.391521424055099,0.100000001490116
0.041276309639215,0.100000001490116
-0.033004239201546,0.100000001490116
0.304546475410461,0.100000001490116
-0.761372268199921,0.100000001490116
0.059573210775852,0.100000001490116
0.383103281259537,0.100000001490116
-0.002613694639876,0.100000001490116
0.523779153823853,0.100000001490116
-0.495596021413803,0.100000001490116
0.055476807057858,0.100000001490116
-0.100773878395557,0.100000001490116
-0.053833279758692,0.100000001490116
0.089834190905094,0.100000001490116
0.209421113133430,0.100000001490116
-0.315192729234695,0.100000001490116
0.250278711318970,0.100000001490116
-0.419281870126724,0.100000001490116
-0.576729297637939,0.100000001490116
-0.029335783794522,0.100000001490116
0.099887765944004,0.100000001490116
0.325572162866592,0.100000001490116
0.099130548536777,0.100000001490116
0.340729504823685,0.100000001490116
0.189187899231911,0.100000001490116
0.372959762811661,0.100000001490116
-0.396672159433365,0.100000001490116
-0.085046462714672,0.100000001490116
-0.241240069270134,0.100000001490116
0.392147392034531,0.100000001490116
0.543740928173065,0.100000001490116
-0.355620980262756,0.100000001490116
-0.360548764467239,0.100000001490116
-0.052758030593395,0.100000001490116
-0.201417207717896,0.100000001490116
-0.459016829729080,0.100000001490116
-0.407591730356216,0.100000001490116
0.054060973227024,0.100000001490116
-0.428267687559128,0.100000001490116
0.072993032634258,0.100000001490116
-0.178096354007721,0.100000001490116
0.381308436393738,0.100000001490116
0.862350165843964,0.100000001490116
-0.159507110714912,0.100000001490116
0.032974075525999,0.100000001490116
-0.217270582914352,0.100000001490116
0.169063240289688,0.100000001490116
0.075410544872284,0.100000001490116
0.122636727988720,0.100000001490116
-0.292793720960617,0.100000001490116
0.307005912065506,0.100000001490116
0.271954417228699,0.100000001490116
0.157997176051140,0.100000001490116
-0.341697782278061,0.100000001490116
0.162625193595886,0.100000001490116
0.370975822210312,0.100000001490116
0.363517135381699,0.100000001490116
0.073512837290764,0.100000001490116
0.744199693202972,0.100000001490116
0.026195488870144,0.100000001490116
-0.353014588356018,0.100000001490116
-0.188287794589996,0.100000001490116
0.647316098213196,0.100000001490116
-0.086515113711357,0.100000001490116
0.313305318355560,0.100000001490116
0.371776789426804,0.100000001490116
-0.145684912800789,0.100000001490116
-0.238624840974808,0.100000001490116
0.217632412910461,0.100000001490116
0.099081918597221,0.100000001490116
0.301173269748688,0.100000001490116
-0.151990875601768,0.100000001490116
0.205831825733185,0.100000001490116
0.209266766905785,0.100000001490116
-0.060359742492437,0.100000001490116
0.220538854598999,0.100000001490116
0.401992291212082,0.100000001490116
0.113825686275959,0.100000001490116
0.159269541501999,0.100000001490116
0.441795766353607,0.100000001490116
-0.061576742678881,0.100000001490116
-0.303919970989227,0.100000001490116
0.340197294950485,0.100000001490116
0.407232701778412,0.100000001490116
0.044362861663103,0.100000001490116
-0.277232527732849,0.100000001490116
-0.463266611099243,0.100000001490116
-0.091297186911106,0.100000001490116
-0.087705820798874,0.100000001490116
-0.027099158614874,0.100000001490116
-0.464100688695908,0.100000001490116
-0.591507256031036,0.100000001490116
0.267818063497543,0.100000001490116
-0.248666584491730,0.100000001490116
0.793866515159607,0.100000001490116
-0.276165693998337,0.100000001490116
-0.343344777822495,0.100000001490116
0.023935522884130,0.100000001490116
-0.112386800348759,0.100000001490116
0.051108855754137,0.100000001490116
-0.067349575459957,0.100000001490116
-0.695842683315277,0.100000001490116
-0.184864029288292,0.100000001490116
0.042467515915632,0.100000001490116
-0.016129562631249,0.100000001490116
-0.343260943889618,0.100000001490116
-0.364162921905518,0.100000001490116
-0.497443407773972,0.100000001490116
0.576617598533630,0.100000001490116
-0.061065949499607,0.100000001490116
0.317369878292084,0.100000001490116
0.419762313365936,0.100000001490116
0.042470712214708,0.100000001490116
-0.581948637962341,0.100000001490116
-0.176493868231773,0.100000001490116
-0.180147945880890,0.100000001490116
0.177063286304474,0.100000001490116
-0.254202663898468,0.100000001490116
0.217572212219238,0.100000001490116
-0.131546005606651,0.100000001490116
-0.184455215930939,0.100000001490116
0.209507212042809,0.100000001490116
0.363588422536850,0.100000001490116
-0.173204109072685,0.100000001490116
-0.064718745648861,0.100000001490116
-0.264340072870255,0.100000001490116
-0.185058683156967,0.100000001490116
0.050518557429314,0.100000001490116
0.607169747352600,0.100000001490116
-0.028179135173559,0.100000001490116
0.238300040364265,0.100000001490116
-0.255280584096909,0.100000001490116
0.731561243534088,0.100000001490116
-0.702803194522858,0.100000001490116
1.171589970588684,0.100000001490116
-0.590845644474030,0.100000001490116
0.284243553876877,0.100000001490116
-0.476289063692093,0.100000001490116
-0.039657823741436,0.100000001490116
0.033990513533354,0.100000001490116
-0.543162226676941,0.100000001490116
0.123056270182133,0.100000001490116
0.180901870131493,0.100000001490116
0.259662330150604,0.100000001490116
-0.243999153375626,0.100000001490116
0.491315782070160,0.100000001490116
0.353871703147888,0.100000001490116
0.380681335926056,0.100000001490116
0.190381348133087,0.100000001490116
-0.348670542240143,0.100000001490116
-0.109312757849693,0.100000001490116
0.200515985488892,0.100000001490116
-0.368326276540756,0.100000001490116
0.694840669631958,0.100000001490116
-0.013152589090168,0.100000001490116
0.234456524252892,0.100000001490116
-0.237006783485413,0.100000001490116
0.083352185785770,0.100000001490116
-0.081772439181805,0.100000001490116
0.336859822273254,0.100000001490116
-0.166069984436035,0.100000001490116
-0.018046662211418,0.100000001490116
0.176983028650284,0.100000001490116
0.435655921697617,0.100000001490116
-0.053220245987177,0.100000001490116
-0.078142449259758,0.100000001490116
0.237594678997993,0.100000001490116
-0.028685811907053,0.100000001490116
-0.167421862483025,0.100000001490116
-0.560325205326080,0.100000001490116
0.194117933511734,0.100000001490116
-0.217165887355804,0.100000001490116
-0.074850760400295,0.100000001490116
0.332568854093552,0.100000001490116
-0.052185159176588,0.100000001490116
-0.312358826398849,0.100000001490116
0.567733824253082,0.100000001490116
-0.136031925678253,0.100000001490116
-0.106782637536526,0.100000001490116
0.143467739224434,0.100000001490116
0.101190067827702,0.100000001490116
0.553641080856323,0.100000001490116
-0.195660263299942,0.100000001490116
0.273717343807220,0.100000001490116
-0.678025186061859,0.100000001490116
-0.061229001730680,0.100000001490116
0.025044336915016,0.100000001490116
0.014626283198595,0.100000001490116
-0.626920580863953,0.100000001490116
-0.063521638512611,0.100000001490116
-0.344324141740799,0.100000001490116
0.442144066095352,0.100000001490116
0.475718080997467,0.100000001490116
-0.205694749951363,0.100000001490116
0.452586948871613,0.100000001490116
-0.010503794997931,0.100000001490116
-0.981242299079895,0.100000001490116
0.029651675373316,0.100000001490116
-0.285985052585602,0.100000001490116
-0.780617177486420,0.100000001490116
-0.296542614698410,0.100000001490116
-0.148427531123161,0.100000001490116
-0.006913673132658,0.100000001490116
-0.318322211503983,0.100000001490116
-0.228121921420097,0.100000001490116
-0.056432861834764,0.100000001490116
0.494877934455872,0.100000001490116
0.189317673444748,0.100000001490116
0.043688036501408,0.100000001490116
-0.274508446455002,0.100000001490116
0.277259796857834,0.100000001490116
0.125367298722267,0.100000001490116
0.015267158858478,0.100000001490116
0.007931820116937,0.100000001490116
-0.315950900316238,0.100000001490116
0.559287667274475,0.100000001490116
0.468765020370483,0.100000001490116
-0.206155732274055,0.100000001490116
-0.490257054567337,0.100000001490116
0.664795100688934,0.100000001490116
-0.494748085737228,0.100000001490116
-0.135580241680145,0.100000001490116
0.180679589509964,0.100000001490116
-0.052945781499147,0.100000001490116
0.190916195511818,0.100000001490116
-0.171732440590858,0.100000001490116
0.350096374750137,0.100000001490116
0.130182921886444,0.100000001490116
-0.194308951497078,0.100000001490116
0.544776439666748,0.100000001490116
-0.260949969291687,0.100000001490116
0.100343607366085,0.100000001490116
0.214433684945107,0.100000001490116
0.367797076702118,0.100000001490116
0.291394084692001,0.100000001490116
-0.501442849636078,0.100000001490116
0.408630937337875,0.100000001490116
-0.298921048641205,0.100000001490116
0.001129580778070,0.100000001490116
-0.347748130559921,0.100000001490116
0.074297808110714,0.100000001490116
-0.138768196105957,0.100000001490116
-0.298204571008682,0.100000001490116
-0.508375346660614,0.100000001490116
-0.276010215282440,0.100000001490116
0.250148534774780,0.100000001490116
0.015120553784072,0.100000001490116
-0.701526165008545,0.100000001490116
-0.287144422531128,0.100000001490116
-0.342134922742844,0.100000001490116
-0.326415598392487,0.100000001490116
-0.490728706121445,0.100000001490116
-0.391841471195221,0.100000001490116
0.264378845691681,0.100000001490116
-0.606445968151093,0.100000001490116
-0.207156375050545,0.100000001490116
0.311979830265045,0.100000001490116
0.685410559177399,0.100000001490116
-0.110427178442478,0.100000001490116
0.128222823143005,0.100000001490116
-0.473352432250977,0.100000001490116
-0.190771430730820,0.100000001490116
-0.342123091220856,0.100000001490116
-0.124428428709507,0.100000001490116
-0.054364785552025,0.100000001490116
-0.313102483749390,0.100000001490116
-0.097075641155243,0.100000001490116
-0.398659437894821,0.100000001490116
-0.324874341487885,0.100000001490116
-0.569557547569275,0.100000001490116
0.473677933216095,0.100000001490116
-0.138394549489021,0.100000001490116
0.441737592220306,0.100000001490116
0.171976611018181,0.100000001490116
0.074738234281540,0.100000001490116
-0.455745428800583,0.100000001490116
0.001774665783159,0.100000001490116
0.359640330076218,0.100000001490116
0.395643591880798,0.100000001490116
0.286134213209152,0.100000001490116
-0.033275611698627,0.100000001490116
0.054478075355291,0.100000001490116
-0.049903206527233,0.100000001490116
-0.411462545394897,0.100000001490116
0.511464416980743,0.100000001490116
-0.361672341823578,0.100000001490116
0.089178398251534,0.100000001490116
-0.049913719296455,0.100000001490116
0.439072370529175,0.100000001490116
0.710217356681824,0.100000001490116
0.188575461506844,0.100000001490116
0.094567365944386,0.100000001490116
-0.366245329380035,0.100000001490116
-0.125861465930939,0.100000001490116
0.266019135713577,0.100000001490116
-0.200883835554123,0.100000001490116
0.157556504011154,0.100000001490116
-0.335578382015228,0.100000001490116
-0.434568792581558,0.100000001490116
-0.061929710209370,0.100000001490116
0.238763839006424,0.100000001490116
-0.012825430370867,0.100000001490116
-0.492872714996338,0.100000001490116
0.152608826756477,0.100000001490116
0.391007989645004,0.100000001490116
0.381602108478546,0.100000001490116
0.262092828750610,0.100000001490116
-0.344092875719070,0.100000001490116
-0.486073583364487,0.100000001490116
-0.168427616357803,0.100000001490116
-0.055904943495989,0.100000001490116
-0.208656653761864,0.100000001490116
0.240247577428818,0.100000001490116
-0.086369812488556,0.100000001490116
0.574049830436707,0.100000001490116
-0.045456983149052,0.100000001490116
-0.993626832962036,0.100000001490116
-0.019332269206643,0.100000001490116
-0.487733721733093,0.100000001490116
-0.093852542340755,0.100000001490116
0.336701184511185,0.100000001490116
0.446453899145126,0.100000001490116
0.095108702778816,0.100000001490116
0.092464081943035,0.100000001490116
0.127540960907936,0.100000001490116
-0.034636497497559,0.100000001490116
-0.235464930534363,0.100000001490116
-0.079013273119926,0.100000001490116
-0.332024842500687,0.100000001490116
0.096587650477886,0.100000001490116
0.658362686634064,0.100000001490116
-0.153290897607803,0.100000001490116
0.413231730461121,0.100000001490116
0.013729790225625,0.100000001490116
0.067680269479752,0.100000001490116
-0.546754658222198,0.100000001490116
0.006155831273645,0.100000001490116
-0.097930103540421,0.100000001490116
-0.081984363496304,0.100000001490116
0.100257925689220,0.100000001490116
0.304048836231232,0.100000001490116
0.197017163038254,0.100000001490116
0.259137511253357,0.100000001490116
-0.081664755940437,0.100000001490116
-0.085789412260056,0.100000001490116
-0.247559353709221,0.100000001490116
0.639297485351562,0.100000001490116
-0.296655982732773,0.100000001490116
-0.301695525646210,0.100000001490116
0.104327946901321,0.100000001490116
0.102774359285831,0.100000001490116
-0.139180481433868,0.100000001490116
0.236105084419250,0.100000001490116
0.014731410890818,0.100000001490116
-0.027452649548650,0.100000001490116
0.110995918512344,0.100000001490116
-0.302309632301331,0.100000001490116
0.472581773996353,0.100000001490116
-0.216587617993355,0.100000001490116
-0.082933232188225,0.100000001490116
0.333885073661804,0.100000001490116
-0.117497034370899,0.100000001490116
0.060620229691267,0.100000001490116
0.131223395466805,0.100000001490116
-0.045883662998676,0.100000001490116
-0.153065890073776,0.100000001490116
0.336554974317551,0.100000001490116
0.561130464076996,0.100000001490116
-0.167666807770729,0.100000001490116
-0.150567546486855,0.100000001490116
0.833001315593719,0.100000001490116
0.038830254226923,0.100000001490116
-0.118456184864044,0.100000001490116
0.118428871035576,0.100000001490116
-0.229650482535362,0.100000001490116
-0.522229254245758,0.100000001490116
0.685674667358398,0.100000001490116
0.001814220799133,0.100000001490116
-0.583546340465546,0.100000001490116
-0.797903716564178,0.100000001490116
0.461358726024628,0.100000001490116
-0.293746769428253,0.100000001490116
0.259695351123810,0.100000001490116
-0.046490006148815,0.100000001490116
0.304385036230087,0.100000001490116
-0.249733984470367,0.100000001490116
-0.316176354885101,0.100000001490116
-0.695525527000427,0.100000001490116
0.287289053201675,0.100000001490116
-0.068261764943600,0.100000001490116
-0.394851952791214,0.100000001490116
-0.457259565591812,0.100000001490116
-0.144525513052940,0.100000001490116
0.204946637153625,0.100000001490116
-0.263048648834229,0.100000001490116
0.311822146177292,0.100000001490116
0.152705729007721,0.100000001490116
0.045646049082279,0.100000001490116
-0.303775817155838,0.100000001490116
0.381521433591843,0.100000001490116
0.334817111492157,0.100000001490116
-0.229054391384125,0.100000001490116
-0.493389636278152,0.100000001490116
0.081182107329369,0.100000001490116
0.233928218483925,0.100000001490116
-0.299443572759628,0.100000001490116
0.306009232997894,0.100000001490116
-0.205757915973663,0.100000001490116
-0.216239258646965,0.100000001490116
-0.115322530269623,0.100000001490116
-0.183092474937439,0.100000001490116
0.237135767936707,0.100000001490116
0.006973582319915,0.100000001490116
0.423528105020523,0.100000001490116
-0.332596570253372,0.100000001490116
-0.173387035727501,0.100000001490116
0.161985650658607,0.100000001490116
-0.022196741774678,0.100000001490116
-0.333233147859573,0.100000001490116
-0.471261054277420,0.100000001490116
-0.210321739315987,0.100000001490116
-0.007413161452860,0.100000001490116
-0.463672965764999,0.100000001490116
-0.370078176259995,0.100000001490116
-0.257333606481552,0.100000001490116
-0.109562858939171,0.100000001490116
-0.382227420806885,0.100000001490116
-0.365230113267899,0.100000001490116
-0.162990570068359,0.100000001490116
0.013498843647540,0.100000001490116
0.490618288516998,0.100000001490116
0.475569158792496,0.100000001490116
-0.119331762194633,0.100000001490116
0.334690213203430,0.100000001490116
-0.100001432001591,0.100000001490116
-0.301952719688416,0.100000001490116
0.127863943576813,0.100000001490116
0.242631196975708,0.100000001490116
0.584862887859344,0.100000001490116
-0.292329430580139,0.100000001490116
0.346914649009705,0.100000001490116
-0.675909817218781,0.100000001490116
0.046188544481993,0.100000001490116
0.435885518789291,0.100000001490116
-0.079324267804623,0.100000001490116
0.309722453355789,0.100000001490116
0.155009403824806,0.100000001490116
0.237162083387375,0.100000001490116
0.095350719988346,0.100000001490116
-0.025922236964107,0.100000001490116
0.347461014986038,0.100000001490116
-0.291407436132431,0.100000001490116
0.315224081277847,0.100000001490116
0.491357713937759,0.100000001490116
-0.037297375500202,0.100000001490116
-0.158586338162422,0.100000001490116
0.228543296456337,0.100000001490116
0.323691815137863,0.100000001490116
0.346274077892303,0.100000001490116
0.267151445150375,0.100000001490116
0.234365791082382,0.100000001490116
0.293361335992813,0.100000001490116
-0.264798194169998,0.100000001490116
0.048353891819715,0.100000001490116
-0.276000022888184,0.100000001490116
-0.120424970984459,0.100000001490116
-0.083302967250347,0.100000001490116
-0.346395462751389,0.100000001490116
1.207809567451477,0.100000001490116
0.272367775440216,0.100000001490116
-0.569371759891510,0.100000001490116
0.088991932570934,0.100000001490116
-0.306391328573227,0.100000001490116
0.552138447761536,0.100000001490116
-0.388248831033707,0.100000001490116
0.529367268085480,0.100000001490116
-0.115520559251308,0.100000001490116
0.247528091073036,0.100000001490116
-0.536941349506378,0.100000001490116
-0.179968148469925,0.100000001490116
0.328758895397186,0.100000001490116
-0.476092636585236,0.100000001490116
-0.286318421363831,0.100000001490116
-0.277750402688980,0.100000001490116
0.062167491763830,0.100000001490116
-0.206600666046143,0.100000001490116
-0.199277356266975,0.100000001490116
-0.462196290493011,0.100000001490116
-0.161841809749603,0.100000001490116
-0.124820485711098,0.100000001490116
0.520797491073608,0.100000001490116
0.282653570175171,0.100000001490116
0.565048038959503,0.100000001490116
0.124069347977638,0.100000001490116
0.435780376195908,0.100000001490116
0.021504415199161,0.100000001490116
-0.612699270248413,0.100000001490116
-0.108709022402763,0.100000001490116
0.182778596878052,0.100000001490116
-0.384638011455536,0.100000001490116
0.466384887695312,0.100000001490116
0.467084050178528,0.100000001490116
-0.666549205780029,0.100000001490116
0.175888910889626,0.100000001490116
-0.312754124403000,0.100000001490116
0.553405761718750,0.100000001490116
0.347773909568787,0.100000001490116
-0.183089554309845,0.100000001490116
0.040923524647951,0.100000001490116
0.239236012101173,0.100000001490116
0.070161312818527,0.100000001490116
-0.339786201715469,0.100000001490116
0.154712989926338,0.100000001490116
0.454223155975342,0.100000001490116
-0.157924175262451,0.100000001490116
-0.193295508623123,0.100000001490116
0.114240102469921,0.100000001490116
-0.043825808912516,0.100000001490116
-0.435632437467575,0.100000001490116
0.171845704317093,0.100000001490116
0.321027487516403,0.100000001490116
0.316620051860809,0.100000001490116
0.071176774799824,0.100000001490116
0.200445979833603,0.100000001490116
0.092228211462498,0.100000001490116
0.124796494841576,0.100000001490116
-0.333855509757996,0.100000001490116
0.243518501520157,0.100000001490116
0.014184977859259,0.100000001490116
0.291554033756256,0.100000001490116
-0.401689350605011,0.100000001490116
0.113659560680389,0.100000001490116
-0.251302063465118,0.100000001490116
0.692412734031677,0.100000001490116
0.009684061631560,0.100000001490116
-0.169897526502609,0.100000001490116
0.270496040582657,0.100000001490116
-0.212612435221672,0.100000001490116
0.430423736572266,0.100000001490116
0.152221217751503,0.100000001490116
-0.128138348460197,0.100000001490116
-0.382220178842545,0.100000001490116
-0.353979825973511,0.100000001490116
0.576805651187897,0.100000001490116
0.424428135156631,0.100000001490116
0.026601338759065,0.100000001490116
-0.110899388790131,0.100000001490116
0.375523895025253,0.100000001490116
-0.452560931444168,0.100000001490116
0.039442125707865,0.100000001490116
0.380646616220474,0.100000001490116
-0.360300689935684,0.100000001490116
0.149561107158661,0.100000001490116
-0.138089463114738,0.100000001490116
-0.216147661209106,0.100000001490116
-0.111081197857857,0.100000001490116
-0.260899394750595,0.100000001490116
-0.082350648939610,0.100000001490116
0.568459212779999,0.100000001490116
0.016441436484456,0.100000001490116
-0.158288717269897,0.100000001490116
-0.007304909173399,0.100000001490116
-0.142963886260986,0.100000001490116
-0.529276907444000,0.100000001490116
-0.032286342233419,0.100000001490116
-0.340728521347046,0.100000001490116
0.130440846085548,0.100000001490116
0.504854023456573,0.100000001490116
0.219559445977211,0.100000001490116
-0.341071665287018,0.100000001490116
-0.251922577619553,0.100000001490116
-0.450141340494156,0.100000001490116
-0.022666221484542,0.100000001490116
0.047752302139997,0.100000001490116
-0.201121494174004,0.100000001490116
-0.247782096266747,0.100000001490116
0.297117352485657,0.100000001490116
-0.312132835388184,0.100000001490116
0.409363746643066,0.100000001490116
0.074294574558735,0.100000001490116
-0.085781097412109,0.100000001490116
0.689819991588593,0.100000001490116
0.215177476406097,0.100000001490116
0.233802989125252,0.100000001490116
-0.201061427593231,0.100000001490116
0.309491842985153,0.100000001490116
0.403828918933868,0.100000001490116
0.118784338235855,0.100000001490116
0.162753671407700,0.100000001490116
0.137367248535156,0.100000001490116
0.344937652349472,0.100000001490116
-0.644756972789764,0.100000001490116
0.284151673316956,0.100000001490116
0.230515763163567,0.100000001490116
-0.268768787384033,0.100000001490116
0.149778515100479,0.100000001490116
0.131709679961205,0.100000001490116
0.183586224913597,0.100000001490116
-0.658563256263733,0.100000001490116
-0.659443795681000,0.100000001490116
-0.562792420387268,0.100000001490116
0.366601467132568,0.100000001490116
0.174295559525490,0.100000001490116
0.035005614161491,0.100000001490116
-0.100003525614738,0.100000001490116
0.176081106066704,0.100000001490116
0.336893677711487,0.100000001490116
-0.333554834127426,0.100000001490116
-0.071202673017979,0.100000001490116
-0.018815444782376,0.100000001490116
-0.389208167791367,0.100000001490116
0.209705755114555,0.100000001490116
0.249065920710564,0.100000001490116
-0.299804180860519,0.100000001490116
0.022119132801890,0.100000001490116
-0.007703577633947,0.100000001490116
0.407620847225189,0.100000001490116
-0.288929790258408,0.100000001490116
0.000038896279875,0.100000001490116
-0.281128942966461,0.100000001490116
0.498038083314896,0.100000001490116
-0.659784793853760,0.100000001490116
-0.387197464704514,0.100000001490116
0.171910166740417,0.100000001490116
-0.306187808513641,0.100000001490116
0.238406449556351,0.100000001490116
-0.133599728345871,0.100000001490116
-0.046580325812101,0.100000001490116
-0.283708363771439,0.100000001490116
-0.297963261604309,0.100000001490116
0.156995519995689,0.100000001490116
-0.136952921748161,0.100000001490116
0.158459126949310,0.100000001490116
0.168203413486481,0.100000001490116
0.278052866458893,0.100000001490116
0.151090070605278,0.100000001490116
-0.299851566553116,0.100000001490116
-0.061919961124659,0.100000001490116
-0.200951293110847,0.100000001490116
0.111346088349819,0.100000001490116
-0.395584732294083,0.100000001490116
0.343959391117096,0.100000001490116
-0.010815242305398,0.100000001490116
-0.494919419288635,0.100000001490116
0.407150149345398,0.100000001490116
0.312059581279755,0.100000001490116
-0.084995590150356,0.100000001490116
-0.454012215137482,0.100000001490116
-0.081132188439369,0.100000001490116
-0.131039083003998,0.100000001490116
-0.374770909547806,0.100000001490116
-0.034841671586037,0.100000001490116
-0.112615779042244,0.100000001490116
0.027608959004283,0.100000001490116
0.533994317054749,0.100000001490116
0.509931981563568,0.100000001490116
-0.239177331328392,0.100000001490116
-0.116869710385799,0.100000001490116
0.609710454940796,0.100000001490116
-0.183392658829689,0.100000001490116
-0.457824766635895,0.100000001490116
-0.240442350506783,0.100000001490116
-0.572509944438934,0.100000001490116
0.724722743034363,0.100000001490116
0.140033364295959,0.100000001490116
0.860721290111542,0.100000001490116
0.478529542684555,0.100000001490116
-0.559132635593414,0.100000001490116
-0.276159137487411,0.100000001490116
0.028512785211205,0.100000001490116
0.372268199920654,0.100000001490116
-0.540807723999023,0.100000001490116
0.107463747262955,0.100000001490116
-0.397844195365906,0.100000001490116
-0.577333092689514,0.100000001490116
0.111897252500057,0.100000001490116
-0.482332259416580,0.100000001490116
-0.331078648567200,0.100000001490116
0.678133308887482,0.100000001490116
0.146455973386765,0.100000001490116
0.068429827690125,0.100000001490116
0.491000920534134,0.100000001490116
-0.267761141061783,0.100000001490116
0.161558628082275,0.100000001490116
-0.074730336666107,0.100000001490116
-0.266739755868912,0.100000001490116
0.351911664009094,0.100000001490116
0.132619485259056,0.100000001490116
0.114805445075035,0.100000001490116
-0.781077086925507,0.100000001490116
0.497025161981583,0.100000001490116
-0.741262793540955,0.100000001490116
0.710556626319885,0.100000001490116
0.259560823440552,0.100000001490116
-0.427534520626068,0.100000001490116
-0.086084268987179,0.100000001490116
0.191337496042252,0.100000001490116
-0.171142801642418,0.100000001490116
0.095354728400707,0.100000001490116
-0.551675856113434,0.100000001490116
0.255158901214600,0.100000001490116
-0.017161492258310,0.100000001490116
0.013468706049025,0.100000001490116
0.287078082561493,0.100000001490116
0.331028848886490,0.100000001490116
0.446206957101822,0.100000001490116
-0.311098963022232,0.100000001490116
0.170982658863068,0.100000001490116
-0.227516189217567,0.100000001490116
-0.004893723409623,0.100000001490116
0.418938159942627,0.100000001490116
0.117743603885174,0.100000001490116
-0.116482667624950,0.100000001490116
0.066703751683235,0.100000001490116
0.024308953434229,0.100000001490116
-0.071532890200615,0.100000001490116
0.118290394544601,0.100000001490116
0.160619363188744,0.100000001490116
0.030994040891528,0.100000001490116
-0.249056845903397,0.100000001490116
0.305375814437866,0.100000001490116
-0.176882386207581,0.100000001490116
0.050835277885199,0.100000001490116
0.310108810663223,0.100000001490116
0.153789564967155,0.100000001490116
0.280804127454758,0.100000001490116
-0.027503265067935,0.100000001490116
0.140651479363441,0.100000001490116
0.320951014757156,0.100000001490116
0.259013921022415,0.100000001490116
-0.090648867189884,0.100000001490116
0.001436815131456,0.100000001490116
-0.321908175945282,0.100000001490116
0.426843941211700,0.100000001490116
0.540682435035706,0.100000001490116
-0.207300692796707,0.100000001490116
0.502450585365295,0.100000001490116
0.579099059104919,0.100000001490116
0.443169444799423,0.100000001490116
-0.052623100578785,0.100000001490116
-0.223506361246109,0.100000001490116
0.049560721963644,0.100000001490116
0.085521340370178,0.100000001490116
0.011835040524602,0.100000001490116
-0.027695827186108,0.100000001490116
0.169535234570503,0.100000001490116
-0.036347251385450,0.100000001490116
-0.109295472502708,0.100000001490116
-0.006290077231824,0.100000001490116
0.507001340389252,0.100000001490116
-0.756654798984528,0.100000001490116
0.230438366532326,0.100000001490116
0.254786103963852,0.100000001490116
-0.313337266445160,0.100000001490116
0.077158838510513,0.100000001490116
0.094630941748619,0.100000001490116
-0.013330590911210,0.100000001490116
-0.213502764701843,0.100000001490116
-0.056892994791269,0.100000001490116
-0.058591339737177,0.100000001490116
-0.205033138394356,0.100000001490116
-0.218617781996727,0.100000001490116
0.761732637882233,0.100000001490116
-0.133793398737907,0.100000001490116
-0.164230525493622,0.100000001490116
0.189918741583824,0.100000001490116
-0.242335036396980,0.100000001490116
-0.303686171770096,0.100000001490116
0.409095734357834,0.100000001490116
-0.076522856950760,0.100000001490116
0.223083183169365,0.100000001490116
0.015327944420278,0.100000001490116
-0.337890595197678,0.100000001490116
-0.118532665073872,0.100000001490116
-0.179605409502983,0.100000001490116
-0.053178422152996,0.100000001490116
0.505417943000793,0.100000001490116
0.220705494284630,0.100000001490116
0.599750101566315,0.100000001490116
0.100942686200142,0.100000001490116
-0.019233724102378,0.100000001490116
0.693844497203827,0.100000001490116
-0.167743161320686,0.100000001490116
-0.202443480491638,0.100000001490116
-0.216421619057655,0.100000001490116
0.276868492364883,0.100000001490116
0.161673858761787,0.100000001490116
-0.092522531747818,0.100000001490116
-0.760899007320404,0.100000001490116
-0.162516787648201,0.100000001490116
-0.059185661375523,0.100000001490116
0.079853400588036,0.100000001490116
-0.190820828080177,0.100000001490116
-0.460490375757217,0.100000001490116
0.464432090520859,0.100000001490116
-0.143112704157829,0.100000001490116
-0.305600911378860,0.100000001490116
0.140160098671913,0.100000001490116
0.795650124549866,0.100000001490116
-0.088824123144150,0.100000001490116
0.166305914521217,0.100000001490116
0.116305232048035,0.100000001490116
0.512236118316650,0.100000001490116
-0.556130111217499,0.100000001490116
0.965674877166748,0.100000001490116
0.531494557857513,0.100000001490116
-0.508628070354462,0.100000001490116
-0.080225944519043,0.100000001490116
-0.420734405517578,0.100000001490116
-0.146185040473938,0.100000001490116
0.785745680332184,0.100000001490116
-0.397209852933884,0.100000001490116
0.142565250396729,0.100000001490116
0.363141685724258,0.100000001490116
-0.474548518657684,0.100000001490116
-0.018155217170715,0.100000001490116
-0.297332614660263,0.100000001490116
-0.558949768543243,0.100000001490116
-0.231138288974762,0.100000001490116
-0.285567343235016,0.100000001490116
-0.259906291961670,0.100000001490116
0.012674360536039,0.100000001490116
0.114923074841499,0.100000001490116
-0.083679884672165,0.100000001490116
-0.043970096856356,0.100000001490116
0.239392489194870,0.100000001490116
0.154742658138275,0.100000001490116
0.094879359006882,0.100000001490116
-0.238329544663429,0.100000001490116
-0.405689001083374,0.100000001490116
0.080955483019352,0.100000001490116
0.592703342437744,0.100000001490116
-0.068932063877583,0.100000001490116
0.391302824020386,0.100000001490116
-0.698417842388153,0.100000001490116
0.186315312981606,0.100000001490116
0.566843032836914,0.100000001490116
0.048183597624302,0.100000001490116
0.460794270038605,0.100000001490116
0.249169811606407,0.100000001490116
0.048297546803951,0.100000001490116
0.194229423999786,0.100000001490116
0.108950987458229,0.100000001490116
0.270289510488510,0.100000001490116
-0.125540256500244,0.100000001490116
0.337851494550705,0.100000001490116
0.157417714595795,0.100000001490116
0.154245540499687,0.100000001490116
-0.488340914249420,0.100000001490116
-0.007359126117080,0.100000001490116
-0.334847629070282,0.100000001490116
0.047513145953417,0.100000001490116
-0.122373320162296,0.100000001490116
0.529234111309052,0.100000001490116
0.247797742486000,0.100000001490116
-0.106015361845493,0.100000001490116
-0.140974834561348,0.100000001490116
0.207386836409569,0.100000001490116
-0.174525231122971,0.100000001490116
-0.306474834680557,0.100000001490116
0.024505130946636,0.100000001490116
-0.269812643527985,0.100000001490116
0.362721800804138,0.100000001490116
-0.055070511996746,0.100000001490116
0.246097728610039,0.100000001490116
-0.275463014841080,0.100000001490116
-0.411152988672256,0.100000001490116
-0.535970687866211,0.100000001490116
-0.108524657785892,0.100000001490116
-0.033047240227461,0.100000001490116
-0.284031301736832,0.100000001490116
-0.585306823253632,0.100000001490116
0.567677497863770,0.100000001490116
-0.363105207681656,0.100000001490116
0.036422390490770,0.100000001490116
0.264404654502869,0.100000001490116
0.114202328026295,0.100000001490116
-0.076966792345047,0.100000001490116
0.068274468183517,0.100000001490116
0.052886754274368,0.100000001490116
0.289191603660583,0.100000001490116
0.235320419073105,0.100000001490116
-0.406039744615555,0.100000001490116
-0.127192959189415,0.100000001490116
0.413378357887268,0.100000001490116
-0.044306531548500,0.100000001490116
0.416672110557556,0.100000001490116
-0.015527016483247,0.100000001490116
0.132717460393906,0.100000001490116
0.074148803949356,0.100000001490116
0.148738309741020,0.100000001490116
0.172586932778358,0.100000001490116
0.162934914231300,0.100000001490116
0.015978541225195,0.100000001490116
-0.213648363947868,0.100000001490116
-0.053002409636974,0.100000001490116
0.063455313444138,0.100000001490116
0.199606940150261,0.100000001490116
0.022918771952391,0.100000001490116
0.510220885276794,0.100000001490116
-0.588242471218109,0.100000001490116
0.020558778196573,0.100000001490116
-0.534979343414307,0.100000001490116
0.402905136346817,0.100000001490116
0.024692589417100,0.100000001490116
0.143947869539261,0.100000001490116
0.344399750232697,0.100000001490116
0.480822324752808,0.100000001490116
-0.365024715662003,0.100000001490116
0.052942212671041,0.100000001490116
0.536334633827209,0.100000001490116
0.031715985387564,0.100000001490116
0.077732481062412,0.100000001490116
-0.147602736949921,0.100000001490116
-0.283532023429871,0.100000001490116
-0.298301845788956,0.100000001490116
-0.145682007074356,0.100000001490116
-0.176279783248901,0.100000001490116
-0.123387895524502,0.100000001490116
-0.071883752942085,0.100000001490116
0.610493659973145,0.100000001490116
-0.086906842887402,0.100000001490116
-0.082573071122169,0.100000001490116
-0.289393991231918,0.100000001490116
0.304852783679962,0.100000001490116
0.351988703012466,0.100000001490116
0.016848152503371,0.100000001490116
-0.041674491018057,0.100000001490116
0.700342535972595,0.100000001490116
-0.809092104434967,0.100000001490116
-0.569658994674683,0.100000001490116
0.117248043417931,0.100000001490116
-0.190291568636894,0.100000001490116
0.049922842532396,0.100000001490116
0.184825912117958,0.100000001490116
0.144626751542091,0.100000001490116
0.017350740730762,0.100000001490116
0.233420044183731,0.100000001490116
0.173592269420624,0.100000001490116
-0.310760825872421,0.100000001490116
0.694228887557983,0.100000001490116
0.467234075069427,0.100000001490116
-0.108351878821850,0.100000001490116
-0.123950548470020,0.100000001490116
-0.103058822453022,0.100000001490116
-0.093356184661388,0.100000001490116
0.106927797198296,0.100000001490116
0.245474293828011,0.100000001490116
0.002928295172751,0.100000001490116
-0.129305556416512,0.100000001490116
0.265918105840683,0.100000001490116
0.076679445803165,0.100000001490116
0.064555622637272,0.100000001490116
-0.133856475353241,0.100000001490116
0.307246655225754,0.100000001490116
0.389759600162506,0.100000001490116
0.283490806818008,0.100000001490116
-0.335160553455353,0.100000001490116
-0.107210762798786,0.100000001490116
-0.201783180236816,0.100000001490116
0.313399404287338,0.100000001490116
0.345108211040497,0.100000001490116
0.055584702640772,0.100000001490116
0.379061192274094,0.100000001490116
0.004059684928507,0.100000001490116
-0.412029683589935,0.100000001490116
-0.083053745329380,0.100000001490116
0.432461380958557,0.100000001490116
0.844093978404999,0.100000001490116
-0.056676730513573,0.100000001490116
-0.177704751491547,0.100000001490116
-0.446945905685425,0.100000001490116
-0.045502811670303,0.100000001490116
-0.124113529920578,0.100000001490116
0.111769609153271,0.100000001490116
-0.337381482124329,0.100000001490116
0.084314569830894,0.100000001490116
-0.169263079762459,0.100000001490116
0.162742167711258,0.100000001490116
0.107075467705727,0.100000001490116
-0.070829674601555,0.100000001490116
0.128071650862694,0.100000001490116
0.215886563062668,0.100000001490116
-0.270098835229874,0.100000001490116
-0.420063495635986,0.100000001490116
0.117480136454105,0.100000001490116
-0.420394390821457,0.100000001490116
0.255419939756393,0.100000001490116
0.144163578748703,0.100000001490116
-0.020641397684813,0.100000001490116
0.078750498592854,0.100000001490116
-0.742349624633789,0.100000001490116
0.292463153600693,0.100000001490116
-0.225620731711388,0.100000001490116
0.276444256305695,0.100000001490116
0.251841962337494,0.100000001490116
-0.085822433233261,0.100000001490116
0.160264432430267,0.100000001490116
-0.186823830008507,0.100000001490116
0.023161236196756,0.100000001490116
-0.010228819213808,0.100000001490116
0.046803660690784,0.100000001490116
0.074308641254902,0.100000001490116
-0.265421479940414,0.100000001490116
0.481467515230179,0.100000001490116
-0.100134499371052,0.100000001490116
-0.270664811134338,0.100000001490116
0.211287871003151,0.100000001490116
-0.303571075201035,0.100000001490116
-0.391454309225082,0.100000001490116
0.104465156793594,0.100000001490116
0.258798629045486,0.100000001490116
0.671767413616180,0.100000001490116
0.431969732046127,0.100000001490116
0.356266200542450,0.100000001490116
0.021727874875069,0.100000001490116
0.025818824768066,0.100000001490116
-0.076816901564598,0.100000001490116
-0.239833161234856,0.100000001490116
-0.033420976251364,0.100000001490116
-0.054026287049055,0.100000001490116
0.083395585417747,0.100000001490116
-0.497028589248657,0.100000001490116
-0.008172268047929,0.100000001490116
-0.275751709938049,0.100000001490116
0.537841498851776,0.100000001490116
-0.268322557210922,0.100000001490116
-0.155403152108192,0.100000001490116
0.168624758720398,0.100000001490116
0.091866500675678,0.100000001490116
0.182748436927795,0.100000001490116
-0.604383707046509,0.100000001490116
0.546411275863647,0.100000001490116
0.282032191753387,0.100000001490116
-0.044926509261131,0.100000001490116
0.104046836495399,0.100000001490116
-0.433064579963684,0.100000001490116
0.020692514255643,0.100000001490116
0.111437410116196,0.100000001490116
0.164003774523735,0.100000001490116
0.011689363978803,0.100000001490116
-0.197121456265450,0.100000001490116
-0.134603545069695,0.100000001490116
-0.006374439690262,0.100000001490116
-0.201859980821609,0.100000001490116
-0.230587765574455,0.100000001490116
-0.175017446279526,0.100000001490116
0.214707046747208,0.100000001490116
0.002957287942991,0.100000001490116
-0.280663251876831,0.100000001490116
-0.612176358699799,0.100000001490116
-0.399787187576294,0.100000001490116
-0.358248174190521,0.100000001490116
-0.004604351706803,0.100000001490116
-0.081767015159130,0.100000001490116
0.300842463970184,0.100000001490116
-0.117314830422401,0.100000001490116
-0.086713947355747,0.100000001490116
-0.024639297276735,0.100000001490116
-0.021967032924294,0.100000001490116
-0.252350300550461,0.100000001490116
-0.161631703376770,0.100000001490116
-0.055219434201717,0.100000001490116
-0.502911090850830,0.100000001490116
-0.493982464075089,0.100000001490116
0.038014438003302,0.100000001490116
-0.363934069871902,0.100000001490116
0.213948652148247,0.100000001490116
0.031761363148689,0.100000001490116
-0.138696804642677,0.100000001490116
0.385212630033493,0.100000001490116
0.207847878336906,0.100000001490116
-0.084117449820042,0.100000001490116
0.428814947605133,0.100000001490116
-0.229643478989601,0.100000001490116
-0.445547014474869,0.100000001490116
-0.195247337222099,0.100000001490116
-0.392668485641479,0.100000001490116
-0.268956661224365,0.100000001490116
-0.050445031374693,0.100000001490116
-0.068797469139099,0.100000001490116
0.457240313291550,0.100000001490116
-0.364693194627762,0.100000001490116
-0.028001654893160,0.100000001490116
-0.205820471048355,0.100000001490116
-0.106033846735954,0.100000001490116
0.253632694482803,0.100000001490116
0.070266045629978,0.100000001490116
-0.172934308648109,0.100000001490116
0.395296961069107,0.100000001490116
0.621742486953735,0.100000001490116
0.148195579648018,0.100000001490116
0.540446579456329,0.100000001490116
0.003892663400620,0.100000001490116
0.194589436054230,0.100000001490116
-0.091402068734169,0.100000001490116
-0.412660330533981,0.100000001490116
0.159630626440048,0.100000001490116
0.313174873590469,0.100000001490116
0.445244878530502,0.100000001490116
0.253409385681152,0.100000001490116
0.119747273623943,0.100000001490116
0.131719470024109,0.100000001490116
0.374988675117493,0.100000001490116
-0.423450946807861,0.100000001490116
0.461168885231018,0.100000001490116
0.140678599476814,0.100000001490116
-0.117927253246307,0.100000001490116
-0.641349017620087,0.100000001490116
-0.468111515045166,0.100000001490116
-0.222756490111351,0.100000001490116
0.092159055173397,0.100000001490116
0.089301243424416,0.100000001490116
0.634517729282379,0.100000001490116
0.382125139236450,0.100000001490116
-0.049969032406807,0.100000001490116
-0.174423977732658,0.100000001490116
-0.132073506712914,0.100000001490116
0.039796337485313,0.100000001490116
0.141276687383652,0.100000001490116
-0.041858825832605,0.100000001490116
-0.338653057813644,0.100000001490116
-0.285010010004044,0.100000001490116
-0.389748662710190,0.100000001490116
-0.734331190586090,0.100000001490116
-0.438016086816788,0.100000001490116
-0.340339779853821,0.100000001490116
-0.053881824016571,0.100000001490116
0.048353895545006,0.100000001490116
0.428615301847458,0.100000001490116
-0.441648334264755,0.100000001490116
-0.077220790088177,0.100000001490116
0.402703523635864,0.100000001490116
0.057587083429098,0.100000001490116
-0.349602729082108,0.100000001490116
-0.159368783235550,0.100000001490116
-0.070413380861282,0.100000001490116
-0.368762135505676,0.100000001490116
-0.121544651687145,0.100000001490116
0.142422094941139,0.100000001490116
-0.158884748816490,0.100000001490116
0.276117712259293,0.100000001490116
-0.003535316325724,0.100000001490116
0.394189417362213,0.100000001490116
0.446307867765427,0.100000001490116
0.442235797643661,0.100000001490116
0.242467492818832,0.100000001490116
0.400416404008865,0.100000001490116
0.283703714609146,0.100000001490116
0.158837050199509,0.100000001490116
-0.363094389438629,0.100000001490116
-0.439970761537552,0.100000001490116
0.084601446986198,0.100000001490116
-0.081528022885323,0.100000001490116
0.697426259517670,0.100000001490116
-0.041829250752926,0.100000001490116
-0.219433501362801,0.100000001490116
-0.206910058856010,0.100000001490116
-0.216840311884880,0.100000001490116
-0.070585012435913,0.100000001490116
0.088297970592976,0.100000001490116
0.315868735313416,0.100000001490116
-0.053811870515347,0.100000001490116
-0.222948029637337,0.100000001490116
-0.136857151985168,0.100000001490116
-0.009415569715202,0.100000001490116
-0.384484946727753,0.100000001490116
0.498363614082336,0.100000001490116
0.293743401765823,0.100000001490116
0.114308118820190,0.100000001490116
-0.117926381528378,0.100000001490116
-0.102016143500805,0.100000001490116
0.168337523937225,0.100000001490116
-0.226949259638786,0.100000001490116
-0.179509863257408,0.100000001490116
-0.273300796747208,0.100000001490116
-0.206384867429733,0.100000001490116
-0.497539192438126,0.100000001490116
-0.232337802648544,0.100000001490116
-0.291129648685455,0.100000001490116
-0.059139531105757,0.100000001490116
0.303005069494247,0.100000001490116
0.333182036876678,0.100000001490116
-0.203825473785400,0.100000001490116
-0.313041687011719,0.100000001490116
0.320877641439438,0.100000001490116
0.150470659136772,0.100000001490116
-0.355496585369110,0.100000001490116
-0.156470179557800,0.100000001490116
0.382855802774429,0.100000001490116
-0.202035695314407,0.100000001490116
0.249967575073242,0.100000001490116
0.345115810632706,0.100000001490116
0.196049094200134,0.100000001490116
0.262765765190125,0.100000001490116
-0.087194576859474,0.100000001490116
-0.212094619870186,0.100000001490116
-0.363347709178925,0.100000001490116
0.492865383625031,0.100000001490116
-0.469907224178314,0.100000001490116
0.043296013027430,0.100000001490116
-0.004123101010919,0.100000001490116
0.155744016170502,0.100000001490116
0.151429846882820,0.100000001490116
-0.478060036897659,0.100000001490116
-0.359030216932297,0.100000001490116
0.122352428734303,0.100000001490116
-0.284550249576569,0.100000001490116
0.392485976219177,0.100000001490116
-0.341503947973251,0.100000001490116
0.384967058897018,0.100000001490116
0.422171264886856,0.100000001490116
-0.009745704010129,0.100000001490116
-0.042906928807497,0.100000001490116
0.381205141544342,0.100000001490116
0.240431293845177,0.100000001490116
-0.113968208432198,0.100000001490116
0.046183563768864,0.100000001490116
-0.011116863228381,0.100000001490116
0.433819591999054,0.100000001490116
-0.321140050888062,0.100000001490116
-0.165683463215828,0.100000001490116
0.243132352828979,0.100000001490116
-0.163205161690712,0.100000001490116
-0.200991168618202,0.100000001490116
0.201345399022102,0.100000001490116
-0.273982226848602,0.100000001490116
0.022170823067427,0.100000001490116
0.273877322673798,0.100000001490116
-0.302596300840378,0.100000001490116
-0.412577658891678,0.100000001490116
0.346749186515808,0.100000001490116
0.264320135116577,0.100000001490116
0.129221126437187,0.100000001490116
-0.523921430110931,0.100000001490116
-0.212221086025238,0.100000001490116
0.100546725094318,0.100000001490116
0.002865209011361,0.100000001490116
0.290377229452133,0.100000001490116
-0.979817330837250,0.100000001490116
0.068394422531128,0.100000001490116
-0.214173182845116,0.100000001490116
-0.422247201204300,0.100000001490116
-0.311140954494476,0.100000001490116
0.487239271402359,0.100000001490116
-0.228543773293495,0.100000001490116
-0.054720241576433,0.100000001490116
0.373530328273773,0.100000001490116
-0.069593243300915,0.100000001490116
-0.340531378984451,0.100000001490116
-0.466224133968353,0.100000001490116
0.311446487903595,0.100000001490116
0.559293508529663,0.100000001490116
-0.089157648384571,0.100000001490116
0.167381331324577,0.100000001490116
-0.644162058830261,0.100000001490116
-0.482074260711670,0.100000001490116
0.158922016620636,0.100000001490116
-0.485803216695786,0.100000001490116
-0.202794998884201,0.100000001490116
0.312394767999649,0.100000001490116
0.675738751888275,0.100000001490116
0.261563718318939,0.100000001490116
0.229963228106499,0.100000001490116
0.512251138687134,0.100000001490116
0.473655939102173,0.100000001490116
-0.165067225694656,0.100000001490116
-0.603868305683136,0.100000001490116
0.128154590725899,0.100000001490116
-0.045594565570354,0.100000001490116
-0.121565803885460,0.100000001490116
0.344101637601852,0.100000001490116
-0.125164449214935,0.100000001490116
0.064105808734894,0.100000001490116
-0.254093915224075,0.100000001490116
-0.491365283727646,0.100000001490116
-0.323574066162109,0.100000001490116
0.030563473701477,0.100000001490116
0.081608779728413,0.100000001490116
-0.138104781508446,0.100000001490116
-0.205261364579201,0.100000001490116
-0.153213784098625,0.100000001490116
-0.136972352862358,0.100000001490116
-0.055186174809933,0.100000001490116
-0.204169750213623,0.100000001490116
-0.452428370714188,0.100000001490116
-0.199735105037689,0.100000001490116
-0.610544800758362,0.100000001490116
0.176844492554665,0.100000001490116
-0.152221605181694,0.100000001490116
-0.249735862016678,0.100000001490116
-0.223658129572868,0.100000001490116
-0.076320946216583,0.100000001490116
0.137898981571198,0.100000001490116
0.001109745819122,0.100000001490116
-0.284172385931015,0.100000001490116
0.194879233837128,0.100000001490116
-0.570783734321594,0.100000001490116
-0.292363226413727,0.100000001490116
-0.463779479265213,0.100000001490116
-0.004966834560037,0.100000001490116
0.397330313920975,0.100000001490116
-0.395681470632553,0.100000001490116
0.431440293788910,0.100000001490116
-0.207034274935722,0.100000001490116
-0.539285182952881,0.100000001490116
0.084788352251053,0.100000001490116
0.020514437928796,0.100000001490116
0.137624680995941,0.100000001490116
0.761803448200226,0.100000001490116
0.183350577950478,0.100000001490116
0.223109304904938,0.100000001490116
-0.213648080825806,0.100000001490116
-0.152916744351387,0.100000001490116
-0.266346812248230,0.100000001490116
-0.309068441390991,0.100000001490116
-0.080545566976070,0.100000001490116
0.442759186029434,0.100000001490116
0.483958661556244,0.100000001490116
0.141391903162003,0.100000001490116
-0.506248414516449,0.100000001490116
0.070095703005791,0.100000001490116
0.251562088727951,0.100000001490116
-0.007963733747602,0.100000001490116
0.292522728443146,0.100000001490116
0.153675973415375,0.100000001490116
-0.193099111318588,0.100000001490116
-0.168737083673477,0.100000001490116
0.109548449516296,0.100000001490116
-0.347502201795578,0.100000001490116
-0.192193165421486,0.100000001490116
-0.434549152851105,0.100000001490116
0.222990006208420,0.100000001490116
0.019285740330815,0.100000001490116
0.390572726726532,0.100000001490116
0.114503934979439,0.100000001490116
-0.306678205728531,0.100000001490116
0.038613040000200,0.100000001490116
0.127159878611565,0.100000001490116
0.209381192922592,0.100000001490116
0.291456669569016,0.100000001490116
0.842723846435547,0.100000001490116
0.500435888767242,0.100000001490116
-0.160695999860764,0.100000001490116
0.078274525702000,0.100000001490116
0.116044908761978,0.100000001490116
0.254471838474274,0.100000001490116
-0.228954851627350,0.100000001490116
0.526234328746796,0.100000001490116
0.037325985729694,0.100000001490116
-0.478501915931702,0.100000001490116
0.248937949538231,0.100000001490116
0.123530916869640,0.100000001490116
-0.073703080415726,0.100000001490116
-0.190021529793739,0.100000001490116
-0.074961565434933,0.100000001490116
-0.292042911052704,0.100000001490116
0.013915552757680,0.100000001490116
-0.376957297325134,0.100000001490116
-0.606053113937378,0.100000001490116
0.080631509423256,0.100000001490116
0.159246578812599,0.100000001490116
-0.305485546588898,0.100000001490116
-0.112504884600639,0.100000001490116
-0.368487596511841,0.100000001490116
-0.124358355998993,0.100000001490116
0.079277157783508,0.100000001490116
-0.143325045704842,0.100000001490116
-0.284697890281677,0.100000001490116
0.233755409717560,0.100000001490116
0.386163622140884,0.100000001490116
0.202232718467712,0.100000001490116
-0.010719131678343,0.100000001490116
0.543394088745117,0.100000001490116
0.167490482330322,0.100000001490116
0.248887136578560,0.100000001490116
0.094770140945911,0.100000001490116
-0.545411527156830,0.100000001490116
0.095628432929516,0.100000001490116
-0.185742661356926,0.100000001490116
0.167175129055977,0.100000001490116
0.283921301364899,0.100000001490116
-0.420797049999237,0.100000001490116
0.316806107759476,0.100000001490116
0.473016798496246,0.100000001490116
-0.096334531903267,0.100000001490116
-0.256846636533737,0.100000001490116
0.182983368635178,0.100000001490116
-0.034439805895090,0.100000001490116
-0.288756191730499,0.100000001490116
0.098391361534595,0.100000001490116
-0.235254839062691,0.100000001490116
-0.323211401700974,0.100000001490116
-0.136596173048019,0.100000001490116
-0.167586430907249,0.100000001490116
-0.235594317317009,0.100000001490116
0.128803730010986,0.100000001490116
0.300998598337173,0.100000001490116
-0.131788298487663,0.100000001490116
0.400291919708252,0.100000001490116
-0.459035843610764,0.100000001490116
0.301383316516876,0.100000001490116
-0.032239392399788,0.100000001490116
0.085341237485409,0.100000001490116
-0.013402599841356,0.100000001490116
0.571666181087494,0.100000001490116
0.098530985414982,0.100000001490116
0.391868680715561,0.100000001490116
0.110421575605869,0.100000001490116
-0.271794915199280,0.100000001490116
0.013501715846360,0.100000001490116
0.099969513714314,0.100000001490116
-0.079071737825871,0.100000001490116
-0.118712618947029,0.100000001490116
0.032230302691460,0.100000001490116
-0.183173969388008,0.100000001490116
-0.382384538650513,0.100000001490116
0.070949062705040,0.100000001490116
0.228178456425667,0.100000001490116
0.261385023593903,0.100000001490116
0.205387860536575,0.100000001490116
0.099773801863194,0.100000001490116
0.161345764994621,0.100000001490116
-0.224210605025291,0.100000001490116
0.020557621493936,0.100000001490116
0.233250424265862,0.100000001490116
0.046329833567142,0.100000001490116
