mb,Sb
0.135126039385796,0.099997073411942
-0.228071078658104,0.100000001490116
-0.198038682341576,0.100000001490116
-0.043225415050983,0.100000001490116
0.518190562725067,0.099996924400330
-0.140254840254784,0.100000001490116
0.313273638486862,0.099998570978642
0.635632812976837,0.099997229874134
-0.067131042480469,0.099996626377106
-0.425395101308823,0.100000001490116
-0.123125031590462,0.099999599158764
-0.654547333717346,0.100000001490116
-0.471135258674622,0.100000001490116
0.347960859537125,0.099998563528061
-0.360901802778244,0.100000001490116
0.211017638444901,0.099996879696846
0.071724109351635,0.099996894598007
0.638203442096710,0.099996857345104
-1.038761377334595,0.100000001490116
0.230961427092552,0.099997676908970
-0.263211667537689,0.100000001490116
-0.340353995561600,0.100000001490116
0.379500448703766,0.099996417760849
0.092649661004543,0.099996805191040
-0.084658585488796,0.100000001490116
0.074039883911610,0.099996805191040
0.166043505072594,0.099997252225876
0.081958748400211,0.099998727440834
-0.110362179577351,0.099999956786633
-0.249273851513863,0.100000001490116
0.450458884239197,0.099996268749237
0.077534593641758,0.100000001490116
0.063811153173447,0.100000001490116
0.304643124341965,0.099996529519558
-0.301125526428223,0.100000001490116
-0.129578739404678,0.099997237324715
-0.074381381273270,0.099997222423553
-0.292610794305801,0.100000001490116
0.215352699160576,0.099995836615562
0.175568059086800,0.099996648728848
-0.003392082639039,0.099995456635952
-0.135691940784454,0.100000001490116
0.303424745798111,0.099998719990253
0.488863646984100,0.099998593330383
0.070743270218372,0.099998302757740
-0.410784214735031,0.100000001490116
-0.314867347478867,0.099999912083149
-0.325049340724945,0.100000001490116
-0.469013750553131,0.100000001490116
0.352517277002335,0.099995538592339
-0.193868890404701,0.099999584257603
-0.126286268234253,0.099999830126762
0.403234601020813,0.099995218217373
-0.017493586987257,0.099996067583561
0.347607791423798,0.099995486438274
0.073330402374268,0.099998176097870
0.080662555992603,0.099996589124203
-0.191408634185791,0.100000001490116
-0.204454198479652,0.099999114871025
0.528672397136688,0.099994279444218
0.630994677543640,0.099993817508221
-0.088892273604870,0.100000001490116
0.358885198831558,0.099997773766518
0.233009546995163,0.099995665252209
0.213237226009369,0.099995151162148
0.129177495837212,0.099995531141758
0.021349057555199,0.099994674324989
-0.290585786104202,0.100000001490116
-0.341976106166840,0.100000001490116
0.146646544337273,0.099997960031033
0.261419802904129,0.099996000528336
0.023287044838071,0.099995806813240
-0.126742884516716,0.099999465048313
-0.126682609319687,0.099999919533730
-0.200471594929695,0.100000001490116
-0.083067305386066,0.099999934434891
0.143990293145180,0.099997915327549
0.235720619559288,0.099995724856853
0.070942088961601,0.099996104836464
-0.174520760774612,0.099995836615562
0.631173431873322,0.099995106458664
0.549358129501343,0.099995493888855
0.284637451171875,0.099995821714401
0.083463862538338,0.099997811019421
0.037980437278748,0.099996440112591
0.043631121516228,0.099996507167816
0.139331117272377,0.099995888769627
0.383948117494583,0.099996224045753
-0.162268280982971,0.099999524652958
0.560117304325104,0.099994808435440
-0.439177662134171,0.100000001490116
0.075674280524254,0.099998533725739
0.416273981332779,0.099998526275158
-0.067783899605274,0.100000001490116
-0.153606191277504,0.099999554455280
0.179482370615005,0.099997386336327
0.449888646602631,0.099996812641621
0.198905274271965,0.099998913705349
0.075542308390141,0.099996306002140
0.086734674870968,0.099999956786633
-0.148347467184067,0.099999874830246
0.652204930782318,0.099995732307434
0.193000689148903,0.099996328353882
0.391160160303116,0.099996030330658
-0.288038045167923,0.099999614059925
-0.255868762731552,0.099999912083149
0.311875641345978,0.099995970726013
-0.291980713605881,0.099999949336052
0.056138571351767,0.099996261298656
0.259042650461197,0.099996082484722
-0.101020760834217,0.099999643862247
-0.285331070423126,0.099999964237213
-0.326793640851974,0.099999859929085
0.571967422962189,0.099996097385883
-0.467538326978683,0.099999606609344
-0.125523969531059,0.100000001490116
-0.027492761611938,0.099996320903301
-0.503833115100861,0.100000001490116
-0.015119468793273,0.099995099008083
0.030468046665192,0.099996767938137
-0.112545035779476,0.099992848932743
0.279543191194534,0.099996216595173
-0.197129502892494,0.100000001490116
0.245099127292633,0.099996171891689
0.122696518898010,0.099996671080589
-0.030544035136700,0.100000001490116
-0.196153372526169,0.099999941885471
-0.237374916672707,0.100000001490116
-0.483923137187958,0.100000001490116
0.072524368762970,0.100000001490116
-0.498752504587173,0.099999710917473
0.018223788589239,0.099996209144592
0.191191479563713,0.099996104836464
0.086463093757629,0.099996976554394
0.313138991594315,0.099996671080589
-0.270901203155518,0.099999971687794
-0.246813699603081,0.100000001490116
0.008048473857343,0.100000001490116
0.358368754386902,0.099996611475945
-0.448069214820862,0.100000001490116
-0.077544189989567,0.100000001490116
-0.634715557098389,0.100000001490116
0.686590015888214,0.099998652935028
-0.129175543785095,0.100000001490116
-0.149227857589722,0.099998012185097
0.288600504398346,0.099998056888580
0.065197400748730,0.099998958408833
-0.279590517282486,0.100000001490116
0.121144130825996,0.099996253848076
-0.346573203802109,0.100000001490116
-0.112640053033829,0.100000001490116
-0.142628178000450,0.100000001490116
-0.055072758346796,0.099998600780964
-0.262420833110809,0.100000001490116
0.181898191571236,0.099996417760849
0.093298867344856,0.099996291100979
0.113899402320385,0.100000001490116
-0.486524313688278,0.100000001490116
0.291706144809723,0.099996812641621
0.073400966823101,0.099996581673622
0.016214145347476,0.099997751414776
0.267316550016403,0.099997274577618
0.130909129977226,0.100000001490116
0.244403347373009,0.099996268749237
-0.063346460461617,0.100000001490116
0.296296179294586,0.099996529519558
0.010693966411054,0.099996268749237
-0.729007363319397,0.099999979138374
0.510753393173218,0.099997438490391
-0.087132178246975,0.100000001490116
-0.346962183713913,0.099998310208321
-0.166087001562119,0.100000001490116
-0.193021476268768,0.100000001490116
0.385076254606247,0.099996306002140
0.125719428062439,0.099997721612453
0.090662717819214,0.099997155368328
0.185174316167831,0.100000001490116
0.111305139958858,0.099996134638786
-0.560657024383545,0.099999383091927
0.399248868227005,0.099996425211430
-0.253003954887390,0.099999420344830
0.114499121904373,0.100000001490116
-0.204607665538788,0.099999383091927
0.442115694284439,0.099996663630009
-0.602550268173218,0.100000001490116
0.202926263213158,0.099996700882912
-0.240607097744942,0.100000001490116
0.825550138950348,0.099996201694012
-0.267836123704910,0.100000001490116
0.388018250465393,0.099998846650124
-0.036130778491497,0.100000001490116
0.133102148771286,0.099998630583286
0.012215520255268,0.099997863173485
0.143143430352211,0.099998280405998
-0.221738457679749,0.100000001490116
-0.258799135684967,0.100000001490116
0.305428028106689,0.099997371435165
-0.454910457134247,0.099999979138374
0.202427893877029,0.099997460842133
0.008139319717884,0.099996998906136
-0.355191618204117,0.099999859929085
-0.068084292113781,0.099999979138374
-0.149472922086716,0.099999956786633
0.070836037397385,0.099997207522392
0.125511512160301,0.099997073411942
0.162927523255348,0.099996469914913
0.046131707727909,0.099996306002140
0.001498973113485,0.099996708333492
0.668898224830627,0.099997021257877
0.206323847174644,0.099998272955418
-0.439445614814758,0.100000001490116
0.001630329759791,0.099997103214264
0.174334749579430,0.099996700882912
-0.098743438720703,0.099999867379665
-0.290995389223099,0.099999904632568
-0.212854862213135,0.099999971687794
0.660449802875519,0.099998705089092
0.007464049383998,0.099997535347939
0.047320943325758,0.099997043609619
0.408802300691605,0.099997252225876
0.242347285151482,0.099996656179428
-0.110820777714252,0.099999979138374
0.260353326797485,0.099997378885746
0.267417073249817,0.099998764693737
-0.090158857405186,0.099997311830521
0.311469316482544,0.099997408688068
-0.156719982624054,0.099999658763409
-0.203311786055565,0.099998705089092
0.113248564302921,0.099995307624340
0.433350592851639,0.099997185170650
-0.817443132400513,0.099999286234379
-0.126764282584190,0.099999770522118
0.149410769343376,0.099997557699680
0.194007992744446,0.099996350705624
-0.384040981531143,0.099998943507671
0.112650007009506,0.099997103214264
-0.186569765210152,0.099996469914913
0.112358734011650,0.099997915327549
0.426396101713181,0.099998578429222
-0.395296871662140,0.099999904632568
0.131774216890335,0.099998548626900
-0.092047557234764,0.099999934434891
0.036352653056383,0.099999897181988
0.104917757213116,0.099998556077480
0.443163484334946,0.099998809397221
-0.017035530880094,0.099999934434891
0.412115186452866,0.099996186792850
0.219704061746597,0.099996909499168
-0.388077408075333,0.100000001490116
0.218958854675293,0.099996708333492
-0.269591361284256,0.099999554455280
0.080891333520412,0.099997900426388
0.367147147655487,0.099996842443943
0.011343607679009,0.099996194243431
-0.132394343614578,0.099999345839024
0.383883148431778,0.099996380507946
0.349348127841949,0.099996179342270
-0.104165785014629,0.099999822676182
0.061214506626129,0.099996879696846
0.370963543653488,0.099996887147427
-0.171493068337440,0.100000001490116
0.001817323383875,0.099996209144592
0.409365773200989,0.099993690848351
0.174196302890778,0.099996581673622
0.788232743740082,0.099995464086533
-0.369760453701019,0.099999867379665
-0.324745744466782,0.099999964237213
0.054953452199697,0.099996462464333
0.412491619586945,0.099996156990528
0.439059793949127,0.099996142089367
-0.559140443801880,0.099999755620956
0.409695208072662,0.099996589124203
-0.190576151013374,0.100000001490116
0.682958066463470,0.099997408688068
-0.480369955301285,0.100000001490116
-0.194057479500771,0.099999919533730
0.341874003410339,0.099995985627174
-0.056961357593536,0.099999926984310
0.304279059171677,0.099996298551559
0.053592212498188,0.099997602403164
-0.142876014113426,0.099999912083149
-0.046629607677460,0.099999405443668
-0.343134641647339,0.099999204277992
-0.188191935420036,0.099999740719795
-0.066275022923946,0.099995158612728
0.009570899419487,0.099996902048588
-0.566976666450500,0.099998913705349
0.175377547740936,0.099997997283936
-0.148522466421127,0.099997885525227
-0.094444185495377,0.099999643862247
0.171783387660980,0.099994771182537
0.185848325490952,0.099998272955418
0.531951606273651,0.099998086690903
-0.144340232014656,0.099999621510506
0.260943621397018,0.099997043609619
-0.325920790433884,0.099999926984310
0.033285215497017,0.099999852478504
-0.203616678714752,0.099999994039536
0.199404969811440,0.099996447563171
-0.016697112470865,0.099999979138374
-0.004547748714685,0.099997840821743
0.637005150318146,0.099996685981750
-0.304331690073013,0.099999889731407
-0.577473044395447,0.099999964237213
-0.118177942931652,0.100000001490116
-0.134801447391510,0.100000001490116
0.656615674495697,0.099996298551559
0.207680240273476,0.099998205900192
-0.214046314358711,0.100000001490116
-0.115980707108974,0.099999919533730
0.286781907081604,0.099995724856853
0.451970487833023,0.099996328353882
-0.506939232349396,0.099999547004700
0.265572339296341,0.099996477365494
0.224673271179199,0.099998354911804
-0.134294256567955,0.099999442696571
0.373237818479538,0.099995754659176
-0.628668189048767,0.099999696016312
-0.104342840611935,0.099994577467442
-0.166814103722572,0.099999792873859
0.140662521123886,0.099999055266380
-0.307009130716324,0.099999837577343
-0.038218144327402,0.099996872246265
0.264701128005981,0.099996581673622
-0.205512776970863,0.099999971687794
-0.049914173781872,0.100000001490116
0.187747985124588,0.099995873868465
-0.319763362407684,0.099999792873859
0.017353160306811,0.099997416138649
-0.651977896690369,0.099999852478504
-0.468079358339310,0.099999733269215
0.348594307899475,0.099997408688068
-0.487627297639847,0.099999964237213
0.468949526548386,0.099996790289879
0.066302053630352,0.099999964237213
-0.151061415672302,0.099999994039536
-0.172949224710464,0.099999919533730
-0.036473944783211,0.099999934434891
0.349363744258881,0.099998161196709
-0.201834753155708,0.099999979138374
-0.219100013375282,0.099999345839024
-0.195756003260612,0.099999688565731
0.179212689399719,0.099996626377106
0.090720489621162,0.099995635449886
-0.271947026252747,0.099998474121094
-0.334770828485489,0.099999599158764
0.394413858652115,0.099994957447052
-0.283672839403152,0.099999755620956
0.055224712938070,0.099994987249374
0.499004364013672,0.099997937679291
-0.559617221355438,0.099999941885471
0.242013320326805,0.099995672702789
-0.327944815158844,0.099999971687794
-0.663649499416351,0.099999994039536
-0.301067084074020,0.100000001490116
-0.150480747222900,0.099999964237213
0.135259032249451,0.099998176097870
-0.112424366176128,0.099999971687794
-0.160500556230545,0.099999785423279
-0.246005743741989,0.099999949336052
0.092280752956867,0.100000001490116
-0.072400927543640,0.099999919533730
-0.358728736639023,0.099999718368053
0.100752465426922,0.099999979138374
0.423667281866074,0.099996343255043
-0.055622659623623,0.099995702505112
-0.481754809617996,0.099999427795410
-0.444665104150772,0.099999926984310
0.015965782105923,0.099995195865631
-0.199788823723793,0.099999733269215
0.259657859802246,0.099997550249100
-0.373885869979858,0.099999964237213
-0.081190906465054,0.099995613098145
-0.376109153032303,0.099999882280827
-0.218708574771881,0.099999099969864
-0.221444368362427,0.099999643862247
-0.019281875342131,0.099995061755180
-0.119533739984035,0.099999971687794
0.074909992516041,0.099996887147427
-0.395153969526291,0.099999949336052
-0.099708549678326,0.099999845027924
0.562267124652863,0.099996253848076
0.246979907155037,0.099995963275433
-0.237617626786232,0.099999971687794
0.015052069909871,0.099997915327549
-0.599541902542114,0.100000001490116
-0.083739891648293,0.099998727440834
-0.435937136411667,0.099999994039536
0.253323376178741,0.099998176097870
-0.399304658174515,0.099999986588955
-0.129160508513451,0.099999949336052
0.005761572625488,0.099999994039536
-0.038311179727316,0.099997088313103
0.256078004837036,0.099996820092201
-0.084065735340118,0.100000001490116
0.088566079735756,0.099999889731407
0.000806725991424,0.099996991455555
-0.310759156942368,0.100000001490116
-0.215598985552788,0.099999882280827
-0.355464518070221,0.100000001490116
-0.202177658677101,0.100000001490116
-0.419475346803665,0.099999941885471
0.441801100969315,0.099997393786907
-0.229356899857521,0.099999979138374
0.661225974559784,0.099996745586395
0.283892482519150,0.099998325109482
0.115364000201225,0.099997825920582
0.230511665344238,0.099997356534004
0.084970131516457,0.099997073411942
0.414378672838211,0.099997267127037
0.218190759420395,0.099995642900467
-0.437521398067474,0.099999979138374
0.215675979852676,0.099998466670513
0.058923084288836,0.099997773766518
-0.365127205848694,0.099999740719795
-0.297143071889877,0.099999845027924
0.250045597553253,0.099996797740459
0.154916524887085,0.099996387958527
-0.115802362561226,0.100000001490116
0.328617095947266,0.099998801946640
-0.322780609130859,0.100000001490116
-0.295731574296951,0.099999904632568
0.003635453758761,0.099995650351048
0.171471923589706,0.099995248019695
-0.416986972093582,0.100000001490116
-0.049869727343321,0.099999822676182
-0.067117005586624,0.100000001490116
0.013872769661248,0.099999919533730
-0.209038749337196,0.100000001490116
-0.589375734329224,0.099999599158764
-0.051672812551260,0.099996790289879
0.078657828271389,0.099996358156204
0.444069087505341,0.099996671080589
0.061192352324724,0.100000001490116
0.084848977625370,0.099998153746128
-0.044674228876829,0.099999919533730
-0.034489315003157,0.099997743964195
0.602724969387054,0.099998712539673
-0.052610140293837,0.100000001490116
0.154081761837006,0.099997684359550
-0.191954210400581,0.100000001490116
-0.169397905468941,0.100000001490116
0.158082276582718,0.099995799362659
0.193327084183693,0.100000001490116
0.005779109429568,0.100000001490116
-0.314689368009567,0.099999934434891
0.382041633129120,0.099996060132980
0.240991711616516,0.099998153746128
0.069599486887455,0.099995940923691
0.141572803258896,0.099999658763409
0.301272839307785,0.099995814263821
-0.090141452848911,0.099999442696571
0.376032531261444,0.099995307624340
-0.144641742110252,0.099999837577343
-0.010094378143549,0.099997781217098
-0.249071434140205,0.099999196827412
0.243472993373871,0.099996000528336
0.477986127138138,0.099994681775570
0.377100378274918,0.099995739758015
0.386069774627686,0.099994897842407
0.524784386157990,0.099994987249374
-0.419999271631241,0.099999859929085
0.087609007954597,0.099997125566006
-0.430368691682816,0.100000001490116
-0.255103170871735,0.099999882280827
0.274948865175247,0.099995605647564
-0.043074823915958,0.100000001490116
0.504898190498352,0.099995762109756
0.283706128597260,0.099998526275158
0.305673569440842,0.099996834993362
-0.414954662322998,0.100000001490116
0.528476417064667,0.099994972348213
0.046801678836346,0.099995411932468
0.017946809530258,0.099999926984310
0.124715253710747,0.099996246397495
-0.338082313537598,0.099999964237213
0.260543793439865,0.099996596574783
-0.043764811009169,0.100000001490116
0.846018731594086,0.099995359778404
-0.160673215985298,0.099999703466892
-0.443995147943497,0.100000001490116
0.578609406948090,0.099995687603951
0.613029301166534,0.099997729063034
-0.023208333179355,0.099998869001865
-0.241229921579361,0.100000001490116
0.202657729387283,0.099997669458389
-0.315173923969269,0.100000001490116
-0.302303135395050,0.099999874830246
-0.254458308219910,0.100000001490116
0.738151311874390,0.099998496472836
-0.506585657596588,0.100000001490116
0.206852570176125,0.099995829164982
-0.096579238772392,0.099999748170376
-0.243709638714790,0.099999994039536
0.275804370641708,0.099995829164982
-0.103435568511486,0.100000001490116
-0.078674420714378,0.099998243153095
0.541124939918518,0.099996849894524
0.103242449462414,0.099995113909245
-0.156538680195808,0.099999971687794
0.199738472700119,0.099996559321880
0.376699864864349,0.099996276199818
-0.804721355438232,0.100000001490116
-0.084378205239773,0.099999986588955
0.405349254608154,0.099996939301491
0.027142906561494,0.099999830126762
0.409788519144058,0.099996432662010
0.179279491305351,0.099996544420719
-0.225136548280716,0.099999733269215
0.137535318732262,0.099999628961086
0.198826238512993,0.099998384714127
-0.540409207344055,0.099998965859413
0.011374202556908,0.099998697638512
0.034149635583162,0.099999807775021
-0.065160013735294,0.099999509751797
-0.098167173564434,0.099999815225601
-0.085714854300022,0.099999755620956
0.060661960393190,0.099997803568840
-0.585371136665344,0.099999971687794
-0.237201333045959,0.099999979138374
-0.450470983982086,0.100000001490116
-0.288081437349319,0.099999994039536
0.318954825401306,0.099996075034142
0.053335975855589,0.099996551871300
0.156247764825821,0.099998235702515
-0.275584965944290,0.099999941885471
-0.424612998962402,0.100000001490116
0.376635044813156,0.099996045231819
-0.219715863466263,0.099999748170376
-0.384744793176651,0.099999979138374
0.136175721883774,0.099996320903301
-0.174708500504494,0.100000001490116
0.596724152565002,0.099998578429222
0.250038981437683,0.099998258054256
-0.441648989915848,0.100000001490116
-0.060367699712515,0.100000001490116
0.341929286718369,0.099998570978642
-0.472159564495087,0.099999427795410
-0.026367697864771,0.100000001490116
-0.056962735950947,0.099999867379665
-0.043400190770626,0.100000001490116
0.037438407540321,0.099996872246265
0.372349858283997,0.099997706711292
-0.089124560356140,0.100000001490116
-0.244291484355927,0.100000001490116
-0.210601538419724,0.099999971687794
-0.219298511743546,0.099999986588955
0.233650147914886,0.099996075034142
0.236542239785194,0.099996812641621
-0.188117936253548,0.100000001490116
0.478483349084854,0.099995993077755
-0.308589458465576,0.099999971687794
0.175157636404037,0.099997773766518
-0.044286634773016,0.099999986588955
-0.152156770229340,0.100000001490116
-0.274981915950775,0.099999986588955
0.213500544428825,0.099996544420719
0.030818266794086,0.099995635449886
0.117848120629787,0.099996529519558
0.790771663188934,0.099998757243156
0.311465412378311,0.099997438490391
-0.087843909859657,0.099995948374271
-0.541722416877747,0.100000001490116
0.284789711236954,0.099995791912079
0.011206307448447,0.099996335804462
-0.413701474666595,0.099999703466892
0.136830002069473,0.099998079240322
-0.539649009704590,0.100000001490116
-0.014382240362465,0.099996566772461
0.215093120932579,0.099996089935303
0.191493570804596,0.099995642900467
0.429150760173798,0.099996201694012
-0.483874887228012,0.100000001490116
-0.046096518635750,0.099998503923416
0.497473418712616,0.099997475743294
0.226570293307304,0.099997319281101
0.124820962548256,0.099996499717236
-0.188339531421661,0.099996730685234
0.236316084861755,0.099996745586395
0.341458022594452,0.099996753036976
0.161508351564407,0.099997825920582
-0.440988421440125,0.100000001490116
0.236196413636208,0.099997878074646
-0.275920867919922,0.100000001490116
0.272610157728195,0.099998630583286
0.233887106180191,0.099998958408833
-0.206498533487320,0.099999986588955
-0.413568079471588,0.100000001490116
0.037533510476351,0.099997699260712
0.177405461668968,0.099997520446777
0.138717025518417,0.099997706711292
0.012683325447142,0.099999874830246
-0.278566181659698,0.100000001490116
0.238267853856087,0.099997393786907
-0.130801439285278,0.099999867379665
-0.113796941936016,0.099997386336327
0.171598464250565,0.099996581673622
-0.003677067114040,0.099999934434891
0.036349307745695,0.099997602403164
0.668035030364990,0.099997438490391
-0.093306839466095,0.099999956786633
-0.037063822150230,0.100000001490116
-0.109782755374908,0.099999986588955
0.487625151872635,0.099997811019421
-0.332770049571991,0.100000001490116
0.131363749504089,0.099997431039810
-0.336838275194168,0.100000001490116
-0.258676886558533,0.099999904632568
-0.302518844604492,0.100000001490116
0.492427349090576,0.099998027086258
-0.398416489362717,0.100000001490116
0.497210890054703,0.099997051060200
0.732961237430573,0.099997341632843
-0.042782578617334,0.099999926984310
0.315613865852356,0.099997438490391
-0.089552268385887,0.100000001490116
-0.365931779146194,0.100000001490116
-0.356037437915802,0.099999897181988
-0.222216084599495,0.099998004734516
-0.277578771114349,0.099999569356441
-0.237994670867920,0.099999427795410
-0.267794132232666,0.099999889731407
-0.362212121486664,0.099999763071537
-0.315504997968674,0.099999926984310
-0.181409880518913,0.100000001490116
-0.163009256124496,0.099999696016312
-0.108609050512314,0.100000001490116
-0.574037909507751,0.099999606609344
-0.063580125570297,0.099997483193874
-0.010964999906719,0.099999815225601
0.450434356927872,0.099998869001865
-0.355784446001053,0.100000001490116
-0.120208911597729,0.100000001490116
-0.292178720235825,0.099999792873859
0.041011769324541,0.100000001490116
0.134071812033653,0.099998161196709
-0.151512235403061,0.100000001490116
-0.154270112514496,0.099999867379665
-0.253829836845398,0.100000001490116
-0.246955662965775,0.100000001490116
-0.087558858096600,0.100000001490116
0.156785234808922,0.099997006356716
-0.057246487587690,0.100000001490116
0.056758474558592,0.099998027086258
0.232349231839180,0.099996834993362
-0.672978162765503,0.099999643862247
-0.269592970609665,0.100000001490116
0.113018937408924,0.099997177720070
0.623999714851379,0.099996671080589
0.307366788387299,0.099995546042919
0.132034152746201,0.099997326731682
0.064958862960339,0.099996969103813
0.674757480621338,0.099996924400330
-0.198996737599373,0.099999010562897
-0.008363037370145,0.099997051060200
-0.387526154518127,0.100000001490116
0.167555123567581,0.099993683397770
0.284655809402466,0.099998243153095
-0.290446192026138,0.099999904632568
-0.374970346689224,0.100000001490116
-0.191534474492073,0.100000001490116
0.322379261255264,0.099996820092201
-0.056996159255505,0.100000001490116
-0.316637605428696,0.100000001490116
0.027204867452383,0.100000001490116
0.088444285094738,0.099997133016586
0.145532339811325,0.100000001490116
0.552083313465118,0.099996909499168
0.711220383644104,0.099996328353882
-0.096303075551987,0.099999889731407
-0.323250472545624,0.100000001490116
-0.328536629676819,0.100000001490116
0.257563292980194,0.099997915327549
-0.251364618539810,0.099999815225601
-0.459426641464233,0.100000001490116
0.240218102931976,0.099995791912079
-0.167787775397301,0.099997296929359
0.119227193295956,0.099997058510780
0.304651588201523,0.099997542798519
0.677299439907074,0.099998183548450
-0.205730989575386,0.099998846650124
-0.112385526299477,0.099998094141483
-0.742479026317596,0.100000001490116
-0.219408273696899,0.099999547004700
0.395794063806534,0.099998489022255
-0.188926383852959,0.099999956786633
-0.193282604217529,0.100000001490116
0.329721480607986,0.099996887147427
0.368028968572617,0.099996939301491
-0.363869309425354,0.099999964237213
-0.068383552134037,0.099999897181988
0.112060770392418,0.099996738135815
-0.032882347702980,0.100000001490116
-0.089395686984062,0.099999800324440
0.482420891523361,0.099996738135815
0.091613136231899,0.099996484816074
-0.210155218839645,0.100000001490116
0.141591846942902,0.099995903670788
-0.052467890083790,0.100000001490116
0.219808295369148,0.099997743964195
-0.072740010917187,0.099999904632568
0.553141057491302,0.099996976554394
0.086908973753452,0.099996119737625
0.187509521842003,0.099996581673622
-0.150809541344643,0.100000001490116
0.125255405902863,0.099995777010918
0.575552165508270,0.099998570978642
-0.340259701013565,0.099998667836189
-0.227778375148773,0.099996015429497
-0.439547240734100,0.099999852478504
-0.567264139652252,0.099998973309994
0.160152480006218,0.099995702505112
-0.075518250465393,0.099999308586121
0.392586678266525,0.099998190999031
0.155410960316658,0.099997147917747
0.072189949452877,0.099996298551559
0.328200519084930,0.099996156990528
0.153325155377388,0.099996201694012
0.279933273792267,0.099995762109756
0.344731628894806,0.099996544420719
-0.069276347756386,0.100000001490116
0.048961464315653,0.099997103214264
-0.625419259071350,0.100000001490116
0.035062942653894,0.100000001490116
0.205085948109627,0.099996522068977
-0.497476428747177,0.099999882280827
-0.057752419263124,0.100000001490116
0.374805808067322,0.099998041987419
0.240031436085701,0.099998489022255
0.264661222696304,0.099997490644455
-0.353231042623520,0.099999792873859
0.054476365447044,0.099999986588955
-0.470494985580444,0.100000001490116
-0.641733407974243,0.099999397993088
-0.169586688280106,0.099996864795685
-0.557036399841309,0.099999561905861
0.507019639015198,0.099993132054806
0.274129629135132,0.099996842443943
0.070855833590031,0.099996954202652
0.413923352956772,0.099995277822018
-0.751579880714417,0.099999308586121
-0.146140605211258,0.099999971687794
-0.221977874636650,0.099999971687794
-0.384140431880951,0.099999934434891
-0.303481131792068,0.100000001490116
-0.098716400563717,0.100000001490116
0.372270047664642,0.099995821714401
0.808838903903961,0.099995203316212
-0.087942257523537,0.099998079240322
-0.048977162688971,0.099999874830246
0.433910340070724,0.099996581673622
0.009616637602448,0.099996052682400
0.201162040233612,0.099996335804462
-0.167813226580620,0.100000001490116
0.135594233870506,0.099995903670788
-0.259805321693420,0.099999867379665
-0.258227825164795,0.100000001490116
0.310389548540115,0.099995583295822
0.091418959200382,0.099994547665119
-0.236394345760345,0.099999994039536
0.767806231975555,0.099995374679565
0.506206452846527,0.099995680153370
-0.639525413513184,0.099997982382774
-0.387504220008850,0.099999897181988
-0.175371497869492,0.100000001490116
0.320745527744293,0.099995851516724
0.551345467567444,0.099995478987694
0.290601491928101,0.099995367228985
-0.001268874621019,0.099998526275158
-0.308579325675964,0.099999472498894
-0.329181373119354,0.099999949336052
-0.457185298204422,0.100000001490116
-0.050399396568537,0.100000001490116
-0.139629051089287,0.099999934434891
-0.403414726257324,0.100000001490116
0.163925990462303,0.099995717406273
0.096642926335335,0.100000001490116
0.010103790089488,0.099998556077480
0.008813502267003,0.100000001490116
-0.055156715214252,0.100000001490116
-0.558518767356873,0.100000001490116
-0.145940974354744,0.099999994039536
-0.046393927186728,0.100000001490116
-0.143715277314186,0.100000001490116
0.173466652631760,0.099999785423279
-0.091835744678974,0.099999777972698
0.035768300294876,0.099999196827412
0.425641804933548,0.099999822676182
0.083035416901112,0.099999159574509
-0.380205392837524,0.099999949336052
-0.024099275469780,0.099999673664570
0.666980624198914,0.099999822676182
0.622326314449310,0.099998712539673
0.267366766929626,0.099999748170376
-0.028752459213138,0.099998749792576
0.397816151380539,0.099999919533730
0.049641564488411,0.099999591708183
0.137275114655495,0.099999919533730
0.620433032512665,0.099999994039536
0.076198808848858,0.099999755620956
-0.014179935678840,0.099999584257603
-0.185958772897720,0.099999889731407
-0.704172968864441,0.099999286234379
0.042722433805466,0.099999971687794
-0.469772458076477,0.099999696016312
0.289688378572464,0.099999971687794
-0.380866110324860,0.099999628961086
0.142924353480339,0.099999688565731
0.027708500623703,0.099999152123928
0.260417222976685,0.099999949336052
-0.004972153808922,0.099999502301216
-0.271588921546936,0.099999889731407
-0.100598141551018,0.099999867379665
0.334424763917923,0.099999025464058
0.232471108436584,0.099991701543331
-0.568374097347260,0.099999047815800
0.048610027879477,0.099997632205486
0.301192432641983,0.099999807775021
0.119967281818390,0.099995285272598
0.375508576631546,0.099999442696571
0.027456365525723,0.099996529519558
0.394633412361145,0.099998898804188
-0.056357678025961,0.099992625415325
-0.535751342773438,0.099999658763409
-0.044559035450220,0.099994443356991
0.256520807743073,0.099999494850636
0.341355860233307,0.099999971687794
-0.052559562027454,0.099999591708183
0.239274442195892,0.099997900426388
-0.363410800695419,0.099999725818634
0.059372067451477,0.099998332560062
-0.570119321346283,0.099999979138374
-0.435795336961746,0.099999763071537
0.451329976320267,0.099999912083149
-0.121594749391079,0.099998772144318
0.394487977027893,0.100000001490116
0.025238811969757,0.100000001490116
0.399391144514084,0.099999837577343
-0.156927242875099,0.099998839199543
-0.528229832649231,0.099999763071537
0.628456056118011,0.099998943507671
0.049556192010641,0.099999397993088
-0.693790256977081,0.099996939301491
0.314024776220322,0.099998436868191
-0.220501482486725,0.099988944828510
0.309235095977783,0.099999777972698
0.178174287080765,0.099994294345379
0.216238692402840,0.099999643862247
-0.157792598009109,0.099995493888855
-0.725701987743378,0.099998787045479
-0.554889798164368,0.099991030991077
-0.265786677598953,0.099999189376831
0.539594233036041,0.099978357553482
-0.074619740247726,0.099998824298382
0.122246801853180,0.099999956786633
-0.157238349318504,0.099999830126762
0.194015294313431,0.099999770522118
-0.072355456650257,0.099999696016312
-0.109074078500271,0.099998101592064
0.267726302146912,0.099999815225601
-0.062704280018806,0.099998027086258
0.719783902168274,0.099999569356441
-0.170325458049774,0.099998682737350
-0.362815350294113,0.099999904632568
0.246311888098717,0.099997676908970
-0.219927906990051,0.099999770522118
-0.053048022091389,0.099998794496059
-0.348417937755585,0.099999859929085
-0.256791323423386,0.099999815225601
0.103794187307358,0.099999397993088
0.178633466362953,0.099994741380215
0.094771392643452,0.099999412894249
-0.060329087078571,0.099992945790291
-0.293399214744568,0.099999472498894
-0.303204745054245,0.099996924400330
-0.085089623928070,0.099999248981476
0.388139992952347,0.099991507828236
0.576407313346863,0.099999584257603
0.162067010998726,0.099996283650398
-0.184153169393539,0.099999502301216
-0.640583276748657,0.099994659423828
-0.151047110557556,0.099999859929085
-0.348871022462845,0.099999867379665
-0.196272194385529,0.099999874830246
0.371417224407196,0.100000001490116
0.041039038449526,0.099999614059925
0.360053420066833,0.099999278783798
0.359258383512497,0.099999904632568
0.043033741414547,0.099999018013477
-0.147740736603737,0.099999658763409
-0.160135477781296,0.099999599158764
-0.139433547854424,0.099999912083149
-0.271661639213562,0.099999412894249
0.270454496145248,0.099999807775021
0.272907495498657,0.099999241530895
-0.399691730737686,0.099999912083149
0.095695368945599,0.099999167025089
0.163669019937515,0.099999681115150
-0.002617733087391,0.099989779293537
0.182388365268707,0.099999457597733
-0.261916756629944,0.099989734590054
-0.455482631921768,0.099999368190765
-0.687138319015503,0.099992170929909
0.087405920028687,0.100000001490116
-0.362282186746597,0.099994979798794
0.099636338651180,0.099999241530895
-0.139866292476654,0.099994629621506
-0.036894857883453,0.099999681115150
-0.108616031706333,0.099990449845791
0.303562343120575,0.099999912083149
-0.618040323257446,0.099999524652958
0.438584029674530,0.099999964237213
-0.147350654006004,0.099997684359550
-0.585374593734741,0.099999897181988
-0.071076892316341,0.099997289478779
-0.322919189929962,0.099999941885471
0.431422293186188,0.099998608231544
0.671643614768982,0.100000001490116
-0.294414669275284,0.099999167025089
0.178327679634094,0.099999837577343
0.073822982609272,0.099998667836189
0.077674247324467,0.099999815225601
-0.395289510488510,0.099998384714127
-0.139981657266617,0.099999904632568
-0.341519534587860,0.099999755620956
-0.104494661092758,0.099999591708183
-0.543847262859344,0.099997565150261
-0.336997091770172,0.099999502301216
-0.489646613597870,0.099995896220207
-0.355435818433762,0.099999651312828
-0.142148315906525,0.099996969103813
0.014288573525846,0.099999852478504
0.189943239092827,0.099995680153370
0.114668503403664,0.099999703466892
-0.487021893262863,0.099993489682674
0.718895912170410,0.099998541176319
-0.576193034648895,0.099992334842682
-0.406344532966614,0.099999882280827
0.221967741847038,0.099999837577343
0.562539279460907,0.099999867379665
0.234647229313850,0.099999427795410
0.396293580532074,0.099999882280827
0.273625016212463,0.099999941885471
-0.105832934379578,0.099999912083149
-0.023728445172310,0.099998027086258
0.318617135286331,0.099999882280827
0.058951128274202,0.099999755620956
-0.172719001770020,0.099999763071537
0.033882159739733,0.099999181926250
0.512757301330566,0.099999777972698
-0.244501143693924,0.099997907876968
0.142474815249443,0.099999919533730
0.080599419772625,0.099999740719795
-0.071775183081627,0.099999785423279
0.245489552617073,0.099995106458664
-0.873689591884613,0.099999822676182
-0.149424538016319,0.099995903670788
-0.056081265211105,0.099999718368053
-0.338929593563080,0.099996104836464
0.479750335216522,0.099999777972698
0.278352528810501,0.099996827542782
0.175371304154396,0.099999539554119
-0.258048385381699,0.099997051060200
0.059686742722988,0.099999263882637
-0.146586269140244,0.099993616342545
0.082161635160446,0.099999904632568
0.123170949518681,0.099999979138374
0.053494341671467,0.099999956786633
0.331523746252060,0.099999226629734
0.355194807052612,0.099999971687794
-0.045322664082050,0.099999420344830
-0.053944267332554,0.099999956786633
-0.159358918666840,0.099999874830246
0.175972938537598,0.099999986588955
-0.193242222070694,0.099999949336052
-0.066867336630821,0.099999964237213
-0.575347125530243,0.099999897181988
-0.089274607598782,0.099999986588955
0.364091515541077,0.099999763071537
0.193573325872421,0.099999994039536
-0.172557801008224,0.099999748170376
-0.146011471748352,0.099999897181988
0.097174964845181,0.099999576807022
0.095535747706890,0.099999807775021
0.054732307791710,0.099999859929085
0.120802477002144,0.099999986588955
-0.215064629912376,0.099999666213989
-0.540007352828979,0.099999979138374
-0.100238807499409,0.099999435245991
-0.309587478637695,0.099999904632568
0.024914495646954,0.099999502301216
0.346323907375336,0.100000001490116
-0.085343107581139,0.099999725818634
-0.615228235721588,0.099999971687794
0.755707383155823,0.099999815225601
-0.571723282337189,0.099999763071537
-0.206881031394005,0.099999018013477
0.371952652931213,0.099999919533730
-0.206076517701149,0.099999479949474
-0.046934105455875,0.099999912083149
-0.251325368881226,0.099999882280827
0.020879182964563,0.099999815225601
0.362703621387482,0.099999353289604
0.027936786413193,0.099999830126762
-0.192321553826332,0.099999539554119
-0.228433802723885,0.099999956786633
-0.243729859590530,0.099999621510506
-0.153221279382706,0.099999949336052
-0.051020991057158,0.099999487400055
0.044217221438885,0.100000001490116
-0.230504676699638,0.099997527897358
-0.008894980885088,0.099998980760574
-0.707271635532379,0.099997162818909
0.280520528554916,0.099999785423279
0.132003679871559,0.099998496472836
0.034790046513081,0.100000001490116
0.406151354312897,0.099998615682125
0.023838883265853,0.100000001490116
-0.167200654745102,0.099998503923416
-0.430002838373184,0.100000001490116
0.270958572626114,0.099997267127037
-0.076086975634098,0.100000001490116
0.386205971240997,0.099999770522118
-0.330056220293045,0.099999576807022
0.663607060909271,0.099999777972698
0.123750276863575,0.099999755620956
0.196392267942429,0.099999636411667
-0.377678573131561,0.099999964237213
-0.831774890422821,0.099999584257603
-0.350162327289581,0.099999614059925
0.065276630222797,0.099999077618122
-0.249287068843842,0.099999368190765
-0.161584421992302,0.099999748170376
-0.486449569463730,0.099999807775021
-0.142014831304550,0.099999561905861
-0.121903263032436,0.099999770522118
0.116265788674355,0.099999643862247
0.370837777853012,0.099999591708183
-0.288734048604965,0.099996425211430
-0.754386246204376,0.100000001490116
0.149333834648132,0.099998593330383
0.420270740985870,0.099999189376831
-0.826899290084839,0.099997363984585
-0.209524035453796,0.100000001490116
-0.417124807834625,0.099997751414776
-0.237543791532516,0.099999397993088
0.176514118909836,0.099996402859688
0.315764546394348,0.099999733269215
-0.359770536422729,0.099996373057365
0.101706393063068,0.099999688565731
0.055405557155609,0.099999874830246
-0.397257953882217,0.099999822676182
0.373798817396164,0.099999465048313
-0.315181910991669,0.099999763071537
0.233989328145981,0.099997960031033
0.207599878311157,0.099999815225601
-0.117538079619408,0.099998995661736
-0.330364406108856,0.099999748170376
-0.257710486650467,0.099998198449612
-0.251880854368210,0.099999919533730
0.176704406738281,0.099998995661736
0.308232933282852,0.099999777972698
0.208725199103355,0.099999003112316
0.272811353206635,0.099999912083149
-0.026842296123505,0.099999509751797
0.454029291868210,0.099999643862247
0.235544487833977,0.099997960031033
0.047073204070330,0.099999926984310
0.171063855290413,0.099997505545616
-0.606580674648285,0.100000001490116
-0.046550940722227,0.099998086690903
0.118915870785713,0.099999740719795
0.329607576131821,0.100000001490116
-0.093644134700298,0.099999755620956
-0.398249596357346,0.099996782839298
0.351493388414383,0.100000001490116
0.106098085641861,0.099997736513615
0.061290699988604,0.100000001490116
-0.483660161495209,0.099999867379665
-0.121764995157719,0.099999807775021
-0.093872547149658,0.099999181926250
0.632916808128357,0.099999718368053
0.210423856973648,0.099999122321606
-0.002114415634423,0.099999882280827
-0.192268759012222,0.099999748170376
0.111846677958965,0.099999777972698
0.098854653537273,0.099999919533730
-0.454072773456573,0.099999904632568
0.093980766832829,0.099999614059925
-0.605498850345612,0.099999837577343
0.791642487049103,0.099998541176319
0.074441045522690,0.099999815225601
0.194299370050430,0.099999703466892
0.325650990009308,0.099998995661736
0.503225803375244,0.099997244775295
-0.194594010710716,0.099998772144318
-0.078039944171906,0.099997766315937
0.002009000629187,0.099998965859413
0.235646113753319,0.099997460842133
0.215051651000977,0.099999383091927
-0.029263084754348,0.099997445940971
-0.225723013281822,0.099999874830246
-0.161090627312660,0.099996946752071
-0.477350950241089,0.099999822676182
-0.347942292690277,0.099997401237488
0.127017393708229,0.099999561905861
0.151619181036949,0.099999889731407
0.071856796741486,0.099999733269215
-0.206401869654655,0.099999390542507
-0.207853689789772,0.099999926984310
-0.087050586938858,0.099999420344830
0.524647176265717,0.099999777972698
0.188731536269188,0.099998004734516
-0.149052813649178,0.099999733269215
0.715006351470947,0.099998846650124
0.095588676631451,0.099999792873859
0.225964039564133,0.099999263882637
-0.317089527845383,0.099999852478504
-0.178645431995392,0.099999383091927
0.335784524679184,0.099999949336052
0.090310782194138,0.099999688565731
-0.172818005084991,0.099998362362385
0.098742522299290,0.099998943507671
0.264770269393921,0.099999979138374
0.079047933220863,0.099997282028198
0.017210260033607,0.099999584257603
0.157445967197418,0.099998518824577
0.286018818616867,0.099999591708183
0.200285047292709,0.099997125566006
0.105640150606632,0.099999748170376
0.059095766395330,0.099995397031307
0.288323551416397,0.100000001490116
0.096245646476746,0.099997483193874
-0.102897524833679,0.099999867379665
-0.068469889461994,0.099999785423279
-1.028085350990295,0.099999845027924
0.599397718906403,0.099999241530895
0.191028162837029,0.099999874830246
0.175746202468872,0.099999509751797
-0.121576741337776,0.099999882280827
-0.393775373697281,0.099998973309994
-0.231805399060249,0.099999889731407
-0.063407585024834,0.099998466670513
-0.366939365863800,0.099999718368053
0.073436476290226,0.099998638033867
0.565625429153442,0.099999144673347
-0.005768357776105,0.099998801946640
0.349597245454788,0.099999956786633
0.096315018832684,0.099999502301216
-0.105652116239071,0.100000001490116
-0.089870907366276,0.099998265504837
0.232274979352951,0.099999919533730
0.189358144998550,0.099998690187931
0.150753125548363,0.100000001490116
-0.063609100878239,0.099998675286770
0.041963938623667,0.099999822676182
0.226209580898285,0.099998168647289
-0.042892042547464,0.099999129772186
0.051185004413128,0.099998116493225
0.254976749420166,0.099999360740185
-0.164758458733559,0.099997945129871
0.523760437965393,0.099999949336052
0.114158071577549,0.099999867379665
0.025602661073208,0.099999673664570
-0.350111156702042,0.099999800324440
0.076007351279259,0.099999956786633
-0.499003678560257,0.099999591708183
-0.528258979320526,0.099999919533730
0.022449593991041,0.099999733269215
0.356569826602936,0.099999971687794
-0.148028522729874,0.099999815225601
0.041169296950102,0.099999971687794
-0.283638477325439,0.099999874830246
0.127726480364799,0.099999800324440
-0.147655844688416,0.099999859929085
-0.455269008874893,0.099999941885471
-0.548882961273193,0.099999696016312
0.127265214920044,0.099999859929085
-0.355241417884827,0.099999822676182
0.171758636832237,0.099999904632568
-0.106728143990040,0.099999889731407
0.054782949388027,0.099999956786633
-0.299115806818008,0.099999897181988
0.003528155852109,0.099999912083149
-0.448486775159836,0.099999494850636
-0.047732375562191,0.099999859929085
-0.005660976748914,0.099999696016312
0.154044121503830,0.099999919533730
-0.533329904079437,0.099999792873859
0.337606430053711,0.099999964237213
0.063268460333347,0.099999748170376
-0.616801023483276,0.099999599158764
0.069698587059975,0.099998407065868
0.359369963407516,0.099999457597733
-0.118819661438465,0.099998600780964
0.315005362033844,0.099999956786633
0.273342907428741,0.099999010562897
0.214953690767288,0.099999994039536
0.262789577245712,0.099994957447052
0.244126200675964,0.099999748170376
-0.266020506620407,0.099997468292713
0.118072420358658,0.099999934434891
0.224057897925377,0.099998846650124
0.164510577917099,0.099999845027924
-0.073779396712780,0.099999144673347
0.449969559907913,0.099998526275158
0.480218738317490,0.099996164441109
0.356202811002731,0.099998794496059
0.353653281927109,0.099997736513615
-0.231010496616364,0.099999740719795
-0.376269638538361,0.099999383091927
0.023724881932139,0.099999599158764
0.007507089991122,0.100000001490116
-0.151778891682625,0.099999144673347
0.047173462808132,0.099998913705349
0.150021761655807,0.099999405443668
0.503634989261627,0.099999584257603
0.508885741233826,0.099999293684959
0.266926109790802,0.099999859929085
0.000633468269370,0.099999345839024
-0.404256761074066,0.099998943507671
-0.688068568706512,0.099999763071537
-0.051690336316824,0.099998921155930
-0.061862375587225,0.099999912083149
-0.541380643844604,0.099997818470001
0.656116604804993,0.099999539554119
-0.506294488906860,0.099997878074646
-0.499376893043518,0.099999777972698
-0.124129310250282,0.099998496472836
0.284372895956039,0.099999815225601
-0.056954730302095,0.099999107420444
0.069259449839592,0.099999330937862
0.756739079952240,0.099999643862247
-0.177844122052193,0.099999271333218
-0.204884380102158,0.099998742341995
-0.357920348644257,0.099998712539673
-0.261365026235580,0.099998719990253
-0.407053500413895,0.099999703466892
-0.107473760843277,0.099996834993362
0.166883572936058,0.099998317658901
0.499236077070236,0.099996976554394
0.042337100952864,0.099999561905861
-0.311134934425354,0.099999584257603
-0.158371537923813,0.099999383091927
-0.741960823535919,0.099998593330383
0.180929422378540,0.099999681115150
0.004746280144900,0.099999852478504
-0.463367432355881,0.099999859929085
0.126870587468147,0.099997900426388
-0.180069819092751,0.099999353289604
-0.106544926762581,0.099998071789742
-0.163863882422447,0.099999733269215
-0.125948637723923,0.099997550249100
-0.040206808596849,0.099999830126762
-0.500055789947510,0.099997699260712
0.085378624498844,0.099999889731407
0.303487598896027,0.099998854100704
0.167274057865143,0.099999703466892
0.237414866685867,0.099998079240322
0.243000179529190,0.099999912083149
-0.095273226499557,0.099999807775021
-0.432421833276749,0.099999181926250
-0.887503802776337,0.099999174475670
-0.511084437370300,0.099999397993088
-0.164216473698616,0.099999234080315
0.462955236434937,0.099998898804188
-0.132617950439453,0.100000001490116
-0.320354104042053,0.099999107420444
-0.205333873629570,0.099998332560062
-0.201682150363922,0.099999561905861
0.731602907180786,0.100000001490116
-0.220613121986389,0.099999547004700
0.185490325093269,0.100000001490116
-0.457144737243652,0.099999636411667
0.298925340175629,0.099999815225601
-0.833441972732544,0.099999725818634
0.002803308190778,0.099997527897358
0.486280918121338,0.099999189376831
-0.068824961781502,0.099997676908970
-0.573049783706665,0.099999830126762
-0.162023589015007,0.099999167025089
0.063525207340717,0.099999599158764
-0.095164746046066,0.099999584257603
0.174678489565849,0.099999740719795
-0.190709844231606,0.099998742341995
0.010800022631884,0.099999740719795
-0.328773349523544,0.099998332560062
0.082426607608795,0.099999852478504
0.242755889892578,0.099999524652958
0.038652218878269,0.099998496472836
-0.390418857336044,0.099999487400055
-0.184827044606209,0.099999547004700
-0.054325107485056,0.099997922778130
-0.739063680171967,0.099999524652958
-0.223362267017365,0.099999479949474
0.274476915597916,0.099998824298382
0.480858176946640,0.099998354911804
-0.237954363226891,0.099999584257603
-0.093134939670563,0.099997736513615
0.114044077694416,0.099998399615288
-0.122357308864594,0.099999286234379
0.411448091268539,0.099999733269215
0.090614780783653,0.099999628961086
0.609729886054993,0.099999755620956
-0.391343802213669,0.099999040365219
-0.398780465126038,0.099999912083149
-0.578770041465759,0.099998369812965
-0.171561494469643,0.099999599158764
-0.211664274334908,0.099996112287045
-0.346540570259094,0.099999681115150
-0.674957871437073,0.099997274577618
0.180527150630951,0.099999941885471
-0.156774729490280,0.099997289478779
0.258642405271530,0.099999703466892
0.050160389393568,0.099998742341995
0.066166043281555,0.099999926984310
0.077689766883850,0.099999740719795
-0.423178523778915,0.099999360740185
0.114137992262840,0.099999092519283
-0.543441593647003,0.099999569356441
0.040663737803698,0.100000001490116
-0.123848356306553,0.099999308586121
0.235947132110596,0.099999263882637
0.241076007485390,0.099999189376831
0.593125522136688,0.099998824298382
0.028498629108071,0.099999591708183
-0.155846491456032,0.099999010562897
-0.523375988006592,0.099999435245991
-0.720222532749176,0.099999256432056
0.469138652086258,0.099999874830246
-0.515743255615234,0.099999800324440
-0.366332232952118,0.099999897181988
0.061933349817991,0.099998123943806
0.114205613732338,0.099999740719795
0.101257182657719,0.099999129772186
0.351774275302887,0.099999964237213
0.173278823494911,0.099999129772186
0.092056207358837,0.099999919533730
0.412616193294525,0.099999427795410
-0.054896149784327,0.099999815225601
-0.133630901575089,0.099998153746128
-0.094363577663898,0.099999614059925
-0.100856438279152,0.099998079240322
-0.036257948726416,0.099999882280827
0.161596789956093,0.099999554455280
-0.177133530378342,0.099999234080315
-0.122051052749157,0.099999189376831
0.336267471313477,0.099999003112316
0.082814663648605,0.099998392164707
-0.151933237910271,0.099999457597733
0.708060801029205,0.099998414516449
0.407073140144348,0.099999524652958
0.254328638315201,0.099998623132706
-0.233416184782982,0.099999547004700
0.125780448317528,0.099997945129871
-0.260168910026550,0.099998816847801
0.216120153665543,0.100000001490116
0.009529606439173,0.099999867379665
0.417120397090912,0.099999882280827
0.186676144599915,0.099999673664570
-0.333044975996017,0.099998481571674
0.235726535320282,0.099999979138374
-0.406963229179382,0.099998936057091
0.295695960521698,0.099999941885471
-0.133730888366699,0.099999852478504
-0.229143202304840,0.099999971687794
0.132059395313263,0.099999412894249
0.132801383733749,0.099999919533730
0.909914433956146,0.099999390542507
-0.102083422243595,0.099999859929085
0.296315163373947,0.099999144673347
0.251540929079056,0.099999986588955
0.026767084375024,0.099999859929085
0.734017312526703,0.099999807775021
0.613930583000183,0.099999405443668
-0.628201246261597,0.099999792873859
-0.247488304972649,0.099999807775021
0.390672236680984,0.099999979138374
-0.581034362316132,0.099999897181988
0.470320403575897,0.099999986588955
0.181454792618752,0.099999949336052
0.020032303407788,0.099999576807022
0.409205645322800,0.099999450147152
-0.757607460021973,0.099999949336052
-0.340598642826080,0.099999919533730
-0.023090275004506,0.099999912083149
-0.166574388742447,0.099999994039536
-0.390432476997375,0.099999889731407
-0.569746553897858,0.099999330937862
-0.666242599487305,0.099999949336052
-0.211510986089706,0.099999524652958
-0.102803848683834,0.099999979138374
-0.415408223867416,0.100000001490116
0.009499544277787,0.099999956786633
0.312461972236633,0.099999144673347
-0.341815233230591,0.099999696016312
-0.029491612687707,0.099999479949474
-0.026483329012990,0.099999964237213
0.022747104987502,0.099999591708183
-0.052960008382797,0.099999956786633
-0.011958911083639,0.099999405443668
0.015500920824707,0.099998719990253
0.174258083105087,0.099995352327824
-0.589014708995819,0.099998883903027
0.013228716328740,0.099999524652958
0.270619571208954,0.099999800324440
0.362361699342728,0.099998638033867
-0.026989446952939,0.099999353289604
0.018716000020504,0.099997520446777
0.279385417699814,0.099999651312828
-0.496783345937729,0.099998541176319
0.093062646687031,0.099999710917473
0.017797149717808,0.099999330937862
0.267593830823898,0.099999569356441
-0.004854261409491,0.099999792873859
0.417146921157837,0.099999941885471
0.189857393503189,0.099997967481613
-0.053482830524445,0.099999904632568
0.210977703332901,0.099999882280827
0.141400188207626,0.099999986588955
0.295029640197754,0.099999763071537
0.014861338771880,0.099999926984310
0.066634543240070,0.100000001490116
0.487480461597443,0.100000001490116
0.004771875217557,0.099999003112316
0.623766183853149,0.099999912083149
-0.208752900362015,0.099998593330383
0.003114182967693,0.100000001490116
-0.384900033473969,0.099999487400055
0.088416337966919,0.099999815225601
0.086607553064823,0.099996410310268
-0.295920610427856,0.099999204277992
0.332335829734802,0.099998913705349
-0.048492912203074,0.099999584257603
0.271733909845352,0.099996358156204
0.450508683919907,0.099999226629734
-0.298032909631729,0.099998593330383
-0.086817413568497,0.099999673664570
0.041476648300886,0.099996656179428
-0.016167555004358,0.099999666213989
0.389288455247879,0.099997848272324
0.010075757279992,0.099999763071537
-0.371880561113358,0.099999971687794
0.124146014451981,0.099999934434891
0.063837863504887,0.099999442696571
0.403057187795639,0.099999979138374
-0.600755810737610,0.099998556077480
-0.077788479626179,0.099999949336052
-0.091730035841465,0.099999330937862
-0.265143424272537,0.099999971687794
-0.221541270613670,0.099999509751797
-0.405952841043472,0.099999986588955
-0.053181663155556,0.099999822676182
-0.082744680345058,0.100000001490116
0.092456504702568,0.099999852478504
-0.257441133260727,0.100000001490116
0.091708675026894,0.099999494850636
-0.389170438051224,0.099999718368053
-0.287066102027893,0.099999301135540
0.181981548666954,0.099999219179153
0.305887579917908,0.099998407065868
0.025692529976368,0.099999666213989
-0.456748425960541,0.099993795156479
-0.281072974205017,0.099999457597733
-0.239560559391975,0.099998600780964
-0.311139076948166,0.099999606609344
-0.282666206359863,0.099999181926250
0.296685397624969,0.099999874830246
-0.312043309211731,0.099997051060200
-0.185034975409508,0.099999748170376
-0.146752849221230,0.100000001490116
0.710173487663269,0.099999897181988
-0.121956638991833,0.099998593330383
-0.038286421447992,0.099999971687794
-0.074410647153854,0.099999248981476
0.151256203651428,0.100000001490116
-0.448216289281845,0.099999561905861
0.035044994205236,0.100000001490116
0.361261904239655,0.099999882280827
0.181959405541420,0.099999986588955
-0.192267030477524,0.099999241530895
-0.013231198303401,0.099999979138374
0.104604013264179,0.099998570978642
0.046545419842005,0.099999994039536
-0.221609666943550,0.099999673664570
-0.063166245818138,0.099999696016312
0.209327951073647,0.099999129772186
0.026410806924105,0.099999874830246
-0.005448976065964,0.099994622170925
0.197351977229118,0.099999576807022
-0.560174107551575,0.099997721612453
-0.397317498922348,0.099999494850636
0.055305067449808,0.099998131394386
-0.124397210776806,0.099999830126762
0.253835648298264,0.100000001490116
-0.066610299050808,0.099999077618122
0.044392876327038,0.099999435245991
0.704820334911346,0.099999889731407
0.079450555145741,0.099999949336052
-0.677368760108948,0.099999964237213
-0.086218371987343,0.099999755620956
-0.451811134815216,0.099999971687794
0.030704153701663,0.099999770522118
0.011454063467681,0.100000001490116
-0.141432926058769,0.099998645484447
0.287127017974854,0.100000001490116
0.148998171091080,0.100000001490116
0.206668481230736,0.099999956786633
-0.029557367786765,0.099999397993088
0.101476661860943,0.099999986588955
-0.180627033114433,0.099999703466892
0.372407436370850,0.099999956786633
-0.064660139381886,0.099999845027924
-0.170401379466057,0.099999815225601
0.180767297744751,0.099998533725739
-0.216921508312225,0.099999986588955
-0.131764784455299,0.099998936057091
-0.612679004669189,0.099999956786633
-0.162676319479942,0.099999487400055
0.208984851837158,0.099999234080315
-0.247397080063820,0.099999457597733
-0.295272707939148,0.099999554455280
0.114540167152882,0.099993869662285
-0.292897433042526,0.099999755620956
-0.408863455057144,0.099999383091927
0.413523912429810,0.099999718368053
-0.384829401969910,0.100000001490116
-0.066467590630054,0.099999964237213
-0.211776643991470,0.099999584257603
0.237786442041397,0.100000001490116
-0.510891973972321,0.099999725818634
0.141388788819313,0.099999971687794
-0.097380258142948,0.099999479949474
0.484154582023621,0.099999979138374
0.482663631439209,0.099998638033867
0.598674595355988,0.099999889731407
0.129070192575455,0.099999114871025
0.186936810612679,0.099999718368053
0.448385179042816,0.099998772144318
-0.320106476545334,0.099999994039536
-0.071760661900043,0.099999688565731
0.407135963439941,0.099999673664570
-0.802061319351196,0.099997267127037
-0.644787251949310,0.099999889731407
-0.027719411998987,0.099999502301216
0.352718949317932,0.099999830126762
-0.015078539028764,0.099998302757740
0.099013514816761,0.099999874830246
-0.469086527824402,0.099998973309994
0.419704258441925,0.099999919533730
-0.424461632966995,0.099998168647289
-0.501060485839844,0.099999763071537
0.045590579509735,0.099998995661736
0.159696161746979,0.099999971687794
-0.196460068225861,0.099999912083149
-0.376287758350372,0.100000001490116
0.213501289486885,0.099999710917473
0.480820178985596,0.100000001490116
-0.376084029674530,0.099999926984310
0.273015111684799,0.099999986588955
0.318000823259354,0.099999688565731
-0.122062042355537,0.099999994039536
0.022977475076914,0.099999815225601
0.429791390895844,0.099999971687794
-0.344010591506958,0.099999792873859
-0.138708651065826,0.100000001490116
0.295078456401825,0.099999904632568
-0.058175373822451,0.100000001490116
-0.030100924894214,0.013875373639166
0.127186253666878,0.013863362371922
0.009363850578666,0.013874169439077
0.073352605104446,0.013869511894882
0.119377821683884,0.013856857083738
0.080558598041534,0.013862832449377
0.103048287332058,0.013847056776285
0.032941862940788,0.013867275789380
0.197040677070618,0.013420559465885
-0.062819242477417,0.013847866095603
-0.115767501294613,0.013816995546222
-0.016964681446552,0.013385016471148
-0.131026878952980,0.008903097361326
