mb,Sb
0.013655732385814,0.100000001490116
0.279402077198029,0.100000001490116
0.062708377838135,0.100000001490116
0.199731767177582,0.100000001490116
0.365750402212143,0.100000001490116
-0.633123219013214,0.100000001490116
-0.140613675117493,0.100000001490116
-0.264492690563202,0.100000001490116
-0.438785791397095,0.100000001490116
0.173057779669762,0.100000001490116
-0.120102040469646,0.100000001490116
-0.136614710092545,0.100000001490116
-0.315699875354767,0.100000001490116
-0.156160384416580,0.100000001490116
-0.134117752313614,0.100000001490116
0.032879393547773,0.100000001490116
0.103676155209541,0.100000001490116
0.239208921790123,0.100000001490116
0.278020739555359,0.100000001490116
-0.523588657379150,0.100000001490116
0.504773199558258,0.100000001490116
-0.258361160755157,0.100000001490116
-0.118492230772972,0.100000001490116
-0.255265295505524,0.100000001490116
0.214859619736671,0.100000001490116
-0.047949105501175,0.100000001490116
0.014525014907122,0.100000001490116
0.511387169361115,0.100000001490116
0.043883118778467,0.100000001490116
-0.236654996871948,0.100000001490116
-0.560062170028687,0.100000001490116
0.083614684641361,0.100000001490116
-0.437536686658859,0.100000001490116
-0.504052221775055,0.100000001490116
0.185944959521294,0.100000001490116
0.441496670246124,0.100000001490116
0.402746170759201,0.100000001490116
0.537969648838043,0.100000001490116
-0.199161008000374,0.100000001490116
0.093006238341331,0.100000001490116
0.140845447778702,0.100000001490116
0.014318861067295,0.100000001490116
0.218415290117264,0.100000001490116
0.090538017451763,0.100000001490116
-0.269054800271988,0.100000001490116
-0.288899689912796,0.100000001490116
-0.246973931789398,0.100000001490116
-0.530191183090210,0.100000001490116
-0.464756935834885,0.100000001490116
-0.012418475002050,0.100000001490116
0.088855586946011,0.100000001490116
-0.109108231961727,0.100000001490116
-0.184367284178734,0.100000001490116
-0.272996813058853,0.100000001490116
-0.134914591908455,0.100000001490116
0.073157906532288,0.100000001490116
0.301561117172241,0.100000001490116
0.001329578924924,0.100000001490116
0.419114381074905,0.100000001490116
-0.025120684877038,0.100000001490116
0.194210052490234,0.100000001490116
-0.100676767528057,0.100000001490116
0.130929365754128,0.100000001490116
0.354870826005936,0.100000001490116
-0.387990266084671,0.100000001490116
-0.340895324945450,0.100000001490116
-0.436378508806229,0.100000001490116
-0.186965674161911,0.100000001490116
-0.185215681791306,0.100000001490116
-0.644061267375946,0.100000001490116
-0.009840938262641,0.100000001490116
0.403839051723480,0.100000001490116
-0.258496820926666,0.100000001490116
0.032255578786135,0.100000001490116
0.480130821466446,0.100000001490116
-0.024540156126022,0.100000001490116
-0.201584130525589,0.100000001490116
0.117154620587826,0.100000001490116
-0.145360291004181,0.100000001490116
-0.026486653834581,0.100000001490116
0.357651948928833,0.100000001490116
-0.244653344154358,0.100000001490116
-0.181637436151505,0.100000001490116
-0.341964870691299,0.100000001490116
0.102935895323753,0.100000001490116
-0.020954208448529,0.100000001490116
-0.361688435077667,0.100000001490116
-0.075920298695564,0.100000001490116
0.180930599570274,0.100000001490116
-0.049542725086212,0.100000001490116
-0.346088439226151,0.100000001490116
-0.017613789066672,0.100000001490116
-0.248287037014961,0.100000001490116
0.020414311438799,0.100000001490116
0.073272109031677,0.100000001490116
0.639748573303223,0.100000001490116
0.584626793861389,0.100000001490116
-0.151921287178993,0.100000001490116
0.336620181798935,0.100000001490116
0.549757063388824,0.100000001490116
0.372533977031708,0.100000001490116
0.162256494164467,0.100000001490116
0.133813157677650,0.100000001490116
-0.045836336910725,0.100000001490116
-0.337161183357239,0.100000001490116
-0.654338002204895,0.100000001490116
0.293711602687836,0.100000001490116
0.590229868888855,0.100000001490116
0.139088988304138,0.100000001490116
-0.049272626638412,0.100000001490116
0.266313880681992,0.100000001490116
-0.267261534929276,0.100000001490116
0.531805038452148,0.100000001490116
0.618493437767029,0.100000001490116
-0.394928604364395,0.100000001490116
-0.140426874160767,0.100000001490116
0.549331128597260,0.100000001490116
-0.251771748065948,0.100000001490116
-0.318352311849594,0.100000001490116
0.086078770458698,0.100000001490116
0.024117507040501,0.100000001490116
0.296420305967331,0.100000001490116
0.196346312761307,0.100000001490116
-0.697845697402954,0.100000001490116
0.637242197990417,0.100000001490116
-0.010086966678500,0.100000001490116
-0.062441144138575,0.100000001490116
-0.033301524817944,0.100000001490116
-0.154194325208664,0.100000001490116
-0.336135089397430,0.100000001490116
-0.170240268111229,0.100000001490116
0.274684935808182,0.100000001490116
0.094468079507351,0.100000001490116
0.402906596660614,0.100000001490116
0.052386667579412,0.100000001490116
-0.735790967941284,0.100000001490116
0.097033567726612,0.100000001490116
0.340701818466187,0.100000001490116
-0.393829137086868,0.100000001490116
-0.004451543092728,0.100000001490116
-0.099863983690739,0.100000001490116
-0.021177079528570,0.100000001490116
-0.543744444847107,0.100000001490116
0.504772841930389,0.100000001490116
-0.467499405145645,0.100000001490116
-0.018270149827003,0.100000001490116
0.409308671951294,0.100000001490116
0.213012173771858,0.100000001490116
-0.313051104545593,0.100000001490116
0.388966023921967,0.100000001490116
0.414764970541000,0.100000001490116
0.070641428232193,0.100000001490116
0.408935934305191,0.100000001490116
-0.567792832851410,0.100000001490116
-0.093873709440231,0.100000001490116
-0.462909728288651,0.100000001490116
-0.357291787862778,0.100000001490116
0.466268658638000,0.100000001490116
0.116334564983845,0.100000001490116
-0.246508151292801,0.100000001490116
-0.367200911045074,0.100000001490116
0.576109707355499,0.100000001490116
-0.006316217128187,0.100000001490116
-0.464540153741837,0.100000001490116
0.124044500291348,0.100000001490116
-0.551793396472931,0.100000001490116
0.365698933601379,0.100000001490116
-0.399025142192841,0.100000001490116
-0.157944187521935,0.100000001490116
0.172741517424583,0.100000001490116
0.119027987122536,0.100000001490116
0.284314095973969,0.100000001490116
-0.295039087533951,0.100000001490116
0.099235385656357,0.100000001490116
-0.397811979055405,0.100000001490116
0.674614369869232,0.100000001490116
0.507665395736694,0.100000001490116
0.321059346199036,0.100000001490116
-0.249516576528549,0.100000001490116
-0.300400048494339,0.100000001490116
-0.340351700782776,0.100000001490116
0.304875880479813,0.100000001490116
-0.358775705099106,0.100000001490116
0.272118538618088,0.100000001490116
-0.298718959093094,0.100000001490116
0.554603517055511,0.100000001490116
-0.311076343059540,0.100000001490116
0.191051036119461,0.100000001490116
-0.521912932395935,0.100000001490116
0.504742860794067,0.100000001490116
-0.572389423847198,0.100000001490116
0.186887770891190,0.100000001490116
-0.006629706360400,0.100000001490116
-0.694721221923828,0.100000001490116
-0.697656154632568,0.100000001490116
0.600748956203461,0.100000001490116
-0.009328256361187,0.100000001490116
-0.199719741940498,0.100000001490116
-0.173603966832161,0.100000001490116
0.177518203854561,0.100000001490116
-0.172544240951538,0.100000001490116
0.211214408278465,0.100000001490116
0.345581710338593,0.100000001490116
0.794297575950623,0.100000001490116
0.007589349988848,0.100000001490116
0.055264513939619,0.100000001490116
0.149023368954659,0.100000001490116
0.764023303985596,0.100000001490116
-0.191615536808968,0.100000001490116
0.109821699559689,0.100000001490116
0.300502121448517,0.100000001490116
0.074538230895996,0.100000001490116
0.051659036427736,0.100000001490116
0.324432790279388,0.100000001490116
-0.469253301620483,0.100000001490116
0.078765012323856,0.100000001490116
-0.040495261549950,0.100000001490116
-0.334811031818390,0.100000001490116
0.238706782460213,0.100000001490116
-0.137231528759003,0.100000001490116
-0.080625660717487,0.100000001490116
0.303034901618958,0.100000001490116
0.010271620936692,0.100000001490116
-0.141833975911140,0.100000001490116
0.209221452474594,0.100000001490116
0.144047379493713,0.100000001490116
-0.218766182661057,0.100000001490116
-0.252879291772842,0.100000001490116
-0.223185867071152,0.100000001490116
-0.441093444824219,0.100000001490116
-0.130999878048897,0.100000001490116
0.049048233777285,0.100000001490116
-0.094880200922489,0.100000001490116
0.187711685895920,0.100000001490116
-0.097251631319523,0.100000001490116
-0.035236302763224,0.100000001490116
-0.115050300955772,0.100000001490116
0.046505901962519,0.100000001490116
-0.236823767423630,0.100000001490116
0.432355582714081,0.100000001490116
-0.428812384605408,0.100000001490116
0.326761364936829,0.100000001490116
0.489205867052078,0.100000001490116
0.610891163349152,0.100000001490116
0.151139795780182,0.100000001490116
0.234451696276665,0.100000001490116
-0.451849818229675,0.100000001490116
0.422293007373810,0.100000001490116
0.209995105862617,0.100000001490116
-0.176246628165245,0.100000001490116
-0.499691218137741,0.100000001490116
-0.374961227178574,0.100000001490116
0.091397866606712,0.100000001490116
0.339181721210480,0.100000001490116
0.201703086495399,0.100000001490116
-0.023337330669165,0.100000001490116
-0.049706906080246,0.100000001490116
-0.054889757186174,0.100000001490116
-0.367926508188248,0.100000001490116
-0.178888648748398,0.100000001490116
-0.447159439325333,0.100000001490116
0.135354921221733,0.100000001490116
0.262450218200684,0.100000001490116
-0.199599176645279,0.100000001490116
-0.043554287403822,0.100000001490116
0.134190410375595,0.100000001490116
-0.282000631093979,0.100000001490116
0.063916660845280,0.100000001490116
-0.266669958829880,0.100000001490116
0.096859402954578,0.100000001490116
0.133089110255241,0.100000001490116
0.094213567674160,0.100000001490116
0.184652477502823,0.100000001490116
-0.218548431992531,0.100000001490116
-0.252976328134537,0.100000001490116
-0.071237020194530,0.100000001490116
0.341838389635086,0.100000001490116
-0.390774190425873,0.100000001490116
0.408403635025024,0.100000001490116
-0.132277354598045,0.100000001490116
0.197237163782120,0.100000001490116
-0.095927543938160,0.100000001490116
0.250769436359406,0.100000001490116
0.208395197987556,0.100000001490116
0.426763385534286,0.100000001490116
0.551495313644409,0.100000001490116
0.180771574378014,0.100000001490116
-0.621805608272552,0.100000001490116
0.707113206386566,0.100000001490116
0.569352805614471,0.100000001490116
0.348777860403061,0.100000001490116
-0.209487900137901,0.100000001490116
0.209347754716873,0.100000001490116
-0.272922009229660,0.100000001490116
0.671874284744263,0.100000001490116
-0.432011008262634,0.100000001490116
0.636564075946808,0.100000001490116
0.140731275081635,0.100000001490116
-0.142332196235657,0.100000001490116
-0.212250724434853,0.100000001490116
0.034090906381607,0.100000001490116
0.480783045291901,0.100000001490116
-0.094442673027515,0.100000001490116
-0.030094616115093,0.100000001490116
0.017894241958857,0.100000001490116
-0.015012657269835,0.100000001490116
0.336691349744797,0.100000001490116
-0.365266859531403,0.100000001490116
-0.468152612447739,0.100000001490116
-0.102007240056992,0.100000001490116
0.001460188766941,0.100000001490116
-0.363861948251724,0.100000001490116
0.504831731319427,0.100000001490116
-0.229500278830528,0.100000001490116
-1.084616541862488,0.100000001490116
-0.179035067558289,0.100000001490116
-0.082505330443382,0.100000001490116
0.359298259019852,0.100000001490116
-0.143526092171669,0.100000001490116
0.374518066644669,0.100000001490116
-0.294517636299133,0.100000001490116
0.360419034957886,0.100000001490116
0.427784860134125,0.100000001490116
0.027020256966352,0.100000001490116
0.059927057474852,0.100000001490116
0.585578203201294,0.100000001490116
0.084605082869530,0.100000001490116
0.437769740819931,0.100000001490116
0.021435322239995,0.100000001490116
0.560032844543457,0.100000001490116
0.072309337556362,0.100000001490116
-0.215679153800011,0.100000001490116
-0.204771324992180,0.100000001490116
0.347493052482605,0.100000001490116
0.035273794084787,0.100000001490116
0.357404202222824,0.100000001490116
0.505701065063477,0.100000001490116
0.102696232497692,0.100000001490116
-0.138483956456184,0.100000001490116
-0.031666740775108,0.100000001490116
-0.816576242446899,0.100000001490116
0.122496277093887,0.100000001490116
0.097583808004856,0.100000001490116
-0.316959351301193,0.100000001490116
0.882175087928772,0.100000001490116
-0.178328573703766,0.100000001490116
0.287408411502838,0.100000001490116
0.122519247233868,0.100000001490116
0.078347094357014,0.100000001490116
-0.064812958240509,0.100000001490116
0.289804309606552,0.100000001490116
-0.472424626350403,0.100000001490116
-0.097685046494007,0.100000001490116
0.033393938094378,0.100000001490116
-0.121222719550133,0.100000001490116
0.469382405281067,0.100000001490116
-0.091111481189728,0.100000001490116
0.087997637689114,0.100000001490116
-0.605621457099915,0.100000001490116
0.657069921493530,0.100000001490116
-0.115739226341248,0.100000001490116
-0.579318523406982,0.100000001490116
-0.042630363255739,0.100000001490116
-0.194841161370277,0.100000001490116
-0.866806924343109,0.100000001490116
-0.401759147644043,0.100000001490116
-0.066621668636799,0.100000001490116
-0.183611303567886,0.100000001490116
0.217063188552856,0.100000001490116
-0.181205183267593,0.100000001490116
-0.613638460636139,0.100000001490116
0.087321892380714,0.100000001490116
0.220003634691238,0.100000001490116
0.158174440264702,0.100000001490116
-0.583275079727173,0.100000001490116
0.158191531896591,0.100000001490116
-0.433844327926636,0.100000001490116
-0.189414083957672,0.100000001490116
0.149828895926476,0.100000001490116
0.101085856556892,0.100000001490116
-0.139441430568695,0.100000001490116
-0.027342606335878,0.100000001490116
0.193375751376152,0.100000001490116
0.062183286994696,0.100000001490116
0.137827277183533,0.100000001490116
-0.514155745506287,0.100000001490116
-0.423506587743759,0.100000001490116
-0.529068171977997,0.100000001490116
0.087005198001862,0.100000001490116
-0.248740702867508,0.100000001490116
0.032772995531559,0.100000001490116
-0.309090018272400,0.100000001490116
0.412187635898590,0.100000001490116
0.060022592544556,0.100000001490116
-0.225944116711617,0.100000001490116
0.684220314025879,0.100000001490116
0.267533659934998,0.100000001490116
-0.550248980522156,0.100000001490116
0.342205464839935,0.100000001490116
0.057435628026724,0.100000001490116
-0.103704445064068,0.100000001490116
0.014204320497811,0.100000001490116
-0.417581945657730,0.100000001490116
0.263530492782593,0.100000001490116
0.081838972866535,0.100000001490116
-0.196433931589127,0.100000001490116
0.071022346615791,0.100000001490116
0.239049285650253,0.100000001490116
-0.293160080909729,0.100000001490116
0.099840976297855,0.100000001490116
0.130600333213806,0.100000001490116
0.201096907258034,0.100000001490116
0.475670993328094,0.100000001490116
0.256081730127335,0.100000001490116
-0.314983129501343,0.100000001490116
0.055445007979870,0.100000001490116
-0.377022683620453,0.100000001490116
-0.014542786404490,0.100000001490116
0.073394872248173,0.100000001490116
-0.462985426187515,0.100000001490116
0.476600885391235,0.100000001490116
-0.113913938403130,0.100000001490116
0.160118818283081,0.100000001490116
0.235681310296059,0.100000001490116
0.038929644972086,0.100000001490116
0.174002990126610,0.100000001490116
0.251948267221451,0.100000001490116
-0.195400461554527,0.100000001490116
-0.263642787933350,0.100000001490116
0.579087257385254,0.100000001490116
-0.238449946045876,0.100000001490116
0.261612564325333,0.100000001490116
0.122309923171997,0.100000001490116
0.615745246410370,0.100000001490116
-0.271479249000549,0.100000001490116
-0.417823046445847,0.100000001490116
-0.015862252563238,0.100000001490116
-0.043024018406868,0.100000001490116
0.052055481821299,0.100000001490116
0.090901099145412,0.100000001490116
0.118796490132809,0.100000001490116
0.030841531231999,0.100000001490116
0.009676555171609,0.100000001490116
0.251086711883545,0.100000001490116
-0.336500465869904,0.100000001490116
0.324220597743988,0.100000001490116
-0.543171942234039,0.100000001490116
0.158425107598305,0.100000001490116
0.422175824642181,0.100000001490116
0.164322599768639,0.100000001490116
0.279174417257309,0.100000001490116
-1.104404330253601,0.100000001490116
0.682529032230377,0.100000001490116
0.302849024534225,0.100000001490116
0.805540382862091,0.100000001490116
-0.177909478545189,0.100000001490116
-0.021927222609520,0.100000001490116
0.033720813691616,0.100000001490116
-0.009483634494245,0.100000001490116
-0.394301444292068,0.100000001490116
-0.437297165393829,0.100000001490116
-0.177152276039124,0.100000001490116
0.079491801559925,0.100000001490116
0.174356147646904,0.100000001490116
0.044327925890684,0.100000001490116
-0.408168137073517,0.100000001490116
-0.409803897142410,0.100000001490116
-0.383675456047058,0.100000001490116
-0.257410615682602,0.100000001490116
-0.248767733573914,0.100000001490116
0.244102507829666,0.100000001490116
0.359473258256912,0.100000001490116
0.004565323702991,0.100000001490116
-0.006516027729958,0.100000001490116
-0.417695581912994,0.100000001490116
-0.248421505093575,0.100000001490116
-0.019962567836046,0.100000001490116
0.246831908822060,0.100000001490116
0.084708124399185,0.100000001490116
-0.315654665231705,0.100000001490116
0.104131095111370,0.100000001490116
0.218619614839554,0.100000001490116
0.268489092588425,0.100000001490116
-0.261581540107727,0.100000001490116
0.195383414626122,0.100000001490116
-0.129411786794662,0.100000001490116
-0.062371946871281,0.100000001490116
-0.114728949964046,0.100000001490116
-0.059938106685877,0.100000001490116
0.049796253442764,0.100000001490116
-0.293723672628403,0.100000001490116
0.652015447616577,0.100000001490116
-0.217059642076492,0.100000001490116
0.113039463758469,0.100000001490116
-0.093996077775955,0.100000001490116
0.031105663627386,0.100000001490116
0.130732893943787,0.100000001490116
-0.089798644185066,0.100000001490116
0.093243092298508,0.100000001490116
0.384881347417831,0.100000001490116
0.348620444536209,0.100000001490116
0.244284644722939,0.100000001490116
0.169551596045494,0.100000001490116
-0.004989871289581,0.100000001490116
0.215675771236420,0.100000001490116
0.403518497943878,0.100000001490116
0.351298481225967,0.100000001490116
0.306001245975494,0.100000001490116
-0.228471517562866,0.100000001490116
-0.385822147130966,0.100000001490116
0.050959140062332,0.100000001490116
0.076197400689125,0.100000001490116
-0.577145040035248,0.100000001490116
0.268528997898102,0.100000001490116
-0.370844721794128,0.100000001490116
0.088598780333996,0.100000001490116
-0.207650065422058,0.100000001490116
-0.450012654066086,0.100000001490116
0.329244822263718,0.100000001490116
-0.203687280416489,0.100000001490116
-0.552587628364563,0.100000001490116
0.258742779493332,0.100000001490116
-0.006367338821292,0.100000001490116
0.083232782781124,0.100000001490116
-0.257055908441544,0.100000001490116
0.309163451194763,0.100000001490116
-0.216649204492569,0.100000001490116
0.493608832359314,0.100000001490116
-0.238300040364265,0.100000001490116
-0.264442324638367,0.100000001490116
0.076493561267853,0.100000001490116
0.375631898641586,0.100000001490116
0.204102158546448,0.100000001490116
-0.304085075855255,0.100000001490116
-0.199392870068550,0.100000001490116
0.086096316576004,0.100000001490116
0.595165431499481,0.100000001490116
0.003688405733556,0.100000001490116
0.092830806970596,0.100000001490116
0.141397759318352,0.100000001490116
0.329933077096939,0.100000001490116
0.114214442670345,0.100000001490116
-0.643378376960754,0.100000001490116
-0.115570351481438,0.100000001490116
-0.035145852714777,0.100000001490116
-0.097954183816910,0.100000001490116
0.396644264459610,0.100000001490116
-0.118130646646023,0.100000001490116
-0.089685060083866,0.100000001490116
0.153100863099098,0.100000001490116
-0.019011981785297,0.100000001490116
-0.099982291460037,0.100000001490116
0.002392358845100,0.100000001490116
0.032573826611042,0.100000001490116
0.101835966110229,0.100000001490116
-0.128008589148521,0.100000001490116
-0.224673643708229,0.100000001490116
-0.055417712777853,0.100000001490116
0.120282128453255,0.100000001490116
0.306144267320633,0.100000001490116
-0.133466452360153,0.100000001490116
-0.133926615118980,0.100000001490116
0.145002990961075,0.100000001490116
0.161554142832756,0.100000001490116
0.310265839099884,0.100000001490116
0.227337941527367,0.100000001490116
-0.301835566759109,0.100000001490116
-0.269900590181351,0.100000001490116
-0.165437594056129,0.100000001490116
-0.182531416416168,0.100000001490116
-0.096877403557301,0.100000001490116
0.263805150985718,0.100000001490116
0.442375808954239,0.100000001490116
0.073978126049042,0.100000001490116
-0.722187161445618,0.100000001490116
0.092348240315914,0.100000001490116
-0.294839709997177,0.100000001490116
-0.475563794374466,0.100000001490116
-0.196860685944557,0.100000001490116
0.237144693732262,0.100000001490116
0.369860291481018,0.100000001490116
0.534571528434753,0.100000001490116
-0.321019828319550,0.100000001490116
0.169844537973404,0.100000001490116
0.193706959486008,0.100000001490116
0.326323211193085,0.100000001490116
0.542707681655884,0.100000001490116
-0.033217012882233,0.100000001490116
-0.406369417905807,0.100000001490116
0.194493085145950,0.100000001490116
-0.079995624721050,0.100000001490116
0.238683477044106,0.100000001490116
-0.142187327146530,0.100000001490116
0.028759114444256,0.100000001490116
-0.060600638389587,0.100000001490116
0.525508224964142,0.100000001490116
-0.094339817762375,0.100000001490116
-0.591323018074036,0.100000001490116
-0.262829601764679,0.100000001490116
-0.375921338796616,0.100000001490116
-0.255803823471069,0.100000001490116
0.196443811058998,0.100000001490116
-0.332600295543671,0.100000001490116
0.161115854978561,0.100000001490116
0.304607808589935,0.100000001490116
0.254303455352783,0.100000001490116
-0.385390877723694,0.100000001490116
-0.264544665813446,0.100000001490116
0.217660039663315,0.100000001490116
0.281421750783920,0.100000001490116
-0.358069002628326,0.100000001490116
-0.150708749890327,0.100000001490116
-0.050664860755205,0.100000001490116
-0.294659197330475,0.100000001490116
-0.133798375725746,0.100000001490116
-0.324017912149429,0.100000001490116
-0.284622877836227,0.100000001490116
-0.054310638457537,0.100000001490116
-0.182831332087517,0.100000001490116
0.121254518628120,0.100000001490116
0.067067675292492,0.100000001490116
-0.177379176020622,0.100000001490116
0.140321925282478,0.100000001490116
-0.138027101755142,0.100000001490116
-0.144512131810188,0.100000001490116
0.097480669617653,0.100000001490116
0.344492316246033,0.100000001490116
0.233975455164909,0.100000001490116
-0.197324544191360,0.100000001490116
0.250307917594910,0.100000001490116
0.045685209333897,0.100000001490116
0.003029695246369,0.100000001490116
-0.049095418304205,0.100000001490116
0.083859369158745,0.100000001490116
-0.227533265948296,0.100000001490116
0.106546603143215,0.100000001490116
-0.228433191776276,0.100000001490116
-0.072495497763157,0.100000001490116
0.052347023040056,0.100000001490116
-0.138053938746452,0.100000001490116
0.001052338397130,0.100000001490116
-0.278339207172394,0.100000001490116
-0.253670305013657,0.100000001490116
-0.098986856639385,0.100000001490116
0.021840222179890,0.100000001490116
-0.106252066791058,0.100000001490116
0.279123425483704,0.100000001490116
0.092761412262917,0.100000001490116
-0.440967887639999,0.100000001490116
-0.448305636644363,0.100000001490116
0.015503572300076,0.100000001490116
-0.105151951313019,0.100000001490116
0.054175820201635,0.100000001490116
-0.333153575658798,0.100000001490116
-0.181730315089226,0.100000001490116
-0.236559033393860,0.100000001490116
-0.426111429929733,0.100000001490116
-0.601487457752228,0.100000001490116
0.033527277410030,0.100000001490116
-0.053401742130518,0.100000001490116
-0.763732492923737,0.100000001490116
0.070400200784206,0.100000001490116
-0.049675293266773,0.100000001490116
0.344996303319931,0.100000001490116
0.422795265913010,0.100000001490116
0.105747267603874,0.100000001490116
-0.258307695388794,0.100000001490116
0.146346285939217,0.100000001490116
0.100144907832146,0.100000001490116
-0.038694925606251,0.100000001490116
-0.088545694947243,0.100000001490116
0.217646047472954,0.100000001490116
0.495620280504227,0.100000001490116
-0.197248920798302,0.100000001490116
-0.023246554657817,0.100000001490116
-0.728265523910522,0.100000001490116
-0.527937591075897,0.100000001490116
-0.315454959869385,0.100000001490116
0.173168376088142,0.100000001490116
-0.494370073080063,0.100000001490116
-0.132376790046692,0.100000001490116
-0.043352134525776,0.100000001490116
-0.145294398069382,0.100000001490116
0.227971598505974,0.100000001490116
-0.334801644086838,0.100000001490116
-0.030295554548502,0.100000001490116
-0.272875696420670,0.100000001490116
-0.468312352895737,0.100000001490116
0.016235003247857,0.100000001490116
0.327691346406937,0.100000001490116
0.021234733983874,0.100000001490116
0.452713698148727,0.100000001490116
-0.304893136024475,0.100000001490116
0.051946509629488,0.100000001490116
0.055191326886415,0.100000001490116
0.051186516880989,0.100000001490116
-0.448783010244370,0.100000001490116
0.177414894104004,0.100000001490116
0.011990437284112,0.100000001490116
-0.065866954624653,0.100000001490116
0.601763248443604,0.100000001490116
-0.201549679040909,0.100000001490116
0.254195719957352,0.100000001490116
-0.254612714052200,0.100000001490116
0.104281499981880,0.100000001490116
0.601806759834290,0.100000001490116
-0.303184807300568,0.100000001490116
0.603424012660980,0.100000001490116
-0.920520842075348,0.100000001490116
0.026724290102720,0.100000001490116
0.130466058850288,0.100000001490116
0.386755347251892,0.100000001490116
-0.358653247356415,0.100000001490116
-1.197625517845154,0.100000001490116
-0.107995949685574,0.100000001490116
-0.151897281408310,0.100000001490116
0.675543129444122,0.100000001490116
-0.432208925485611,0.100000001490116
-0.121439941227436,0.100000001490116
0.008837410248816,0.100000001490116
0.172310113906860,0.100000001490116
-0.057330746203661,0.100000001490116
-0.072894454002380,0.100000001490116
-0.683643102645874,0.100000001490116
-0.256283372640610,0.100000001490116
-0.067150652408600,0.100000001490116
-0.097706854343414,0.100000001490116
0.408893227577209,0.100000001490116
-0.268060684204102,0.100000001490116
0.278651535511017,0.100000001490116
0.059785146266222,0.100000001490116
-0.163377895951271,0.100000001490116
0.282228678464890,0.100000001490116
-0.076976343989372,0.100000001490116
0.743185818195343,0.100000001490116
0.128648191690445,0.100000001490116
-0.473352164030075,0.100000001490116
-0.223404854536057,0.100000001490116
0.091098792850971,0.100000001490116
0.103058464825153,0.100000001490116
-0.244579643011093,0.100000001490116
0.069760814309120,0.100000001490116
0.328533023595810,0.100000001490116
-0.057038679718971,0.100000001490116
-0.159835919737816,0.100000001490116
-0.259028017520905,0.100000001490116
0.168120890855789,0.100000001490116
-0.086372621357441,0.100000001490116
-0.006812043488026,0.100000001490116
-0.646036446094513,0.100000001490116
-0.331030666828156,0.100000001490116
-0.280828356742859,0.100000001490116
-0.109808444976807,0.100000001490116
-0.092068828642368,0.100000001490116
0.138137027621269,0.100000001490116
-0.381449341773987,0.100000001490116
0.221515163779259,0.100000001490116
-0.043835427612066,0.100000001490116
-0.037144761532545,0.100000001490116
-0.258808493614197,0.100000001490116
0.062974460422993,0.100000001490116
0.006077686790377,0.100000001490116
-0.205331161618233,0.100000001490116
0.005507051944733,0.100000001490116
-0.324388325214386,0.100000001490116
0.138604268431664,0.100000001490116
-0.044262226670980,0.100000001490116
-0.025137979537249,0.100000001490116
-0.048015289008617,0.100000001490116
-0.327372372150421,0.100000001490116
-0.140349790453911,0.100000001490116
-0.580780267715454,0.100000001490116
-0.681504666805267,0.100000001490116
0.450579375028610,0.100000001490116
0.177152574062347,0.100000001490116
0.075731232762337,0.100000001490116
-0.204113066196442,0.100000001490116
0.205603227019310,0.100000001490116
0.646012604236603,0.100000001490116
0.385208636522293,0.100000001490116
0.114602915942669,0.100000001490116
-0.405040830373764,0.100000001490116
-0.291458308696747,0.100000001490116
-0.428807199001312,0.100000001490116
0.298565596342087,0.100000001490116
-0.169170647859573,0.100000001490116
-0.240227088332176,0.100000001490116
0.138510361313820,0.100000001490116
0.325453162193298,0.100000001490116
-0.384978443384171,0.100000001490116
-0.253576189279556,0.100000001490116
-0.862523496150970,0.100000001490116
0.584223568439484,0.100000001490116
0.161164522171021,0.100000001490116
-0.300447493791580,0.100000001490116
-0.317034810781479,0.100000001490116
-0.142670825123787,0.100000001490116
-0.158436790108681,0.100000001490116
0.560777485370636,0.100000001490116
0.312760978937149,0.100000001490116
-0.315922409296036,0.100000001490116
0.293733507394791,0.100000001490116
0.393255114555359,0.100000001490116
0.210721299052238,0.100000001490116
0.210657685995102,0.100000001490116
0.296797126531601,0.100000001490116
0.152418479323387,0.100000001490116
-0.488338649272919,0.100000001490116
-0.494872391223907,0.100000001490116
0.136575937271118,0.100000001490116
0.208126515150070,0.100000001490116
0.091660611331463,0.100000001490116
-0.260535120964050,0.100000001490116
-0.162183135747910,0.100000001490116
-0.161872372031212,0.100000001490116
0.691913068294525,0.100000001490116
-0.023422995582223,0.100000001490116
0.321124970912933,0.100000001490116
-0.025064878165722,0.100000001490116
0.278039276599884,0.100000001490116
-0.216648519039154,0.100000001490116
-0.369641661643982,0.100000001490116
0.224202275276184,0.100000001490116
-0.201612442731857,0.100000001490116
0.544663190841675,0.100000001490116
0.535746753215790,0.100000001490116
-0.113923668861389,0.100000001490116
-0.229866161942482,0.100000001490116
-0.259562134742737,0.100000001490116
0.128525748848915,0.100000001490116
0.181321918964386,0.100000001490116
0.073710255324841,0.100000001490116
0.003519044490531,0.100000001490116
0.403150051832199,0.100000001490116
-0.722256183624268,0.100000001490116
-0.166593566536903,0.100000001490116
0.213696628808975,0.100000001490116
0.558964788913727,0.100000001490116
0.037721902132034,0.100000001490116
0.483932107686996,0.100000001490116
-0.377510130405426,0.100000001490116
0.020495858043432,0.100000001490116
0.549698173999786,0.100000001490116
-0.582246959209442,0.100000001490116
0.215715527534485,0.100000001490116
-0.455951958894730,0.100000001490116
0.494017571210861,0.100000001490116
0.257450371980667,0.100000001490116
-0.063783153891563,0.100000001490116
-0.265471488237381,0.100000001490116
0.362655937671661,0.100000001490116
-0.229251921176910,0.100000001490116
0.113581955432892,0.100000001490116
-0.229247346520424,0.100000001490116
0.492783457040787,0.100000001490116
-0.528709769248962,0.100000001490116
0.083639696240425,0.100000001490116
0.364153236150742,0.100000001490116
0.251509785652161,0.100000001490116
0.083254426717758,0.100000001490116
0.024849368259311,0.100000001490116
0.039471156895161,0.100000001490116
0.066132515668869,0.100000001490116
-0.386988401412964,0.100000001490116
0.311541885137558,0.100000001490116
-0.695718646049500,0.100000001490116
0.220364838838577,0.100000001490116
0.498465001583099,0.100000001490116
-0.284767597913742,0.100000001490116
-0.058608207851648,0.100000001490116
-0.196050181984901,0.100000001490116
0.091522864997387,0.100000001490116
0.598138391971588,0.100000001490116
0.359986633062363,0.100000001490116
0.273142009973526,0.100000001490116
-0.252679347991943,0.100000001490116
-0.159254238009453,0.100000001490116
0.190361455082893,0.100000001490116
-0.892286360263824,0.100000001490116
-0.067400552332401,0.100000001490116
-0.034432642161846,0.100000001490116
0.369992077350616,0.100000001490116
-0.202592387795448,0.100000001490116
-0.162073165178299,0.100000001490116
-0.643248081207275,0.100000001490116
-0.454603344202042,0.100000001490116
-0.171155452728271,0.100000001490116
0.494978994131088,0.100000001490116
0.282877534627914,0.100000001490116
-0.276272743940353,0.100000001490116
-0.079275093972683,0.100000001490116
0.048629622906446,0.100000001490116
0.102819897234440,0.100000001490116
0.139199838042259,0.100000001490116
-0.016563614830375,0.100000001490116
0.213673576712608,0.100000001490116
-0.280692577362061,0.100000001490116
-0.426142036914825,0.100000001490116
-0.212408646941185,0.100000001490116
0.136873096227646,0.100000001490116
0.227272734045982,0.100000001490116
0.124905928969383,0.100000001490116
-0.464567989110947,0.100000001490116
-0.107210077345371,0.100000001490116
-0.870120763778687,0.100000001490116
0.070522777736187,0.100000001490116
-0.227953821420670,0.100000001490116
0.545712888240814,0.100000001490116
-0.235947579145432,0.100000001490116
-0.369677692651749,0.100000001490116
-0.419531136751175,0.100000001490116
0.087381362915039,0.100000001490116
-0.383736640214920,0.100000001490116
0.001284108846448,0.100000001490116
-0.066413827240467,0.100000001490116
0.326771944761276,0.100000001490116
-0.113060079514980,0.100000001490116
-0.119103841483593,0.100000001490116
0.177663773298264,0.100000001490116
0.322584837675095,0.100000001490116
-0.002926547313109,0.100000001490116
-0.103818655014038,0.100000001490116
-0.061514988541603,0.100000001490116
0.005379531066865,0.100000001490116
0.254281967878342,0.100000001490116
-0.238250911235809,0.100000001490116
0.047957051545382,0.100000001490116
-0.086973495781422,0.100000001490116
0.174574285745621,0.100000001490116
0.465453684329987,0.100000001490116
-0.036680027842522,0.100000001490116
0.121204994618893,0.100000001490116
-0.298247873783112,0.100000001490116
0.416481584310532,0.100000001490116
0.666183412075043,0.100000001490116
0.065047383308411,0.100000001490116
-0.224983498454094,0.100000001490116
0.522703826427460,0.100000001490116
-0.212701067328453,0.100000001490116
-0.076168827712536,0.100000001490116
-0.371625900268555,0.100000001490116
-0.464661329984665,0.100000001490116
-0.366206526756287,0.100000001490116
0.015010243281722,0.100000001490116
0.236122965812683,0.100000001490116
-0.097996771335602,0.100000001490116
-0.315102845430374,0.100000001490116
0.047203648835421,0.100000001490116
0.143804833292961,0.100000001490116
0.075607001781464,0.100000001490116
0.200025543570518,0.100000001490116
-0.310019761323929,0.100000001490116
-0.359075069427490,0.100000001490116
-0.455022573471069,0.100000001490116
-0.086208499968052,0.100000001490116
-0.004333410412073,0.100000001490116
0.213490888476372,0.100000001490116
0.229375123977661,0.100000001490116
-0.207000076770782,0.100000001490116
0.273053526878357,0.100000001490116
0.187828034162521,0.100000001490116
0.013297632336617,0.100000001490116
-0.077934406697750,0.100000001490116
-0.295125335454941,0.100000001490116
0.205528244376183,0.100000001490116
0.671234190464020,0.100000001490116
-0.001411664881743,0.100000001490116
0.296460121870041,0.100000001490116
0.207978934049606,0.100000001490116
0.553447604179382,0.100000001490116
0.124152809381485,0.100000001490116
0.046044226735830,0.100000001490116
-0.257544577121735,0.100000001490116
-0.179341182112694,0.100000001490116
-0.478586435317993,0.100000001490116
-0.186533167958260,0.100000001490116
0.350837826728821,0.100000001490116
0.012259574607015,0.100000001490116
0.273743689060211,0.100000001490116
-0.391095638275146,0.100000001490116
0.125996559858322,0.100000001490116
0.531013846397400,0.100000001490116
0.019649684429169,0.100000001490116
0.156214073300362,0.100000001490116
0.222479492425919,0.100000001490116
0.299275636672974,0.100000001490116
0.486972093582153,0.100000001490116
-0.211867511272430,0.100000001490116
-0.233357265591621,0.100000001490116
0.401229500770569,0.100000001490116
-0.180686399340630,0.100000001490116
0.076280109584332,0.100000001490116
-0.088244520127773,0.100000001490116
-0.056669719517231,0.100000001490116
-0.081443056464195,0.100000001490116
-0.666394472122192,0.100000001490116
0.782927632331848,0.100000001490116
0.027890048921108,0.100000001490116
-0.175937175750732,0.100000001490116
0.033803921192884,0.100000001490116
-0.278642922639847,0.100000001490116
-0.614168167114258,0.100000001490116
0.434148937463760,0.100000001490116
0.360826581716537,0.100000001490116
0.158076718449593,0.100000001490116
0.007721723057330,0.100000001490116
-0.118809588253498,0.100000001490116
0.642522692680359,0.100000001490116
0.031456332653761,0.100000001490116
-0.098186977207661,0.100000001490116
0.205939546227455,0.100000001490116
0.363745957612991,0.100000001490116
-0.015626924112439,0.100000001490116
0.256373494863510,0.100000001490116
0.326370060443878,0.100000001490116
0.145763307809830,0.100000001490116
-0.159523442387581,0.100000001490116
-0.149828374385834,0.100000001490116
0.173940092325211,0.100000001490116
-0.404825240373611,0.100000001490116
-1.189557194709778,0.100000001490116
-0.034380283206701,0.100000001490116
0.086039543151855,0.100000001490116
0.796005964279175,0.100000001490116
0.207665339112282,0.100000001490116
0.281338334083557,0.100000001490116
-0.183672353625298,0.100000001490116
-0.034027490764856,0.100000001490116
0.178707554936409,0.100000001490116
-0.053849857300520,0.100000001490116
-0.043882481753826,0.100000001490116
0.178706735372543,0.100000001490116
-0.015367352403700,0.100000001490116
0.622120440006256,0.100000001490116
0.379407316446304,0.100000001490116
-0.517690896987915,0.100000001490116
-0.245644852519035,0.100000001490116
-0.217006549239159,0.100000001490116
0.122545942664146,0.100000001490116
0.211992278695107,0.100000001490116
-0.183310016989708,0.100000001490116
-0.162174656987190,0.100000001490116
-0.100339911878109,0.100000001490116
-0.273802667856216,0.100000001490116
-0.627229690551758,0.100000001490116
0.058425828814507,0.100000001490116
0.019034078344703,0.100000001490116
-0.300724714994431,0.100000001490116
-0.228879347443581,0.100000001490116
-0.839222133159637,0.100000001490116
-0.174327760934830,0.100000001490116
-0.417425692081451,0.100000001490116
-0.394676208496094,0.100000001490116
-0.139750480651855,0.100000001490116
0.290849864482880,0.100000001490116
0.222724258899689,0.100000001490116
-0.152830243110657,0.100000001490116
0.253239691257477,0.100000001490116
-0.245089247822762,0.100000001490116
0.033826749771833,0.100000001490116
0.140959054231644,0.100000001490116
0.296848654747009,0.100000001490116
-0.268061190843582,0.100000001490116
0.769268989562988,0.100000001490116
-0.627490103244781,0.100000001490116
-0.429977446794510,0.100000001490116
0.240385934710503,0.100000001490116
0.469128549098969,0.100000001490116
-0.242627143859863,0.100000001490116
-0.294209390878677,0.100000001490116
-0.007791684009135,0.100000001490116
0.201238855719566,0.100000001490116
0.376925587654114,0.100000001490116
-0.233526200056076,0.100000001490116
0.129277959465981,0.100000001490116
-0.920960783958435,0.100000001490116
-0.266479313373566,0.100000001490116
0.197148367762566,0.100000001490116
0.644030928611755,0.100000001490116
0.064948618412018,0.100000001490116
0.280930310487747,0.100000001490116
-0.400552332401276,0.100000001490116
-0.059982817620039,0.100000001490116
0.322490423917770,0.100000001490116
0.283960819244385,0.100000001490116
-0.845027089118958,0.100000001490116
0.202053233981133,0.100000001490116
0.223847597837448,0.100000001490116
0.386605054140091,0.100000001490116
0.310965895652771,0.100000001490116
-0.106102332472801,0.100000001490116
0.018356312066317,0.100000001490116
0.398125946521759,0.100000001490116
0.153211399912834,0.100000001490116
0.316532522439957,0.100000001490116
0.354064822196960,0.100000001490116
-0.066936329007149,0.100000001490116
-0.385325849056244,0.100000001490116
-0.707714855670929,0.100000001490116
0.034838352352381,0.100000001490116
0.009308616630733,0.100000001490116
-0.345042884349823,0.100000001490116
0.253634870052338,0.100000001490116
0.204634279012680,0.100000001490116
0.277496069669724,0.100000001490116
0.231509596109390,0.100000001490116
-0.255340546369553,0.100000001490116
0.147636711597443,0.100000001490116
-0.334764987230301,0.100000001490116
0.272203981876373,0.100000001490116
0.081532016396523,0.100000001490116
-0.153364360332489,0.100000001490116
-0.629263043403625,0.100000001490116
0.029681406915188,0.100000001490116
-0.038648363202810,0.100000001490116
0.435401618480682,0.100000001490116
-0.193707525730133,0.100000001490116
0.001777955447324,0.100000001490116
-0.223362907767296,0.100000001490116
0.543810606002808,0.100000001490116
0.158680796623230,0.100000001490116
0.073258750140667,0.100000001490116
-0.197108954191208,0.100000001490116
-0.376690894365311,0.100000001490116
-0.165439650416374,0.100000001490116
-0.244736284017563,0.100000001490116
-0.419856637716293,0.100000001490116
0.276308804750443,0.100000001490116
-0.246652334928513,0.100000001490116
0.156724259257317,0.100000001490116
0.031023902818561,0.100000001490116
0.574954092502594,0.100000001490116
-0.363305121660233,0.100000001490116
-0.778232574462891,0.100000001490116
-0.457964360713959,0.100000001490116
0.083020068705082,0.100000001490116
0.326844036579132,0.100000001490116
0.244676426053047,0.100000001490116
-0.123499818146229,0.100000001490116
0.569184780120850,0.100000001490116
-0.227378517389297,0.100000001490116
-0.318591952323914,0.100000001490116
-0.042552575469017,0.100000001490116
0.103304512798786,0.100000001490116
0.117661103606224,0.100000001490116
0.008880939334631,0.100000001490116
-0.052942525595427,0.100000001490116
0.351954191923141,0.100000001490116
0.162757247686386,0.100000001490116
-0.576081216335297,0.100000001490116
0.038394678384066,0.100000001490116
0.076764844357967,0.100000001490116
0.114480227231979,0.100000001490116
-0.035578787326813,0.100000001490116
-0.447272211313248,0.100000001490116
-0.206321015954018,0.100000001490116
-0.255867511034012,0.100000001490116
0.066652551293373,0.100000001490116
-0.230565622448921,0.100000001490116
-0.383412122726440,0.100000001490116
-0.732464611530304,0.100000001490116
-0.333028316497803,0.100000001490116
0.014659754000604,0.100000001490116
-0.154500335454941,0.100000001490116
-0.462091982364655,0.100000001490116
0.205861851572990,0.100000001490116
-0.147416934370995,0.100000001490116
0.491486191749573,0.100000001490116
-0.442890048027039,0.100000001490116
-0.466236889362335,0.100000001490116
-0.146684005856514,0.100000001490116
0.153817802667618,0.100000001490116
-0.077924795448780,0.100000001490116
-0.468252807855606,0.100000001490116
-0.314070940017700,0.100000001490116
0.471616387367249,0.100000001490116
-0.143398955464363,0.100000001490116
0.043787255883217,0.100000001490116
-0.086112640798092,0.100000001490116
-0.584414541721344,0.100000001490116
0.186669260263443,0.100000001490116
0.223557218909264,0.100000001490116
-0.037599679082632,0.100000001490116
0.139180988073349,0.100000001490116
-0.274017006158829,0.100000001490116
0.347130805253983,0.100000001490116
-0.071243055164814,0.100000001490116
0.148380011320114,0.100000001490116
0.349445492029190,0.100000001490116
-0.013802843168378,0.100000001490116
-0.204169526696205,0.100000001490116
0.284877479076385,0.100000001490116
-0.236729457974434,0.100000001490116
0.062564954161644,0.100000001490116
0.085875466465950,0.100000001490116
0.144602984189987,0.100000001490116
0.315565735101700,0.100000001490116
0.119827985763550,0.100000001490116
0.154706865549088,0.100000001490116
-0.260589838027954,0.100000001490116
0.178692832589149,0.100000001490116
-0.184163704514503,0.100000001490116
-0.160809278488159,0.100000001490116
0.157084956765175,0.100000001490116
0.276909261941910,0.100000001490116
-0.693485975265503,0.100000001490116
0.210852101445198,0.100000001490116
-0.359852105379105,0.100000001490116
-0.291592389345169,0.100000001490116
-0.665562629699707,0.100000001490116
0.046765401959419,0.100000001490116
0.204580575227737,0.100000001490116
0.472257733345032,0.100000001490116
-0.348156869411469,0.100000001490116
0.109504513442516,0.100000001490116
-0.468789488077164,0.100000001490116
-0.108657926321030,0.100000001490116
0.359790831804276,0.100000001490116
0.313456565141678,0.100000001490116
-0.137977704405785,0.100000001490116
-0.657236158847809,0.100000001490116
0.138690754771233,0.100000001490116
-0.123105570673943,0.100000001490116
0.096096925437450,0.100000001490116
0.195592984557152,0.100000001490116
0.161227256059647,0.100000001490116
-0.079984948039055,0.100000001490116
0.031439494341612,0.100000001490116
-0.326109081506729,0.100000001490116
0.267576575279236,0.100000001490116
-0.313858419656754,0.100000001490116
-0.208603128790855,0.100000001490116
0.250937789678574,0.100000001490116
-0.169596776366234,0.100000001490116
-0.274457305669785,0.100000001490116
0.094839937984943,0.100000001490116
0.078230194747448,0.100000001490116
-0.450893580913544,0.100000001490116
-0.279882609844208,0.100000001490116
-0.114827498793602,0.100000001490116
-0.065495334565639,0.100000001490116
-0.227767929434776,0.100000001490116
-0.097684979438782,0.100000001490116
-0.075857102870941,0.100000001490116
0.386567294597626,0.100000001490116
-0.569079875946045,0.100000001490116
0.322938114404678,0.100000001490116
-0.168328076601028,0.100000001490116
-0.272007763385773,0.100000001490116
0.379297703504562,0.100000001490116
0.143038988113403,0.100000001490116
0.567870855331421,0.100000001490116
-0.219924658536911,0.100000001490116
0.102896504104137,0.100000001490116
0.142965838313103,0.100000001490116
-0.396539807319641,0.100000001490116
-0.048931974917650,0.100000001490116
0.167869806289673,0.100000001490116
0.047287296503782,0.100000001490116
-0.104237899184227,0.100000001490116
-0.494050920009613,0.100000001490116
-0.710473537445068,0.100000001490116
0.159760504961014,0.100000001490116
-0.145412594079971,0.100000001490116
0.023782877251506,0.100000001490116
0.328331112861633,0.100000001490116
0.287310689687729,0.100000001490116
0.060824669897556,0.100000001490116
0.098589025437832,0.100000001490116
-0.139706328511238,0.100000001490116
-0.386534184217453,0.100000001490116
0.348989784717560,0.100000001490116
-0.062366735190153,0.100000001490116
-0.197055861353874,0.100000001490116
0.581656634807587,0.100000001490116
-0.190039753913879,0.100000001490116
0.018477039411664,0.100000001490116
-0.235006406903267,0.100000001490116
0.149317756295204,0.100000001490116
0.280249804258347,0.100000001490116
0.170899614691734,0.100000001490116
-0.228164643049240,0.100000001490116
0.230834782123566,0.100000001490116
-0.017397310584784,0.100000001490116
-0.709461271762848,0.100000001490116
0.418525457382202,0.100000001490116
-0.036565747112036,0.100000001490116
0.548838257789612,0.100000001490116
-0.460896104574203,0.100000001490116
-0.038290169090033,0.100000001490116
0.653443992137909,0.100000001490116
-0.110391058027744,0.100000001490116
0.046119444072247,0.100000001490116
0.228431597352028,0.100000001490116
0.071533545851707,0.100000001490116
-0.144347235560417,0.100000001490116
0.424918740987778,0.100000001490116
-0.650489985942841,0.100000001490116
0.358126193284988,0.100000001490116
-0.118121609091759,0.100000001490116
0.232189670205116,0.100000001490116
0.194700151681900,0.100000001490116
0.457408934831619,0.100000001490116
-0.221406102180481,0.100000001490116
-0.108229279518127,0.100000001490116
-0.311135679483414,0.100000001490116
-0.287915796041489,0.100000001490116
0.074022777378559,0.100000001490116
-0.319408893585205,0.100000001490116
0.219387069344521,0.100000001490116
-0.016769401729107,0.100000001490116
0.638580203056335,0.100000001490116
0.355350434780121,0.100000001490116
-0.355799853801727,0.100000001490116
-0.211838051676750,0.100000001490116
-0.086153939366341,0.100000001490116
0.113127343356609,0.100000001490116
-0.138072773814201,0.100000001490116
-0.019485224038363,0.100000001490116
-0.373023360967636,0.100000001490116
-0.333150744438171,0.100000001490116
-0.091027185320854,0.100000001490116
-0.078597068786621,0.100000001490116
-0.204406708478928,0.100000001490116
0.227811679244041,0.100000001490116
-0.361864060163498,0.100000001490116
0.251705974340439,0.100000001490116
-0.117492243647575,0.100000001490116
0.363899916410446,0.100000001490116
0.093747489154339,0.100000001490116
-0.782891511917114,0.100000001490116
-0.280551850795746,0.100000001490116
-0.522149026393890,0.100000001490116
0.608628928661346,0.100000001490116
0.021318839862943,0.100000001490116
0.032985765486956,0.100000001490116
0.407892286777496,0.100000001490116
0.668915569782257,0.100000001490116
0.589500248432159,0.100000001490116
0.083104640245438,0.100000001490116
-0.235316053032875,0.100000001490116
-0.185251176357269,0.100000001490116
0.351274579763412,0.100000001490116
-0.114775806665421,0.100000001490116
-0.041110619902611,0.100000001490116
0.591403424739838,0.100000001490116
0.138448134064674,0.100000001490116
-0.192062288522720,0.100000001490116
0.376308828592300,0.100000001490116
0.574114203453064,0.100000001490116
0.206580892205238,0.100000001490116
0.246451273560524,0.100000001490116
0.019478509202600,0.100000001490116
0.647888481616974,0.100000001490116
0.336393594741821,0.100000001490116
0.276953816413879,0.100000001490116
0.556337475776672,0.100000001490116
-0.193457931280136,0.100000001490116
-0.153876483440399,0.100000001490116
0.101412422955036,0.100000001490116
0.379277646541595,0.100000001490116
-0.018731035292149,0.100000001490116
0.132946699857712,0.100000001490116
-0.476926803588867,0.100000001490116
-0.229205667972565,0.100000001490116
0.243808165192604,0.100000001490116
-0.361762046813965,0.100000001490116
-0.018016368150711,0.100000001490116
0.559344708919525,0.100000001490116
-0.378865391016006,0.100000001490116
0.212872684001923,0.100000001490116
0.322546243667603,0.100000001490116
0.381694555282593,0.100000001490116
-0.076330162584782,0.100000001490116
-0.215914636850357,0.100000001490116
0.422151386737823,0.100000001490116
-0.306062549352646,0.100000001490116
0.188435792922974,0.100000001490116
0.232092246413231,0.100000001490116
0.218170434236526,0.100000001490116
-0.277429074048996,0.100000001490116
0.185251817107201,0.100000001490116
-0.158560723066330,0.100000001490116
0.302886605262756,0.100000001490116
0.584003567695618,0.100000001490116
0.017537167295814,0.100000001490116
-0.199415892362595,0.100000001490116
0.223083108663559,0.100000001490116
0.056402206420898,0.100000001490116
0.192839637398720,0.100000001490116
-0.473979562520981,0.100000001490116
0.234391704201698,0.100000001490116
0.009321535006166,0.100000001490116
0.184719473123550,0.100000001490116
0.406904339790344,0.100000001490116
0.491779655218124,0.100000001490116
0.259026259183884,0.100000001490116
0.018466880545020,0.100000001490116
-0.024210201576352,0.100000001490116
0.382661879062653,0.100000001490116
0.448746472597122,0.100000001490116
0.279876112937927,0.100000001490116
0.437963664531708,0.100000001490116
-0.265445739030838,0.100000001490116
0.213251575827599,0.100000001490116
-0.257017850875854,0.100000001490116
-0.397095978260040,0.100000001490116
-0.115684106945992,0.100000001490116
0.385536134243011,0.100000001490116
0.641443371772766,0.100000001490116
-0.192526131868362,0.100000001490116
0.161021009087563,0.100000001490116
0.275481700897217,0.100000001490116
0.028067348524928,0.100000001490116
0.194498509168625,0.100000001490116
-0.139811575412750,0.100000001490116
0.417015582323074,0.100000001490116
0.256146669387817,0.100000001490116
-0.002568094059825,0.100000001490116
-0.367622673511505,0.100000001490116
0.285925120115280,0.100000001490116
-0.062128543853760,0.100000001490116
-0.009044107981026,0.100000001490116
0.391583770513535,0.100000001490116
-0.219642728567123,0.100000001490116
0.265354245901108,0.100000001490116
-0.007190675474703,0.100000001490116
0.106355316936970,0.100000001490116
-0.267434328794479,0.100000001490116
0.277690500020981,0.100000001490116
-0.146614283323288,0.100000001490116
0.158506929874420,0.100000001490116
0.339911222457886,0.100000001490116
0.163633286952972,0.100000001490116
-0.137852594256401,0.100000001490116
-0.193646445870399,0.100000001490116
-0.110049217939377,0.100000001490116
0.593743264675140,0.100000001490116
0.169656053185463,0.100000001490116
0.338648796081543,0.100000001490116
0.113736048340797,0.100000001490116
-0.104527615010738,0.100000001490116
0.304955512285233,0.100000001490116
-0.212287724018097,0.100000001490116
0.278539955615997,0.100000001490116
-0.072271831333637,0.100000001490116
-0.050327338278294,0.100000001490116
-0.011283005587757,0.100000001490116
0.245370253920555,0.100000001490116
0.517706453800201,0.100000001490116
0.265015929937363,0.100000001490116
-0.485916644334793,0.100000001490116
0.372221529483795,0.100000001490116
0.186198249459267,0.100000001490116
-0.376252502202988,0.100000001490116
0.501307547092438,0.100000001490116
0.170335233211517,0.100000001490116
0.153632029891014,0.100000001490116
0.250403702259064,0.100000001490116
-0.071323774755001,0.100000001490116
-0.221298038959503,0.100000001490116
-0.077035836875439,0.100000001490116
-0.160947874188423,0.100000001490116
0.740083634853363,0.100000001490116
0.162570074200630,0.100000001490116
0.698350310325623,0.100000001490116
0.158260941505432,0.100000001490116
0.022641500458121,0.100000001490116
-0.052662629634142,0.100000001490116
-0.489849627017975,0.100000001490116
0.318125635385513,0.100000001490116
0.571027934551239,0.100000001490116
-0.127184122800827,0.100000001490116
-0.098405152559280,0.100000001490116
0.035587619990110,0.100000001490116
0.137469559907913,0.100000001490116
0.576211988925934,0.100000001490116
0.577853977680206,0.100000001490116
-0.472786873579025,0.100000001490116
0.102806627750397,0.100000001490116
-0.247106626629829,0.100000001490116
-0.096428483724594,0.100000001490116
-0.311468750238419,0.100000001490116
0.053576670587063,0.100000001490116
-0.340536773204803,0.100000001490116
0.476787745952606,0.100000001490116
0.327016472816467,0.100000001490116
-0.194053798913956,0.100000001490116
0.345049917697906,0.100000001490116
-0.221352770924568,0.100000001490116
0.524624586105347,0.100000001490116
-0.693535387516022,0.100000001490116
0.209119856357574,0.100000001490116
0.110239319503307,0.100000001490116
-0.010901370085776,0.100000001490116
0.268957942724228,0.100000001490116
-0.631970643997192,0.100000001490116
0.167412444949150,0.100000001490116
0.172400966286659,0.100000001490116
0.625841736793518,0.100000001490116
0.470220953226089,0.100000001490116
0.191669210791588,0.100000001490116
-0.229238331317902,0.100000001490116
0.195798084139824,0.100000001490116
0.007367311976850,0.100000001490116
0.015063109807670,0.100000001490116
-0.150938957929611,0.100000001490116
0.178368985652924,0.100000001490116
-0.099633693695068,0.100000001490116
-0.094805702567101,0.100000001490116
-0.202009603381157,0.100000001490116
-0.379442036151886,0.100000001490116
-0.168759942054749,0.100000001490116
0.532823383808136,0.100000001490116
-0.028240254148841,0.100000001490116
-0.220985457301140,0.100000001490116
0.691670477390289,0.100000001490116
-0.109772823750973,0.100000001490116
-0.281914442777634,0.100000001490116
-0.060872953385115,0.100000001490116
0.550652503967285,0.100000001490116
-0.183435976505280,0.100000001490116
-0.393617779016495,0.100000001490116
0.530765235424042,0.100000001490116
-0.501554250717163,0.100000001490116
0.375724226236343,0.100000001490116
0.060516491532326,0.100000001490116
0.071902446448803,0.100000001490116
-0.214939445257187,0.100000001490116
0.110987588763237,0.100000001490116
0.054568249732256,0.100000001490116
0.001430593896657,0.100000001490116
-0.003544463077560,0.100000001490116
-0.120104156434536,0.100000001490116
0.140894427895546,0.100000001490116
0.895565092563629,0.100000001490116
-0.475788921117783,0.100000001490116
-0.041678931564093,0.100000001490116
-0.131798043847084,0.100000001490116
-0.005815527867526,0.100000001490116
-0.188237965106964,0.100000001490116
0.061810459941626,0.100000001490116
0.034472018480301,0.100000001490116
0.214044824242592,0.100000001490116
0.009713519364595,0.100000001490116
0.097541324794292,0.100000001490116
0.108469173312187,0.100000001490116
0.180032953619957,0.100000001490116
0.177274957299232,0.100000001490116
-0.447228074073792,0.100000001490116
0.765017271041870,0.100000001490116
0.190123766660690,0.100000001490116
-0.110217601060867,0.100000001490116
-0.466821789741516,0.100000001490116
-0.016850272193551,0.100000001490116
0.333367019891739,0.100000001490116
-0.012754634022713,0.100000001490116
-0.201704353094101,0.100000001490116
-0.001850057044066,0.100000001490116
-0.087777078151703,0.100000001490116
-0.307363390922546,0.100000001490116
0.553398489952087,0.100000001490116
-0.383836418390274,0.100000001490116
-0.197319254279137,0.100000001490116
0.292864441871643,0.100000001490116
0.101869493722916,0.100000001490116
-0.257287353277206,0.100000001490116
0.245491713285446,0.100000001490116
0.005089191254228,0.013888888992369
0.104127004742622,0.013888888992369
0.023370034992695,0.013888888992369
0.074435636401176,0.013888888992369
0.136307120323181,0.013888888992369
-0.235951095819473,0.013888888992369
-0.052403625100851,0.013888888992369
-0.098570615053177,0.013888888992369
0.005089191254228,0.013888888992369
0.104127004742622,0.013888888992369
0.023370034992695,0.013888888992369
0.074435636401176,0.013888888992369
0.007197203114629,0.027777779847383
