mb,Sb
0.135095044970512,0.100000001490116
-0.228071078658104,0.100000001490116
-0.198038682341576,0.100000001490116
-0.043225415050983,0.100000001490116
0.518180191516876,0.100000001490116
-0.140254840254784,0.100000001490116
0.313266664743423,0.100000001490116
0.635601162910461,0.100000001490116
-0.067169457674026,0.100000001490116
-0.425395101308823,0.100000001490116
-0.123129084706306,0.100000001490116
-0.654547333717346,0.100000001490116
-0.471135258674622,0.100000001490116
0.347936421632767,0.100000001490116
-0.360901802778244,0.100000001490116
0.210996821522713,0.100000001490116
0.071678698062897,0.100000001490116
0.638183832168579,0.100000001490116
-1.038761377334595,0.100000001490116
0.230930268764496,0.100000001490116
-0.263211667537689,0.100000001490116
-0.340353995561600,0.100000001490116
0.379466533660889,0.100000001490116
0.092624165117741,0.100000001490116
-0.084658585488796,0.100000001490116
0.074015110731125,0.100000001490116
0.166058093309402,0.100000001490116
0.081954866647720,0.100000001490116
-0.110359832644463,0.100000001490116
-0.249273851513863,0.100000001490116
0.450438827276230,0.100000001490116
0.077534593641758,0.100000001490116
0.063811153173447,0.100000001490116
0.304595768451691,0.100000001490116
-0.301125526428223,0.100000001490116
-0.129598647356033,0.100000001490116
-0.074407897889614,0.100000001490116
-0.292610794305801,0.100000001490116
0.215370178222656,0.100000001490116
0.175576418638229,0.100000001490116
-0.003387261414900,0.100000001490116
-0.135691940784454,0.100000001490116
0.303407251834869,0.100000001490116
0.488841593265533,0.100000001490116
0.070738732814789,0.100000001490116
-0.410784214735031,0.100000001490116
-0.314864814281464,0.100000001490116
-0.325049340724945,0.100000001490116
-0.469013750553131,0.100000001490116
0.352546423673630,0.100000001490116
-0.193857789039612,0.100000001490116
-0.126284494996071,0.100000001490116
0.403235673904419,0.100000001490116
-0.017475634813309,0.100000001490116
0.347574234008789,0.100000001490116
0.073308944702148,0.100000001490116
0.080703094601631,0.100000001490116
-0.191408634185791,0.100000001490116
-0.204447492957115,0.100000001490116
0.528690695762634,0.100000001490116
0.631041109561920,0.100000001490116
-0.088892273604870,0.100000001490116
0.358891904354095,0.100000001490116
0.233025208115578,0.100000001490116
0.213307440280914,0.100000001490116
0.129204928874969,0.100000001490116
0.021391104906797,0.100000001490116
-0.290585786104202,0.100000001490116
-0.341976106166840,0.100000001490116
0.146635711193085,0.100000001490116
0.261427730321884,0.100000001490116
0.023287374526262,0.100000001490116
-0.126732155680656,0.100000001490116
-0.126681968569756,0.100000001490116
-0.200471594929695,0.100000001490116
-0.083064153790474,0.100000001490116
0.143939822912216,0.100000001490116
0.235744997859001,0.100000001490116
0.070973038673401,0.100000001490116
-0.174535498023033,0.100000001490116
0.631204187870026,0.100000001490116
0.549339175224304,0.100000001490116
0.284653723239899,0.100000001490116
0.083454623818398,0.100000001490116
0.037978261709213,0.100000001490116
0.043657649308443,0.100000001490116
0.139351680874825,0.100000001490116
0.383924663066864,0.100000001490116
-0.162260621786118,0.100000001490116
0.560123562812805,0.100000001490116
-0.439177662134171,0.100000001490116
0.075702115893364,0.100000001490116
0.416282922029495,0.100000001490116
-0.067783899605274,0.100000001490116
-0.153586104512215,0.100000001490116
0.179508507251740,0.100000001490116
0.449943780899048,0.100000001490116
0.198909968137741,0.100000001490116
0.075526200234890,0.100000001490116
0.086736328899860,0.100000001490116
-0.148342296481133,0.100000001490116
0.652212917804718,0.100000001490116
0.192994579672813,0.100000001490116
0.391136646270752,0.100000001490116
-0.288029521703720,0.100000001490116
-0.255863785743713,0.100000001490116
0.311907798051834,0.100000001490116
-0.291978389024734,0.100000001490116
0.056119851768017,0.100000001490116
0.259028345346451,0.100000001490116
-0.101016983389854,0.100000001490116
-0.285329699516296,0.100000001490116
-0.326791673898697,0.100000001490116
0.571963787078857,0.100000001490116
-0.467523306608200,0.100000001490116
-0.125523969531059,0.100000001490116
-0.027495924383402,0.100000001490116
-0.503833115100861,0.100000001490116
-0.015104783698916,0.100000001490116
0.030457515269518,0.100000001490116
-0.112497344613075,0.100000001490116
0.279515177011490,0.100000001490116
-0.197129502892494,0.100000001490116
0.245070442557335,0.100000001490116
0.122690327465534,0.100000001490116
-0.030544035136700,0.100000001490116
-0.196150809526443,0.100000001490116
-0.237374916672707,0.100000001490116
-0.483923137187958,0.100000001490116
0.072524368762970,0.100000001490116
-0.498743474483490,0.100000001490116
0.018253374844790,0.100000001490116
0.191183879971504,0.100000001490116
0.086456902325153,0.100000001490116
0.313123226165771,0.100000001490116
-0.270900219678879,0.100000001490116
-0.246813699603081,0.100000001490116
0.008048473857343,0.100000001490116
0.358390718698502,0.100000001490116
-0.448069214820862,0.100000001490116
-0.077544189989567,0.100000001490116
-0.634715557098389,0.100000001490116
0.686593353748322,0.100000001490116
-0.129175543785095,0.100000001490116
-0.149237692356110,0.100000001490116
0.288606911897659,0.100000001490116
0.065216191112995,0.100000001490116
-0.279590517282486,0.100000001490116
0.121158771216869,0.100000001490116
-0.346573203802109,0.100000001490116
-0.112640053033829,0.100000001490116
-0.142628178000450,0.100000001490116
-0.055049825459719,0.100000001490116
-0.262420833110809,0.100000001490116
0.181913211941719,0.100000001490116
0.093316569924355,0.100000001490116
0.113899402320385,0.100000001490116
-0.486524313688278,0.100000001490116
0.291729837656021,0.100000001490116
0.073428906500340,0.100000001490116
0.016223566606641,0.100000001490116
0.267332315444946,0.100000001490116
0.130909129977226,0.100000001490116
0.244420260190964,0.100000001490116
-0.063346460461617,0.100000001490116
0.296323567628860,0.100000001490116
0.010737231001258,0.100000001490116
-0.729007780551910,0.100000001490116
0.510756254196167,0.100000001490116
-0.087132178246975,0.100000001490116
-0.346957772970200,0.100000001490116
-0.166087001562119,0.100000001490116
-0.193021476268768,0.100000001490116
0.385093927383423,0.100000001490116
0.125717461109161,0.100000001490116
0.090672880411148,0.100000001490116
0.185174316167831,0.100000001490116
0.111304908990860,0.100000001490116
-0.560649633407593,0.100000001490116
0.399261236190796,0.100000001490116
-0.252991557121277,0.100000001490116
0.114499121904373,0.100000001490116
-0.204584777355194,0.100000001490116
0.442141503095627,0.100000001490116
-0.602550268173218,0.100000001490116
0.202944085001945,0.100000001490116
-0.240607097744942,0.100000001490116
0.825552582740784,0.100000001490116
-0.267836123704910,0.100000001490116
0.388024240732193,0.100000001490116
-0.036130778491497,0.100000001490116
0.133120849728584,0.100000001490116
0.012224909849465,0.100000001490116
0.143154680728912,0.100000001490116
-0.221738457679749,0.100000001490116
-0.258799135684967,0.100000001490116
0.305445760488510,0.100000001490116
-0.454912006855011,0.100000001490116
0.202420100569725,0.100000001490116
0.008184772916138,0.100000001490116
-0.355197817087173,0.100000001490116
-0.068084619939327,0.100000001490116
-0.149475440382957,0.100000001490116
0.070833660662174,0.100000001490116
0.125488892197609,0.100000001490116
0.162926927208900,0.100000001490116
0.046183727681637,0.100000001490116
0.001534927752800,0.100000001490116
0.668875098228455,0.100000001490116
0.206323280930519,0.100000001490116
-0.439446210861206,0.100000001490116
0.001628456637263,0.100000001490116
0.174313500523567,0.100000001490116
-0.098746836185455,0.100000001490116
-0.291002541780472,0.100000001490116
-0.212857291102409,0.100000001490116
0.660449326038361,0.100000001490116
0.007489867042750,0.100000001490116
0.047328080981970,0.100000001490116
0.408782631158829,0.100000001490116
0.242363736033440,0.100000001490116
-0.110823154449463,0.100000001490116
0.260350704193115,0.100000001490116
0.267393857240677,0.100000001490116
-0.090141028165817,0.100000001490116
0.311450362205505,0.100000001490116
-0.156735211610794,0.100000001490116
-0.203350245952606,0.100000001490116
0.113264374434948,0.100000001490116
0.433351039886475,0.100000001490116
-0.817454278469086,0.100000001490116
-0.126771166920662,0.100000001490116
0.149410828948021,0.100000001490116
0.194020852446556,0.100000001490116
-0.384065270423889,0.100000001490116
0.112628065049648,0.100000001490116
-0.186529606580734,0.100000001490116
0.112335465848446,0.100000001490116
0.426403999328613,0.100000001490116
-0.395299643278122,0.100000001490116
0.131782665848732,0.100000001490116
-0.092047132551670,0.100000001490116
0.036346983164549,0.100000001490116
0.104928351938725,0.100000001490116
0.443156212568283,0.100000001490116
-0.017037803307176,0.100000001490116
0.412076145410538,0.100000001490116
0.219663336873055,0.100000001490116
-0.388077408075333,0.100000001490116
0.218911647796631,0.100000001490116
-0.269599825143814,0.100000001490116
0.080861888825893,0.100000001490116
0.367135286331177,0.100000001490116
0.011314993724227,0.100000001490116
-0.132401347160339,0.100000001490116
0.383845269680023,0.100000001490116
0.349326103925705,0.100000001490116
-0.104168489575386,0.100000001490116
0.061173144727945,0.100000001490116
0.370950907468796,0.100000001490116
-0.171493068337440,0.100000001490116
0.001773025374860,0.100000001490116
0.409305810928345,0.100000001490116
0.174150869250298,0.100000001490116
0.788202941417694,0.100000001490116
-0.369768351316452,0.100000001490116
-0.324749499559402,0.100000001490116
0.054910726845264,0.100000001490116
0.412474751472473,0.100000001490116
0.439038693904877,0.100000001490116
-0.559145033359528,0.100000001490116
0.409656673669815,0.100000001490116
-0.190576151013374,0.100000001490116
0.682961821556091,0.100000001490116
-0.480369955301285,0.100000001490116
-0.194059148430824,0.100000001490116
0.341859400272369,0.100000001490116
-0.056965921074152,0.100000001490116
0.304266422986984,0.100000001490116
0.053545814007521,0.100000001490116
-0.142885446548462,0.100000001490116
-0.046638105064631,0.100000001490116
-0.343139439821243,0.100000001490116
-0.188194453716278,0.100000001490116
-0.066348485648632,0.100000001490116
0.009580108337104,0.100000001490116
-0.566986024379730,0.100000001490116
0.175354644656181,0.100000001490116
-0.148550331592560,0.100000001490116
-0.094437733292580,0.100000001490116
0.171690583229065,0.100000001490116
0.185819044709206,0.100000001490116
0.531954765319824,0.100000001490116
-0.144360229372978,0.100000001490116
0.260979652404785,0.100000001490116
-0.325923770666122,0.100000001490116
0.033274345099926,0.100000001490116
-0.203617349267006,0.100000001490116
0.199397116899490,0.100000001490116
-0.016695784404874,0.100000001490116
-0.004549798555672,0.100000001490116
0.637034416198730,0.100000001490116
-0.304333895444870,0.100000001490116
-0.577474355697632,0.100000001490116
-0.118177942931652,0.100000001490116
-0.134801447391510,0.100000001490116
0.656606972217560,0.100000001490116
0.207668155431747,0.100000001490116
-0.214046314358711,0.100000001490116
-0.115983150899410,0.100000001490116
0.286755263805389,0.100000001490116
0.451952069997787,0.100000001490116
-0.506943881511688,0.100000001490116
0.265555709600449,0.100000001490116
0.224672868847847,0.100000001490116
-0.134291514754295,0.100000001490116
0.373213768005371,0.100000001490116
-0.628659725189209,0.100000001490116
-0.104320198297501,0.100000001490116
-0.166818320751190,0.100000001490116
0.140651151537895,0.100000001490116
-0.307020276784897,0.100000001490116
-0.038203831762075,0.100000001490116
0.264697164297104,0.100000001490116
-0.205512925982475,0.100000001490116
-0.049914702773094,0.100000001490116
0.187751263380051,0.100000001490116
-0.319765061140060,0.100000001490116
0.017341215163469,0.100000001490116
-0.651980638504028,0.100000001490116
-0.468080133199692,0.100000001490116
0.348598033189774,0.100000001490116
-0.487631022930145,0.100000001490116
0.468975841999054,0.100000001490116
0.066298425197601,0.100000001490116
-0.151062756776810,0.100000001490116
-0.172953441739082,0.100000001490116
-0.036476217210293,0.100000001490116
0.349355578422546,0.100000001490116
-0.201836273074150,0.100000001490116
-0.219108104705811,0.100000001490116
-0.195759370923042,0.100000001490116
0.179184913635254,0.100000001490116
0.090703368186951,0.100000001490116
-0.271957635879517,0.100000001490116
-0.334780931472778,0.100000001490116
0.394439488649368,0.100000001490116
-0.283679038286209,0.100000001490116
0.055178329348564,0.100000001490116
0.498973906040192,0.100000001490116
-0.559620440006256,0.100000001490116
0.242014959454536,0.100000001490116
-0.327946603298187,0.100000001490116
-0.663650512695312,0.100000001490116
-0.301067084074020,0.100000001490116
-0.150485172867775,0.100000001490116
0.135215029120445,0.100000001490116
-0.112427160143852,0.100000001490116
-0.160505279898643,0.100000001490116
-0.246009707450867,0.100000001490116
0.092280752956867,0.100000001490116
-0.072404615581036,0.100000001490116
-0.358734250068665,0.100000001490116
0.100748777389526,0.100000001490116
0.423679322004318,0.100000001490116
-0.055626880377531,0.100000001490116
-0.481774449348450,0.100000001490116
-0.444668710231781,0.100000001490116
0.015901478007436,0.100000001490116
-0.199786901473999,0.100000001490116
0.259624898433685,0.100000001490116
-0.373888283967972,0.100000001490116
-0.081173084676266,0.100000001490116
-0.376112312078476,0.100000001490116
-0.218720734119415,0.100000001490116
-0.221452787518501,0.100000001490116
-0.019282216206193,0.100000001490116
-0.119537711143494,0.100000001490116
0.074911326169968,0.100000001490116
-0.395153403282166,0.100000001490116
-0.099708802998066,0.100000001490116
0.562254488468170,0.100000001490116
0.246980711817741,0.100000001490116
-0.237618610262871,0.100000001490116
0.015015818178654,0.100000001490116
-0.599542319774628,0.100000001490116
-0.083745166659355,0.100000001490116
-0.435937732458115,0.100000001490116
0.253330081701279,0.100000001490116
-0.399304717779160,0.100000001490116
-0.129158243536949,0.100000001490116
0.005760645028204,0.100000001490116
-0.038322672247887,0.100000001490116
0.256057530641556,0.100000001490116
-0.084065735340118,0.100000001490116
0.088562794029713,0.100000001490116
0.000800390436780,0.100000001490116
-0.310759156942368,0.100000001490116
-0.215604677796364,0.100000001490116
-0.355464518070221,0.100000001490116
-0.202177658677101,0.100000001490116
-0.419477432966232,0.100000001490116
0.441784411668777,0.100000001490116
-0.229356914758682,0.100000001490116
0.661180615425110,0.100000001490116
0.283890843391418,0.100000001490116
0.115334376692772,0.100000001490116
0.230478063225746,0.100000001490116
0.084962137043476,0.100000001490116
0.414320409297943,0.100000001490116
0.218150660395622,0.100000001490116
-0.437522828578949,0.100000001490116
0.215650722384453,0.100000001490116
0.058878526091576,0.100000001490116
-0.365127056837082,0.100000001490116
-0.297156304121017,0.100000001490116
0.250032842159271,0.100000001490116
0.154865980148315,0.100000001490116
-0.115802362561226,0.100000001490116
0.328618258237839,0.100000001490116
-0.322780609130859,0.100000001490116
-0.295736283063889,0.100000001490116
0.003588840365410,0.100000001490116
0.171417117118835,0.100000001490116
-0.416986972093582,0.100000001490116
-0.049874827265739,0.100000001490116
-0.067117005586624,0.100000001490116
0.013871594332159,0.100000001490116
-0.209038749337196,0.100000001490116
-0.589371502399445,0.100000001490116
-0.051697734743357,0.100000001490116
0.078614242374897,0.100000001490116
0.444024771451950,0.100000001490116
0.061192352324724,0.100000001490116
0.084828622639179,0.100000001490116
-0.044677224010229,0.100000001490116
-0.034512694925070,0.100000001490116
0.602693080902100,0.100000001490116
-0.052610140293837,0.100000001490116
0.154059484601021,0.100000001490116
-0.191954210400581,0.100000001490116
-0.169397905468941,0.100000001490116
0.158102825284004,0.100000001490116
0.193327084183693,0.100000001490116
0.005779109429568,0.100000001490116
-0.314688801765442,0.100000001490116
0.382022500038147,0.100000001490116
0.240983530879021,0.100000001490116
0.069620586931705,0.100000001490116
0.141571715474129,0.100000001490116
0.301281273365021,0.100000001490116
-0.090141981840134,0.100000001490116
0.376024365425110,0.100000001490116
-0.144647419452667,0.100000001490116
-0.010093728080392,0.100000001490116
-0.249069482088089,0.100000001490116
0.243488833308220,0.100000001490116
0.477992475032806,0.100000001490116
0.377090036869049,0.100000001490116
0.386074721813202,0.100000001490116
0.524793863296509,0.100000001490116
-0.420001804828644,0.100000001490116
0.087618663907051,0.100000001490116
-0.430368691682816,0.100000001490116
-0.255106449127197,0.100000001490116
0.274987816810608,0.100000001490116
-0.043074823915958,0.100000001490116
0.504907608032227,0.100000001490116
0.283705025911331,0.100000001490116
0.305660009384155,0.100000001490116
-0.414954662322998,0.100000001490116
0.528496026992798,0.100000001490116
0.046806450933218,0.100000001490116
0.017945254221559,0.100000001490116
0.124740973114967,0.100000001490116
-0.338083833456039,0.100000001490116
0.260563403367996,0.100000001490116
-0.043764811009169,0.100000001490116
0.845987915992737,0.100000001490116
-0.160675689578056,0.100000001490116
-0.443995147943497,0.100000001490116
0.578592538833618,0.100000001490116
0.613025128841400,0.100000001490116
-0.023224359378219,0.100000001490116
-0.241229921579361,0.100000001490116
0.202690005302429,0.100000001490116
-0.315173923969269,0.100000001490116
-0.302304208278656,0.100000001490116
-0.254458308219910,0.100000001490116
0.738112509250641,0.100000001490116
-0.506585657596588,0.100000001490116
0.206811532378197,0.100000001490116
-0.096595875918865,0.100000001490116
-0.243711277842522,0.100000001490116
0.275763601064682,0.100000001490116
-0.103435568511486,0.100000001490116
-0.078685469925404,0.100000001490116
0.541077017784119,0.100000001490116
0.103243887424469,0.100000001490116
-0.156538516283035,0.100000001490116
0.199708521366119,0.100000001490116
0.376742929220200,0.100000001490116
-0.804721355438232,0.100000001490116
-0.084381073713303,0.100000001490116
0.405298233032227,0.100000001490116
0.027139617130160,0.100000001490116
0.409739881753922,0.100000001490116
0.179302543401718,0.100000001490116
-0.225141733884811,0.100000001490116
0.137540191411972,0.100000001490116
0.198836877942085,0.100000001490116
-0.540400624275208,0.100000001490116
0.011371403001249,0.100000001490116
0.034147478640079,0.100000001490116
-0.065174847841263,0.100000001490116
-0.098163887858391,0.100000001490116
-0.085717238485813,0.100000001490116
0.060670662671328,0.100000001490116
-0.585374534130096,0.100000001490116
-0.237203389406204,0.100000001490116
-0.450470983982086,0.100000001490116
-0.288082927465439,0.100000001490116
0.318938463926315,0.100000001490116
0.053351029753685,0.100000001490116
0.156251445412636,0.100000001490116
-0.275586068630219,0.100000001490116
-0.424612998962402,0.100000001490116
0.376629024744034,0.100000001490116
-0.219727307558060,0.100000001490116
-0.384746462106705,0.100000001490116
0.136192873120308,0.100000001490116
-0.174709245562553,0.100000001490116
0.596718490123749,0.100000001490116
0.250032871961594,0.100000001490116
-0.441648989915848,0.100000001490116
-0.060367699712515,0.100000001490116
0.341925710439682,0.100000001490116
-0.472151279449463,0.100000001490116
-0.026367697864771,0.100000001490116
-0.056965675204992,0.100000001490116
-0.043400190770626,0.100000001490116
0.037446565926075,0.100000001490116
0.372364103794098,0.100000001490116
-0.089124560356140,0.100000001490116
-0.244291484355927,0.100000001490116
-0.210602164268494,0.100000001490116
-0.219300910830498,0.100000001490116
0.233693957328796,0.100000001490116
0.236561521887779,0.100000001490116
-0.188119024038315,0.100000001490116
0.478481858968735,0.100000001490116
-0.308594554662704,0.100000001490116
0.175159424543381,0.100000001490116
-0.044288299977779,0.100000001490116
-0.152156770229340,0.100000001490116
-0.274983584880829,0.100000001490116
0.213491231203079,0.100000001490116
0.030842503532767,0.100000001490116
0.117875173687935,0.100000001490116
0.790756762027740,0.100000001490116
0.311428576707840,0.100000001490116
-0.087792977690697,0.100000001490116
-0.541722416877747,0.100000001490116
0.284839272499084,0.100000001490116
0.011227952316403,0.100000001490116
-0.413702160120010,0.100000001490116
0.136838287115097,0.100000001490116
-0.539649009704590,0.100000001490116
-0.014368452131748,0.100000001490116
0.215082854032516,0.100000001490116
0.191495999693871,0.100000001490116
0.429171621799469,0.100000001490116
-0.483874887228012,0.100000001490116
-0.046083681285381,0.100000001490116
0.497500658035278,0.100000001490116
0.226578190922737,0.100000001490116
0.124825783073902,0.100000001490116
-0.188332006335258,0.100000001490116
0.236345946788788,0.100000001490116
0.341486752033234,0.100000001490116
0.161515817046165,0.100000001490116
-0.440988868474960,0.100000001490116
0.236193522810936,0.100000001490116
-0.275920867919922,0.100000001490116
0.272612929344177,0.100000001490116
0.233890518546104,0.100000001490116
-0.206499785184860,0.100000001490116
-0.413569033145905,0.100000001490116
0.037537537515163,0.100000001490116
0.177393317222595,0.100000001490116
0.138714343309402,0.100000001490116
0.012684019282460,0.100000001490116
-0.278566181659698,0.100000001490116
0.238256901502609,0.100000001490116
-0.130803540349007,0.100000001490116
-0.113790005445480,0.100000001490116
0.171607434749603,0.100000001490116
-0.003675916930661,0.100000001490116
0.036353949457407,0.100000001490116
0.668045997619629,0.100000001490116
-0.093305990099907,0.100000001490116
-0.037063911557198,0.100000001490116
-0.109782725572586,0.100000001490116
0.487629711627960,0.100000001490116
-0.332770049571991,0.100000001490116
0.131361886858940,0.100000001490116
-0.336838275194168,0.100000001490116
-0.258675545454025,0.100000001490116
-0.302518844604492,0.100000001490116
0.492437422275543,0.100000001490116
-0.398416489362717,0.100000001490116
0.497184962034225,0.100000001490116
0.732970237731934,0.100000001490116
-0.042779766023159,0.100000001490116
0.315594226121902,0.100000001490116
-0.089552268385887,0.100000001490116
-0.365931779146194,0.100000001490116
-0.356035947799683,0.100000001490116
-0.222214221954346,0.100000001490116
-0.277564674615860,0.100000001490116
-0.237983465194702,0.100000001490116
-0.267792999744415,0.100000001490116
-0.362212210893631,0.100000001490116
-0.315502643585205,0.100000001490116
-0.181409880518913,0.100000001490116
-0.163010463118553,0.100000001490116
-0.108609050512314,0.100000001490116
-0.574029684066772,0.100000001490116
-0.063567705452442,0.100000001490116
-0.010963410139084,0.100000001490116
0.450440883636475,0.100000001490116
-0.355784446001053,0.100000001490116
-0.120208911597729,0.100000001490116
-0.292186915874481,0.100000001490116
0.041011769324541,0.100000001490116
0.134084492921829,0.100000001490116
-0.151512235403061,0.100000001490116
-0.154265418648720,0.100000001490116
-0.253829836845398,0.100000001490116
-0.246955662965775,0.100000001490116
-0.087558858096600,0.100000001490116
0.156765416264534,0.100000001490116
-0.057246487587690,0.100000001490116
0.056735362857580,0.100000001490116
0.232303217053413,0.100000001490116
-0.672973155975342,0.100000001490116
-0.269592970609665,0.100000001490116
0.112986750900745,0.100000001490116
0.623975992202759,0.100000001490116
0.307320088148117,0.100000001490116
0.131999045610428,0.100000001490116
0.064932070672512,0.100000001490116
0.674739062786102,0.100000001490116
-0.198978424072266,0.100000001490116
-0.008351566269994,0.100000001490116
-0.387526154518127,0.100000001490116
0.167521402239799,0.100000001490116
0.284640818834305,0.100000001490116
-0.290444552898407,0.100000001490116
-0.374970346689224,0.100000001490116
-0.191534474492073,0.100000001490116
0.322369068861008,0.100000001490116
-0.056996159255505,0.100000001490116
-0.316637605428696,0.100000001490116
0.027204867452383,0.100000001490116
0.088436014950275,0.100000001490116
0.145532339811325,0.100000001490116
0.552085757255554,0.100000001490116
0.711229741573334,0.100000001490116
-0.096301384270191,0.100000001490116
-0.323250472545624,0.100000001490116
-0.328536629676819,0.100000001490116
0.257533222436905,0.100000001490116
-0.251364201307297,0.100000001490116
-0.459426641464233,0.100000001490116
0.240199416875839,0.100000001490116
-0.167821675539017,0.100000001490116
0.119216248393059,0.100000001490116
0.304623425006866,0.100000001490116
0.677309632301331,0.100000001490116
-0.205736219882965,0.100000001490116
-0.112425193190575,0.100000001490116
-0.742479026317596,0.100000001490116
-0.219404876232147,0.100000001490116
0.395797073841095,0.100000001490116
-0.188923925161362,0.100000001490116
-0.193282604217529,0.100000001490116
0.329743236303329,0.100000001490116
0.368025034666061,0.100000001490116
-0.363869279623032,0.100000001490116
-0.068385213613510,0.100000001490116
0.112078011035919,0.100000001490116
-0.032882347702980,0.100000001490116
-0.089403688907623,0.100000001490116
0.482437670230865,0.100000001490116
0.091562636196613,0.100000001490116
-0.210155218839645,0.100000001490116
0.141604229807854,0.100000001490116
-0.052467890083790,0.100000001490116
0.219824790954590,0.100000001490116
-0.072739049792290,0.100000001490116
0.553168416023254,0.100000001490116
0.086881674826145,0.100000001490116
0.187528282403946,0.100000001490116
-0.150809541344643,0.100000001490116
0.125264331698418,0.100000001490116
0.575536131858826,0.100000001490116
-0.340243309736252,0.100000001490116
-0.227741032838821,0.100000001490116
-0.439550995826721,0.100000001490116
-0.567256689071655,0.100000001490116
0.160192459821701,0.100000001490116
-0.075516059994698,0.100000001490116
0.392576038837433,0.100000001490116
0.155424222350121,0.100000001490116
0.072178408503532,0.100000001490116
0.328238636255264,0.100000001490116
0.153332546353340,0.100000001490116
0.279955267906189,0.100000001490116
0.344762831926346,0.100000001490116
-0.069276347756386,0.100000001490116
0.048978276550770,0.100000001490116
-0.625419259071350,0.100000001490116
0.035062942653894,0.100000001490116
0.205094635486603,0.100000001490116
-0.497474044561386,0.100000001490116
-0.057752419263124,0.100000001490116
0.374807208776474,0.100000001490116
0.240056738257408,0.100000001490116
0.264654397964478,0.100000001490116
-0.353231012821198,0.100000001490116
0.054476644843817,0.100000001490116
-0.470494985580444,0.100000001490116
-0.641724169254303,0.100000001490116
-0.169594913721085,0.100000001490116
-0.557035684585571,0.100000001490116
0.507026076316833,0.100000001490116
0.274134546518326,0.100000001490116
0.070826381444931,0.100000001490116
0.413994282484055,0.100000001490116
-0.751583278179169,0.100000001490116
-0.146140843629837,0.100000001490116
-0.221977144479752,0.100000001490116
-0.384139299392700,0.100000001490116
-0.303481131792068,0.100000001490116
-0.098716050386429,0.100000001490116
0.372289031744003,0.100000001490116
0.808831870555878,0.100000001490116
-0.088002085685730,0.100000001490116
-0.048975687474012,0.100000001490116
0.433948159217834,0.100000001490116
0.009595213457942,0.100000001490116
0.201157763600349,0.100000001490116
-0.167813226580620,0.100000001490116
0.135569930076599,0.100000001490116
-0.259805679321289,0.100000001490116
-0.258227825164795,0.100000001490116
0.310418665409088,0.100000001490116
0.091432839632034,0.100000001490116
-0.236394301056862,0.100000001490116
0.767856180667877,0.100000001490116
0.506156563758850,0.100000001490116
-0.639527261257172,0.100000001490116
-0.387505412101746,0.100000001490116
-0.175371497869492,0.100000001490116
0.320745408535004,0.100000001490116
0.551345050334930,0.100000001490116
0.290619939565659,0.100000001490116
-0.001263920916244,0.100000001490116
-0.308579027652740,0.100000001490116
-0.329177498817444,0.100000001490116
-0.457185298204422,0.100000001490116
-0.050399396568537,0.100000001490116
-0.139627069234848,0.100000001490116
-0.403414726257324,0.100000001490116
0.163932755589485,0.100000001490116
0.096642926335335,0.100000001490116
0.010127965360880,0.100000001490116
0.008813502267003,0.100000001490116
-0.055156715214252,0.100000001490116
-0.558518767356873,0.100000001490116
-0.145941048860550,0.100000001490116
-0.046393927186728,0.100000001490116
-0.143715247511864,0.100000001490116
0.173467040061951,0.100000001490116
-0.091829866170883,0.100000001490116
0.035781897604465,0.100000001490116
0.425642997026443,0.100000001490116
0.083043985068798,0.100000001490116
-0.380203634500504,0.100000001490116
-0.024090854451060,0.100000001490116
0.666984379291534,0.100000001490116
0.622344613075256,0.100000001490116
0.267373830080032,0.100000001490116
-0.028738759458065,0.100000001490116
0.397818565368652,0.100000001490116
0.049651581794024,0.100000001490116
0.137277439236641,0.100000001490116
0.620433986186981,0.100000001490116
0.076200559735298,0.100000001490116
-0.014166904613376,0.100000001490116
-0.185956180095673,0.100000001490116
-0.704160869121552,0.100000001490116
0.042724195867777,0.100000001490116
-0.469767242670059,0.100000001490116
0.289688110351562,0.100000001490116
-0.380843549966812,0.100000001490116
0.142931446433067,0.100000001490116
0.027730058878660,0.100000001490116
0.260419994592667,0.100000001490116
-0.004961038473994,0.100000001490116
-0.271583437919617,0.100000001490116
-0.100595898926258,0.100000001490116
0.334445416927338,0.100000001490116
0.232552751898766,0.100000001490116
-0.568360805511475,0.100000001490116
0.048649922013283,0.100000001490116
0.301198691129684,0.100000001490116
0.120000503957272,0.100000001490116
0.375513464212418,0.100000001490116
0.027531920000911,0.100000001490116
0.394643634557724,0.100000001490116
-0.056272912770510,0.100000001490116
-0.535741806030273,0.100000001490116
-0.044486168771982,0.100000001490116
0.256534606218338,0.100000001490116
0.341357260942459,0.100000001490116
-0.052555248141289,0.100000001490116
0.239309027791023,0.100000001490116
-0.363412320613861,0.100000001490116
0.059417355805635,0.100000001490116
-0.570117950439453,0.100000001490116
-0.435789257287979,0.100000001490116
0.451331406831741,0.100000001490116
-0.121571205556393,0.100000001490116
0.394487977027893,0.100000001490116
0.025238811969757,0.100000001490116
0.399394989013672,0.100000001490116
-0.156906440854073,0.100000001490116
-0.528215825557709,0.100000001490116
0.628460466861725,0.100000001490116
0.049564551562071,0.100000001490116
-0.693772196769714,0.100000001490116
0.314047664403915,0.100000001490116
-0.220369741320610,0.100000001490116
0.309239059686661,0.100000001490116
0.178198546171188,0.100000001490116
0.216249525547028,0.100000001490116
-0.157741382718086,0.100000001490116
-0.725694119930267,0.100000001490116
-0.554812848567963,0.100000001490116
-0.265772968530655,0.100000001490116
0.539671361446381,0.100000001490116
-0.074579089879990,0.100000001490116
0.122248388826847,0.100000001490116
-0.157236337661743,0.100000001490116
0.194020479917526,0.100000001490116
-0.072353109717369,0.100000001490116
-0.109019011259079,0.100000001490116
0.267727106809616,0.100000001490116
-0.062690101563931,0.100000001490116
0.719784975051880,0.100000001490116
-0.170299038290977,0.100000001490116
-0.362814486026764,0.100000001490116
0.246343776583672,0.100000001490116
-0.219932287931442,0.100000001490116
-0.053022962063551,0.100000001490116
-0.348408430814743,0.100000001490116
-0.256786078214645,0.100000001490116
0.103803105652332,0.100000001490116
0.178659468889236,0.100000001490116
0.094785369932652,0.100000001490116
-0.060254465788603,0.100000001490116
-0.293398171663284,0.100000001490116
-0.303197860717773,0.100000001490116
-0.085081242024899,0.100000001490116
0.388222992420197,0.100000001490116
0.576413750648499,0.100000001490116
0.162128582596779,0.100000001490116
-0.184150651097298,0.100000001490116
-0.640541434288025,0.100000001490116
-0.151036053895950,0.100000001490116
-0.348868757486343,0.100000001490116
-0.196271240711212,0.100000001490116
0.371417224407196,0.100000001490116
0.041042167693377,0.100000001490116
0.360070884227753,0.100000001490116
0.359254151582718,0.100000001490116
0.043046042323112,0.100000001490116
-0.147745952010155,0.100000001490116
-0.160127609968185,0.100000001490116
-0.139433681964874,0.100000001490116
-0.271648675203323,0.100000001490116
0.270457893610001,0.100000001490116
0.272919625043869,0.100000001490116
-0.399686247110367,0.100000001490116
0.095694899559021,0.100000001490116
0.163670569658279,0.100000001490116
-0.002579476684332,0.100000001490116
0.182391121983528,0.100000001490116
-0.261888265609741,0.100000001490116
-0.455478459596634,0.100000001490116
-0.687111794948578,0.100000001490116
0.087405920028687,0.100000001490116
-0.362226635217667,0.100000001490116
0.099649585783482,0.100000001490116
-0.139802843332291,0.100000001490116
-0.036881577223539,0.100000001490116
-0.108521312475204,0.100000001490116
0.303570270538330,0.100000001490116
-0.618035554885864,0.100000001490116
0.438585609197617,0.100000001490116
-0.147326231002808,0.100000001490116
-0.585374414920807,0.100000001490116
-0.071048274636269,0.100000001490116
-0.322918385267258,0.100000001490116
0.431444168090820,0.100000001490116
0.671643614768982,0.100000001490116
-0.294398337602615,0.100000001490116
0.178330406546593,0.100000001490116
0.073843523859978,0.100000001490116
0.077679276466370,0.100000001490116
-0.395262569189072,0.100000001490116
-0.139974087476730,0.100000001490116
-0.341514199972153,0.100000001490116
-0.104487277567387,0.100000001490116
-0.543811202049255,0.100000001490116
-0.336992740631104,0.100000001490116
-0.489596635103226,0.100000001490116
-0.355429589748383,0.100000001490116
-0.142111763358116,0.100000001490116
0.014286647550762,0.100000001490116
0.189980566501617,0.100000001490116
0.114673018455505,0.100000001490116
-0.486955374479294,0.100000001490116
0.718918204307556,0.100000001490116
-0.576100230216980,0.100000001490116
-0.406334310770035,0.100000001490116
0.221970602869987,0.100000001490116
0.562539458274841,0.100000001490116
0.234657227993011,0.100000001490116
0.396295189857483,0.100000001490116
0.273627191781998,0.100000001490116
-0.105829678475857,0.100000001490116
-0.023707753047347,0.100000001490116
0.318617850542068,0.100000001490116
0.058960903435946,0.100000001490116
-0.172712400555611,0.100000001490116
0.033905752003193,0.100000001490116
0.512759149074554,0.100000001490116
-0.244476154446602,0.100000001490116
0.142482250928879,0.100000001490116
0.080601908266544,0.100000001490116
-0.071773618459702,0.100000001490116
0.245540842413902,0.100000001490116
-0.873684942722321,0.100000001490116
-0.149402752518654,0.100000001490116
-0.056075446307659,0.100000001490116
-0.338875502347946,0.100000001490116
0.479756742715836,0.100000001490116
0.278386086225510,0.100000001490116
0.175375372171402,0.100000001490116
-0.258029818534851,0.100000001490116
0.059685431420803,0.100000001490116
-0.146505847573280,0.100000001490116
0.082168132066727,0.100000001490116
0.123172231018543,0.100000001490116
0.053496308624744,0.100000001490116
0.331535995006561,0.100000001490116
0.355196475982666,0.100000001490116
-0.045311000198126,0.100000001490116
-0.053941976279020,0.100000001490116
-0.159353345632553,0.100000001490116
0.175973817706108,0.100000001490116
-0.193238556385040,0.100000001490116
-0.066865533590317,0.100000001490116
-0.575340330600739,0.100000001490116
-0.089273668825626,0.100000001490116
0.364099740982056,0.100000001490116
0.193574726581573,0.100000001490116
-0.172559335827827,0.100000001490116
-0.146013200283051,0.100000001490116
0.097174085676670,0.100000001490116
0.095536708831787,0.100000001490116
0.054732039570808,0.100000001490116
0.120800778269768,0.100000001490116
-0.215063169598579,0.100000001490116
-0.540008485317230,0.100000001490116
-0.100239090621471,0.100000001490116
-0.309587568044662,0.100000001490116
0.024917189031839,0.100000001490116
0.346323907375336,0.100000001490116
-0.085344135761261,0.100000001490116
-0.615228831768036,0.100000001490116
0.755706489086151,0.100000001490116
-0.571722567081451,0.100000001490116
-0.206878945231438,0.100000001490116
0.371951371431351,0.100000001490116
-0.206076815724373,0.100000001490116
-0.046934094280005,0.100000001490116
-0.251323431730270,0.100000001490116
0.020887915045023,0.100000001490116
0.362700492143631,0.100000001490116
0.027945302426815,0.100000001490116
-0.192320644855499,0.100000001490116
-0.228430107235909,0.100000001490116
-0.243727892637253,0.100000001490116
-0.153218865394592,0.100000001490116
-0.051021944731474,0.100000001490116
0.044217221438885,0.100000001490116
-0.230502620339394,0.100000001490116
-0.008863458409905,0.100000001490116
-0.707266271114349,0.100000001490116
0.280519247055054,0.100000001490116
0.132009893655777,0.100000001490116
0.034790046513081,0.100000001490116
0.406174242496490,0.100000001490116
0.023838883265853,0.100000001490116
-0.167199999094009,0.100000001490116
-0.430002838373184,0.100000001490116
0.270986407995224,0.100000001490116
-0.076086975634098,0.100000001490116
0.386204421520233,0.100000001490116
-0.330054461956024,0.100000001490116
0.663605749607086,0.100000001490116
0.123749285936356,0.100000001490116
0.196390017867088,0.100000001490116
-0.377679079771042,0.100000001490116
-0.831772983074188,0.100000001490116
-0.350149899721146,0.100000001490116
0.065277926623821,0.100000001490116
-0.249273344874382,0.100000001490116
-0.161586567759514,0.100000001490116
-0.486453592777252,0.100000001490116
-0.142015069723129,0.100000001490116
-0.121897794306278,0.100000001490116
0.116266340017319,0.100000001490116
0.370837032794952,0.100000001490116
-0.288721174001694,0.100000001490116
-0.754386246204376,0.100000001490116
0.149342834949493,0.100000001490116
0.420269072055817,0.100000001490116
-0.826894640922546,0.100000001490116
-0.209524035453796,0.100000001490116
-0.417092621326447,0.100000001490116
-0.237554669380188,0.100000001490116
0.176517888903618,0.100000001490116
0.315765798091888,0.100000001490116
-0.359758436679840,0.100000001490116
0.101709701120853,0.100000001490116
0.055405437946320,0.100000001490116
-0.397257208824158,0.100000001490116
0.373800367116928,0.100000001490116
-0.315180420875549,0.100000001490116
0.233987584710121,0.100000001490116
0.207606241106987,0.100000001490116
-0.117532476782799,0.100000001490116
-0.330360114574432,0.100000001490116
-0.257708042860031,0.100000001490116
-0.251875698566437,0.100000001490116
0.176713019609451,0.100000001490116
0.308231860399246,0.100000001490116
0.208722680807114,0.100000001490116
0.272815704345703,0.100000001490116
-0.026844792068005,0.100000001490116
0.454026430845261,0.100000001490116
0.235553219914436,0.100000001490116
0.047074254602194,0.100000001490116
0.171074092388153,0.100000001490116
-0.606580674648285,0.100000001490116
-0.046536460518837,0.100000001490116
0.118913315236568,0.100000001490116
0.329607576131821,0.100000001490116
-0.093646906316280,0.100000001490116
-0.398213714361191,0.100000001490116
0.351493388414383,0.100000001490116
0.106106027960777,0.100000001490116
0.061290699988604,0.100000001490116
-0.483660012483597,0.100000001490116
-0.121763885021210,0.100000001490116
-0.093874022364616,0.100000001490116
0.632917344570160,0.100000001490116
0.210419192910194,0.100000001490116
-0.002114101080224,0.100000001490116
-0.192270696163177,0.100000001490116
0.111847914755344,0.100000001490116
0.098855018615723,0.100000001490116
-0.454074591398239,0.100000001490116
0.093981616199017,0.100000001490116
-0.605498075485229,0.100000001490116
0.791634202003479,0.100000001490116
0.074449047446251,0.100000001490116
0.194297000765800,0.100000001490116
0.325646132230759,0.100000001490116
0.503215968608856,0.100000001490116
-0.194594457745552,0.100000001490116
-0.078028932213783,0.100000001490116
0.002001191955060,0.100000001490116
0.235652700066566,0.100000001490116
0.215047404170036,0.100000001490116
-0.029243698343635,0.100000001490116
-0.225720360875130,0.100000001490116
-0.161084651947021,0.100000001490116
-0.477354407310486,0.100000001490116
-0.347936570644379,0.100000001490116
0.127026736736298,0.100000001490116
0.151618868112564,0.100000001490116
0.071858741343021,0.100000001490116
-0.206403434276581,0.100000001490116
-0.207853019237518,0.100000001490116
-0.087055109441280,0.100000001490116
0.524649560451508,0.100000001490116
0.188725113868713,0.100000001490116
-0.149047166109085,0.100000001490116
0.715012192726135,0.100000001490116
0.095598697662354,0.100000001490116
0.225965231657028,0.100000001490116
-0.317089170217514,0.100000001490116
-0.178638830780983,0.100000001490116
0.335786581039429,0.100000001490116
0.090307608246803,0.100000001490116
-0.172829523682594,0.100000001490116
0.098745346069336,0.100000001490116
0.264770269393921,0.100000001490116
0.079045355319977,0.100000001490116
0.017211945727468,0.100000001490116
0.157447934150696,0.100000001490116
0.286011010408401,0.100000001490116
0.200300022959709,0.100000001490116
0.105635404586792,0.100000001490116
0.059100642800331,0.100000001490116
0.288323551416397,0.100000001490116
0.096248038113117,0.100000001490116
-0.102894760668278,0.100000001490116
-0.068470701575279,0.100000001490116
-1.028083443641663,0.100000001490116
0.599403202533722,0.100000001490116
0.191028103232384,0.100000001490116
0.175746634602547,0.100000001490116
-0.121570773422718,0.100000001490116
-0.393774777650833,0.100000001490116
-0.231804370880127,0.100000001490116
-0.063414387404919,0.100000001490116
-0.366937547922134,0.100000001490116
0.073437817394733,0.100000001490116
0.565644502639771,0.100000001490116
-0.005763400346041,0.100000001490116
0.349599123001099,0.100000001490116
0.096313588321209,0.100000001490116
-0.105652116239071,0.100000001490116
-0.089867532253265,0.100000001490116
0.232275262475014,0.100000001490116
0.189358755946159,0.100000001490116
0.150753125548363,0.100000001490116
-0.063614010810852,0.100000001490116
0.041963636875153,0.100000001490116
0.226212620735168,0.100000001490116
-0.042893812060356,0.100000001490116
0.051189824938774,0.100000001490116
0.254973113536835,0.100000001490116
-0.164759948849678,0.100000001490116
0.523762583732605,0.100000001490116
0.114163182675838,0.100000001490116
0.025610992684960,0.100000001490116
-0.350107401609421,0.100000001490116
0.076010197401047,0.100000001490116
-0.498997092247009,0.100000001490116
-0.528255522251129,0.100000001490116
0.022453898563981,0.100000001490116
0.356572449207306,0.100000001490116
-0.148025348782539,0.100000001490116
0.041170734912157,0.100000001490116
-0.283635079860687,0.100000001490116
0.127732038497925,0.100000001490116
-0.147651478648186,0.100000001490116
-0.455262422561646,0.100000001490116
-0.548897206783295,0.100000001490116
0.127267271280289,0.100000001490116
-0.355250418186188,0.100000001490116
0.171756044030190,0.100000001490116
-0.106734968721867,0.100000001490116
0.054778303951025,0.100000001490116
-0.299117743968964,0.100000001490116
0.003525909967721,0.100000001490116
-0.448503524065018,0.100000001490116
-0.047733988612890,0.100000001490116
-0.005662108305842,0.100000001490116
0.154042392969131,0.100000001490116
-0.533338427543640,0.100000001490116
0.337607979774475,0.100000001490116
0.063259400427341,0.100000001490116
-0.616806268692017,0.100000001490116
0.069683305919170,0.100000001490116
0.359362632036209,0.100000001490116
-0.118826873600483,0.100000001490116
0.315005332231522,0.100000001490116
0.273331791162491,0.100000001490116
0.214952215552330,0.100000001490116
0.262786388397217,0.100000001490116
0.244125351309776,0.100000001490116
-0.266035377979279,0.100000001490116
0.118071161210537,0.100000001490116
0.224044337868690,0.100000001490116
0.164516314864159,0.100000001490116
-0.073798105120659,0.100000001490116
0.449974745512009,0.100000001490116
0.480211257934570,0.100000001490116
0.356207519769669,0.100000001490116
0.353632509708405,0.100000001490116
-0.231010764837265,0.100000001490116
-0.376276671886444,0.100000001490116
0.023721918463707,0.100000001490116
0.007507089991122,0.100000001490116
-0.151791334152222,0.100000001490116
0.047166563570499,0.100000001490116
0.150014951825142,0.100000001490116
0.503633320331573,0.100000001490116
0.508903503417969,0.100000001490116
0.266919374465942,0.100000001490116
0.000616138218902,0.100000001490116
-0.404263287782669,0.100000001490116
-0.688082575798035,0.100000001490116
-0.051694806665182,0.100000001490116
-0.061863556504250,0.100000001490116
-0.541390419006348,0.100000001490116
0.656107723712921,0.100000001490116
-0.506309211254120,0.100000001490116
-0.499381214380264,0.100000001490116
-0.124143436551094,0.100000001490116
0.284368395805359,0.100000001490116
-0.056969556957483,0.100000001490116
0.069280989468098,0.100000001490116
0.756725609302521,0.100000001490116
-0.177851930260658,0.100000001490116
-0.204880759119987,0.100000001490116
-0.357915282249451,0.100000001490116
-0.261369884014130,0.100000001490116
-0.407058298587799,0.100000001490116
-0.107486054301262,0.100000001490116
0.166871577501297,0.100000001490116
0.499226391315460,0.100000001490116
0.042325641959906,0.100000001490116
-0.311145514249802,0.100000001490116
-0.158367827534676,0.100000001490116
-0.741996467113495,0.100000001490116
0.180950596928596,0.100000001490116
0.004738791845739,0.100000001490116
-0.463371068239212,0.100000001490116
0.126850754022598,0.100000001490116
-0.180075362324715,0.100000001490116
-0.106541439890862,0.100000001490116
-0.163869410753250,0.100000001490116
-0.125954940915108,0.100000001490116
-0.040211532264948,0.100000001490116
-0.500081777572632,0.100000001490116
0.085366703569889,0.100000001490116
0.303472101688385,0.100000001490116
0.167259335517883,0.100000001490116
0.237405419349670,0.100000001490116
0.243006512522697,0.100000001490116
-0.095278255641460,0.100000001490116
-0.432430148124695,0.100000001490116
-0.887510418891907,0.100000001490116
-0.511076390743256,0.100000001490116
-0.164210289716721,0.100000001490116
0.462931424379349,0.100000001490116
-0.132617950439453,0.100000001490116
-0.320359617471695,0.100000001490116
-0.205329656600952,0.100000001490116
-0.201692640781403,0.100000001490116
0.731602907180786,0.100000001490116
-0.220618307590485,0.100000001490116
0.185490325093269,0.100000001490116
-0.457128942012787,0.100000001490116
0.298919409513474,0.100000001490116
-0.833451807498932,0.100000001490116
0.002784855663776,0.100000001490116
0.486274540424347,0.100000001490116
-0.068822786211967,0.100000001490116
-0.573060870170593,0.100000001490116
-0.162026837468147,0.100000001490116
0.063502132892609,0.100000001490116
-0.095173425972462,0.100000001490116
0.174674749374390,0.100000001490116
-0.190726742148399,0.100000001490116
0.010794347152114,0.100000001490116
-0.328785061836243,0.100000001490116
0.082431904971600,0.100000001490116
0.242742270231247,0.100000001490116
0.038645196706057,0.100000001490116
-0.390434950590134,0.100000001490116
-0.184838965535164,0.100000001490116
-0.054334092885256,0.100000001490116
-0.739066600799561,0.100000001490116
-0.223370060324669,0.100000001490116
0.274473696947098,0.100000001490116
0.480854600667953,0.100000001490116
-0.237955927848816,0.100000001490116
-0.093161769211292,0.100000001490116
0.114057719707489,0.100000001490116
-0.122349865734577,0.100000001490116
0.411457359790802,0.100000001490116
0.090603873133659,0.100000001490116
0.609719634056091,0.100000001490116
-0.391346663236618,0.100000001490116
-0.398785978555679,0.100000001490116
-0.578779637813568,0.100000001490116
-0.171569585800171,0.100000001490116
-0.211682900786400,0.100000001490116
-0.346546739339828,0.100000001490116
-0.674988329410553,0.100000001490116
0.180523335933685,0.100000001490116
-0.156800687313080,0.100000001490116
0.258643448352814,0.100000001490116
0.050147488713264,0.100000001490116
0.066173315048218,0.100000001490116
0.077679082751274,0.100000001490116
-0.423180669546127,0.100000001490116
0.114135667681694,0.100000001490116
-0.543447077274323,0.100000001490116
0.040663737803698,0.100000001490116
-0.123852305114269,0.100000001490116
0.235942095518112,0.100000001490116
0.241059601306915,0.100000001490116
0.593121230602264,0.100000001490116
0.028479445725679,0.100000001490116
-0.155846685171127,0.100000001490116
-0.523370563983917,0.100000001490116
-0.720235347747803,0.100000001490116
0.469150573015213,0.100000001490116
-0.515751183032990,0.100000001490116
-0.366338998079300,0.100000001490116
0.061921004205942,0.100000001490116
0.114198297262192,0.100000001490116
0.101255781948566,0.100000001490116
0.351771742105484,0.100000001490116
0.173270583152771,0.100000001490116
0.092054136097431,0.100000001490116
0.412608385086060,0.100000001490116
-0.054895959794521,0.100000001490116
-0.133631363511086,0.100000001490116
-0.094373360276222,0.100000001490116
-0.100875638425350,0.100000001490116
-0.036248262971640,0.100000001490116
0.161582112312317,0.100000001490116
-0.177139878273010,0.100000001490116
-0.122052609920502,0.100000001490116
0.336260467767715,0.100000001490116
0.082811027765274,0.100000001490116
-0.151938870549202,0.100000001490116
0.708047807216644,0.100000001490116
0.407070130109787,0.100000001490116
0.254324316978455,0.100000001490116
-0.233425959944725,0.100000001490116
0.125776827335358,0.100000001490116
-0.260184735059738,0.100000001490116
0.216120153665543,0.100000001490116
0.009537545032799,0.100000001490116
0.417118936777115,0.100000001490116
0.186668828129768,0.100000001490116
-0.333047688007355,0.100000001490116
0.235725477337837,0.100000001490116
-0.406959652900696,0.100000001490116
0.295693606138229,0.100000001490116
-0.133729010820389,0.100000001490116
-0.229144260287285,0.100000001490116
0.132054954767227,0.100000001490116
0.132800355553627,0.100000001490116
0.909915566444397,0.100000001490116
-0.102089039981365,0.100000001490116
0.296315461397171,0.100000001490116
0.251542299985886,0.100000001490116
0.026765912771225,0.100000001490116
0.734008908271790,0.100000001490116
0.613915026187897,0.100000001490116
-0.628208756446838,0.100000001490116
-0.247496545314789,0.100000001490116
0.390668213367462,0.100000001490116
-0.581046700477600,0.100000001490116
0.470318853855133,0.100000001490116
0.181451261043549,0.100000001490116
0.020011406391859,0.100000001490116
0.409180164337158,0.100000001490116
-0.757612228393555,0.100000001490116
-0.340605080127716,0.100000001490116
-0.023093162104487,0.100000001490116
-0.166575789451599,0.100000001490116
-0.390439212322235,0.100000001490116
-0.569750547409058,0.100000001490116
-0.666245579719543,0.100000001490116
-0.211521640419960,0.100000001490116
-0.102807700634003,0.100000001490116
-0.415408223867416,0.100000001490116
0.009495527483523,0.100000001490116
0.312453508377075,0.100000001490116
-0.341827005147934,0.100000001490116
-0.029501669108868,0.100000001490116
-0.026488224044442,0.100000001490116
0.022737139835954,0.100000001490116
-0.052963171154261,0.100000001490116
-0.011975685134530,0.100000001490116
0.015464612282813,0.100000001490116
0.174165025353432,0.100000001490116
-0.589048743247986,0.100000001490116
0.013213921338320,0.100000001490116
0.270605653524399,0.100000001490116
0.362316161394119,0.100000001490116
-0.027025217190385,0.100000001490116
0.018653996288776,0.100000001490116
0.279368370771408,0.100000001490116
-0.496813118457794,0.100000001490116
0.093039140105247,0.100000001490116
0.017778707668185,0.100000001490116
0.267578274011612,0.100000001490116
-0.004855974111706,0.100000001490116
0.417140841484070,0.100000001490116
0.189821660518646,0.100000001490116
-0.053490493446589,0.100000001490116
0.210975229740143,0.100000001490116
0.141395345330238,0.100000001490116
0.295023351907730,0.100000001490116
0.014856031164527,0.100000001490116
0.066634543240070,0.100000001490116
0.487480461597443,0.100000001490116
0.004758880939335,0.100000001490116
0.623759508132935,0.100000001490116
-0.208769291639328,0.100000001490116
0.003114182967693,0.100000001490116
-0.384903997182846,0.100000001490116
0.088406443595886,0.100000001490116
0.086575478315353,0.100000001490116
-0.295956254005432,0.100000001490116
0.332310944795609,0.100000001490116
-0.048518594354391,0.100000001490116
0.271666020154953,0.100000001490116
0.450472861528397,0.100000001490116
-0.298058927059174,0.100000001490116
-0.086832970380783,0.100000001490116
0.041443370282650,0.100000001490116
-0.016182143241167,0.100000001490116
0.389240592718124,0.100000001490116
0.010069534182549,0.100000001490116
-0.371881932020187,0.100000001490116
0.124139674007893,0.100000001490116
0.063826411962509,0.100000001490116
0.403054118156433,0.100000001490116
-0.600773930549622,0.100000001490116
-0.077794037759304,0.100000001490116
-0.091750361025333,0.100000001490116
-0.265145331621170,0.100000001490116
-0.221549317240715,0.100000001490116
-0.405956178903580,0.100000001490116
-0.053185049444437,0.100000001490116
-0.082744680345058,0.100000001490116
0.092456102371216,0.100000001490116
-0.257441133260727,0.100000001490116
0.091677784919739,0.100000001490116
-0.389178484678268,0.100000001490116
-0.287075161933899,0.100000001490116
0.181946367025375,0.100000001490116
0.305853873491287,0.100000001490116
0.025672620162368,0.100000001490116
-0.456813514232635,0.100000001490116
-0.281083077192307,0.100000001490116
-0.239601254463196,0.100000001490116
-0.311159074306488,0.100000001490116
-0.282681226730347,0.100000001490116
0.296674609184265,0.100000001490116
-0.312097042798996,0.100000001490116
-0.185029670596123,0.100000001490116
-0.146752849221230,0.100000001490116
0.710167646408081,0.100000001490116
-0.121976450085640,0.100000001490116
-0.038288924843073,0.100000001490116
-0.074425175786018,0.100000001490116
0.151256203651428,0.100000001490116
-0.448229759931564,0.100000001490116
0.035044994205236,0.100000001490116
0.361259222030640,0.100000001490116
0.181956902146339,0.100000001490116
-0.192276522517204,0.100000001490116
-0.013235820457339,0.100000001490116
0.104580730199814,0.100000001490116
0.046545159071684,0.100000001490116
-0.221622616052628,0.100000001490116
-0.063173614442348,0.100000001490116
0.209314092993736,0.100000001490116
0.026403749361634,0.100000001490116
-0.005536053329706,0.100000001490116
0.197334527969360,0.100000001490116
-0.560207962989807,0.100000001490116
-0.397335439920425,0.100000001490116
0.055279757827520,0.100000001490116
-0.124407425522804,0.100000001490116
0.253835648298264,0.100000001490116
-0.066639252007008,0.100000001490116
0.044383291155100,0.100000001490116
0.704818308353424,0.100000001490116
0.079448170959949,0.100000001490116
-0.677371263504028,0.100000001490116
-0.086227521300316,0.100000001490116
-0.451815128326416,0.100000001490116
0.030696528032422,0.100000001490116
0.011454063467681,0.100000001490116
-0.141442731022835,0.100000001490116
0.287127017974854,0.100000001490116
0.148998171091080,0.100000001490116
0.206661924719810,0.100000001490116
-0.029559371992946,0.100000001490116
0.101473167538643,0.100000001490116
-0.180626913905144,0.100000001490116
0.372403144836426,0.100000001490116
-0.064670220017433,0.100000001490116
-0.170411676168442,0.100000001490116
0.180742427706718,0.100000001490116
-0.216923683881760,0.100000001490116
-0.131791263818741,0.100000001490116
-0.612682223320007,0.100000001490116
-0.162692502140999,0.100000001490116
0.208956554532051,0.100000001490116
-0.247397363185883,0.100000001490116
-0.295298069715500,0.100000001490116
0.114460162818432,0.100000001490116
-0.292906463146210,0.100000001490116
-0.408880919218063,0.100000001490116
0.413511425256729,0.100000001490116
-0.384829401969910,0.100000001490116
-0.066470637917519,0.100000001490116
-0.211784258484840,0.100000001490116
0.237786039710045,0.100000001490116
-0.510898888111115,0.100000001490116
0.141384243965149,0.100000001490116
-0.097387142479420,0.100000001490116
0.484151899814606,0.100000001490116
0.482641041278839,0.100000001490116
0.598666548728943,0.100000001490116
0.129055723547935,0.100000001490116
0.186925068497658,0.100000001490116
0.448373258113861,0.100000001490116
-0.320107340812683,0.100000001490116
-0.071775428950787,0.100000001490116
0.407124072313309,0.100000001490116
-0.802121520042419,0.100000001490116
-0.644795417785645,0.100000001490116
-0.027731582522392,0.100000001490116
0.352712512016296,0.100000001490116
-0.015118747018278,0.100000001490116
0.099005602300167,0.100000001490116
-0.469108968973160,0.100000001490116
0.419698417186737,0.100000001490116
-0.424486339092255,0.100000001490116
-0.501070797443390,0.100000001490116
0.045563556253910,0.100000001490116
0.159695014357567,0.100000001490116
-0.196461528539658,0.100000001490116
-0.376287758350372,0.100000001490116
0.213496506214142,0.100000001490116
0.480819404125214,0.100000001490116
-0.376086235046387,0.100000001490116
0.273012220859528,0.100000001490116
0.317992001771927,0.100000001490116
-0.122063040733337,0.100000001490116
0.022971957921982,0.100000001490116
0.429787337779999,0.100000001490116
-0.344011157751083,0.100000001490116
-0.138708651065826,0.100000001490116
0.295074075460434,0.100000001490116
-0.058175694197416,0.100000001490116
-0.029562266543508,0.013888888992369
0.126048862934113,0.013888888992369
0.008735644631088,0.013888888992369
0.073559418320656,0.013888888992369
0.120467610657215,0.013888888992369
0.080798715353012,0.013888888992369
0.102340348064899,0.013888888992369
0.031601771712303,0.013888888992369
0.209352836012840,0.013888888992369
-0.064603023231030,0.013888888992369
-0.114616051316261,0.013888888992369
-0.018302563577890,0.013888888992369
-0.226898998022079,0.027777779847383
