mw,Sw
0.014394406229258,0.111111119389534
0.294515669345856,0.111111119389534
0.066100440919399,0.111111119389534
0.210535764694214,0.111111119389534
0.385534763336182,0.111111119389534
-0.667370498180389,0.111111119389534
-0.148219838738441,0.111111119389534
-0.278799802064896,0.111111119389534
-0.462520837783813,0.111111119389534
0.182418927550316,0.111111119389534
-0.126598671078682,0.111111119389534
-0.144004553556442,0.111111119389534
-0.332776904106140,0.111111119389534
-0.164607509970665,0.111111119389534
-0.141372531652451,0.111111119389534
0.034657925367355,0.111111119389534
0.109284266829491,0.111111119389534
0.252148360013962,0.111111119389534
0.293059587478638,0.111111119389534
-0.551910936832428,0.111111119389534
0.532077670097351,0.111111119389534
-0.272336572408676,0.111111119389534
-0.124901786446571,0.111111119389534
-0.269073247909546,0.111111119389534
0.226481944322586,0.111111119389534
-0.050542797893286,0.111111119389534
0.015310710296035,0.111111119389534
0.539049386978149,0.111111119389534
0.046256870031357,0.111111119389534
-0.249456271529198,0.111111119389534
-0.590357363224030,0.111111119389534
0.088137619197369,0.111111119389534
-0.461204171180725,0.111111119389534
-0.531317710876465,0.111111119389534
0.196003198623657,0.111111119389534
0.465378373861313,0.111111119389534
1.000000000000000,1.000000000000000
1.000000000000000,1.000000000000000
1.000000000000000,1.000000000000000
1.000000000000000,1.000000000000000
0.007197203114629,0.027777779847383
0.147257834672928,0.027777779847383
0.033050220459700,0.027777779847383
0.105267882347107,0.027777779847383
0.192767381668091,0.027777779847383
-0.333685249090195,0.027777779847383
-0.074109919369221,0.027777779847383
-0.139399901032448,0.027777779847383
-0.231260418891907,0.027777779847383
0.091209463775158,0.027777779847383
-0.063299335539341,0.027777779847383
-0.072002276778221,0.027777779847383
-0.166388452053070,0.027777779847383
-0.082303754985332,0.027777779847383
-0.070686265826225,0.027777779847383
0.017328962683678,0.027777779847383
0.054642133414745,0.027777779847383
0.126074180006981,0.027777779847383
0.146529793739319,0.027777779847383
-0.275955468416214,0.027777779847383
0.266038835048676,0.027777779847383
-0.136168286204338,0.027777779847383
-0.062450893223286,0.027777779847383
-0.134536623954773,0.027777779847383
0.113240972161293,0.027777779847383
-0.025271398946643,0.027777779847383
0.007655355148017,0.027777779847383
0.269524693489075,0.027777779847383
0.023128435015678,0.027777779847383
-0.124728135764599,0.027777779847383
-0.295178681612015,0.027777779847383
0.044068809598684,0.027777779847383
-0.230602085590363,0.027777779847383
-0.265658855438232,0.027777779847383
0.098001599311829,0.027777779847383
0.232689186930656,0.027777779847383
0.212265878915787,0.027777779847383
0.283534914255142,0.027777779847383
-0.104967072606087,0.027777779847383
0.049018591642380,0.027777779847383
0.074232071638107,0.027777779847383
0.007546702399850,0.027777779847383
0.115114971995354,0.027777779847383
0.047717727720737,0.027777779847383
-0.141804337501526,0.027777779847383
-0.152263522148132,0.027777779847383
-0.130166694521904,0.027777779847383
-0.279435276985168,0.027777779847383
-0.244948416948318,0.027777779847383
-0.006545111071318,0.027777779847383
0.046831008046865,0.027777779847383
-0.057505086064339,0.027777779847383
-0.097170099616051,0.027777779847383
-0.143881961703300,0.027777779847383
-0.071106232702732,0.027777779847383
0.038557603955269,0.027777779847383
0.158936664462090,0.027777779847383
0.000700749631505,0.027777779847383
0.220892667770386,0.027777779847383
-0.013239763677120,0.027777779847383
0.102357685565948,0.027777779847383
-0.053061317652464,0.027777779847383
0.069005839526653,0.027777779847383
0.187033355236053,0.027777779847383
-0.204488843679428,0.027777779847383
-0.179667621850967,0.027777779847383
-0.229991674423218,0.027777779847383
-0.098539561033249,0.027777779847383
-0.097617238759995,0.027777779847383
-0.339450091123581,0.027777779847383
-0.005186629947275,0.027777779847383
0.212841868400574,0.027777779847383
-0.136239796876907,0.027777779847383
0.017000183463097,0.027777779847383
0.253051161766052,0.027777779847383
-0.012933798134327,0.027777779847383
-0.106244169175625,0.027777779847383
0.061745908111334,0.027777779847383
-0.076611600816250,0.027777779847383
-0.013959692791104,0.027777779847383
0.188499137759209,0.027777779847383
-0.128943637013435,0.027777779847383
-0.095731340348721,0.027777779847383
-0.180231317877769,0.027777779847383
0.054251980036497,0.027777779847383
-0.011043838225305,0.027777779847383
-0.190626546740532,0.027777779847383
-0.040013510733843,0.027777779847383
0.095358803868294,0.027777779847383
-0.026111310347915,0.027777779847383
-0.182404622435570,0.027777779847383
-0.009283282794058,0.027777779847383
-0.130858764052391,0.027777779847383
0.010759286582470,0.027777779847383
0.038617793470621,0.027777779847383
0.337177127599716,0.027777779847383
0.308125376701355,0.027777779847383
-0.080069556832314,0.027777779847383
0.177414417266846,0.027777779847383
0.289747416973114,0.027777779847383
0.196342647075653,0.027777779847383
0.085516683757305,0.027777779847383
0.070525735616684,0.027777779847383
-0.024157872423530,0.027777779847383
-0.177699550986290,0.027777779847383
-0.344866394996643,0.027777779847383
0.154799610376358,0.027777779847383
0.311078459024429,0.027777779847383
0.073306336998940,0.027777779847383
-0.025968953967094,0.027777779847383
0.140359744429588,0.027777779847383
-0.140859201550484,0.027777779847383
0.280285894870758,0.027777779847383
0.325974673032761,0.027777779847383
-0.208145663142204,0.027777779847383
-0.074011467397213,0.027777779847383
0.289522945880890,0.027777779847383
-0.132695361971855,0.027777779847383
-0.167786404490471,0.027777779847383
0.045367494225502,0.027777779847383
0.012711042538285,0.027777779847383
0.156227231025696,0.027777779847383
0.103483602404594,0.027777779847383
-0.367796987295151,0.027777779847383
0.335856139659882,0.027777779847383
-0.005316298455000,0.027777779847383
-0.032909374684095,0.027777779847383
-0.017551444470882,0.027777779847383
-0.081267550587654,0.027777779847383
-0.177158758044243,0.027777779847383
-0.089724503457546,0.027777779847383
0.144771680235863,0.027777779847383
0.049789052456617,0.027777779847383
0.212350428104401,0.027777779847383
0.027610197663307,0.027777779847383
-0.387795895338058,0.027777779847383
0.051141183823347,0.027777779847383
0.179565638303757,0.027777779847383
-0.207566186785698,0.027777779847383
-0.002346169203520,0.027777779847383
-0.052632942795753,0.027777779847383
-0.011161301285028,0.027777779847383
-0.286578506231308,0.027777779847383
0.266038656234741,0.027777779847383
-0.246393829584122,0.027777779847383
-0.009629215113819,0.027777779847383
0.215724617242813,0.027777779847383
0.112267278134823,0.027777779847383
-0.164992421865463,0.027777779847383
0.205003112554550,0.027777779847383
0.218600332736969,0.027777779847383
0.037231303751469,0.027777779847383
0.215528175234795,0.027777779847383
-0.299253106117249,0.027777779847383
-0.049475789070129,0.027777779847383
-0.243974849581718,0.027777779847383
-0.188309311866760,0.027777779847383
0.245745167136192,0.027777779847383
0.061313699930906,0.027777779847383
-0.129921212792397,0.027777779847383
-0.193531870841980,0.027777779847383
0.303636491298676,0.027777779847383
-0.003328938735649,0.027777779847383
-0.244834169745445,0.027777779847383
0.065377190709114,0.027777779847383
-0.290820658206940,0.027777779847383
0.192740261554718,0.027777779847383
-0.210304722189903,0.027777779847383
-0.083243899047375,0.027777779847383
0.091042779386044,0.027777779847383
0.062733262777328,0.027777779847383
0.149846702814102,0.027777779847383
-0.155499249696732,0.027777779847383
0.052301641553640,0.027777779847383
-0.209665328264236,0.027777779847383
0.355553001165390,0.027777779847383
0.267563164234161,0.027777779847383
0.169213145971298,0.027777779847383
-0.131506785750389,0.027777779847383
-0.158324733376503,0.027777779847383
-0.179381102323532,0.027777779847383
0.160683691501617,0.027777779847383
-0.189091414213181,0.027777779847383
0.143419057130814,0.027777779847383
-0.157438725233078,0.027777779847383
0.292301714420319,0.027777779847383
-0.163951635360718,0.027777779847383
0.100692741572857,0.027777779847383
-0.275072276592255,0.027777779847383
0.266022861003876,0.027777779847383
-0.301675736904144,0.027777779847383
0.098498508334160,0.027777779847383
-0.003494162112474,0.027777779847383
-0.366150230169296,0.027777779847383
-0.367697089910507,0.027777779847383
0.316622525453568,0.027777779847383
-0.004916423000395,0.027777779847383
-0.105261549353600,0.027777779847383
-0.091497324407101,0.027777779847383
0.093560308218002,0.027777779847383
-0.090938799083233,0.027777779847383
0.111319772899151,0.027777779847383
0.182137548923492,0.027777779847383
0.418631613254547,0.027777779847383
0.003999938722700,0.027777779847383
0.029126957058907,0.027777779847383
0.078542217612267,0.027777779847383
0.402675628662109,0.027777779847383
-0.100990258157253,0.027777779847383
0.057881116867065,0.027777779847383
0.158378526568413,0.027777779847383
0.039285097271204,0.027777779847383
0.027226705104113,0.027777779847383
0.170991107821465,0.027777779847383
-0.247318208217621,0.027777779847383
0.041512809693813,0.027777779847383
-0.021342877298594,0.027777779847383
-0.176460906863213,0.027777779847383
0.125809520483017,0.027777779847383
-0.072327375411987,0.027777779847383
-0.042493455111980,0.027777779847383
0.159713417291641,0.027777779847383
0.005413619801402,0.027777779847383
-0.074753068387508,0.027777779847383
0.110269390046597,0.027777779847383
0.075919643044472,0.027777779847383
-0.115299902856350,0.027777779847383
-0.133279085159302,0.027777779847383
-0.117629282176495,0.027777779847383
-0.232476651668549,0.027777779847383
-0.069043003022671,0.027777779847383
0.025850689038634,0.027777779847383
-0.050006255507469,0.027777779847383
0.098932743072510,0.027777779847383
-0.051256112754345,0.027777779847383
-0.018571162596345,0.027777779847383
-0.060636833310127,0.027777779847383
0.024510763585567,0.027777779847383
-0.124817088246346,0.027777779847383
0.227871403098106,0.027777779847383
-0.226003974676132,0.027777779847383
0.172218367457390,0.027777779847383
0.257834136486053,0.027777779847383
0.321967899799347,0.027777779847383
0.079657673835754,0.027777779847383
0.123566895723343,0.027777779847383
-0.238145768642426,0.027777779847383
0.222567960619926,0.027777779847383
0.110677145421505,0.027777779847383
-0.092890135943890,0.027777779847383
-0.263360410928726,0.027777779847383
-0.197621926665306,0.027777779847383
0.048170905560255,0.027777779847383
0.178764462471008,0.027777779847383
0.106306865811348,0.027777779847383
-0.012299853377044,0.027777779847383
-0.026197841390967,0.027777779847383
-0.028929442167282,0.027777779847383
-0.193914294242859,0.027777779847383
-0.094282597303391,0.027777779847383
-0.235673725605011,0.027777779847383
0.071338310837746,0.027777779847383
0.138323411345482,0.027777779847383
-0.105198010802269,0.027777779847383
-0.022955125197768,0.027777779847383
0.070724561810493,0.027777779847383
-0.148627385497093,0.027777779847383
0.033687040209770,0.027777779847383
-0.140547409653664,0.027777779847383
0.051049388945103,0.027777779847383
0.070144124329090,0.027777779847383
0.049654912203550,0.027777779847383
0.097320400178432,0.027777779847383
-0.115185141563416,0.027777779847383
-0.133330240845680,0.027777779847383
-0.037545207887888,0.027777779847383
0.180164664983749,0.027777779847383
-0.205956086516380,0.027777779847383
0.215247616171837,0.027777779847383
-0.069716289639473,0.027777779847383
0.103953115642071,0.027777779847383
-0.050558254122734,0.027777779847383
0.132167100906372,0.027777779847383
0.109833918511868,0.027777779847383
0.224924057722092,0.027777779847383
0.290663570165634,0.027777779847383
0.095274984836578,0.027777779847383
-0.327720344066620,0.027777779847383
1.000000000000000,1.000000000000000
1.000000000000000,1.000000000000000
1.000000000000000,1.000000000000000
1.000000000000000,1.000000000000000
1.000000000000000,1.000000000000000
1.000000000000000,1.000000000000000
1.000000000000000,1.000000000000000
1.000000000000000,1.000000000000000
0.002181082032621,0.002551020355895
0.044625859707594,0.002551020355895
0.010015728883445,0.002551020355895
0.031900987029076,0.002551020355895
0.058417338877916,0.002551020355895
-0.101121895015240,0.002551020355895
-0.022458696737885,0.002551020355895
-0.042244549840689,0.002551020355895
-0.070082493126392,0.002551020355895
0.027640640735626,0.002551020355895
-0.019182594493032,0.002551020355895
-0.021819982677698,0.002551020355895
-0.050423312932253,0.002551020355895
-0.024941803887486,0.002551020355895
-0.021421171724796,0.002551020355895
0.005251468624920,0.002551020355895
0.016559066250920,0.002551020355895
0.038206245750189,0.002551020355895
0.044405233114958,0.002551020355895
-0.083627134561539,0.002551020355895
0.080621942877769,0.002551020355895
-0.041265219449997,0.002551020355895
-0.018925478681922,0.002551020355895
-0.040770754218102,0.002551020355895
0.034317195415497,0.002551020355895
-0.007658390328288,0.002551020355895
0.002319922903553,0.002551020355895
0.081678315997124,0.002551020355895
0.007008974440396,0.002551020355895
-0.037798333913088,0.002551020355895
-0.089452646672726,0.002551020355895
0.013354865834117,0.002551020355895
-0.069882988929749,0.002551020355895
-0.080506794154644,0.002551020355895
0.029698969796300,0.002551020355895
0.070515468716621,0.002551020355895
0.064326271414757,0.002551020355895
0.085924051702023,0.002551020355895
-0.031809825450182,0.002551020355895
0.014854876324534,0.002551020355895
0.022495714947581,0.002551020355895
0.002286996226758,0.002551020355895
0.034885104745626,0.002551020355895
0.014460654929280,0.002551020355895
-0.042973205447197,0.002551020355895
-0.046142812818289,0.002551020355895
-0.039446465671062,0.002551020355895
-0.084681674838066,0.002551020355895
-0.074230574071407,0.002551020355895
-0.001983468187973,0.002551020355895
0.014191938564181,0.002551020355895
-0.017426673322916,0.002551020355895
-0.029446985572577,0.002551020355895
-0.043602816760540,0.002551020355895
-0.021548442542553,0.002551020355895
0.011684718541801,0.002551020355895
0.048165082931519,0.002551020355895
0.000212359198486,0.002551020355895
0.066940590739250,0.002551020355895
-0.004012254532427,0.002551020355895
0.031019063666463,0.002551020355895
-0.016080006957054,0.002551020355895
0.020911926403642,0.002551020355895
0.056679666042328,0.002551020355895
-0.061969473958015,0.002551020355895
-0.054447509348392,0.002551020355895
-0.069698005914688,0.002551020355895
-0.029861995950341,0.002551020355895
-0.029582491144538,0.002551020355895
-0.102868907153606,0.002551020355895
-0.001571786240675,0.002551020355895
0.064500823616982,0.002551020355895
-0.041286889463663,0.002551020355895
0.005151833407581,0.002551020355895
0.076686084270477,0.002551020355895
-0.003919532522559,0.002551020355895
-0.032196845859289,0.002551020355895
0.018711835145950,0.002551020355895
-0.023216821253300,0.002551020355895
-0.004230425693095,0.002551020355895
0.057123862206936,0.002551020355895
-0.039075821638107,0.002551020355895
-0.029010975733399,0.002551020355895
-0.054618336260319,0.002551020355895
0.016440832987428,0.002551020355895
-0.003346788231283,0.002551020355895
-0.057768564671278,0.002551020355895
-0.012125924229622,0.002551020355895
0.028898080810905,0.002551020355895
-0.007912921719253,0.002551020355895
-0.055276945233345,0.002551020355895
-0.002813259372488,0.002551020355895
-0.039656192064285,0.002551020355895
0.003260556142777,0.002551020355895
0.011702958494425,0.002551020355895
0.102180100977421,0.002551020355895
0.093376092612743,0.002551020355895
-0.024264737963676,0.002551020355895
0.053764685988426,0.002551020355895
0.087806724011898,0.002551020355895
0.059500806033611,0.002551020355895
0.025915468111634,0.002551020355895
0.021372523158789,0.002551020355895
-0.007320940960199,0.002551020355895
-0.053851094096899,0.002551020355895
-0.104510299861431,0.002551020355895
0.046911362558603,0.002551020355895
0.094271004199982,0.002551020355895
0.022215174511075,0.002551020355895
-0.007869781926274,0.002551020355895
0.042535424232483,0.002551020355895
-0.042686782777309,0.002551020355895
0.084939450025558,0.002551020355895
0.098785243928432,0.002551020355895
-0.063077658414841,0.002551020355895
-0.022428860887885,0.002551020355895
0.087738692760468,0.002551020355895
-0.040212765336037,0.002551020355895
-0.050846956670284,0.002551020355895
0.013748426921666,0.002551020355895
0.003852027468383,0.002551020355895
0.047343999147415,0.002551020355895
0.031360264867544,0.002551020355895
-0.111459314823151,0.002551020355895
0.101779773831367,0.002551020355895
-0.001611081766896,0.002551020355895
-0.009973046369851,0.002551020355895
-0.005318890791386,0.002551020355895
-0.024627786129713,0.002551020355895
-0.053687211126089,0.002551020355895
-0.027190629392862,0.002551020355895
0.043872442096472,0.002551020355895
0.015088360756636,0.002551020355895
0.064351901412010,0.002551020355895
0.008367153815925,0.002551020355895
-0.117519900202751,0.002551020355895
0.015498118475080,0.002551020355895
0.054416604340076,0.002551020355895
-0.062902055680752,0.002551020355895
-0.000710996624548,0.002551020355895
-0.015950189903378,0.002551020355895
-0.003382385009900,0.002551020355895
-0.086846396327019,0.002551020355895
0.080621883273125,0.002551020355895
-0.074668601155281,0.002551020355895
-0.002918092766777,0.002551020355895
0.065374426543713,0.002551020355895
0.034022122621536,0.002551020355895
-0.050000254064798,0.002551020355895
0.062125321477652,0.002551020355895
0.066245906054974,0.002551020355895
0.011282788589597,0.002551020355895
0.065314896404743,0.002551020355895
-0.090687386691570,0.002551020355895
-0.014993428252637,0.002551020355895
-0.073935545980930,0.002551020355895
-0.057066339999437,0.002551020355895
0.074472032487392,0.002551020355895
0.018580855801702,0.002551020355895
-0.039372071623802,0.002551020355895
-0.058649014681578,0.002551020355895
0.092015743255615,0.002551020355895
-0.001008820720017,0.002551020355895
-0.074195958673954,0.002551020355895
0.019812280312181,0.002551020355895
-0.088131971657276,0.002551020355895
0.058409120887518,0.002551020355895
-0.063731953501701,0.002551020355895
-0.025226710364223,0.002551020355895
0.027590127661824,0.002551020355895
0.019011048600078,0.002551020355895
0.045410405844450,0.002551020355895
-0.047123387455940,0.002551020355895
0.015849791467190,0.002551020355895
-0.063538186252117,0.002551020355895
0.107748828828335,0.002551020355895
0.081083878874779,0.002551020355895
0.051279325038195,0.002551020355895
-0.039852574467659,0.002551020355895
-0.047979637980461,0.002551020355895
-0.054360680282116,0.002551020355895
0.048694513738155,0.002551020355895
-0.057303350418806,0.002551020355895
0.043462537229061,0.002551020355895
-0.047711137682199,0.002551020355895
0.088580794632435,0.002551020355895
-0.049684848636389,0.002551020355895
0.030514508485794,0.002551020355895
-0.083359487354755,0.002551020355895
0.080617100000381,0.002551020355895
-0.091421552002430,0.002551020355895
0.029849553480744,0.002551020355895
-0.001058891066350,0.002551020355895
-0.110960274934769,0.002551020355895
-0.111429043114185,0.002551020355895
0.095951110124588,0.002551020355895
-0.001489901216701,0.002551020355895
-0.031899064779282,0.002551020355895
-0.027727875858545,0.002551020355895
0.028353055939078,0.002551020355895
-0.027558617293835,0.002551020355895
0.033734984695911,0.002551020355895
0.055196013301611,0.002551020355895
0.126864537596703,0.002551020355895
0.001212164410390,0.002551020355895
0.008826800622046,0.002551020355895
0.023801885545254,0.002551020355895
0.122029140591621,0.002551020355895
-0.030604669824243,0.002551020355895
0.017540628090501,0.002551020355895
0.047995939850807,0.002551020355895
0.011905182152987,0.002551020355895
0.008250936865807,0.002551020355895
0.051818128675222,0.002551020355895
-0.074948735535145,0.002551020355895
0.012580280192196,0.002551020355895
-0.006467868108302,0.002551020355895
-0.053475730121136,0.002551020355895
0.038126043975353,0.002551020355895
-0.021918503567576,0.002551020355895
-0.012877460569143,0.002551020355895
0.048400472849607,0.002551020355895
0.001640574540943,0.002551020355895
-0.022653600201011,0.002551020355895
0.033416669815779,0.002551020355895
0.023007124662399,0.002551020355895
-0.034941148012877,0.002551020355895
-0.040389660745859,0.002551020355895
-0.035647053271532,0.002551020355895
-0.070451065897942,0.002551020355895
-0.020923187956214,0.002551020355895
0.007833941839635,0.002551020355895
-0.015154183842242,0.002551020355895
0.029981149360538,0.002551020355895
-0.015532947145402,0.002551020355895
-0.005627912003547,0.002551020355895
-0.018375735729933,0.002551020355895
0.007427882868797,0.002551020355895
-0.037825290113688,0.002551020355895
0.069055460393429,0.002551020355895
-0.068489544093609,0.002551020355895
0.052190046757460,0.002551020355895
0.078135542571545,0.002551020355895
0.097571007907391,0.002551020355895
0.024139918386936,0.002551020355895
0.037446424365044,0.002551020355895
-0.072169065475464,0.002551020355895
0.067448273301125,0.002551020355895
0.033540237694979,0.002551020355895
-0.028149962425232,0.002551020355895
-0.079810254275799,0.002551020355895
-0.059888485819101,0.002551020355895
0.014597988687456,0.002551020355895
0.054173812270164,0.002551020355895
0.032215844839811,0.002551020355895
-0.003727418370545,0.002551020355895
-0.007939144968987,0.002551020355895
-0.008766944520175,0.002551020355895
-0.058764904737473,0.002551020355895
-0.028571940958500,0.002551020355895
-0.071419924497604,0.002551020355895
0.021618772298098,0.002551020355895
0.041918322443962,0.002551020355895
-0.031879808753729,0.002551020355895
-0.006956453435123,0.002551020355895
0.021432777866721,0.002551020355895
-0.045040898025036,0.002551020355895
0.010208713822067,0.002551020355895
-0.042592294514179,0.002551020355895
0.015470300801098,0.002551020355895
0.021256878972054,0.002551020355895
0.015047710388899,0.002551020355895
0.029492534697056,0.002551020355895
-0.034906368702650,0.002551020355895
-0.040405161678791,0.002551020355895
-0.011377915740013,0.002551020355895
0.054598134011030,0.002551020355895
-0.062414117157459,0.002551020355895
0.065229877829552,0.002551020355895
-0.021127223968506,0.002551020355895
0.031502552330494,0.002551020355895
-0.015321465209126,0.002551020355895
0.040052678436041,0.002551020355895
0.033284701406956,0.002551020355895
0.068162277340889,0.002551020355895
0.088084362447262,0.002551020355895
0.028872679919004,0.002551020355895
-0.099314264953136,0.002551020355895
0.112939514219761,0.002551020355895
0.090936541557312,0.002551020355895
0.055706501007080,0.002551020355895
-0.033459227532148,0.002551020355895
0.033436845988035,0.002551020355895
-0.043590869754553,0.002551020355895
0.107311189174652,0.002551020355895
-0.069000430405140,0.002551020355895
0.101671472191811,0.002551020355895
0.022477479651570,0.002551020355895
-0.022733176127076,0.002551020355895
-0.033900503069162,0.002551020355895
0.005444969981909,0.002551020355895
0.076790258288383,0.002551020355895
-0.015084302984178,0.002551020355895
-0.004806686192751,0.002551020355895
0.002858052961528,0.002551020355895
-0.002397808711976,0.002551020355895
0.053776055574417,0.002551020355895
-0.058340106159449,0.002551020355895
-0.074772931635380,0.002551020355895
-0.016292508691549,0.002551020355895
0.000233220111113,0.002551020355895
-0.058115717023611,0.002551020355895
0.080631285905838,0.002551020355895
-0.036655586212873,0.002551020355895
-0.173234030604362,0.002551020355895
-0.028595326468349,0.002551020355895
-0.013177680782974,0.002551020355895
0.057386811822653,0.002551020355895
-0.022923864424229,0.002551020355895
0.059817705303431,0.002551020355895
-0.047040104866028,0.002551020355895
0.057565823197365,0.002551020355895
0.068325430154800,0.002551020355895
0.004315651953220,0.002551020355895
0.009571498259902,0.002551020355895
0.093528047204018,0.002551020355895
0.013513051904738,0.002551020355895
0.069920204579830,0.002551020355895
0.003423631424084,0.002551020355895
0.089447967708111,0.002551020355895
0.011549185961485,0.002551020355895
-0.034448087215424,0.002551020355895
-0.032705899327993,0.002551020355895
0.055501293390989,0.002551020355895
0.005633900407702,0.002551020355895
0.057084292173386,0.002551020355895
0.080770134925842,0.002551020355895
0.016402553766966,0.002551020355895
-0.022118538618088,0.002551020355895
-0.005057784728706,0.002551020355895
-0.130422860383987,0.002551020355895
0.019565001130104,0.002551020355895
0.015586002729833,0.002551020355895
-0.050624474883080,0.002551020355895
0.140900254249573,0.002551020355895
-0.028482487425208,0.002551020355895
0.045904625207186,0.002551020355895
0.019568668678403,0.002551020355895
0.012513530440629,0.002551020355895
-0.010351870208979,0.002551020355895
0.046287298202515,0.002551020355895
-0.075455255806446,0.002551020355895
-0.015602171421051,0.002551020355895
0.005333651322871,0.002551020355895
-0.019361589103937,0.002551020355895
0.074969358742237,0.002551020355895
-0.014552246779203,0.002551020355895
0.014054906554520,0.002551020355895
-0.096729338169098,0.002551020355895
0.104946643114090,0.002551020355895
-0.018485769629478,0.002551020355895
-0.092528261244297,0.002551020355895
-0.006808884907514,0.002551020355895
-0.031119862571359,0.002551020355895
-0.138445660471916,0.002551020355895
-0.064168624579906,0.002551020355895
-0.010640756227076,0.002551020355895
-0.029326241463423,0.002551020355895
0.034669145941734,0.002551020355895
-0.028941936790943,0.002551020355895
-0.098009809851646,0.002551020355895
0.013946977443993,0.002551020355895
0.035138789564371,0.002551020355895
0.025263486430049,0.002551020355895
-0.093160197138786,0.002551020355895
0.025266217067838,0.002551020355895
-0.069293245673180,0.002551020355895
-0.030253056436777,0.002551020355895
0.023930542171001,0.002551020355895
0.016145346686244,0.002551020355895
-0.022271465510130,0.002551020355895
-0.004367137327790,0.002551020355895
0.030885810032487,0.002551020355895
0.009931861422956,0.002551020355895
0.022013654932380,0.002551020355895
-0.082120515406132,0.002551020355895
-0.067642107605934,0.002551020355895
-0.084502317011356,0.002551020355895
0.013896395452321,0.002551020355895
-0.039728652685881,0.002551020355895
0.005234474316239,0.002551020355895
-0.049367595463991,0.002551020355895
0.065834254026413,0.002551020355895
0.009586757048965,0.002551020355895
-0.036087602376938,0.002551020355895
0.109283082187176,0.002551020355895
0.042730249464512,0.002551020355895
-0.087885297834873,0.002551020355895
0.054656762629747,0.002551020355895
0.009173569269478,0.002551020355895
-0.016563585028052,0.002551020355895
0.002268701791763,0.002551020355895
-0.066695831716061,0.002551020355895
0.042090862989426,0.002551020355895
0.013071250170469,0.002551020355895
-0.031374257057905,0.002551020355895
0.011343629099429,0.002551020355895
0.038180746138096,0.002551020355895
-0.046823278069496,0.002551020355895
0.015946514904499,0.002551020355895
0.020859373733401,0.002551020355895
0.032119028270245,0.002551020355895
0.075973764061928,0.002551020355895
0.040901154279709,0.002551020355895
-0.050308834761381,0.002551020355895
0.008855629712343,0.002551020355895
-0.060217738151550,0.002551020355895
-0.002322761341929,0.002551020355895
0.011722565628588,0.002551020355895
-0.073947630822659,0.002551020355895
0.076122283935547,0.002551020355895
-0.018194235861301,0.002551020355895
0.025574039667845,0.002551020355895
0.037642817944288,0.002551020355895
0.006217809394002,0.002551020355895
0.027791608124971,0.002551020355895
0.040240962058306,0.002551020355895
-0.031209193170071,0.002551020355895
-0.042108800262213,0.002551020355895
0.092491321265697,0.002551020355895
-0.038085021078587,0.002551020355895
0.041784536093473,0.002551020355895
0.019535236060619,0.002551020355895
0.098346300423145,0.002551020355895
-0.043360434472561,0.002551020355895
-0.066734336316586,0.002551020355895
-0.002533505437896,0.002551020355895
-0.006871758960187,0.002551020355895
0.008314256556332,0.002551020355895
0.014518645592034,0.002551020355895
0.018974073231220,0.002551020355895
0.004925983026624,0.002551020355895
0.001545531093143,0.002551020355895
0.040103357285261,0.002551020355895
-0.053745564073324,0.002551020355895
0.051784235984087,0.002551020355895
-0.086754955351353,0.002551020355895
0.025303522124887,0.002551020355895
0.067429564893246,0.002551020355895
0.026245465502143,0.002551020355895
0.044589500874281,0.002551020355895
-0.176394522190094,0.002551020355895
0.109012953937054,0.002551020355895
0.048370786011219,0.002551020355895
0.128660216927528,0.002551020355895
-0.028415549546480,0.002551020355895
-0.003502197330818,0.002551020355895
0.005385859403759,0.002551020355895
-0.001514718052931,0.002551020355895
-0.062977492809296,0.002551020355895
-0.069844730198383,0.002551020355895
-0.028294609859586,0.002551020355895
0.012696362100542,0.002551020355895
0.027848014608026,0.002551020355895
0.007080018054694,0.002551020355895
-0.065192267298698,0.002551020355895
-0.065453529357910,0.002551020355895
-0.061280313879251,0.002551020355895
-0.041113406419754,0.002551020355895
-0.039732970297337,0.002551020355895
0.038987841457129,0.002551020355895
0.057414762675762,0.002551020355895
0.000729169580154,0.002551020355895
-0.001040734350681,0.002551020355895
-0.066713981330395,0.002551020355895
-0.039677668362856,0.002551020355895
-0.003188404254615,0.002551020355895
0.039423778653145,0.002551020355895
0.013529508374631,0.002551020355895
-0.050416089594364,0.002551020355895
0.016631729900837,0.002551020355895
0.034917738288641,0.002551020355895
0.042882848531008,0.002551020355895
-0.041779581457376,0.002551020355895
0.031206471845508,0.002551020355895
-0.020669538527727,0.002551020355895
-0.009961994364858,0.002551020355895
-0.018324410542846,0.002551020355895
-0.009573263116181,0.002551020355895
0.007953414693475,0.002551020355895
-0.046913292258978,0.002551020355895
0.104139350354671,0.002551020355895
-0.034668579697609,0.002551020355895
0.018054565414786,0.002551020355895
-0.015012972056866,0.002551020355895
0.004968170076609,0.002551020355895
0.020880546420813,0.002551020355895
-0.014342562295496,0.002551020355895
0.014892706647515,0.002551020355895
0.061472918838263,0.002551020355895
0.055681359022856,0.002551020355895
0.039016932249069,0.002551020355895
0.027080636471510,0.002551020355895
-0.000796978012659,0.002551020355895
0.034447550773621,0.002551020355895
0.064449630677700,0.002551020355895
0.056109093129635,0.002551020355895
0.048874255269766,0.002551020355895
-0.036491274833679,0.002551020355895
-0.061623185873032,0.002551020355895
0.008139150217175,0.002551020355895
0.012170184403658,0.002551020355895
-0.092181116342545,0.002551020355895
0.042889218777418,0.002551020355895
-0.059231001883745,0.002551020355895
0.014150922186673,0.002551020355895
-0.033165689557791,0.002551020355895
-0.071875631809235,0.002551020355895
0.052586700767279,0.002551020355895
-0.032532759010792,0.002551020355895
-0.088258825242519,0.002551020355895
0.041326176375151,0.002551020355895
-0.001016985857859,0.002551020355895
0.013293868862092,0.002551020355895
-0.041056752204895,0.002551020355895
0.049379322677851,0.002551020355895
-0.034603025764227,0.002551020355895
0.078838780522346,0.002551020355895
-0.038061078637838,0.002551020355895
-0.042236499488354,0.002551020355895
0.012217486277223,0.002551020355895
0.059995606541634,0.002551020355895
0.032599020749331,0.002551020355895
-0.048568207770586,0.002551020355895
-0.031846858561039,0.002551020355895
0.013751230202615,0.002551020355895
0.095059312880039,0.002551020355895
0.000589108967688,0.002551020355895
0.014826856553555,0.002551020355895
0.022583927959204,0.002551020355895
0.052696626633406,0.002551020355895
0.018242232501507,0.002551020355895
-0.102759845554829,0.002551020355895
-0.018458798527718,0.002551020355895
-0.005613465327770,0.002551020355895
-0.015645159408450,0.002551020355895
0.063351683318615,0.002551020355895
-0.018867725506425,0.002551020355895
-0.014324421063066,0.002551020355895
0.024453138932586,0.002551020355895
-0.003036577487364,0.002551020355895
-0.015969086438417,0.002551020355895
0.000382105499739,0.002551020355895
0.005202663596720,0.002551020355895
0.016265153884888,0.002551020355895
-0.020445423200727,0.002551020355895
-0.035884682089090,0.002551020355895
-0.008851269260049,0.002551020355895
0.019211359322071,0.002551020355895
0.048897098749876,0.002551020355895
-0.021317146718502,0.002551020355895
-0.021390644833446,0.002551020355895
0.023159753531218,0.002551020355895
0.025803288444877,0.002551020355895
0.049555391073227,0.002551020355895
0.036310221999884,0.002551020355895
-0.048208918422461,0.002551020355895
-0.043108291924000,0.002551020355895
-0.026423551142216,0.002551020355895
-0.029153760522604,0.002551020355895
-0.015473175793886,0.002551020355895
0.042134735733271,0.002551020355895
0.070655889809132,0.002551020355895
0.011815723031759,0.002551020355895
-0.115347109735012,0.002551020355895
0.014749782159925,0.002551020355895
-0.047091547399759,0.002551020355895
-0.075956642627716,0.002551020355895
-0.031442418694496,0.002551020355895
0.037876546382904,0.002551020355895
0.059073768556118,0.002551020355895
0.085381299257278,0.002551020355895
-0.051273014396429,0.002551020355895
0.027127424255013,0.002551020355895
0.030938711017370,0.002551020355895
0.052120063453913,0.002551020355895
0.086680807173252,0.002551020355895
-0.005305392667651,0.002551020355895
-0.064904972910881,0.002551020355895
0.031064268201590,0.002551020355895
-0.012776832096279,0.002551020355895
0.038122322410345,0.002551020355895
-0.022710038349032,0.002551020355895
0.004593381192535,0.002551020355895
-0.009679081849754,0.002551020355895
0.083933718502522,0.002551020355895
-0.015067874453962,0.002551020355895
-0.094445608556271,0.002551020355895
-0.041978921741247,0.002551020355895
-0.060041833668947,0.002551020355895
-0.040856771171093,0.002551020355895
0.031375836580992,0.002551020355895
-0.053122635930777,0.002551020355895
0.025733284652233,0.002551020355895
0.048651695251465,0.002551020355895
0.040617126971483,0.002551020355895
-0.061554297804832,0.002551020355895
-0.042252846062183,0.002551020355895
0.034764476120472,0.002551020355895
0.044948443770409,0.002551020355895
-0.057190474122763,0.002551020355895
-0.024071073159575,0.002551020355895
-0.008092148229480,0.002551020355895
-0.047062713652849,0.002551020355895
-0.021370161324739,0.002551020355895
-0.051751863211393,0.002551020355895
-0.045459724962711,0.002551020355895
-0.008674448356032,0.002551020355895
-0.029201664030552,0.002551020355895
0.019366668537259,0.002551020355895
0.010711992159486,0.002551020355895
-0.028330849483609,0.002551020355895
0.022412097081542,0.002551020355895
-0.022045571357012,0.002551020355895
-0.023081354796886,0.002551020355895
0.015569529496133,0.002551020355895
0.055022019892931,0.002551020355895
0.037370357662439,0.002551020355895
-0.031516507267952,0.002551020355895
0.039978969842196,0.002551020355895
0.007296802476048,0.002551020355895
0.000483900337713,0.002551020355895
-0.007841478101909,0.002551020355895
0.013393945991993,0.002551020355895
-0.036341417580843,0.002551020355895
0.017017532140017,0.002551020355895
-0.036485154181719,0.002551020355895
-0.011578918434680,0.002551020355895
0.008360821753740,0.002551020355895
-0.022049857303500,0.002551020355895
0.000168078593560,0.002551020355895
-0.044456101953983,0.002551020355895
-0.040516003966331,0.002551020355895
-0.015810096636415,0.002551020355895
0.003488301532343,0.002551020355895
-0.016970489174128,0.002551020355895
0.044581357389688,0.002551020355895
0.014815772883594,0.002551020355895
-0.070431016385555,0.002551020355895
-0.071602992713451,0.002551020355895
0.002476217225194,0.002551020355895
-0.016794780269265,0.002551020355895
0.008652916178107,0.002551020355895
-0.053211003541946,0.002551020355895
-0.029025809839368,0.002551020355895
-0.037783004343510,0.002551020355895
-0.068058155477047,0.002551020355895
-0.096069060266018,0.002551020355895
0.005354947876185,0.002551020355895
-0.008529280312359,0.002551020355895
-0.121982701122761,0.002551020355895
0.011244258843362,0.002551020355895
-0.007934095337987,0.002551020355895
0.055102512240410,0.002551020355895
0.067528501152992,0.002551020355895
0.016889862716198,0.002551020355895
-0.041256684809923,0.002551020355895
0.023374304175377,0.002551020355895
0.015995059162378,0.002551020355895
-0.006180320400745,0.002551020355895
-0.014142442494631,0.002551020355895
0.034762240946293,0.002551020355895
0.079160049557686,0.002551020355895
-0.031504429876804,0.002551020355895
-0.003712919773534,0.002551020355895
-0.116317942738533,0.002551020355895
-0.084321737289429,0.002551020355895
-0.050384193658829,0.002551020355895
0.027658304199576,0.002551020355895
-0.078960366547108,0.002551020355895
-0.021143106743693,0.002551020355895
-0.006924165878445,0.002551020355895
-0.023206297308207,0.002551020355895
0.036411426961422,0.002551020355895
-0.053474228829145,0.002551020355895
-0.004838780034333,0.002551020355895
-0.043583471328020,0.002551020355895
-0.074798442423344,0.002551020355895
0.002593040931970,0.002551020355895
0.052338581532240,0.002551020355895
0.003391593461856,0.002551020355895
0.072307042777538,0.002551020355895
-0.048697270452976,0.002551020355895
0.008296852000058,0.002551020355895
0.008815111592412,0.002551020355895
0.008175466209650,0.002551020355895
-0.071679234504700,0.002551020355895
0.028336554765701,0.002551020355895
0.001915102358907,0.002551020355895
-0.010520214214921,0.002551020355895
0.096113108098507,0.002551020355895
-0.032191339880228,0.002551020355895
0.040599919855595,0.002551020355895
-0.040666524320841,0.002551020355895
0.016655750572681,0.002551020355895
0.096120059490204,0.002551020355895
-0.048424415290356,0.002551020355895
0.096378363668919,0.002551020355895
-0.147024795413017,0.002551020355895
0.004268380813301,0.002551020355895
0.020837927237153,0.002551020355895
0.061772234737873,0.002551020355895
-0.057283785194159,0.002551020355895
-0.191283732652664,0.002551020355895
-0.017249021679163,0.002551020355895
-0.024260902777314,0.002551020355895
0.107897169888020,0.002551020355895
-0.069032043218613,0.002551020355895
-0.019396284595132,0.002551020355895
0.001411503646523,0.002551020355895
0.027521224692464,0.002551020355895
-0.009156817570329,0.002551020355895
-0.011642639525235,0.002551020355895
-0.109190888702869,0.002551020355895
-0.040933363139629,0.002551020355895
-0.010725244879723,0.002551020355895
-0.015605654567480,0.002551020355895
0.065308079123497,0.002551020355895
-0.042814422398806,0.002551020355895
0.044505983591080,0.002551020355895
0.009548831731081,0.002551020355895
-0.026094576343894,0.002551020355895
0.045077323913574,0.002551020355895
-0.012294596061110,0.002551020355895
0.118701003491879,0.002551020355895
0.020547579973936,0.002551020355895
-0.075603403151035,0.002551020355895
-0.035682030022144,0.002551020355895
0.014550221152604,0.002551020355895
0.016460409387946,0.002551020355895
-0.039064049720764,0.002551020355895
0.011142137460411,0.002551020355895
0.052473012357950,0.002551020355895
-0.009110169485211,0.002551020355895
-0.025528855621815,0.002551020355895
-0.041371732950211,0.002551020355895
0.026852125301957,0.002551020355895
-0.013795360922813,0.002551020355895
-0.001088013756089,0.002551020355895
-0.103184387087822,0.002551020355895
-0.052871931344271,0.002551020355895
-0.044853668659925,0.002551020355895
-0.017538510262966,0.002551020355895
-0.014705154113472,0.002551020355895
0.022063126787543,0.002551020355895
-0.060924764722586,0.002551020355895
0.035380210727453,0.002551020355895
-0.007001357153058,0.002551020355895
-0.005932729691267,0.002551020355895
-0.041336670517921,0.002551020355895
0.010058226995170,0.002551020355895
0.000970722932834,0.002551020355895
-0.032795317471027,0.002551020355895
0.000879581610207,0.002551020355895
-0.051811024546623,0.002551020355895
0.022137755528092,0.002551020355895
-0.007069524843246,0.002551020355895
-0.004015016369522,0.002551020355895
-0.007668960839510,0.002551020355895
-0.052287634462118,0.002551020355895
-0.022416548803449,0.002551020355895
-0.092761725187302,0.002551020355895
-0.108849339187145,0.002551020355895
0.071966156363487,0.002551020355895
0.028294658288360,0.002551020355895
0.012095727957785,0.002551020355895
-0.032600764185190,0.002551020355895
0.032838772982359,0.002551020355895
0.103180579841137,0.002551020355895
0.061525192111731,0.002551020355895
0.018304280936718,0.002551020355895
-0.064692772924900,0.002551020355895
-0.046551469713449,0.002551020355895
-0.068488717079163,0.002551020355895
0.047686640173197,0.002551020355895
-0.027019791305065,0.002551020355895
-0.038368865847588,0.002551020355895
0.022122755646706,0.002551020355895
0.051981098949909,0.002551020355895
-0.061488427221775,0.002551020355895
-0.040500972419977,0.002551020355895
-0.137761518359184,0.002551020355895
0.093311682343483,0.002551020355895
0.025741057470441,0.002551020355895
-0.047987215220928,0.002551020355895
-0.050636529922485,0.002551020355895
-0.022787261754274,0.002551020355895
-0.025305388495326,0.002551020355895
0.089566901326180,0.002551020355895
0.049953918904066,0.002551020355895
-0.050458855926991,0.002551020355895
0.046914864331484,0.002551020355895
0.062810368835926,0.002551020355895
0.033656224608421,0.002551020355895
0.033646065741777,0.002551020355895
0.047404184937477,0.002551020355895
0.024344149976969,0.002551020355895
-0.077997028827667,0.002551020355895
-0.079040594398975,0.002551020355895
0.021813793107867,0.002551020355895
0.033241789788008,0.002551020355895
0.014639955013990,0.002551020355895
-0.041612446308136,0.002551020355895
-0.025903752073646,0.002551020355895
-0.025854118168354,0.002551020355895
0.110511757433414,0.002551020355895
-0.003741100663319,0.002551020355895
0.051289808005095,0.002551020355895
-0.004003340844065,0.002551020355895
0.044408194720745,0.002551020355895
-0.034602914005518,0.002551020355895
-0.059038847684860,0.002551020355895
0.035809393972158,0.002551020355895
-0.032201364636421,0.002551020355895
0.086993135511875,0.002551020355895
0.085569009184837,0.002551020355895
-0.018195791170001,0.002551020355895
-0.036714024841785,0.002551020355895
-0.041457042098045,0.002551020355895
0.020528022199869,0.002551020355895
0.028960580006242,0.002551020355895
0.011772939004004,0.002551020355895
0.000562058761716,0.002551020355895
0.064390778541565,0.002551020355895
-0.115358144044876,0.002551020355895
-0.026608182117343,0.002551020355895
0.034131441265345,0.002551020355895
0.089277379214764,0.002551020355895
0.006024910137057,0.002551020355895
0.077293217182159,0.002551020355895
-0.060295592993498,0.002551020355895
0.003273580688983,0.002551020355895
0.087797321379185,0.002551020355895
-0.092995986342430,0.002551020355895
0.034453898668289,0.002551020355895
-0.072824254631996,0.002551020355895
0.078904062509537,0.002551020355895
0.041119750589132,0.002551020355895
-0.010187391191721,0.002551020355895
-0.042400877922773,0.002551020355895
0.057923093438148,0.002551020355895
-0.036615919321775,0.002551020355895
0.018141211941838,0.002551020355895
-0.036615189164877,0.002551020355895
0.078706949949265,0.002551020355895
-0.084445074200630,0.002551020355895
0.013358860276639,0.002551020355895
0.058162242174149,0.002551020355895
0.040170926600695,0.002551020355895
0.013297325931489,0.002551020355895
0.003968919627368,0.002551020355895
0.006304299458861,0.002551020355895
0.010562628507614,0.002551020355895
-0.061809454113245,0.002551020355895
0.049759201705456,0.002551020355895
-0.111119590699673,0.002551020355895
0.035196483135223,0.002551020355895
0.079614400863647,0.002551020355895
-0.045482836663723,0.002551020355895
-0.009360852651298,0.002551020355895
-0.031312968581915,0.002551020355895
0.014617954380810,0.002551020355895
0.095534145832062,0.002551020355895
0.057496756315231,0.002551020355895
0.043626006692648,0.002551020355895
-0.040357727557421,0.002551020355895
-0.025435950607061,0.002551020355895
0.030404370278120,0.002551020355895
-0.142515212297440,0.002551020355895
-0.010765158571303,0.002551020355895
-0.005499552469701,0.002551020355895
0.059094820171595,0.002551020355895
-0.032357882708311,0.002551020355895
-0.025886187329888,0.002551020355895
-0.102739036083221,0.002551020355895
-0.072608858346939,0.002551020355895
-0.027336800470948,0.002551020355895
0.079057618975639,0.002551020355895
0.045180957764387,0.002551020355895
-0.044126044958830,0.002551020355895
-0.012661750428379,0.002551020355895
0.007767081726342,0.002551020355895
0.016422305256128,0.002551020355895
0.022232878953218,0.002551020355895
-0.002645526546985,0.002551020355895
0.034127760678530,0.002551020355895
-0.044831976294518,0.002551020355895
-0.068063043057919,0.002551020355895
-0.033925727009773,0.002551020355895
0.021861253306270,0.002551020355895
0.036299806088209,0.002551020355895
0.019949868321419,0.002551020355895
-0.074200399219990,0.002551020355895
-0.017123501747847,0.002551020355895
-0.138974949717522,0.002551020355895
0.011263838037848,0.002551020355895
-0.036408588290215,0.002551020355895
0.087160788476467,0.002551020355895
-0.037685345858335,0.002551020355895
-0.059044603258371,0.002551020355895
-0.067007154226303,0.002551020355895
0.013956476002932,0.002551020355895
-0.061290085315704,0.002551020355895
0.000205096774152,0.002551020355895
-0.010607559233904,0.002551020355895
0.052191738039255,0.002551020355895
-0.018057858571410,0.002551020355895
-0.019023163244128,0.002551020355895
0.028376305475831,0.002551020355895
0.051522973924875,0.002551020355895
-0.000467425619718,0.002551020355895
-0.016581827774644,0.002551020355895
-0.009825121611357,0.002551020355895
0.000859214109369,0.002551020355895
0.040613695979118,0.002551020355895
-0.038053229451180,0.002551020355895
0.007659659255296,0.002551020355895
-0.013891331851482,0.002551020355895
0.027882855385542,0.002551020355895
0.074341863393784,0.002551020355895
-0.005858502816409,0.002551020355895
0.019358757883310,0.002551020355895
-0.047635894268751,0.002551020355895
0.066520079970360,0.002551020355895
0.106402248144150,0.002551020355895
0.010389312170446,0.002551020355895
-0.035934172570705,0.002551020355895
0.083485804498196,0.002551020355895
-0.033972430974245,0.002551020355895
-0.012165619991720,0.002551020355895
-0.059355769306421,0.002551020355895
-0.074215307831764,0.002551020355895
-0.058490190654993,0.002551020355895
0.002397423144430,0.002551020355895
0.037713360041380,0.002551020355895
-0.015651959925890,0.002551020355895
-0.050327956676483,0.002551020355895
0.007539326325059,0.002551020355895
0.022968383505940,0.002551020355895
0.012075886130333,0.002551020355895
0.031947907060385,0.002551020355895
-0.049516089260578,0.002551020355895
-0.057351160794497,0.002551020355895
-0.072675816714764,0.002551020355895
-0.013769147917628,0.002551020355895
-0.000692128611263,0.002551020355895
0.034098584204912,0.002551020355895
0.036635596305132,0.002551020355895
-0.033061876893044,0.002551020355895
0.043611872941256,0.002551020355895
0.029999732971191,0.002551020355895
0.002123886486515,0.002551020355895
-0.012447616085410,0.002551020355895
-0.047137163579464,0.002551020355895
0.032826796174049,0.002551020355895
0.107208952307701,0.002551020355895
-0.000225469906582,0.002551020355895
0.047350358217955,0.002551020355895
0.033218216150999,0.002551020355895
0.088396176695824,0.002551020355895
0.019829580560327,0.002551020355895
0.007354144006968,0.002551020355895
-0.041134797036648,0.002551020355895
-0.028644220903516,0.002551020355895
-0.076439417898655,0.002551020355895
-0.029792917892337,0.002551020355895
0.056035518646240,0.002551020355895
0.001958088716492,0.002551020355895
0.043722108006477,0.002551020355895
-0.062465459108353,0.002551020355895
0.020124062895775,0.002551020355895
0.084813073277473,0.002551020355895
0.003138430882245,0.002551020355895
0.024950377643108,0.002551020355895
0.035534232854843,0.002551020355895
0.047800049185753,0.002551020355895
0.077778764069080,0.002551020355895
-0.033839296549559,0.002551020355895
-0.037271622568369,0.002551020355895
0.064084030687809,0.002551020355895
-0.028859077021480,0.002551020355895
0.012183393351734,0.002551020355895
-0.014094339683652,0.002551020355895
-0.009051239117980,0.002551020355895
-0.013008015230298,0.002551020355895
-0.106435954570770,0.002551020355895
0.125048533082008,0.002551020355895
0.004454574547708,0.002551020355895
-0.028100535273552,0.002551020355895
0.005399133078754,0.002551020355895
-0.044504605233669,0.002551020355895
-0.098094411194324,0.002551020355895
0.069341897964478,0.002551020355895
0.057630915194750,0.002551020355895
0.025247877463698,0.002551020355895
0.001233307062648,0.002551020355895
-0.018976164981723,0.002551020355895
0.102623172104359,0.002551020355895
0.005024178884923,0.002551020355895
-0.015682339668274,0.002551020355895
0.032892487943172,0.002551020355895
0.058097191154957,0.002551020355895
-0.002495919121429,0.002551020355895
0.040947753936052,0.002551020355895
0.052127547562122,0.002551020355895
0.023281190544367,0.002551020355895
-0.025478947907686,0.002551020355895
-0.023930458351970,0.002551020355895
0.027781561017036,0.002551020355895
-0.064658343791962,0.002551020355895
-0.189995050430298,0.002551020355895
-0.005491189192981,0.002551020355895
0.013742161914706,0.002551020355895
0.127137392759323,0.002551020355895
0.033168129622936,0.002551020355895
0.044935114681721,0.002551020355895
-0.029335992410779,0.002551020355895
-0.005434841383249,0.002551020355895
0.028543017804623,0.002551020355895
-0.008600853383541,0.002551020355895
-0.007008872460574,0.002551020355895
0.028542887419462,0.002551020355895
-0.002454460365698,0.002551020355895
0.099364541471004,0.002551020355895
0.060598611831665,0.002551020355895
-0.082685150206089,0.002551020355895
-0.039234183728695,0.002551020355895
-0.034660100936890,0.002551020355895
0.019572934135795,0.002551020355895
0.033859223127365,0.002551020355895
-0.029278118163347,0.002551020355895
-0.025902396067977,0.002551020355895
-0.016026204451919,0.002551020355895
-0.043731529265642,0.002551020355895
-0.100180588662624,0.002551020355895
0.009331723675132,0.002551020355895
0.003040106501430,0.002551020355895
-0.048031494021416,0.002551020355895
-0.036556411534548,0.002551020355895
-0.134039834141731,0.002551020355895
-0.027843480929732,0.002551020355895
-0.066670872271061,0.002551020355895
-0.063037343323231,0.002551020355895
-0.022320827469230,0.002551020355895
0.046454288065434,0.002551020355895
0.035573329776525,0.002551020355895
-0.024409916251898,0.002551020355895
0.040447227656841,0.002551020355895
-0.039145443588495,0.002551020355895
0.005402779206634,0.002551020355895
0.022513858973980,0.002551020355895
0.047412410378456,0.002551020355895
-0.042814504355192,0.002551020355895
0.122866988182068,0.002551020355895
-0.100222177803516,0.002551020355895
-0.068675629794598,0.002551020355895
0.038394235074520,0.002551020355895
0.074928812682629,0.002551020355895
-0.038752198219299,0.002551020355895
-0.046990875154734,0.002551020355895
-0.001244481070898,0.002551020355895
0.032141700387001,0.002551020355895
0.060202233493328,0.002551020355895
-0.037298604846001,0.002551020355895
0.020648166537285,0.002551020355895
-0.147095069289207,0.002551020355895
-0.042561847716570,0.002551020355895
0.031488366425037,0.002551020355895
0.102864071726799,0.002551020355895
0.010373537428677,0.002551020355895
0.044869951903820,0.002551020355895
-0.063975878059864,0.002551020355895
-0.009580403566360,0.002551020355895
0.051507893949747,0.002551020355895
0.045353978872299,0.002551020355895
-0.134966999292374,0.002551020355895
0.032271768897772,0.002551020355895
0.035752747207880,0.002551020355895
0.061748228967190,0.002551020355895
0.049667205661535,0.002551020355895
-0.016946572810411,0.002551020355895
0.002931854454800,0.002551020355895
0.063588336110115,0.002551020355895
0.024470793083310,0.002551020355895
0.050556302070618,0.002551020355895
0.056550931185484,0.002551020355895
-0.010691013187170,0.002551020355895
-0.061543911695480,0.002551020355895
-0.113035611808300,0.002551020355895
0.005564352031797,0.002551020355895
0.001486764289439,0.002551020355895
-0.055109955370426,0.002551020355895
0.040510345250368,0.002551020355895
0.032684009522200,0.002551020355895
0.044321432709694,0.002551020355895
0.036976512521505,0.002551020355895
-0.040782775729895,0.002551020355895
0.023580409586430,0.002551020355895
-0.053468376398087,0.002551020355895
0.043476182967424,0.002551020355895
0.013022223487496,0.002551020355895
-0.024495223537087,0.002551020355895
-0.100505359470844,0.002551020355895
0.004740688949823,0.002551020355895
-0.006172883324325,0.002551020355895
0.069541975855827,0.002551020355895
-0.030938800424337,0.002551020355895
0.000283973524347,0.002551020355895
-0.035675331950188,0.002551020355895
0.086856961250305,0.002551020355895
0.025344360619783,0.002551020355895
0.011700824834406,0.002551020355895
-0.031482074409723,0.002551020355895
-0.060164745897055,0.002551020355895
-0.026423878967762,0.002551020355895
-0.039089072495699,0.002551020355895
-0.067059136927128,0.002551020355895
0.044131804257631,0.002551020355895
-0.039395097643137,0.002551020355895
0.025031864643097,0.002551020355895
0.004955111071467,0.002551020355895
0.091831177473068,0.002551020355895
-0.058026783168316,0.002551020355895
-0.124298639595509,0.002551020355895
-0.073145672678947,0.002551020355895
0.013259894214571,0.002551020355895
0.052203249186277,0.002551020355895
0.039079509675503,0.002551020355895
-0.019725285470486,0.002551020355895
0.090909704566002,0.002551020355895
-0.036316704005003,0.002551020355895
-0.050885234028101,0.002551020355895
-0.006796460598707,0.002551020355895
0.016499709337950,0.002551020355895
0.018792729824781,0.002551020355895
0.001418455969542,0.002551020355895
-0.008455934934318,0.002551020355895
0.056213822215796,0.002551020355895
0.025995448231697,0.002551020355895
-0.092011198401451,0.002551020355895
0.006132365204394,0.002551020355895
0.012260815128684,0.002551020355895
0.018284684047103,0.002551020355895
-0.005682613234967,0.002551020355895
-0.071437932550907,0.002551020355895
-0.032953415066004,0.002551020355895
-0.040866937488317,0.002551020355895
0.010645688511431,0.002551020355895
-0.036825742572546,0.002551020355895
-0.061238259077072,0.002551020355895
-0.116988621652126,0.002551020355895
-0.053190995007753,0.002551020355895
0.002341443439946,0.002551020355895
-0.024676660075784,0.002551020355895
-0.073804937303066,0.002551020355895
0.032880079001188,0.002551020355895
-0.023545306175947,0.002551020355895
0.078499749302864,0.002551020355895
-0.070738017559052,0.002551020355895
-0.074466951191425,0.002551020355895
-0.023428242653608,0.002551020355895
0.024567648768425,0.002551020355895
-0.012446082197130,0.002551020355895
-0.074788935482502,0.002551020355895
-0.050163142383099,0.002551020355895
0.075326167047024,0.002551020355895
-0.022903559729457,0.002551020355895
0.006993663031608,0.002551020355895
-0.013753836974502,0.002551020355895
-0.093342192471027,0.002551020355895
0.029814653098583,0.002551020355895
0.035706367343664,0.002551020355895
-0.006005388684571,0.002551020355895
0.022229867056012,0.002551020355895
-0.043765760958195,0.002551020355895
0.055443432182074,0.002551020355895
-0.011378879658878,0.002551020355895
0.023699127137661,0.002551020355895
0.055813133716583,0.002551020355895
-0.002204578137025,0.002551020355895
-0.032609783113003,0.002551020355895
0.045500386506319,0.002551020355895
-0.037810228765011,0.002551020355895
0.009992821142077,0.002551020355895
0.013715955428779,0.002551020355895
0.023095864802599,0.002551020355895
0.050401888787746,0.002551020355895
0.019138824194670,0.002551020355895
0.024709647521377,0.002551020355895
-0.041621185839176,0.002551020355895
0.028540665283799,0.002551020355895
-0.029414469376206,0.002551020355895
-0.025684319436550,0.002551020355895
0.025089474394917,0.002551020355895
0.044227711856365,0.002551020355895
-0.110762991011143,0.002551020355895
0.033677116036415,0.002551020355895
-0.057475272566080,0.002551020355895
-0.046572886407375,0.002551020355895
-0.106303095817566,0.002551020355895
0.007469329982996,0.002551020355895
0.032675433903933,0.002551020355895
0.075428605079651,0.002551020355895
-0.055607318878174,0.002551020355895
0.017489966005087,0.002551020355895
-0.074874654412270,0.002551020355895
-0.017354751005769,0.002551020355895
0.057465482503176,0.002551020355895
0.050065014511347,0.002551020355895
-0.022037679329515,0.002551020355895
-0.104973189532757,0.002551020355895
0.022151568904519,0.002551020355895
-0.019662316888571,0.002551020355895
0.015348518267274,0.002551020355895
0.031239943578839,0.002551020355895
0.025751080363989,0.002551020355895
-0.012775126844645,0.002551020355895
0.005021488759667,0.002551020355895
-0.052085865288973,0.002551020355895
0.042737103998661,0.002551020355895
-0.050129201263189,0.002551020355895
-0.033317912369967,0.002551020355895
0.040079571306705,0.002551020355895
-0.027087852358818,0.002551020355895
-0.043836086988449,0.002551020355895
0.015147753991187,0.002551020355895
0.012494860216975,0.002551020355895
-0.072016336023808,0.002551020355895
-0.044702608138323,0.002551020355895
-0.018340149894357,0.002551020355895
-0.010460859164596,0.002551020355895
-0.036378897726536,0.002551020355895
-0.015602161176503,0.002551020355895
-0.012115831486881,0.002551020355895
0.061742193996906,0.002551020355895
-0.090892948210239,0.002551020355895
0.051579397171736,0.002551020355895
-0.026885215193033,0.002551020355895
-0.043444845825434,0.002551020355895
0.060581102967262,0.002551020355895
0.022846063598990,0.002551020355895
0.090699851512909,0.002551020355895
-0.035126175731421,0.002551020355895
0.016434542834759,0.002551020355895
0.022834381088614,0.002551020355895
-0.063334994018078,0.002551020355895
-0.007815373130143,0.002551020355895
0.026812022551894,0.002551020355895
0.007552686613053,0.002551020355895
-0.016648788005114,0.002551020355895
-0.078909389674664,0.002551020355895
-0.113476224243641,0.002551020355895
0.025516809895635,0.002551020355895
-0.023225175216794,0.002551020355895
0.003798580728471,0.002551020355895
0.052440766245127,0.002551020355895
0.045889019966125,0.002551020355895
0.009714864194393,0.002551020355895
0.015746554359794,0.002551020355895
-0.022313773632050,0.002551020355895
-0.061736907809973,0.002551020355895
0.055740352720022,0.002551020355895
-0.009961161762476,0.002551020355895
-0.031473591923714,0.002551020355895
0.092901699244976,0.002551020355895
-0.030352985486388,0.002551020355895
0.002951136790216,0.002551020355895
-0.037535022944212,0.002551020355895
0.023848904296756,0.002551020355895
0.044761259108782,0.002551020355895
0.027295939624310,0.002551020355895
-0.036442261189222,0.002551020355895
0.036868732422590,0.002551020355895
-0.002778683556244,0.002551020355895
-0.113314546644688,0.002551020355895
0.066846527159214,0.002551020355895
-0.005840250290930,0.002551020355895
0.087659969925880,0.002551020355895
-0.073613934218884,0.002551020355895
-0.006115673109889,0.002551020355895
0.104367516934872,0.002551020355895
-0.017631564289331,0.002551020355895
0.007366158068180,0.002551020355895
0.036484897136688,0.002551020355895
0.011425277218223,0.002551020355895
-0.023055016994476,0.002551020355895
0.067867659032345,0.002551020355895
-0.103895701467991,0.002551020355895
0.057199608534575,0.002551020355895
-0.018866281956434,0.002551020355895
0.037085134536028,0.002551020355895
0.031097341328859,0.002551020355895
0.073056958615780,0.002551020355895
-0.035362791270018,0.002551020355895
-0.017286287620664,0.002551020355895
-0.049694325774908,0.002551020355895
-0.045985665172338,0.002551020355895
0.011822854168713,0.002551020355895
-0.051015712320805,0.002551020355895
0.035040315240622,0.002551020355895
-0.002678394317627,0.002551020355895
0.101993486285210,0.002551020355895
0.056756265461445,0.002551020355895
-0.056828048080206,0.002551020355895
-0.033834591507912,0.002551020355895
-0.013760432600975,0.002551020355895
0.018068602308631,0.002551020355895
-0.022052863612771,0.002551020355895
-0.003112163161859,0.002551020355895
-0.059578973799944,0.002551020355895
-0.053210552781820,0.002551020355895
-0.014538784511387,0.002551020355895
-0.012553457170725,0.002551020355895
-0.032647665590048,0.002551020355895
0.036385886371136,0.002551020355895
-0.057796616107225,0.002551020355895
0.040202263742685,0.002551020355895
-0.018765760585666,0.002551020355895
0.058121781796217,0.002551020355895
0.014973268844187,0.002551020355895
-0.125042766332626,0.002551020355895
-0.044809501618147,0.002551020355895
-0.083397194743156,0.002551020355895
0.097209692001343,0.002551020355895
0.003405026858672,0.002551020355895
0.005268458276987,0.002551020355895
0.065148212015629,0.002551020355895
0.106838621199131,0.002551020355895
0.094154477119446,0.002551020355895
0.013273402117193,0.002551020355895
-0.037584479898214,0.002551020355895
-0.029588159173727,0.002551020355895
0.056105278432369,0.002551020355895
-0.018331894651055,0.002551020355895
-0.006566152907908,0.002551020355895
0.094458445906639,0.002551020355895
0.022112816572189,0.002551020355895
-0.030676024034619,0.002551020355895
0.060103725641966,0.002551020355895
0.091697029769421,0.002551020355895
0.032994922250509,0.002551020355895
0.039362985640764,0.002551020355895
0.003111090976745,0.002551020355895
0.103480197489262,0.002551020355895
0.053728494793177,0.002551020355895
0.044234823435545,0.002551020355895
0.088857747614384,0.002551020355895
-0.030898936092854,0.002551020355895
-0.024577021598816,0.002551020355895
0.016197504475713,0.002551020355895
0.060577899217606,0.002551020355895
-0.002991704968736,0.002551020355895
0.021234134212136,0.002551020355895
-0.076174341142178,0.002551020355895
-0.036608532071114,0.002551020355895
0.038940832018852,0.002551020355895
-0.057780325412750,0.002551020355895
-0.002877559047192,0.002551020355895
0.089338056743145,0.002551020355895
-0.060512054711580,0.002551020355895
0.033999841660261,0.002551020355895
0.051516808569431,0.002551020355895
0.060963928699493,0.002551020355895
-0.012191387824714,0.002551020355895
-0.034485701471567,0.002551020355895
0.067425653338432,0.002551020355895
-0.048884049057961,0.002551020355895
0.030096802860498,0.002551020355895
0.037069573998451,0.002551020355895
0.034845992922783,0.002551020355895
-0.044310733675957,0.002551020355895
0.029588261619210,0.002551020355895
-0.025325182825327,0.002551020355895
0.048376787453890,0.002551020355895
0.093276552855968,0.002551020355895
0.002801021328196,0.002551020355895
-0.031850535422564,0.002551020355895
0.035630643367767,0.002551020355895
0.009008511900902,0.002551020355895
0.030800182372332,0.002551020355895
-0.075703606009483,0.002551020355895
0.037436842918396,0.002551020355895
0.001488827518187,0.002551020355895
0.029503237456083,0.002551020355895
0.064990408718586,0.002551020355895
0.078546628355980,0.002551020355895
0.041371453553438,0.002551020355895
0.002949514426291,0.002551020355895
-0.003866832703352,0.002551020355895
0.061118427664042,0.002551020355895
0.071673400700092,0.002551020355895
0.044701572507620,0.002551020355895
0.069951176643372,0.002551020355895
-0.042396768927574,0.002551020355895
0.034060359001160,0.002551020355895
-0.041050668805838,0.002551020355895
-0.063423827290535,0.002551020355895
-0.018476966768503,0.002551020355895
0.061577502638102,0.002551020355895
0.102450788021088,0.002551020355895
-0.030750108882785,0.002551020355895
0.025718135759234,0.002551020355895
0.043999701738358,0.002551020355895
0.004482892807573,0.002551020355895
0.031065136194229,0.002551020355895
-0.022330585867167,0.002551020355895
0.066605366766453,0.002551020355895
0.040911529213190,0.002551020355895
-0.000410173786804,0.002551020355895
-0.058716375380754,0.002551020355895
0.045667715370655,0.002551020355895
-0.009923118166625,0.002551020355895
-0.001444517052732,0.002551020355895
0.062543421983719,0.002551020355895
-0.035081148147583,0.002551020355895
0.042382150888443,0.002551020355895
-0.001148488605395,0.002551020355895
0.016986981034279,0.002551020355895
-0.042714379727840,0.002551020355895
0.044352486729622,0.002551020355895
-0.023417105898261,0.002551020355895
0.025316592305899,0.002551020355895
0.054290331900120,0.002551020355895
0.026135370135307,0.002551020355895
-0.022017698734999,0.002551020355895
-0.030929043889046,0.002551020355895
-0.017576966434717,0.002551020355895
0.094832159578800,0.002551020355895
0.027097320184112,0.002551020355895
0.054088693112135,0.002551020355895
0.018165824934840,0.002551020355895
-0.016695059835911,0.002551020355895
0.048707231879234,0.002551020355895
-0.033906415104866,0.002551020355895
0.044488161802292,0.002551020355895
-0.011543194763362,0.002551020355895
-0.008038239553571,0.002551020355895
-0.001802111975849,0.002551020355895
0.039190325886011,0.002551020355895
0.082687631249428,0.002551020355895
0.042328115552664,0.002551020355895
-0.077610187232494,0.002551020355895
0.059450905770063,0.002551020355895
0.029739424586296,0.002551020355895
-0.060094729065895,0.002551020355895
0.080068416893482,0.002551020355895
0.027205796912313,0.002551020355895
0.024537974968553,0.002551020355895
0.039994265884161,0.002551020355895
-0.011391771957278,0.002551020355895
-0.035345532000065,0.002551020355895
-0.012304098345339,0.002551020355895
-0.025706455111504,0.002551020355895
0.118205524981022,0.002551020355895
0.025965552777052,0.002551020355895
0.111539915204048,0.002551020355895
0.025277301669121,0.002551020355895
0.003616280853748,0.002551020355895
-0.008411229588091,0.002551020355895
-0.078238360583782,0.002551020355895
0.050810754299164,0.002551020355895
0.091204091906548,0.002551020355895
-0.020313737913966,0.002551020355895
-0.015717186033726,0.002551020355895
0.005684024188668,0.002551020355895
0.021956522017717,0.002551020355895
0.092032089829445,0.002551020355895
0.092294342815876,0.002551020355895
-0.075513109564781,0.002551020355895
0.016420185565948,0.002551020355895
-0.039467658847570,0.002551020355895
-0.015401474200189,0.002551020355895
-0.049747519195080,0.002551020355895
0.008557219989598,0.002551020355895
-0.054390244185925,0.002551020355895
0.076152130961418,0.002551020355895
0.052230790257454,0.002551020355895
-0.030994106084108,0.002551020355895
0.055111076682806,0.002551020355895
-0.035354275256395,0.002551020355895
0.083792589604855,0.002551020355895
-0.110770881175995,0.002551020355895
0.033400446176529,0.002551020355895
0.017607329413295,0.002551020355895
-0.001741157495417,0.002551020355895
0.042957730591297,0.002551020355895
-0.100937806069851,0.002551020355895
0.026738971471786,0.002551020355895
0.027535734698176,0.002551020355895
0.099958904087543,0.002551020355895
0.075103290379047,0.002551020355895
0.030613243579865,0.002551020355895
-0.036613751202822,0.002551020355895
0.031272701919079,0.002551020355895
0.001176700810902,0.002551020355895
0.002405866980553,0.002551020355895
-0.024107841774821,0.002551020355895
0.028488943353295,0.002551020355895
-0.015913408249617,0.002551020355895
-0.015142285265028,0.002551020355895
-0.032264798879623,0.002551020355895
-0.060604158788919,0.002551020355895
-0.026954192668200,0.002551020355895
0.085102088749409,0.002551020355895
-0.004510508850217,0.002551020355895
-0.035295605659485,0.002551020355895
0.110473021864891,0.002551020355895
-0.017532821744680,0.002551020355895
-0.045027129352093,0.002551020355895
-0.009722575545311,0.002551020355895
0.087949745357037,0.002551020355895
-0.029298236593604,0.002551020355895
-0.062868289649487,0.002551020355895
0.084773361682892,0.002551020355895
-0.080107815563679,0.002551020355895
0.060010351240635,0.002551020355895
0.009665641933680,0.002551020355895
0.011484197340906,0.002551020355895
-0.034329943358898,0.002551020355895
0.017726842314005,0.002551020355895
0.008715594187379,0.002551020355895
0.000228493241593,0.002551020355895
-0.000566118571442,0.002551020355895
-0.019182933494449,0.002551020355895
0.022503536194563,0.002551020355895
0.143038883805275,0.002551020355895
-0.075992599129677,0.002551020355895
-0.006656923331320,0.002551020355895
-0.021050669252872,0.002551020355895
-0.000928851135541,0.002551020355895
-0.030065206810832,0.002551020355895
0.009872313588858,0.002551020355895
0.005505841691047,0.002551020355895
0.034187056124210,0.002551020355895
0.001551434979774,0.002551020355895
0.015579217113554,0.002551020355895
0.017324604094028,0.002551020355895
0.028754709288478,0.002551020355895
0.028314204886556,0.002551020355895
-0.071430884301662,0.002551020355895
0.122187905013561,0.002551020355895
0.030366403982043,0.002551020355895
-0.017603861168027,0.002551020355895
-0.074560374021530,0.002551020355895
-0.002691310830414,0.002551020355895
0.053245093673468,0.002551020355895
-0.002037159167230,0.002551020355895
-0.032216046005487,0.002551020355895
-0.000295489531709,0.002551020355895
-0.014019679278135,0.002551020355895
-0.049091819673777,0.002551020355895
0.088388338685036,0.002551020355895
-0.061306022107601,0.002551020355895
-0.031515661627054,0.002551020355895
0.046776060014963,0.002551020355895
0.016270507127047,0.002551020355895
-0.041093714535236,0.002551020355895
0.039209723472595,0.002551020355895
0.033055137842894,0.002551020355895
-0.026248406618834,0.002551020355895
-0.029508510604501,0.002551020355895
-0.033249191939831,0.002551020355895
0.049644172191620,0.002551020355895
-0.058280482888222,0.002551020355895
-0.057952031493187,0.002551020355895
0.081265114247799,0.002551020355895
-0.016165390610695,0.002551020355895
0.130774006247520,0.002551020355895
-0.004593991674483,0.002551020355895
0.064383193850517,0.002551020355895
0.080149382352829,0.002551020355895
0.005567819811404,0.002551020355895
0.054930597543716,0.002551020355895
-0.055466789752245,0.002551020355895
0.000803788483609,0.002551020355895
0.001415263162926,0.002551020355895
0.048569835722446,0.002551020355895
-0.003173531265929,0.002551020355895
-0.023596433922648,0.002551020355895
-0.036550428718328,0.002551020355895
-0.021973324939609,0.002551020355895
0.036175116896629,0.002551020355895
-0.016708364710212,0.002551020355895
-0.058132335543633,0.002551020355895
0.086889393627644,0.002551020355895
0.003457584185526,0.002551020355895
-0.021828735247254,0.002551020355895
0.012311173602939,0.002551020355895
0.037379346787930,0.002551020355895
0.033031191676855,0.002551020355895
-0.053463794291019,0.002551020355895
0.000141113894642,0.002551020355895
-0.074346639215946,0.002551020355895
0.019970482215285,0.002551020355895
0.121121495962143,0.002551020355895
-0.039920933544636,0.002551020355895
0.017630616202950,0.002551020355895
-0.042953498661518,0.002551020355895
0.013400012627244,0.002551020355895
0.062009852379560,0.002551020355895
0.085150808095932,0.002551020355895
0.018805056810379,0.002551020355895
-0.009084605611861,0.002551020355895
0.037654530256987,0.002551020355895
-0.053802203387022,0.002551020355895
-0.078153356909752,0.002551020355895
-0.051617752760649,0.002551020355895
-0.017396815121174,0.002551020355895
-0.018752256408334,0.002551020355895
0.085073180496693,0.002551020355895
0.013016256503761,0.002551020355895
0.019391547888517,0.002551020355895
0.032645605504513,0.002551020355895
-0.030144590884447,0.002551020355895
-0.018499238416553,0.002551020355895
0.037639930844307,0.002551020355895
-0.044410891830921,0.002551020355895
0.048748351633549,0.002551020355895
-0.020651374012232,0.002551020355895
0.013038365170360,0.002551020355895
0.039301358163357,0.002551020355895
-0.061209797859192,0.002551020355895
0.050676517188549,0.002551020355895
-0.001930738100782,0.002551020355895
0.022355336695910,0.002551020355895
-0.064311906695366,0.002551020355895
0.074555672705173,0.002551020355895
-0.049606516957283,0.002551020355895
-0.030921390280128,0.002551020355895
0.009063624776900,0.002551020355895
0.031169464811683,0.002551020355895
-0.033870190382004,0.002551020355895
-0.028168048709631,0.002551020355895
-0.021011868491769,0.002551020355895
-0.054350823163986,0.002551020355895
0.017802517861128,0.002551020355895
-0.035785410553217,0.002551020355895
0.008487753570080,0.002551020355895
-0.000302191503579,0.002551020355895
-0.029092451557517,0.002551020355895
-0.031848844140768,0.002551020355895
0.008075701072812,0.002551020355895
-0.071612969040871,0.002551020355895
-0.044846199452877,0.002551020355895
0.002298945793882,0.002551020355895
0.020374625921249,0.002551020355895
0.043634898960590,0.002551020355895
0.074313260614872,0.002551020355895
-0.075470305979252,0.002551020355895
0.035873893648386,0.002551020355895
-0.021619789302349,0.002551020355895
-0.073067724704742,0.002551020355895
-0.013546833768487,0.002551020355895
-0.054969985038042,0.002551020355895
0.010728427208960,0.002551020355895
-0.025446472689509,0.002551020355895
0.043111901730299,0.002551020355895
0.018766060471535,0.002551020355895
0.087550297379494,0.002551020355895
-0.119597509503365,0.002551020355895
0.020679257810116,0.002551020355895
-0.056523922830820,0.002551020355895
0.015652108937502,0.002551020355895
0.011125867255032,0.002551020355895
-0.001646668300964,0.002551020355895
0.029490489512682,0.002551020355895
-0.072727456688881,0.002551020355895
-0.002823736052960,0.002551020355895
0.030654963105917,0.002551020355895
0.014999317936599,0.002551020355895
0.075669951736927,0.002551020355895
-0.016725825145841,0.002551020355895
0.037986461073160,0.002551020355895
0.144442975521088,0.002551020355895
-0.019541483372450,0.002551020355895
-0.035527978092432,0.002551020355895
0.059060264378786,0.002551020355895
0.101844996213913,0.002551020355895
-0.009708609431982,0.002551020355895
-0.029902385547757,0.002551020355895
0.028431851416826,0.002551020355895
0.026286201551557,0.002551020355895
-0.035608232021332,0.002551020355895
0.034263309091330,0.002551020355895
-0.013685429468751,0.002551020355895
0.033556431531906,0.002551020355895
0.016850419342518,0.002551020355895
0.041855793446302,0.002551020355895
0.011511011980474,0.002551020355895
-0.017042949795723,0.002551020355895
0.032481901347637,0.002551020355895
-0.001370883313939,0.002551020355895
-0.004646965768188,0.002551020355895
-0.114415541291237,0.002551020355895
-0.036137621849775,0.002551020355895
0.026451930403709,0.002551020355895
0.009920222684741,0.002551020355895
-0.038337659090757,0.002551020355895
0.049067500978708,0.002551020355895
-0.038984339684248,0.002551020355895
-0.080864474177361,0.002551020355895
0.060061078518629,0.002551020355895
-0.010897453874350,0.002551020355895
-0.009060022421181,0.002551020355895
0.017771359533072,0.002551020355895
-0.090987697243690,0.002551020355895
0.086031250655651,0.002551020355895
-0.023587958887219,0.002551020355895
0.005730779375881,0.002551020355895
-0.021947041153908,0.002551020355895
-0.038804925978184,0.002551020355895
-0.122021086513996,0.002551020355895
-0.082955285906792,0.002551020355895
-0.035206142812967,0.002551020355895
0.105733327567577,0.002551020355895
0.053609423339367,0.002551020355895
-0.038370989263058,0.002551020355895
-0.000197697299882,0.002551020355895
-0.006222322117537,0.002551020355895
-0.068405844271183,0.002551020355895
-0.023177471011877,0.002551020355895
0.064373791217804,0.002551020355895
-0.046034615486860,0.002551020355895
0.019462704658508,0.002551020355895
0.079258605837822,0.002551020355895
0.018853869289160,0.002551020355895
0.011540028266609,0.002551020355895
0.030629945918918,0.002551020355895
0.003716565202922,0.002551020355895
-0.079538330435753,0.002551020355895
-0.022658901289105,0.002551020355895
-0.003070047358051,0.002551020355895
-0.032372493296862,0.002551020355895
0.081155620515347,0.002551020355895
-0.035187128931284,0.002551020355895
-0.014572815038264,0.002551020355895
0.048873297870159,0.002551020355895
0.024069238454103,0.002551020355895
-0.052984181791544,0.002551020355895
-0.023167816922069,0.002551020355895
-0.042209278792143,0.002551020355895
-0.021630492061377,0.002551020355895
0.109223350882530,0.002551020355895
-0.040577095001936,0.002551020355895
0.025619614869356,0.002551020355895
-0.063610218465328,0.002551020355895
0.016462484374642,0.002551020355895
0.056247331202030,0.002551020355895
0.052518978714943,0.002551020355895
-0.030503425747156,0.002551020355895
-0.030861789360642,0.002551020355895
0.025750637054443,0.002551020355895
0.101327344775200,0.002551020355895
-0.048540376126766,0.002551020355895
-0.020243683829904,0.002551020355895
-0.035629637539387,0.002551020355895
0.029638275504112,0.002551020355895
0.061379943042994,0.002551020355895
0.015341158956289,0.002551020355895
0.025841524824500,0.002551020355895
-0.016214903444052,0.002551020355895
-0.051995716989040,0.002551020355895
0.001540370052680,0.002551020355895
-0.064418934285641,0.002551020355895
0.055276013910770,0.002551020355895
-0.013955689035356,0.002551020355895
0.020541271194816,0.002551020355895
-0.107688114047050,0.002551020355895
0.079301334917545,0.002551020355895
0.010576269589365,0.002551020355895
-0.021110607311130,0.002551020355895
0.008532500825822,0.002551020355895
0.047704529017210,0.002551020355895
0.034241087734699,0.002551020355895
-0.015391526743770,0.002551020355895
0.060160618275404,0.002551020355895
-0.075230643153191,0.002551020355895
-0.011531022377312,0.002551020355895
-0.012689094990492,0.002551020355895
-0.037856131792068,0.002551020355895
0.050228808075190,0.002551020355895
-0.030243404209614,0.002551020355895
0.023426948115230,0.002551020355895
0.022479461506009,0.002551020355895
-0.002160661853850,0.002551020355895
0.025041515007615,0.002551020355895
-0.011617916636169,0.002551020355895
0.012059163302183,0.002551020355895
-0.027036514133215,0.002551020355895
0.018794057890773,0.002551020355895
-0.023022081702948,0.002551020355895
-0.005653469357640,0.002551020355895
0.015378381125629,0.002551020355895
-0.000357788347173,0.002551020355895
-0.044485811144114,0.002551020355895
0.019588436931372,0.002551020355895
0.007737855892628,0.002551020355895
0.013293839991093,0.002551020355895
0.020629279315472,0.002551020355895
0.027617754414678,0.002551020355895
-0.046270310878754,0.002551020355895
0.088348329067230,0.002551020355895
-0.056922215968370,0.002551020355895
-0.041956938803196,0.002551020355895
-0.090067371726036,0.002551020355895
0.004197176080197,0.002551020355895
0.075878202915192,0.002551020355895
-0.021316271275282,0.002551020355895
-0.032494395971298,0.002551020355895
-0.042928926646709,0.002551020355895
0.011707952246070,0.002551020355895
-0.092687875032425,0.002551020355895
0.031691759824753,0.002551020355895
-0.085339844226837,0.002551020355895
-0.033281978219748,0.002551020355895
-0.000763105635997,0.002551020355895
-0.005167983472347,0.002551020355895
-0.024589776992798,0.002551020355895
0.047189533710480,0.002551020355895
0.135030969977379,0.002551020355895
-0.022783268243074,0.002551020355895
0.025504404678941,0.002551020355895
-0.012667950242758,0.002551020355895
-0.111507222056389,0.002551020355895
0.008306956849992,0.002551020355895
0.083523012697697,0.002551020355895
-0.009252212010324,0.002551020355895
0.038654595613480,0.002551020355895
-0.004359074402601,0.002551020355895
-0.021493377164006,0.002551020355895
-0.020140737295151,0.002551020355895
0.058661621063948,0.002551020355895
0.100085377693176,0.002551020355895
0.045958761125803,0.002551020355895
0.060933705419302,0.002551020355895
0.011642052792013,0.002551020355895
0.143817692995071,0.002551020355895
-0.020301742479205,0.002551020355895
-0.030495533719659,0.002551020355895
-0.041825849562883,0.002551020355895
-0.063652493059635,0.002551020355895
-0.054617919027805,0.002551020355895
0.030309451743960,0.002551020355895
-0.051906786859035,0.002551020355895
0.023128258064389,0.002551020355895
0.050546493381262,0.002551020355895
-0.053041875362396,0.002551020355895
-0.018306186422706,0.002551020355895
0.072293318808079,0.002551020355895
0.001545524806716,0.002551020355895
0.040017668157816,0.002551020355895
-0.080752804875374,0.002551020355895
0.097766138613224,0.002551020355895
0.041225805878639,0.002551020355895
0.039261579513550,0.002551020355895
-0.031694795936346,0.002551020355895
0.033070851117373,0.002551020355895
0.023818790912628,0.002551020355895
-0.004353899974376,0.002551020355895
0.094203732907772,0.002551020355895
0.014813786372542,0.002551020355895
0.156315311789513,0.002551020355895
-0.009382616728544,0.002551020355895
0.064617201685905,0.002551020355895
0.069742649793625,0.002551020355895
-0.030964765697718,0.002551020355895
-0.015946485102177,0.002551020355895
0.039704415947199,0.002551020355895
-0.006384935230017,0.002551020355895
-0.043383501470089,0.002551020355895
0.001300180912949,0.002551020355895
-0.072486795485020,0.002551020355895
-0.020717749372125,0.002551020355895
-0.027324425056577,0.002551020355895
0.003955858293921,0.002551020355895
-0.035524085164070,0.002551020355895
0.105849333107471,0.002551020355895
-0.074889160692692,0.002551020355895
-0.043129093945026,0.002551020355895
-0.003529041074216,0.002551020355895
0.059689510613680,0.002551020355895
-0.007376052904874,0.002551020355895
0.098500356078148,0.002551020355895
0.063026882708073,0.002551020355895
0.050258871167898,0.002551020355895
-0.001705938833766,0.002551020355895
-0.052423667162657,0.002551020355895
0.043127037584782,0.002551020355895
-0.038892820477486,0.002551020355895
0.007370563223958,0.002551020355895
0.090167298913002,0.002551020355895
-0.017493905499578,0.002551020355895
0.065915174782276,0.002551020355895
0.079096503555775,0.002551020355895
-0.095959708094597,0.002551020355895
-0.033863961696625,0.002551020355895
-0.062315598130226,0.002551020355895
-0.037645008414984,0.002551020355895
0.005748516879976,0.002551020355895
-0.018090773373842,0.002551020355895
0.085951715707779,0.002551020355895
-0.074836581945419,0.002551020355895
-0.037616275250912,0.002551020355895
-0.035020489245653,0.002551020355895
-0.025362851098180,0.002551020355895
-0.000421133299824,0.002551020355895
-0.125032767653465,0.002551020355895
0.025570463389158,0.002551020355895
0.005754742771387,0.002551020355895
0.026111613959074,0.002551020355895
0.029375767335296,0.002551020355895
0.006667820271105,0.002551020355895
0.057655967772007,0.002551020355895
-0.016529126092792,0.002551020355895
-0.004856103099883,0.002551020355895
0.003327097045258,0.002551020355895
0.031076744198799,0.002551020355895
-0.095640026032925,0.002551020355895
0.062952689826488,0.002551020355895
-0.049744363874197,0.002551020355895
-0.019171396270394,0.002551020355895
-0.028881130740047,0.002551020355895
0.002944188890979,0.002551020355895
0.065980680286884,0.002551020355895
-0.003696076106280,0.002551020355895
0.103248432278633,0.002551020355895
0.017872814089060,0.002551020355895
0.026550268754363,0.002551020355895
0.018784269690514,0.002551020355895
-0.041660290211439,0.002551020355895
-0.064691014587879,0.002551020355895
0.100933015346527,0.002551020355895
-0.026012528687716,0.002551020355895
-0.073324531316757,0.002551020355895
0.057115137577057,0.002551020355895
-0.021255308762193,0.002551020355895
0.043267473578453,0.002551020355895
0.000648115586955,0.002551020355895
-0.003722907975316,0.002551020355895
-0.046209432184696,0.002551020355895
-0.026216452941298,0.002551020355895
0.007726026233286,0.002551020355895
0.054570872336626,0.002551020355895
0.092402309179306,0.002551020355895
-0.103195764124393,0.002551020355895
0.050025116652250,0.002551020355895
-0.031426832079887,0.002551020355895
0.112063013017178,0.002551020355895
-0.146165043115616,0.002551020355895
-0.087142117321491,0.002551020355895
0.022980393841863,0.002551020355895
-0.026685379445553,0.002551020355895
-0.052126787602901,0.002551020355895
-0.006790086161345,0.002551020355895
0.014532725326717,0.002551020355895
-0.005017817020416,0.002551020355895
-0.028229294344783,0.002551020355895
-0.027679961174726,0.002551020355895
-0.011327121406794,0.002551020355895
0.116185419261456,0.002551020355895
0.020466746762395,0.002551020355895
-0.007141477894038,0.002551020355895
0.031170414760709,0.002551020355895
0.116565994918346,0.002551020355895
-0.139743819832802,0.002551020355895
0.063563607633114,0.002551020355895
0.018229838460684,0.002551020355895
-0.014207201078534,0.002551020355895
0.073118828237057,0.002551020355895
-0.041082225739956,0.002551020355895
-0.017714848741889,0.002551020355895
0.045624025166035,0.002551020355895
-0.022164659574628,0.002551020355895
-0.100554302334785,0.002551020355895
0.040854427963495,0.002551020355895
-0.027257105335593,0.002551020355895
-0.056240014731884,0.002551020355895
-0.025014275684953,0.002551020355895
0.020758831873536,0.002551020355895
-0.012101673521101,0.002551020355895
0.023215439170599,0.002551020355895
-0.068718582391739,0.002551020355895
-0.011127298697829,0.002551020355895
-0.042256865650415,0.002551020355895
0.026060856878757,0.002551020355895
0.006824578624219,0.002551020355895
0.044652305543423,0.002551020355895
-0.059965722262859,0.002551020355895
-0.023723399266601,0.002551020355895
-0.025093620643020,0.002551020355895
-0.010545065626502,0.002551020355895
-0.004877031780779,0.002551020355895
-0.003874807851389,0.002551020355895
-0.068910479545593,0.002551020355895
0.031357817351818,0.002551020355895
-0.018860833719373,0.002551020355895
-0.080727912485600,0.002551020355895
0.061640493571758,0.002551020355895
0.060949821025133,0.002551020355895
0.001722877612337,0.002551020355895
0.071944504976273,0.002551020355895
-0.017889138311148,0.002551020355895
0.030357342213392,0.002551020355895
-0.051170200109482,0.002551020355895
0.065593063831329,0.002551020355895
-0.032634992152452,0.002551020355895
-0.132897943258286,0.002551020355895
-0.082356803119183,0.002551020355895
-0.034520167857409,0.002551020355895
-0.027902042493224,0.002551020355895
0.005246725399047,0.002551020355895
-0.060683351010084,0.002551020355895
0.011325546540320,0.002551020355895
-0.000062698636611,0.002551020355895
-0.112602986395359,0.002551020355895
0.033025089651346,0.002551020355895
0.020869407802820,0.002551020355895
0.022529652342200,0.002551020355895
-0.024684691801667,0.002551020355895
-0.135566994547844,0.002551020355895
0.013832851313055,0.002551020355895
0.019622348248959,0.002551020355895
-0.010071191936731,0.002551020355895
0.026522180065513,0.002551020355895
-0.083680033683777,0.002551020355895
-0.056138306856155,0.002551020355895
-0.082672134041786,0.002551020355895
0.021343478932977,0.002551020355895
0.059540957212448,0.002551020355895
-0.011164259165525,0.002551020355895
-0.017741989344358,0.002551020355895
-0.086959332227707,0.002551020355895
0.032255936414003,0.002551020355895
0.071473941206932,0.002551020355895
0.025158235803246,0.002551020355895
0.027476297691464,0.002551020355895
0.052722498774529,0.002551020355895
-0.011206255294383,0.002551020355895
0.039176117628813,0.002551020355895
0.117529124021530,0.002551020355895
0.013714123517275,0.002551020355895
-0.020892610773444,0.002551020355895
-0.024124981835485,0.002551020355895
-0.016645381227136,0.002551020355895
-0.049767401069403,0.002551020355895
-0.048680707812309,0.002551020355895
0.056702774018049,0.002551020355895
-0.039196263998747,0.002551020355895
0.040506619960070,0.002551020355895
0.049438938498497,0.002551020355895
-0.037833791226149,0.002551020355895
0.009321562945843,0.002551020355895
-0.102415435016155,0.002551020355895
-0.065293833613396,0.002551020355895
-0.025170285254717,0.002551020355895
0.067985974252224,0.002551020355895
-0.084494732320309,0.002551020355895
-0.084152750670910,0.002551020355895
-0.006046160589904,0.002551020355895
0.000519797205925,0.002551020355895
-0.032212175428867,0.002551020355895
0.029571603983641,0.002551020355895
0.008072860538960,0.002551020355895
0.065031580626965,0.002551020355895
0.125325530767441,0.002551020355895
0.068445570766926,0.002551020355895
0.010921400971711,0.002551020355895
0.036495875567198,0.002551020355895
-0.038396157324314,0.002551020355895
-0.029978981241584,0.002551020355895
0.090138725936413,0.002551020355895
-0.069867201149464,0.002551020355895
0.075072273612022,0.002551020355895
0.000369813904399,0.002551020355895
-0.047242816537619,0.002551020355895
-0.042356558144093,0.002551020355895
-0.075888566672802,0.002551020355895
0.037706755101681,0.002551020355895
0.052390020340681,0.002551020355895
0.063844710588455,0.002551020355895
0.034644540399313,0.002551020355895
0.055756367743015,0.002551020355895
0.033129859715700,0.002551020355895
0.011315171606839,0.002551020355895
0.051595810800791,0.002551020355895
0.030444074422121,0.002551020355895
-0.056656334549189,0.002551020355895
0.083845511078835,0.002551020355895
-0.019506033509970,0.002551020355895
-0.041720055043697,0.002551020355895
0.025508837774396,0.002551020355895
0.019195644184947,0.002551020355895
0.039436992257833,0.002551020355895
0.014715800993145,0.002551020355895
0.027104217559099,0.002551020355895
-0.091107241809368,0.002551020355895
-0.032251436263323,0.002551020355895
0.050525460392237,0.002551020355895
0.043222121894360,0.002551020355895
-0.076331436634064,0.002551020355895
-0.071576900780201,0.002551020355895
0.072856314480305,0.002551020355895
0.070576496422291,0.002551020355895
-0.043086722493172,0.002551020355895
-0.063556037843227,0.002551020355895
-0.091542258858681,0.002551020355895
-0.131615236401558,0.002551020355895
0.015554363839328,0.002551020355895
0.018591472879052,0.002551020355895
-0.012168870307505,0.002551020355895
-0.019568990916014,0.002551020355895
-0.001137166633271,0.002551020355895
0.126898273825645,0.002551020355895
0.146595597267151,0.002551020355895
0.057754885405302,0.002551020355895
0.050298329442739,0.002551020355895
-0.040732461959124,0.002551020355895
0.024538300931454,0.002551020355895
0.001145677291788,0.002551020355895
0.079870842397213,0.002551020355895
0.011932995170355,0.002551020355895
0.021249432116747,0.002551020355895
-0.034198667854071,0.002551020355895
0.067101597785950,0.002551020355895
0.057456247508526,0.002551020355895
-0.023425610736012,0.002551020355895
0.030871335417032,0.002551020355895
0.087955005466938,0.002551020355895
0.064558312296867,0.002551020355895
-0.044568743556738,0.002551020355895
0.019562786445022,0.002551020355895
0.000212035170989,0.002551020355895
0.080551579594612,0.002551020355895
-0.028306685388088,0.002551020355895
0.014268490485847,0.002551020355895
-0.038575928658247,0.002551020355895
0.053637459874153,0.002551020355895
-0.041032303124666,0.002551020355895
0.035981658846140,0.002551020355895
-0.018444741144776,0.002551020355895
-0.029165679588914,0.002551020355895
0.015640400350094,0.002551020355895
-0.012907791882753,0.002551020355895
0.032486390322447,0.002551020355895
0.015769161283970,0.002551020355895
0.009881111793220,0.002551020355895
-0.010840950533748,0.002551020355895
0.007237583398819,0.002551020355895
-0.004941557068378,0.002551020355895
-0.002705147722736,0.002551020355895
0.014524491503835,0.002551020355895
0.027044031769037,0.002551020355895
0.038291815668344,0.002551020355895
-0.067763574421406,0.002551020355895
0.071547970175743,0.002551020355895
-0.018615316599607,0.002551020355895
-0.047740522772074,0.002551020355895
-0.076678089797497,0.002551020355895
-0.046879608184099,0.002551020355895
0.074073098599911,0.002551020355895
0.008536907844245,0.002551020355895
-0.085303552448750,0.002551020355895
0.017109591513872,0.002551020355895
-0.043850388377905,0.002551020355895
0.041105154901743,0.002551020355895
0.038744449615479,0.002551020355895
0.035807836800814,0.002551020355895
0.064930014312267,0.002551020355895
0.044568505138159,0.002551020355895
-0.007356007583439,0.002551020355895
-0.106316581368446,0.002551020355895
-0.047254793345928,0.002551020355895
0.009587534703314,0.002551020355895
0.016834141686559,0.002551020355895
-0.046880505979061,0.002551020355895
-0.057310894131660,0.002551020355895
-0.014283210039139,0.002551020355895
0.000366425141692,0.002551020355895
0.058691959828138,0.002551020355895
0.045785825699568,0.002551020355895
-0.029461095109582,0.002551020355895
0.089001514017582,0.002551020355895
0.025227367877960,0.002551020355895
0.025890616700053,0.002551020355895
0.047959849238396,0.002551020355895
-0.023637551814318,0.002551020355895
-0.057793371379375,0.002551020355895
0.041480645537376,0.002551020355895
0.018089026212692,0.002551020355895
-0.018435006961226,0.002551020355895
-0.099409714341164,0.002551020355895
0.009905885905027,0.002551020355895
-0.033425915986300,0.002551020355895
0.074693165719509,0.002551020355895
0.010660226456821,0.002551020355895
-0.078585699200630,0.002551020355895
0.128643035888672,0.002551020355895
-0.039709586650133,0.002551020355895
0.009193811565638,0.002551020355895
0.042159646749496,0.002551020355895
0.006635832600296,0.002551020355895
0.038399513810873,0.002551020355895
-0.008869162760675,0.002551020355895
0.065743982791901,0.002551020355895
0.039068445563316,0.002551020355895
-0.094745777547359,0.002551020355895
-0.001373889390379,0.002551020355895
-0.033567253500223,0.002551020355895
-0.013694540597498,0.002551020355895
0.099668651819229,0.002551020355895
0.060275621712208,0.002551020355895
0.068527422845364,0.002551020355895
-0.012265353463590,0.002551020355895
-0.018726347014308,0.002551020355895
0.014700205065310,0.002551020355895
0.024976635351777,0.002551020355895
0.049879278987646,0.002551020355895
0.033446416258812,0.002551020355895
-0.013420259580016,0.002551020355895
-0.026924291625619,0.002551020355895
-0.033801879733801,0.002551020355895
0.030942264944315,0.002551020355895
-0.011601262725890,0.002551020355895
-0.011751922778785,0.002551020355895
-0.053819779306650,0.002551020355895
0.062915325164795,0.002551020355895
-0.043420549482107,0.002551020355895
0.004404013510793,0.002551020355895
0.115887023508549,0.002551020355895
-0.043799836188555,0.002551020355895
-0.014546396210790,0.002551020355895
-0.044017992913723,0.002551020355895
0.022142834961414,0.002551020355895
-0.016238860785961,0.002551020355895
0.044181350618601,0.002551020355895
-0.005789940245450,0.002551020355895
0.015967130661011,0.002551020355895
0.051644094288349,0.002551020355895
-0.017327046021819,0.002551020355895
-0.062722139060497,0.002551020355895
-0.009843125008047,0.002551020355895
0.066910080611706,0.002551020355895
0.006043484434485,0.002551020355895
0.069281101226807,0.002551020355895
0.029625296592712,0.002551020355895
0.003101753769442,0.002551020355895
-0.037981439381838,0.002551020355895
0.080675430595875,0.002551020355895
0.012283932417631,0.002551020355895
-0.055480498820543,0.002551020355895
0.025836445391178,0.002551020355895
-0.028300765901804,0.002551020355895
0.003355064895004,0.002551020355895
-0.050917368382215,0.002551020355895
-0.020462103188038,0.002551020355895
0.049919791519642,0.002551020355895
0.031403958797455,0.002551020355895
0.015234252437949,0.002551020355895
-0.018979497253895,0.002551020355895
-0.008145803585649,0.002551020355895
-0.028621714562178,0.002551020355895
-0.041410125792027,0.002551020355895
-0.094912588596344,0.002551020355895
-0.053358908742666,0.002551020355895
0.014062192291021,0.002551020355895
0.030206784605980,0.002551020355895
0.095848649740219,0.002551020355895
0.013846375048161,0.002551020355895
0.044148951768875,0.002551020355895
-0.010511890985072,0.002551020355895
0.032353132963181,0.002551020355895
-0.023127539083362,0.002551020355895
0.017928460612893,0.002551020355895
-0.041302867233753,0.002551020355895
-0.006605170667171,0.002551020355895
0.019948834553361,0.002551020355895
0.013301675207913,0.002551020355895
-0.065547719597816,0.002551020355895
0.049304343760014,0.002551020355895
-0.005125795491040,0.002551020355895
-0.076709754765034,0.002551020355895
0.013610382564366,0.002551020355895
-0.001943212817423,0.002551020355895
-0.004291150718927,0.002551020355895
0.010568764992058,0.002551020355895
0.052182719111443,0.002551020355895
0.046355951577425,0.002551020355895
-0.012346729636192,0.002551020355895
-0.104313544929028,0.002551020355895
0.019045388326049,0.002551020355895
0.004450655542314,0.002551020355895
-0.053542893379927,0.002551020355895
0.118906520307064,0.002551020355895
-0.021391140297055,0.002551020355895
0.057381078600883,0.002551020355895
0.015224704518914,0.002551020355895
-0.034488096833229,0.002551020355895
0.049867209047079,0.002551020355895
0.049472060054541,0.002551020355895
0.065799340605736,0.002551020355895
-0.012625099159777,0.002551020355895
0.043705120682716,0.002551020355895
0.068526595830917,0.002551020355895
-0.017664017155766,0.002551020355895
-0.072519429028034,0.002551020355895
-0.070020042359829,0.002551020355895
-0.012496285140514,0.002551020355895
0.012912663631141,0.002551020355895
-0.036807511001825,0.002551020355895
0.035641316324472,0.002551020355895
-0.013139802031219,0.002551020355895
0.025523945689201,0.002551020355895
-0.008954991586506,0.002551020355895
-0.001597066409886,0.002551020355895
0.045433495193720,0.002551020355895
-0.019790716469288,0.002551020355895
-0.031860373914242,0.002551020355895
-0.011094387620687,0.002551020355895
0.075158052146435,0.002551020355895
0.107814818620682,0.002551020355895
0.029765916988254,0.002551020355895
0.060113877058029,0.002551020355895
-0.008660731837153,0.002551020355895
0.024200955405831,0.002551020355895
0.068774424493313,0.002551020355895
0.061511278152466,0.002551020355895
-0.017308300361037,0.002551020355895
0.055085044354200,0.002551020355895
0.066805273294449,0.002551020355895
-0.027996405959129,0.002551020355895
0.019301358610392,0.002551020355895
0.043056044727564,0.002551020355895
0.055528618395329,0.002551020355895
0.004457717295736,0.002551020355895
0.031531237065792,0.002551020355895
-0.018228592351079,0.002551020355895
-0.005369807593524,0.002551020355895
0.043699860572815,0.002551020355895
0.050967998802662,0.002551020355895
0.007621520198882,0.002551020355895
-0.039440475404263,0.002551020355895
-0.020841749384999,0.002551020355895
0.010306081734598,0.002551020355895
0.057452198117971,0.002551020355895
0.008006105199456,0.002551020355895
-0.010318603366613,0.002551020355895
0.067916072905064,0.002551020355895
-0.008181001059711,0.002551020355895
-0.045116789638996,0.002551020355895
0.043326497077942,0.002551020355895
-0.049647014588118,0.002551020355895
-0.005181863438338,0.002551020355895
-0.053469780832529,0.002551020355895
0.017321608960629,0.002551020355895
-0.113858446478844,0.002551020355895
-0.004262210335582,0.002551020355895
-0.047575924545527,0.002551020355895
0.072606451809406,0.002551020355895
0.038320090621710,0.002551020355895
-0.056394565850496,0.002551020355895
-0.042269103229046,0.002551020355895
0.000530527671799,0.002551020355895
0.099147923290730,0.002551020355895
-0.000024568866138,0.002551020355895
0.029298072680831,0.002551020355895
-0.005138966720551,0.002551020355895
-0.093400605022907,0.002551020355895
0.000867904454935,0.002551020355895
-0.047988504171371,0.002551020355895
0.039581205695868,0.002551020355895
0.041827868670225,0.002551020355895
-0.040331378579140,0.002551020355895
-0.008511538617313,0.002551020355895
-0.042407106608152,0.002551020355895
-0.025084119290113,0.002551020355895
-0.027582520619035,0.002551020355895
0.093981266021729,0.002551020355895
0.053871434181929,0.002551020355895
0.088733308017254,0.002551020355895
0.058855973184109,0.002551020355895
-0.076227694749832,0.002551020355895
-0.069981403648853,0.002551020355895
0.049853134900331,0.002551020355895
-0.058565381914377,0.002551020355895
-0.050685353577137,0.002551020355895
0.078911058604717,0.002551020355895
-0.073720581829548,0.002551020355895
-0.009496790356934,0.002551020355895
-0.020207656547427,0.002551020355895
0.064918205142021,0.002551020355895
0.030623639002442,0.002551020355895
0.078340560197830,0.002551020355895
-0.106386050581932,0.002551020355895
0.002277443651110,0.002551020355895
