mw,Sw
0.018413387238979,0.181818187236786
0.376745700836182,0.181818187236786
0.084555968642235,0.181818187236786
0.269318252801895,0.181818187236786
0.493177741765976,0.181818187236786
-0.853703200817108,0.181818187236786
-0.189603447914124,0.181818187236786
-0.356641888618469,0.181818187236786
-0.591658651828766,0.181818187236786
0.233351066708565,0.181818187236786
0.012214058078825,0.079999990761280
0.249904796481133,0.079999990761280
0.056088078767061,0.079999990761280
0.178645506501198,0.079999990761280
0.327137082815170,0.079999990761280
-0.566282570362091,0.079999990761280
-0.125768691301346,0.079999990761280
-0.236569449305534,0.079999990761280
-0.392461925745010,0.079999990761280
0.154787585139275,0.079999990761280
-0.107422523200512,0.079999990761280
-0.122191898524761,0.079999990761280
-0.282370537519455,0.079999990761280
-0.139674097299576,0.079999990761280
-0.119958557188511,0.079999990761280
0.029408223927021,0.079999990761280
0.092730768024921,0.079999990761280
0.213954955339432,0.079999990761280
0.248669296503067,0.079999990761280
-0.468311905860901,0.079999990761280
0.451482862234116,0.079999990761280
-0.231085225939751,0.079999990761280
-0.105982668697834,0.079999990761280
-0.228316202759743,0.079999990761280
0.192176282405853,0.079999990761280
-0.042886983603239,0.079999990761280
0.012991567142308,0.079999990761280
0.457398533821106,0.079999990761280
0.039250254631042,0.079999990761280
-0.211670652031898,0.079999990761280
-0.500934779644012,0.079999990761280
0.074787244200706,0.079999990761280
-0.391344696283340,0.079999990761280
-0.450837999582291,0.079999990761280
0.166314214468002,0.079999990761280
0.394886612892151,0.079999990761280
0.360227108001709,0.079999990761280
0.481174647808075,0.079999990761280
-0.178135007619858,0.079999990761280
0.083187304437160,0.079999990761280
0.125975996255875,0.079999990761280
0.012807178311050,0.079999990761280
0.195356562733650,0.079999990761280
0.080979660153389,0.079999990761280
-0.240649923682213,0.079999990761280
-0.258399724960327,0.079999990761280
-0.220900177955627,0.079999990761280
-0.474217355251312,0.079999990761280
-0.415691196918488,0.079999990761280
-0.011107420548797,0.079999990761280
0.079474851489067,0.079999990761280
-0.097589358687401,0.079999990761280
-0.164903104305267,0.079999990761280
-0.244175761938095,0.079999990761280
-0.120671264827251,0.079999990761280
0.065434418618679,0.079999990761280
0.269724428653717,0.079999990761280
0.001189211499877,0.079999990761280
0.374867260456085,0.079999990761280
-0.022468622773886,0.079999990761280
0.173706740140915,0.079999990761280
-0.090048037469387,0.079999990761280
0.117106780409813,0.079999990761280
0.317406117916107,0.079999990761280
-0.347029030323029,0.079999990761280
-0.304906040430069,0.079999990761280
-0.390308797359467,0.079999990761280
-0.167227163910866,0.079999990761280
-0.165661931037903,0.079999990761280
-0.576065838336945,0.079999990761280
-0.008802002295852,0.079999990761280
0.361204594373703,0.079999990761280
-0.231206566095352,0.079999990761280
0.028850264847279,0.079999990761280
0.429442048072815,0.079999990761280
-0.021949382498860,0.079999990761280
-0.180302321910858,0.079999990761280
0.104786269366741,0.079999990761280
-0.130014181137085,0.079999990761280
-0.023690382018685,0.079999990761280
0.319893628358841,0.079999990761280
-0.218824580311775,0.079999990761280
-0.162461459636688,0.079999990761280
-0.305862665176392,0.079999990761280
0.092068657279015,0.079999990761280
-0.018742013722658,0.079999990761280
-0.323503941297531,0.079999990761280
-0.067905172705650,0.079999990761280
0.161829233169556,0.079999990761280
-0.044312357902527,0.079999990761280
-0.309550881385803,0.079999990761280
-0.015754252672195,0.079999990761280
-0.222074657678604,0.079999990761280
0.018259113654494,0.079999990761280
0.065536566078663,0.079999990761280
0.572208523750305,0.079999990761280
0.522906064987183,0.079999990761280
-0.135882526636124,0.079999990761280
0.301082223653793,0.079999990761280
0.491717636585236,0.079999990761280
0.333204507827759,0.079999990761280
0.145126610994339,0.079999990761280
0.119686126708984,0.079999990761280
-0.040997266769409,0.079999990761280
-0.301566123962402,0.079999990761280
-0.585257649421692,0.079999990761280
0.262703627347946,0.079999990761280
0.527917623519897,0.079999990761280
0.124404974281788,0.079999990761280
-0.044070772826672,0.079999990761280
0.238198369741440,0.079999990761280
-0.239045962691307,0.079999990761280
0.475660860538483,0.079999990761280
0.553197324275970,0.079999990761280
-0.353234887123108,0.079999990761280
-0.125601619482040,0.079999990761280
0.491336673498154,0.079999990761280
-0.225191473960876,0.079999990761280
-0.284742951393127,0.079999990761280
0.076991185545921,0.079999990761280
0.021571353077888,0.079999990761280
0.265126377344131,0.079999990761280
0.175617471337318,0.079999990761280
-0.624172151088715,0.079999990761280
0.569966673851013,0.079999990761280
-0.009022057056427,0.079999990761280
-0.055849056690931,0.079999990761280
-0.029785787686706,0.079999990761280
-0.137915596365929,0.079999990761280
-0.300648361444473,0.079999990761280
-0.152267515659332,0.079999990761280
0.245685666799545,0.079999990761280
0.084494814276695,0.079999990761280
0.360370606184006,0.079999990761280
0.046856056898832,0.079999990761280
-0.658111393451691,0.079999990761280
0.086789458990097,0.079999990761280
0.304732948541641,0.079999990761280
-0.352251470088959,0.079999990761280
-0.003981580957770,0.079999990761280
-0.089321061968803,0.079999990761280
-0.018941355869174,0.079999990761280
-0.486339807510376,0.079999990761280
0.451482504606247,0.079999990761280
-0.418144166469574,0.079999990761280
-0.016341319307685,0.079999990761280
0.366096764802933,0.079999990761280
0.190523877739906,0.079999990761280
-0.280001401901245,0.079999990761280
0.347901791334152,0.079999990761280
0.015267573297024,0.124999992549419
0.312380999326706,0.124999992549419
0.070110097527504,0.124999992549419
0.223306894302368,0.124999992549419
0.408921360969543,0.124999992549419
-0.707853257656097,0.124999992549419
-0.157210871577263,0.124999992549419
-0.295711845159531,0.124999992549419
-0.490577429533005,0.124999992549419
0.193484485149384,0.124999992549419
-0.134278163313866,0.124999992549419
-0.152739882469177,0.124999992549419
-0.352963179349899,0.124999992549419
-0.174592614173889,0.124999992549419
-0.149948194622993,0.124999992549419
