mw,Sw
-0.309489279985428,0.181818187236786
-0.085181355476379,0.181818187236786
-0.661466002464294,0.181818187236786
-0.600445568561554,0.181818187236786
-0.051043439656496,0.181818187236786
-0.136662244796753,0.181818187236786
-0.071571432054043,0.181818187236786
0.436228901147842,0.181818187236786
-0.243748247623444,0.181818187236786
0.008636488579214,0.181818187236786
-0.919212281703949,0.181818187236786
0.048921857029200,0.181818187236786
-0.190409466624260,0.181818187236786
0.356871992349625,0.181818187236786
0.040428388863802,0.181818187236786
-0.546484947204590,0.181818187236786
-0.007283730432391,0.181818187236786
0.673420846462250,0.181818187236786
0.294745385646820,0.181818187236786
-0.467356234788895,0.181818187236786
0.027848474681377,0.181818187236786
0.184339508414268,0.181818187236786
0.228022381663322,0.181818187236786
-0.225518167018890,0.181818187236786
-0.357356905937195,0.181818187236786
0.568309903144836,0.181818187236786
0.463653951883316,0.181818187236786
0.215690016746521,0.181818187236786
0.590404927730560,0.181818187236786
-0.628113090991974,0.181818187236786
-0.160319462418556,0.120275795459747
0.442965835332870,0.181818187236786
0.660220146179199,0.181818187236786
-0.208058565855026,0.181818187236786
-0.391875505447388,0.181818187236786
-0.272604227066040,0.181818187236786
0.597485482692719,0.154931455850601
0.157719016075134,0.181818187236786
0.720121264457703,0.181818187236786
-0.016979668289423,0.181818187236786
-0.134720981121063,0.181818187236786
-0.062805593013763,0.181818187236786
-0.032356690615416,0.144306018948555
-0.044410072267056,0.181818187236786
0.409820646047592,0.181818187236786
-0.592321097850800,0.181818187236786
0.145909219980240,0.181818187236786
0.366174608469009,0.181818187236786
-0.782395660877228,0.149393364787102
-0.136845499277115,0.181818187236786
0.276299536228180,0.181818187236786
0.687937736511230,0.181818187236786
0.326005220413208,0.181818187236786
-0.177534237504005,0.181818187236786
-0.368213623762131,0.180435419082642
0.340025991201401,0.181818187236786
0.720083177089691,0.181818187236786
0.373201698064804,0.181818187236786
-0.245984733104706,0.181818187236786
0.110424809157848,0.181818187236786
0.212963685393333,0.104888111352921
0.406266152858734,0.181818187236786
-0.628399789333344,0.181818187236786
-0.631512939929962,0.181818187236786
-0.106083698570728,0.181818187236786
0.269364446401596,0.181818187236786
0.841330349445343,0.146672651171684
-0.137348234653473,0.181818187236786
-0.162976115942001,0.181818187236786
-0.074235327541828,0.181818187236786
0.687615871429443,0.181818187236786
0.239892140030861,0.181818187236786
-0.733804523944855,0.159789517521858
-0.105251275002956,0.181818187236786
0.566897213459015,0.181818187236786
0.231572523713112,0.181818187236786
0.114580258727074,0.181818187236786
0.392111539840698,0.181818187236786
-0.338521420955658,0.138382405042648
-0.011813085526228,0.181818187236786
0.285551577806473,0.181818187236786
-0.097048364579678,0.181818187236786
-0.341304600238800,0.181818187236786
-0.563341200351715,0.181818187236786
-0.341131895780563,0.167419329285622
0.309719592332840,0.181818187236786
-1.039339184761047,0.181818187236786
0.272724598646164,0.181818187236786
-0.757489621639252,0.181818187236786
-0.920328199863434,0.181818187236786
0.375097006559372,0.094624452292919
0.067749686539173,0.181818187236786
-0.496316194534302,0.181818187236786
0.096671767532825,0.181818187236786
-0.315017670392990,0.181818187236786
-0.027706997469068,0.181818187236786
0.486183166503906,0.160516858100891
-0.175213828682899,0.181818187236786
0.615536987781525,0.181818187236786
0.069647856056690,0.181818187236786
-0.452710360288620,0.181818187236786
0.760075271129608,0.181818187236786
-0.027626385912299,0.117958776652813
-0.508902609348297,0.181818187236786
0.564838349819183,0.181818187236786
-0.502396285533905,0.181818187236786
-0.128669291734695,0.181818187236786
0.601589143276215,0.181818187236786
-0.861963033676147,0.113341361284256
-0.243826374411583,0.181818187236786
0.410989940166473,0.181818187236786
0.760147213935852,0.181818187236786
0.045359604060650,0.181818187236786
0.262937039136887,0.181818187236786
-0.473229646682739,0.175218164920807
-0.185410976409912,0.181818187236786
-0.166302427649498,0.181818187236786
-0.179641976952553,0.181818187236786
0.545019209384918,0.181818187236786
-0.076990514993668,0.181818187236786
-0.128679424524307,0.133333355188370
-0.598276317119598,0.133333355188370
0.792076647281647,0.133333355188370
0.357204049825668,0.133333355188370
-0.184801891446114,0.133333355188370
-0.118138752877712,0.133333355188370
0.166585788130760,0.133333355188370
-0.711277365684509,0.133333355188370
0.528920233249664,0.133333355188370
0.384772300720215,0.133333355188370
-0.438551038503647,0.133333355188370
-0.045600451529026,0.133333355188370
-0.769339501857758,0.133333355188370
0.184134468436241,0.133333355188370
-0.067151911556721,0.133333355188370
0.427739083766937,0.133333355188370
0.138791143894196,0.133333355188370
-0.663117945194244,0.133333355188370
-0.553191304206848,0.133333355188370
0.540661036968231,0.133333355188370
-0.352153271436691,0.133333355188370
-0.107858970761299,0.133333355188370
-0.022349482402205,0.133333355188370
0.283926814794540,0.133333355188370
0.678624212741852,0.133333355188370
-0.131083577871323,0.133333355188370
-0.148205295205116,0.133333355188370
0.611668407917023,0.133333355188370
0.298256248235703,0.133333355188370
0.030751913785934,0.133333355188370
-0.614290595054626,0.133333355188370
0.273468255996704,0.133333355188370
-0.796237945556641,0.133333355188370
0.133500829339027,0.133333355188370
0.324983984231949,0.133333355188370
0.078969955444336,0.133333355188370
0.457800298929214,0.133333355188370
-0.404254108667374,0.133333355188370
-0.060428652912378,0.133333355188370
-0.129094213247299,0.133333355188370
0.153736174106598,0.133333355188370
-0.328800171613693,0.133333355188370
-0.117633402347565,0.133333355188370
-0.011243477463722,0.133333355188370
-0.213425427675247,0.133333355188370
0.201713711023331,0.133333355188370
0.053474497050047,0.133333355188370
0.364827483892441,0.133333355188370
0.176465213298798,0.133333355188370
-0.458203464746475,0.133333355188370
0.426074296236038,0.100059762597084
0.149467855691910,0.121044561266899
0.625910997390747,0.123305052518845
0.274415433406830,0.070423498749733
0.034521311521530,0.130560234189034
0.234037742018700,0.133333355188370
0.380019366741180,0.133333355188370
-0.061542809009552,0.133333355188370
0.089148387312889,0.133333355188370
-0.077650755643845,0.133333355188370
0.455782264471054,0.132945209741592
-0.083090946078300,0.133293926715851
-0.272412031888962,0.133274957537651
0.103168316185474,0.132615417242050
0.318079054355621,0.133302032947540
0.513041734695435,0.133333355188370
-0.386845409870148,0.133333355188370
0.141374930739403,0.133333355188370
-0.025163047015667,0.133333355188370
-0.059089377522469,0.133333355188370
-0.054245408624411,0.122591070830822
-0.487143397331238,0.119625523686409
0.375452071428299,0.127877533435822
-0.587046563625336,0.126588612794876
-0.369083732366562,0.132004857063293
-0.059995315968990,0.133333355188370
-0.085200689733028,0.133333355188370
0.437933027744293,0.133333355188370
0.068232618272305,0.133333355188370
0.738490104675293,0.133333355188370
-0.029415670782328,0.114775076508522
0.585126042366028,0.127693980932236
-0.223837792873383,0.127703621983528
0.542002379894257,0.092203602194786
-0.400439769029617,0.131970524787903
-0.124890647828579,0.133333355188370
0.140973210334778,0.133333355188370
-0.518252015113831,0.133333355188370
-0.751637339591980,0.133333355188370
0.496238827705383,0.133333355188370
0.522831678390503,0.133181273937225
-0.262835651636124,0.133294090628624
0.089397311210632,0.133287906646729
0.062698751688004,0.133058845996857
-0.174302548170090,0.133306279778481
0.308370023965836,0.133333355188370
-0.181209772825241,0.133333355188370
0.102487273514271,0.133333355188370
0.088648460805416,0.133333355188370
-0.355521082878113,0.133333355188370
-0.204161554574966,0.072398975491524
0.452629983425140,0.098078414797783
-0.387790888547897,0.112471006810665
-0.876651763916016,0.070496223866940
0.007527336478233,0.123564615845680
-0.180879786610603,0.133333355188370
0.482351928949356,0.133333355188370
-0.123960301280022,0.133333355188370
0.420690685510635,0.133333355188370
0.722049117088318,0.133333355188370
-0.278090208768845,0.132620126008987
-0.557215273380280,0.132858812808990
-0.954070687294006,0.133073002099991
0.658751428127289,0.132307052612305
-0.642294645309448,0.133262649178505
0.179761722683907,0.133333355188370
0.689307391643524,0.133333355188370
-0.271776020526886,0.133333355188370
-0.050055563449860,0.133333355188370
0.210530683398247,0.133333355188370
0.022398674860597,0.119321495294571
0.312047034502029,0.123590514063835
0.364674270153046,0.128206729888916
-0.288590282201767,0.119044460356236
-0.129372105002403,0.131657660007477
-0.341714560985565,0.133333355188370
-0.056394722312689,0.133333355188370
0.409153759479523,0.133333355188370
-0.348792135715485,0.133333355188370
0.351283460855484,0.133333355188370
0.148921951651573,0.105718515813351
1.118085980415344,0.118838854134083
-0.699226081371307,0.124862611293793
-0.207746431231499,0.104321040213108
-0.076784521341324,0.130114465951920
-0.328865110874176,0.133333355188370
0.038654401898384,0.133333355188370
-0.173112824559212,0.133333355188370
-0.424882739782333,0.133333355188370
0.456512242555618,0.133333355188370
0.141197174787521,0.124127805233002
0.176645249128342,0.130066335201263
0.672562181949615,0.130741134285927
-0.161103039979935,0.117598280310631
-0.441312551498413,0.132443502545357
-0.198633819818497,0.133333355188370
0.047377731651068,0.133333355188370
-0.019303834065795,0.133333355188370
0.309972703456879,0.133333355188370
0.025009997189045,0.133333355188370
-0.120509058237076,0.108743943274021
-0.067059852182865,0.120192557573318
0.356145232915878,0.124996796250343
0.867762684822083,0.084849797189236
0.225432991981506,0.131161645054817
-0.002535878913477,0.133333355188370
0.223229184746742,0.133333355188370
0.493923813104630,0.133333355188370
0.042416486889124,0.133333355188370
0.547837197780609,0.133333355188370
0.403370410203934,0.132200583815575
0.180976361036301,0.133219152688980
0.065708860754967,0.133172750473022
0.111305348575115,0.131378829479218
-0.201933473348618,0.133239418268204
0.211949273943901,0.133333355188370
-0.169812947511673,0.133333355188370
-0.176366671919823,0.133333355188370
-0.067373372614384,0.133333355188370
0.144141584634781,0.133333355188370
1.320464372634888,0.091492444276810
0.506612539291382,0.103751666843891
-0.169617682695389,0.117346324026585
-0.089966677129269,0.100618951022625
-0.074008978903294,0.126683413982391
0.062984094023705,0.133333355188370
0.323781937360764,0.133333355188370
-0.658138215541840,0.133333355188370
-0.079075038433075,0.133333355188370
-0.656841397285461,0.133333355188370
-0.508774101734161,0.104049794375896
0.017151756212115,0.116271786391735
0.058999639004469,0.120935283601284
0.087787933647633,0.072655171155930
-0.070589035749435,0.131111770868301
0.557750284671783,0.133333355188370
-0.049854855984449,0.133333355188370
-0.443490862846375,0.133333355188370
-0.119441531598568,0.133333355188370
0.032800782471895,0.133333355188370
-0.412784993648529,0.133303061127663
0.438238620758057,0.133323356509209
0.248890712857246,0.133324652910233
0.657122254371643,0.133286535739899
-0.365900933742523,0.133328288793564
0.402136802673340,0.133333355188370
0.379079341888428,0.133333355188370
-0.032837845385075,0.133333355188370
-0.093973591923714,0.133333355188370
0.533653974533081,0.133333355188370
0.343543499708176,0.013565530069172
0.229476541280746,0.076292455196381
-0.337936848402023,0.037471882998943
0.174766972661018,0.030250240117311
-0.143531352281570,0.075622946023941
0.381431639194489,0.013579958118498
0.373635739088058,0.076292410492897
0.263607531785965,0.037485484033823
0.643309831619263,0.030269267037511
-0.028644040226936,0.075620844960213
0.850401043891907,0.013594926334918
-0.335569769144058,0.076292291283607
0.587298929691315,0.037499401718378
0.042293537408113,0.030289120972157
0.236852332949638,0.075618542730808
0.105345681309700,0.013610403984785
-0.124448508024216,0.076292164623737
-0.121775127947330,0.037513516843319
-0.057695765048265,0.030309872701764
-0.240986600518227,0.075616188347340
0.303597956895828,0.013626432046294
0.092425748705864,0.076292164623737
0.301698535680771,0.037527941167355
0.346341609954834,0.030331505462527
0.267342627048492,0.075613662600517
