mw,Sw
-0.309489279985428,0.181818187236786
-0.085181355476379,0.181818187236786
-0.661466002464294,0.181818187236786
-0.600445568561554,0.181818187236786
-0.051043439656496,0.181818187236786
-0.136662244796753,0.181818187236786
-0.071571432054043,0.181818187236786
0.436228901147842,0.181818187236786
-0.243748247623444,0.181818187236786
0.008636488579214,0.181818187236786
-0.919212281703949,0.181818187236786
0.048921857029200,0.181818187236786
-0.190409466624260,0.181818187236786
0.356871992349625,0.181818187236786
0.040428388863802,0.181818187236786
-0.546484947204590,0.181818187236786
-0.007283730432391,0.181818187236786
0.673420846462250,0.181818187236786
0.294745385646820,0.181818187236786
-0.467356234788895,0.181818187236786
0.027848474681377,0.181818187236786
0.184339508414268,0.181818187236786
0.228022381663322,0.181818187236786
-0.225518167018890,0.181818187236786
-0.357356905937195,0.181818187236786
0.568309903144836,0.181818187236786
0.463653951883316,0.181818187236786
0.215690016746521,0.181818187236786
0.590404927730560,0.181818187236786
-0.628113090991974,0.181818187236786
-0.092798948287964,0.181818187236786
0.442965835332870,0.181818187236786
0.660220146179199,0.181818187236786
-0.208058565855026,0.181818187236786
-0.391875505447388,0.181818187236786
-0.272604227066040,0.181818187236786
0.397792726755142,0.181818187236786
0.157719016075134,0.181818187236786
0.720121264457703,0.181818187236786
-0.016979668289423,0.181818187236786
-0.134720981121063,0.181818187236786
-0.062805593013763,0.181818187236786
0.040938314050436,0.181818187236786
-0.044410072267056,0.181818187236786
0.409820646047592,0.181818187236786
-0.592321097850800,0.181818187236786
0.145909219980240,0.181818187236786
0.366174608469009,0.181818187236786
-0.471727609634399,0.181818187236786
-0.136845499277115,0.181818187236786
0.276299536228180,0.181818187236786
0.687937736511230,0.181818187236786
0.326005220413208,0.181818187236786
-0.177534237504005,0.181818187236786
-0.435434907674789,0.181818187236786
0.340025991201401,0.181818187236786
0.720083177089691,0.181818187236786
0.373201698064804,0.181818187236786
-0.245984733104706,0.181818187236786
0.110424809157848,0.181818187236786
0.100891850888729,0.181818187236786
0.406266152858734,0.181818187236786
-0.628399789333344,0.181818187236786
-0.631512939929962,0.181818187236786
-0.106083698570728,0.181818187236786
0.269364446401596,0.181818187236786
0.584873914718628,0.181818187236786
-0.137348234653473,0.181818187236786
-0.162976115942001,0.181818187236786
-0.074235327541828,0.181818187236786
0.687615871429443,0.181818187236786
0.239892140030861,0.181818187236786
-0.599117159843445,0.181818187236786
-0.105251275002956,0.181818187236786
0.566897213459015,0.181818187236786
0.231572523713112,0.181818187236786
0.114580258727074,0.181818187236786
0.392111539840698,0.181818187236786
0.216076150536537,0.181818187236786
-0.011813085526228,0.181818187236786
0.285551577806473,0.181818187236786
-0.097048364579678,0.181818187236786
-0.341304600238800,0.181818187236786
-0.563341200351715,0.181818187236786
-0.266426503658295,0.181818187236786
0.309719592332840,0.181818187236786
-1.039339184761047,0.181818187236786
0.272724598646164,0.181818187236786
-0.757489621639252,0.181818187236786
-0.920328199863434,0.181818187236786
0.408597916364670,0.181818187236786
0.067749686539173,0.181818187236786
-0.496316194534302,0.181818187236786
0.096671767532825,0.181818187236786
-0.315017670392990,0.181818187236786
-0.027706997469068,0.181818187236786
0.269455939531326,0.181818187236786
-0.175213828682899,0.181818187236786
0.615536987781525,0.181818187236786
0.069647856056690,0.181818187236786
-0.452710360288620,0.181818187236786
0.760075271129608,0.181818187236786
0.087725155055523,0.181818187236786
-0.508902609348297,0.181818187236786
0.564838349819183,0.181818187236786
-0.502396285533905,0.181818187236786
-0.128669291734695,0.181818187236786
0.601589143276215,0.181818187236786
-0.384846627712250,0.181818187236786
-0.243826374411583,0.181818187236786
0.410989940166473,0.181818187236786
0.760147213935852,0.181818187236786
0.045359604060650,0.181818187236786
0.262937039136887,0.181818187236786
-0.622315824031830,0.181818187236786
-0.185410976409912,0.181818187236786
-0.166302427649498,0.181818187236786
-0.179641976952553,0.181818187236786
0.545019209384918,0.181818187236786
-0.076990514993668,0.181818187236786
-0.128679424524307,0.133333355188370
-0.598276317119598,0.133333355188370
0.792076647281647,0.133333355188370
0.357204049825668,0.133333355188370
-0.184801891446114,0.133333355188370
-0.118138752877712,0.133333355188370
0.166585788130760,0.133333355188370
-0.711277365684509,0.133333355188370
0.528920233249664,0.133333355188370
0.384772300720215,0.133333355188370
-0.438551038503647,0.133333355188370
-0.045600451529026,0.133333355188370
-0.769339501857758,0.133333355188370
0.184134468436241,0.133333355188370
-0.067151911556721,0.133333355188370
0.427739083766937,0.133333355188370
0.138791143894196,0.133333355188370
-0.663117945194244,0.133333355188370
-0.553191304206848,0.133333355188370
0.540661036968231,0.133333355188370
-0.352153271436691,0.133333355188370
-0.107858970761299,0.133333355188370
-0.022349482402205,0.133333355188370
0.283926814794540,0.133333355188370
0.678624212741852,0.133333355188370
-0.131083577871323,0.133333355188370
-0.148205295205116,0.133333355188370
0.611668407917023,0.133333355188370
0.298256248235703,0.133333355188370
0.030751913785934,0.133333355188370
-0.614290595054626,0.133333355188370
0.273468255996704,0.133333355188370
-0.796237945556641,0.133333355188370
0.133500829339027,0.133333355188370
0.324983984231949,0.133333355188370
0.078969955444336,0.133333355188370
0.457800298929214,0.133333355188370
-0.404254108667374,0.133333355188370
-0.060428652912378,0.133333355188370
-0.129094213247299,0.133333355188370
0.153736174106598,0.133333355188370
-0.328800171613693,0.133333355188370
-0.117633402347565,0.133333355188370
-0.011243477463722,0.133333355188370
-0.213425427675247,0.133333355188370
0.201713711023331,0.133333355188370
0.053474497050047,0.133333355188370
0.364827483892441,0.133333355188370
0.176465213298798,0.133333355188370
-0.458203464746475,0.133333355188370
0.434725135564804,0.133333355188370
0.097499229013920,0.133333355188370
0.564745664596558,0.133333355188370
0.098997592926025,0.133333355188370
-0.020462770015001,0.133333355188370
0.234037742018700,0.133333355188370
0.380019366741180,0.133333355188370
-0.061542809009552,0.133333355188370
0.089148387312889,0.133333355188370
-0.077650755643845,0.133333355188370
0.451202422380447,0.133333355188370
-0.088129132986069,0.133333355188370
-0.269365936517715,0.133333355188370
0.108652994036674,0.133333355188370
0.316035956144333,0.133333355188370
0.513041734695435,0.133333355188370
-0.386845409870148,0.133333355188370
0.141374930739403,0.133333355188370
-0.025163047015667,0.133333355188370
-0.059089377522469,0.133333355188370
-0.041939966380596,0.133333355188370
-0.609266817569733,0.133333355188370
0.445235580205917,0.133333355188370
-0.548219501972198,0.133333355188370
-0.374522209167480,0.133333355188370
-0.059995315968990,0.133333355188370
-0.085200689733028,0.133333355188370
0.437933027744293,0.133333355188370
0.068232618272305,0.133333355188370
0.738490104675293,0.133333355188370
0.032007921487093,0.133333355188370
0.541748583316803,0.133333355188370
-0.213553801178932,0.133333355188370
0.467434585094452,0.133333355188370
-0.398688197135925,0.133333355188370
-0.124890647828579,0.133333355188370
0.140973210334778,0.133333355188370
-0.518252015113831,0.133333355188370
-0.751637339591980,0.133333355188370
0.496238827705383,0.133333355188370
0.507960855960846,0.133333355188370
-0.270315647125244,0.133333355188370
0.091468334197998,0.133333355188370
0.072239339351654,0.133333355188370
-0.181246370077133,0.133333355188370
0.308370023965836,0.133333355188370
-0.181209772825241,0.133333355188370
0.102487273514271,0.133333355188370
0.088648460805416,0.133333355188370
-0.355521082878113,0.133333355188370
-0.121449418365955,0.133333355188370
-0.056703679263592,0.133333355188370
0.003495151875541,0.133333355188370
-0.540297567844391,0.133333355188370
0.040085781365633,0.133333355188370
-0.180879786610603,0.133333355188370
0.482351928949356,0.133333355188370
-0.123960301280022,0.133333355188370
0.420690685510635,0.133333355188370
0.722049117088318,0.133333355188370
-0.271295964717865,0.133333355188370
-0.578207373619080,0.133333355188370
-0.937956213951111,0.133333355188370
0.667661130428314,0.133333355188370
-0.641238987445831,0.133333355188370
0.179761722683907,0.133333355188370
0.689307391643524,0.133333355188370
-0.271776020526886,0.133333355188370
-0.050055563449860,0.133333355188370
0.210530683398247,0.133333355188370
0.000933828530833,0.133333355188370
0.194074258208275,0.133333355188370
0.427582383155823,0.133333355188370
-0.231523603200912,0.133333355188370
-0.148608103394508,0.133333355188370
-0.341714560985565,0.133333355188370
-0.056394722312689,0.133333355188370
0.409153759479523,0.133333355188370
-0.348792135715485,0.133333355188370
0.351283460855484,0.133333355188370
0.165631845593452,0.133333355188370
0.994928181171417,0.133333355188370
-0.614019751548767,0.133333355188370
-0.130025222897530,0.133333355188370
-0.065594017505646,0.133333355188370
-0.328865110874176,0.133333355188370
0.038654401898384,0.133333355188370
-0.173112824559212,0.133333355188370
-0.424882739782333,0.133333355188370
0.456512242555618,0.133333355188370
0.132872894406319,0.133333355188370
0.125133112072945,0.133333355188370
0.709087789058685,0.133333355188370
-0.126413613557816,0.133333355188370
-0.447697848081589,0.133333355188370
-0.198633819818497,0.133333355188370
0.047377731651068,0.133333355188370
-0.019303834065795,0.133333355188370
0.309972703456879,0.133333355188370
0.025009997189045,0.133333355188370
-0.121197402477264,0.133333355188370
-0.108135573565960,0.133333355188370
0.288492441177368,0.133333355188370
0.705564856529236,0.133333355188370
0.175974205136299,0.133333355188370
-0.002535878913477,0.133333355188370
0.223229184746742,0.133333355188370
0.493923813104630,0.133333355188370
0.042416486889124,0.133333355188370
0.547837197780609,0.133333355188370
0.396496117115021,0.133333355188370
0.172473743557930,0.133333355188370
0.070918843150139,0.133333355188370
0.119985736906528,0.133333355188370
-0.205155104398727,0.133333355188370
0.211949273943901,0.133333355188370
-0.169812947511673,0.133333355188370
-0.176366671919823,0.133333355188370
-0.067373372614384,0.133333355188370
0.144141584634781,0.133333355188370
1.225872993469238,0.133333355188370
0.315651506185532,0.133333355188370
-0.085539624094963,0.133333355188370
0.022846316918731,0.133333355188370
-0.134312167763710,0.133333355188370
0.062984094023705,0.133333355188370
0.323781937360764,0.133333355188370
-0.658138215541840,0.133333355188370
-0.079075038433075,0.133333355188370
-0.656841397285461,0.133333355188370
-0.411836743354797,0.133333355188370
-0.082589447498322,0.133333355188370
0.097091920673847,0.133333355188370
-0.013406336307526,0.133333355188370
-0.064668066799641,0.133333355188370
0.557750284671783,0.133333355188370
-0.049854855984449,0.133333355188370
-0.443490862846375,0.133333355188370
-0.119441531598568,0.133333355188370
0.032800782471895,0.133333355188370
-0.417930632829666,0.133333355188370
0.434013962745667,0.133333355188370
0.250776290893555,0.133333355188370
0.661320805549622,0.133333355188370
-0.368452370166779,0.133333355188370
0.402136802673340,0.133333355188370
0.379079341888428,0.133333355188370
-0.032837845385075,0.133333355188370
-0.093973591923714,0.133333355188370
0.533653974533081,0.133333355188370
0.139321699738503,0.076923079788685
0.246964648365974,0.076923079788685
-0.495383679866791,0.076923079788685
-0.061164174228907,0.076923079788685
-0.108107663691044,0.076923079788685
0.173110947012901,0.076923079788685
0.391618847846985,0.076923079788685
0.105038091540337,0.076923079788685
0.400798797607422,0.076923079788685
0.008288560435176,0.076923079788685
0.637958645820618,0.076923079788685
-0.317111015319824,0.076923079788685
0.427637189626694,0.076923079788685
-0.206711098551750,0.076923079788685
0.275286555290222,0.076923079788685
-0.111255757510662,0.076923079788685
-0.105532169342041,0.076923079788685
-0.282501339912415,0.076923079788685
-0.313117504119873,0.076923079788685
-0.201057225465775,0.076923079788685
0.082839526236057,0.076923079788685
0.111778058111668,0.076923079788685
0.139943569898605,0.076923079788685
0.084612622857094,0.076923079788685
0.308755517005920,0.076923079788685
