mw,Sw
0.522347152233124,0.181818187236786
-0.173550158739090,0.181818187236786
-1.157708644866943,0.181818187236786
0.155938580632210,0.181818187236786
-0.433954775333405,0.181818187236786
-0.277224272489548,0.181818187236786
0.273836463689804,0.181818187236786
0.242837458848953,0.181818187236786
-0.106699533760548,0.181818187236786
-0.571482658386230,0.181818187236786
1.045361995697021,0.181818187236786
-0.042030993849039,0.181818187236786
0.641245901584625,0.181818187236786
0.330473780632019,0.181818187236786
0.101294524967670,0.181818187236786
-0.144542470574379,0.181818187236786
0.600786328315735,0.181818187236786
-0.132785663008690,0.181818187236786
0.226577833294868,0.181818187236786
-0.039966382086277,0.181818187236786
0.936940610408783,0.181818187236786
0.266064792871475,0.181818187236786
-0.456315129995346,0.181818187236786
-0.712540149688721,0.181818187236786
-0.292323291301727,0.181818187236786
-0.104868374764919,0.181818187236786
-0.419297516345978,0.181818187236786
0.055998727679253,0.181818187236786
0.583735466003418,0.181818187236786
-0.158993035554886,0.181818187236786
0.307713270187378,0.181818187236786
-0.133003890514374,0.181818187236786
-0.330141097307205,0.181818187236786
-0.012040449306369,0.181818187236786
0.281985729932785,0.181818187236786
0.046831898391247,0.181818187236786
0.639595508575439,0.181818187236786
-0.101081818342209,0.181818187236786
-0.636690139770508,0.181818187236786
-0.534950733184814,0.181818187236786
-0.506178200244904,0.181818187236786
-0.916579961776733,0.181818187236786
-0.379069477319717,0.181818187236786
-0.255392104387283,0.181818187236786
-0.194881558418274,0.181818187236786
-0.636160492897034,0.181818187236786
0.339264333248138,0.181818187236786
0.080153033137321,0.181818187236786
-0.618785381317139,0.181818187236786
-0.400342196226120,0.181818187236786
-0.323058485984802,0.181818187236786
1.118752241134644,0.181818187236786
0.501712739467621,0.181818187236786
0.372350871562958,0.181818187236786
0.142906233668327,0.181818187236786
0.859952688217163,0.181818187236786
-0.257039874792099,0.181818187236786
0.139593347907066,0.181818187236786
-0.826077282428741,0.181818187236786
0.163728192448616,0.181818187236786
-0.098116464912891,0.181818187236786
0.293851047754288,0.181818187236786
-0.481710910797119,0.181818187236786
0.581954002380371,0.181818187236786
0.183766439557076,0.181818187236786
0.374031841754913,0.181818187236786
0.572953701019287,0.181818187236786
0.544034957885742,0.181818187236786
-0.236687645316124,0.181818187236786
-0.141460180282593,0.181818187236786
-0.238499671220779,0.181818187236786
-0.159430682659149,0.181818187236786
0.255865126848221,0.181818187236786
-0.055002242326736,0.181818187236786
0.632547378540039,0.181818187236786
0.429469794034958,0.181818187236786
-0.486555963754654,0.181818187236786
-0.414813578128815,0.181818187236786
-0.106929607689381,0.181818187236786
0.603486299514771,0.181818187236786
-0.044125922024250,0.181818187236786
-0.190696284174919,0.181818187236786
-0.020700784400105,0.181818187236786
-0.456041604280472,0.181818187236786
0.032273214310408,0.181818187236786
0.622022330760956,0.181818187236786
0.204305782914162,0.181818187236786
-0.347486793994904,0.181818187236786
-0.042714312672615,0.181818187236786
0.050942055881023,0.181818187236786
-0.073505438864231,0.181818187236786
0.715020716190338,0.181818187236786
0.489659875631332,0.181818187236786
-0.541064083576202,0.181818187236786
-0.579220890998840,0.181818187236786
-0.391429841518402,0.181818187236786
-0.245844960212708,0.181818187236786
-0.648718655109406,0.181818187236786
0.311025142669678,0.181818187236786
0.302815705537796,0.181818187236786
-0.161295726895332,0.181818187236786
0.175532728433609,0.181818187236786
0.052200455218554,0.181818187236786
0.182806387543678,0.181818187236786
0.625861167907715,0.181818187236786
-0.076813749969006,0.181818187236786
-0.336170345544815,0.181818187236786
-0.567860782146454,0.181818187236786
0.588575243949890,0.181818187236786
-0.273460686206818,0.181818187236786
0.228919297456741,0.181818187236786
-0.087097004055977,0.181818187236786
-0.654123425483704,0.181818187236786
-0.336786180734634,0.181818187236786
-0.420435547828674,0.181818187236786
-0.721647977828979,0.181818187236786
0.967132568359375,0.181818187236786
0.312630474567413,0.181818187236786
0.241877943277359,0.181818187236786
0.065156012773514,0.181818187236786
-0.161651164293289,0.133333355188370
0.506999611854553,0.133333355188370
0.811343312263489,0.133333355188370
0.192699849605560,0.133333355188370
0.225989103317261,0.133333355188370
0.172437086701393,0.133333355188370
0.167826384305954,0.133333355188370
0.560401201248169,0.133333355188370
-0.161891490221024,0.133333355188370
0.284185171127319,0.133333355188370
0.178758829832077,0.133333355188370
-0.341289937496185,0.133333355188370
-0.074260331690311,0.133333355188370
-0.214100763201714,0.133333355188370
0.104800894856453,0.133333355188370
-0.468720763921738,0.133333355188370
0.346465319395065,0.133333355188370
-0.592480659484863,0.133333355188370
0.548159241676331,0.133333355188370
0.409743249416351,0.133333355188370
0.008569282479584,0.133333355188370
-0.421555072069168,0.133333355188370
-0.785736739635468,0.133333355188370
-0.302410870790482,0.133333355188370
-0.161075577139854,0.133333355188370
0.273782342672348,0.133333355188370
-0.590774536132812,0.133333355188370
0.187612429261208,0.133333355188370
-0.593799769878387,0.133333355188370
-0.233028575778008,0.133333355188370
-0.475682646036148,0.133333355188370
0.720147311687469,0.133333355188370
-0.159443587064743,0.133333355188370
0.213810861110687,0.133333355188370
0.558284819126129,0.133333355188370
-0.453575670719147,0.133333355188370
0.031396698206663,0.133333355188370
-0.486993610858917,0.133333355188370
0.268719375133514,0.133333355188370
0.097314722836018,0.133333355188370
0.352333515882492,0.133333355188370
0.001050009508617,0.133333355188370
0.456610381603241,0.133333355188370
-0.231428205966949,0.133333355188370
0.737273573875427,0.133333355188370
-0.166699796915054,0.133333355188370
-0.511507928371429,0.133333355188370
0.332151353359222,0.133333355188370
-0.122575201094151,0.133333355188370
-0.491317600011826,0.133333355188370
-0.575369358062744,0.133333355188370
-0.117951139807701,0.133333355188370
0.117648102343082,0.133333355188370
-0.194648876786232,0.133333355188370
0.436536490917206,0.133333355188370
0.130168303847313,0.133333355188370
-0.299372225999832,0.133333355188370
0.027695119380951,0.133333355188370
0.303010314702988,0.133333355188370
0.077603146433830,0.133333355188370
-0.205060377717018,0.133333355188370
-0.052863121032715,0.133333355188370
-0.347462862730026,0.133333355188370
-0.251072466373444,0.133333355188370
0.339734762907028,0.133333355188370
-0.410213500261307,0.133333355188370
-0.470610618591309,0.133333355188370
0.042012553662062,0.133333355188370
0.281593382358551,0.133333355188370
0.864850401878357,0.133333355188370
-0.356500893831253,0.133333355188370
0.275425761938095,0.133333355188370
-0.814764976501465,0.133333355188370
0.144801661372185,0.133333355188370
-0.097337409853935,0.133333355188370
-0.425240784883499,0.133333355188370
-0.197758778929710,0.133333355188370
0.518299162387848,0.133333355188370
-0.187731608748436,0.133333355188370
-0.339838653802872,0.133333355188370
0.225627675652504,0.133333355188370
0.503291308879852,0.133333355188370
-0.723644435405731,0.133333355188370
0.390868335962296,0.133333355188370
0.045835066586733,0.133333355188370
0.375581711530685,0.133333355188370
0.061644569039345,0.133333355188370
0.224735707044601,0.133333355188370
0.508452296257019,0.133333355188370
0.125716269016266,0.133333355188370
-0.302973031997681,0.133333355188370
-0.378302782773972,0.133333355188370
0.080395705997944,0.133333355188370
0.100598327815533,0.133333355188370
0.287635385990143,0.133333355188370
-0.252344667911530,0.133333355188370
-0.310324639081955,0.133333355188370
0.185442939400673,0.133333355188370
0.167770013213158,0.133333355188370
-0.499810785055161,0.133333355188370
-0.358353495597839,0.133333355188370
-0.323012739419937,0.133333355188370
-0.317427754402161,0.133333355188370
-0.505254209041595,0.133333355188370
-0.124435253441334,0.133333355188370
-0.343671113252640,0.133333355188370
-0.011446424759924,0.133333355188370
0.321210622787476,0.133333355188370
-0.735516011714935,0.133333355188370
0.177984640002251,0.133333355188370
-0.019615691155195,0.133333355188370
0.756218373775482,0.133333355188370
-0.643296658992767,0.133333355188370
0.548681735992432,0.133333355188370
-0.321643024682999,0.133333355188370
-0.527803897857666,0.133333355188370
0.722686469554901,0.133333355188370
0.374696582555771,0.133333355188370
-0.243229553103447,0.133333355188370
-0.079170592129230,0.133333355188370
0.153117984533310,0.133333355188370
-0.523277163505554,0.133333355188370
0.842454791069031,0.133333355188370
-0.161884963512421,0.133333355188370
0.328899830579758,0.133333355188370
-0.846939861774445,0.133333355188370
0.374836623668671,0.133333355188370
0.159710943698883,0.133333355188370
0.369338780641556,0.133333355188370
-0.385628223419189,0.133333355188370
-0.096639312803745,0.133333355188370
0.251310855150223,0.133333355188370
-0.037847954779863,0.133333355188370
0.098475404083729,0.133333355188370
0.302522987127304,0.133333355188370
0.135262817144394,0.133333355188370
0.074486449360847,0.133333355188370
-0.198205962777138,0.133333355188370
-0.512050747871399,0.133333355188370
0.175563082098961,0.133333355188370
0.689050197601318,0.133333355188370
0.115823209285736,0.133333355188370
0.686456978321075,0.133333355188370
-0.303605139255524,0.133333355188370
-0.740587413311005,0.133333355188370
-0.687792599201202,0.133333355188370
0.659250676631927,0.133333355188370
-0.015758916735649,0.133333355188370
-0.182735055685043,0.133333355188370
-0.308384150266647,0.133333355188370
-0.203889101743698,0.133333355188370
-0.351337760686874,0.133333355188370
-0.297179192304611,0.133333355188370
-0.035579241812229,0.133333355188370
-0.241122528910637,0.133333355188370
0.532603621482849,0.133333355188370
-0.106010049581528,0.133333355188370
0.286899775266647,0.133333355188370
-0.118391796946526,0.133333355188370
-0.012466746382415,0.133333355188370
-0.227292552590370,0.133333355188370
0.286832034587860,0.133333355188370
0.814225971698761,0.133333355188370
-0.048424907028675,0.133333355188370
0.440618723630905,0.133333355188370
-0.143608137965202,0.133333355188370
-0.330943971872330,0.133333355188370
0.240229487419128,0.133333355188370
0.958755671977997,0.133333355188370
-0.031118847429752,0.133333355188370
-0.473624080419540,0.133333355188370
0.150734081864357,0.133333355188370
0.099409371614456,0.133333355188370
0.637566506862640,0.133333355188370
0.321307629346848,0.133333355188370
-0.303647398948669,0.133333355188370
-0.418200254440308,0.133333355188370
0.489745557308197,0.133333355188370
0.105230025947094,0.133333355188370
-0.485966622829437,0.133333355188370
-0.209300592541695,0.133333355188370
-0.175024867057800,0.133333355188370
0.082868553698063,0.133333355188370
0.367918401956558,0.133333355188370
-0.252001434564590,0.133333355188370
-0.193870708346367,0.133333355188370
-0.242196738719940,0.133333355188370
-0.020419741049409,0.133333355188370
0.194823607802391,0.133333355188370
-0.075698658823967,0.133333355188370
0.324862957000732,0.133333355188370
-0.051817514002323,0.133333355188370
-0.154449671506882,0.133333355188370
-0.024379875510931,0.133333355188370
-0.051306415349245,0.133333355188370
0.235181316733360,0.133333355188370
-0.146356150507927,0.133333355188370
-0.743178725242615,0.133333355188370
-0.273679435253143,0.133333355188370
0.014023493044078,0.133333355188370
-0.122410610318184,0.076923079788685
-0.006321784574538,0.076923079788685
-0.367547184228897,0.076923079788685
0.257417500019073,0.076923079788685
-0.297203242778778,0.076923079788685
-0.213655561208725,0.076923079788685
-0.376335561275482,0.076923079788685
0.075499348342419,0.076923079788685
0.047117125242949,0.076923079788685
0.133712813258171,0.076923079788685
-0.029340207576752,0.076923079788685
-0.298847138881683,0.076923079788685
0.004676711745560,0.076923079788685
-0.326769381761551,0.076923079788685
-0.099525868892670,0.076923079788685
-0.014615115709603,0.076923079788685
0.309998393058777,0.076923079788685
0.274286031723022,0.076923079788685
0.159108743071556,0.076923079788685
-0.059941519051790,0.076923079788685
0.188050463795662,0.076923079788685
0.423266142606735,0.076923079788685
-0.492479354143143,0.076923079788685
0.226452052593231,0.076923079788685
-0.032620251178741,0.076923079788685
