mw,Sw
1.324220895767212,1.000000000000000
2.047492980957031,0.125875741243362
0.116057939827442,1.000000000000000
-2.252816438674927,0.473976969718933
0.808658897876740,0.676175296306610
-1.568930506706238,0.107723467051983
-1.052847981452942,0.726161956787109
0.130425497889519,0.206066131591797
-0.921132266521454,0.339970171451569
0.281861335039139,0.537493467330933
-0.236382886767387,0.100000001490116
0.729391634464264,0.079141885042191
0.003902691416442,0.100000001490116
-0.164178833365440,0.099613450467587
0.147239178419113,0.099312856793404
0.117976792156696,0.057031817734241
-0.384170353412628,0.097944296896458
0.616900563240051,0.075954645872116
0.242635026574135,0.077013052999973
-0.004531900864094,0.095269009470940
0.490348607301712,0.100000001490116
-0.451908588409424,0.100000001490116
-0.289728462696075,0.100000001490116
-0.384898662567139,0.100000001490116
0.275394350290298,0.100000001490116
-0.817842960357666,0.100000001490116
-0.270393937826157,0.100000001490116
-0.067978106439114,0.100000001490116
0.102355249226093,0.100000001490116
0.037121023982763,0.100000001490116
0.263306558132172,0.100000001490116
0.301925361156464,0.069328241050243
-0.629288852214813,0.100000001490116
-0.053076554089785,0.099365666508675
0.015676995739341,0.098640307784081
0.251740753650665,0.043481003493071
0.264898329973221,0.096647188067436
0.379633009433746,0.065183572471142
-0.028074445202947,0.065999954938889
-0.032520700246096,0.092010065913200
-0.050676848739386,0.100000001490116
0.278111040592194,0.045148253440857
0.529354929924011,0.100000001490116
-0.102826394140720,0.094703882932663
0.124621435999870,0.095863521099091
0.011256551370025,0.027946852147579
-0.179889947175980,0.089820854365826
0.978478074073792,0.047311656177044
0.422409623861313,0.049475323408842
0.056957043707371,0.085725419223309
0.071372032165527,0.100000001490116
0.066032536327839,0.098242871463299
-0.287307739257812,0.100000001490116
0.296336293220520,0.100000001490116
-0.222205877304077,0.099885188043118
-0.371150493621826,0.099997885525227
0.457323759794235,0.100000001490116
-0.772111237049103,0.099570885300636
-0.112392365932465,0.100000001490116
0.495214581489563,0.099897772073746
0.127460375428200,0.100000001490116
-0.217375993728638,0.100000001490116
-0.137175530195236,0.100000001490116
0.354232102632523,0.100000001490116
-0.457141757011414,0.100000001490116
-0.368530750274658,0.100000001490116
0.386017799377441,0.100000001490116
-0.506666898727417,0.100000001490116
-0.040357675403357,0.100000001490116
-0.551955282688141,0.100000001490116
-0.253936648368835,0.100000001490116
0.487533241510391,0.051455184817314
0.386157333850861,0.100000001490116
-0.037211850285530,0.095788031816483
-0.231767788529396,0.097055904567242
0.276472151279449,0.032821603119373
0.065396808087826,0.091863751411438
-0.017365906387568,0.053033795207739
0.200597330927849,0.055268861353397
0.127552986145020,0.088436283171177
0.524619698524475,0.100000001490116
-0.483554631471634,0.057393711060286
-0.330533772706985,0.100000001490116
-0.598233938217163,0.077182188630104
0.400335550308228,0.097686655819416
0.427393555641174,0.008731432259083
0.072307176887989,0.063373453915119
-0.225601047277451,0.026785522699356
0.254235684871674,0.018996555358171
-0.034585099667311,0.074665412306786
0.551783502101898,0.100000001490116
-0.370475500822067,0.060142595320940
-0.412823736667633,0.100000001490116
-0.115046516060829,0.072773575782776
0.147824302315712,0.098603464663029
0.187665402889252,0.006945689208806
0.273458838462830,0.056826230138540
-0.344450861215591,0.023306090384722
0.435398399829865,0.015381461940706
-0.000281849293970,0.069772690534592
-0.281236559152603,0.100000001490116
0.021250413730741,0.091379396617413
0.018471982330084,0.100000001490116
-0.024918599054217,0.099663913249969
0.303392916917801,0.099767044186592
-0.094318330287933,0.080750413239002
-0.493867218494415,0.099175699055195
0.229612350463867,0.090585313737392
0.495858162641525,0.091363988816738
0.115469060838223,0.098500095307827
0.369168370962143,0.100000001490116
0.737920463085175,0.012925088405609
0.024971630424261,0.100000001490116
-0.627359449863434,0.100000001490116
0.172804489731789,0.080571904778481
-1.002530455589294,0.051456011831760
-0.152586847543716,0.100000001490116
-0.082285381853580,0.030582668259740
-0.323831051588058,0.073074139654636
0.151983439922333,0.068986542522907
-0.159849956631660,0.100000001490116
0.227411776781082,0.061211608350277
0.114937059581280,0.100000001490116
0.346667319536209,0.096899867057800
-0.161925837397575,0.097758725285530
0.142465382814407,0.042341381311417
-0.047192666679621,0.094281546771526
0.251236319541931,0.062826417386532
0.010126080363989,0.065013557672501
0.108281709253788,0.091988369822502
0.053993258625269,0.100000001490116
-0.082610882818699,0.100000001490116
0.199949100613594,0.100000001490116
-0.246494770050049,0.100000001490116
0.248368427157402,0.100000001490116
-0.132579743862152,0.100000001490116
-0.469246506690979,0.100000001490116
0.212973073124886,0.100000001490116
-0.483507454395294,0.100000001490116
-0.174804806709290,0.100000001490116
1.041472315788269,0.100000001490116
-0.169715523719788,0.091893680393696
0.113317035138607,0.100000001490116
0.484268873929977,0.091290093958378
0.350588470697403,0.098290018737316
-0.163749799132347,0.032819204032421
0.122970923781395,0.086140088737011
-0.164065510034561,0.072069488465786
0.241040736436844,0.054254744201899
-0.617202401161194,0.095735505223274
0.049355108290911,0.100000001490116
0.296108573675156,0.097993418574333
-0.179565519094467,0.100000001490116
-0.035143956542015,0.100000001490116
-0.759975969791412,0.099885277450085
-0.073807135224342,0.099989794194698
-0.113825909793377,0.100000001490116
-0.325811564922333,0.099427208304405
-0.367372661828995,0.099998243153095
-0.468890458345413,0.099923416972160
-0.025591675192118,0.001636049360968
0.015584087930620,0.066666662693024
-0.022989192977548,0.003878651652485
-0.221310973167419,0.001458117505535
-0.225585773587227,0.066659472882748
-0.246725291013718,0.066666662693024
-0.205130204558372,0.005969349760562
0.504203557968140,0.015799472108483
0.554019629955292,0.018556414172053
-0.079542264342308,0.032227683812380
0.705211162567139,0.011646592989564
-0.183002635836601,0.015728965401649
-0.477797418832779,0.066666662693024
-0.280586838722229,0.044629774987698
-0.278658598661423,0.066665448248386
-0.541471838951111,0.024593943729997
0.217963486909866,0.066666662693024
-0.669891476631165,0.039106354117393
-0.020607292652130,0.021676529198885
-0.041303291916847,0.066666513681412
-0.104062318801880,0.066666662693024
0.204810574650764,0.045083682984114
-0.188915848731995,0.058378633111715
0.146779462695122,0.061133623123169
-0.236613214015961,0.063401915132999
0.363261699676514,0.060893818736076
-0.048900082707405,0.059623457491398
0.314354270696640,0.066666662693024
0.292157620191574,0.066181764006615
0.060059688985348,0.066666632890701
