mw,Sw
-0.0597852,0.0248828
0.0362511,0.0248828
-0.435009,0.0248828
0.0477439,0.0248832
-0.131618,0.024882
-0.236347,0.024882
0.12599,0.024882
-0.252808,0.0248825
-0.00971662,0.024882
-0.19978,0.024882
-0.14286,0.024882
-0.0303574,0.0248825
-0.596232,0.024882
-0.196648,0.024882
-0.106883,0.024882
-0.203375,0.0248825
0.0138346,0.025
-0.079477,0.025
0.152191,0.025
0.272175,0.025
-0.161108,0.0249829
0.0883215,0.0249828
-0.0887726,0.0249828
0.0496785,0.0249828
0.264243,0.0249829
0.031086,0.0249828
-0.0541889,0.0249828
-0.113559,0.0249828
-0.144767,0.0249829
0.051126,0.0249828
-0.00543594,0.0249828
-0.12774,0.0249828
-0.104561,0.025
-0.101348,0.025
-0.122118,0.025
-0.0148197,0.025
-0.0132178,0.025
0.143666,0.025
0.0678291,0.025
0.0139777,0.025
-0.00456953,0.025
0.0549665,0.025
0.0589057,0.025
0.253884,0.025
0.0147555,0.025
0.0953008,0.025
0.180464,0.025
-0.248067,0.025
-0.000137991,0.025
0.12889,0.025
-0.14364,0.025
-0.181423,0.025
-0.0422487,0.025
0.219317,0.025
0.211456,0.025
0.131372,0.025
-0.0641494,0.025
0.265609,0.025
-0.0234105,0.025
-0.0566984,0.025
0.0817745,0.025
-0.0708959,0.025
0.278777,0.025
-0.0737565,0.025
0.954302,0.999932
0.890975,0.999464
1.00064,1
1,1
0.0758869,0.00666661
0.058866,0.0066666
-0.0342243,0.0066666
0.102114,0.0066666
-0.0935611,0.0066666
0.0493472,0.00666667
0.240949,0.00666667
0.0402492,0.00666667
-0.0656785,0.00666667
-0.016191,0.00666667
-0.0896607,0.00666667
0.0902495,0.00666667
0.0578041,0.00666667
0.0435689,0.00666667
-0.0253527,0.00666667
0.0133617,0.00666667
-0.107929,0.00666667
0.222327,0.00666667
-0.124127,0.00666667
0.0730553,0.00666667
-0.20435,0.00666667
0.045034,0.00666667
0.00784027,0.00666667
-0.0216002,0.00666667
0.0490781,0.00666667
0.0604827,0.0066659
-0.0195566,0.0066659
0.069779,0.0066659
0.03645,0.0066659
0.14586,0.00666594
0.0406962,0.00666666
0.0557218,0.00666666
-0.0509761,0.00666666
-0.0682411,0.00666666
0.188199,0.00666666
-0.0646309,0.00666666
0.057334,0.00666666
0.0261403,0.00666666
0.00878597,0.00666666
0.104651,0.00666666
0.0149601,0.00666666
-0.215964,0.00666666
0.118414,0.00666666
0.0126686,0.00666666
-0.0988128,0.00666666
-0.0204208,0.00666666
0.0520394,0.00666666
-0.100599,0.00666666
0.0928654,0.00666666
0.0169676,0.00666666
0.0836589,0.00666667
0.035317,0.00666667
0.0505748,0.00666667
-0.110866,0.00666667
0.0437783,0.00666667
0.0668191,0.00666667
-0.0301032,0.00666667
-0.0440594,0.00666667
0.036253,0.00666667
-0.11274,0.00666667
-0.0513139,0.00666667
-0.0120092,0.00666667
-0.00134891,0.00666667
-0.107193,0.00666667
0.0716783,0.00666667
-0.0767961,0.00666667
0.0475056,0.00666667
-0.062061,0.00666667
0.0513011,0.00666667
0.011333,0.00666667
-0.0182272,0.00666667
-0.0864968,0.00666667
0.00753298,0.00666667
-0.0746082,0.00666667
-0.0370596,0.00666667
-0.00257777,0.00666667
-0.0190428,0.00666667
-0.0445735,0.00666667
-0.113034,0.00666667
-0.0295772,0.00666667
0.0720682,0.00666667
-0.154747,0.00666667
0.166553,0.00666667
0.0586556,0.00666667
0.0146576,0.00666667
0.0568334,0.00666667
-0.0762298,0.00666667
0.0234611,0.00666667
0.067199,0.00666667
-0.0972831,0.00666667
-0.023624,0.00666667
0.0537425,0.00666667
-0.0146179,0.00666667
-0.0205671,0.00666667
-0.143413,0.00666667
-0.227601,0.00666667
-0.141457,0.00666667
-0.00849669,0.00666667
-0.0205689,0.00666667
-0.156812,0.00666667
0.108491,0.00666665
0.0604279,0.00666665
-0.0844501,0.00666665
0.0727306,0.00666665
-0.0734295,0.00666664
-0.135018,0.00666666
-0.166256,0.00666667
-0.152056,0.00666667
-0.055379,0.00666667
-0.0161179,0.00666666
-0.122781,0.00666666
-0.0795956,0.00666667
0.0302279,0.00666667
0.0281342,0.00666667
-0.10203,0.00666666
-0.0289611,0.00666666
-0.0453259,0.00666667
0.0230283,0.00666667
0.0202411,0.00666667
0.212493,0.00666666
-0.0670164,0.00666666
-0.161656,0.00666666
0.0210041,0.00666666
-0.00963065,0.00666666
-0.0313084,0.00666666
0.0147842,0.00666648
0.133905,0.00666648
-0.0218895,0.00666648
-0.0188265,0.00666648
-0.0361622,0.00666649
-0.0014932,0.00666664
0.0159223,0.00666664
-0.0887104,0.00666664
-0.108496,0.00666664
-0.057099,0.00666664
-0.0524333,0.00666664
0.135237,0.00666664
0.0669884,0.00666664
-0.0808005,0.00666664
-0.0953214,0.00666664
-0.0477368,0.00666664
-0.0271333,0.00666664
0.140384,0.00666664
-0.0704475,0.00666664
-0.0957741,0.00666664
-0.0289768,0.00666664
0.0797834,0.00666664
0.038629,0.00666664
-0.0782935,0.00666664
0.000685219,0.00666664
0.0662883,0.00666667
-0.0400806,0.00666667
-0.0427801,0.00666667
0.157014,0.00666667
-0.0101777,0.00666667
0.0654523,0.00666667
-0.0867857,0.00666667
0.020518,0.00666667
0.0134187,0.00666667
0.160839,0.00666667
0.0210053,0.00666667
0.0724485,0.00666667
-0.0915475,0.00666667
-0.0182215,0.00666667
0.0881222,0.00666667
-0.0193196,0.00666667
-0.0315298,0.00666667
0.0668797,0.00666667
0.0938169,0.00666667
-0.0135097,0.00666667
0.0079053,0.00666667
-0.0243333,0.00666667
0.114504,0.00666667
-0.0486477,0.00666667
0.0101384,0.00666667
-0.152933,0.00666667
0.0409777,0.00666667
0.107003,0.00666667
0.0863737,0.00666667
0.00676567,0.00666667
-0.00758223,0.00666667
-0.0449705,0.00666667
0.0402608,0.00666667
-0.000158545,0.00666667
-0.107212,0.00666667
-0.0662158,0.00666667
-0.103748,0.00666667
0.129102,0.00666667
-0.131103,0.00666667
0.00988439,0.00666667
0.0530814,0.00666667
0.0538527,0.00666667
-0.0795895,0.00666667
0.022271,0.00666667
-0.0493819,0.00666667
-0.0500154,0.00666667
0.014838,0.00666667
-0.0412223,0.00666667
-0.0810361,0.00666667
0.0111823,0.00666667
-0.0437349,0.00666663
-0.141519,0.00666667
-0.0481461,0.00666667
0.0148786,0.00666667
0.0196134,0.00666667
-0.0375117,0.00666663
-0.0852632,0.00666667
-0.0606811,0.00666667
0.0299914,0.00666667
-0.0416153,0.00666667
0.0560698,0.00666663
-0.0218353,0.00666667
0.0912061,0.00666667
-0.0620436,0.00666667
-0.0976013,0.00666667
0.0399799,0.00666663
-0.0715191,0.00666667
0.0201611,0.00666667
0.0691411,0.00666667
0.0941973,0.00666667
-0.0936929,0.0066666
0.0567485,0.00666663
0.0381091,0.00666663
-0.0527919,0.00666663
-0.020142,0.00666663
0.103056,0.00666663
-0.0484993,0.00666663
0.0272216,0.00666663
-0.0726698,0.00666663
0.0203917,0.00666663
0.0553303,0.00666663
-0.0840109,0.00666663
-0.0953587,0.00666663
0.0791136,0.00666663
-0.0624974,0.00666663
-0.0495619,0.00666663
-0.0181461,0.00666663
0.0644862,0.00666663
0.0622518,0.00666663
0.0153019,0.00666663
0.0579382,0.00666663
-0.0699145,0.00666663
-0.0683874,0.00666663
0.0583483,0.00666663
0.0545521,0.00666663
-0.0291664,0.00666663
0.107557,0.00666663
0.0538088,0.00666663
-0.0074447,0.00666663
-0.033452,0.00666663
-0.103098,0.00666667
-0.0640944,0.00666667
0.129495,0.00666667
0.131444,0.00666667
-0.0691848,0.00666667
0.139292,0.00666667
0.0319427,0.00666667
-0.0479534,0.00666667
0.00500421,0.00666667
0.0584761,0.00666667
0.0552891,0.00666667
0.00355736,0.00666667
-0.221068,0.00666667
-0.168248,0.00666667
-0.000311238,0.00666667
-0.0592002,0.00666667
0.126557,0.00666667
0.0758785,0.00666667
0.0134796,0.00666667
-0.03989,0.00666667
-0.0827579,0.00666667
0.0107847,0.00666667
0.146346,0.00666667
-0.137321,0.00666667
0.0285117,0.00666667
0.0421695,0.00666667
0.0751194,0.00666667
0.0172193,0.00666667
0.0331181,0.00666667
0.0300617,0.00666667
-0.0805055,0.00666667
-0.0525273,0.00666667
-0.0478991,0.00666667
-0.0361419,0.00666667
-0.048271,0.00666667
-0.0246491,0.00666667
-0.0199336,0.00666667
0.00929547,0.00666667
0.0253209,0.00666667
-0.17485,0.00666667
-0.00270946,0.00666667
-0.0277667,0.00666667
0.054112,0.00666667
-0.0465734,0.00666667
-0.111344,0.00666667
-0.0636142,0.00666667
-0.0415017,0.00666667
-0.0273382,0.00666667
0.0831215,0.00666667
-0.0841947,0.00666667
0.0524355,0.00666658
-0.0119767,0.00666657
-0.0274278,0.00666657
-0.0143212,0.00666657
-0.0969834,0.00666656
-0.0338298,0.00666667
-0.0957345,0.00666667
0.0807816,0.00666667
-0.0500892,0.00666667
-0.00378243,0.00666666
0.0247841,0.00666667
0.116315,0.00666667
0.0313583,0.00666667
0.155395,0.00666667
-0.0848772,0.00666666
0.00936298,0.00666667
0.0374115,0.00666667
0.0144114,0.00666667
0.0591313,0.00666667
-0.0747884,0.00666666
0.0926244,0.00666667
-0.0481745,0.00666667
0.0161075,0.00666667
0.0843351,0.00666667
-0.0634611,0.00666666
0.0789791,0.00666554
-0.0330485,0.00666553
0.0475508,0.00666553
0.0504726,0.00666553
0.0315449,0.00666559
-0.00124602,0.00666665
0.00342542,0.00666665
-0.156168,0.00666665
0.0276507,0.00666665
-0.0197243,0.00666665
-0.0430787,0.00666665
-0.0206655,0.00666665
-0.053949,0.00666665
-0.0406711,0.00666665
0.055671,0.00666665
0.026282,0.00666665
-0.0584701,0.00666665
0.0499381,0.00666665
0.00685318,0.00666665
0.104773,0.00666665
0.0245025,0.00666665
0.0641467,0.00666665
-0.0333809,0.00666665
0.0305563,0.00666665
0.0611946,0.00666665
0.0372667,0.00666667
0.0644191,0.00666667
-0.0250062,0.00666667
0.0781386,0.00666667
0.0475598,0.00666667
-0.038349,0.00666667
-0.0604506,0.00666667
-0.000745989,0.00666667
-0.153826,0.00666667
-0.032458,0.00666667
-0.0030877,0.00666667
-0.00307754,0.00666667
0.0557488,0.00666667
-0.00664221,0.00666667
-0.084075,0.00666667
0.132958,0.00666667
0.0503734,0.00666667
-0.00630543,0.00666667
-0.00200471,0.00666667
-0.000898899,0.00666667
-0.106326,0.00666667
-0.0151377,0.00666667
-0.155257,0.00666667
-0.0512293,0.00666667
0.0661609,0.00666667
0.0573261,0.00666667
-0.0320265,0.00666667
-0.0139948,0.00666667
0.0348866,0.00666667
-0.0621046,0.00666667
-0.0501321,0.00666667
0.0849108,0.00666667
-0.0632844,0.00666667
-0.150996,0.00666667
0.0942104,0.00666667
0.147562,0.00666667
0.0993286,0.00666667
0.000206757,0.00666667
0.0529649,0.00666667
-0.0504528,0.00666667
0.153399,0.00666667
0.0674798,0.00666667
-0.0995376,0.00666667
0.0445107,0.00666667
-0.115109,0.00666667
0.0485014,0.00666667
0.00176623,0.00666667
0.0340435,0.00666667
-0.0713658,0.00666667
0.0085228,0.00666667
0.0369317,0.00666664
-0.0175487,0.00666664
0.0453139,0.00666664
0.0206678,0.00666664
0.0159557,0.00666664
0.0176525,0.00666667
0.0482119,0.00666667
0.0158492,0.00666667
-0.0511036,0.00666667
-0.104071,0.00666667
0.00781867,0.00666667
-0.141386,0.00666667
-0.0931607,0.00666667
-0.0518138,0.00666667
0.0393599,0.00666667
0.0440426,0.00666667
0.00234758,0.00666667
-0.0688727,0.00666667
-0.0576346,0.00666667
-0.0649219,0.00666667
0.0391121,0.00666666
0.0321689,0.00666666
-0.0618475,0.00666666
-0.0435978,0.00666666
-0.0520318,0.00666666
0.0618241,0.00666634
-0.0246763,0.00666633
0.0665257,0.00666633
0.085269,0.00666633
0.0699885,0.00666635
-0.0435149,0.00666663
0.107567,0.00666663
0.0901408,0.00666663
-0.217258,0.00666663
-0.137043,0.00666663
0.0507811,0.00666663
-0.0398972,0.00666663
0.073477,0.00666663
-0.0284055,0.00666663
0.0249027,0.00666663
-0.0350289,0.00666663
0.0663496,0.00666663
-0.091461,0.00666663
0.160031,0.00666663
0.0939015,0.00666663
0.0272149,0.00666663
-0.131402,0.00666663
-0.230016,0.00666663
0.0672936,0.00666663
-0.0817199,0.00666663
0.0223298,0.00666667
-0.0504459,0.00666667
-0.0421171,0.00666667
-0.0214963,0.00666667
-0.0220982,0.00666667
-0.0424706,0.00666667
-0.0498951,0.00666667
0.0825528,0.00666667
0.059664,0.00666667
0.000918193,0.00666667
-0.0496573,0.00666667
-0.0714888,0.00666667
-0.0206069,0.00666667
0.0179734,0.00666667
0.0902934,0.00666667
0.0785746,0.00666667
-0.0255184,0.00666667
-0.02562,0.00666667
-0.00646711,0.00666667
0.0114349,0.00666667
0.0816077,0.00666667
-0.138255,0.00666667
-0.0320601,0.00666667
0.0365193,0.00666667
0.0144942,0.00666667
-0.104051,0.00666667
0.0566146,0.00666667
-0.0837032,0.00666667
0.120782,0.00666667
0.0300046,0.00666667
-0.029268,0.00666667
0.0195722,0.00666667
0.00536103,0.00666667
0.136139,0.00666667
-0.108973,0.00666667
-0.0538102,0.00666667
0.130742,0.00666667
0.101914,0.00666667
0.0720964,0.00666667
-0.0144111,0.00666667
0.0702109,0.00666667
0.0557062,0.00666667
-0.128286,0.00666667
-0.063019,0.00666667
0.12281,0.00666667
0.0323592,0.00666667
-0.161625,0.00666667
0.0143108,0.00666667
-0.172013,0.00666667
-0.0450772,0.00666667
0.0125471,0.00666666
-0.072054,0.00666667
0.0382805,0.00666667
0.0467132,0.00666667
0.0411345,0.00666665
-0.105866,0.00666666
-0.0193795,0.00666667
-0.0843487,0.00666667
0.0165436,0.00666667
-0.0046406,0.00666665
-0.035564,0.00666666
-0.0930616,0.00666667
-0.0896411,0.00666667
0.120702,0.00666667
-0.0442633,0.00666665
-0.0279014,0.00666666
0.0128922,0.00666667
0.157973,0.00666667
-0.0553023,0.00666667
-0.0460534,0.00666665
-0.0509062,0.00666665
-0.0640911,0.00666666
0.0160338,0.00666666
-0.0349324,0.00666666
-0.029466,0.00666665
-0.085256,0.00666662
-0.00155141,0.00666662
0.00870094,0.00666662
0.0458244,0.00666662
-0.138609,0.00666662
0.0988037,0.00666662
0.0916434,0.00666662
-0.127267,0.00666662
0.0940788,0.00666662
-0.0411406,0.00666662
-0.0496079,0.00666662
-0.0157787,0.00666662
0.0173858,0.00666662
-0.0637446,0.00666662
-0.0235436,0.00666662
-0.0464363,0.00666662
0.0218204,0.00666662
-0.0611923,0.00666662
-0.110569,0.00666662
-0.0457107,0.00666662
-0.0769266,0.00666662
0.059194,0.00666662
-0.151557,0.00666662
0.0686024,0.00666662
-0.0471555,0.00666662
-0.0770135,0.00666667
0.0946204,0.00666667
-0.0220794,0.00666667
-0.00986248,0.00666667
-0.159791,0.00666667
-0.0764213,0.00666667
0.134982,0.00666667
-0.102749,0.00666667
-0.0716687,0.00666667
-0.0438997,0.00666667
-0.111159,0.00666667
-0.0478728,0.00666667
-0.121808,0.00666667
-0.0471041,0.00666667
-0.0864539,0.00666667
-0.109276,0.00666667
-0.0517755,0.00666667
-0.0309129,0.00666667
0.00972961,0.00666667
0.0302116,0.00666667
-0.0370206,0.00666667
0.0882976,0.00666667
0.0361044,0.00666667
-0.0674416,0.00666667
0.0123792,0.00666667
0.0753434,0.00666667
-0.145769,0.00666667
0.031789,0.00666667
-0.0727044,0.00666667
-0.0351142,0.00666667
0.0190498,0.00666667
0.106567,0.00666667
-0.00722149,0.00666667
-0.0398062,0.00666667
-0.0104093,0.00666667
-0.014154,0.00666667
0.0254156,0.00666667
-0.0939488,0.00666667
-0.0371781,0.00666667
-0.0820979,0.00666667
0.0302916,0.00666667
0.0625292,0.00666667
-0.0360572,0.00666667
0.00459777,0.00666667
-0.145286,0.00666667
-0.0344333,0.00666667
-0.026334,0.00666667
0.109893,0.00666667
0.0682373,0.00666667
-0.0709785,0.00666667
0.0452993,0.00666666
0.00912378,0.00666667
0.00884354,0.00666667
-0.148267,0.00666667
-0.111306,0.00666666
-0.130613,0.00666666
-0.056118,0.00666667
0.0841669,0.00666667
0.0869478,0.00666667
-0.0175708,0.00666666
0.0770923,0.00666666
-0.00943243,0.00666667
0.0660838,0.00666667
0.0841258,0.00666667
-0.091698,0.00666666
0.00171651,0.00666666
0.0404154,0.00666667
0.0151485,0.00666667
-0.15214,0.00666667
-0.113433,0.00666666
0.0023027,0.00666666
0.131021,0.00666666
-0.0851834,0.00666666
0.0386696,0.00666666
-0.0301979,0.00666665
-0.0678899,0.00666663
-0.139519,0.00666663
-0.074302,0.00666663
0.0702789,0.00666663
-0.0842712,0.00666663
-0.0743137,0.00666663
0.0467281,0.00666663
-0.244785,0.00666663
-0.0650621,0.00666663
-0.00968792,0.00666663
-0.145903,0.00666663
0.158205,0.00666663
-0.048627,0.00666663
-0.00671562,0.00666663
-0.0366513,0.00666663
-0.129072,0.00666663
-0.0310023,0.00666663
0.0338546,0.00666663
-0.134816,0.00666663
0.0245211,0.00666663
-0.0656475,0.00666663
-0.117632,0.00666663
-0.0293651,0.00666663
-0.00767913,0.00666663
-0.00770518,0.00666663
-0.000180054,0.00666667
0.172001,0.00666667
-0.304467,0.00666667
0.0573536,0.00666667
0.0592384,0.00666667
0.122845,0.00666667
0.106119,0.00666667
0.0089029,0.00666667
-0.0359887,0.00666667
0.065649,0.00666667
-0.0948002,0.00666667
0.119982,0.00666667
0.0311465,0.00666667
0.0201209,0.00666667
-0.00103397,0.00666667
0.0347362,0.00666667
0.00211065,0.00666667
-0.0447885,0.00666667
-0.0172262,0.00666667
0.000155777,0.00666667
7.65656e-05,0.00666667
0.109118,0.00666667
0.0070392,0.00666667
-0.0722181,0.00666667
-0.0535595,0.00666667
-0.018287,0.00666667
0.0887078,0.00666667
0.0420278,0.00666667
0.0365577,0.00666667
0.0642815,0.00666667
0.0518166,0.00666667
-0.132584,0.00666667
-0.0924217,0.00666667
-0.085436,0.00666667
0.195295,0.00666667
0.0284202,0.00666667
0.0416535,0.00666667
-0.140784,0.00666667
0.0450817,0.00666667
0.0763766,0.00666667
0.046878,0.00666667
0.0714735,0.00666667
-0.00829843,0.00666667
-0.0419985,0.00666667
-0.0662827,0.00666667
0.0751405,0.00666667
4.02283e-05,0.00666667
0.046909,0.00666667
-0.173408,0.00666667
-0.0273529,0.00666667
0.0157533,0.00666666
-0.00833197,0.00666667
0.0252587,0.00666667
-0.00553162,0.00666667
-0.0564369,0.00666665
-0.0434047,0.00666666
-0.0197716,0.00666667
0.00558476,0.00666667
-0.0232042,0.00666667
0.0407513,0.00666665
-0.00491062,0.00666666
0.0254282,0.00666667
0.0631769,0.00666667
-0.0416471,0.00666667
0.00528559,0.00666665
-0.170396,0.00666666
0.0915121,0.00666667
-0.0632137,0.00666667
-0.127381,0.00666667
0.0611865,0.00666665
-0.0483689,0.00666665
0.0283744,0.00666666
-0.197896,0.00666666
-0.0750741,0.00666666
-0.0186549,0.00666665
-0.0550142,0.00666663
0.0917625,0.00666663
-0.259323,0.00666663
0.165226,0.00666663
-0.054749,0.00666663
0.108376,0.00666663
0.0143684,0.00666663
-0.13754,0.00666663
-0.150376,0.00666663
-0.13505,0.00666663
-0.0161699,0.00666663
0.00162651,0.00666663
0.0872901,0.00666663
0.048854,0.00666663
-0.109376,0.00666663
-0.103476,0.00666663
0.0245816,0.00666663
0.0670941,0.00666663
0.0946805,0.00666663
0.0287595,0.00666663
0.188421,0.00666663
-0.0297505,0.00666663
-0.0478115,0.00666663
0.0165777,0.00666663
-0.0789398,0.00666663
0.156778,0.00666667
-0.0682171,0.00666667
-0.0882972,0.00666667
-0.0689132,0.00666667
0.0603385,0.00666667
-0.125136,0.00666667
0.164074,0.00666667
0.0843048,0.00666667
0.0957748,0.00666667
0.0285134,0.00666667
0.0708821,0.00666667
0.115601,0.00666667
0.0302238,0.00666667
-0.0824472,0.00666667
-0.0297365,0.00666667
-0.00347649,0.00666667
-0.0207133,0.00666667
-0.0914585,0.00666667
0.0385962,0.00666667
0.077915,0.00666667
0.0404451,0.00666667
-0.0895135,0.00666667
-0.144768,0.00666667
0.0583634,0.00666667
0.0139693,0.00666667
0.0588096,0.00666667
-0.0998991,0.00666667
-0.0919571,0.00666667
-0.0264234,0.00666667
-0.0101817,0.00666667
0.190038,0.00666667
-0.12763,0.00666667
-0.0347594,0.00666667
0.0881145,0.00666667
0.00441003,0.00666667
-0.0500807,0.00666667
0.0330514,0.00666667
-0.0147415,0.00666667
-0.0923559,0.00666667
-0.0437236,0.00666667
0.183466,0.00666667
0.0378983,0.00666667
-0.00951693,0.00666667
-0.0298492,0.00666667
-0.0989055,0.00666667
-0.12211,0.00666667
0.0359809,0.00666667
0.042947,0.00666667
0.0228263,0.00666667
-0.048447,0.00666667
1.00366,0.998652
1.0023,0.999954
1.00042,0.999997
0.988173,0.999654
0.960965,0.999354
1.0012,0.999942
0.986709,0.999847
1.00817,0.99997
-0.045515,0.00719419
0.0725597,0.00719419
0.0731595,0.00719419
0.110865,0.0071942
-0.145738,0.00719423
0.120163,0.00719423
0.0711932,0.00719423
-0.0786002,0.00719423
-0.119327,0.00719423
-0.166064,0.00719423
-0.00362556,0.00719423
-0.084904,0.00719423
0.0160046,0.00719423
-0.0561555,0.00719423
-0.148938,0.00719423
0.166418,0.00719423
0.0947245,0.00719424
0.067255,0.00719424
-0.0219141,0.00719424
0.0171653,0.00719424
-0.112403,0.00719424
-0.0368371,0.00719424
-0.0687156,0.00719424
0.0408429,0.00719424
-0.0935562,0.00719424
0.071038,0.00719424
-0.109867,0.00719424
-0.086038,0.00719424
0.034989,0.00719424
-0.0223231,0.00719424
0.0226941,0.00719424
-0.0227845,0.00719424
-0.014958,0.00719424
0.0151495,0.00719424
0.117692,0.00719424
-0.0933152,0.00719424
-0.0172945,0.00719424
0.0173397,0.00719424
0.11286,0.00719424
-0.107147,0.00719424
0.11598,0.00719424
0.0995886,0.00719424
-0.161511,0.00719424
0.0528135,0.00719424
0.197935,0.00719424
0.0600132,0.00719424
0.0296429,0.00719424
0.098335,0.00719424
-0.00697321,0.00719423
-0.00235652,0.00719423
0.106978,0.00719423
0.149082,0.00719423
-0.0360279,0.00719424
-0.101341,0.00719424
-0.00342034,0.00719424
0.0622337,0.00719424
0.0363072,0.00719424
0.0559409,0.00719424
-0.11621,0.00719424
-0.0415325,0.00719424
0.0620082,0.00719424
-0.0854268,0.00719424
-0.0435237,0.00719424
-0.00164412,0.00719424
-0.0354383,0.00719422
0.124738,0.00719422
0.279011,0.00719422
0.00617409,0.00719422
-0.126312,0.00719423
0.131385,0.00719424
-0.00767052,0.00719424
0.0733622,0.00719423
-0.130365,0.00719423
-0.00237791,0.00719424
-0.0357137,0.00719424
0.0543163,0.00719423
-0.0809797,0.00719424
0.0856857,0.00719424
-0.162897,0.00719424
0.122098,0.00719423
0.066404,0.00719424
-0.147876,0.00719424
-0.0634888,0.00719424
-0.075004,0.00719424
-0.125974,0.00719424
0.0444499,0.00719424
-0.0660311,0.00719424
0.0535807,0.00719424
-0.0393927,0.00719424
-0.0987619,0.00719424
0.0834631,0.00719424
0.0698122,0.00719424
-0.019325,0.00719424
-0.0111642,0.00719424
-0.0204597,0.00719424
0.0301617,0.00719424
0.0751155,0.00719424
0.273238,0.00719424
0.00181403,0.00719424
0.0368759,0.00719423
0.0116702,0.00719424
0.0423602,0.00719424
0.0359627,0.00719424
-0.0292534,0.00719424
-0.0836506,0.00719424
-0.0142564,0.00719424
-0.179215,0.00719424
-0.0338004,0.00719424
-0.0886043,0.00719424
0.0584307,0.00719424
-0.0467075,0.00719424
0.149925,0.00719424
0.0402803,0.00719424
0.110272,0.00719424
-0.0418279,0.00719424
0.00257032,0.00719424
-0.116888,0.00719424
0.0756454,0.00719424
-0.0946541,0.00719424
0.0648933,0.00719424
0.00273646,0.00719424
-0.0654318,0.00719424
0.0268803,0.00719424
-0.0567761,0.00719424
-0.0121058,0.00719424
0.0692098,0.00719424
0.0719938,0.00719424
0.00718793,0.00719424
0.0092279,0.00719414
-0.0885596,0.00719414
-0.0318095,0.00719414
0.17213,0.00719415
0.0592628,0.00719422
0.0677273,0.00719422
-0.0913887,0.00719422
0.163847,0.00719422
-0.091567,0.00719422
0.0969032,0.00719422
0.112487,0.00719422
0.0591362,0.00719422
-0.167847,0.00719422
0.0563237,0.00719422
0.201602,0.00719422
-0.0878202,0.00719422
0.126335,0.00719424
0.145493,0.00719424
-0.051524,0.00719424
-0.130231,0.00719424
0.00679668,0.00719424
0.0490279,0.00719424
-0.01419,0.00719424
-0.0363872,0.00719424
0.110368,0.00719424
0.244302,0.00719424
-0.12181,0.00719424
0.0369321,0.00719424
-0.0981192,0.00719424
-0.0373904,0.00719424
0.130286,0.00719424
-0.00120079,0.00719424
0.00209292,0.00719424
0.0108813,0.00719424
-0.0018394,0.00719424
-0.185203,0.00719424
0.177096,0.00719424
-0.0316088,0.00719424
0.0675558,0.00719424
-0.0955336,0.00719424
0.0908267,0.00719424
-0.0664513,0.00719424
-0.123703,0.00719424
-0.0653851,0.00719424
-0.14635,0.00719424
-0.12585,0.00719424
-0.0116315,0.00719424
0.0903252,0.00719424
-0.0700246,0.00719422
-0.147036,0.00719421
-0.114668,0.00719421
-0.041488,0.00719423
0.0276301,0.00719423
0.00431299,0.00719423
-0.0457299,0.00719423
-0.0024232,0.00719423
-0.110729,0.00719423
0.117212,0.00719423
-0.105593,0.00719423
0.0745676,0.00719423
-0.0325501,0.00719423
-0.138111,0.00719423
0.0722805,0.00719423
0.0549375,0.00719423
0.0541735,0.0071942
-0.0172701,0.00719419
-0.085288,0.00719419
0.0682605,0.0071942
0.124023,0.00719423
0.0626716,0.00719423
0.106663,0.00719423
-0.0347516,0.00719423
0.0331652,0.00719423
-0.0493117,0.00719423
0.0783063,0.00719423
-0.0684946,0.00719423
0.107342,0.00719423
0.0149363,0.00719423
-0.0525838,0.00719423
-0.213737,0.00719423
-0.0169127,0.00719424
-0.0904264,0.00719424
0.0186898,0.00719424
-0.0865685,0.00719423
0.0812979,0.00719424
-0.0365963,0.00719424
0.0162107,0.00719424
0.0410905,0.00719424
0.124055,0.00719424
-0.0204447,0.00719424
-0.129005,0.00719424
-0.0792428,0.00719424
0.0493042,0.00719424
-0.0447674,0.00719424
-0.00686528,0.00719424
-0.0332951,0.00719424
0.0441606,0.00719424
-0.0287368,0.00719424
-0.0297025,0.00719424
-0.0247703,0.00719423
0.0419977,0.00719423
0.201751,0.00719423
-0.077576,0.00719423
0.0893371,0.00719424
0.0775733,0.00719423
0.0334742,0.00719423
0.117689,0.00719423
-0.0285997,0.00719424
-0.0179632,0.00719424
-0.0413954,0.00719424
0.0783531,0.00719424
-0.0301196,0.00719424
-0.0330844,0.00719424
-0.071013,0.00719424
0.0900403,0.00719424
-0.16715,0.00719424
-0.0251242,0.00719424
-0.0530911,0.00719424
0.0667669,0.00719424
-0.179861,0.00719424
0.0291833,0.00719424
0.0691176,0.00719424
0.0592387,0.00719424
0.120313,0.00719424
0.066922,0.00719424
0.027833,0.00719424
0.118033,0.00719424
0.0181868,0.00719424
-0.00954112,0.00719424
-0.0336727,0.00719424
-0.248836,0.00719424
-0.0929503,0.00719424
-0.101395,0.00719424
0.0239344,0.00719424
-0.0195096,0.00719424
-0.0431647,0.00719424
-0.0234392,0.00719424
0.0625408,0.00719424
0.0220761,0.00719424
-0.0307216,0.00719424
0.0350053,0.00719424
-0.0865001,0.00719424
0.0209402,0.00719424
0.0439483,0.00719424
-0.0895329,0.00719424
0.0924004,0.00719424
0.0214717,0.00719424
0.108901,0.00719424
-0.0117723,0.00719424
-0.033259,0.00719424
-0.0338382,0.00719424
-0.0803243,0.00719424
-0.0162269,0.00719424
0.0603588,0.00719424
0.0906138,0.00719424
-0.0798859,0.00719424
-0.127416,0.00719424
-0.0264879,0.00719424
-0.029856,0.00719424
-0.0201664,0.00719424
0.12554,0.00719424
-0.116934,0.00719424
-0.0465162,0.00719424
-0.14276,0.00719424
-0.0137778,0.00719424
-0.10148,0.00719424
0.14199,0.00719424
-0.0564322,0.00719424
-0.0450901,0.00719424
0.105815,0.00719424
-0.0201478,0.00719424
-0.0503791,0.00719424
-0.12885,0.00719424
-0.0325765,0.00719424
0.0454837,0.00719424
-0.0568898,0.00719424
0.0760844,0.00719424
0.0904268,0.00719424
0.00187874,0.00719424
0.104276,0.00719424
-0.0152507,0.00719424
-0.0227493,0.00719424
-0.0363293,0.00719424
0.0162919,0.00719424
-0.0206298,0.00719424
-0.0972303,0.00719424
-0.000320865,0.00719424
-0.0681174,0.00719424
0.0361459,0.00719424
-0.00292702,0.00719424
-0.0281061,0.00719424
0.00967418,0.00719424
0.0576358,0.00719424
-0.0978321,0.00719424
-0.131761,0.00719424
0.139816,0.00719424
-0.0227816,0.00719424
0.0798871,0.00719424
0.0236619,0.00719424
-0.0512324,0.00719424
0.131056,0.00719424
0.0670555,0.00719424
0.0142532,0.00719424
0.119183,0.00719424
-0.0740609,0.00719424
-0.0172307,0.00719424
0.165344,0.00719424
0.11254,0.00719424
0.00947003,0.00719424
0.0185984,0.00719424
-0.0655653,0.00719424
-0.0425407,0.00719424
0.00948521,0.00719424
-0.0807495,0.00719424
-0.00712142,0.00719424
-0.0777014,0.00719424
0.0336387,0.00719424
0.0135535,0.00719424
-0.0871237,0.00719424
0.0817663,0.00719424
-0.02147,0.00719424
0.119332,0.00719424
-0.185744,0.00719424
-0.00957462,0.00719424
0.104863,0.00719424
0.0257512,0.00719424
-0.018682,0.00719424
0.05098,0.00719424
0.0381209,0.00719424
-0.124748,0.00719424
-0.0219002,0.00719424
0.132022,0.00719424
-0.141022,0.00719424
0.00540281,0.00719424
0.0485409,0.00719424
-0.0449826,0.00719424
0.0311671,0.00719424
-0.0490871,0.00719424
0.0758464,0.00719424
0.0342896,0.00719424
0.0730436,0.00719424
0.0114941,0.00719424
-0.0217591,0.00719424
0.0331874,0.00719424
0.135345,0.00719424
-0.0417878,0.00719424
0.12321,0.00719424
0.0254788,0.00719424
0.0323211,0.00719424
-0.00277581,0.00719424
0.0399646,0.00719424
0.0565871,0.00719424
-0.0546165,0.00719424
0.000138618,0.00719424
0.00874003,0.00719424
-0.093128,0.00719424
-0.0357453,0.00719424
-0.137731,0.00719424
0.0265449,0.00719424
0.113002,0.00719424
0.0104076,0.00719424
-0.124454,0.00719424
-0.0285881,0.00719424
0.0841387,0.00719424
-0.0384487,0.00719424
-0.085684,0.00719424
0.0182492,0.00719424
-0.118242,0.00719424
-0.109942,0.00719424
0.102512,0.00719424
-0.13133,0.00719424
-0.00276368,0.00719424
0.0905422,0.00719424
0.0937171,0.00719424
-0.0517915,0.00719424
-0.0144468,0.00719424
0.0780304,0.00719424
0.00705079,0.00719424
-0.0684658,0.00719424
0.0278154,0.00719424
-0.0206008,0.00719424
0.116225,0.00719424
-0.0899547,0.00719424
0.0638046,0.00719424
0.083879,0.00719424
0.030727,0.00719424
0.0499981,0.00719424
-0.148388,0.00719424
-0.0894084,0.00719424
0.0801429,0.00719424
0.0542808,0.00719424
0.0255748,0.00719424
-0.130967,0.00719424
0.0219573,0.00719424
-0.14091,0.00719424
-0.0541501,0.00719424
-0.0737418,0.00719424
0.0367737,0.00719424
0.0332937,0.00719424
-0.0367969,0.00719424
-0.13794,0.00719424
0.0722803,0.00719424
0.0468402,0.00719424
0.0746148,0.00719424
0.0205138,0.00719424
-0.101369,0.00719424
0.0590571,0.00719424
0.116279,0.00719424
0.0065227,0.00719424
0.0132832,0.00719424
-0.0707966,0.00719424
0.159214,0.00719424
0.240329,0.00719424
-0.0721205,0.00719424
0.0566568,0.00719424
0.0012015,0.00719424
0.0427003,0.00719424
0.0197654,0.00719424
0.0275019,0.00719424
-0.0416567,0.00719424
-0.0843559,0.00719424
-0.0786035,0.00719424
-0.0283545,0.00719424
0.0945029,0.00719424
-0.0170984,0.00719424
0.0622349,0.00719424
0.0198623,0.00719424
-0.127629,0.00719424
0.0874306,0.00719424
-0.074927,0.00719424
0.0575248,0.00719424
0.142148,0.00719424
0.133753,0.00719424
0.119948,0.00719424
0.0673574,0.00719424
-0.165852,0.00719424
-0.0411573,0.00719424
0.0795551,0.00719424
0.0413889,0.00719424
-0.0160555,0.00719424
0.130876,0.00719424
0.0440329,0.00719424
0.191256,0.00719424
0.0564527,0.00719424
0.0562122,0.00719424
-0.00400269,0.00719424
-0.145301,0.00719424
0.0107881,0.00719424
-0.00480482,0.00719424
0.0268048,0.00719424
-0.0645019,0.00719424
0.0929355,0.00719424
0.0426924,0.00719424
-0.0589472,0.00719424
0.00595443,0.00719424
0.0423795,0.00719424
-0.0464677,0.00719424
-0.0571843,0.00719424
0.0202997,0.00719424
0.102615,0.00719424
-0.00109042,0.00719424
-0.0166757,0.00719424
0.119147,0.00719424
0.112384,0.00719424
-0.013683,0.00719424
0.164966,0.00719424
-0.0016917,0.00719424
-0.000918189,0.00719424
0.0456843,0.00719424
0.0882601,0.00719424
-0.00402252,0.00719424
0.0888686,0.00719424
-0.0233142,0.00719424
-0.0428045,0.00719424
-0.0381224,0.00719424
-0.0714159,0.00719424
-0.0258525,0.00719424
0.0229122,0.00719424
-0.147248,0.00719424
0.0673254,0.00719424
0.0200373,0.00719424
-0.0964644,0.00719424
0.00163077,0.00719424
-0.194633,0.00719424
-0.0181332,0.00719424
0.0115126,0.00719424
-0.175484,0.00719424
0.117197,0.00719424
-0.0247614,0.00719424
0.0300894,0.00719424
-0.0764066,0.00719424
0.0882059,0.00719424
0.00973218,0.00719424
0.000973274,0.00719424
-0.0665577,0.00719424
0.0513712,0.00719424
-0.0754611,0.00719424
-0.0594656,0.00719424
-0.0121453,0.00719424
-0.0977082,0.00719424
0.0725606,0.00719424
-0.147638,0.00719424
0.191113,0.00719424
-0.0320458,0.00719424
-0.110001,0.00719424
-0.207432,0.00719424
0.00747697,0.00719424
-0.00585101,0.00719424
-0.0350751,0.00719424
-0.00965576,0.00719424
-0.00331497,0.00719424
-0.0312128,0.00719424
-0.151696,0.00719424
-0.0796954,0.00719424
0.0547085,0.00719424
0.0655894,0.00719424
0.0257734,0.00719424
-0.118692,0.00719424
0.163897,0.00719424
-0.0197888,0.00719424
0.113076,0.00719424
-0.056116,0.00719424
0.00701558,0.00719424
0.222579,0.00719424
0.112939,0.00719424
-0.059484,0.00719424
0.0386334,0.00719424
0.0279233,0.00719424
0.113589,0.00719424
0.0774428,0.00719424
-0.0879752,0.00719424
-0.00791801,0.00719424
-0.181559,0.00719424
0.0818863,0.00719424
-0.0320866,0.00719424
-0.00484659,0.00719424
0.10078,0.00719424
-0.0950228,0.00719424
0.0670154,0.00719424
0.0432025,0.00719424
0.143736,0.00719424
0.045038,0.00719424
0.0238654,0.00719424
-0.0492669,0.00719424
0.000928223,0.00719424
0.0139269,0.00719424
-0.0449577,0.00719424
-0.0906701,0.00719424
-0.0849321,0.00719424
0.0399148,0.00719424
0.0418814,0.00719424
-0.0505159,0.00719424
0.0410217,0.00719424
-0.00386701,0.00719424
0.00147622,0.00719424
-0.112059,0.00719424
0.138977,0.00719424
-0.0366233,0.00719424
-0.0891804,0.00719424
0.136115,0.00719424
-0.053534,0.00719424
-0.0631522,0.00719424
-0.0399612,0.00719424
-0.0456018,0.00719424
0.0652356,0.00719424
-0.0642963,0.00719424
-0.0388884,0.00719424
0.0450774,0.00719424
-0.0153842,0.00719424
0.0377895,0.00719424
0.103503,0.00719424
0.0289583,0.00719424
-0.0117148,0.00719424
-0.0355668,0.00719424
-0.0348599,0.00719424
-0.135478,0.00719424
-0.0538947,0.00719424
-0.0847655,0.00719424
-0.11083,0.00719424
0.132495,0.00719424
-0.026918,0.00719424
0.00713038,0.00719424
0.119613,0.00719424
0.0666401,0.00719424
0.0610413,0.00719424
0.141157,0.00719424
-0.0294397,0.00719424
-0.0863074,0.00719424
0.0537798,0.00719424
0.0881028,0.00719424
0.15358,0.00719424
0.0759316,0.00719424
-0.0821444,0.00719424
-0.0486612,0.00719424
-0.0658539,0.00719424
0.0821608,0.00719424
-0.0261965,0.00719424
-0.000921848,0.00719424
0.0199567,0.00719424
0.0601045,0.00719424
-0.0462896,0.00719424
0.0582417,0.00719424
-0.0550155,0.00719424
0.00930878,0.00719424
-0.0554895,0.00719424
0.0118501,0.00719424
-0.149757,0.00719424
-0.0238143,0.00719424
-0.0253921,0.00719424
0.120554,0.00719424
-0.119906,0.00719424
0.030786,0.00719424
0.136568,0.0071942
-0.087037,0.0071942
0.110356,0.0071942
0.0160737,0.0071942
-0.000788959,0.00719423
0.101897,0.00719423
0.0223809,0.00719423
0.213743,0.00719423
-0.0471987,0.00719423
0.0708394,0.00719423
0.0613468,0.00719423
-0.104143,0.00719423
-0.0436533,0.00719423
-0.0299228,0.00719423
0.0852325,0.00719423
0.0155124,0.00719423
0.0114962,0.00719424
-0.075266,0.00719424
0.199254,0.00719424
0.0807493,0.00719424
0.0546931,0.00719424
0.054955,0.00719424
-0.0297721,0.00719424
-0.242662,0.00719424
0.0164111,0.00719424
0.0573143,0.00719424
0.186649,0.00719424
-0.0861553,0.00719424
-0.0149627,0.00719424
0.05732,0.00719424
-0.112849,0.00719424
0.00891481,0.00719424
0.0145972,0.00719424
0.153519,0.00719424
-0.0332095,0.00719424
-0.0229,0.00719424
-0.0203637,0.00719424
-0.158742,0.00719424
0.0400501,0.00719424
0.109126,0.00719424
0.029629,0.00719424
0.023581,0.00719424
0.118962,0.00719424
-0.0097352,0.00719424
-0.128924,0.00719424
-0.0270067,0.00719424
-0.163271,0.00719424
0.110128,0.00719424
0.125912,0.00719423
0.0261902,0.00719423
-0.0201896,0.00719423
-0.0348135,0.00719423
0.0324304,0.00719424
0.00902252,0.00719424
0.0721973,0.00719424
-0.174808,0.00719424
0.0130785,0.00719424
0.0748823,0.00719424
0.011031,0.00719424
0.122404,0.00719424
0.0458616,0.00719424
-0.0753242,0.00719424
0.0972538,0.00719424
0.060227,0.00719424
0.0287521,0.00719422
-0.00609647,0.00719422
0.0408739,0.00719422
-0.0273265,0.00719422
-0.0363886,0.00719423
-0.0875236,0.00719424
-0.00486533,0.00719424
-0.152476,0.00719423
0.00352407,0.00719423
0.0630637,0.00719424
-0.0192944,0.00719424
-0.0369567,0.00719423
-0.0584478,0.00719424
-0.0606653,0.00719424
0.104163,0.00719424
-0.134409,0.00719424
-0.0572489,0.00719424
-0.0641203,0.00719424
-0.0777224,0.00719424
0.018115,0.00719424
-0.0578141,0.00719424
0.175568,0.00719424
-0.135842,0.00719424
-0.211425,0.00719424
0.139352,0.00719424
0.122508,0.00719424
0.0988118,0.00719424
0.0208836,0.00719424
0.0520382,0.00719424
-0.241532,0.00719424
-0.0240957,0.00719424
0.0291985,0.00719424
0.0512745,0.00719424
-0.0416794,0.00719424
-0.0229818,0.00719424
0.0299703,0.00719423
-0.0911945,0.00719424
0.0569843,0.00719424
0.0131052,0.00719424
-0.0899057,0.00719424
0.0203294,0.00719424
-0.0981963,0.00719424
0.0132307,0.00719424
0.017697,0.00719424
-0.0158448,0.00719424
-0.0451742,0.00719424
0.027888,0.00719424
0.0450662,0.00719424
0.0570846,0.00719424
-0.00559126,0.00719424
0.096583,0.00719424
0.0227008,0.00719424
0.0779736,0.00719424
-0.137209,0.00719424
-0.0339498,0.00719424
-0.00669703,0.00719424
-0.151973,0.00719424
0.0648187,0.00719424
0.0211772,0.00719424
0.2569,0.00719424
-0.112906,0.00719424
0.17243,0.00719424
0.0443186,0.00719424
-0.145973,0.00719424
0.0144242,0.00719424
-0.130565,0.00719424
0.0598498,0.00719424
0.147475,0.00719424
0.115362,0.00719424
-0.120168,0.00719424
0.0061304,0.00719424
0.026244,0.00719424
-0.0494138,0.00719424
-0.0165717,0.00719424
0.0235456,0.00719424
-0.15428,0.00719424
-0.0812371,0.00719424
-0.015609,0.00719424
-0.0817822,0.00719424
0.00864864,0.00719424
0.00232556,0.00719424
0.0455787,0.00719424
0.0820549,0.00719424
0.00203766,0.00719424
-0.0508563,0.00719424
0.114881,0.00719424
-0.0813126,0.00719424
0.102863,0.00719424
0.0944223,0.00719424
0.0632423,0.00719424
-0.0237953,0.00719424
-0.0486311,0.00719424
0.0315316,0.00719424
-0.0635106,0.00719424
-0.0200801,0.00719424
0.0602104,0.00719424
0.087776,0.00719424
0.0719076,0.00719424
-0.0412322,0.00719424
0.0241719,0.00719424
-0.136175,0.00719424
0.0366693,0.00719424
0.0579623,0.00719424
0.0141351,0.00719424
0.054854,0.00719424
-0.0134378,0.00719424
0.0113839,0.00719424
0.0551297,0.00719424
-0.110344,0.00719424
0.0631106,0.00719424
0.0187464,0.00719424
0.0339254,0.00719424
0.127299,0.00719424
-0.00825595,0.00719424
0.103549,0.00719424
-0.052178,0.00719424
-0.0798741,0.00719424
0.139154,0.00719424
-0.0619582,0.00719424
-0.095464,0.00719424
0.0728393,0.00719424
0.128752,0.00719424
0.0332237,0.00719424
0.0344869,0.00719424
0.0593244,0.00719424
0.0422804,0.00719424
0.0505183,0.00719424
-0.0373931,0.00719424
-0.111246,0.00719424
0.0282443,0.00719424
-0.0217093,0.00719424
-0.00756021,0.00719424
-0.182658,0.00719424
0.0451872,0.00719424
0.0248802,0.00719424
-0.0207843,0.00719424
0.0476026,0.00719424
0.135917,0.00719424
0.00530819,0.00719424
0.104992,0.00719424
-0.0281569,0.00719424
-0.0830249,0.00719424
0.0120038,0.00719424
0.108077,0.00719424
-0.0104772,0.00719424
0.0520676,0.00719424
-0.0632187,0.00719424
0.0804008,0.00719424
0.051565,0.00719424
0.102468,0.00719424
-0.0879555,0.00719424
0.0398759,0.00719424
-0.0573581,0.00719424
0.135485,0.00719424
0.0722535,0.00719424
-0.0285674,0.00719424
0.0748468,0.00719424
0.0158877,0.00719424
-0.102558,0.00719424
0.0521026,0.00719424
-0.0479779,0.00719424
0.0766372,0.00719424
-0.023912,0.00719424
0.00381796,0.00719424
-0.015081,0.00719424
0.026947,0.00719424
-0.052809,0.00719424
0.0423438,0.00719424
0.0320842,0.00719424
0.0334594,0.00719424
0.0432857,0.00719424
0.0135825,0.00719424
-0.148768,0.00719424
0.0255649,0.00719424
0.222489,0.00719424
-0.082568,0.00719424
0.0383451,0.00719424
0.0129412,0.00719424
-0.0384655,0.00719424
0.0282196,0.00719424
-0.00307248,0.00719424
0.0103383,0.00719424
0.0958954,0.00719424
-0.00776078,0.00719424
0.0263843,0.00719424
0.026762,0.00719424
0.0294298,0.00719424
0.0134789,0.00719424
0.0383886,0.00719424
0.00923028,0.00719424
-0.0520443,0.00719424
0.0504711,0.00719424
-0.0531473,0.00719415
0.0986578,0.00719415
-0.0600183,0.00719415
0.0157509,0.00719416
0.10082,0.00719422
-0.0621089,0.00719422
-0.0438715,0.00719422
0.165393,0.00719422
-0.120173,0.00719422
-0.0819128,0.00719422
-0.0727962,0.00719422
-0.040295,0.00719422
0.0462317,0.00719422
0.0466206,0.00719422
0.112773,0.00719422
0.0513032,0.00719422
0.0822885,0.00719424
0.0472707,0.00719424
0.076707,0.00719424
0.164099,0.00719424
-0.0111461,0.00719424
0.0443052,0.00719424
-0.0174928,0.00719424
-0.0119662,0.00719424
-0.0574527,0.00719424
0.0768273,0.00719424
0.00550262,0.00719424
0.0180128,0.00719424
-0.0480355,0.00719424
0.0469549,0.00719424
0.128897,0.00719424
0.0409991,0.00719424
0.0670432,0.00719424
0.0847828,0.00719424
-0.0425153,0.00719424
-0.0148241,0.00719424
0.0316963,0.00719424
-0.0125172,0.00719424
-0.00366613,0.00719424
0.150534,0.00719424
0.126452,0.00719424
-0.121013,0.00719424
0.074657,0.00719424
-0.127631,0.00719424
0.0406991,0.00719424
-0.0521906,0.00719424
0.0166081,0.00719424
0.050756,0.00719424
-0.0596636,0.00719422
0.161388,0.00719421
-0.0400376,0.00719421
0.0288779,0.00719423
-0.00450996,0.00719424
0.0300957,0.00719424
0.00340531,0.00719424
0.0201728,0.00719424
0.145776,0.00719424
-0.110277,0.00719424
-0.0235426,0.00719424
0.0585464,0.00719424
0.0276473,0.00719424
-0.137896,0.00719424
-0.0547406,0.00719424
0.0353121,0.00719424
0.112483,0.0071942
-0.025049,0.00719419
0.0215908,0.00719419
-0.0487459,0.00719421
-0.0836569,0.00719423
0.0762655,0.00719423
-0.0249472,0.00719423
-0.0756386,0.00719423
0.0913602,0.00719423
0.0960617,0.00719423
0.0417178,0.00719423
0.0783658,0.00719423
0.0237387,0.00719423
0.0471395,0.00719423
0.0592746,0.00719423
0.0694173,0.00719423
-0.0648944,0.00719424
-0.0591717,0.00719424
-0.0692697,0.00719424
0.122284,0.00719423
0.0115988,0.00719424
0.027422,0.00719424
0.0318544,0.00719424
0.126525,0.00719424
-0.0615405,0.00719424
-0.0851057,0.00719424
0.0578269,0.00719424
-0.00688521,0.00719424
0.0536074,0.00719424
0.00314425,0.00719424
0.0544171,0.00719424
-0.075002,0.00719424
-0.0716492,0.00719424
0.076746,0.00719424
0.0374781,0.00719424
0.0595241,0.00719423
-0.0307928,0.00719424
-0.058833,0.00719424
-0.0102382,0.00719424
-0.0723038,0.00719424
-0.0245288,0.00719424
0.0722027,0.00719424
0.0843357,0.00719424
-0.163089,0.00719424
-0.166086,0.00719424
-0.039542,0.00719424
-0.053983,0.00719424
0.0800333,0.00719424
0.0239967,0.00719424
-0.0438957,0.00719424
0.0164886,0.00719424
-0.0773171,0.00719424
0.0386144,0.00719424
-0.0318189,0.00719424
-0.089386,0.00719424
0.051401,0.00719424
0.0346495,0.00719424
0.0149036,0.00719424
-0.0738397,0.00719424
0.12923,0.00719424
0.00430658,0.00719424
0.00296685,0.00719424
-0.0914776,0.00719424
0.197026,0.00719424
0.0100908,0.00719419
-0.0217781,0.0071942
-0.08882,0.0071942
0.0217955,0.0071942
-0.00108493,0.00719423
0.115827,0.00719423
0.133002,0.00719423
-0.0326228,0.00719423
-0.0548711,0.00719423
0.114048,0.00719423
0.039941,0.00719423
0.00659315,0.00719423
-0.134668,0.00719423
-0.187626,0.00719423
-0.0222757,0.00719423
0.171475,0.00719423
-0.0639461,0.00719424
0.00583581,0.00719424
-0.00382459,0.00719424
-0.0116255,0.00719424
0.0196547,0.00719424
0.101065,0.00719424
-0.0604982,0.00719424
0.103436,0.00719424
-0.0270714,0.00719424
-0.0444189,0.00719424
-0.0454462,0.00719424
-0.0120916,0.00719424
-0.0658188,0.00719424
-0.0296335,0.00719424
-0.118341,0.00719424
0.0357935,0.00719424
0.063929,0.00719424
0.205327,0.00719424
0.0107342,0.00719424
0.0009533,0.00719424
0.0694269,0.00719424
0.0158461,0.00719424
0.0021515,0.00719424
0.0355348,0.00719424
0.0846278,0.00719424
-0.102318,0.00719424
-0.0304748,0.00719424
-0.093576,0.00719424
0.0673063,0.00719424
0.0840709,0.00719424
0.0380606,0.00719424
0.0513839,0.00719424
0.0444629,0.00719423
-0.129537,0.00719423
0.0241166,0.00719423
0.0494832,0.00719423
-0.1095,0.00719424
0.155832,0.00719424
0.0485363,0.00719424
0.119527,0.00719424
-0.0377938,0.00719424
-0.0997839,0.00719424
-0.16953,0.00719424
0.0254898,0.00719424
0.0346452,0.00719424
0.0601117,0.00719424
0.0322294,0.00719424
0.0429495,0.00719424
-0.0752655,0.00719422
0.0167242,0.00719422
0.0230756,0.00719422
-0.161514,0.00719422
-0.00269124,0.00719423
-0.030826,0.00719424
0.000812168,0.00719424
0.0917768,0.00719423
0.103246,0.00719423
-0.0779057,0.00719424
0.0621694,0.00719424
-0.00757884,0.00719423
-0.0105377,0.00719424
0.00010217,0.00719424
-0.109773,0.00719424
-0.0682563,0.00719423
0.0531451,0.00719424
0.0425463,0.00719424
0.039273,0.00719424
-0.0592702,0.00719424
-0.0264258,0.00719424
0.0324265,0.00719424
0.0809753,0.00719424
-0.133334,0.00719424
-0.0345307,0.00719424
-0.00302616,0.00719424
-0.0823771,0.00719424
0.0447441,0.00719424
-0.131568,0.00719424
-0.179464,0.00719424
-0.0517773,0.00719424
-0.0306035,0.00719424
-0.0155298,0.00719424
-0.0251117,0.00719424
-0.0509291,0.00719424
-0.0437757,0.00719423
0.0595445,0.00719424
-0.0928462,0.00719424
-0.0306972,0.00719424
-0.0611118,0.00719424
0.110632,0.00719424
-0.130031,0.00719424
-0.0339095,0.00719424
0.101967,0.00719424
-0.00119697,0.00719424
0.0131202,0.00719424
-0.139984,0.00719424
-0.111721,0.00719424
-0.00613355,0.00719424
0.000973879,0.00719424
0.0110535,0.00719424
-0.0869431,0.00719424
-0.066809,0.00719424
0.0425319,0.00719424
-0.134283,0.00719424
0.0133282,0.00719424
-0.0810285,0.00719424
-0.106814,0.00719424
0.0094801,0.00719424
-0.0295702,0.00719424
-0.0209163,0.00719424
0.0944738,0.00719424
-0.0615741,0.00719424
-0.0639936,0.00719424
0.0881018,0.00719424
0.0858435,0.00719424
0.134168,0.00719424
0.0228946,0.00719424
0.0546763,0.00719424
-0.195788,0.00719424
-0.0554043,0.00719424
0.00146618,0.00719424
-0.0373374,0.00719424
0.0491003,0.00719424
0.00641007,0.00719424
0.0728466,0.00719424
0.0325352,0.00719424
0.165524,0.00719424
-0.224421,0.00719424
-0.109605,0.00719424
-0.0156876,0.00719424
0.102928,0.00719424
0.167919,0.00719424
0.0297297,0.00719424
0.0862355,0.00719424
0.0196588,0.00719424
0.0809922,0.00719424
-0.105384,0.00719424
0.00263763,0.00719424
-0.0566868,0.00719424
0.0855505,0.00719424
-0.0289909,0.00719424
-0.131629,0.00719424
0.167475,0.00719424
0.0758477,0.00719424
0.144496,0.00719424
0.165967,0.00719424
0.130834,0.00719424
0.0696798,0.00719424
0.0676456,0.00719424
0.00487823,0.00719424
-0.0123853,0.00719424
0.062014,0.00719424
0.0667287,0.00719424
0.0405785,0.00719424
0.0669134,0.00719424
-0.0110749,0.00719424
0.0822013,0.00719424
-0.000885533,0.00719424
0.35373,0.00719424
-0.0779711,0.00719424
-0.0559291,0.00719424
-0.0275772,0.00719424
-0.0855726,0.00719424
-0.133826,0.00719424
0.0513711,0.00719424
0.0290166,0.00719424
0.101951,0.00719424
0.00551074,0.00719424
0.034253,0.00719424
0.0461294,0.00719424
-0.124605,0.00719424
-0.0814533,0.00719424
-0.103795,0.00719424
-0.0221451,0.00719424
-0.071476,0.00719424
-0.0155902,0.00719424
0.0732582,0.00719424
-0.0162564,0.00719424
0.0357776,0.00719424
-0.0177144,0.00719424
-0.0189936,0.00719424
0.0761193,0.00719424
0.0630711,0.00719424
-0.080987,0.00719424
-0.0530386,0.00719424
-0.105843,0.00719424
-0.0382755,0.00719424
-0.0150606,0.00719424
-0.0790148,0.00719424
0.0204155,0.00719424
0.181497,0.00719424
0.139662,0.00719424
0.215761,0.00719424
-0.0731214,0.00719424
0.131977,0.00719424
0.0192566,0.00719424
0.148128,0.00719424
0.0690698,0.00719424
0.0389861,0.00719424
-0.0174169,0.00719424
-0.042441,0.00719424
0.0766185,0.00719424
0.0268646,0.00719424
0.0185022,0.00719424
-0.0988542,0.00719424
0.175186,0.00719424
-0.0496487,0.00719424
-0.118809,0.00719424
0.013452,0.00719424
-0.0192135,0.00719424
-0.0390339,0.00719424
0.0380498,0.00719424
0.0992959,0.00719424
-0.06104,0.00719424
-0.011137,0.00719424
0.0313369,0.00719424
-0.0687864,0.00719424
-0.0735909,0.00719424
-0.0132346,0.00719424
-0.0087655,0.00719424
0.0451857,0.00719424
0.0649998,0.00719424
-0.0504488,0.00719424
0.0857944,0.00719424
-0.0172183,0.00719424
0.0322526,0.00719424
0.0239891,0.00719424
-0.0326614,0.00719424
0.0714091,0.00719424
0.0952377,0.00719424
0.137103,0.00719424
-0.0899846,0.00719424
-0.0589083,0.00719424
-0.0679538,0.00719424
-0.0802505,0.00719424
0.0114591,0.00719424
0.00603269,0.00719424
-0.0950055,0.00719424
-0.0433782,0.00719424
-0.0361841,0.00719424
0.0470439,0.00719424
0.032281,0.00719423
-0.016002,0.00719423
0.0140407,0.00719423
-0.0798661,0.00719423
0.0742456,0.00719424
0.113621,0.00719424
0.128064,0.00719424
-0.0754253,0.00719424
0.0979598,0.00719424
-0.0789172,0.00719424
-0.0704866,0.00719424
0.00550702,0.00719424
0.0217517,0.00719424
-0.107522,0.00719424
-0.0920872,0.00719424
0.00467069,0.00719424
0.131674,0.00719424
-0.0719907,0.00719424
0.0486681,0.00719424
-0.0324853,0.00719424
0.0311867,0.00719424
-0.109889,0.00719424
-0.0173203,0.00719424
-0.0957157,0.00719424
0.0987124,0.00719424
-0.140694,0.00719424
0.0905442,0.00719424
-0.172938,0.00719424
0.0622748,0.00719424
0.00404465,0.00719424
-0.0304439,0.00719424
-0.0939111,0.00719424
0.238163,0.00719424
-0.0754946,0.00719424
-0.0175676,0.00719424
-0.0110409,0.00719424
-0.0701219,0.00719424
-0.0528868,0.00719424
-0.0712002,0.00719424
0.0515142,0.00719424
0.130106,0.00719424
-0.0108939,0.00719424
0.0320755,0.00719424
0.0937318,0.00719424
0.16717,0.00719424
0.0166786,0.00719424
0.0115065,0.00719424
-0.0294201,0.00719424
-0.0371281,0.00719424
-0.029021,0.00719424
-0.0287325,0.00719424
-0.0107313,0.00719424
-0.00483187,0.00719424
-0.0392019,0.00719424
-0.17839,0.00719424
0.00753918,0.00719424
-0.0191135,0.00719424
-0.0329906,0.00719424
-0.0546448,0.00719424
-0.082586,0.00719424
-0.102003,0.00719424
0.0830433,0.00719424
0.135957,0.00719424
0.139908,0.00719424
0.205902,0.00719423
-0.0777443,0.00719423
-0.0119663,0.00719423
0.0193137,0.00719423
-0.0392021,0.00719424
-0.0480513,0.00719424
-0.0783955,0.00719424
-0.0603308,0.00719424
0.0469862,0.00719424
0.108696,0.00719424
-0.0961073,0.00719424
-0.0622606,0.00719424
0.0301156,0.00719424
-0.00339416,0.00719424
-0.0350297,0.00719424
-0.00203789,0.00719424
0.0946633,0.00719424
0.0930022,0.00719424
-0.0169214,0.00719424
-0.0360362,0.00719424
0.0415992,0.00719424
0.0220577,0.00719424
-0.0307311,0.00719424
0.00812847,0.00719424
0.0782245,0.00719424
0.0359245,0.00719424
-0.0468714,0.00719424
-0.0640031,0.00719424
-0.120308,0.00719424
0.00130481,0.00719424
-0.0600089,0.00719424
-0.143071,0.00719424
0.0492997,0.00719424
-0.113188,0.00719424
0.13522,0.00719424
-0.108887,0.00719424
-0.0270344,0.00719424
0.0145718,0.00719424
0.115219,0.00719424
-0.0733285,0.00719424
-0.0342966,0.00719424
-0.109978,0.00719424
-0.133613,0.00719424
0.117364,0.00719424
0.0981993,0.00719424
-0.0095003,0.00719424
-0.184005,0.00719424
0.060835,0.00719424
-0.0494758,0.00719424
0.025361,0.00719424
0.0483365,0.00719424
0.00122198,0.00719424
-0.0267018,0.00719424
-0.0212807,0.00719424
0.10996,0.00719424
-0.0750526,0.00719424
-0.214292,0.00719424
-0.0910544,0.00719424
-0.0222547,0.00719424
-0.0290956,0.00719424
0.183468,0.00719424
0.0746149,0.00719424
0.0888908,0.00719424
0.134882,0.00719424
0.122514,0.00719424
-0.138936,0.00719424
-0.00537116,0.00719424
-0.0626764,0.00719424
-0.0701779,0.00719424
0.00225309,0.00719424
-0.0396044,0.00719424
-0.107566,0.00719424
-0.101264,0.00719424
0.0146825,0.00719424
0.0959835,0.00719424
0.134332,0.00719424
-0.0205339,0.00719424
-0.0609881,0.00719424
0.0163204,0.00719424
0.0100329,0.00719424
0.00580534,0.00719424
-0.134222,0.00719424
-0.0825779,0.00719424
0.0121528,0.00719424
0.111449,0.00719424
-0.230944,0.00719424
-0.00577917,0.00719424
-0.0194069,0.00719424
-0.0759168,0.00719424
-0.0500097,0.00719424
0.00224261,0.00719424
-0.0235082,0.00719424
-0.0312509,0.00719424
0.040808,0.00719424
0.0132616,0.00719424
0.00811354,0.00719424
-0.00151426,0.00719424
-0.0384107,0.00719424
0.0348017,0.00719424
-0.119972,0.00719424
0.0602935,0.00719424
-0.0377417,0.00719424
0.0903147,0.00719424
0.0268277,0.00719424
0.122586,0.00719424
-0.0589316,0.00719424
-0.0942574,0.00719424
-0.00321673,0.00719424
-0.0225496,0.00719424
-0.0889188,0.00719424
0.107278,0.00719424
0.164267,0.00719424
-0.0222508,0.00719424
-0.0361144,0.00719424
0.139248,0.00719424
-0.0945079,0.00719424
-0.0471548,0.00719424
-0.0232387,0.00719424
0.100404,0.00719424
-0.0562819,0.00719424
0.059903,0.00719424
0.0413786,0.00719424
0.026156,0.00719424
0.0243897,0.00719424
0.0920193,0.00719424
-0.10593,0.00719424
0.104999,0.00719424
0.0195772,0.00719424
-0.0161261,0.00719424
0.0971026,0.00719424
0.0372758,0.00719424
-0.131437,0.00719424
-0.167088,0.00719424
0.0941052,0.00719424
0.000411551,0.00719424
0.0699107,0.00719424
0.0752613,0.00719424
0.03896,0.00719424
-0.049804,0.00719424
0.0266819,0.00719424
0.0773836,0.00719424
-0.0513048,0.00719424
-0.185186,0.00719424
-0.0593593,0.00719424
-0.0195814,0.00719424
0.129125,0.00719424
-0.0554573,0.00719424
-0.0420059,0.00719424
-0.0151611,0.00719424
0.205963,0.00719424
0.0258195,0.00719424
0.0447543,0.00719424
-0.0304461,0.00719424
-0.0764354,0.00719424
0.11678,0.00719424
0.117449,0.00719424
0.0781447,0.00719424
-0.104463,0.00719424
0.00267249,0.00719424
0.12329,0.00719424
-0.0104588,0.00719424
-0.111032,0.00719424
0.0835801,0.00719424
0.00460342,0.00719424
-0.0114114,0.00719424
-0.0855413,0.00719424
-0.0304409,0.00719424
-0.016669,0.00719424
-0.0814993,0.00719424
-0.0119666,0.00719424
-0.020012,0.00719424
-0.132482,0.00719424
0.0916364,0.00719424
-0.0388862,0.00719424
0.0747217,0.00719424
-0.0488074,0.00719424
0.110644,0.00719424
-0.0215857,0.00719424
0.0582811,0.00719424
0.0736362,0.00719424
-0.0247343,0.00719424
0.02964,0.00719424
-0.109205,0.00719424
-0.017266,0.00719424
-0.036202,0.00719424
0.0205404,0.00719424
-0.0236236,0.00719424
0.0482584,0.00719424
-0.0317353,0.00719424
-0.14119,0.00719424
0.0940347,0.00719424
0.024817,0.00719424
0.0615438,0.00719424
-0.165426,0.00719424
0.125507,0.00719424
-0.115203,0.00719424
0.140646,0.00719424
-0.0426909,0.00719424
0.147842,0.00719424
0.115302,0.00719424
-0.0485555,0.00719424
-0.0385707,0.00719424
-0.0812439,0.00719424
-0.0646655,0.00719424
-0.169041,0.00719424
-0.130579,0.00719424
-0.188538,0.00719424
0.0163183,0.00719424
-0.14133,0.00719424
0.0569056,0.00719424
-0.0292724,0.00719424
0.0914479,0.00719424
0.00155568,0.00719424
0.121054,0.00719424
-0.0621127,0.00719424
0.0109996,0.00719424
0.0139393,0.00719424
-0.0576614,0.00719424
0.0197653,0.00719424
0.0151222,0.00719424
-0.0931937,0.00719424
0.0170464,0.00719424
-0.215746,0.00719424
0.204292,0.00719424
0.0337323,0.00719424
-0.0379584,0.00719424
-0.139053,0.00719424
0.0113643,0.00719424
0.0702274,0.00719424
-0.0186069,0.00719424
-0.0397839,0.00719424
-0.065396,0.00719424
-0.0766752,0.00719424
0.0328948,0.00719424
0.115305,0.00719424
0.065227,0.00719424
0.137125,0.00719424
0.0928265,0.00719424
-0.0614594,0.00719424
0.0243883,0.00719424
0.0181965,0.00719424
-0.0579903,0.00719424
-0.118546,0.00719424
-0.0252147,0.00719424
-0.14102,0.00719424
-0.0267204,0.00719424
-0.200541,0.00719424
0.0505,0.00719424
-0.0525048,0.00719424
0.151353,0.00719424
0.0794155,0.00719424
-0.0388429,0.00719424
0.10192,0.00719424
0.0338926,0.00719424
0.0742627,0.00719424
0.0221255,0.00719424
-0.169025,0.00719424
0.0641746,0.00719424
-0.00520584,0.00719424
-0.0359032,0.00719424
0.0297468,0.00719424
-0.0649839,0.00719424
-0.150744,0.00719424
0.162092,0.00719424
0.0505828,0.00719424
0.0406111,0.00719424
-0.166505,0.00719424
0.038148,0.00719424
0.0836448,0.00719424
0.00150964,0.00719424
-0.0374337,0.00719424
-0.00750253,0.00719424
0.140667,0.00719424
0.0766936,0.00719424
-0.0133466,0.00719424
-0.03904,0.00719424
0.0204809,0.00719424
-0.0599937,0.00719424
-0.050157,0.00719424
-0.100165,0.00719424
0.0684464,0.00719424
0.0820351,0.00719424
0.019269,0.00719424
0.0906387,0.00719424
-0.0570696,0.00719424
0.0618685,0.00719424
-0.0675905,0.00719424
0.050926,0.00719424
0.0132689,0.00719424
-0.0114915,0.00719424
0.0328244,0.00719424
0.00790111,0.00719424
0.0386456,0.00719424
0.0354235,0.00719424
-0.0370162,0.00719424
-0.0877843,0.00719424
0.0725977,0.00719424
0.139527,0.00719424
0.0540856,0.00719424
-0.0271814,0.00719424
-0.0734541,0.00719424
-0.0801928,0.00719424
-0.0452857,0.00719424
0.00423433,0.00719424
0.0618456,0.00719424
-0.0454991,0.00719424
0.111017,0.00719424
0.0269717,0.00719424
0.00201657,0.00719424
-0.0900397,0.00719424
-0.0819379,0.00719424
0.0303,0.00719424
0.0318717,0.00719424
0.0361389,0.00719424
0.0317881,0.00719424
-0.0163492,0.00719424
0.151514,0.00719424
-0.112358,0.00719424
0.0516689,0.00719424
-0.0750193,0.00719424
0.221467,0.00719417
0.140937,0.00719417
0.0466518,0.00719417
-0.147709,0.00719418
0.00113691,0.00719422
-0.0199596,0.00719422
-0.0305257,0.00719422
0.0131267,0.00719422
0.0780159,0.00719422
0.0250543,0.00719422
-0.0597149,0.00719422
-0.0508312,0.00719422
0.102161,0.00719422
-0.0670263,0.00719422
0.0162174,0.00719422
-0.0522744,0.00719422
0.0766608,0.00719424
-0.0171811,0.00719424
0.0859805,0.00719424
0.0330427,0.00719424
0.117227,0.00719424
-0.169479,0.00719424
-0.177262,0.00719424
-0.0583999,0.00719424
-0.056181,0.00719424
-0.0960278,0.00719424
-0.0375555,0.00719424
-0.0764148,0.00719424
-0.0468764,0.00719424
-0.0307294,0.00719424
0.0774512,0.00719424
-0.0617847,0.00719424
-0.0254911,0.00719424
0.0405164,0.00719424
-0.013396,0.00719424
-0.138356,0.00719424
-0.0859496,0.00719424
-0.0666049,0.00719424
0.0664733,0.00719424
0.0197896,0.00719424
0.0170246,0.00719424
0.0765962,0.00719424
-0.10977,0.00719424
0.0583119,0.00719424
-0.0231295,0.00719424
-0.0703408,0.00719424
0.0172867,0.00719424
-0.174845,0.00719424
-0.0214438,0.00719422
0.0164149,0.00719422
-0.0959706,0.00719422
0.000105901,0.00719423
-0.0766758,0.00719424
0.0218033,0.00719424
0.0128164,0.00719424
-0.00357113,0.00719424
0.0567184,0.00719424
0.00090392,0.00719424
-0.0570889,0.00719424
-0.197206,0.00719424
0.113905,0.00719424
0.0203731,0.00719424
-0.0525112,0.00719424
-0.012372,0.00719424
0.096342,0.00719421
-0.0874536,0.00719421
-0.0469507,0.00719421
0.0862828,0.00719422
-0.0305955,0.00719423
-0.209796,0.00719423
0.0365679,0.00719423
-0.0310291,0.00719423
0.0652763,0.00719423
0.0458598,0.00719423
0.130926,0.00719423
0.0443984,0.00719423
-0.108619,0.00719423
-0.107267,0.00719423
-0.123666,0.00719423
-0.020253,0.00719423
-0.0203468,0.00719424
0.139458,0.00719424
-0.0644826,0.00719424
-0.166377,0.00719424
0.0845921,0.00719424
-0.00491173,0.00719424
-0.0730313,0.00719424
-0.0255935,0.00719424
0.088455,0.00719424
-0.160172,0.00719424
-0.0928106,0.00719424
0.0805265,0.00719424
-0.0138693,0.00719424
-0.0840491,0.00719424
-0.0521953,0.00719424
0.0140017,0.00719424
-0.00342395,0.00719424
0.128995,0.00719424
0.0099706,0.00719424
0.0317042,0.00719423
-0.106625,0.00719424
-0.104655,0.00719424
0.0585232,0.00719424
-0.102118,0.00719424
0.212872,0.00719424
0.0110595,0.00719424
-0.126207,0.00719424
-0.143942,0.00719424
-0.0455556,0.00719424
-0.0354713,0.00719424
0.0550068,0.00719424
-0.0342598,0.00719424
0.0163024,0.00719424
0.114176,0.00719424
-0.0685076,0.00719424
-0.0604774,0.00719424
0.0838121,0.00719424
-0.0524182,0.00719424
0.0694153,0.00719424
-0.0909048,0.00719424
0.00217382,0.00719424
0.129371,0.00719424
0.0713814,0.00719424
-0.0372325,0.00719424
-0.0498722,0.00719424
0.0544255,0.00719424
0.0104969,0.00719424
-0.0666796,0.00719424
-0.0814635,0.00719415
0.0858699,0.00719415
0.0204133,0.00719415
-0.0775173,0.00719416
-0.0351597,0.00719422
-0.1404,0.00719422
-0.147535,0.00719422
0.112211,0.00719422
0.00706588,0.00719422
0.0406668,0.00719422
-0.0979223,0.00719422
0.0113568,0.00719422
0.00824675,0.00719422
-0.0867618,0.00719422
0.08916,0.00719422
0.0391213,0.00719422
-0.0146041,0.00719424
-0.0675206,0.00719424
0.0709123,0.00719424
-0.0604716,0.00719424
-0.0586389,0.00719424
0.055228,0.00719424
-0.173997,0.00719424
0.012237,0.00719424
0.0631747,0.00719424
0.073175,0.00719424
0.153841,0.00719424
-0.134356,0.00719424
0.0707696,0.00719424
0.132888,0.00719424
0.118011,0.00719424
0.0185928,0.00719424
0.00780383,0.00719424
0.0366962,0.00719424
-0.0610728,0.00719424
-0.0368642,0.00719424
-0.0844694,0.00719424
0.220002,0.00719424
-0.0495086,0.00719424
0.062201,0.00719424
0.0428156,0.00719424
-0.0314256,0.00719424
0.14413,0.00719424
-0.164865,0.00719424
-0.0504811,0.00719424
-0.0606482,0.00719424
-0.0878383,0.00719424
0.0439741,0.00719424
-0.125588,0.00719422
0.115574,0.00719421
0.064629,0.00719421
0.0423292,0.00719423
-0.0199775,0.00719423
-0.187458,0.00719423
-0.0133829,0.00719423
-0.0828658,0.00719423
-0.119137,0.00719423
0.028871,0.00719423
-0.0199034,0.00719423
0.0750621,0.00719423
0.200528,0.00719423
-0.0639776,0.00719423
0.0337132,0.00719423
0.114189,0.00719423
0.0490507,0.0071942
0.0379422,0.00719419
-0.145367,0.00719419
-0.0779392,0.00719421
0.00422103,0.00719423
-0.0879583,0.00719423
-0.110445,0.00719423
0.107533,0.00719423
-0.0185899,0.00719423
0.0305043,0.00719423
-0.0147956,0.00719423
0.00560483,0.00719423
0.140072,0.00719423
0.075339,0.00719423
0.0938624,0.00719423
-0.00337604,0.00719423
0.103134,0.00719424
-0.0589748,0.00719424
0.100163,0.00719424
-0.0826112,0.00719423
0.0273227,0.00719424
0.0297564,0.00719424
-0.0392797,0.00719424
-0.102218,0.00719424
-0.0557885,0.00719424
0.0234541,0.00719424
0.0708538,0.00719424
-0.0673708,0.00719424
-0.0796412,0.00719424
-0.0622665,0.00719424
-0.0563733,0.00719424
0.00797595,0.00719424
-0.0157321,0.00719424
-0.159123,0.00719424
-0.0118746,0.00719424
0.0186589,0.00719423
0.0415071,0.00719423
-0.0102061,0.00719423
0.126688,0.00719423
-0.0162568,0.00719424
-0.0876265,0.00719423
0.0381197,0.00719423
0.0187997,0.00719423
-0.0558615,0.00719424
-0.0516155,0.00719424
-0.0287067,0.00719424
0.0325956,0.00719424
0.0248713,0.00719424
0.0303354,0.00719424
-0.0151543,0.00719424
0.129886,0.00719424
-0.141777,0.00719424
0.0291379,0.00719424
0.0301062,0.00719424
0.0739365,0.00719424
0.0241066,0.00719424
0.0174167,0.00719424
0.084968,0.00719424
0.201922,0.00719424
0.0237769,0.00719424
0.0478732,0.00719424
0.15575,0.00719424
-0.108361,0.00719424
0.050016,0.00719424
-0.0288982,0.00719419
0.0391717,0.0071942
0.0048808,0.0071942
-0.00132891,0.0071942
-0.115673,0.00719423
-0.040344,0.00719423
0.100667,0.00719423
-0.0441851,0.00719423
0.0583496,0.00719423
0.0069269,0.00719423
-0.104461,0.00719423
-0.00380371,0.00719423
-0.103809,0.00719423
0.00421962,0.00719423
-0.0678337,0.00719423
0.0229713,0.00719423
-0.00456031,0.00719424
-0.0115486,0.00719424
-0.022456,0.00719424
-0.0333809,0.00719424
-0.0605607,0.00719424
0.0739484,0.00719424
0.0219495,0.00719424
-0.0619587,0.00719424
0.0413842,0.00719424
-0.07156,0.00719424
0.0232206,0.00719424
-5.50123e-06,0.00719424
0.0780611,0.00719424
-0.0705695,0.00719424
-0.0713136,0.00719424
0.0210235,0.00719424
-0.0654087,0.00719424
-0.0372794,0.00719424
-0.112017,0.00719424
-0.0174234,0.00719424
0.084435,0.00719424
-0.0108518,0.00719424
-0.0519128,0.00719424
0.0370242,0.00719424
-0.0886041,0.00719424
-0.092441,0.00719424
0.126408,0.00719424
-0.110153,0.00719424
0.0207214,0.00719424
-0.0195185,0.00719424
-0.0978854,0.00719424
0.00211436,0.00719424
-0.107933,0.00719423
-0.105089,0.00719423
-0.0383928,0.00719423
-0.210835,0.00719423
-0.0134141,0.00719424
0.114977,0.00719424
-0.0197417,0.00719424
0.0503608,0.00719424
-0.0289522,0.00719424
-0.0887756,0.00719424
-0.0494033,0.00719424
-0.130714,0.00719424
-0.0853373,0.00719424
0.004539,0.00719424
-0.0443743,0.00719424
0.0368383,0.00719424
0.0557985,0.00719422
-0.14226,0.00719422
0.104949,0.00719422
-0.0293686,0.00719422
0.0454281,0.00719423
-0.0358427,0.00719424
0.0297099,0.00719424
0.147191,0.00719423
-0.0276626,0.00719423
-0.0483447,0.00719424
0.0662206,0.00719424
-0.0308688,0.00719423
-0.0919355,0.00719424
-0.122815,0.00719424
-0.219454,0.00719424
0.0199266,0.00719423
-0.109369,0.00719424
0.00663467,0.00719424
-0.0857144,0.00719424
0.0488145,0.00719424
0.0452523,0.00719424
0.0945788,0.00719424
0.0633571,0.00719424
0.00730787,0.00719424
0.0855196,0.00719424
-0.0858571,0.00719424
0.0738029,0.00719424
-0.120755,0.00719424
-0.074172,0.00719424
-0.141427,0.00719424
0.0986821,0.00719424
0.044202,0.00719424
-0.140207,0.00719424
-0.113055,0.00719424
-0.0494592,0.00719424
-0.0410542,0.00719423
-0.0762357,0.00719424
-0.124421,0.00719424
0.01146,0.00719424
0.0622051,0.00719424
0.062277,0.00719424
0.0371515,0.00719424
0.0272015,0.00719424
0.00324197,0.00719424
0.00980185,0.00719424
-0.125709,0.00719424
-0.0532091,0.00719424
0.0103596,0.00719424
-0.0469112,0.00719424
-0.0910821,0.00719424
-0.0131587,0.00719424
0.0142206,0.00719424
0.00169703,0.00719424
0.0464385,0.00719424
0.0672871,0.00719424
-0.128435,0.00719424
-0.0301436,0.00719424
-0.00784465,0.00719424
0.00428039,0.00719424
0.11449,0.00719424
0.038556,0.00719424
-0.16978,0.00719424
0.0444221,0.00719424
0.0556162,0.00719424
-0.0278096,0.00719424
0.0540829,0.00719424
0.0264409,0.00719424
-0.0290525,0.00719424
0.00807638,0.00719424
-0.223178,0.00719424
0.0428356,0.00719424
0.0297242,0.00719424
0.166309,0.00719424
0.0636394,0.00719424
-0.115962,0.00719424
-0.0963101,0.00719424
-0.0842062,0.00719424
-0.185953,0.00719424
-0.00135334,0.00719424
-0.0395246,0.00719424
-0.0466931,0.00719424
-0.0154407,0.00719424
-0.100474,0.00719424
0.0960531,0.00719424
-0.0139514,0.00719424
0.0566404,0.00719424
0.0524773,0.00719424
0.0664732,0.00719424
-0.00947168,0.00719424
-0.0778928,0.00719424
0.12573,0.00719424
0.0472898,0.00719424
-0.00610701,0.00719424
-0.077618,0.00719424
0.00207756,0.00719424
-0.0482233,0.00719424
-0.0266974,0.00719424
-0.129534,0.00719424
-0.0287729,0.00719424
-0.0686887,0.00719424
0.0375855,0.00719424
0.042081,0.00719424
0.0824436,0.00719424
0.135897,0.00719424
0.0790808,0.00719424
0.0623395,0.00719424
-0.0296382,0.00719424
-0.0368273,0.00719424
0.063731,0.00719424
0.0691414,0.00719424
0.0703653,0.00719424
0.00989088,0.00719424
-0.104466,0.00719424
0.0716672,0.00719424
0.06861,0.00719424
0.0425931,0.00719424
-0.131263,0.00719424
-0.0412916,0.00719424
0.019938,0.00719424
-0.082128,0.00719424
0.0610896,0.00719424
-0.0745532,0.00719424
-0.0613655,0.00719424
-0.148647,0.00719424
0.0300151,0.00719424
0.0355262,0.00719424
-0.0320788,0.00719424
-0.156615,0.00719424
-0.0852348,0.00719424
0.0314723,0.00719424
-0.10553,0.00719424
-0.0562853,0.00719424
0.202593,0.00719424
-0.10151,0.00719424
0.0248698,0.00719424
0.16779,0.00719424
0.0633249,0.00719424
-0.16879,0.00719424
0.0723429,0.00719424
0.0509362,0.00719424
-0.0411551,0.00719424
0.0333578,0.00719424
-0.0831609,0.00719424
-0.00325674,0.00719424
0.0673896,0.00719424
-0.0448335,0.00719424
-0.040181,0.00719424
-0.0610429,0.00719424
-0.008711,0.00719424
0.019356,0.00719424
0.000962372,0.00719424
-0.0699456,0.00719424
0.0530456,0.00719424
-0.00358024,0.00719424
0.135079,0.00719424
0.129608,0.00719424
0.119038,0.00719424
0.0266984,0.00719424
0.0349786,0.00719424
-0.0668039,0.00719424
0.0347847,0.00719424
-0.115706,0.00719424
-0.0961744,0.00719424
-0.0103336,0.00719424
-0.078294,0.00719424
-0.144822,0.00719424
-0.150726,0.00719424
-0.0284817,0.00719424
-0.131285,0.00719424
-0.104985,0.00719424
-0.161095,0.00719424
-0.0316796,0.00719424
0.0220305,0.00719424
-0.0143742,0.00719424
-0.0322791,0.00719424
0.00500899,0.00719424
-0.00896455,0.00719424
0.0247038,0.00719424
0.0911318,0.00719424
-0.0304827,0.00719424
0.0371697,0.00719424
-0.0908259,0.00719424
0.0534919,0.00719424
0.155857,0.00719424
0.146835,0.00719424
0.0310126,0.00719424
0.0285891,0.00719424
-0.109803,0.00719424
-0.0864232,0.00719424
0.117016,0.00719424
0.00191128,0.00719424
0.100944,0.00719424
0.0380554,0.00719422
0.0467894,0.00719422
-0.132682,0.00719422
0.00637801,0.00719423
0.0704546,0.00719424
0.0247955,0.00719424
-0.0023349,0.00719424
0.149842,0.00719424
0.101508,0.00719424
-0.0104282,0.00719424
0.0181405,0.00719424
-0.0372858,0.00719424
0.0352062,0.00719424
0.0202706,0.00719424
0.0384247,0.00719424
-0.0661158,0.00719424
-0.0728412,0.00719424
0.0749623,0.00719424
-0.0784239,0.00719424
-0.121421,0.00719424
0.0931298,0.00719424
0.0773765,0.00719424
0.0320109,0.00719424
-0.0711642,0.00719424
-0.0507338,0.00719424
0.0985214,0.00719424
-0.023589,0.00719424
-0.100923,0.00719424
-0.0955743,0.00719424
0.0659088,0.00719424
-0.165716,0.00719424
0.000187505,0.00719424
-0.221402,0.00719424
-0.0738767,0.00719424
0.0496071,0.00719424
0.0239936,0.00719424
-0.0127705,0.00719424
-0.179844,0.00719424
0.0105877,0.00719424
0.0836038,0.00719424
0.0282902,0.00719424
-0.0707392,0.00719424
-0.0359453,0.00719424
0.141923,0.00719424
-0.147349,0.00719424
-0.0245407,0.00719424
0.200979,0.00719424
-0.138356,0.00719424
-0.0541301,0.00719424
-0.0400167,0.00719423
0.0505599,0.00719423
0.0362734,0.00719424
-0.0684002,0.00719424
-0.157121,0.00719424
-0.0560115,0.00719424
0.138791,0.00719424
-0.0490656,0.00719424
0.107172,0.00719424
0.106888,0.00719424
-0.0242889,0.00719424
0.0529617,0.00719424
0.131902,0.00719424
-0.0200775,0.00719424
-0.134549,0.00719424
0.0871395,0.00719423
-0.249166,0.00719423
-0.0994894,0.00719423
0.0522809,0.00719423
-0.0529425,0.00719424
-0.0439954,0.00719424
0.0864068,0.00719424
-0.0119624,0.00719424
0.0746323,0.00719424
0.016207,0.00719424
0.0861483,0.00719424
-0.0943679,0.00719424
0.156787,0.00719424
0.00665348,0.00719424
-0.0841766,0.00719424
-0.0244644,0.00719424
-0.0225409,0.00719424
-0.201072,0.00719424
-0.0648725,0.00719424
-0.0723876,0.00719424
-0.0117972,0.00719424
-0.074855,0.00719424
0.0520544,0.00719424
-0.085413,0.00719424
-0.0881578,0.00719424
0.0656319,0.00719424
-0.00615243,0.00719424
-0.00959456,0.00719424
0.0268956,0.00719424
-0.0270076,0.00719424
0.0406266,0.00719424
-0.00607197,0.00719424
-0.0359283,0.00719424
-0.223884,0.00719424
-0.0219426,0.00719424
-0.0317766,0.00719424
0.024198,0.00719424
0.066307,0.00719424
-0.0540533,0.00719424
0.0998161,0.00719424
0.176027,0.00719424
0.0150922,0.00719424
-0.00889453,0.00719424
0.0258099,0.00719424
0.0458195,0.00719424
-0.065233,0.00719424
-0.131903,0.00719424
-0.154692,0.00719424
-0.018435,0.00719424
-0.031295,0.00719424
0.0630331,0.00719424
-0.00563003,0.00719424
0.00553917,0.00719424
-0.09628,0.00719424
-0.23946,0.00719424
0.155072,0.00719424
-0.07306,0.00719424
-0.00565421,0.00719424
-0.13611,0.00719424
0.0228729,0.00719424
0.0704749,0.00719424
-0.070112,0.00719424
0.131361,0.00719424
-0.0368528,0.00719424
0.1384,0.00719418
0.0593121,0.00719418
-0.150884,0.00719418
-0.0671045,0.00719419
0.0784068,0.00719423
0.0768491,0.00719423
0.0135055,0.00719423
-0.131411,0.00719423
-0.0528017,0.00719423
-0.0364184,0.00719423
0.0300187,0.00719423
-0.01142,0.00719423
0.123548,0.00719423
0.0616648,0.00719423
-0.036697,0.00719423
-0.0222038,0.00719423
0.0119504,0.00719424
0.0230694,0.00719424
-0.182265,0.00719424
0.105477,0.00719424
-0.0267635,0.00719424
-0.00563711,0.00719424
-0.0356835,0.00719424
0.177719,0.00719424
-0.0300361,0.00719424
-0.0528253,0.00719424
0.0947765,0.00719424
0.117508,0.00719424
-0.00387696,0.00719424
-0.049068,0.00719424
0.0448849,0.00719424
-0.135197,0.00719424
-0.0383325,0.00719424
0.019342,0.00719424
0.0603209,0.00719424
0.0592202,0.00719424
0.0169717,0.00719424
-0.046042,0.00719424
0.0389413,0.00719424
-0.0761869,0.00719424
0.0459858,0.00719424
-0.0554072,0.00719424
0.0754034,0.00719424
-0.097665,0.00719424
-0.0665138,0.00719424
0.00514995,0.00719424
0.177011,0.00719424
-0.0012257,0.00719424
-0.0405169,0.00719423
0.0253083,0.00719422
-0.119947,0.00719422
-0.00150087,0.00719423
-0.00973888,0.00719424
0.211162,0.00719424
0.133961,0.00719424
0.0826155,0.00719424
0.109884,0.00719424
0.0430003,0.00719424
-0.0710015,0.00719424
-0.0350421,0.00719424
0.109117,0.00719424
0.133671,0.00719424
-0.0189398,0.00719424
-0.0522372,0.00719424
0.0331207,0.00719422
0.138104,0.00719421
0.0176987,0.00719421
0.103346,0.00719422
-0.0524273,0.00719423
0.124718,0.00719423
0.125365,0.00719423
-0.0568598,0.00719423
0.137987,0.00719423
-0.0575972,0.00719423
0.0315812,0.00719423
-0.0405657,0.00719423
-0.0168826,0.00719423
-0.0758722,0.00719424
0.0131425,0.00719424
0.0895737,0.00719423
-0.138062,0.00719424
0.0440435,0.00719424
0.0563667,0.00719424
-0.0452058,0.00719424
0.0967812,0.00719424
0.115109,0.00719424
-0.00478521,0.00719424
-0.119175,0.00719424
-0.143197,0.00719424
0.0208005,0.00719424
0.162657,0.00719424
0.0611051,0.00719424
0.0310082,0.00719424
-0.0409223,0.00719424
0.0239301,0.00719424
-0.0200031,0.00719424
-0.0323939,0.00719424
-0.00481118,0.00719424
0.132211,0.00719424
0.0827266,0.00719423
-0.00234369,0.00719424
0.221466,0.00719424
-0.0114295,0.00719424
-0.226013,0.00719424
0.0621007,0.00719424
0.0594511,0.00719424
0.016098,0.00719424
0.0126938,0.00719424
0.0689552,0.00719424
0.0439099,0.00719424
-0.0727104,0.00719424
-0.0981914,0.00719424
0.0646691,0.00719424
-0.209806,0.00719424
0.0346566,0.00719424
0.120427,0.00719424
-0.00963176,0.00719424
0.0792333,0.00719424
0.113211,0.00719424
-0.134318,0.00719424
-0.0491294,0.00719424
0.0865085,0.00719424
0.173225,0.00719424
-0.0444671,0.00719424
-0.0397301,0.00719424
-0.0208935,0.00719424
-0.0124443,0.00719424
0.0914636,0.00719424
-0.0119076,0.00719424
0.00729555,0.00719424
0.0583614,0.00719424
0.0461931,0.00719424
0.011446,0.00719424
-0.0842505,0.00719424
0.150152,0.00719424
0.163455,0.00719424
-0.0635467,0.00719424
0.0308509,0.00719424
0.0524664,0.00719424
-0.00423612,0.00719424
0.0297389,0.00719424
-0.0597335,0.00719424
-0.0938131,0.00719424
0.166836,0.00719424
-0.0473569,0.00719424
-0.0474538,0.00719424
0.00728923,0.00719424
-0.0252051,0.00719424
-0.0120596,0.00719424
-0.0918451,0.00719424
-0.0651334,0.00719424
-0.0206525,0.00719424
-0.0813875,0.00719424
-0.0154692,0.00719424
-0.0810646,0.00719424
0.050213,0.00719424
-0.0177463,0.00719424
0.0980194,0.00719424
-0.0596415,0.00719424
0.122698,0.00719424
-0.163914,0.00719424
-0.0690126,0.00719424
0.0583477,0.00719424
-0.10314,0.00719424
0.0422866,0.00719424
-0.126404,0.00719424
0.0725739,0.00719424
-0.0452377,0.00719424
-0.0478988,0.00719424
-0.115717,0.00719424
0.029707,0.00719424
-0.0592447,0.00719424
-0.047226,0.00719424
0.0345809,0.00719424
-0.0231621,0.00719424
-0.126211,0.00719424
-0.0499389,0.00719424
0.0437623,0.00719424
-0.00765329,0.00719424
-0.132206,0.00719424
-0.093274,0.00719424
-0.0123275,0.00719424
0.0838111,0.00719424
-0.0506817,0.00719424
0.0373305,0.00719424
-0.0893461,0.00719424
0.0334739,0.00719424
0.181748,0.00719424
-0.0734464,0.00719424
-0.0715524,0.00719424
-0.0219967,0.00719424
-0.0923895,0.00719424
0.109866,0.00719424
-0.161459,0.00719424
-0.020657,0.00719424
0.181737,0.00719424
-0.187753,0.00719424
-0.064848,0.00719424
0.0907869,0.00719424
-0.0862779,0.00719424
0.0387258,0.00719424
-0.0805703,0.00719424
-0.093388,0.00719424
-0.0928003,0.00719424
-0.0283719,0.00719424
0.199145,0.00719424
0.0563113,0.00719424
-0.223434,0.00719424
-0.152678,0.00719424
-0.104376,0.00719424
-0.160331,0.00719424
0.110282,0.00719424
-0.0225626,0.00719424
0.074745,0.00719424
0.0604461,0.00719424
-0.137659,0.00719424
0.0920102,0.00719424
0.0111069,0.00719424
-0.0808531,0.00719424
-0.047642,0.00719424
-0.0322384,0.00719424
-0.0507752,0.00719424
-0.075251,0.00719424
0.0470132,0.00719424
-0.193638,0.00719424
-0.0360601,0.00719424
-0.137527,0.00719424
-0.117546,0.00719424
-0.0237017,0.00719424
0.0690041,0.00719424
-0.00538914,0.00719424
0.00495016,0.00719424
-0.0213617,0.00719424
-0.0275622,0.00719424
0.0152878,0.00719424
0.100107,0.00719424
-0.107536,0.00719424
0.0371208,0.00719424
0.0938407,0.00719424
-0.0499742,0.00719424
0.0166428,0.00719424
-0.0301149,0.00719424
0.0790306,0.00719424
0.0163565,0.00719424
0.0828166,0.00719424
0.105537,0.00719424
-0.166741,0.00719424
-0.213344,0.00719424
0.119461,0.00719424
0.0559031,0.00719424
0.121666,0.00719424
-0.031533,0.00719424
0.0331996,0.00719424
0.037494,0.00719424
0.169862,0.00719424
-0.0625055,0.00719424
0.00982842,0.00719424
0.0372977,0.00719424
-0.133122,0.00719424
-0.0867112,0.00719424
0.0790357,0.00719424
0.0634542,0.00719424
0.16365,0.00719424
-0.0773984,0.00719424
-0.0649209,0.00719424
0.0426511,0.00719424
-0.0264,0.00719424
-0.0940587,0.00719424
-0.120372,0.00719424
-0.0826216,0.00719424
0.0636718,0.00719424
-0.0979463,0.00719424
-0.0290847,0.00719424
-0.106724,0.00719424
-0.0403083,0.00719424
0.106078,0.00719424
0.0509377,0.00719424
0.00251263,0.00719424
0.00112483,0.00719424
0.0906875,0.00719424
-0.181213,0.00719424
0.0297524,0.00719424
0.0663914,0.00719424
-0.0244774,0.00719424
-0.161306,0.00719424
0.0478216,0.00719424
0.0422008,0.00719424
-0.0774876,0.00719424
0.0265612,0.00719424
0.063707,0.00719424
0.0826575,0.00719424
-0.217884,0.00719424
0.040498,0.00719424
-0.00131902,0.00719424
-0.0287897,0.00719424
-0.0240305,0.00719424
-0.0436342,0.00719424
-0.201619,0.00719424
0.0700763,0.00719424
0.0407976,0.00719424
0.00778678,0.00719424
-0.0427064,0.00719424
0.0579006,0.00719424
0.0800306,0.00719424
-0.000504042,0.00719424
0.159323,0.00719424
0.117022,0.00719424
-0.0416188,0.00719424
0.0640673,0.00719424
-0.130881,0.00719424
0.0113198,0.00719424
-0.000895304,0.00719424
-0.109348,0.00719424
0.0126378,0.00719424
0.116302,0.00719424
-0.0710211,0.00719424
-0.0231472,0.00719424
0.0435308,0.00719424
-0.0398697,0.00719424
0.0613785,0.00719424
0.0302639,0.00719424
-0.0362599,0.00719424
0.123948,0.00719424
0.0635169,0.00719424
0.106396,0.00719424
-0.012939,0.00719424
0.04568,0.00719424
0.0658173,0.00719424
-0.0540957,0.00719424
0.00784486,0.00719424
-0.0471961,0.00719424
0.100677,0.00719424
0.0462544,0.00719424
0.0496623,0.00719424
0.109071,0.00719424
0.0145448,0.00719424
0.0721533,0.00719424
-0.0117741,0.00719424
-0.0989901,0.00719424
0.0469226,0.00719424
0.0235542,0.00719424
0.0437914,0.00719424
0.0803668,0.00719424
0.0334278,0.00719424
-0.108317,0.00719424
0.00887741,0.00719424
-0.0371798,0.00719424
0.0387109,0.00719424
-0.0454737,0.00719424
-0.0179165,0.00719424
-0.0763955,0.00719424
-0.124204,0.00719424
0.0223105,0.00719424
-0.157651,0.00719424
0.000972137,0.00719424
0.0893223,0.00719424
0.0599858,0.00719424
-0.0810729,0.00719424
0.0288265,0.00719424
0.238837,0.00719424
-0.114539,0.00719424
0.0998115,0.00719424
0.0847717,0.00719424
-0.00218895,0.00719424
0.119749,0.00719424
0.0407976,0.00719424
0.0751444,0.00719424
-0.129433,0.00719424
0.0813612,0.00719424
-0.049177,0.00719424
0.0615943,0.00719424
-0.100168,0.00719424
-0.227207,0.00719424
0.0445939,0.00719424
-0.0266243,0.00719424
0.0757506,0.00719424
0.0182052,0.00719424
-0.0352197,0.00719424
0.0209818,0.00719424
-0.00027212,0.00719424
0.0726127,0.00719424
-0.00522005,0.00719424
0.037842,0.00719424
0.0890703,0.00719424
-0.00556845,0.00719422
-0.000110044,0.00719422
-0.0953988,0.00719422
0.0208315,0.00719422
0.137584,0.00719424
-0.033377,0.00719424
-0.046096,0.00719424
-0.100325,0.00719424
-0.100193,0.00719424
0.0431851,0.00719424
0.0890313,0.00719424
0.00123671,0.00719424
0.0339971,0.00719424
-0.056919,0.00719424
-0.0045371,0.00719424
0.0206474,0.00719424
-0.0189468,0.00719424
-0.0799795,0.00719424
0.0715541,0.00719424
0.0353659,0.00719424
0.15138,0.00719424
0.022542,0.00719424
-0.0286229,0.00719424
0.141681,0.00719424
-0.0664698,0.00719424
0.136451,0.00719424
-0.103939,0.00719424
-0.0140286,0.00719424
-0.057604,0.00719424
0.0999673,0.00719424
-0.0515239,0.00719424
-0.00295401,0.00719424
0.00550641,0.00719424
-0.0364722,0.00719424
-0.084243,0.00719424
-0.0770977,0.00719424
0.0538262,0.00719424
0.0269586,0.00719424
0.0221869,0.00719424
-0.163124,0.00719424
-0.0628576,0.00719424
0.0629572,0.00719424
-0.123383,0.00719424
0.0386177,0.00719424
-0.0511735,0.00719424
-0.0935939,0.00719424
0.0650241,0.00719424
0.0369295,0.00719424
0.0873695,0.00719424
0.101441,0.00719423
-0.0642093,0.00719423
-0.0503694,0.00719424
0.0610781,0.00719424
0.0327783,0.00719424
0.0489839,0.00719424
0.111417,0.00719424
0.0509061,0.00719424
0.128748,0.00719424
-0.0603028,0.00719424
-0.0363112,0.00719424
-0.0430494,0.00719424
-0.0228039,0.00719424
-0.0683697,0.00719424
-0.0453701,0.00719424
-0.00264307,0.00719423
0.116297,0.00719423
0.104875,0.00719423
0.106892,0.00719423
-0.0450849,0.00719424
-0.0863133,0.00719424
0.00167572,0.00719424
0.0765078,0.00719424
-0.0720921,0.00719424
-0.00306363,0.00719424
-0.0191277,0.00719424
-0.0386135,0.00719424
0.0597574,0.00719424
0.000171232,0.00719424
-0.037246,0.00719424
-0.110377,0.00719424
-0.00415982,0.00719424
0.0375572,0.00719424
-0.0660129,0.00719424
-0.0298324,0.00719424
0.0960756,0.00719424
0.076631,0.00719424
0.0346578,0.00719424
-0.154319,0.00719424
-0.0565124,0.00719424
-0.00947548,0.00719424
0.0278928,0.00719424
-0.0687013,0.00719424
0.166718,0.00719424
0.0244677,0.00719424
0.0677088,0.00719424
0.0999369,0.00719424
-0.127353,0.00719424
0.201071,0.00719424
-0.0384731,0.00719424
-0.0175839,0.00719424
0.107739,0.00719424
-0.108335,0.00719424
0.0832501,0.00719424
0.0513117,0.00719424
-0.0622938,0.00719424
-0.0124698,0.00719424
0.0184936,0.00719424
-0.0500922,0.00719424
0.166953,0.00719424
-0.0164066,0.00719424
0.0365132,0.00719424
-0.0521336,0.00719424
-0.113145,0.00719424
-0.0195378,0.00719424
0.0466889,0.00719424
0.128841,0.00719424
0.0467258,0.00719424
-0.077767,0.00719424
-0.0681547,0.00719424
-0.10375,0.00719424
0.0616523,0.00719424
0.113963,0.00719424
-0.0120348,0.00719424
-0.0194129,0.00719424
-0.00363733,0.00719424
-0.0981398,0.00719424
0.0225926,0.00719424
-0.0204394,0.00719424
0.0528726,0.00719424
-0.105863,0.00719424
0.00885819,0.00719424
-0.049943,0.00719424
-0.0693949,0.00719424
-0.0190598,0.00719424
0.10223,0.00719424
0.0108054,0.00719424
-0.0453584,0.00719424
-0.143831,0.00719424
0.044178,0.00719424
-0.0830018,0.00719424
-0.0943611,0.00719424
0.127065,0.00719424
0.10311,0.00719424
0.0547288,0.00719424
-0.132073,0.00719424
0.179495,0.00719424
-0.00786464,0.00719424
0.125377,0.00719424
-0.0565744,0.00719424
0.110792,0.00719424
-0.0548232,0.00719424
-0.104363,0.00719424
-0.0299173,0.00719424
0.0350426,0.00719424
0.0541756,0.00719424
-0.159054,0.00719424
0.0305034,0.00719424
0.0266925,0.00719424
0.0997181,0.00719424
0.0776392,0.00719424
-0.130595,0.00719424
0.106553,0.00719424
-0.0108922,0.00719424
-0.0471833,0.00719424
0.0475547,0.00719424
-0.113492,0.00719424
0.00808436,0.00719424
0.103948,0.00719424
-0.00322545,0.00719424
-0.0397101,0.00719424
0.0445974,0.00719424
0.17658,0.00719424
0.0582834,0.00719424
0.111951,0.00719424
0.0615761,0.00719424
0.0947379,0.00719424
0.0803708,0.00719424
-0.0128467,0.00719424
0.0789094,0.00719424
-0.0561131,0.00719424
0.0555413,0.00719424
0.0191904,0.00719424
0.00720506,0.00719424
-0.0144095,0.00719424
-0.0683613,0.00719424
-0.0013846,0.00719424
0.0682874,0.00719424
0.0704019,0.00719424
-0.10318,0.00719424
-0.182889,0.00719424
-0.0174974,0.00719424
0.155929,0.00719424
-0.0864944,0.00719424
0.0528824,0.00719424
0.0236414,0.00719424
0.0524678,0.00719424
-0.0244576,0.00719424
0.03478,0.00719424
0.128917,0.00719424
-0.0549875,0.00719424
0.00204625,0.00719424
-0.0841305,0.00719424
0.0223528,0.00719424
-0.192365,0.00719424
0.121178,0.00719424
0.0618485,0.00719424
-0.121844,0.00719424
-0.0563769,0.00719424
-0.0361701,0.00719424
-0.107803,0.00719424
-0.0141792,0.00719424
-0.0820003,0.00719424
-0.0272729,0.00719424
-0.00301985,0.00719424
-0.00915095,0.00719424
-0.0437763,0.00719424
-0.064678,0.00719424
-0.0927148,0.00719424
0.101023,0.00719424
0.100111,0.00719424
-0.0250339,0.00719424
-0.0720669,0.00719424
0.0316723,0.00719424
-0.114683,0.00719424
0.0681288,0.00719424
0.0122109,0.00719424
-0.0650897,0.00719424
0.0314883,0.00719424
-0.0101919,0.00719424
0.0840444,0.00719424
0.0749344,0.00719424
0.0433758,0.00719424
-0.0753699,0.00719424
0.0191304,0.00719424
-0.000529169,0.00719424
-0.102007,0.00719424
0.0784252,0.00719424
0.0688504,0.00719424
-0.142731,0.00719424
-0.00343053,0.00719424
0.0737616,0.00719424
-0.104189,0.00719424
0.107484,0.00719424
-0.0938176,0.00719424
0.02829,0.00719424
0.0109588,0.00719424
0.0789588,0.00719424
0.0986955,0.00719424
-0.10941,0.00719424
-0.22547,0.00719424
0.00259397,0.00719424
-0.18673,0.00719424
-0.0895587,0.00719424
0.0426288,0.00719424
0.00435569,0.00719424
0.0611429,0.00719424
-0.108227,0.0071942
-0.0393676,0.0071942
0.00350492,0.0071942
0.113738,0.00719421
-0.00428138,0.00719423
-0.0774723,0.00719423
-0.0998081,0.00719423
-0.00911084,0.00719423
-0.0430898,0.00719423
-0.00644341,0.00719423
0.14661,0.00719423
-0.179873,0.00719423
0.111832,0.00719423
-0.182138,0.00719423
0.0564088,0.00719423
-0.158465,0.00719423
-0.100576,0.00719424
0.0318604,0.00719424
0.0475624,0.00719424
-0.0742492,0.00719424
-0.0990683,0.00719424
0.0802283,0.00719424
0.159473,0.00719424
-0.0430671,0.00719424
-0.199546,0.00719424
0.0183449,0.00719424
0.12251,0.00719424
-0.0755518,0.00719424
0.0847578,0.00719424
-0.0962305,0.00719424
-0.0601608,0.00719424
0.0540167,0.00719424
-0.158225,0.00719424
0.0203943,0.00719424
-0.00994616,0.00719424
-0.150108,0.00719424
0.129516,0.00719424
0.087485,0.00719424
0.0158747,0.00719424
-0.0699675,0.00719424
-0.107878,0.00719424
0.0649906,0.00719424
0.0402624,0.00719424
0.0312972,0.00719424
0.029029,0.00719424
-0.0158582,0.00719424
0.0331639,0.00719424
0.0944357,0.00719424
-0.0522842,0.00719423
-0.0520256,0.00719423
-0.118022,0.00719423
0.176359,0.00719423
0.0103404,0.00719424
0.121149,0.00719424
-0.055692,0.00719424
0.00200994,0.00719424
0.105988,0.00719424
0.021776,0.00719424
0.0790228,0.00719424
-0.0217672,0.00719424
-0.115423,0.00719424
-0.000865208,0.00719424
0.0388444,0.00719424
-0.0019194,0.00719424
-0.141543,0.00719422
-0.0451718,0.00719422
-0.046756,0.00719422
-0.0340519,0.00719422
0.0326048,0.00719423
0.168302,0.00719424
-0.128163,0.00719424
0.117778,0.00719423
-0.0522211,0.00719423
-0.00105881,0.00719424
-0.0646772,0.00719424
-0.026983,0.00719423
0.00225392,0.00719424
0.0166819,0.00719424
-0.103862,0.00719424
0.000131381,0.00719424
0.0141871,0.00719424
-0.0397105,0.00719424
0.0889476,0.00719424
0.0692101,0.00719424
0.0499719,0.00719424
0.118428,0.00719424
0.0273911,0.00719424
-0.0394547,0.00719424
0.0892734,0.00719424
-0.105367,0.00719424
-0.176379,0.00719424
-0.00807295,0.00719424
0.00783072,0.00719424
-0.00905101,0.00719424
0.0827537,0.00719424
0.155143,0.00719424
-0.0391633,0.00719424
0.204581,0.00719424
-0.22219,0.00719424
0.0606473,0.00719423
0.117858,0.00719424
-0.00108879,0.00719424
-0.0419891,0.00719424
0.0735883,0.00719424
0.113654,0.00719424
-0.0276387,0.00719424
0.159681,0.00719424
0.0304168,0.00719424
-0.0722323,0.00719424
-0.111295,0.00719424
-0.100803,0.00719424
-0.184309,0.00719424
-0.0268122,0.00719424
0.0261102,0.00719424
0.0112593,0.00719424
0.0176278,0.00719424
0.119301,0.00719424
-0.0141876,0.00719424
0.140561,0.00719424
0.00507029,0.00719424
-0.0308204,0.00719424
-0.0108864,0.00719424
0.108146,0.00719424
0.0229982,0.00719424
0.0182281,0.00719424
0.0640497,0.00719424
0.0200356,0.00719424
-0.129106,0.00719424
-0.028219,0.00719424
-0.0469392,0.00719424
-0.0662975,0.00719424
-0.157168,0.00719424
0.0975638,0.00719424
-0.0149397,0.00719424
-0.107585,0.00719424
-0.079908,0.00719424
-0.0339185,0.00719424
0.0258234,0.00719424
-0.101229,0.00719424
-0.143121,0.00719424
0.0525642,0.00719424
-0.0305144,0.00719424
0.0315823,0.00719424
0.081368,0.00719424
-0.0260694,0.00719424
-0.0546194,0.00719424
-0.0684228,0.00719424
0.0293923,0.00719424
0.00684069,0.00719424
-0.0168871,0.00719424
-0.0143557,0.00719424
-0.15518,0.00719424
0.0459249,0.00719424
-0.0287782,0.00719424
0.0325204,0.00719424
0.0781233,0.00719424
-0.0746101,0.00719424
-0.0895823,0.00719424
0.0521301,0.00719424
-0.0407669,0.00719424
0.0462317,0.00719424
0.0952405,0.00719424
-0.0605538,0.00719424
-0.0180985,0.00719424
-0.0619365,0.00719424
-0.00767611,0.00719424
-0.0670927,0.00719424
-0.167654,0.00719424
0.0469178,0.00719424
-0.0862638,0.00719424
0.030419,0.00719424
0.00819995,0.00719424
-0.020128,0.00719424
0.0477699,0.00719424
-0.0185013,0.00719424
0.0456091,0.00719424
-0.0194227,0.00719424
0.0631206,0.00719424
0.078546,0.00719424
-0.0728129,0.00719424
0.0280607,0.00719424
-0.0430496,0.00719424
0.0250226,0.00719424
0.0317104,0.00719424
0.0885636,0.00719424
0.00834078,0.00719424
0.0500801,0.00719424
-0.0118273,0.00719424
-0.174984,0.00719424
-0.0700435,0.00719424
-0.00282619,0.00719424
0.037858,0.00719424
-0.110383,0.00719424
0.0629649,0.00719424
0.0419011,0.00719424
-0.0367384,0.00719424
0.0209884,0.00719424
-0.159044,0.00719424
-0.0829857,0.00719424
0.113772,0.00719424
-0.128674,0.00719424
-0.000465388,0.00719424
-0.00276312,0.00719424
0.174727,0.00719424
-0.0290051,0.00719424
0.0670421,0.00719424
0.0845398,0.00719424
-0.0191011,0.00719424
-0.0910189,0.00719424
-0.0645356,0.00719424
0.116467,0.00719424
0.126327,0.00719424
0.00590806,0.00719424
-0.0199957,0.00719424
-0.011186,0.00719424
-0.103901,0.00719424
-0.183133,0.00719424
0.0264058,0.00719424
-0.0591249,0.00719424
0.156833,0.00719424
0.124176,0.00719424
-0.0346914,0.00719424
0.0261301,0.00719424
0.0632142,0.00719424
0.116836,0.00719424
-0.0156105,0.00719424
0.131455,0.00719424
-0.00953766,0.00719424
0.0160293,0.00719424
-0.134741,0.00719424
-0.0980521,0.00719424
0.148024,0.00719424
0.0160561,0.00719424
-0.0326485,0.00719424
0.0592547,0.00719424
0.146524,0.00719424
0.0176323,0.00719424
0.0236659,0.00719424
0.152988,0.00719424
-0.0294056,0.00719424
-0.0177524,0.00719424
-0.0236653,0.00719424
0.00813554,0.00719424
-0.0489882,0.00719424
-0.0124406,0.00719424
0.00985709,0.00719424
0.0199901,0.00719424
-0.132746,0.00719424
-0.000969901,0.00719424
0.0418535,0.00719424
0.109477,0.00719424
0.0149715,0.00719424
0.0341726,0.00719424
0.0551596,0.00719424
-0.108727,0.00719424
0.00224212,0.00719424
-0.22024,0.00719424
0.0507678,0.00719424
-0.155789,0.00719424
-0.0891733,0.00719424
0.112567,0.00719424
0.143569,0.00719424
0.0649892,0.00719424
-0.193872,0.00719424
0.0324425,0.00719424
-0.129311,0.00719424
0.191467,0.00719424
-0.028097,0.00719424
-0.0174779,0.00719424
-0.0712754,0.00719424
0.0247594,0.00719424
0.145381,0.00719424
0.0190911,0.00719424
-0.101826,0.00719424
0.0396697,0.00719424
-0.0144124,0.00719424
0.080384,0.00719424
-0.0778319,0.00719424
-0.0264819,0.00719424
0.0224913,0.00719424
-0.0376365,0.00719424
-0.140686,0.00719424
-0.112513,0.00719424
-0.0811538,0.00719424
0.13361,0.00719424
-0.0532772,0.00719424
-0.0664484,0.00719424
-0.000188281,0.00719424
0.151625,0.00719424
-0.0332813,0.00719424
0.0404627,0.00719424
0.045893,0.00719424
0.0466133,0.00719424
-0.0400716,0.00719424
-0.0271543,0.00719424
-0.121052,0.00719424
-0.0296462,0.00719424
-0.110084,0.00719424
-0.155826,0.00719424
0.178089,0.00719424
-0.122298,0.00719424
-0.0466155,0.00719424
0.117654,0.00719424
-0.0121123,0.00719424
0.00563752,0.00719424
0.0790069,0.00719424
0.0016455,0.00719424
-0.129361,0.00719424
0.00700253,0.00719424
-0.00196361,0.00719424
0.14565,0.00719424
-0.063326,0.00719424
0.00984057,0.00719424
-0.101217,0.00719424
0.0318647,0.00719424
0.0404184,0.00719424
0.0409724,0.00719424
-0.136576,0.00719424
-0.131823,0.00719424
-0.144676,0.00719424
0.0576677,0.00719424
0.0539812,0.00719424
-0.0633595,0.00719424
0.0750648,0.00719424
0.0352607,0.00719424
0.0406881,0.00719424
0.201769,0.00719424
0.00868595,0.00719424
0.0856659,0.00719424
0.0628856,0.00719424
0.0710233,0.00719424
-0.00544974,0.00719424
-0.153696,0.00719424
0.0613396,0.00719424
0.0481068,0.00719424
0.0903378,0.00719424
0.176217,0.00719424
-0.127757,0.00719424
0.0239314,0.00719424
0.0369418,0.00719424
-0.0712867,0.00719424
-0.0357598,0.00719424
0.0412867,0.00719424
-0.0800039,0.00719424
-0.0475176,0.00719424
-0.112059,0.00719424
0.0561643,0.00719424
-0.0874523,0.00719424
0.0351683,0.00719424
-0.00420342,0.00719424
0.0673226,0.00719424
0.187036,0.00719424
0.0687873,0.00719424
-0.139876,0.00719424
-0.0745504,0.00719424
-0.11157,0.00719424
0.00464247,0.00719424
-0.0810293,0.00719424
0.0176204,0.00719424
-0.0738776,0.00719424
-0.0306303,0.00719424
-0.0245794,0.00719424
-0.103384,0.00719424
-0.027257,0.00719424
-0.156975,0.00719424
-0.0414729,0.00719424
-0.170696,0.00719424
-0.0571248,0.00719424
0.0801694,0.00719424
0.0836844,0.00719424
-0.0195439,0.00719424
-0.064677,0.00719424
-0.204036,0.00719424
0.0471778,0.00719424
0.0287099,0.00719424
-0.17308,0.00719424
-0.0331761,0.00719424
0.0668191,0.00719424
0.04845,0.00719424
-0.0775947,0.00719424
0.0751752,0.00719424
-0.0652284,0.00719424
0.0583521,0.00719424
-0.100549,0.00719424
-0.105029,0.00719424
0.226174,0.00719424
-0.0918679,0.00719424
-0.0814972,0.00719424
0.0134652,0.00719424
-0.0776245,0.00719424
-0.0445398,0.00719424
0.0165165,0.00719424
-0.114811,0.00719424
-0.109463,0.00719424
-0.202275,0.00719424
0.0442808,0.00719424
-0.00182035,0.00719424
0.020347,0.00719424
0.0349595,0.00719424
0.0460334,0.00719424
0.119132,0.00719424
0.0650309,0.00719424
0.073335,0.00719424
-0.0607826,0.00719424
0.068573,0.00719424
-0.0875386,0.00719424
0.0373267,0.00719424
-0.110675,0.00719424
0.0555637,0.00719424
0.00489542,0.00719424
-0.0110555,0.00719424
-0.0360403,0.00719424
-0.0451102,0.00719424
0.0901673,0.00719424
-0.0212451,0.00719424
0.0327519,0.00719424
0.116343,0.00719424
-0.0582285,0.00719424
0.181371,0.00719424
-0.0473321,0.00719424
0.0579984,0.00719424
-0.117583,0.00719424
0.0742269,0.00719424
0.140034,0.00719424
-0.193119,0.00719424
-0.0199103,0.00719424
-0.000774494,0.00719424
-0.0259105,0.00719424
0.0227216,0.00719424
-0.102998,0.00719424
-0.0921537,0.00719424
0.0938089,0.00719424
0.123764,0.00719424
0.0264505,0.00719424
-0.0758055,0.00719424
-0.109434,0.00719424
0.0374309,0.00719424
0.0771877,0.00719424
0.156557,0.00719424
0.00601516,0.00719424
-0.00409361,0.00719424
0.018446,0.00719424
-0.0862757,0.00719424
0.230275,0.00719424
-0.0688264,0.00719424
-0.0493299,0.00719424
0.0617135,0.00719424
0.0945659,0.00719424
-0.162829,0.00719424
-0.036494,0.00719424
-0.0621384,0.00719424
-0.0546804,0.00719424
-0.0590697,0.00719424
0.0219828,0.00719424
0.065048,0.00719424
-0.0516539,0.00719424
-0.100925,0.00719424
0.0453208,0.00719424
0.0609251,0.00719424
-0.0738398,0.00719424
0.0817085,0.00719424
0.0895324,0.00719424
-0.0693324,0.00719424
0.0624544,0.00719424
0.0465885,0.00719424
0.0767689,0.00719424
0.0915531,0.00719424
-0.0347018,0.00719424
-0.206219,0.00719424
0.116292,0.00719424
-0.016337,0.00719424
0.0568668,0.00719424
0.139251,0.00719424
-0.0620846,0.00719424
-0.0352705,0.00719424
-0.0416479,0.00719424
-0.122304,0.00719424
0.0491963,0.00719424
-0.146834,0.00719424
0.163932,0.00719424
0.0946922,0.00719424
0.00624867,0.00719424
0.071067,0.00719424
-0.066243,0.00719424
-0.075687,0.00719424
0.0999607,0.00719424
-0.0399982,0.00719424
-0.0608573,0.00719424
-0.0943291,0.00719424
-0.0680408,0.00719424
0.0309732,0.00719424
-0.115964,0.00719424
-0.00622533,0.00719424
-0.0586787,0.00719424
-0.230656,0.00719424
0.0717392,0.00719424
0.0127407,0.00719424
0.053573,0.00719424
0.00821139,0.00719424
0.0756981,0.00719424
-0.0189249,0.00719424
0.058488,0.00719424
-0.086284,0.00719424
-0.029272,0.00719424
0.0592506,0.00719424
-0.00741985,0.00719424
0.051815,0.00719424
-0.0461266,0.00719424
0.0207416,0.00719424
-0.0410555,0.00719424
-0.0647637,0.00719424
0.115036,0.00719424
0.0610501,0.00719424
-0.147079,0.00719424
-0.0622646,0.00719424
-0.066257,0.00719424
-0.115288,0.00719424
-0.00136446,0.00719424
0.0927452,0.00719424
0.023728,0.00719424
0.0470009,0.00719424
-0.0701825,0.00719424
-0.0667419,0.00719424
0.0640379,0.00719424
0.125767,0.00719424
-0.0022649,0.00719424
-0.123613,0.00719424
-0.0765768,0.00719424
0.0877775,0.00719424
0.0748896,0.00719424
0.0175076,0.00719424
-0.0484488,0.00719424
-0.0473451,0.00719424
-0.0420282,0.00719424
0.00416472,0.00719424
0.0272515,0.00719424
0.0706522,0.00719424
0.0446253,0.00719424
-0.0559789,0.00719424
0.103895,0.00719424
-0.0922817,0.00719424
-0.0517728,0.00719424
0.0218317,0.00719424
0.0385524,0.00719424
0.0612398,0.00719424
-0.0469913,0.00719424
0.0168428,0.00719424
-0.105127,0.00719424
-0.0618713,0.00719424
-0.0575617,0.00719424
0.00607489,0.00719424
-0.123089,0.00719424
0.0110653,0.00719424
-0.0911766,0.00719424
-0.0623257,0.00719424
-0.0191918,0.00719424
-0.0879145,0.00719424
0.0270633,0.00719424
-0.126521,0.00719424
0.00151101,0.00719424
0.0283958,0.00719424
-0.143388,0.00719424
0.0514639,0.00719424
-0.114011,0.00719424
0.0310656,0.00719424
-0.096071,0.00719424
0.0463259,0.00719424
-0.151199,0.00719424
0.076367,0.00719424
0.0117507,0.00719424
-0.109891,0.00719424
-0.0712618,0.00719424
-0.102822,0.00719424
0.0793552,0.00719424
-0.115107,0.00719424
-0.112801,0.00719424
-0.00323616,0.00719424
-0.120082,0.00719424
-0.0382549,0.00719424
0.0628111,0.00719424
0.0233339,0.00719424
0.0190475,0.00719424
0.0362703,0.00719424
0.0462186,0.00719424
-0.0672324,0.00719424
0.142326,0.00719424
0.0436669,0.00719424
-0.0753943,0.00719424
0.0301308,0.00719424
0.0613683,0.00719424
-0.0245938,0.00719424
0.0545154,0.00719424
0.0420207,0.00719424
-0.13828,0.00719424
-0.0874331,0.00719424
0.0439133,0.00719424
-0.147515,0.00719424
-0.052648,0.00719424
-0.0691419,0.00719424
0.0488031,0.00719424
0.0612471,0.00719424
0.00763215,0.00719424
-0.0836611,0.00719424
-0.0563744,0.00719424
0.0711028,0.00719424
0.10538,0.00719424
-0.0478756,0.00719424
0.00916795,0.00719424
-0.11164,0.00719424
-0.0928147,0.00719424
0.0103548,0.00719424
-0.0249967,0.00719424
-0.133521,0.00719424
-0.0313946,0.00719424
0.0594326,0.00719424
-0.0889202,0.00719424
0.0274288,0.00719424
-0.0145759,0.00719424
-0.0137796,0.00719424
0.0169912,0.00719424
-0.0568079,0.00719424
-0.080898,0.00719424
-0.000974062,0.00719424
0.0925769,0.00719424
-0.0247848,0.00719424
-0.0614402,0.00719424
0.00673605,0.00719424
0.0505314,0.00719424
-0.00968499,0.00719424
0.098829,0.00719424
0.00958018,0.00719424
0.0264084,0.00719424
-0.00820813,0.00719424
-0.137948,0.00719424
-0.100169,0.00719424
-0.101776,0.00719424
0.0186725,0.00719424
0.039603,0.00719424
0.059002,0.00719424
-0.101454,0.00719424
0.0120384,0.00719418
-0.050127,0.00719418
0.0241854,0.00719418
0.0824264,0.00719419
0.150022,0.00719423
0.0305459,0.00719423
0.0855121,0.00719423
0.0734038,0.00719423
0.0585668,0.00719423
0.0208355,0.00719423
-0.0406763,0.00719423
-0.0877911,0.00719423
0.033765,0.00719423
0.0266564,0.00719423
-0.12933,0.00719423
-0.0615495,0.00719423
-0.0517623,0.00719424
0.00532046,0.00719424
0.0404444,0.00719424
0.0639306,0.00719424
0.0199583,0.00719424
-0.0433983,0.00719424
-0.151308,0.00719424
0.0287188,0.00719424
-0.144416,0.00719424
0.108491,0.00719424
-0.0670706,0.00719424
0.0253749,0.00719424
0.0699637,0.00719424
-0.0118884,0.00719424
0.0507239,0.00719424
0.275327,0.00719424
-0.033196,0.00719424
-0.0115217,0.00719424
0.0496864,0.00719424
0.00298785,0.00719424
-0.132125,0.00719424
0.0952029,0.00719424
-0.0525673,0.00719424
-0.0638814,0.00719424
0.105986,0.00719424
-0.061527,0.00719424
0.0760141,0.00719424
0.0721692,0.00719424
-0.0356815,0.00719424
-0.013477,0.00719424
-0.193376,0.00719424
0.116871,0.00719424
-0.125875,0.00719423
-0.0895074,0.00719422
-0.0174571,0.00719422
0.0724094,0.00719423
0.0570302,0.00719424
-0.0712779,0.00719424
-0.00105231,0.00719424
-0.0824539,0.00719424
-0.102203,0.00719424
-0.0213891,0.00719424
-0.140707,0.00719424
0.12087,0.00719424
0.0017411,0.00719424
-0.0341785,0.00719424
0.0813755,0.00719424
-0.0801437,0.00719424
0.0165882,0.00719422
0.0625279,0.00719421
-0.120802,0.00719421
0.0159838,0.00719422
-0.0514629,0.00719423
0.0075203,0.00719423
0.00112472,0.00719423
0.161331,0.00719423
-0.0184325,0.00719423
0.0120603,0.00719423
-0.0264607,0.00719423
-0.125599,0.00719423
-0.100522,0.00719423
-0.0656404,0.00719424
-0.0613367,0.00719424
-0.082073,0.00719423
0.0738393,0.00719424
0.0502864,0.00719424
-0.060677,0.00719424
0.0275483,0.00719424
-0.120407,0.00719424
0.0520712,0.00719424
0.0375113,0.00719424
0.00979744,0.00719424
-0.0443058,0.00719424
-0.0165546,0.00719424
0.0532832,0.00719424
-0.085065,0.00719424
-0.0543261,0.00719424
0.061519,0.00719424
0.0800433,0.00719424
-0.081342,0.00719424
-0.00764498,0.00719424
0.130492,0.00719424
0.111601,0.00719424
0.0575648,0.00719423
0.0923671,0.00719424
0.0854756,0.00719424
-0.0835606,0.00719424
-0.0774334,0.00719424
-0.0273916,0.00719424
-0.101631,0.00719424
0.0104366,0.00719424
0.191613,0.00719424
0.0408316,0.00719424
0.0505816,0.00719424
0.0140713,0.00719424
0.0749986,0.00719424
-0.0268319,0.00719424
0.013946,0.00719424
0.125617,0.00719424
-0.12463,0.00719424
0.0536738,0.00719424
0.0357197,0.00719424
0.0577704,0.00719424
-0.149107,0.00719424
0.0721143,0.00719424
0.0418378,0.00719424
0.0516498,0.00719424
0.0396447,0.00719424
-0.0348449,0.00719424
-0.141308,0.00719424
-0.130835,0.00719424
-0.0706231,0.00719424
0.0919641,0.00719423
-0.140794,0.00719423
-0.0409563,0.00719423
0.0554119,0.00719423
-0.108553,0.00719424
-0.00915553,0.00719424
-0.00661741,0.00719424
-0.142021,0.00719424
-0.0380406,0.00719424
0.0663915,0.00719424
-0.0913046,0.00719424
0.104558,0.00719424
-0.0419855,0.00719424
0.0112752,0.00719424
0.0373799,0.00719424
0.00817927,0.00719424
-0.0557025,0.00719424
-0.0443518,0.00719424
0.0540758,0.00719424
-0.0965498,0.00719424
0.0442742,0.00719424
0.0723148,0.00719424
0.0482915,0.00719424
0.160475,0.00719424
0.121976,0.00719424
-0.143871,0.00719424
0.0499586,0.00719424
-0.0232424,0.00719424
0.00329296,0.00719424
0.0935217,0.00719424
-0.0145672,0.00719424
-0.031972,0.00719424
0.232303,0.00719424
-0.137812,0.00719424
-0.0511914,0.00719424
0.0136629,0.00719424
-0.0711308,0.00719424
-0.00187323,0.00719424
-0.10792,0.00719424
0.00425543,0.00719424
0.0332764,0.00719424
-0.0839523,0.00719424
-0.165808,0.00719424
-0.00574539,0.00719424
0.0618182,0.00719424
-0.0407473,0.00719424
-0.110118,0.00719424
-0.0687691,0.00719424
0.00308112,0.00719424
0.0689286,0.00719424
-0.0872357,0.00719424
0.0720356,0.00719424
-0.124853,0.00719424
0.107568,0.00719424
0.0074273,0.00719424
-0.0532027,0.00719424
0.0149041,0.00719424
-0.0358054,0.00719424
-0.00442107,0.00719424
-0.0360983,0.00719424
0.0181419,0.00719424
0.00657935,0.00719424
0.0977681,0.00719424
-0.14219,0.00719424
0.117392,0.00719424
-0.0969455,0.00719423
0.0248625,0.00719423
0.0663154,0.00719424
-0.0619122,0.00719424
-0.149783,0.00719424
-0.162912,0.00719424
-0.0797349,0.00719424
-0.0527054,0.00719424
0.0102992,0.00719424
0.0321773,0.00719424
-0.0553297,0.00719424
0.072716,0.00719424
0.0633049,0.00719424
0.0782798,0.00719424
-0.123588,0.00719424
-3.90503e-05,0.00719424
-0.0930055,0.00719424
-0.0935576,0.00719424
-0.153624,0.00719424
0.0662975,0.00719424
0.0227208,0.00719424
-0.0113002,0.00719424
0.0100845,0.00719424
-0.195675,0.00719424
0.0700963,0.00719424
-0.117919,0.00719424
0.0353232,0.00719424
0.0634741,0.00719424
-0.011884,0.00719424
0.135967,0.00719424
0.0188049,0.00719424
0.045198,0.00719424
-0.202501,0.00719424
0.0567957,0.00719424
0.00225764,0.00719424
0.0203637,0.00719424
0.084714,0.00719424
-0.0621893,0.00719424
-0.0837741,0.00719424
0.0113565,0.00719424
-0.123101,0.00719424
0.00464572,0.00719424
-0.0438612,0.00719424
-0.0735327,0.00719424
-0.0714557,0.00719424
0.0606976,0.00719424
-0.0840772,0.00719424
0.117672,0.00719424
-0.0338652,0.00719424
0.111975,0.00719424
0.0212891,0.00719424
0.130147,0.00719424
0.238614,0.00719424
-0.0815546,0.00719424
0.0400364,0.00719424
0.0550653,0.00719424
-0.128234,0.00719424
-0.0287137,0.00719424
-0.0497947,0.00719424
-0.0593003,0.00719424
-0.0293799,0.00719424
-0.0607825,0.00719424
-0.0455313,0.00719424
