mw,Sw
0.0865337,0.025
0.18257,0.025
-0.28869,0.025
0.193868,0.025
0.0134291,0.025
-0.0913007,0.025
0.271037,0.025
-0.107936,0.025
0.13533,0.025
-0.0547338,0.025
0.00218709,0.025
0.114515,0.025
-0.451185,0.025
-0.0516014,0.025
0.0381639,0.025
-0.0585028,0.025
0.0138346,0.025
-0.079477,0.025
0.152191,0.025
0.272175,0.025
-0.154214,0.025
0.0952886,0.025
-0.0818055,0.025
0.0566456,0.025
0.271137,0.025
0.0380531,0.025
-0.0472218,0.025
-0.106592,0.025
-0.137873,0.025
0.0580931,0.025
0.0015312,0.025
-0.120773,0.025
-0.104549,0.025
-0.101336,0.025
-0.122106,0.025
-0.0148197,0.025
-0.0132057,0.025
0.143678,0.025
0.0678412,0.025
0.0139777,0.025
-0.00455744,0.025
0.0549786,0.025
0.0589178,0.025
0.253884,0.025
0.0147555,0.025
0.0953008,0.025
0.180464,0.025
-0.248067,0.025
-0.000137991,0.025
0.12889,0.025
-0.14364,0.025
-0.181423,0.025
-0.0422487,0.025
0.219317,0.025
0.211456,0.025
0.131372,0.025
-0.0641494,0.025
0.265609,0.025
-0.0234105,0.025
-0.0566984,0.025
0.0817745,0.025
-0.0708959,0.025
0.278777,0.025
-0.0737565,0.025
1,1
1,1
1,1
1,1
0.0757134,0.00666667
0.058653,0.00666667
-0.0344373,0.00666667
0.101901,0.00666667
-0.0937525,0.00666667
0.0493936,0.00666667
0.240974,0.00666667
0.0402746,0.00666667
-0.0656531,0.00666667
-0.016126,0.00666667
-0.0896143,0.00666667
0.0902749,0.00666667
0.0578295,0.00666667
0.0435943,0.00666667
-0.0252877,0.00666667
0.0134081,0.00666667
-0.107904,0.00666667
0.222352,0.00666667
-0.124102,0.00666667
0.0731203,0.00666667
-0.204304,0.00666667
0.0450594,0.00666667
0.00786567,0.00666667
-0.0215748,0.00666667
0.0491431,0.00666667
0.0597626,0.00666667
-0.020287,0.00666667
0.0690486,0.00666667
0.0357196,0.00666667
0.145074,0.00666667
0.0407831,0.00666667
0.0558087,0.00666667
-0.0508892,0.00666667
-0.0681542,0.00666667
0.188286,0.00666667
-0.064544,0.00666667
0.0574209,0.00666667
0.0262272,0.00666667
0.00887287,0.00666667
0.104738,0.00666667
0.015047,0.00666667
-0.215877,0.00666667
0.118501,0.00666667
0.0127555,0.00666667
-0.0987259,0.00666667
-0.0203339,0.00666667
0.0521263,0.00666667
-0.100512,0.00666667
0.0929523,0.00666667
0.0170545,0.00666667
0.0836598,0.00666667
0.0353179,0.00666667
0.0505757,0.00666667
-0.110865,0.00666667
0.0437792,0.00666667
0.06682,0.00666667
-0.0301023,0.00666667
-0.0440585,0.00666667
0.0362539,0.00666667
-0.112739,0.00666667
-0.051313,0.00666667
-0.0120083,0.00666667
-0.00134802,0.00666667
-0.107192,0.00666667
0.0716792,0.00666667
-0.0767952,0.00666667
0.0475065,0.00666667
-0.0620601,0.00666667
0.051302,0.00666667
0.0113339,0.00666667
-0.0182263,0.00666667
-0.0864959,0.00666667
0.00753387,0.00666667
-0.0746073,0.00666667
-0.0370587,0.00666667
-0.00257777,0.00666667
-0.0190428,0.00666667
-0.0445735,0.00666667
-0.113034,0.00666667
-0.0295772,0.00666667
0.0720682,0.00666667
-0.154747,0.00666667
0.166553,0.00666667
0.0586556,0.00666667
0.0146576,0.00666667
0.0568334,0.00666667
-0.0762298,0.00666667
0.0234611,0.00666667
0.067199,0.00666667
-0.0972831,0.00666667
-0.023624,0.00666667
0.0537425,0.00666667
-0.0146179,0.00666667
-0.0205671,0.00666667
-0.143413,0.00666667
-0.227601,0.00666667
-0.141457,0.00666667
-0.00849669,0.00666667
-0.0205689,0.00666667
-0.156812,0.00666667
0.108465,0.00666667
0.0604571,0.00666667
-0.0844209,0.00666667
0.0727598,0.00666667
-0.0735044,0.00666667
-0.135204,0.00666667
-0.166401,0.00666667
-0.152201,0.00666667
-0.055524,0.00666667
-0.0163774,0.00666667
-0.122967,0.00666667
-0.0797405,0.00666667
0.0300829,0.00666667
0.0279892,0.00666667
-0.10229,0.00666667
-0.0291469,0.00666667
-0.0454709,0.00666667
0.0228833,0.00666667
0.0200961,0.00666667
0.212233,0.00666667
-0.0671922,0.00666667
-0.161788,0.00666667
0.020872,0.00666667
-0.0097627,0.00666667
-0.0315547,0.00666667
0.0148772,0.00666667
0.134006,0.00666667
-0.0217885,0.00666667
-0.0187255,0.00666667
-0.0360287,0.00666667
-0.00198912,0.00666667
0.0154264,0.00666667
-0.0892063,0.00666667
-0.108992,0.00666667
-0.0575949,0.00666667
-0.0529292,0.00666667
0.134741,0.00666667
0.0664925,0.00666667
-0.0812964,0.00666667
-0.0958173,0.00666667
-0.0482327,0.00666667
-0.0276292,0.00666667
0.139888,0.00666667
-0.0709434,0.00666667
-0.09627,0.00666667
-0.0294727,0.00666667
0.0792875,0.00666667
0.0381331,0.00666667
-0.0787894,0.00666667
0.000189301,0.00666667
0.0662832,0.00666667
-0.0400857,0.00666667
-0.0427852,0.00666667
0.157009,0.00666667
-0.0101828,0.00666667
0.0654472,0.00666667
-0.0867908,0.00666667
0.0205129,0.00666667
0.0134136,0.00666667
0.160834,0.00666667
0.0210002,0.00666667
0.0724434,0.00666667
-0.0915526,0.00666667
-0.0182266,0.00666667
0.0881171,0.00666667
-0.0193247,0.00666667
-0.0315349,0.00666667
0.0668746,0.00666667
0.0938118,0.00666667
-0.0135148,0.00666667
0.00790022,0.00666667
-0.0243384,0.00666667
0.114499,0.00666667
-0.0486528,0.00666667
0.0101329,0.00666667
-0.152933,0.00666667
0.0409777,0.00666667
0.107003,0.00666667
0.0863737,0.00666667
0.00676567,0.00666667
-0.00758223,0.00666667
-0.0449705,0.00666667
0.0402608,0.00666667
-0.000158545,0.00666667
-0.107212,0.00666667
-0.0662158,0.00666667
-0.103748,0.00666667
0.129102,0.00666667
-0.131103,0.00666667
0.00988439,0.00666667
0.0530814,0.00666667
0.0538527,0.00666667
-0.0795895,0.00666667
0.022271,0.00666667
-0.0493819,0.00666667
-0.0500154,0.00666667
0.014838,0.00666667
-0.0412223,0.00666667
-0.0810361,0.00666667
0.0111823,0.00666667
-0.0437544,0.00666667
-0.14153,0.00666667
-0.0481573,0.00666667
0.0148674,0.00666667
0.0196022,0.00666667
-0.0375312,0.00666667
-0.0852744,0.00666667
-0.0606923,0.00666667
0.0299802,0.00666667
-0.0416265,0.00666667
0.0560503,0.00666667
-0.0218465,0.00666667
0.0911949,0.00666667
-0.0620548,0.00666667
-0.0976125,0.00666667
0.0399604,0.00666667
-0.0715303,0.00666667
0.0201499,0.00666667
0.0691299,0.00666667
0.0941861,0.00666667
-0.093722,0.00666667
0.0567388,0.00666667
0.0380994,0.00666667
-0.0528016,0.00666667
-0.0201517,0.00666667
0.103018,0.00666667
-0.0485377,0.00666667
0.0271832,0.00666667
-0.0727082,0.00666667
0.0203533,0.00666667
0.0552919,0.00666667
-0.0840493,0.00666667
-0.0953971,0.00666667
0.0790752,0.00666667
-0.0625358,0.00666667
-0.0496003,0.00666667
-0.0181845,0.00666667
0.0644478,0.00666667
0.0622134,0.00666667
0.0152635,0.00666667
0.0578998,0.00666667
-0.0699529,0.00666667
-0.0684258,0.00666667
0.0583099,0.00666667
0.0545137,0.00666667
-0.0292048,0.00666667
0.107519,0.00666667
0.0537704,0.00666667
-0.00748307,0.00666667
-0.0334904,0.00666667
-0.103098,0.00666667
-0.0640948,0.00666667
0.129495,0.00666667
0.131444,0.00666667
-0.0691852,0.00666667
0.139292,0.00666667
0.0319423,0.00666667
-0.0479538,0.00666667
0.00500382,0.00666667
0.0584757,0.00666667
0.0552887,0.00666667
0.00355697,0.00666667
-0.221068,0.00666667
-0.168248,0.00666667
-0.000311631,0.00666667
-0.0592006,0.00666667
0.126557,0.00666667
0.0758781,0.00666667
0.0134792,0.00666667
-0.0398904,0.00666667
-0.0827583,0.00666667
0.0107843,0.00666667
0.146346,0.00666667
-0.137321,0.00666667
0.0285113,0.00666667
0.0421695,0.00666667
0.0751194,0.00666667
0.0172193,0.00666667
0.0331181,0.00666667
0.0300617,0.00666667
-0.0805055,0.00666667
-0.0525273,0.00666667
-0.0478991,0.00666667
-0.0361419,0.00666667
-0.048271,0.00666667
-0.0246491,0.00666667
-0.0199336,0.00666667
0.00929547,0.00666667
0.0253209,0.00666667
-0.17485,0.00666667
-0.00270946,0.00666667
-0.0277667,0.00666667
0.054112,0.00666667
-0.0465734,0.00666667
-0.111344,0.00666667
-0.0636142,0.00666667
-0.0415017,0.00666667
-0.0273382,0.00666667
0.0831215,0.00666667
-0.0841947,0.00666667
0.0520406,0.00666667
-0.0123769,0.00666667
-0.027828,0.00666667
-0.0147214,0.00666667
-0.0974053,0.00666667
-0.0337792,0.00666667
-0.0956868,0.00666667
0.0808293,0.00666667
-0.0500415,0.00666667
-0.00377452,0.00666667
0.0248347,0.00666667
0.116363,0.00666667
0.031406,0.00666667
0.155443,0.00666667
-0.0848693,0.00666667
0.00941355,0.00666667
0.0374592,0.00666667
0.0144591,0.00666667
0.059179,0.00666667
-0.0747805,0.00666667
0.092675,0.00666667
-0.0481268,0.00666667
0.0161552,0.00666667
0.0843828,0.00666667
-0.0634532,0.00666667
0.077608,0.00666667
-0.034421,0.00666667
0.0461783,0.00666667
0.0491001,0.00666667
0.0302283,0.00666667
-0.00108274,0.00666667
0.0035887,0.00666667
-0.156005,0.00666667
0.027814,0.00666667
-0.019561,0.00666667
-0.0429154,0.00666667
-0.0205022,0.00666667
-0.0537857,0.00666667
-0.0405078,0.00666667
0.0558343,0.00666667
0.0264453,0.00666667
-0.0583068,0.00666667
0.0501014,0.00666667
0.00701646,0.00666667
0.104936,0.00666667
0.0246658,0.00666667
0.06431,0.00666667
-0.0332176,0.00666667
0.0307196,0.00666667
0.0613579,0.00666667
0.0372684,0.00666667
0.0644208,0.00666667
-0.0250045,0.00666667
0.0781403,0.00666667
0.0475615,0.00666667
-0.0383473,0.00666667
-0.0604489,0.00666667
-0.000744316,0.00666667
-0.153824,0.00666667
-0.0324563,0.00666667
-0.00308603,0.00666667
-0.00307587,0.00666667
0.0557505,0.00666667
-0.00664054,0.00666667
-0.0840733,0.00666667
0.13296,0.00666667
0.0503751,0.00666667
-0.00630376,0.00666667
-0.00200304,0.00666667
-0.000897226,0.00666667
-0.106324,0.00666667
-0.015136,0.00666667
-0.155255,0.00666667
-0.0512276,0.00666667
0.0661626,0.00666667
0.0573261,0.00666667
-0.0320265,0.00666667
-0.0139948,0.00666667
0.0348866,0.00666667
-0.0621046,0.00666667
-0.0501321,0.00666667
0.0849108,0.00666667
-0.0632844,0.00666667
-0.150996,0.00666667
0.0942104,0.00666667
0.147562,0.00666667
0.0993286,0.00666667
0.000206757,0.00666667
0.0529649,0.00666667
-0.0504528,0.00666667
0.153399,0.00666667
0.0674798,0.00666667
-0.0995376,0.00666667
0.0445107,0.00666667
-0.115109,0.00666667
0.0485014,0.00666667
0.00176623,0.00666667
0.0340435,0.00666667
-0.0713658,0.00666667
0.0085228,0.00666667
0.0371521,0.00666667
-0.0173038,0.00666667
0.0455588,0.00666667
0.0209127,0.00666667
0.0162163,0.00666667
0.0176287,0.00666667
0.0482068,0.00666667
0.0158441,0.00666667
-0.0511087,0.00666667
-0.104047,0.00666667
0.00779483,0.00666667
-0.141391,0.00666667
-0.0931657,0.00666667
-0.0518189,0.00666667
0.0393837,0.00666667
0.0440188,0.00666667
0.00234253,0.00666667
-0.0688778,0.00666667
-0.0576397,0.00666667
-0.0648981,0.00666667
0.0390447,0.00666667
0.0321163,0.00666667
-0.0619001,0.00666667
-0.0436504,0.00666667
-0.0520556,0.00666667
0.0626605,0.00666667
-0.0238366,0.00666667
0.0673654,0.00666667
0.0861087,0.00666667
0.0707877,0.00666667
-0.0435322,0.00666667
0.10755,0.00666667
0.0901235,0.00666667
-0.217275,0.00666667
-0.13706,0.00666667
0.0507638,0.00666667
-0.0399145,0.00666667
0.0734597,0.00666667
-0.0284228,0.00666667
0.0248854,0.00666667
-0.0350462,0.00666667
0.0663323,0.00666667
-0.0914783,0.00666667
0.160014,0.00666667
0.0938842,0.00666667
0.0271976,0.00666667
-0.131419,0.00666667
-0.230033,0.00666667
0.0672763,0.00666667
-0.0817372,0.00666667
0.0223296,0.00666667
-0.0504461,0.00666667
-0.0421173,0.00666667
-0.0214965,0.00666667
-0.0220984,0.00666667
-0.0424708,0.00666667
-0.0498953,0.00666667
0.0825526,0.00666667
0.0596638,0.00666667
0.000918016,0.00666667
-0.0496575,0.00666667
-0.071489,0.00666667
-0.0206071,0.00666667
0.0179732,0.00666667
0.0902932,0.00666667
0.0785744,0.00666667
-0.0255186,0.00666667
-0.0256202,0.00666667
-0.00646729,0.00666667
0.0114347,0.00666667
0.0816075,0.00666667
-0.138255,0.00666667
-0.0320603,0.00666667
0.0365191,0.00666667
0.014494,0.00666667
-0.104051,0.00666667
0.0566146,0.00666667
-0.0837032,0.00666667
0.120782,0.00666667
0.0300046,0.00666667
-0.029268,0.00666667
0.0195722,0.00666667
0.00536103,0.00666667
0.136139,0.00666667
-0.108973,0.00666667
-0.0538102,0.00666667
0.130742,0.00666667
0.101914,0.00666667
0.0720964,0.00666667
-0.0144111,0.00666667
0.0702109,0.00666667
0.0557062,0.00666667
-0.128286,0.00666667
-0.063019,0.00666667
0.12281,0.00666667
0.0323592,0.00666667
-0.161625,0.00666667
0.0143108,0.00666667
-0.172013,0.00666667
-0.0450772,0.00666667
0.0124133,0.00666667
-0.0720973,0.00666667
0.0382372,0.00666667
0.0466699,0.00666667
0.0410186,0.00666667
-0.106,0.00666667
-0.0194228,0.00666667
-0.084392,0.00666667
0.0165003,0.00666667
-0.00475653,0.00666667
-0.0356978,0.00666667
-0.0931049,0.00666667
-0.0896844,0.00666667
0.120659,0.00666667
-0.0443792,0.00666667
-0.0280352,0.00666667
0.0128489,0.00666667
0.15793,0.00666667
-0.0553456,0.00666667
-0.0461693,0.00666667
-0.0510007,0.00666667
-0.0640944,0.00666667
0.0160305,0.00666667
-0.0349357,0.00666667
-0.0295359,0.00666667
-0.0854041,0.00666667
-0.00169948,0.00666667
0.00855287,0.00666667
0.0456763,0.00666667
-0.138757,0.00666667
0.0986556,0.00666667
0.0914953,0.00666667
-0.127415,0.00666667
0.0939307,0.00666667
-0.0412887,0.00666667
-0.049756,0.00666667
-0.0159268,0.00666667
0.0172377,0.00666667
-0.0638927,0.00666667
-0.0236917,0.00666667
-0.0465844,0.00666667
0.0216723,0.00666667
-0.0613404,0.00666667
-0.110717,0.00666667
-0.0458588,0.00666667
-0.0770747,0.00666667
0.0590459,0.00666667
-0.151705,0.00666667
0.0684543,0.00666667
-0.0473036,0.00666667
-0.077015,0.00666667
0.0946189,0.00666667
-0.0220809,0.00666667
-0.009864,0.00666667
-0.159793,0.00666667
-0.0764228,0.00666667
0.13498,0.00666667
-0.102751,0.00666667
-0.0716702,0.00666667
-0.0439012,0.00666667
-0.111161,0.00666667
-0.0478743,0.00666667
-0.12181,0.00666667
-0.0471056,0.00666667
-0.0864554,0.00666667
-0.109278,0.00666667
-0.051777,0.00666667
-0.0309144,0.00666667
0.00972809,0.00666667
0.0302101,0.00666667
-0.0370221,0.00666667
0.0882961,0.00666667
0.0361029,0.00666667
-0.0674431,0.00666667
0.0123709,0.00666667
0.0753434,0.00666667
-0.145769,0.00666667
0.031789,0.00666667
-0.0727044,0.00666667
-0.0351142,0.00666667
0.0190498,0.00666667
0.106567,0.00666667
-0.00722149,0.00666667
-0.0398062,0.00666667
-0.0104093,0.00666667
-0.014154,0.00666667
0.0254156,0.00666667
-0.0939488,0.00666667
-0.0371781,0.00666667
-0.0820979,0.00666667
0.0302916,0.00666667
0.0625292,0.00666667
-0.0360572,0.00666667
0.00459777,0.00666667
-0.145286,0.00666667
-0.0344333,0.00666667
-0.026334,0.00666667
0.109893,0.00666667
0.0682373,0.00666667
-0.0709785,0.00666667
0.0450811,0.00666667
0.00898217,0.00666667
0.00870193,0.00666667
-0.148409,0.00666667
-0.111373,0.00666667
-0.130831,0.00666667
-0.0562596,0.00666667
0.0840253,0.00666667
0.0868062,0.00666667
-0.0176377,0.00666667
0.0768741,0.00666667
-0.00957404,0.00666667
0.0659422,0.00666667
0.0839842,0.00666667
-0.0917649,0.00666667
0.00149827,0.00666667
0.0402738,0.00666667
0.0150069,0.00666667
-0.152282,0.00666667
-0.1135,0.00666667
0.00210534,0.00666667
0.1309,0.00666667
-0.0853045,0.00666667
0.0385485,0.00666667
-0.0302422,0.00666667
-0.0683744,0.00666667
-0.140003,0.00666667
-0.0747865,0.00666667
0.0697944,0.00666667
-0.0847557,0.00666667
-0.0747982,0.00666667
0.0462436,0.00666667
-0.245269,0.00666667
-0.0655466,0.00666667
-0.0101724,0.00666667
-0.146387,0.00666667
0.157721,0.00666667
-0.0491115,0.00666667
-0.0072001,0.00666667
-0.0371358,0.00666667
-0.129556,0.00666667
-0.0314868,0.00666667
0.0333701,0.00666667
-0.1353,0.00666667
0.0240366,0.00666667
-0.066132,0.00666667
-0.118116,0.00666667
-0.0298496,0.00666667
-0.00816361,0.00666667
-0.00818966,0.00666667
-0.000185019,0.00666667
0.171996,0.00666667
-0.304472,0.00666667
0.0573486,0.00666667
0.0592334,0.00666667
0.12284,0.00666667
0.106114,0.00666667
0.00889793,0.00666667
-0.0359937,0.00666667
0.065644,0.00666667
-0.0948052,0.00666667
0.119977,0.00666667
0.0311415,0.00666667
0.0201159,0.00666667
-0.00103894,0.00666667
0.0347312,0.00666667
0.00210568,0.00666667
-0.0447935,0.00666667
-0.0172312,0.00666667
0.000150812,0.00666667
7.16002e-05,0.00666667
0.109113,0.00666667
0.00703423,0.00666667
-0.0722231,0.00666667
-0.0535668,0.00666667
-0.018287,0.00666667
0.0887078,0.00666667
0.0420278,0.00666667
0.0365577,0.00666667
0.0642815,0.00666667
0.0518166,0.00666667
-0.132584,0.00666667
-0.0924217,0.00666667
-0.085436,0.00666667
0.195295,0.00666667
0.0284202,0.00666667
0.0416535,0.00666667
-0.140784,0.00666667
0.0450817,0.00666667
0.0763766,0.00666667
0.046878,0.00666667
0.0714735,0.00666667
-0.00829843,0.00666667
-0.0419985,0.00666667
-0.0662827,0.00666667
0.0751405,0.00666667
4.02283e-05,0.00666667
0.046909,0.00666667
-0.173408,0.00666667
-0.0273529,0.00666667
0.0157082,0.00666667
-0.00842961,0.00666667
0.0251611,0.00666667
-0.00562926,0.00666667
-0.0563507,0.00666667
-0.0434498,0.00666667
-0.0198692,0.00666667
0.00548712,0.00666667
-0.0233018,0.00666667
0.0408375,0.00666667
-0.00495571,0.00666667
0.0253306,0.00666667
0.0630793,0.00666667
-0.0417447,0.00666667
0.00537177,0.00666667
-0.170441,0.00666667
0.0914145,0.00666667
-0.0633113,0.00666667
-0.127479,0.00666667
0.0612727,0.00666667
-0.0484288,0.00666667
0.0282619,0.00666667
-0.198008,0.00666667
-0.0751866,0.00666667
-0.0185768,0.00666667
-0.0553483,0.00666667
0.0914284,0.00666667
-0.259657,0.00666667
0.164892,0.00666667
-0.0550831,0.00666667
0.108042,0.00666667
0.0140343,0.00666667
-0.137874,0.00666667
-0.15071,0.00666667
-0.135384,0.00666667
-0.016504,0.00666667
0.00129245,0.00666667
0.086956,0.00666667
0.0485199,0.00666667
-0.10971,0.00666667
-0.10381,0.00666667
0.0242475,0.00666667
0.06676,0.00666667
0.0943464,0.00666667
0.0284254,0.00666667
0.188087,0.00666667
-0.0300846,0.00666667
-0.0481456,0.00666667
0.0162436,0.00666667
-0.0792739,0.00666667
0.156775,0.00666667
-0.0682205,0.00666667
-0.0883006,0.00666667
-0.0689166,0.00666667
0.0603351,0.00666667
-0.125139,0.00666667
0.164071,0.00666667
0.0843014,0.00666667
0.0957714,0.00666667
0.02851,0.00666667
0.0708787,0.00666667
0.115598,0.00666667
0.0302204,0.00666667
-0.0824506,0.00666667
-0.0297399,0.00666667
-0.00347991,0.00666667
-0.0207167,0.00666667
-0.0914619,0.00666667
0.0385928,0.00666667
0.0779116,0.00666667
0.0404417,0.00666667
-0.0895169,0.00666667
-0.144771,0.00666667
0.05836,0.00666667
0.0139584,0.00666667
0.0588096,0.00666667
-0.0998991,0.00666667
-0.0919571,0.00666667
-0.0264234,0.00666667
-0.0101817,0.00666667
0.190038,0.00666667
-0.12763,0.00666667
-0.0347594,0.00666667
0.0881145,0.00666667
0.00441003,0.00666667
-0.0500807,0.00666667
0.0330514,0.00666667
-0.0147415,0.00666667
-0.0923559,0.00666667
-0.0437236,0.00666667
0.183466,0.00666667
0.0378983,0.00666667
-0.00951693,0.00666667
-0.0298492,0.00666667
-0.0989055,0.00666667
-0.12211,0.00666667
0.0359809,0.00666667
0.042947,0.00666667
0.0228263,0.00666667
-0.048447,0.00666667
1,1
1,1
1,1
1,1
1,1
1,1
1,1
1,1
-0.0454734,0.00719424
0.0726007,0.00719424
0.0732005,0.00719424
0.110903,0.00719424
-0.145758,0.00719424
0.120143,0.00719424
0.0711731,0.00719424
-0.0786203,0.00719424
-0.119347,0.00719424
-0.166084,0.00719424
-0.00364562,0.00719424
-0.0849241,0.00719424
0.0159845,0.00719424
-0.0561756,0.00719424
-0.148958,0.00719424
0.166398,0.00719424
0.0947321,0.00719424
0.0672601,0.00719424
-0.021909,0.00719424
0.0171708,0.00719424
-0.112405,0.00719424
-0.0368425,0.00719424
-0.068721,0.00719424
0.0408372,0.00719424
-0.0935587,0.00719424
0.0710326,0.00719424
-0.109872,0.00719424
-0.0860437,0.00719424
0.0349895,0.00719424
-0.0223255,0.00719424
0.0226917,0.00719424
-0.0227871,0.00719424
-0.0149577,0.00719424
0.0151483,0.00719424
0.117691,0.00719424
-0.0933164,0.00719424
-0.0172935,0.00719424
0.0173385,0.00719424
0.112859,0.00719424
-0.107148,0.00719424
0.115981,0.00719424
0.0995874,0.00719424
-0.161512,0.00719424
0.0528123,0.00719424
0.197938,0.00719424
0.060014,0.00719424
0.0296437,0.00719424
0.0983351,0.00719424
-0.00695313,0.00719424
-0.00233404,0.00719424
0.107,0.00719424
0.149097,0.00719424
-0.0360375,0.00719424
-0.101351,0.00719424
-0.00342998,0.00719424
0.0622241,0.00719424
0.0362976,0.00719424
0.0559313,0.00719424
-0.11622,0.00719424
-0.0415421,0.00719424
0.0619986,0.00719424
-0.0854364,0.00719424
-0.0435333,0.00719424
-0.00165376,0.00719424
-0.0354114,0.00719424
0.124767,0.00719424
0.27904,0.00719424
0.00619901,0.00719424
-0.126327,0.00719424
0.131372,0.00719424
-0.00768324,0.00719424
0.0733473,0.00719424
-0.13038,0.00719424
-0.00239063,0.00719424
-0.0357264,0.00719424
0.0543014,0.00719424
-0.0809932,0.00719424
0.0856744,0.00719424
-0.162908,0.00719424
0.122084,0.00719424
0.066398,0.00719424
-0.147884,0.00719424
-0.063497,0.00719424
-0.0750141,0.00719424
-0.125968,0.00719424
0.0444525,0.00719424
-0.0660285,0.00719424
0.0535804,0.00719424
-0.0393868,0.00719424
-0.0987593,0.00719424
0.0834657,0.00719424
0.0698119,0.00719424
-0.0193166,0.00719424
-0.011159,0.00719424
-0.0204545,0.00719424
0.0301642,0.00719424
0.0751074,0.00719424
0.27323,0.00719424
0.00180588,0.00719424
0.0368602,0.00719424
0.0116798,0.00719424
0.0423697,0.00719424
0.0359722,0.00719424
-0.0292552,0.00719424
-0.083641,0.00719424
-0.0142469,0.00719424
-0.179206,0.00719424
-0.0338022,0.00719424
-0.0885956,0.00719424
0.0584394,0.00719424
-0.0466988,0.00719424
0.149922,0.00719424
0.0402758,0.00719424
0.110265,0.00719424
-0.041835,0.00719424
0.00256397,0.00719424
-0.116885,0.00719424
0.0756443,0.00719424
-0.0946552,0.00719424
0.0648933,0.00719424
0.00273926,0.00719424
-0.0654329,0.00719424
0.0268792,0.00719424
-0.0567761,0.00719424
-0.0120983,0.00719424
0.0692135,0.00719424
0.0719975,0.00719424
0.00719286,0.00719424
0.00961214,0.00719424
-0.0881802,0.00719424
-0.0314301,0.00719424
0.17248,0.00719424
0.0590773,0.00719424
0.0675418,0.00719424
-0.0915742,0.00719424
0.163661,0.00719424
-0.0917525,0.00719424
0.0967177,0.00719424
0.112301,0.00719424
0.0589507,0.00719424
-0.168033,0.00719424
0.0561382,0.00719424
0.201416,0.00719424
-0.0880057,0.00719424
0.126406,0.00719424
0.14554,0.00719424
-0.051477,0.00719424
-0.13018,0.00719424
0.00677383,0.00719424
0.0489776,0.00719424
-0.0142403,0.00719424
-0.0364403,0.00719424
0.110345,0.00719424
0.244252,0.00719424
-0.12186,0.00719424
0.036879,0.00719424
-0.098115,0.00719424
-0.0374129,0.00719424
0.130264,0.00719424
-0.00122487,0.00719424
0.00209535,0.00719424
0.0108699,0.00719424
-0.00185083,0.00719424
-0.185214,0.00719424
0.177105,0.00719424
-0.0316202,0.00719424
0.0675444,0.00719424
-0.095545,0.00719424
0.090836,0.00719424
-0.0664627,0.00719424
-0.123714,0.00719424
-0.0653965,0.00719424
-0.146324,0.00719424
-0.125843,0.00719424
-0.0116245,0.00719424
0.090326,0.00719424
-0.0698389,0.00719424
-0.146828,0.00719424
-0.11446,0.00719424
-0.041347,0.00719424
0.027541,0.00719424
0.00422389,0.00719424
-0.045819,0.00719424
-0.0025123,0.00719424
-0.110818,0.00719424
0.117123,0.00719424
-0.105682,0.00719424
0.0744785,0.00719424
-0.0326392,0.00719424
-0.1382,0.00719424
0.0721914,0.00719424
0.0548484,0.00719424
0.0544223,0.00719424
-0.0169976,0.00719424
-0.0850155,0.00719424
0.0684909,0.00719424
0.123885,0.00719424
0.062554,0.00719424
0.106545,0.00719424
-0.0348893,0.00719424
0.0330275,0.00719424
-0.0494293,0.00719424
0.0781887,0.00719424
-0.0686323,0.00719424
0.107217,0.00719424
0.0148314,0.00719424
-0.0526887,0.00719424
-0.213866,0.00719424
-0.0169683,0.00719424
-0.0905025,0.00719424
0.0186137,0.00719424
-0.0866622,0.00719424
0.0813526,0.00719424
-0.0365723,0.00719424
0.0162347,0.00719424
0.041088,0.00719424
0.12411,0.00719424
-0.0204207,0.00719424
-0.128981,0.00719424
-0.0792453,0.00719424
0.0493821,0.00719424
-0.0447193,0.00719424
-0.00681721,0.00719424
-0.033272,0.00719424
0.0440857,0.00719424
-0.0288121,0.00719424
-0.0297778,0.00719424
-0.0249152,0.00719424
0.042086,0.00719424
0.201839,0.00719424
-0.0774884,0.00719424
0.0893204,0.00719424
0.0776616,0.00719424
0.0335618,0.00719424
0.117777,0.00719424
-0.0286164,0.00719424
-0.0178823,0.00719424
-0.0413153,0.00719424
0.0784332,0.00719424
-0.0301448,0.00719424
-0.0331258,0.00719424
-0.0710784,0.00719424
0.089975,0.00719424
-0.167209,0.00719424
-0.0250983,0.00719424
-0.0531011,0.00719424
0.0667569,0.00719424
-0.179861,0.00719424
0.0292092,0.00719424
0.0691076,0.00719424
0.0592287,0.00719424
0.120313,0.00719424
0.0669916,0.00719424
0.0278675,0.00719424
0.118067,0.00719424
0.0182324,0.00719424
-0.00954112,0.00719424
-0.0336727,0.00719424
-0.248836,0.00719424
-0.0929503,0.00719424
-0.101395,0.00719424
0.0239344,0.00719424
-0.0195096,0.00719424
-0.0431647,0.00719424
-0.0234392,0.00719424
0.0625408,0.00719424
0.0220761,0.00719424
-0.0307216,0.00719424
0.0350053,0.00719424
-0.0865001,0.00719424
0.0209402,0.00719424
0.0439483,0.00719424
-0.0895329,0.00719424
0.0924004,0.00719424
0.0214717,0.00719424
0.108901,0.00719424
-0.0117723,0.00719424
-0.033259,0.00719424
-0.0338382,0.00719424
-0.0803243,0.00719424
-0.0162269,0.00719424
0.0603588,0.00719424
0.0906138,0.00719424
-0.0798859,0.00719424
-0.127416,0.00719424
-0.0264879,0.00719424
-0.029856,0.00719424
-0.0201664,0.00719424
0.12554,0.00719424
-0.116934,0.00719424
-0.0465162,0.00719424
-0.14276,0.00719424
-0.0137778,0.00719424
-0.10148,0.00719424
0.14199,0.00719424
-0.0564322,0.00719424
-0.0450901,0.00719424
0.105815,0.00719424
-0.0201478,0.00719424
-0.0503791,0.00719424
-0.12885,0.00719424
-0.0325765,0.00719424
0.0454837,0.00719424
-0.0568898,0.00719424
0.0760844,0.00719424
0.0904268,0.00719424
0.00187874,0.00719424
0.104276,0.00719424
-0.0152507,0.00719424
-0.0227493,0.00719424
-0.0363293,0.00719424
0.0162919,0.00719424
-0.0206298,0.00719424
-0.0972303,0.00719424
-0.000320865,0.00719424
-0.0681174,0.00719424
0.0361459,0.00719424
-0.00292702,0.00719424
-0.0281061,0.00719424
0.00967418,0.00719424
0.0576358,0.00719424
-0.0978321,0.00719424
-0.131761,0.00719424
0.139816,0.00719424
-0.0227816,0.00719424
0.0798871,0.00719424
0.0236619,0.00719424
-0.0512324,0.00719424
0.131056,0.00719424
0.0670555,0.00719424
0.0142532,0.00719424
0.119183,0.00719424
-0.0740609,0.00719424
-0.0172307,0.00719424
0.165344,0.00719424
0.11254,0.00719424
0.00947003,0.00719424
0.0185984,0.00719424
-0.0655653,0.00719424
-0.0425407,0.00719424
0.00948521,0.00719424
-0.0807495,0.00719424
-0.00712142,0.00719424
-0.0777014,0.00719424
0.0336387,0.00719424
0.0135535,0.00719424
-0.0871237,0.00719424
0.0817663,0.00719424
-0.02147,0.00719424
0.119332,0.00719424
-0.185744,0.00719424
-0.00957462,0.00719424
0.104863,0.00719424
0.0257512,0.00719424
-0.018682,0.00719424
0.05098,0.00719424
0.0381209,0.00719424
-0.124748,0.00719424
-0.0219002,0.00719424
0.132022,0.00719424
-0.141022,0.00719424
0.00540281,0.00719424
0.0485409,0.00719424
-0.0449826,0.00719424
0.0311671,0.00719424
-0.0490871,0.00719424
0.0758464,0.00719424
0.0342896,0.00719424
0.0730436,0.00719424
0.0114941,0.00719424
-0.0217591,0.00719424
0.0331874,0.00719424
0.135345,0.00719424
-0.0417878,0.00719424
0.12321,0.00719424
0.0254788,0.00719424
0.0323211,0.00719424
-0.00277581,0.00719424
0.0399646,0.00719424
0.0565871,0.00719424
-0.0546165,0.00719424
0.000138618,0.00719424
0.00874003,0.00719424
-0.093128,0.00719424
-0.0357453,0.00719424
-0.137731,0.00719424
0.0265449,0.00719424
0.113002,0.00719424
0.0104076,0.00719424
-0.124454,0.00719424
-0.0285881,0.00719424
0.0841387,0.00719424
-0.0384487,0.00719424
-0.085684,0.00719424
0.0182492,0.00719424
-0.118242,0.00719424
-0.109942,0.00719424
0.102512,0.00719424
-0.13133,0.00719424
-0.00276368,0.00719424
0.0905422,0.00719424
0.0937171,0.00719424
-0.0517915,0.00719424
-0.0144468,0.00719424
0.0780304,0.00719424
0.00705079,0.00719424
-0.0684658,0.00719424
0.0278154,0.00719424
-0.0206008,0.00719424
0.116225,0.00719424
-0.0899547,0.00719424
0.0638046,0.00719424
0.083879,0.00719424
0.030727,0.00719424
0.0499981,0.00719424
-0.148388,0.00719424
-0.0894084,0.00719424
0.0801429,0.00719424
0.0542808,0.00719424
0.0255748,0.00719424
-0.130967,0.00719424
0.0219573,0.00719424
-0.14091,0.00719424
-0.0541501,0.00719424
-0.0737418,0.00719424
0.0367737,0.00719424
0.0332937,0.00719424
-0.0367969,0.00719424
-0.13794,0.00719424
0.0722803,0.00719424
0.0468402,0.00719424
0.0746148,0.00719424
0.0205138,0.00719424
-0.101369,0.00719424
0.0590571,0.00719424
0.116279,0.00719424
0.0065227,0.00719424
0.0132832,0.00719424
-0.0707966,0.00719424
0.159214,0.00719424
0.240329,0.00719424
-0.0721205,0.00719424
0.0566568,0.00719424
0.0012015,0.00719424
0.0427003,0.00719424
0.0197654,0.00719424
0.0275019,0.00719424
-0.0416567,0.00719424
-0.0843559,0.00719424
-0.0786035,0.00719424
-0.0283545,0.00719424
0.0945029,0.00719424
-0.0170984,0.00719424
0.0622349,0.00719424
0.0198623,0.00719424
-0.127629,0.00719424
0.0874306,0.00719424
-0.074927,0.00719424
0.0575248,0.00719424
0.142148,0.00719424
0.133753,0.00719424
0.119948,0.00719424
0.0673574,0.00719424
-0.165852,0.00719424
-0.0411573,0.00719424
0.0795551,0.00719424
0.0413889,0.00719424
-0.0160555,0.00719424
0.130876,0.00719424
0.0440329,0.00719424
0.191256,0.00719424
0.0564527,0.00719424
0.0562122,0.00719424
-0.00400269,0.00719424
-0.145301,0.00719424
0.0107881,0.00719424
-0.00480482,0.00719424
0.0268048,0.00719424
-0.0645019,0.00719424
0.0929355,0.00719424
0.0426924,0.00719424
-0.0589472,0.00719424
0.00595443,0.00719424
0.0423795,0.00719424
-0.0464677,0.00719424
-0.0571843,0.00719424
0.0202997,0.00719424
0.102615,0.00719424
-0.00109042,0.00719424
-0.0166757,0.00719424
0.119147,0.00719424
0.112384,0.00719424
-0.013683,0.00719424
0.164966,0.00719424
-0.0016917,0.00719424
-0.000918189,0.00719424
0.0456843,0.00719424
0.0882601,0.00719424
-0.00402252,0.00719424
0.0888686,0.00719424
-0.0233142,0.00719424
-0.0428045,0.00719424
-0.0381224,0.00719424
-0.0714159,0.00719424
-0.0258525,0.00719424
0.0229122,0.00719424
-0.147248,0.00719424
0.0673254,0.00719424
0.0200373,0.00719424
-0.0964644,0.00719424
0.00163077,0.00719424
-0.194633,0.00719424
-0.0181332,0.00719424
0.0115126,0.00719424
-0.175484,0.00719424
0.117197,0.00719424
-0.0247614,0.00719424
0.0300894,0.00719424
-0.0764066,0.00719424
0.0882059,0.00719424
0.00973218,0.00719424
0.000973274,0.00719424
-0.0665577,0.00719424
0.0513712,0.00719424
-0.0754611,0.00719424
-0.0594656,0.00719424
-0.0121453,0.00719424
-0.0977082,0.00719424
0.0725606,0.00719424
-0.147638,0.00719424
0.191113,0.00719424
-0.0320458,0.00719424
-0.110001,0.00719424
-0.207432,0.00719424
0.00747697,0.00719424
-0.00585101,0.00719424
-0.0350751,0.00719424
-0.00965576,0.00719424
-0.00331497,0.00719424
-0.0312128,0.00719424
-0.151696,0.00719424
-0.0796954,0.00719424
0.0547085,0.00719424
0.0655894,0.00719424
0.0257734,0.00719424
-0.118692,0.00719424
0.163897,0.00719424
-0.0197888,0.00719424
0.113076,0.00719424
-0.056116,0.00719424
0.00701558,0.00719424
0.222579,0.00719424
0.112939,0.00719424
-0.059484,0.00719424
0.0386334,0.00719424
0.0279233,0.00719424
0.113589,0.00719424
0.0774428,0.00719424
-0.0879752,0.00719424
-0.00791801,0.00719424
-0.181559,0.00719424
0.0818863,0.00719424
-0.0320866,0.00719424
-0.00484659,0.00719424
0.10078,0.00719424
-0.0950228,0.00719424
0.0670154,0.00719424
0.0432025,0.00719424
0.143736,0.00719424
0.045038,0.00719424
0.0238654,0.00719424
-0.0492669,0.00719424
0.000928223,0.00719424
0.0139269,0.00719424
-0.0449577,0.00719424
-0.0906701,0.00719424
-0.0849321,0.00719424
0.0399148,0.00719424
0.0418814,0.00719424
-0.0505159,0.00719424
0.0410217,0.00719424
-0.00386701,0.00719424
0.00147622,0.00719424
-0.112059,0.00719424
0.138977,0.00719424
-0.0366233,0.00719424
-0.0891804,0.00719424
0.136115,0.00719424
-0.053534,0.00719424
-0.0631522,0.00719424
-0.0399612,0.00719424
-0.0456018,0.00719424
0.0652356,0.00719424
-0.0642963,0.00719424
-0.0388884,0.00719424
0.0450774,0.00719424
-0.0153842,0.00719424
0.0377895,0.00719424
0.103503,0.00719424
0.0289583,0.00719424
-0.0117148,0.00719424
-0.0355668,0.00719424
-0.0348599,0.00719424
-0.135478,0.00719424
-0.0538947,0.00719424
-0.0847655,0.00719424
-0.11083,0.00719424
0.132495,0.00719424
-0.026918,0.00719424
0.00713038,0.00719424
0.119613,0.00719424
0.0666401,0.00719424
0.0610413,0.00719424
0.141157,0.00719424
-0.0294397,0.00719424
-0.0863074,0.00719424
0.0537798,0.00719424
0.0881028,0.00719424
0.15358,0.00719424
0.0759316,0.00719424
-0.0821444,0.00719424
-0.0486612,0.00719424
-0.0658539,0.00719424
0.0821608,0.00719424
-0.0261965,0.00719424
-0.000921848,0.00719424
0.0199567,0.00719424
0.0601045,0.00719424
-0.0462896,0.00719424
0.0582417,0.00719424
-0.0550155,0.00719424
0.00930878,0.00719424
-0.0554895,0.00719424
0.0118501,0.00719424
-0.149757,0.00719424
-0.0238143,0.00719424
-0.0253921,0.00719424
0.120554,0.00719424
-0.119906,0.00719424
0.030786,0.00719424
0.136756,0.00719424
-0.0868512,0.00719424
0.110542,0.00719424
0.0162449,0.00719424
-0.000879831,0.00719424
0.101806,0.00719424
0.02229,0.00719424
0.213652,0.00719424
-0.0472896,0.00719424
0.0707485,0.00719424
0.0612559,0.00719424
-0.104234,0.00719424
-0.0437442,0.00719424
-0.0300137,0.00719424
0.0851416,0.00719424
0.0154215,0.00719424
0.0115308,0.00719424
-0.075243,0.00719424
0.199277,0.00719424
0.0807743,0.00719424
0.0546819,0.00719424
0.0549304,0.00719424
-0.0297967,0.00719424
-0.242688,0.00719424
0.0163999,0.00719424
0.0572897,0.00719424
0.186624,0.00719424
-0.0861813,0.00719424
-0.0149607,0.00719424
0.057309,0.00719424
-0.11286,0.00719424
0.00890301,0.00719424
0.0145984,0.00719424
0.153513,0.00719424
-0.0332151,0.00719424
-0.0229056,0.00719424
-0.0203591,0.00719424
-0.158748,0.00719424
0.0400445,0.00719424
0.10912,0.00719424
0.0296336,0.00719424
0.0235754,0.00719424
0.118956,0.00719424
-0.0097408,0.00719424
-0.128911,0.00719424
-0.0270033,0.00719424
-0.163268,0.00719424
0.110128,0.00719424
0.126003,0.00719424
0.026292,0.00719424
-0.0200878,0.00719424
-0.0347445,0.00719424
0.0323868,0.00719424
0.00897888,0.00719424
0.0721537,0.00719424
-0.174852,0.00719424
0.0130349,0.00719424
0.0748387,0.00719424
0.0109874,0.00719424
0.12236,0.00719424
0.045818,0.00719424
-0.0753678,0.00719424
0.0972102,0.00719424
0.0601834,0.00719424
0.028874,0.00719424
-0.00596303,0.00719424
0.0410073,0.00719424
-0.0272136,0.00719424
-0.036456,0.00719424
-0.0875812,0.00719424
-0.00492294,0.00719424
-0.152543,0.00719424
0.00345665,0.00719424
0.0630061,0.00719424
-0.019352,0.00719424
-0.0370241,0.00719424
-0.0585089,0.00719424
-0.0607167,0.00719424
0.104112,0.00719424
-0.134472,0.00719424
-0.0572761,0.00719424
-0.0641575,0.00719424
-0.0777596,0.00719424
0.0180691,0.00719424
-0.0577873,0.00719424
0.17558,0.00719424
-0.13583,0.00719424
-0.211426,0.00719424
0.139379,0.00719424
0.12252,0.00719424
0.0988235,0.00719424
0.0208824,0.00719424
0.0520764,0.00719424
-0.241508,0.00719424
-0.0240722,0.00719424
0.0292098,0.00719424
0.0512378,0.00719424
-0.0417163,0.00719424
-0.0230187,0.00719424
0.0298993,0.00719424
-0.0911512,0.00719424
0.0570272,0.00719424
0.0131481,0.00719424
-0.0899139,0.00719424
0.0203727,0.00719424
-0.0981534,0.00719424
0.0132736,0.00719424
0.0176888,0.00719424
-0.0158052,0.00719424
-0.0451349,0.00719424
0.0279273,0.00719424
0.0450539,0.00719424
0.0570643,0.00719424
-0.00562327,0.00719424
0.096551,0.00719424
0.022672,0.00719424
0.0779863,0.00719424
-0.137214,0.00719424
-0.0339547,0.00719424
-0.00669707,0.00719424
-0.15196,0.00719424
0.0648138,0.00719424
0.0211723,0.00719424
0.2569,0.00719424
-0.112872,0.00719424
0.172447,0.00719424
0.0443355,0.00719424
-0.145951,0.00719424
0.0144242,0.00719424
-0.130565,0.00719424
0.0598498,0.00719424
0.147475,0.00719424
0.115362,0.00719424
-0.120168,0.00719424
0.0061304,0.00719424
0.026244,0.00719424
-0.0494138,0.00719424
-0.0165717,0.00719424
0.0235456,0.00719424
-0.15428,0.00719424
-0.0812371,0.00719424
-0.015609,0.00719424
-0.0817822,0.00719424
0.00864864,0.00719424
0.00232556,0.00719424
0.0455787,0.00719424
0.0820549,0.00719424
0.00203766,0.00719424
-0.0508563,0.00719424
0.114881,0.00719424
-0.0813126,0.00719424
0.102863,0.00719424
0.0944223,0.00719424
0.0632423,0.00719424
-0.0237953,0.00719424
-0.0486311,0.00719424
0.0315316,0.00719424
-0.0635106,0.00719424
-0.0200801,0.00719424
0.0602104,0.00719424
0.087776,0.00719424
0.0719076,0.00719424
-0.0412322,0.00719424
0.0241719,0.00719424
-0.136175,0.00719424
0.0366693,0.00719424
0.0579623,0.00719424
0.0141351,0.00719424
0.054854,0.00719424
-0.0134378,0.00719424
0.0113839,0.00719424
0.0551297,0.00719424
-0.110344,0.00719424
0.0631106,0.00719424
0.0187464,0.00719424
0.0339254,0.00719424
0.127299,0.00719424
-0.00825595,0.00719424
0.103549,0.00719424
-0.052178,0.00719424
-0.0798741,0.00719424
0.139154,0.00719424
-0.0619582,0.00719424
-0.095464,0.00719424
0.0728393,0.00719424
0.128752,0.00719424
0.0332237,0.00719424
0.0344869,0.00719424
0.0593244,0.00719424
0.0422804,0.00719424
0.0505183,0.00719424
-0.0373931,0.00719424
-0.111246,0.00719424
0.0282443,0.00719424
-0.0217093,0.00719424
-0.00756021,0.00719424
-0.182658,0.00719424
0.0451872,0.00719424
0.0248802,0.00719424
-0.0207843,0.00719424
0.0476026,0.00719424
0.135917,0.00719424
0.00530819,0.00719424
0.104992,0.00719424
-0.0281569,0.00719424
-0.0830249,0.00719424
0.0120038,0.00719424
0.108077,0.00719424
-0.0104772,0.00719424
0.0520676,0.00719424
-0.0632187,0.00719424
0.0804008,0.00719424
0.051565,0.00719424
0.102468,0.00719424
-0.0879555,0.00719424
0.0398759,0.00719424
-0.0573581,0.00719424
0.135485,0.00719424
0.0722535,0.00719424
-0.0285674,0.00719424
0.0748468,0.00719424
0.0158877,0.00719424
-0.102558,0.00719424
0.0521026,0.00719424
-0.0479779,0.00719424
0.0766372,0.00719424
-0.023912,0.00719424
0.00381796,0.00719424
-0.015081,0.00719424
0.026947,0.00719424
-0.052809,0.00719424
0.0423438,0.00719424
0.0320842,0.00719424
0.0334594,0.00719424
0.0432857,0.00719424
0.0135825,0.00719424
-0.148768,0.00719424
0.0255649,0.00719424
0.222489,0.00719424
-0.082568,0.00719424
0.0383451,0.00719424
0.0129412,0.00719424
-0.0384655,0.00719424
0.0282196,0.00719424
-0.00307248,0.00719424
0.0103383,0.00719424
0.0958954,0.00719424
-0.00776078,0.00719424
0.0263843,0.00719424
0.026762,0.00719424
0.0294298,0.00719424
0.0134789,0.00719424
0.0383886,0.00719424
0.00923028,0.00719424
-0.0520443,0.00719424
0.0504711,0.00719424
-0.0534568,0.00719424
0.0983522,0.00719424
-0.0603239,0.00719424
0.0154693,0.00719424
0.100969,0.00719424
-0.0619595,0.00719424
-0.0437221,0.00719424
0.165542,0.00719424
-0.120024,0.00719424
-0.0817634,0.00719424
-0.0726468,0.00719424
-0.0401456,0.00719424
0.0463811,0.00719424
0.04677,0.00719424
0.112922,0.00719424
0.0514526,0.00719424
0.0822316,0.00719424
0.0472328,0.00719424
0.0766691,0.00719424
0.164058,0.00719424
-0.0111277,0.00719424
0.0443457,0.00719424
-0.0174523,0.00719424
-0.0119235,0.00719424
-0.0574343,0.00719424
0.0768678,0.00719424
0.00554315,0.00719424
0.0180555,0.00719424
-0.0480388,0.00719424
0.046973,0.00719424
0.128915,0.00719424
0.0410185,0.00719424
0.0670412,0.00719424
0.084792,0.00719424
-0.0425061,0.00719424
-0.0148149,0.00719424
0.0316888,0.00719424
-0.012508,0.00719424
-0.00365693,0.00719424
0.150543,0.00719424
0.126444,0.00719424
-0.121004,0.00719424
0.0746662,0.00719424
-0.127622,0.00719424
0.0406781,0.00719424
-0.0521962,0.00719424
0.0166025,0.00719424
0.0507553,0.00719424
-0.0598132,0.00719424
0.161221,0.00719424
-0.0402051,0.00719424
0.0287644,0.00719424
-0.0044382,0.00719424
0.0301675,0.00719424
0.00347707,0.00719424
0.0202446,0.00719424
0.145848,0.00719424
-0.110205,0.00719424
-0.0234708,0.00719424
0.0586182,0.00719424
0.0277191,0.00719424
-0.137824,0.00719424
-0.0546688,0.00719424
0.0353839,0.00719424
0.112283,0.00719424
-0.0252685,0.00719424
0.0213713,0.00719424
-0.0489315,0.00719424
-0.083546,0.00719424
0.0763602,0.00719424
-0.0248525,0.00719424
-0.0755277,0.00719424
0.0914711,0.00719424
0.0961564,0.00719424
0.0418125,0.00719424
0.0784767,0.00719424
0.0238392,0.00719424
0.047224,0.00719424
0.0593591,0.00719424
0.0695213,0.00719424
-0.0648496,0.00719424
-0.0591104,0.00719424
-0.0692084,0.00719424
0.122359,0.00719424
0.0115548,0.00719424
0.0274027,0.00719424
0.0318351,0.00719424
0.126527,0.00719424
-0.0615845,0.00719424
-0.085125,0.00719424
0.0578076,0.00719424
-0.00688322,0.00719424
0.0535446,0.00719424
0.00310553,0.00719424
0.0543784,0.00719424
-0.0750206,0.00719424
-0.0715889,0.00719424
0.0768067,0.00719424
0.0375388,0.00719424
0.0596408,0.00719424
-0.030864,0.00719424
-0.0589036,0.00719424
-0.0103088,0.00719424
-0.0722903,0.00719424
-0.0246,0.00719424
0.0721321,0.00719424
0.0842651,0.00719424
-0.163076,0.00719424
-0.166151,0.00719424
-0.0396066,0.00719424
-0.0540476,0.00719424
0.0800536,0.00719424
0.0240301,0.00719424
-0.0438431,0.00719424
0.0165412,0.00719424
-0.0772698,0.00719424
0.0385936,0.00719424
-0.0318108,0.00719424
-0.0893779,0.00719424
0.0514011,0.00719424
0.0346287,0.00719424
0.0149117,0.00719424
-0.0738316,0.00719424
0.12923,0.00719424
0.0042505,0.00719424
0.00293907,0.00719424
-0.0915054,0.00719424
0.196989,0.00719424
0.00987845,0.00719424
-0.0219878,0.00719424
-0.0890297,0.00719424
0.0216023,0.00719424
-0.000982406,0.00719424
0.11593,0.00719424
0.133105,0.00719424
-0.0325203,0.00719424
-0.0547686,0.00719424
0.114151,0.00719424
0.0400435,0.00719424
0.00669567,0.00719424
-0.134565,0.00719424
-0.187523,0.00719424
-0.0221732,0.00719424
0.171578,0.00719424
-0.0639851,0.00719424
0.00580983,0.00719424
-0.00385057,0.00719424
-0.0116537,0.00719424
0.0196673,0.00719424
0.101093,0.00719424
-0.0604704,0.00719424
0.103465,0.00719424
-0.0270588,0.00719424
-0.0443911,0.00719424
-0.0454184,0.00719424
-0.0120623,0.00719424
-0.0658211,0.00719424
-0.0296211,0.00719424
-0.118329,0.00719424
0.0358068,0.00719424
0.0639277,0.00719424
0.205333,0.00719424
0.0107405,0.00719424
0.000959615,0.00719424
0.0694217,0.00719424
0.0158524,0.00719424
0.00215781,0.00719424
0.0355411,0.00719424
0.0846226,0.00719424
-0.102312,0.00719424
-0.0304685,0.00719424
-0.0935697,0.00719424
0.0672919,0.00719424
0.084067,0.00719424
0.0380567,0.00719424
0.0513834,0.00719424
0.0443603,0.00719424
-0.129652,0.00719424
0.0240017,0.00719424
0.0494053,0.00719424
-0.109451,0.00719424
0.155881,0.00719424
0.0485855,0.00719424
0.119576,0.00719424
-0.0377446,0.00719424
-0.0997347,0.00719424
-0.169481,0.00719424
0.025539,0.00719424
0.0346944,0.00719424
0.0601609,0.00719424
0.0322786,0.00719424
0.0429987,0.00719424
-0.075403,0.00719424
0.0165736,0.00719424
0.022925,0.00719424
-0.161641,0.00719424
-0.00261517,0.00719424
-0.030761,0.00719424
0.000877167,0.00719424
0.0918529,0.00719424
0.103322,0.00719424
-0.0778407,0.00719424
0.0622344,0.00719424
-0.00750277,0.00719424
-0.0104688,0.00719424
0.000160111,0.00719424
-0.109715,0.00719424
-0.0681849,0.00719424
0.0531758,0.00719424
0.0425883,0.00719424
0.039315,0.00719424
-0.0592184,0.00719424
-0.026456,0.00719424
0.0324133,0.00719424
0.0809621,0.00719424
-0.133333,0.00719424
-0.0345609,0.00719424
-0.0030394,0.00719424
-0.0823903,0.00719424
0.0447455,0.00719424
-0.131611,0.00719424
-0.179491,0.00719424
-0.0518039,0.00719424
-0.0306163,0.00719424
-0.0154884,0.00719424
-0.0250701,0.00719424
-0.0508875,0.00719424
-0.0436956,0.00719424
0.0594957,0.00719424
-0.0928946,0.00719424
-0.0307456,0.00719424
-0.0611026,0.00719424
0.110583,0.00719424
-0.130079,0.00719424
-0.0339579,0.00719424
0.101976,0.00719424
-0.00124166,0.00719424
0.0130759,0.00719424
-0.140028,0.00719424
-0.111707,0.00719424
-0.00611066,0.00719424
0.00100999,0.00719424
0.0110896,0.00719424
-0.0869107,0.00719424
-0.0668233,0.00719424
0.0425374,0.00719424
-0.134277,0.00719424
0.0133282,0.00719424
-0.0810428,0.00719424
-0.106808,0.00719424
0.00948563,0.00719424
-0.0295702,0.00719424
-0.0209548,0.00719424
0.0944547,0.00719424
-0.0615932,0.00719424
-0.0640188,0.00719424
0.0881018,0.00719424
0.0858435,0.00719424
0.134168,0.00719424
0.0228946,0.00719424
0.0546763,0.00719424
-0.195788,0.00719424
-0.0554043,0.00719424
0.00146618,0.00719424
-0.0373374,0.00719424
0.0491003,0.00719424
0.00641007,0.00719424
0.0728466,0.00719424
0.0325352,0.00719424
0.165524,0.00719424
-0.224421,0.00719424
-0.109605,0.00719424
-0.0156876,0.00719424
0.102928,0.00719424
0.167919,0.00719424
0.0297297,0.00719424
0.0862355,0.00719424
0.0196588,0.00719424
0.0809922,0.00719424
-0.105384,0.00719424
0.00263763,0.00719424
-0.0566868,0.00719424
0.0855505,0.00719424
-0.0289909,0.00719424
-0.131629,0.00719424
0.167475,0.00719424
0.0758477,0.00719424
0.144496,0.00719424
0.165967,0.00719424
0.130834,0.00719424
0.0696798,0.00719424
0.0676456,0.00719424
0.00487823,0.00719424
-0.0123853,0.00719424
0.062014,0.00719424
0.0667287,0.00719424
0.0405785,0.00719424
0.0669134,0.00719424
-0.0110749,0.00719424
0.0822013,0.00719424
-0.000885533,0.00719424
0.35373,0.00719424
-0.0779711,0.00719424
-0.0559291,0.00719424
-0.0275772,0.00719424
-0.0855726,0.00719424
-0.133826,0.00719424
0.0513711,0.00719424
0.0290166,0.00719424
0.101951,0.00719424
0.00551074,0.00719424
0.034253,0.00719424
0.0461294,0.00719424
-0.124605,0.00719424
-0.0814533,0.00719424
-0.103795,0.00719424
-0.0221451,0.00719424
-0.071476,0.00719424
-0.0155902,0.00719424
0.0732582,0.00719424
-0.0162564,0.00719424
0.0357776,0.00719424
-0.0177144,0.00719424
-0.0189936,0.00719424
0.0761193,0.00719424
0.0630711,0.00719424
-0.080987,0.00719424
-0.0530386,0.00719424
-0.105843,0.00719424
-0.0382755,0.00719424
-0.0150606,0.00719424
-0.0790148,0.00719424
0.0204155,0.00719424
0.181497,0.00719424
0.139662,0.00719424
0.215761,0.00719424
-0.0731214,0.00719424
0.131977,0.00719424
0.0192566,0.00719424
0.148128,0.00719424
0.0690698,0.00719424
0.0389861,0.00719424
-0.0174169,0.00719424
-0.042441,0.00719424
0.0766185,0.00719424
0.0268646,0.00719424
0.0185022,0.00719424
-0.0988542,0.00719424
0.175186,0.00719424
-0.0496487,0.00719424
-0.118809,0.00719424
0.013452,0.00719424
-0.0192135,0.00719424
-0.0390339,0.00719424
0.0380498,0.00719424
0.0992959,0.00719424
-0.06104,0.00719424
-0.011137,0.00719424
0.0313369,0.00719424
-0.0687864,0.00719424
-0.0735909,0.00719424
-0.0132346,0.00719424
-0.0087655,0.00719424
0.0451857,0.00719424
0.0649998,0.00719424
-0.0504488,0.00719424
0.0857944,0.00719424
-0.0172183,0.00719424
0.0322526,0.00719424
0.0239891,0.00719424
-0.0326614,0.00719424
0.0714091,0.00719424
0.0952377,0.00719424
0.137103,0.00719424
-0.0899846,0.00719424
-0.0589083,0.00719424
-0.0679538,0.00719424
-0.0802505,0.00719424
0.0114591,0.00719424
0.00603269,0.00719424
-0.0950055,0.00719424
-0.0433782,0.00719424
-0.0361841,0.00719424
0.0470439,0.00719424
0.0323382,0.00719424
-0.0159455,0.00719424
0.0140972,0.00719424
-0.0798141,0.00719424
0.074218,0.00719424
0.113593,0.00719424
0.128036,0.00719424
-0.0754529,0.00719424
0.0979322,0.00719424
-0.0789448,0.00719424
-0.0705142,0.00719424
0.00547939,0.00719424
0.0217241,0.00719424
-0.10755,0.00719424
-0.0921148,0.00719424
0.00464306,0.00719424
0.131685,0.00719424
-0.0719837,0.00719424
0.0486751,0.00719424
-0.0324777,0.00719424
0.0311833,0.00719424
-0.109896,0.00719424
-0.0173278,0.00719424
-0.0957236,0.00719424
0.098709,0.00719424
-0.140701,0.00719424
0.0905367,0.00719424
-0.172946,0.00719424
0.0622754,0.00719424
0.0040413,0.00719424
-0.0304472,0.00719424
-0.0939147,0.00719424
0.238163,0.00719424
-0.0754963,0.00719424
-0.0175693,0.00719424
-0.0110426,0.00719424
-0.0701205,0.00719424
-0.0528885,0.00719424
-0.0712019,0.00719424
0.0515125,0.00719424
0.130107,0.00719424
-0.0108956,0.00719424
0.0320738,0.00719424
0.0937301,0.00719424
0.167174,0.00719424
0.0166796,0.00719424
0.0115075,0.00719424
-0.02942,0.00719424
-0.0371004,0.00719424
-0.02899,0.00719424
-0.0287015,0.00719424
-0.0107103,0.00719424
-0.00484514,0.00719424
-0.0392152,0.00719424
-0.178403,0.00719424
0.00752591,0.00719424
-0.0191268,0.00719424
-0.0330039,0.00719424
-0.0546581,0.00719424
-0.0825993,0.00719424
-0.102016,0.00719424
0.08303,0.00719424
0.135944,0.00719424
0.139895,0.00719424
0.205939,0.00719424
-0.0777037,0.00719424
-0.0119257,0.00719424
0.019348,0.00719424
-0.0392226,0.00719424
-0.0480688,0.00719424
-0.078413,0.00719424
-0.0603513,0.00719424
0.0469657,0.00719424
0.108678,0.00719424
-0.0961248,0.00719424
-0.0622811,0.00719424
0.030097,0.00719424
-0.00340977,0.00719424
-0.0350453,0.00719424
-0.00205712,0.00719424
0.094655,0.00719424
0.0929909,0.00719424
-0.0169327,0.00719424
-0.0360502,0.00719424
0.0416073,0.00719424
0.0220613,0.00719424
-0.0307275,0.00719424
0.0081281,0.00719424
0.0782326,0.00719424
0.0359281,0.00719424
-0.0468678,0.00719424
-0.0640035,0.00719424
-0.120296,0.00719424
0.00131197,0.00719424
-0.0600017,0.00719424
-0.143068,0.00719424
0.0492886,0.00719424
-0.113199,0.00719424
0.135209,0.00719424
-0.108909,0.00719424
-0.0270212,0.00719424
0.0145848,0.00719424
0.115232,0.00719424
-0.073331,0.00719424
-0.0342834,0.00719424
-0.109965,0.00719424
-0.1336,0.00719424
0.117362,0.00719424
0.0982113,0.00719424
-0.00948837,0.00719424
-0.183993,0.00719424
0.0608313,0.00719424
-0.049482,0.00719424
0.0253513,0.00719424
0.0483268,0.00719424
0.00121324,0.00719424
-0.0266979,0.00719424
-0.0212822,0.00719424
0.109959,0.00719424
-0.0750526,0.00719424
-0.214288,0.00719424
-0.0910559,0.00719424
-0.0222562,0.00719424
-0.0290956,0.00719424
0.183478,0.00719424
0.07462,0.00719424
0.0888959,0.00719424
0.134889,0.00719424
0.122514,0.00719424
-0.138936,0.00719424
-0.00537116,0.00719424
-0.0626764,0.00719424
-0.0701779,0.00719424
0.00225309,0.00719424
-0.0396044,0.00719424
-0.107566,0.00719424
-0.101264,0.00719424
0.0146825,0.00719424
0.0959835,0.00719424
0.134332,0.00719424
-0.0205339,0.00719424
-0.0609881,0.00719424
0.0163204,0.00719424
0.0100329,0.00719424
0.00580534,0.00719424
-0.134222,0.00719424
-0.0825779,0.00719424
0.0121528,0.00719424
0.111449,0.00719424
-0.230944,0.00719424
-0.00577917,0.00719424
-0.0194069,0.00719424
-0.0759168,0.00719424
-0.0500097,0.00719424
0.00224261,0.00719424
-0.0235082,0.00719424
-0.0312509,0.00719424
0.040808,0.00719424
0.0132616,0.00719424
0.00811354,0.00719424
-0.00151426,0.00719424
-0.0384107,0.00719424
0.0348017,0.00719424
-0.119972,0.00719424
0.0602935,0.00719424
-0.0377417,0.00719424
0.0903147,0.00719424
0.0268277,0.00719424
0.122586,0.00719424
-0.0589316,0.00719424
-0.0942574,0.00719424
-0.00321673,0.00719424
-0.0225496,0.00719424
-0.0889188,0.00719424
0.107278,0.00719424
0.164267,0.00719424
-0.0222508,0.00719424
-0.0361144,0.00719424
0.139248,0.00719424
-0.0945079,0.00719424
-0.0471548,0.00719424
-0.0232387,0.00719424
0.100404,0.00719424
-0.0562819,0.00719424
0.059903,0.00719424
0.0413786,0.00719424
0.026156,0.00719424
0.0243897,0.00719424
0.0920193,0.00719424
-0.10593,0.00719424
0.104999,0.00719424
0.0195772,0.00719424
-0.0161261,0.00719424
0.0971026,0.00719424
0.0372758,0.00719424
-0.131437,0.00719424
-0.167088,0.00719424
0.0941052,0.00719424
0.000411551,0.00719424
0.0699107,0.00719424
0.0752613,0.00719424
0.03896,0.00719424
-0.049804,0.00719424
0.0266819,0.00719424
0.0773836,0.00719424
-0.0513048,0.00719424
-0.185186,0.00719424
-0.0593593,0.00719424
-0.0195814,0.00719424
0.129125,0.00719424
-0.0554573,0.00719424
-0.0420059,0.00719424
-0.0151611,0.00719424
0.205963,0.00719424
0.0258195,0.00719424
0.0447543,0.00719424
-0.0304461,0.00719424
-0.0764354,0.00719424
0.11678,0.00719424
0.117449,0.00719424
0.0781447,0.00719424
-0.104463,0.00719424
0.00267249,0.00719424
0.12329,0.00719424
-0.0104588,0.00719424
-0.111032,0.00719424
0.0835801,0.00719424
0.00460342,0.00719424
-0.0114114,0.00719424
-0.0855413,0.00719424
-0.0304409,0.00719424
-0.016669,0.00719424
-0.0814993,0.00719424
-0.0119666,0.00719424
-0.020012,0.00719424
-0.132482,0.00719424
0.0916364,0.00719424
-0.0388862,0.00719424
0.0747217,0.00719424
-0.0488074,0.00719424
0.110644,0.00719424
-0.0215857,0.00719424
0.0582811,0.00719424
0.0736362,0.00719424
-0.0247343,0.00719424
0.02964,0.00719424
-0.109205,0.00719424
-0.017266,0.00719424
-0.036202,0.00719424
0.0205404,0.00719424
-0.0236236,0.00719424
0.0482584,0.00719424
-0.0317353,0.00719424
-0.14119,0.00719424
0.0940347,0.00719424
0.024817,0.00719424
0.0615438,0.00719424
-0.165426,0.00719424
0.125507,0.00719424
-0.115203,0.00719424
0.140646,0.00719424
-0.0426909,0.00719424
0.147842,0.00719424
0.115302,0.00719424
-0.0485555,0.00719424
-0.0385707,0.00719424
-0.0812439,0.00719424
-0.0646655,0.00719424
-0.169041,0.00719424
-0.130579,0.00719424
-0.188538,0.00719424
0.0163183,0.00719424
-0.14133,0.00719424
0.0569056,0.00719424
-0.0292724,0.00719424
0.0914479,0.00719424
0.00155568,0.00719424
0.121054,0.00719424
-0.0621127,0.00719424
0.0109996,0.00719424
0.0139393,0.00719424
-0.0576614,0.00719424
0.0197653,0.00719424
0.0151222,0.00719424
-0.0931937,0.00719424
0.0170464,0.00719424
-0.215746,0.00719424
0.204292,0.00719424
0.0337323,0.00719424
-0.0379584,0.00719424
-0.139053,0.00719424
0.0113643,0.00719424
0.0702274,0.00719424
-0.0186069,0.00719424
-0.0397839,0.00719424
-0.065396,0.00719424
-0.0766752,0.00719424
0.0328948,0.00719424
0.115305,0.00719424
0.065227,0.00719424
0.137125,0.00719424
0.0928265,0.00719424
-0.0614594,0.00719424
0.0243883,0.00719424
0.0181965,0.00719424
-0.0579903,0.00719424
-0.118546,0.00719424
-0.0252147,0.00719424
-0.14102,0.00719424
-0.0267204,0.00719424
-0.200541,0.00719424
0.0505,0.00719424
-0.0525048,0.00719424
0.151353,0.00719424
0.0794155,0.00719424
-0.0388429,0.00719424
0.10192,0.00719424
0.0338926,0.00719424
0.0742627,0.00719424
0.0221255,0.00719424
-0.169025,0.00719424
0.0641746,0.00719424
-0.00520584,0.00719424
-0.0359032,0.00719424
0.0297468,0.00719424
-0.0649839,0.00719424
-0.150744,0.00719424
0.162092,0.00719424
0.0505828,0.00719424
0.0406111,0.00719424
-0.166505,0.00719424
0.038148,0.00719424
0.0836448,0.00719424
0.00150964,0.00719424
-0.0374337,0.00719424
-0.00750253,0.00719424
0.140667,0.00719424
0.0766936,0.00719424
-0.0133466,0.00719424
-0.03904,0.00719424
0.0204809,0.00719424
-0.0599937,0.00719424
-0.050157,0.00719424
-0.100165,0.00719424
0.0684464,0.00719424
0.0820351,0.00719424
0.019269,0.00719424
0.0906387,0.00719424
-0.0570696,0.00719424
0.0618685,0.00719424
-0.0675905,0.00719424
0.050926,0.00719424
0.0132689,0.00719424
-0.0114915,0.00719424
0.0328244,0.00719424
0.00790111,0.00719424
0.0386456,0.00719424
0.0354235,0.00719424
-0.0370162,0.00719424
-0.0877843,0.00719424
0.0725977,0.00719424
0.139527,0.00719424
0.0540856,0.00719424
-0.0271814,0.00719424
-0.0734541,0.00719424
-0.0801928,0.00719424
-0.0452857,0.00719424
0.00423433,0.00719424
0.0618456,0.00719424
-0.0454991,0.00719424
0.111017,0.00719424
0.0269717,0.00719424
0.00201657,0.00719424
-0.0900397,0.00719424
-0.0819379,0.00719424
0.0303,0.00719424
0.0318717,0.00719424
0.0361389,0.00719424
0.0317881,0.00719424
-0.0163492,0.00719424
0.151514,0.00719424
-0.112358,0.00719424
0.0516689,0.00719424
-0.0750193,0.00719424
0.221454,0.00719424
0.140924,0.00719424
0.0466392,0.00719424
-0.147721,0.00719424
0.00114306,0.00719424
-0.0199535,0.00719424
-0.0305196,0.00719424
0.0131328,0.00719424
0.078022,0.00719424
0.0250604,0.00719424
-0.0597087,0.00719424
-0.050825,0.00719424
0.102167,0.00719424
-0.0670202,0.00719424
0.0162235,0.00719424
-0.0522682,0.00719424
0.0766585,0.00719424
-0.0171827,0.00719424
0.0859789,0.00719424
0.033041,0.00719424
0.117228,0.00719424
-0.169477,0.00719424
-0.17726,0.00719424
-0.0583981,0.00719424
-0.0561802,0.00719424
-0.0960261,0.00719424
-0.0375538,0.00719424
-0.076413,0.00719424
-0.0468765,0.00719424
-0.0307287,0.00719424
0.0774519,0.00719424
-0.0617839,0.00719424
-0.0254912,0.00719424
0.0405168,0.00719424
-0.0133956,0.00719424
-0.138356,0.00719424
-0.0859499,0.00719424
-0.0666045,0.00719424
0.0664737,0.00719424
0.01979,0.00719424
0.0170243,0.00719424
0.0765966,0.00719424
-0.10977,0.00719424
0.0583123,0.00719424
-0.0231304,0.00719424
-0.070341,0.00719424
0.0172865,0.00719424
-0.174845,0.00719424
-0.02145,0.00719424
0.016408,0.00719424
-0.0959775,0.00719424
0.000101229,0.00719424
-0.0766729,0.00719424
0.0218063,0.00719424
0.0128194,0.00719424
-0.00356818,0.00719424
0.0567214,0.00719424
0.000906873,0.00719424
-0.0570859,0.00719424
-0.197203,0.00719424
0.113908,0.00719424
0.0203761,0.00719424
-0.0525082,0.00719424
-0.012369,0.00719424
0.0963338,0.00719424
-0.0874626,0.00719424
-0.0469597,0.00719424
0.0862752,0.00719424
-0.0305909,0.00719424
-0.209792,0.00719424
0.0365718,0.00719424
-0.0310245,0.00719424
0.0652809,0.00719424
0.0458637,0.00719424
0.13093,0.00719424
0.044403,0.00719424
-0.108615,0.00719424
-0.107264,0.00719424
-0.123663,0.00719424
-0.0202487,0.00719424
-0.020345,0.00719424
0.139461,0.00719424
-0.0644801,0.00719424
-0.166374,0.00719424
0.0845903,0.00719424
-0.00491252,0.00719424
-0.0730321,0.00719424
-0.0255934,0.00719424
0.0884532,0.00719424
-0.160173,0.00719424
-0.0928114,0.00719424
0.0805266,0.00719424
-0.0138719,0.00719424
-0.0840507,0.00719424
-0.0521969,0.00719424
0.0140009,0.00719424
-0.00342147,0.00719424
0.128998,0.00719424
0.0099731,0.00719424
0.031709,0.00719424
-0.106628,0.00719424
-0.104658,0.00719424
0.0585203,0.00719424
-0.102117,0.00719424
0.212869,0.00719424
0.0110566,0.00719424
-0.12621,0.00719424
-0.143941,0.00719424
-0.0455583,0.00719424
-0.035474,0.00719424
0.0550041,0.00719424
-0.034259,0.00719424
0.0163038,0.00719424
0.114178,0.00719424
-0.0685054,0.00719424
-0.0604755,0.00719424
0.0838112,0.00719424
-0.0524179,0.00719424
0.0694156,0.00719424
-0.0909048,0.00719424
0.00217296,0.00719424
0.129371,0.00719424
0.0713817,0.00719424
-0.0372325,0.00719424
-0.0498745,0.00719424
0.0544244,0.00719424
0.0104958,0.00719424
-0.0666811,0.00719424
-0.0815096,0.00719424
0.0858244,0.00719424
0.0203678,0.00719424
-0.0775592,0.00719424
-0.0351375,0.00719424
-0.140378,0.00719424
-0.147513,0.00719424
0.112233,0.00719424
0.00708813,0.00719424
0.040689,0.00719424
-0.0979,0.00719424
0.011379,0.00719424
0.008269,0.00719424
-0.0867396,0.00719424
0.0891822,0.00719424
0.0391435,0.00719424
-0.0146126,0.00719424
-0.0675262,0.00719424
0.0709067,0.00719424
-0.0604777,0.00719424
-0.0586362,0.00719424
0.055234,0.00719424
-0.173991,0.00719424
0.0122434,0.00719424
0.0631774,0.00719424
0.073181,0.00719424
0.153847,0.00719424
-0.13435,0.00719424
0.0707691,0.00719424
0.132891,0.00719424
0.118014,0.00719424
0.0185957,0.00719424
0.00780354,0.00719424
0.0366976,0.00719424
-0.0610714,0.00719424
-0.0368628,0.00719424
-0.0844705,0.00719424
0.220003,0.00719424
-0.0495072,0.00719424
0.0622024,0.00719424
0.0428145,0.00719424
-0.0314242,0.00719424
0.144131,0.00719424
-0.164864,0.00719424
-0.0504842,0.00719424
-0.060649,0.00719424
-0.0878391,0.00719424
0.043974,0.00719424
-0.12561,0.00719424
0.115549,0.00719424
0.0646041,0.00719424
0.0423123,0.00719424
-0.0199668,0.00719424
-0.187447,0.00719424
-0.0133722,0.00719424
-0.0828551,0.00719424
-0.119126,0.00719424
0.0288817,0.00719424
-0.0198927,0.00719424
0.0750728,0.00719424
0.200539,0.00719424
-0.0639669,0.00719424
0.0337239,0.00719424
0.1142,0.00719424
0.0490209,0.00719424
0.0379095,0.00719424
-0.1454,0.00719424
-0.0779668,0.00719424
0.00423754,0.00719424
-0.0879442,0.00719424
-0.110431,0.00719424
0.10755,0.00719424
-0.0185734,0.00719424
0.0305184,0.00719424
-0.0147815,0.00719424
0.00562134,0.00719424
0.140087,0.00719424
0.0753516,0.00719424
0.093875,0.00719424
-0.00336055,0.00719424
0.103141,0.00719424
-0.0589657,0.00719424
0.100172,0.00719424
-0.0826,0.00719424
0.0273161,0.00719424
0.0297535,0.00719424
-0.0392826,0.00719424
-0.102218,0.00719424
-0.0557951,0.00719424
0.0234512,0.00719424
0.0708509,0.00719424
-0.0673705,0.00719424
-0.0796505,0.00719424
-0.0622723,0.00719424
-0.0563791,0.00719424
0.00797317,0.00719424
-0.0157231,0.00719424
-0.159114,0.00719424
-0.0118656,0.00719424
0.0186763,0.00719424
0.0414965,0.00719424
-0.0102166,0.00719424
0.126677,0.00719424
-0.0162548,0.00719424
-0.0876371,0.00719424
0.0381092,0.00719424
0.0187892,0.00719424
-0.0558595,0.00719424
-0.0516252,0.00719424
-0.0287163,0.00719424
0.032586,0.00719424
0.0248743,0.00719424
0.0303404,0.00719424
-0.0151465,0.00719424
0.129894,0.00719424
-0.14177,0.00719424
0.0291348,0.00719424
0.0301074,0.00719424
0.0739377,0.00719424
0.0241066,0.00719424
0.0174136,0.00719424
0.0849692,0.00719424
0.201923,0.00719424
0.0237769,0.00719424
0.0478649,0.00719424
0.155746,0.00719424
-0.108365,0.00719424
0.0500105,0.00719424
-0.0290708,0.00719424
0.0390013,0.00719424
0.00471039,0.00719424
-0.0014859,0.00719424
-0.11559,0.00719424
-0.0402607,0.00719424
0.10075,0.00719424
-0.0441018,0.00719424
0.0584329,0.00719424
0.00701023,0.00719424
-0.104378,0.00719424
-0.00372038,0.00719424
-0.103726,0.00719424
0.00430295,0.00719424
-0.0677504,0.00719424
0.0230546,0.00719424
-0.00459205,0.00719424
-0.0115697,0.00719424
-0.0224771,0.00719424
-0.0334038,0.00719424
-0.0605504,0.00719424
0.073971,0.00719424
0.0219721,0.00719424
-0.0619349,0.00719424
0.0413945,0.00719424
-0.0715374,0.00719424
0.0232432,0.00719424
1.83283e-05,0.00719424
0.0780592,0.00719424
-0.0705594,0.00719424
-0.0713035,0.00719424
0.0210343,0.00719424
-0.0654098,0.00719424
-0.0372743,0.00719424
-0.112012,0.00719424
-0.0174183,0.00719424
0.0844308,0.00719424
-0.0108467,0.00719424
-0.0519077,0.00719424
0.0370293,0.00719424
-0.0886083,0.00719424
-0.0924359,0.00719424
0.126413,0.00719424
-0.110148,0.00719424
0.0207097,0.00719424
-0.0195216,0.00719424
-0.0978885,0.00719424
0.00211398,0.00719424
-0.108016,0.00719424
-0.105182,0.00719424
-0.0384862,0.00719424
-0.210898,0.00719424
-0.0133741,0.00719424
0.115017,0.00719424
-0.0197017,0.00719424
0.0504008,0.00719424
-0.0289122,0.00719424
-0.0887356,0.00719424
-0.0493633,0.00719424
-0.130674,0.00719424
-0.0852973,0.00719424
0.00457901,0.00719424
-0.0443343,0.00719424
0.0368783,0.00719424
0.0556868,0.00719424
-0.142382,0.00719424
0.104827,0.00719424
-0.0294721,0.00719424
0.0454899,0.00719424
-0.0357899,0.00719424
0.0297627,0.00719424
0.147253,0.00719424
-0.0276008,0.00719424
-0.0482919,0.00719424
0.0662734,0.00719424
-0.030807,0.00719424
-0.0918795,0.00719424
-0.122768,0.00719424
-0.219407,0.00719424
0.0199846,0.00719424
-0.109344,0.00719424
0.00666883,0.00719424
-0.0856802,0.00719424
0.0488566,0.00719424
0.0452277,0.00719424
0.094568,0.00719424
0.0633463,0.00719424
0.00730898,0.00719424
0.085495,0.00719424
-0.0858679,0.00719424
0.0737921,0.00719424
-0.120754,0.00719424
-0.074207,0.00719424
-0.141449,0.00719424
0.0986605,0.00719424
0.0441916,0.00719424
-0.140173,0.00719424
-0.113021,0.00719424
-0.0494254,0.00719424
-0.0409891,0.00719424
-0.0762754,0.00719424
-0.12446,0.00719424
0.0114206,0.00719424
0.0622126,0.00719424
0.0622373,0.00719424
0.0371121,0.00719424
0.0271621,0.00719424
0.00324948,0.00719424
0.00976553,0.00719424
-0.125745,0.00719424
-0.0532451,0.00719424
0.0103709,0.00719424
-0.0468926,0.00719424
-0.0910528,0.00719424
-0.0131293,0.00719424
0.014247,0.00719424
0.00168541,0.00719424
0.046443,0.00719424
0.0672916,0.00719424
-0.128435,0.00719424
-0.0301552,0.00719424
-0.00784015,0.00719424
0.00428489,0.00719424
0.11449,0.00719424
0.0385247,0.00719424
-0.169795,0.00719424
0.0444066,0.00719424
0.0555957,0.00719424
-0.0278096,0.00719424
0.0540829,0.00719424
0.0264409,0.00719424
-0.0290525,0.00719424
0.00807638,0.00719424
-0.223178,0.00719424
0.0428356,0.00719424
0.0297242,0.00719424
0.166309,0.00719424
0.0636394,0.00719424
-0.115962,0.00719424
-0.0963101,0.00719424
-0.0842062,0.00719424
-0.185953,0.00719424
-0.00135334,0.00719424
-0.0395246,0.00719424
-0.0466931,0.00719424
-0.0154407,0.00719424
-0.100474,0.00719424
0.0960531,0.00719424
-0.0139514,0.00719424
0.0566404,0.00719424
0.0524773,0.00719424
0.0664732,0.00719424
-0.00947168,0.00719424
-0.0778928,0.00719424
0.12573,0.00719424
0.0472898,0.00719424
-0.00610701,0.00719424
-0.077618,0.00719424
0.00207756,0.00719424
-0.0482233,0.00719424
-0.0266974,0.00719424
-0.129534,0.00719424
-0.0287729,0.00719424
-0.0686887,0.00719424
0.0375855,0.00719424
0.042081,0.00719424
0.0824436,0.00719424
0.135897,0.00719424
0.0790808,0.00719424
0.0623395,0.00719424
-0.0296382,0.00719424
-0.0368273,0.00719424
0.063731,0.00719424
0.0691414,0.00719424
0.0703653,0.00719424
0.00989088,0.00719424
-0.104466,0.00719424
0.0716672,0.00719424
0.06861,0.00719424
0.0425931,0.00719424
-0.131263,0.00719424
-0.0412916,0.00719424
0.019938,0.00719424
-0.082128,0.00719424
0.0610896,0.00719424
-0.0745532,0.00719424
-0.0613655,0.00719424
-0.148647,0.00719424
0.0300151,0.00719424
0.0355262,0.00719424
-0.0320788,0.00719424
-0.156615,0.00719424
-0.0852348,0.00719424
0.0314723,0.00719424
-0.10553,0.00719424
-0.0562853,0.00719424
0.202593,0.00719424
-0.10151,0.00719424
0.0248698,0.00719424
0.16779,0.00719424
0.0633249,0.00719424
-0.16879,0.00719424
0.0723429,0.00719424
0.0509362,0.00719424
-0.0411551,0.00719424
0.0333578,0.00719424
-0.0831609,0.00719424
-0.00325674,0.00719424
0.0673896,0.00719424
-0.0448335,0.00719424
-0.040181,0.00719424
-0.0610429,0.00719424
-0.008711,0.00719424
0.019356,0.00719424
0.000962372,0.00719424
-0.0699456,0.00719424
0.0530456,0.00719424
-0.00358024,0.00719424
0.135079,0.00719424
0.129608,0.00719424
0.119038,0.00719424
0.0266984,0.00719424
0.0349786,0.00719424
-0.0668039,0.00719424
0.0347847,0.00719424
-0.115706,0.00719424
-0.0961744,0.00719424
-0.0103336,0.00719424
-0.078294,0.00719424
-0.144822,0.00719424
-0.150726,0.00719424
-0.0284817,0.00719424
-0.131285,0.00719424
-0.104985,0.00719424
-0.161095,0.00719424
-0.0316796,0.00719424
0.0220305,0.00719424
-0.0143742,0.00719424
-0.0322791,0.00719424
0.00500899,0.00719424
-0.00896455,0.00719424
0.0247038,0.00719424
0.0911318,0.00719424
-0.0304827,0.00719424
0.0371697,0.00719424
-0.0908259,0.00719424
0.0534919,0.00719424
0.155857,0.00719424
0.146835,0.00719424
0.0310126,0.00719424
0.0285891,0.00719424
-0.109803,0.00719424
-0.0864232,0.00719424
0.117016,0.00719424
0.00191128,0.00719424
0.100944,0.00719424
0.0381153,0.00719424
0.0468486,0.00719424
-0.132623,0.00719424
0.00643251,0.00719424
0.0704257,0.00719424
0.0247666,0.00719424
-0.00236383,0.00719424
0.149813,0.00719424
0.101479,0.00719424
-0.0104571,0.00719424
0.0181116,0.00719424
-0.0373147,0.00719424
0.0351773,0.00719424
0.0202417,0.00719424
0.0383958,0.00719424
-0.0661447,0.00719424
-0.0728302,0.00719424
0.0749696,0.00719424
-0.0784166,0.00719424
-0.121413,0.00719424
0.0931262,0.00719424
0.0773687,0.00719424
0.0320031,0.00719424
-0.0711725,0.00719424
-0.0507374,0.00719424
0.0985136,0.00719424
-0.0235968,0.00719424
-0.100931,0.00719424
-0.0955737,0.00719424
0.0659053,0.00719424
-0.16572,0.00719424
0.00018375,0.00719424
-0.221402,0.00719424
-0.0738785,0.00719424
0.0496053,0.00719424
0.0239918,0.00719424
-0.012769,0.00719424
-0.179846,0.00719424
0.0105859,0.00719424
0.083602,0.00719424
0.0282917,0.00719424
-0.070741,0.00719424
-0.0359471,0.00719424
0.141921,0.00719424
-0.147345,0.00719424
-0.0245396,0.00719424
0.20098,0.00719424
-0.138356,0.00719424
-0.0541012,0.00719424
-0.0399843,0.00719424
0.0505923,0.00719424
0.0362954,0.00719424
-0.0684141,0.00719424
-0.157135,0.00719424
-0.0560254,0.00719424
0.138777,0.00719424
-0.0490795,0.00719424
0.107158,0.00719424
0.106874,0.00719424
-0.0243028,0.00719424
0.0529478,0.00719424
0.131888,0.00719424
-0.0200914,0.00719424
-0.134563,0.00719424
0.0871783,0.00719424
-0.249124,0.00719424
-0.0994469,0.00719424
0.0523168,0.00719424
-0.052964,0.00719424
-0.0440137,0.00719424
0.0863885,0.00719424
-0.0119839,0.00719424
0.0746108,0.00719424
0.0161887,0.00719424
0.08613,0.00719424
-0.0943894,0.00719424
0.156768,0.00719424
0.00663713,0.00719424
-0.0841929,0.00719424
-0.0244845,0.00719424
-0.0225496,0.00719424
-0.201084,0.00719424
-0.0648844,0.00719424
-0.0724022,0.00719424
-0.0117887,0.00719424
-0.0748513,0.00719424
0.0520581,0.00719424
-0.0854134,0.00719424
-0.0881493,0.00719424
0.0656356,0.00719424
-0.00614869,0.00719424
-0.00959495,0.00719424
0.0269078,0.00719424
-0.0270001,0.00719424
0.0406341,0.00719424
-0.00606836,0.00719424
-0.03594,0.00719424
-0.223896,0.00719424
-0.0219543,0.00719424
-0.0317992,0.00719424
0.0242118,0.00719424
0.0663207,0.00719424
-0.0540396,0.00719424
0.0998135,0.00719424
0.176041,0.00719424
0.0151059,0.00719424
-0.00888087,0.00719424
0.0258073,0.00719424
0.0458321,0.00719424
-0.0652205,0.00719424
-0.131891,0.00719424
-0.154696,0.00719424
-0.0184415,0.00719424
-0.0313052,0.00719424
0.0630229,0.00719424
-0.00563919,0.00719424
0.0055432,0.00719424
-0.0962816,0.00719424
-0.239462,0.00719424
0.155072,0.00719424
-0.073056,0.00719424
-0.00565577,0.00719424
-0.136112,0.00719424
0.0228729,0.00719424
0.0704858,0.00719424
-0.0701066,0.00719424
0.131366,0.00719424
-0.0368457,0.00719424
0.138359,0.00719424
0.0592717,0.00719424
-0.150924,0.00719424
-0.0671417,0.00719424
0.0784265,0.00719424
0.0768688,0.00719424
0.0135252,0.00719424
-0.131391,0.00719424
-0.052782,0.00719424
-0.0363987,0.00719424
0.0300384,0.00719424
-0.0114003,0.00719424
0.123568,0.00719424
0.0616845,0.00719424
-0.0366773,0.00719424
-0.0221841,0.00719424
0.0119429,0.00719424
0.0230644,0.00719424
-0.18227,0.00719424
0.105472,0.00719424
-0.0267611,0.00719424
-0.00563176,0.00719424
-0.0356781,0.00719424
0.177725,0.00719424
-0.0300337,0.00719424
-0.0528199,0.00719424
0.0947818,0.00719424
0.117514,0.00719424
-0.0038774,0.00719424
-0.0490656,0.00719424
0.0448873,0.00719424
-0.135194,0.00719424
-0.0383328,0.00719424
0.0193432,0.00719424
0.0603221,0.00719424
0.0592214,0.00719424
0.0169707,0.00719424
-0.0460408,0.00719424
0.0389425,0.00719424
-0.0761857,0.00719424
0.0459848,0.00719424
-0.055406,0.00719424
0.0754046,0.00719424
-0.0976638,0.00719424
-0.0665166,0.00719424
0.00514921,0.00719424
0.17701,0.00719424
-0.00122579,0.00719424
-0.0405367,0.00719424
0.0252862,0.00719424
-0.119969,0.00719424
-0.00151587,0.00719424
-0.0097294,0.00719424
0.211171,0.00719424
0.13397,0.00719424
0.082625,0.00719424
0.109893,0.00719424
0.0430098,0.00719424
-0.070992,0.00719424
-0.0350326,0.00719424
0.109126,0.00719424
0.13368,0.00719424
-0.0189303,0.00719424
-0.0522277,0.00719424
0.0330942,0.00719424
0.138075,0.00719424
0.0176697,0.00719424
0.103321,0.00719424
-0.0524127,0.00719424
0.124731,0.00719424
0.125378,0.00719424
-0.0568452,0.00719424
0.138002,0.00719424
-0.0575847,0.00719424
0.0315937,0.00719424
-0.0405511,0.00719424
-0.0168693,0.00719424
-0.0758611,0.00719424
0.0131537,0.00719424
0.0895874,0.00719424
-0.138056,0.00719424
0.0440516,0.00719424
0.0563748,0.00719424
-0.0451958,0.00719424
0.0967754,0.00719424
0.115106,0.00719424
-0.00478776,0.00719424
-0.119175,0.00719424
-0.143203,0.00719424
0.0207979,0.00719424
0.162654,0.00719424
0.0611054,0.00719424
0.0309999,0.00719424
-0.0409274,0.00719424
0.023925,0.00719424
-0.0200056,0.00719424
-0.0323859,0.00719424
-0.00480316,0.00719424
0.132219,0.00719424
0.082742,0.00719424
-0.00235309,0.00719424
0.221457,0.00719424
-0.0114388,0.00719424
-0.226011,0.00719424
0.0620913,0.00719424
0.0594418,0.00719424
0.0160887,0.00719424
0.0126956,0.00719424
0.0689466,0.00719424
0.0439014,0.00719424
-0.0727189,0.00719424
-0.0981887,0.00719424
0.0646735,0.00719424
-0.209799,0.00719424
0.0346636,0.00719424
0.120433,0.00719424
-0.00963451,0.00719424
0.0792344,0.00719424
0.113212,0.00719424
-0.134318,0.00719424
-0.0491322,0.00719424
0.0865096,0.00719424
0.173226,0.00719424
-0.0444671,0.00719424
-0.0397375,0.00719424
-0.0208972,0.00719424
-0.012448,0.00719424
0.0914588,0.00719424
-0.0119076,0.00719424
0.00729555,0.00719424
0.0583614,0.00719424
0.0461931,0.00719424
0.011446,0.00719424
-0.0842505,0.00719424
0.150152,0.00719424
0.163455,0.00719424
-0.0635467,0.00719424
0.0308509,0.00719424
0.0524664,0.00719424
-0.00423612,0.00719424
0.0297389,0.00719424
-0.0597335,0.00719424
-0.0938131,0.00719424
0.166836,0.00719424
-0.0473569,0.00719424
-0.0474538,0.00719424
0.00728923,0.00719424
-0.0252051,0.00719424
-0.0120596,0.00719424
-0.0918451,0.00719424
-0.0651334,0.00719424
-0.0206525,0.00719424
-0.0813875,0.00719424
-0.0154692,0.00719424
-0.0810646,0.00719424
0.050213,0.00719424
-0.0177463,0.00719424
0.0980194,0.00719424
-0.0596415,0.00719424
0.122698,0.00719424
-0.163914,0.00719424
-0.0690126,0.00719424
0.0583477,0.00719424
-0.10314,0.00719424
0.0422866,0.00719424
-0.126404,0.00719424
0.0725739,0.00719424
-0.0452377,0.00719424
-0.0478988,0.00719424
-0.115717,0.00719424
0.029707,0.00719424
-0.0592447,0.00719424
-0.047226,0.00719424
0.0345809,0.00719424
-0.0231621,0.00719424
-0.126211,0.00719424
-0.0499389,0.00719424
0.0437623,0.00719424
-0.00765329,0.00719424
-0.132206,0.00719424
-0.093274,0.00719424
-0.0123275,0.00719424
0.0838111,0.00719424
-0.0506817,0.00719424
0.0373305,0.00719424
-0.0893461,0.00719424
0.0334739,0.00719424
0.181748,0.00719424
-0.0734464,0.00719424
-0.0715524,0.00719424
-0.0219967,0.00719424
-0.0923895,0.00719424
0.109866,0.00719424
-0.161459,0.00719424
-0.020657,0.00719424
0.181737,0.00719424
-0.187753,0.00719424
-0.064848,0.00719424
0.0907869,0.00719424
-0.0862779,0.00719424
0.0387258,0.00719424
-0.0805703,0.00719424
-0.093388,0.00719424
-0.0928003,0.00719424
-0.0283719,0.00719424
0.199145,0.00719424
0.0563113,0.00719424
-0.223434,0.00719424
-0.152678,0.00719424
-0.104376,0.00719424
-0.160331,0.00719424
0.110282,0.00719424
-0.0225626,0.00719424
0.074745,0.00719424
0.0604461,0.00719424
-0.137659,0.00719424
0.0920102,0.00719424
0.0111069,0.00719424
-0.0808531,0.00719424
-0.047642,0.00719424
-0.0322384,0.00719424
-0.0507752,0.00719424
-0.075251,0.00719424
0.0470132,0.00719424
-0.193638,0.00719424
-0.0360601,0.00719424
-0.137527,0.00719424
-0.117546,0.00719424
-0.0237017,0.00719424
0.0690041,0.00719424
-0.00538914,0.00719424
0.00495016,0.00719424
-0.0213617,0.00719424
-0.0275622,0.00719424
0.0152878,0.00719424
0.100107,0.00719424
-0.107536,0.00719424
0.0371208,0.00719424
0.0938407,0.00719424
-0.0499742,0.00719424
0.0166428,0.00719424
-0.0301149,0.00719424
0.0790306,0.00719424
0.0163565,0.00719424
0.0828166,0.00719424
0.105537,0.00719424
-0.166741,0.00719424
-0.213344,0.00719424
0.119461,0.00719424
0.0559031,0.00719424
0.121666,0.00719424
-0.031533,0.00719424
0.0331996,0.00719424
0.037494,0.00719424
0.169862,0.00719424
-0.0625055,0.00719424
0.00982842,0.00719424
0.0372977,0.00719424
-0.133122,0.00719424
-0.0867112,0.00719424
0.0790357,0.00719424
0.0634542,0.00719424
0.16365,0.00719424
-0.0773984,0.00719424
-0.0649209,0.00719424
0.0426511,0.00719424
-0.0264,0.00719424
-0.0940587,0.00719424
-0.120372,0.00719424
-0.0826216,0.00719424
0.0636718,0.00719424
-0.0979463,0.00719424
-0.0290847,0.00719424
-0.106724,0.00719424
-0.0403083,0.00719424
0.106078,0.00719424
0.0509377,0.00719424
0.00251263,0.00719424
0.00112483,0.00719424
0.0906875,0.00719424
-0.181213,0.00719424
0.0297524,0.00719424
0.0663914,0.00719424
-0.0244774,0.00719424
-0.161306,0.00719424
0.0478216,0.00719424
0.0422008,0.00719424
-0.0774876,0.00719424
0.0265612,0.00719424
0.063707,0.00719424
0.0826575,0.00719424
-0.217884,0.00719424
0.040498,0.00719424
-0.00131902,0.00719424
-0.0287897,0.00719424
-0.0240305,0.00719424
-0.0436342,0.00719424
-0.201619,0.00719424
0.0700763,0.00719424
0.0407976,0.00719424
0.00778678,0.00719424
-0.0427064,0.00719424
0.0579006,0.00719424
0.0800306,0.00719424
-0.000504042,0.00719424
0.159323,0.00719424
0.117022,0.00719424
-0.0416188,0.00719424
0.0640673,0.00719424
-0.130881,0.00719424
0.0113198,0.00719424
-0.000895304,0.00719424
-0.109348,0.00719424
0.0126378,0.00719424
0.116302,0.00719424
-0.0710211,0.00719424
-0.0231472,0.00719424
0.0435308,0.00719424
-0.0398697,0.00719424
0.0613785,0.00719424
0.0302639,0.00719424
-0.0362599,0.00719424
0.123948,0.00719424
0.0635169,0.00719424
0.106396,0.00719424
-0.012939,0.00719424
0.04568,0.00719424
0.0658173,0.00719424
-0.0540957,0.00719424
0.00784486,0.00719424
-0.0471961,0.00719424
0.100677,0.00719424
0.0462544,0.00719424
0.0496623,0.00719424
0.109071,0.00719424
0.0145448,0.00719424
0.0721533,0.00719424
-0.0117741,0.00719424
-0.0989901,0.00719424
0.0469226,0.00719424
0.0235542,0.00719424
0.0437914,0.00719424
0.0803668,0.00719424
0.0334278,0.00719424
-0.108317,0.00719424
0.00887741,0.00719424
-0.0371798,0.00719424
0.0387109,0.00719424
-0.0454737,0.00719424
-0.0179165,0.00719424
-0.0763955,0.00719424
-0.124204,0.00719424
0.0223105,0.00719424
-0.157651,0.00719424
0.000972137,0.00719424
0.0893223,0.00719424
0.0599858,0.00719424
-0.0810729,0.00719424
0.0288265,0.00719424
0.238837,0.00719424
-0.114539,0.00719424
0.0998115,0.00719424
0.0847717,0.00719424
-0.00218895,0.00719424
0.119749,0.00719424
0.0407976,0.00719424
0.0751444,0.00719424
-0.129433,0.00719424
0.0813612,0.00719424
-0.049177,0.00719424
0.0615943,0.00719424
-0.100168,0.00719424
-0.227207,0.00719424
0.0445939,0.00719424
-0.0266243,0.00719424
0.0757506,0.00719424
0.0182052,0.00719424
-0.0352197,0.00719424
0.0209818,0.00719424
-0.00027212,0.00719424
0.0726127,0.00719424
-0.00522005,0.00719424
0.037842,0.00719424
0.0890703,0.00719424
-0.00554485,0.00719424
-8.67335e-05,0.00719424
-0.0953755,0.00719424
0.020853,0.00719424
0.137573,0.00719424
-0.0333884,0.00719424
-0.0461074,0.00719424
-0.100336,0.00719424
-0.100204,0.00719424
0.0431737,0.00719424
0.0890199,0.00719424
0.00122531,0.00719424
0.0339857,0.00719424
-0.0569304,0.00719424
-0.0045485,0.00719424
0.020636,0.00719424
-0.0189425,0.00719424
-0.0799766,0.00719424
0.071557,0.00719424
0.035369,0.00719424
0.151379,0.00719424
0.0225389,0.00719424
-0.028626,0.00719424
0.141678,0.00719424
-0.0664712,0.00719424
0.136448,0.00719424
-0.103942,0.00719424
-0.0140319,0.00719424
-0.0576037,0.00719424
0.0999659,0.00719424
-0.0515253,0.00719424
-0.00295549,0.00719424
0.00550656,0.00719424
-0.0364729,0.00719424
-0.0842437,0.00719424
-0.0770984,0.00719424
0.0538268,0.00719424
0.0269579,0.00719424
0.0221862,0.00719424
-0.163125,0.00719424
-0.062857,0.00719424
0.0629565,0.00719424
-0.123384,0.00719424
0.038617,0.00719424
-0.0511719,0.00719424
-0.0935935,0.00719424
0.0650245,0.00719424
0.0369296,0.00719424
0.0873809,0.00719424
0.101454,0.00719424
-0.0641965,0.00719424
-0.0503607,0.00719424
0.0610726,0.00719424
0.0327728,0.00719424
0.0489784,0.00719424
0.111412,0.00719424
0.0509006,0.00719424
0.128743,0.00719424
-0.0603083,0.00719424
-0.0363167,0.00719424
-0.0430549,0.00719424
-0.0228094,0.00719424
-0.0683752,0.00719424
-0.0453756,0.00719424
-0.00262778,0.00719424
0.116314,0.00719424
0.104892,0.00719424
0.106906,0.00719424
-0.0450934,0.00719424
-0.0863205,0.00719424
0.00166849,0.00719424
0.0764993,0.00719424
-0.0721006,0.00719424
-0.00307086,0.00719424
-0.0191349,0.00719424
-0.038622,0.00719424
0.0597497,0.00719424
0.00016479,0.00719424
-0.0372524,0.00719424
-0.110385,0.00719424
-0.00416323,0.00719424
0.0375525,0.00719424
-0.0660176,0.00719424
-0.0298382,0.00719424
0.096079,0.00719424
0.0766325,0.00719424
0.0346593,0.00719424
-0.154319,0.00719424
-0.056509,0.00719424
-0.00947401,0.00719424
0.0278943,0.00719424
-0.0687014,0.00719424
0.166723,0.00719424
0.0244707,0.00719424
0.0677118,0.00719424
0.0999383,0.00719424
-0.127358,0.00719424
0.201066,0.00719424
-0.0384777,0.00719424
-0.0175928,0.00719424
0.107744,0.00719424
-0.10833,0.00719424
0.0832555,0.00719424
0.0513107,0.00719424
-0.0622884,0.00719424
-0.0124644,0.00719424
0.018499,0.00719424
-0.0500932,0.00719424
0.166958,0.00719424
-0.0164017,0.00719424
0.0365181,0.00719424
-0.0521351,0.00719424
-0.113148,0.00719424
-0.0195418,0.00719424
0.0466849,0.00719424
0.128837,0.00719424
0.0467274,0.00719424
-0.0777676,0.00719424
-0.0681553,0.00719424
-0.10375,0.00719424
0.0616539,0.00719424
0.113962,0.00719424
-0.0120354,0.00719424
-0.0194129,0.00719424
-0.00363305,0.00719424
-0.0981377,0.00719424
0.0225947,0.00719424
-0.0204366,0.00719424
0.0528726,0.00719424
-0.105863,0.00719424
0.00885819,0.00719424
-0.049943,0.00719424
-0.0693949,0.00719424
-0.0190598,0.00719424
0.10223,0.00719424
0.0108054,0.00719424
-0.0453584,0.00719424
-0.143831,0.00719424
0.044178,0.00719424
-0.0830018,0.00719424
-0.0943611,0.00719424
0.127065,0.00719424
0.10311,0.00719424
0.0547288,0.00719424
-0.132073,0.00719424
0.179495,0.00719424
-0.00786464,0.00719424
0.125377,0.00719424
-0.0565744,0.00719424
0.110792,0.00719424
-0.0548232,0.00719424
-0.104363,0.00719424
-0.0299173,0.00719424
0.0350426,0.00719424
0.0541756,0.00719424
-0.159054,0.00719424
0.0305034,0.00719424
0.0266925,0.00719424
0.0997181,0.00719424
0.0776392,0.00719424
-0.130595,0.00719424
0.106553,0.00719424
-0.0108922,0.00719424
-0.0471833,0.00719424
0.0475547,0.00719424
-0.113492,0.00719424
0.00808436,0.00719424
0.103948,0.00719424
-0.00322545,0.00719424
-0.0397101,0.00719424
0.0445974,0.00719424
0.17658,0.00719424
0.0582834,0.00719424
0.111951,0.00719424
0.0615761,0.00719424
0.0947379,0.00719424
0.0803708,0.00719424
-0.0128467,0.00719424
0.0789094,0.00719424
-0.0561131,0.00719424
0.0555413,0.00719424
0.0191904,0.00719424
0.00720506,0.00719424
-0.0144095,0.00719424
-0.0683613,0.00719424
-0.0013846,0.00719424
0.0682874,0.00719424
0.0704019,0.00719424
-0.10318,0.00719424
-0.182889,0.00719424
-0.0174974,0.00719424
0.155929,0.00719424
-0.0864944,0.00719424
0.0528824,0.00719424
0.0236414,0.00719424
0.0524678,0.00719424
-0.0244576,0.00719424
0.03478,0.00719424
0.128917,0.00719424
-0.0549875,0.00719424
0.00204625,0.00719424
-0.0841305,0.00719424
0.0223528,0.00719424
-0.192365,0.00719424
0.121178,0.00719424
0.0618485,0.00719424
-0.121844,0.00719424
-0.0563769,0.00719424
-0.0361701,0.00719424
-0.107803,0.00719424
-0.0141792,0.00719424
-0.0820003,0.00719424
-0.0272729,0.00719424
-0.00301985,0.00719424
-0.00915095,0.00719424
-0.0437763,0.00719424
-0.064678,0.00719424
-0.0927148,0.00719424
0.101023,0.00719424
0.100111,0.00719424
-0.0250339,0.00719424
-0.0720669,0.00719424
0.0316723,0.00719424
-0.114683,0.00719424
0.0681288,0.00719424
0.0122109,0.00719424
-0.0650897,0.00719424
0.0314883,0.00719424
-0.0101919,0.00719424
0.0840444,0.00719424
0.0749344,0.00719424
0.0433758,0.00719424
-0.0753699,0.00719424
0.0191304,0.00719424
-0.000529169,0.00719424
-0.102007,0.00719424
0.0784252,0.00719424
0.0688504,0.00719424
-0.142731,0.00719424
-0.00343053,0.00719424
0.0737616,0.00719424
-0.104189,0.00719424
0.107484,0.00719424
-0.0938176,0.00719424
0.02829,0.00719424
0.0109588,0.00719424
0.0789588,0.00719424
0.0986955,0.00719424
-0.10941,0.00719424
-0.22547,0.00719424
0.00259397,0.00719424
-0.18673,0.00719424
-0.0895587,0.00719424
0.0426288,0.00719424
0.00435569,0.00719424
0.0611429,0.00719424
-0.108114,0.00719424
-0.039256,0.00719424
0.00361651,0.00719424
0.113841,0.00719424
-0.00433594,0.00719424
-0.0775269,0.00719424
-0.0998627,0.00719424
-0.0091654,0.00719424
-0.0431444,0.00719424
-0.00649797,0.00719424
0.146555,0.00719424
-0.179928,0.00719424
0.111777,0.00719424
-0.182193,0.00719424
0.0563542,0.00719424
-0.15852,0.00719424
-0.100555,0.00719424
0.0318742,0.00719424
0.0475762,0.00719424
-0.0742342,0.00719424
-0.099075,0.00719424
0.0802135,0.00719424
0.159458,0.00719424
-0.0430827,0.00719424
-0.199553,0.00719424
0.0183301,0.00719424
0.122495,0.00719424
-0.0755674,0.00719424
0.084759,0.00719424
-0.0962371,0.00719424
-0.0601674,0.00719424
0.0540096,0.00719424
-0.158224,0.00719424
0.0203909,0.00719424
-0.00994952,0.00719424
-0.150111,0.00719424
0.129519,0.00719424
0.0874816,0.00719424
0.0158713,0.00719424
-0.0699709,0.00719424
-0.107875,0.00719424
0.0649872,0.00719424
0.040259,0.00719424
0.0312938,0.00719424
0.0290367,0.00719424
-0.0158561,0.00719424
0.033166,0.00719424
0.0944359,0.00719424
-0.0522296,0.00719424
-0.0519645,0.00719424
-0.117961,0.00719424
0.1764,0.00719424
0.0103142,0.00719424
0.121123,0.00719424
-0.0557182,0.00719424
0.00198374,0.00719424
0.105962,0.00719424
0.0217498,0.00719424
0.0789966,0.00719424
-0.0217934,0.00719424
-0.115449,0.00719424
-0.00089141,0.00719424
0.0388182,0.00719424
-0.0019456,0.00719424
-0.14147,0.00719424
-0.0450917,0.00719424
-0.0466759,0.00719424
-0.0339841,0.00719424
0.0325643,0.00719424
0.168267,0.00719424
-0.128198,0.00719424
0.117738,0.00719424
-0.0522616,0.00719424
-0.0010934,0.00719424
-0.0647118,0.00719424
-0.0270235,0.00719424
0.00221724,0.00719424
0.0166511,0.00719424
-0.103893,0.00719424
9.34026e-05,0.00719424
0.0141708,0.00719424
-0.0397329,0.00719424
0.0889252,0.00719424
0.0691826,0.00719424
0.049988,0.00719424
0.118435,0.00719424
0.0273981,0.00719424
-0.0394554,0.00719424
0.0892895,0.00719424
-0.10536,0.00719424
-0.176372,0.00719424
-0.00807368,0.00719424
0.00785364,0.00719424
-0.00903687,0.00719424
0.0827678,0.00719424
0.15515,0.00719424
-0.0391853,0.00719424
0.204559,0.00719424
-0.222212,0.00719424
0.0606047,0.00719424
0.117884,0.00719424
-0.00106302,0.00719424
-0.0419633,0.00719424
0.0735834,0.00719424
0.11368,0.00719424
-0.0276129,0.00719424
0.159707,0.00719424
0.0304119,0.00719424
-0.0722085,0.00719424
-0.111271,0.00719424
-0.100779,0.00719424
-0.184316,0.00719424
-0.0268244,0.00719424
0.026091,0.00719424
0.0112401,0.00719424
0.0176105,0.00719424
0.119309,0.00719424
-0.0141905,0.00719424
0.140558,0.00719424
0.00507027,0.00719424
-0.0308128,0.00719424
-0.0108893,0.00719424
0.108143,0.00719424
0.0229982,0.00719424
0.0182486,0.00719424
0.0640598,0.00719424
0.0200457,0.00719424
-0.129093,0.00719424
-0.028219,0.00719424
-0.0469392,0.00719424
-0.0662975,0.00719424
-0.157168,0.00719424
0.0975638,0.00719424
-0.0149397,0.00719424
-0.107585,0.00719424
-0.079908,0.00719424
-0.0339185,0.00719424
0.0258234,0.00719424
-0.101229,0.00719424
-0.143121,0.00719424
0.0525642,0.00719424
-0.0305144,0.00719424
0.0315823,0.00719424
0.081368,0.00719424
-0.0260694,0.00719424
-0.0546194,0.00719424
-0.0684228,0.00719424
0.0293923,0.00719424
0.00684069,0.00719424
-0.0168871,0.00719424
-0.0143557,0.00719424
-0.15518,0.00719424
0.0459249,0.00719424
-0.0287782,0.00719424
0.0325204,0.00719424
0.0781233,0.00719424
-0.0746101,0.00719424
-0.0895823,0.00719424
0.0521301,0.00719424
-0.0407669,0.00719424
0.0462317,0.00719424
0.0952405,0.00719424
-0.0605538,0.00719424
-0.0180985,0.00719424
-0.0619365,0.00719424
-0.00767611,0.00719424
-0.0670927,0.00719424
-0.167654,0.00719424
0.0469178,0.00719424
-0.0862638,0.00719424
0.030419,0.00719424
0.00819995,0.00719424
-0.020128,0.00719424
0.0477699,0.00719424
-0.0185013,0.00719424
0.0456091,0.00719424
-0.0194227,0.00719424
0.0631206,0.00719424
0.078546,0.00719424
-0.0728129,0.00719424
0.0280607,0.00719424
-0.0430496,0.00719424
0.0250226,0.00719424
0.0317104,0.00719424
0.0885636,0.00719424
0.00834078,0.00719424
0.0500801,0.00719424
-0.0118273,0.00719424
-0.174984,0.00719424
-0.0700435,0.00719424
-0.00282619,0.00719424
0.037858,0.00719424
-0.110383,0.00719424
0.0629649,0.00719424
0.0419011,0.00719424
-0.0367384,0.00719424
0.0209884,0.00719424
-0.159044,0.00719424
-0.0829857,0.00719424
0.113772,0.00719424
-0.128674,0.00719424
-0.000465388,0.00719424
-0.00276312,0.00719424
0.174727,0.00719424
-0.0290051,0.00719424
0.0670421,0.00719424
0.0845398,0.00719424
-0.0191011,0.00719424
-0.0910189,0.00719424
-0.0645356,0.00719424
0.116467,0.00719424
0.126327,0.00719424
0.00590806,0.00719424
-0.0199957,0.00719424
-0.011186,0.00719424
-0.103901,0.00719424
-0.183133,0.00719424
0.0264058,0.00719424
-0.0591249,0.00719424
0.156833,0.00719424
0.124176,0.00719424
-0.0346914,0.00719424
0.0261301,0.00719424
0.0632142,0.00719424
0.116836,0.00719424
-0.0156105,0.00719424
0.131455,0.00719424
-0.00953766,0.00719424
0.0160293,0.00719424
-0.134741,0.00719424
-0.0980521,0.00719424
0.148024,0.00719424
0.0160561,0.00719424
-0.0326485,0.00719424
0.0592547,0.00719424
0.146524,0.00719424
0.0176323,0.00719424
0.0236659,0.00719424
0.152988,0.00719424
-0.0294056,0.00719424
-0.0177524,0.00719424
-0.0236653,0.00719424
0.00813554,0.00719424
-0.0489882,0.00719424
-0.0124406,0.00719424
0.00985709,0.00719424
0.0199901,0.00719424
-0.132746,0.00719424
-0.000969901,0.00719424
0.0418535,0.00719424
0.109477,0.00719424
0.0149715,0.00719424
0.0341726,0.00719424
0.0551596,0.00719424
-0.108727,0.00719424
0.00224212,0.00719424
-0.22024,0.00719424
0.0507678,0.00719424
-0.155789,0.00719424
-0.0891733,0.00719424
0.112567,0.00719424
0.143569,0.00719424
0.0649892,0.00719424
-0.193872,0.00719424
0.0324425,0.00719424
-0.129311,0.00719424
0.191467,0.00719424
-0.028097,0.00719424
-0.0174779,0.00719424
-0.0712754,0.00719424
0.0247594,0.00719424
0.145381,0.00719424
0.0190911,0.00719424
-0.101826,0.00719424
0.0396697,0.00719424
-0.0144124,0.00719424
0.080384,0.00719424
-0.0778319,0.00719424
-0.0264819,0.00719424
0.0224913,0.00719424
-0.0376365,0.00719424
-0.140686,0.00719424
-0.112513,0.00719424
-0.0811538,0.00719424
0.13361,0.00719424
-0.0532772,0.00719424
-0.0664484,0.00719424
-0.000188281,0.00719424
0.151625,0.00719424
-0.0332813,0.00719424
0.0404627,0.00719424
0.045893,0.00719424
0.0466133,0.00719424
-0.0400716,0.00719424
-0.0271543,0.00719424
-0.121052,0.00719424
-0.0296462,0.00719424
-0.110084,0.00719424
-0.155826,0.00719424
0.178089,0.00719424
-0.122298,0.00719424
-0.0466155,0.00719424
0.117654,0.00719424
-0.0121123,0.00719424
0.00563752,0.00719424
0.0790069,0.00719424
0.0016455,0.00719424
-0.129361,0.00719424
0.00700253,0.00719424
-0.00196361,0.00719424
0.14565,0.00719424
-0.063326,0.00719424
0.00984057,0.00719424
-0.101217,0.00719424
0.0318647,0.00719424
0.0404184,0.00719424
0.0409724,0.00719424
-0.136576,0.00719424
-0.131823,0.00719424
-0.144676,0.00719424
0.0576677,0.00719424
0.0539812,0.00719424
-0.0633595,0.00719424
0.0750648,0.00719424
0.0352607,0.00719424
0.0406881,0.00719424
0.201769,0.00719424
0.00868595,0.00719424
0.0856659,0.00719424
0.0628856,0.00719424
0.0710233,0.00719424
-0.00544974,0.00719424
-0.153696,0.00719424
0.0613396,0.00719424
0.0481068,0.00719424
0.0903378,0.00719424
0.176217,0.00719424
-0.127757,0.00719424
0.0239314,0.00719424
0.0369418,0.00719424
-0.0712867,0.00719424
-0.0357598,0.00719424
0.0412867,0.00719424
-0.0800039,0.00719424
-0.0475176,0.00719424
-0.112059,0.00719424
0.0561643,0.00719424
-0.0874523,0.00719424
0.0351683,0.00719424
-0.00420342,0.00719424
0.0673226,0.00719424
0.187036,0.00719424
0.0687873,0.00719424
-0.139876,0.00719424
-0.0745504,0.00719424
-0.11157,0.00719424
0.00464247,0.00719424
-0.0810293,0.00719424
0.0176204,0.00719424
-0.0738776,0.00719424
-0.0306303,0.00719424
-0.0245794,0.00719424
-0.103384,0.00719424
-0.027257,0.00719424
-0.156975,0.00719424
-0.0414729,0.00719424
-0.170696,0.00719424
-0.0571248,0.00719424
0.0801694,0.00719424
0.0836844,0.00719424
-0.0195439,0.00719424
-0.064677,0.00719424
-0.204036,0.00719424
0.0471778,0.00719424
0.0287099,0.00719424
-0.17308,0.00719424
-0.0331761,0.00719424
0.0668191,0.00719424
0.04845,0.00719424
-0.0775947,0.00719424
0.0751752,0.00719424
-0.0652284,0.00719424
0.0583521,0.00719424
-0.100549,0.00719424
-0.105029,0.00719424
0.226174,0.00719424
-0.0918679,0.00719424
-0.0814972,0.00719424
0.0134652,0.00719424
-0.0776245,0.00719424
-0.0445398,0.00719424
0.0165165,0.00719424
-0.114811,0.00719424
-0.109463,0.00719424
-0.202275,0.00719424
0.0442808,0.00719424
-0.00182035,0.00719424
0.020347,0.00719424
0.0349595,0.00719424
0.0460334,0.00719424
0.119132,0.00719424
0.0650309,0.00719424
0.073335,0.00719424
-0.0607826,0.00719424
0.068573,0.00719424
-0.0875386,0.00719424
0.0373267,0.00719424
-0.110675,0.00719424
0.0555637,0.00719424
0.00489542,0.00719424
-0.0110555,0.00719424
-0.0360403,0.00719424
-0.0451102,0.00719424
0.0901673,0.00719424
-0.0212451,0.00719424
0.0327519,0.00719424
0.116343,0.00719424
-0.0582285,0.00719424
0.181371,0.00719424
-0.0473321,0.00719424
0.0579984,0.00719424
-0.117583,0.00719424
0.0742269,0.00719424
0.140034,0.00719424
-0.193119,0.00719424
-0.0199103,0.00719424
-0.000774494,0.00719424
-0.0259105,0.00719424
0.0227216,0.00719424
-0.102998,0.00719424
-0.0921537,0.00719424
0.0938089,0.00719424
0.123764,0.00719424
0.0264505,0.00719424
-0.0758055,0.00719424
-0.109434,0.00719424
0.0374309,0.00719424
0.0771877,0.00719424
0.156557,0.00719424
0.00601516,0.00719424
-0.00409361,0.00719424
0.018446,0.00719424
-0.0862757,0.00719424
0.230275,0.00719424
-0.0688264,0.00719424
-0.0493299,0.00719424
0.0617135,0.00719424
0.0945659,0.00719424
-0.162829,0.00719424
-0.036494,0.00719424
-0.0621384,0.00719424
-0.0546804,0.00719424
-0.0590697,0.00719424
0.0219828,0.00719424
0.065048,0.00719424
-0.0516539,0.00719424
-0.100925,0.00719424
0.0453208,0.00719424
0.0609251,0.00719424
-0.0738398,0.00719424
0.0817085,0.00719424
0.0895324,0.00719424
-0.0693324,0.00719424
0.0624544,0.00719424
0.0465885,0.00719424
0.0767689,0.00719424
0.0915531,0.00719424
-0.0347018,0.00719424
-0.206219,0.00719424
0.116292,0.00719424
-0.016337,0.00719424
0.0568668,0.00719424
0.139251,0.00719424
-0.0620846,0.00719424
-0.0352705,0.00719424
-0.0416479,0.00719424
-0.122304,0.00719424
0.0491963,0.00719424
-0.146834,0.00719424
0.163932,0.00719424
0.0946922,0.00719424
0.00624867,0.00719424
0.071067,0.00719424
-0.066243,0.00719424
-0.075687,0.00719424
0.0999607,0.00719424
-0.0399982,0.00719424
-0.0608573,0.00719424
-0.0943291,0.00719424
-0.0680408,0.00719424
0.0309732,0.00719424
-0.115964,0.00719424
-0.00622533,0.00719424
-0.0586787,0.00719424
-0.230656,0.00719424
0.0717392,0.00719424
0.0127407,0.00719424
0.053573,0.00719424
0.00821139,0.00719424
0.0756981,0.00719424
-0.0189249,0.00719424
0.058488,0.00719424
-0.086284,0.00719424
-0.029272,0.00719424
0.0592506,0.00719424
-0.00741985,0.00719424
0.051815,0.00719424
-0.0461266,0.00719424
0.0207416,0.00719424
-0.0410555,0.00719424
-0.0647637,0.00719424
0.115036,0.00719424
0.0610501,0.00719424
-0.147079,0.00719424
-0.0622646,0.00719424
-0.066257,0.00719424
-0.115288,0.00719424
-0.00136446,0.00719424
0.0927452,0.00719424
0.023728,0.00719424
0.0470009,0.00719424
-0.0701825,0.00719424
-0.0667419,0.00719424
0.0640379,0.00719424
0.125767,0.00719424
-0.0022649,0.00719424
-0.123613,0.00719424
-0.0765768,0.00719424
0.0877775,0.00719424
0.0748896,0.00719424
0.0175076,0.00719424
-0.0484488,0.00719424
-0.0473451,0.00719424
-0.0420282,0.00719424
0.00416472,0.00719424
0.0272515,0.00719424
0.0706522,0.00719424
0.0446253,0.00719424
-0.0559789,0.00719424
0.103895,0.00719424
-0.0922817,0.00719424
-0.0517728,0.00719424
0.0218317,0.00719424
0.0385524,0.00719424
0.0612398,0.00719424
-0.0469913,0.00719424
0.0168428,0.00719424
-0.105127,0.00719424
-0.0618713,0.00719424
-0.0575617,0.00719424
0.00607489,0.00719424
-0.123089,0.00719424
0.0110653,0.00719424
-0.0911766,0.00719424
-0.0623257,0.00719424
-0.0191918,0.00719424
-0.0879145,0.00719424
0.0270633,0.00719424
-0.126521,0.00719424
0.00151101,0.00719424
0.0283958,0.00719424
-0.143388,0.00719424
0.0514639,0.00719424
-0.114011,0.00719424
0.0310656,0.00719424
-0.096071,0.00719424
0.0463259,0.00719424
-0.151199,0.00719424
0.076367,0.00719424
0.0117507,0.00719424
-0.109891,0.00719424
-0.0712618,0.00719424
-0.102822,0.00719424
0.0793552,0.00719424
-0.115107,0.00719424
-0.112801,0.00719424
-0.00323616,0.00719424
-0.120082,0.00719424
-0.0382549,0.00719424
0.0628111,0.00719424
0.0233339,0.00719424
0.0190475,0.00719424
0.0362703,0.00719424
0.0462186,0.00719424
-0.0672324,0.00719424
0.142326,0.00719424
0.0436669,0.00719424
-0.0753943,0.00719424
0.0301308,0.00719424
0.0613683,0.00719424
-0.0245938,0.00719424
0.0545154,0.00719424
0.0420207,0.00719424
-0.13828,0.00719424
-0.0874331,0.00719424
0.0439133,0.00719424
-0.147515,0.00719424
-0.052648,0.00719424
-0.0691419,0.00719424
0.0488031,0.00719424
0.0612471,0.00719424
0.00763215,0.00719424
-0.0836611,0.00719424
-0.0563744,0.00719424
0.0711028,0.00719424
0.10538,0.00719424
-0.0478756,0.00719424
0.00916795,0.00719424
-0.11164,0.00719424
-0.0928147,0.00719424
0.0103548,0.00719424
-0.0249967,0.00719424
-0.133521,0.00719424
-0.0313946,0.00719424
0.0594326,0.00719424
-0.0889202,0.00719424
0.0274288,0.00719424
-0.0145759,0.00719424
-0.0137796,0.00719424
0.0169912,0.00719424
-0.0568079,0.00719424
-0.080898,0.00719424
-0.000974062,0.00719424
0.0925769,0.00719424
-0.0247848,0.00719424
-0.0614402,0.00719424
0.00673605,0.00719424
0.0505314,0.00719424
-0.00968499,0.00719424
0.098829,0.00719424
0.00958018,0.00719424
0.0264084,0.00719424
-0.00820813,0.00719424
-0.137948,0.00719424
-0.100169,0.00719424
-0.101776,0.00719424
0.0186725,0.00719424
0.039603,0.00719424
0.059002,0.00719424
-0.101454,0.00719424
0.0122518,0.00719424
-0.0499162,0.00719424
0.0243962,0.00719424
0.0826206,0.00719424
0.149919,0.00719424
0.0304428,0.00719424
0.085409,0.00719424
0.0733007,0.00719424
0.0584637,0.00719424
0.0207324,0.00719424
-0.0407794,0.00719424
-0.0878942,0.00719424
0.0336619,0.00719424
0.0265533,0.00719424
-0.129433,0.00719424
-0.0616526,0.00719424
-0.0517231,0.00719424
0.00534657,0.00719424
0.0404705,0.00719424
0.0639589,0.00719424
0.0199456,0.00719424
-0.0434262,0.00719424
-0.151336,0.00719424
0.0286893,0.00719424
-0.144429,0.00719424
0.108463,0.00719424
-0.0670985,0.00719424
0.0253454,0.00719424
0.069966,0.00719424
-0.0119009,0.00719424
0.0507114,0.00719424
0.275314,0.00719424
-0.0331946,0.00719424
-0.011528,0.00719424
0.0496801,0.00719424
0.0029815,0.00719424
-0.13212,0.00719424
0.0951966,0.00719424
-0.0525736,0.00719424
-0.0638878,0.00719424
0.105991,0.00719424
-0.0615333,0.00719424
0.0760078,0.00719424
0.0721629,0.00719424
-0.035667,0.00719424
-0.0134731,0.00719424
-0.193372,0.00719424
0.116871,0.00719424
-0.125772,0.00719424
-0.0893919,0.00719424
-0.0173416,0.00719424
0.0724877,0.00719424
0.0569807,0.00719424
-0.0713274,0.00719424
-0.0011018,0.00719424
-0.0825034,0.00719424
-0.102252,0.00719424
-0.0214386,0.00719424
-0.140756,0.00719424
0.120821,0.00719424
0.00169161,0.00719424
-0.034228,0.00719424
0.081326,0.00719424
-0.0801932,0.00719424
0.0167264,0.00719424
0.0626792,0.00719424
-0.120651,0.00719424
0.0161118,0.00719424
-0.0515394,0.00719424
0.00745496,0.00719424
0.00105938,0.00719424
0.161255,0.00719424
-0.018509,0.00719424
0.011995,0.00719424
-0.026526,0.00719424
-0.125675,0.00719424
-0.100591,0.00719424
-0.0656986,0.00719424
-0.0613949,0.00719424
-0.0821447,0.00719424
0.0738084,0.00719424
0.0502442,0.00719424
-0.0607192,0.00719424
0.0274963,0.00719424
-0.120377,0.00719424
0.0520845,0.00719424
0.0375246,0.00719424
0.00979607,0.00719424
-0.0442754,0.00719424
-0.0165413,0.00719424
0.0532965,0.00719424
-0.0850664,0.00719424
-0.0542828,0.00719424
0.0615457,0.00719424
0.08007,0.00719424
-0.0813291,0.00719424
-0.00768656,0.00719424
0.13045,0.00719424
0.111559,0.00719424
0.0574843,0.00719424
0.0924162,0.00719424
0.0855243,0.00719424
-0.0835119,0.00719424
-0.0774427,0.00719424
-0.0273425,0.00719424
-0.101582,0.00719424
0.0104853,0.00719424
0.191604,0.00719424
0.0408765,0.00719424
0.0506261,0.00719424
0.0141158,0.00719424
0.0749846,0.00719424
-0.0268549,0.00719424
0.0139097,0.00719424
0.125581,0.00719424
-0.124663,0.00719424
0.0536882,0.00719424
0.0357141,0.00719424
0.0577648,0.00719424
-0.149107,0.00719424
0.0721287,0.00719424
0.0418322,0.00719424
0.0516442,0.00719424
0.0396447,0.00719424
-0.0348062,0.00719424
-0.141289,0.00719424
-0.130816,0.00719424
-0.0705978,0.00719424
0.0918326,0.00719424
-0.140924,0.00719424
-0.0410862,0.00719424
0.0552923,0.00719424
-0.108489,0.00719424
-0.00909202,0.00719424
-0.0065539,0.00719424
-0.141957,0.00719424
-0.0379771,0.00719424
0.066455,0.00719424
-0.0912411,0.00719424
0.104622,0.00719424
-0.041922,0.00719424
0.0113387,0.00719424
0.0374434,0.00719424
0.00824278,0.00719424
-0.0557267,0.00719424
-0.0443679,0.00719424
0.0540597,0.00719424
-0.0965672,0.00719424
0.044282,0.00719424
0.072332,0.00719424
0.0483087,0.00719424
0.160493,0.00719424
0.121984,0.00719424
-0.143854,0.00719424
0.0499758,0.00719424
-0.0232242,0.00719424
0.00329154,0.00719424
0.0935294,0.00719424
-0.0145595,0.00719424
-0.0319638,0.00719424
0.232302,0.00719424
-0.137808,0.00719424
-0.0511875,0.00719424
0.0136668,0.00719424
-0.071134,0.00719424
-0.00186932,0.00719424
-0.107916,0.00719424
0.00425934,0.00719424
0.0332732,0.00719424
-0.0839484,0.00719424
-0.165804,0.00719424
-0.00574148,0.00719424
0.0618093,0.00719424
-0.0407497,0.00719424
-0.11012,0.00719424
-0.0687694,0.00719424
0.00301756,0.00719424
0.0688574,0.00719424
-0.0873069,0.00719424
0.0719874,0.00719424
-0.124823,0.00719424
0.107598,0.00719424
0.0074578,0.00719424
-0.0531722,0.00719424
0.0149346,0.00719424
-0.0357749,0.00719424
-0.00439057,0.00719424
-0.0360678,0.00719424
0.0181724,0.00719424
0.00660985,0.00719424
0.0977986,0.00719424
-0.142159,0.00719424
0.117307,0.00719424
-0.0970388,0.00719424
0.0247692,0.00719424
0.0662365,0.00719424
-0.0618651,0.00719424
-0.149743,0.00719424
-0.162872,0.00719424
-0.0796878,0.00719424
-0.0526583,0.00719424
0.0103395,0.00719424
0.0322176,0.00719424
-0.0552826,0.00719424
0.0727587,0.00719424
0.0633408,0.00719424
0.0783157,0.00719424
-0.123544,0.00719424
-2.00242e-05,0.00719424
-0.0929795,0.00719424
-0.0935316,0.00719424
-0.153592,0.00719424
0.0662788,0.00719424
0.0227126,0.00719424
-0.0113084,0.00719424
0.0100853,0.00719424
-0.195694,0.00719424
0.0700881,0.00719424
-0.117927,0.00719424
0.035324,0.00719424
0.0634474,0.00719424
-0.0119005,0.00719424
0.135951,0.00719424
0.018797,0.00719424
0.0452236,0.00719424
-0.202475,0.00719424
0.0568215,0.00719424
0.00230724,0.00719424
0.0203335,0.00719424
0.084684,0.00719424
-0.0622193,0.00719424
-0.0837684,0.00719424
0.0113263,0.00719424
-0.123131,0.00719424
0.00461572,0.00719424
-0.0438555,0.00719424
-0.0735604,0.00719424
-0.0714831,0.00719424
0.0606702,0.00719424
-0.0840686,0.00719424
0.117686,0.00719424
-0.0338428,0.00719424
0.111997,0.00719424
0.0213092,0.00719424
0.130138,0.00719424
0.238617,0.00719424
-0.0815512,0.00719424
0.0400364,0.00719424
0.0550564,0.00719424
-0.128231,0.00719424
-0.0287103,0.00719424
-0.0497947,0.00719424
-0.0593241,0.00719424
-0.0293917,0.00719424
-0.0607943,0.00719424
-0.0455469,0.00719424
-0.0688144,0.00719424
0.0515343,0.00719424
0.130083,0.00719424
0.130966,0.00719424
0.014516,0.00719424
0.100692,0.00719424
0.0316537,0.00719424
-0.024387,0.00719424
-0.0719596,0.00719424
-0.0484056,0.00719424
-0.0224303,0.00719424
0.00576882,0.00719424
-0.0581901,0.00719424
