mw,Sw
0.006827866192907,0.025000000372529
0.139701038599014,0.025000000372529
0.031354188919067,0.025000000372529
0.099865883588791,0.025000000372529
0.182875201106071,0.025000000372529
-0.316561609506607,0.025000000372529
-0.070306837558746,0.025000000372529
-0.132246345281601,0.025000000372529
-0.219392895698547,0.025000000372529
0.086528889834881,0.025000000372529
-0.060051020234823,0.025000000372529
-0.068307355046272,0.025000000372529
-0.157849937677383,0.025000000372529
-0.078080192208290,0.025000000372529
-0.067058876156807,0.025000000372529
0.016439696773887,0.025000000372529
0.051838077604771,0.025000000372529
0.119604460895061,0.025000000372529
0.139010369777679,0.025000000372529
-0.261794328689575,0.025000000372529
0.252386599779129,0.025000000372529
-0.129180580377579,0.025000000372529
-0.059246115386486,0.025000000372529
-0.127632647752762,0.025000000372529
0.107429809868336,0.025000000372529
-0.023974552750587,0.025000000372529
0.007262507453561,0.025000000372529
0.255693584680557,0.025000000372529
0.021941559389234,0.025000000372529
-0.118327498435974,0.025000000372529
-0.280031085014343,0.025000000372529
0.041807342320681,0.025000000372529
-0.218768343329430,0.025000000372529
-0.252026110887527,0.025000000372529
0.092972479760647,0.025000000372529
0.220748335123062,0.025000000372529
0.201373085379601,0.025000000372529
0.268984824419022,0.025000000372529
-0.099580504000187,0.025000000372529
0.046503119170666,0.025000000372529
0.070422723889351,0.025000000372529
0.007159430533648,0.025000000372529
0.109207645058632,0.025000000372529
0.045269008725882,0.025000000372529
-0.134527400135994,0.025000000372529
-0.144449844956398,0.025000000372529
-0.123486965894699,0.025000000372529
-0.265095591545105,0.025000000372529
-0.232378467917442,0.025000000372529
-0.006209237501025,0.025000000372529
0.044427793473005,0.025000000372529
-0.054554115980864,0.025000000372529
-0.092183642089367,0.025000000372529
-0.136498406529427,0.025000000372529
-0.067457295954227,0.025000000372529
0.036578953266144,0.025000000372529
0.150780558586121,0.025000000372529
0.000664789462462,0.025000000372529
0.209557190537453,0.025000000372529
-0.012560342438519,0.025000000372529
0.097105026245117,0.025000000372529
-0.050338383764029,0.025000000372529
0.065464682877064,0.025000000372529
0.177435413002968,0.025000000372529
1.000000000000000,1.000000000000000
1.000000000000000,1.000000000000000
1.000000000000000,1.000000000000000
1.000000000000000,1.000000000000000
0.003525895066559,0.006666667293757
0.072141312062740,0.006666667293757
0.016191234812140,0.006666667293757
0.051570519804955,0.006666667293757
0.094436347484589,0.006666667293757
-0.163471713662148,0.006666667293757
-0.036306299269199,0.006666667293757
-0.068291723728180,0.006666667293757
-0.113294005393982,0.006666667293757
0.044683329761028,0.006666667293757
-0.031010214239359,0.006666667293757
-0.035273768007755,0.006666667293757
-0.081513360142708,0.006666667293757
-0.040320441126823,0.006666667293757
-0.034629054367542,0.006666667293757
0.008489423431456,0.006666667293757
0.026769068092108,0.006666667293757
0.061763480305672,0.006666667293757
0.071784645318985,0.006666667293757
-0.135190024971962,0.006666667293757
0.130331888794899,0.006666667293757
-0.066708564758301,0.006666667293757
-0.030594564974308,0.006666667293757
-0.065909221768379,0.006666667293757
0.055476520210505,0.006666667293757
-0.012380406260490,0.006666667293757
0.003750342875719,0.006666667293757
0.132039606571198,0.006666667293757
0.011330572888255,0.006666667293757
-0.061104059219360,0.006666667293757
-0.144607424736023,0.006666667293757
0.021589219570160,0.006666667293757
-0.112971492111683,0.006666667293757
-0.130145728588104,0.006666667293757
0.048010785132647,0.006666667293757
0.113993957638741,0.006666667293757
0.103988617658615,0.006666667293757
0.138903170824051,0.006666667293757
-0.051423154771328,0.006666667293757
0.024014107882977,0.006666667293757
0.036366142332554,0.006666667293757
0.003697114065289,0.006666667293757
0.056394588202238,0.006666667293757
0.023376816883683,0.006666667293757
-0.069469653069973,0.006666667293757
-0.074593588709831,0.006666667293757
-0.063768394291401,0.006666667293757
-0.136894777417183,0.006666667293757
-0.119999729096889,0.006666667293757
-0.003206436522305,0.006666667293757
0.022942414507270,0.006666667293757
-0.028171624988317,0.006666667293757
-0.047603432089090,0.006666667293757
-0.070487476885319,0.006666667293757
-0.034834798425436,0.006666667293757
0.018889291211963,0.006666667293757
0.077862747013569,0.006666667293757
0.000343295803759,0.006666667293757
0.108214870095253,0.006666667293757
-0.006486133206636,0.006666667293757
0.050144821405411,0.006666667293757
-0.025994630530477,0.006666667293757
0.033805821090937,0.006666667293757
0.091627262532711,0.006666667293757
-0.100178666412830,0.006666667293757
-0.088018797338009,0.006666667293757
-0.112672455608845,0.006666667293757
-0.048274330794811,0.006666667293757
-0.047822486609221,0.006666667293757
-0.166295900940895,0.006666667293757
-0.002540919464082,0.006666667293757
0.104270800948143,0.006666667293757
-0.066743597388268,0.006666667293757
0.008328354917467,0.006666667293757
0.123969249427319,0.006666667293757
-0.006336241494864,0.006666667293757
-0.052048802375793,0.006666667293757
0.030249193310738,0.006666667293757
-0.037531867623329,0.006666667293757
-0.006838824599981,0.006666667293757
0.092345342040062,0.006666667293757
-0.063169226050377,0.006666667293757
-0.046898588538170,0.006666667293757
-0.088294953107834,0.006666667293757
0.026577934622765,0.006666667293757
-0.005410353653133,0.006666667293757
-0.093387551605701,0.006666667293757
-0.019602537155151,0.006666667293757
0.046716082841158,0.006666667293757
-0.012791877612472,0.006666667293757
-0.089359648525715,0.006666667293757
-0.004547861404717,0.006666667293757
-0.064107440412045,0.006666667293757
0.005270952824503,0.006666667293757
0.018918778747320,0.006666667293757
0.165182381868362,0.006666667293757
0.150949999690056,0.006666667293757
-0.039225909858942,0.006666667293757
0.086914964020252,0.006666667293757
0.141946673393250,0.006666667293757
0.096187867224216,0.006666667293757
0.041894447058439,0.006666667293757
0.034550413489342,0.006666667293757
-0.011834892444313,0.006666667293757
-0.087054647505283,0.006666667293757
-0.168949350714684,0.006666667293757
0.075836010277271,0.006666667293757
0.152396693825722,0.006666667293757
0.035912625491619,0.006666667293757
-0.012722137384117,0.006666667293757
0.068761952221394,0.006666667293757
-0.069006636738777,0.006666667293757
0.137311473488808,0.006666667293757
0.159694328904152,0.006666667293757
-0.101970136165619,0.006666667293757
-0.036258067935705,0.006666667293757
0.141836687922478,0.006666667293757
-0.065007187426090,0.006666667293757
-0.082198217511177,0.006666667293757
0.022225443273783,0.006666667293757
0.006227113772184,0.006666667293757
0.076535396277905,0.006666667293757
0.050696402788162,0.006666667293757
-0.180182993412018,0.006666667293757
0.164535224437714,0.006666667293757
-0.002604443812743,0.006666667293757
-0.016122234985232,0.006666667293757
-0.008598417043686,0.006666667293757
-0.039812806993723,0.006666667293757
-0.086789712309837,0.006666667293757
-0.043955851346254,0.006666667293757
0.070923350751400,0.006666667293757
0.024391554296017,0.006666667293757
0.104030042886734,0.006666667293757
0.013526179827750,0.006666667293757
-0.189980417490005,0.006666667293757
0.025053961202502,0.006666667293757
0.087968833744526,0.006666667293757
-0.101686246693134,0.006666667293757
-0.001149383489974,0.006666667293757
-0.025784771889448,0.006666667293757
-0.005467898678035,0.006666667293757
-0.140394225716591,0.006666667293757
0.130331784486771,0.006666667293757
-0.120707832276821,0.006666667293757
-0.004717332776636,0.006666667293757
0.105683043599129,0.006666667293757
0.054999511688948,0.006666667293757
-0.080829448997974,0.006666667293757
0.100430600345135,0.006666667293757
0.107091858983040,0.006666667293757
0.018239539116621,0.006666667293757
0.105586811900139,0.006666667293757
-0.146603494882584,0.006666667293757
-0.024238089099526,0.006666667293757
-0.119522780179977,0.006666667293757
-0.092252351343632,0.006666667293757
0.120390057563782,0.006666667293757
0.030037457123399,0.006666667293757
-0.063648134469986,0.006666667293757
-0.094810873270035,0.006666667293757
0.148750886321068,0.006666667293757
-0.001630840240978,0.006666667293757
-0.119943760335445,0.006666667293757
0.032028153538704,0.006666667293757
-0.142472445964813,0.006666667293757
0.094423063099384,0.006666667293757
-0.103027850389481,0.006666667293757
-0.040781017392874,0.006666667293757
0.044601671397686,0.006666667293757
0.030732896178961,0.006666667293757
0.073409587144852,0.006666667293757
-0.076178766787052,0.006666667293757
0.025622466579080,0.006666667293757
-0.102714613080025,0.006666667293757
0.174184679985046,0.006666667293757
0.131078645586967,0.006666667293757
0.082897171378136,0.006666667293757
-0.064424902200699,0.006666667293757
-0.077562965452671,0.006666667293757
-0.087878435850143,0.006666667293757
0.078718610107899,0.006666667293757
-0.092635497450829,0.006666667293757
0.070260703563690,0.006666667293757
-0.077128909528255,0.006666667293757
0.143198013305664,0.006666667293757
-0.080319575965405,0.006666667293757
0.049329169094563,0.006666667293757
-0.134757354855537,0.006666667293757
0.130324065685272,0.006666667293757
-0.147790327668190,0.006666667293757
0.048254217952490,0.006666667293757
-0.001711782882921,0.006666667293757
-0.179376244544983,0.006666667293757
-0.180134057998657,0.006666667293757
0.155112728476524,0.006666667293757
-0.002408545697108,0.006666667293757
-0.051567416638136,0.006666667293757
-0.044824350625277,0.006666667293757
0.045835003256798,0.006666667293757
-0.044550731778145,0.006666667293757
0.054535329341888,0.006666667293757
0.089228816330433,0.006666667293757
0.205086767673492,0.006666667293757
0.001959561835974,0.006666667293757
0.014269237406552,0.006666667293757
0.038477670401335,0.006666667293757
0.197269976139069,0.006666667293757
-0.049474921077490,0.006666667293757
0.028355840593576,0.006666667293757
0.077589318156242,0.006666667293757
0.019245687872171,0.006666667293757
0.013338306918740,0.006666667293757
0.083768196403980,0.006666667293757
-0.121160686016083,0.006666667293757
0.020337039604783,0.006666667293757
-0.010455831885338,0.006666667293757
-0.086447834968567,0.006666667293757
0.061633829027414,0.006666667293757
-0.035433031618595,0.006666667293757
-0.020817456766963,0.006666667293757
0.078243277966976,0.006666667293757
0.002652121242136,0.006666667293757
-0.036621373146772,0.006666667293757
0.054020747542381,0.006666667293757
0.037192877382040,0.006666667293757
-0.056485187262297,0.006666667293757
-0.065293155610561,0.006666667293757
-0.057626344263554,0.006666667293757
-0.113889835774899,0.006666667293757
-0.033824026584625,0.006666667293757
0.012664199806750,0.006666667293757
-0.024497963488102,0.006666667293757
0.048466950654984,0.006666667293757
-0.025110263377428,0.006666667293757
-0.009097974747419,0.006666667293757
-0.029705861583352,0.006666667293757
0.012007772922516,0.006666667293757
-0.061147633939981,0.006666667293757
0.111633732914925,0.006666667293757
-0.110718883574009,0.006666667293757
0.084369428455830,0.006666667293757
0.126312419772148,0.006666667293757
0.157731413841248,0.006666667293757
0.039024129509926,0.006666667293757
0.060535170137882,0.006666667293757
-0.116667129099369,0.006666667293757
0.109035588800907,0.006666667293757
0.054220508784056,0.006666667293757
-0.045506685972214,0.006666667293757
-0.129019722342491,0.006666667293757
-0.096814580261707,0.006666667293757
0.023598827421665,0.006666667293757
0.087576344609261,0.006666667293757
0.052079513669014,0.006666667293757
-0.006025672890246,0.006666667293757
-0.012834268622100,0.006666667293757
-0.014172474853694,0.006666667293757
-0.094998218119144,0.006666667293757
-0.046188853681087,0.006666667293757
-0.115456081926823,0.006666667293757
0.034948494285345,0.006666667293757
0.067764356732368,0.006666667293757
-0.051536288112402,0.006666667293757
-0.011245668865740,0.006666667293757
0.034647814929485,0.006666667293757
-0.072812251746655,0.006666667293757
0.016503211110830,0.006666667293757
-0.068853884935379,0.006666667293757
0.025008991360664,0.006666667293757
0.034363463521004,0.006666667293757
0.024325840175152,0.006666667293757
0.047677066177130,0.006666667293757
-0.056428965181112,0.006666667293757
-0.065318211913109,0.006666667293757
-0.018393320962787,0.006666667293757
0.088262297213078,0.006666667293757
-0.100897468626499,0.006666667293757
0.105449363589287,0.006666667293757
-0.034153867512941,0.006666667293757
0.050926417112350,0.006666667293757
-0.024768386036158,0.006666667293757
0.064748391509056,0.006666667293757
0.053807411342859,0.006666667293757
0.110189832746983,0.006666667293757
0.142395481467247,0.006666667293757
0.046675022691488,0.006666667293757
-0.160549536347389,0.006666667293757
0.182575851678848,0.006666667293757
0.147006273269653,0.006666667293757
0.090054057538509,0.006666667293757
-0.054089546203613,0.006666667293757
0.054053358733654,0.006666667293757
-0.070468164980412,0.006666667293757
0.173477202653885,0.006666667293757
-0.111544772982597,0.006666667293757
0.164360150694847,0.006666667293757
0.036336660385132,0.006666667293757
-0.036750014871359,0.006666667293757
-0.054802905768156,0.006666667293757
0.008802234195173,0.006666667293757
0.124137654900551,0.006666667293757
-0.024384994059801,0.006666667293757
-0.007770396769047,0.006666667293757
0.004620273597538,0.006666667293757
-0.003876251634210,0.006666667293757
0.086933337152004,0.006666667293757
-0.094311498105526,0.006666667293757
-0.120876491069794,0.006666667293757
-0.026338156312704,0.006666667293757
0.000377019139705,0.006666667293757
-0.093948751688004,0.006666667293757
0.130346983671188,0.006666667293757
-0.059256717562675,0.006666667293757
-0.280046790838242,0.006666667293757
-0.046226657927036,0.006666667293757
-0.021302785724401,0.006666667293757
0.092770420014858,0.006666667293757
-0.037058278918266,0.006666667293757
0.096700154244900,0.006666667293757
-0.076044127345085,0.006666667293757
0.093059800565243,0.006666667293757
0.110453575849533,0.006666667293757
0.006976600270718,0.006666667293757
0.015473100356758,0.006666667293757
0.151195645332336,0.006666667293757
0.021844940260053,0.006666667293757
0.113031663000584,0.006666667293757
0.005534576717764,0.006666667293757
0.144599869847298,0.006666667293757
0.018670191988349,0.006666667293757
-0.055688120424747,0.006666667293757
-0.052871730178595,0.006666667293757
0.089722327888012,0.006666667293757
0.009107654914260,0.006666667293757
0.092281371355057,0.006666667293757
0.130571454763412,0.006666667293757
0.026516053825617,0.006666667293757
-0.035756405442953,0.006666667293757
-0.008176317438483,0.006666667293757
-0.210839092731476,0.006666667293757
0.031628403812647,0.006666667293757
0.025196032598615,0.006666667293757
-0.081838555634022,0.006666667293757
0.227776646614075,0.006666667293757
-0.046044245362282,0.006666667293757
0.074208535254002,0.006666667293757
0.031634334474802,0.006666667293757
0.020229132845998,0.006666667293757
-0.016734635457397,0.006666667293757
0.074827156960964,0.006666667293757
-0.121979519724846,0.006666667293757
-0.025222171097994,0.006666667293757
0.008622278459370,0.006666667293757
-0.031299572438002,0.006666667293757
0.121194027364254,0.006666667293757
-0.023524884134531,0.006666667293757
0.022720891982317,0.006666667293757
-0.156370788812637,0.006666667293757
0.169654726982117,0.006666667293757
-0.029883742332458,0.006666667293757
-0.149579405784607,0.006666667293757
-0.011007113382220,0.006666667293757
-0.050307773053646,0.006666667293757
-0.223808586597443,0.006666667293757
-0.103733770549297,0.006666667293757
-0.017201641574502,0.006666667293757
-0.047408238053322,0.006666667293757
0.056045476347208,0.006666667293757
-0.046786978840828,0.006666667293757
-0.158440783619881,0.006666667293757
0.022546416148543,0.006666667293757
0.056804694235325,0.006666667293757
0.040840465575457,0.006666667293757
-0.150600984692574,0.006666667293757
0.040844880044460,0.006666667293757
-0.112018123269081,0.006666667293757
-0.048906508833170,0.006666667293757
0.038685657083988,0.006666667293757
0.026100257411599,0.006666667293757
-0.036003623157740,0.006666667293757
-0.007059830706567,0.006666667293757
0.049929406493902,0.006666667293757
0.016055656597018,0.006666667293757
0.035586852580309,0.006666667293757
-0.132754445075989,0.006666667293757
-0.109348937869072,0.006666667293757
-0.136604830622673,0.006666667293757
0.022464646026492,0.006666667293757
-0.064224578440189,0.006666667293757
0.008461951278150,0.006666667293757
-0.079806707799435,0.006666667293757
0.106426395475864,0.006666667293757
0.015497767366469,0.006666667293757
-0.058338522911072,0.006666667293757
0.176664933562279,0.006666667293757
0.069076895713806,0.006666667293757
-0.142073675990105,0.006666667293757
0.088357068598270,0.006666667293757
0.014829816296697,0.006666667293757
-0.026776373386383,0.006666667293757
0.003667539916933,0.006666667293757
-0.107819199562073,0.006666667293757
0.068043284118176,0.006666667293757
0.021130733191967,0.006666667293757
-0.050719022750854,0.006666667293757
0.018337892368436,0.006666667293757
0.061722259968519,0.006666667293757
-0.075693607330322,0.006666667293757
0.025778830051422,0.006666667293757
0.033720862120390,0.006666667293757
0.051923003047705,0.006666667293757
0.122817732393742,0.006666667293757
0.066120021045208,0.006666667293757
-0.081328295171261,0.006666667293757
0.014315840788186,0.006666667293757
-0.097346842288971,0.006666667293757
-0.003754931502044,0.006666667293757
0.018950475379825,0.006666667293757
-0.119542323052883,0.006666667293757
0.123057827353477,0.006666667293757
-0.029412452131510,0.006666667293757
0.041342500597239,0.006666667293757
0.060852654278278,0.006666667293757
0.010051591321826,0.006666667293757
0.044927380979061,0.006666667293757
0.065052770078182,0.006666667293757
-0.050452183932066,0.006666667293757
-0.068072274327278,0.006666667293757
0.149519696831703,0.006666667293757
-0.061567515134811,0.006666667293757
0.067548081278801,0.006666667293757
0.031580287963152,0.006666667293757
0.158984735608101,0.006666667293757
-0.070095643401146,0.006666667293757
-0.107881449162960,0.006666667293757
-0.004095616284758,0.006666667293757
-0.011108754202724,0.006666667293757
0.013440668582916,0.006666667293757
0.023470563814044,0.006666667293757
0.030673122033477,0.006666667293757
0.007963249459863,0.006666667293757
0.002498475834727,0.006666667293757
0.064830318093300,0.006666667293757
-0.086884051561356,0.006666667293757
0.083713404834270,0.006666667293757
-0.140246391296387,0.006666667293757
0.040905188769102,0.006666667293757
0.109005339443684,0.006666667293757
0.042427916079760,0.006666667293757
0.072082526981831,0.006666667293757
-0.285155981779099,0.006666667293757
0.176228255033493,0.006666667293757
0.078195281326771,0.006666667293757
0.207989633083344,0.006666667293757
-0.045936033129692,0.006666667293757
-0.005661584902555,0.006666667293757
0.008706677705050,0.006666667293757
-0.002448664046824,0.006666667293757
-0.101808197796345,0.006666667293757
-0.112909644842148,0.006666667293757
-0.045740522444248,0.006666667293757
0.020524695515633,0.006666667293757
0.045018568634987,0.006666667293757
0.011445421725512,0.006666667293757
-0.105388559401035,0.006666667293757
-0.105810910463333,0.006666667293757
-0.099064581096172,0.006666667293757
-0.066463142633438,0.006666667293757
-0.064231552183628,0.006666667293757
0.063027001917362,0.006666667293757
0.092815600335598,0.006666667293757
0.001178761478513,0.006666667293757
-0.001682431204244,0.006666667293757
-0.107848539948463,0.006666667293757
-0.064142160117626,0.006666667293757
-0.005154313053936,0.006666667293757
0.063731722533703,0.006666667293757
0.021871544420719,0.006666667293757
-0.081501685082912,0.006666667293757
0.026886533945799,0.006666667293757
0.056447342038155,0.006666667293757
0.069323591887951,0.006666667293757
-0.067540071904659,0.006666667293757
0.050447784364223,0.006666667293757
-0.033413980156183,0.006666667293757
-0.016104368492961,0.006666667293757
-0.029622888192534,0.006666667293757
-0.015475952997804,0.006666667293757
0.012857338413596,0.006666667293757
-0.075839132070541,0.006666667293757
0.168349668383598,0.006666667293757
-0.056044559925795,0.006666667293757
0.029186664149165,0.006666667293757
-0.024269683286548,0.006666667293757
0.008031448349357,0.006666667293757
0.033755090087652,0.006666667293757
-0.023185910657048,0.006666667293757
0.024075264111161,0.006666667293757
0.099375940859318,0.006666667293757
0.090013414621353,0.006666667293757
0.063074022531509,0.006666667293757
0.043778035789728,0.006666667293757
-0.001288379309699,0.006666667293757
0.055687248706818,0.006666667293757
0.104188032448292,0.006666667293757
0.090704888105392,0.006666667293757
0.079009182751179,0.006666667293757
-0.058991093188524,0.006666667293757
-0.099618859589100,0.006666667293757
0.013157594017684,0.006666667293757
0.019674085080624,0.006666667293757
-0.149018213152885,0.006666667293757
0.069333888590336,0.006666667293757
-0.095751702785492,0.006666667293757
0.022876108065248,0.006666667293757
-0.053615018725395,0.006666667293757
-0.116192772984505,0.006666667293757
0.085010655224323,0.006666667293757
-0.052591830492020,0.006666667293757
-0.142677515745163,0.006666667293757
0.066807106137276,0.006666667293757
-0.001644039875828,0.006666667293757
0.021490612998605,0.006666667293757
-0.066371552646160,0.006666667293757
0.079825669527054,0.006666667293757
-0.055938586592674,0.006666667293757
0.127449259161949,0.006666667293757
-0.061528809368610,0.006666667293757
-0.068278715014458,0.006666667293757
0.019750554114580,0.006666667293757
0.096987746655941,0.006666667293757
0.052698954939842,0.006666667293757
-0.078514434397221,0.006666667293757
-0.051483016461134,0.006666667293757
0.022229973226786,0.006666667293757
0.153671070933342,0.006666667293757
0.000952342292294,0.006666667293757
0.023968812078238,0.006666667293757
0.036508746445179,0.006666667293757
0.085188351571560,0.006666667293757
0.029490042477846,0.006666667293757
-0.166119590401649,0.006666667293757
-0.029840137809515,0.006666667293757
-0.009074619971216,0.006666667293757
-0.025291662663221,0.006666667293757
0.102413110435009,0.006666667293757
-0.030501203611493,0.006666667293757
-0.023156583309174,0.006666667293757
0.039530474692583,0.006666667293757
-0.004908872768283,0.006666667293757
-0.025815317407250,0.006666667293757
0.000617704412434,0.006666667293757
0.008410525508225,0.006666667293757
0.026293935254216,0.006666667293757
-0.033051677048206,0.006666667293757
-0.058010488748550,0.006666667293757
-0.014308792538941,0.006666667293757
0.031056713312864,0.006666667293757
0.079046115279198,0.006666667293757
-0.034460891038179,0.006666667293757
-0.034579705446959,0.006666667293757
0.037439614534378,0.006666667293757
0.041713099926710,0.006666667293757
0.080110296607018,0.006666667293757
0.058698404580355,0.006666667293757
-0.077933609485626,0.006666667293757
-0.069688037037849,0.006666667293757
-0.042715806514025,0.006666667293757
-0.047129411250353,0.006666667293757
-0.025013638660312,0.006666667293757
0.068114206194878,0.006666667293757
0.114220947027206,0.006666667293757
0.019101070240140,0.006666667293757
-0.186467930674553,0.006666667293757
0.023844214156270,0.006666667293757
-0.076127290725708,0.006666667293757
-0.122790046036243,0.006666667293757
-0.050829213112593,0.006666667293757
0.061230499297380,0.006666667293757
0.095497518777847,0.006666667293757
0.138025775551796,0.006666667293757
-0.082886971533298,0.006666667293757
0.043853674083948,0.006666667293757
0.050014924257994,0.006666667293757
0.084256291389465,0.006666667293757
0.140126526355743,0.006666667293757
-0.008576596155763,0.006666667293757
-0.104924134910107,0.006666667293757
0.050217900425196,0.006666667293757
-0.020654782652855,0.006666667293757
0.061627812683582,0.006666667293757
-0.036712609231472,0.006666667293757
0.007425571791828,0.006666667293757
-0.015647018328309,0.006666667293757
0.135685637593269,0.006666667293757
-0.024358436465263,0.006666667293757
-0.152678951621056,0.006666667293757
-0.067862316966057,0.006666667293757
-0.097062475979328,0.006666667293757
-0.066048271954060,0.006666667293757
0.050721574574709,0.006666667293757
-0.085877031087875,0.006666667293757
0.041599936783314,0.006666667293757
0.078649401664734,0.006666667293757
0.065660871565342,0.006666667293757
-0.099507495760918,0.006666667293757
-0.068305134773254,0.006666667293757
0.056199584156275,0.006666667293757
0.072662793099880,0.006666667293757
-0.092453025281429,0.006666667293757
-0.038912832736969,0.006666667293757
-0.013081611134112,0.006666667293757
-0.076080679893494,0.006666667293757
-0.034546595066786,0.006666667293757
-0.083661064505577,0.006666667293757
-0.073489315807819,0.006666667293757
-0.014022946357727,0.006666667293757
-0.047206848859787,0.006666667293757
0.031307782977819,0.006666667293757
0.017316799610853,0.006666667293757
-0.045799106359482,0.006666667293757
0.036230966448784,0.006666667293757
-0.035638447850943,0.006666667293757
-0.037312872707844,0.006666667293757
0.025169402360916,0.006666667293757
0.088947542011738,0.006666667293757
0.060412205755711,0.006666667293757
-0.050948981195688,0.006666667293757
0.064629234373569,0.006666667293757
0.011795870959759,0.006666667293757
0.000782263989095,0.006666667293757
-0.012676383368671,0.006666667293757
0.021652396768332,0.006666667293757
-0.058748837560415,0.006666667293757
0.027510216459632,0.006666667293757
-0.058981198817492,0.006666667293757
-0.018718257546425,0.006666667293757
0.013515943661332,0.006666667293757
-0.035645376890898,0.006666667293757
0.000271712604444,0.006666667293757
-0.071866877377033,0.006666667293757
-0.065497390925884,0.006666667293757
-0.025558296591043,0.006666667293757
0.005639121402055,0.006666667293757
-0.027434166520834,0.006666667293757
0.072069361805916,0.006666667293757
0.023950895294547,0.006666667293757
-0.113857425749302,0.006666667293757
-0.115752026438713,0.006666667293757
0.004003005567938,0.006666667293757
-0.027150118723512,0.006666667293757
0.013988137245178,0.006666667293757
-0.086019888520241,0.006666667293757
-0.046922564506531,0.006666667293757
-0.061079282313585,0.006666667293757
-0.110021501779556,0.006666667293757
-0.155303388834000,0.006666667293757
0.008656705729663,0.006666667293757
-0.013788270764053,0.006666667293757
-0.197194889187813,0.006666667293757
0.018177254125476,0.006666667293757
-0.012826106511056,0.006666667293757
0.089077666401863,0.006666667293757
0.109165273606777,0.006666667293757
0.027303829789162,0.006666667293757
-0.066694758832455,0.006666667293757
0.037786450237036,0.006666667293757
0.025857305154204,0.006666667293757
-0.009990987367928,0.006666667293757
-0.022862400859594,0.006666667293757
0.056195966899395,0.006666667293757
0.127968609333038,0.006666667293757
-0.050929456949234,0.006666667293757
-0.006002234760672,0.006666667293757
-0.188037350773811,0.006666667293757
-0.136312901973724,0.006666667293757
-0.081450119614601,0.006666667293757
0.044711884111166,0.006666667293757
-0.127645805478096,0.006666667293757
-0.034179542213678,0.006666667293757
-0.011193473823369,0.006666667293757
-0.037514854222536,0.006666667293757
0.058862015604973,0.006666667293757
-0.086445413529873,0.006666667293757
-0.007822278887033,0.006666667293757
-0.070456206798553,0.006666667293757
-0.120917730033398,0.006666667293757
0.004191860090941,0.006666667293757
0.084609545767307,0.006666667293757
0.005482784938067,0.006666667293757
0.116890177130699,0.006666667293757
-0.078723073005676,0.006666667293757
0.013412531465292,0.006666667293757
0.014250339940190,0.006666667293757
0.013216302730143,0.006666667293757
-0.115875273942947,0.006666667293757
0.045808330178261,0.006666667293757
0.003095917636529,0.006666667293757
-0.017006775364280,0.006666667293757
0.155374601483345,0.006666667293757
-0.052039906382561,0.006666667293757
0.065633051097393,0.006666667293757
-0.065740726888180,0.006666667293757
0.026925368234515,0.006666667293757
0.155385851860046,0.006666667293757
-0.078281983733177,0.006666667293757
0.155803412199020,0.006666667293757
-0.237677469849586,0.006666667293757
0.006900182459503,0.006666667293757
0.033686194568872,0.006666667293757
0.099859803915024,0.006666667293757
-0.092603869736195,0.006666667293757
-0.309225589036942,0.006666667293757
-0.027884436771274,0.006666667293757
-0.039219710975885,0.006666667293757
0.174424499273300,0.006666667293757
-0.111595869064331,0.006666667293757
-0.031355660408735,0.006666667293757
0.002281809691340,0.006666667293757
0.044490281492472,0.006666667293757
-0.014802735298872,0.006666667293757
-0.018821267411113,0.006666667293757
-0.176515892148018,0.006666667293757
-0.066172085702419,0.006666667293757
-0.017338225618005,0.006666667293757
-0.025227801874280,0.006666667293757
0.105575785040855,0.006666667293757
-0.069212973117828,0.006666667293757
0.071947515010834,0.006666667293757
0.015436458401382,0.006666667293757
-0.042183991521597,0.006666667293757
0.072871133685112,0.006666667293757
-0.019875207915902,0.006666667293757
0.191889762878418,0.006666667293757
0.033216822892427,0.006666667293757
-0.122219011187553,0.006666667293757
-0.057682886719704,0.006666667293757
0.023521607741714,0.006666667293757
0.026609582826495,0.006666667293757
-0.063150197267532,0.006666667293757
0.018012166023254,0.006666667293757
0.084826864302158,0.006666667293757
-0.014727325178683,0.006666667293757
-0.041269458830357,0.006666667293757
-0.066880747675896,0.006666667293757
0.043408628553152,0.006666667293757
-0.022301314398646,0.006666667293757
-0.001758862170391,0.006666667293757
-0.166805893182755,0.006666667293757
-0.085471749305725,0.006666667293757
-0.072509579360485,0.006666667293757
-0.028352420777082,0.006666667293757
-0.023772070184350,0.006666667293757
0.035666827112436,0.006666667293757
-0.098489806056023,0.006666667293757
0.057194970548153,0.006666667293757
-0.011318258941174,0.006666667293757
-0.009590736590326,0.006666667293757
-0.066824063658714,0.006666667293757
0.016259936615825,0.006666667293757
0.001569251995534,0.006666667293757
-0.053016282618046,0.006666667293757
0.001421914668754,0.006666667293757
-0.083756707608700,0.006666667293757
0.035787470638752,0.006666667293757
-0.011428458616138,0.006666667293757
-0.006490598432720,0.006666667293757
-0.012397495098412,0.006666667293757
-0.084527187049389,0.006666667293757
-0.036238159984350,0.006666667293757
-0.149956822395325,0.006666667293757
-0.175963759422302,0.006666667293757
0.116339102387428,0.006666667293757
0.045740600675344,0.006666667293757
0.019553720951080,0.006666667293757
-0.052701771259308,0.006666667293757
0.053086526691914,0.006666667293757
0.166799739003181,0.006666667293757
0.099460445344448,0.006666667293757
0.029590347781777,0.006666667293757
-0.104581102728844,0.006666667293757
-0.075254216790199,0.006666667293757
-0.110717549920082,0.006666667293757
0.077089309692383,0.006666667293757
-0.043679676949978,0.006666667293757
-0.062026370316744,0.006666667293757
0.035763222724199,0.006666667293757
0.084031648933887,0.006666667293757
-0.099401012063026,0.006666667293757
-0.065473094582558,0.006666667293757
-0.222702622413635,0.006666667293757
0.150845870375633,0.006666667293757
0.041612502187490,0.006666667293757
-0.077575214207172,0.006666667293757
-0.081858046352863,0.006666667293757
-0.036837447434664,0.006666667293757
-0.040908206254244,0.006666667293757
0.144792124629021,0.006666667293757
0.080754540860653,0.006666667293757
1.000000000000000,1.000000000000000
1.000000000000000,1.000000000000000
1.000000000000000,1.000000000000000
1.000000000000000,1.000000000000000
1.000000000000000,1.000000000000000
1.000000000000000,1.000000000000000
1.000000000000000,1.000000000000000
1.000000000000000,1.000000000000000
0.003662752686068,0.007194244302809
0.074941471219063,0.007194244302809
0.016819698736072,0.007194244302809
0.053572230041027,0.007194244302809
0.098101891577244,0.007194244302809
-0.169816866517067,0.007194244302809
-0.037715528160334,0.007194244302809
-0.070942468941212,0.007194244302809
-0.117691516876221,0.007194244302809
0.046417713165283,0.007194244302809
-0.032213874161243,0.007194244302809
-0.036642916500568,0.007194244302809
-0.084677301347256,0.007194244302809
-0.041885480284691,0.007194244302809
-0.035973183810711,0.007194244302809
0.008818940259516,0.007194244302809
0.027808109298348,0.007194244302809
0.064160831272602,0.007194244302809
0.074570968747139,0.007194244302809
-0.140437424182892,0.007194244302809
0.135390713810921,0.007194244302809
-0.069297857582569,0.007194244302809
-0.031782090663910,0.007194244302809
-0.068467482924461,0.007194244302809
0.057629838585854,0.007194244302809
-0.012860951945186,0.007194244302809
0.003895912319422,0.007194244302809
0.137164711952209,0.007194244302809
0.011770369485021,0.007194244302809
-0.063475809991360,0.007194244302809
-0.150220364332199,0.007194244302809
0.022427204996347,0.007194244302809
-0.117356479167938,0.007194244302809
-0.135197341442108,0.007194244302809
0.049874324351549,0.007194244302809
0.118418633937836,0.007194244302809
0.108024932444096,0.007194244302809
0.144294694066048,0.007194244302809
-0.053419142961502,0.007194244302809
0.024946216493845,0.007194244302809
0.037777692079544,0.007194244302809
0.003840617602691,0.007194244302809
0.058583542704582,0.007194244302809
0.024284187704325,0.007194244302809
-0.072166122496128,0.007194244302809
-0.077488936483860,0.007194244302809
-0.066243566572666,0.007194244302809
-0.142208337783813,0.007194244302809
-0.124657511711121,0.007194244302809
-0.003330894280225,0.007194244302809
0.023832924664021,0.007194244302809
-0.029265105724335,0.007194244302809
-0.049451157450676,0.007194244302809
-0.073223449289799,0.007194244302809
-0.036186911165714,0.007194244302809
0.019622478634119,0.007194244302809
0.080884985625744,0.007194244302809
0.000356620847015,0.007194244302809
0.112415231764317,0.007194244302809
-0.006737892515957,0.007194244302809
0.052091192454100,0.007194244302809
-0.027003612369299,0.007194244302809
0.035117991268635,0.007194244302809
0.095183774828911,0.007194244302809
-0.104067094624043,0.007194244302809
-0.091435246169567,0.007194244302809
-0.117045834660530,0.007194244302809
-0.050148099660873,0.007194244302809
-0.049678716808558,0.007194244302809
-0.172750681638718,0.007194244302809
-0.002639545127749,0.007194244302809
0.108318068087101,0.007194244302809
-0.069334246218204,0.007194244302809
0.008651619777083,0.007194244302809
0.128781110048294,0.007194244302809
-0.006582182366401,0.007194244302809
-0.054069075733423,0.007194244302809
0.031423315405846,0.007194244302809
-0.038988664746284,0.007194244302809
-0.007104273885489,0.007194244302809
0.095929726958275,0.007194244302809
-0.065621137619019,0.007194244302809
-0.048718955367804,0.007194244302809
-0.091722123324871,0.007194244302809
0.027609556913376,0.007194244302809
-0.005620356649160,0.007194244302809
-0.097012393176556,0.007194244302809
-0.020363409072161,0.007194244302809
0.048529367893934,0.007194244302809
-0.013288394547999,0.007194244302809
-0.092828147113323,0.007194244302809
-0.004724386613816,0.007194244302809
-0.066595770418644,0.007194244302809
0.005475544836372,0.007194244302809
0.019653109833598,0.007194244302809
0.171593934297562,0.007194244302809
0.156809121370316,0.007194244302809
-0.040748465806246,0.007194244302809
0.090288564562798,0.007194244302809
0.147456333041191,0.007194244302809
0.099921397864819,0.007194244302809
0.043520580977201,0.007194244302809
0.035891484469175,0.007194244302809
-0.012294263578951,0.007194244302809
-0.090433672070503,0.007194244302809
-0.175507113337517,0.007194244302809
0.078779585659504,0.007194244302809
0.158311977982521,0.007194244302809
0.037306573241949,0.007194244302809
-0.013215947896242,0.007194244302809
0.071430943906307,0.007194244302809
-0.071685127913952,0.007194244302809
0.142641231417656,0.007194244302809
0.165892854332924,0.007194244302809
-0.105928108096123,0.007194244302809
-0.037665423005819,0.007194244302809
0.147342085838318,0.007194244302809
-0.067530438303947,0.007194244302809
-0.085388742387295,0.007194244302809
0.023088123649359,0.007194244302809
0.006468818988651,0.007194244302809
0.079506121575832,0.007194244302809
0.052664183080196,0.007194244302809
-0.187176793813705,0.007194244302809
0.170921668410301,0.007194244302809
-0.002705535385758,0.007194244302809
-0.016748020425439,0.007194244302809
-0.008932164870203,0.007194244302809
-0.041358139365911,0.007194244302809
-0.090158455073833,0.007194244302809
-0.045661997050047,0.007194244302809
0.073676235973835,0.007194244302809
0.025338312610984,0.007194244302809
0.108067966997623,0.007194244302809
0.014051198028028,0.007194244302809
-0.197354510426521,0.007194244302809
0.026026431471109,0.007194244302809
0.091383345425129,0.007194244302809
-0.105633199214935,0.007194244302809
-0.001193996868096,0.007194244302809
-0.026785606518388,0.007194244302809
-0.005680135451257,0.007194244302809
-0.145843625068665,0.007194244302809
0.135390609502792,0.007194244302809
-0.125393107533455,0.007194244302809
-0.004900435917079,0.007194244302809
0.109785132110119,0.007194244302809
0.057134315371513,0.007194244302809
-0.083966843783855,0.007194244302809
0.104328818619251,0.007194244302809
0.111248627305031,0.007194244302809
0.018947508186102,0.007194244302809
0.109685160219669,0.007194244302809
-0.152293905615807,0.007194244302809
-0.025178888812661,0.007194244302809
-0.124162055552006,0.007194244302809
-0.095833122730255,0.007194244302809
0.125062987208366,0.007194244302809
0.031203359365463,0.007194244302809
-0.066118635237217,0.007194244302809
-0.098490953445435,0.007194244302809
0.154524654150009,0.007194244302809
-0.001694141305052,0.007194244302809
-0.124599374830723,0.007194244302809
0.033271323889494,0.007194244302809
-0.148002520203590,0.007194244302809
0.098088093101978,0.007194244302809
-0.107026882469654,0.007194244302809
-0.042363930493593,0.007194244302809
0.046332884579897,0.007194244302809
0.031925793737173,0.007194244302809
0.076258979737759,0.007194244302809
-0.079135641455650,0.007194244302809
0.026617003604770,0.007194244302809
-0.106701478362083,0.007194244302809
0.180945664644241,0.007194244302809
0.136166453361511,0.007194244302809
0.086114823818207,0.007194244302809
-0.066925555467606,0.007194244302809
-0.080573566257954,0.007194244302809
-0.091289430856705,0.007194244302809
0.081774078309536,0.007194244302809
-0.096231140196323,0.007194244302809
0.072987876832485,0.007194244302809
-0.080122664570808,0.007194244302809
0.148756250739098,0.007194244302809
-0.083437174558640,0.007194244302809
0.051243878901005,0.007194244302809
-0.139987960457802,0.007194244302809
0.135382592678070,0.007194244302809
-0.153526797890663,0.007194244302809
0.050127204507589,0.007194244302809
-0.001778225763701,0.007194244302809
-0.186338737607002,0.007194244302809
-0.187125951051712,0.007194244302809
0.161133423447609,0.007194244302809
-0.002502033254132,0.007194244302809
-0.053569003939629,0.007194244302809
-0.046564210206270,0.007194244302809
0.047614090144634,0.007194244302809
-0.046279966831207,0.007194244302809
0.056652117520571,0.007194244302809
0.092692233622074,0.007194244302809
0.213047206401825,0.007194244302809
0.002035622252151,0.007194244302809
0.014823097735643,0.007194244302809
0.039971180260181,0.007194244302809
0.204926997423172,0.007194244302809
-0.051395289599895,0.007194244302809
0.029456473886967,0.007194244302809
0.080600947141647,0.007194244302809
0.019992709159851,0.007194244302809
0.013856032863259,0.007194244302809
0.087019652128220,0.007194244302809
-0.125863537192345,0.007194244302809
0.021126421168447,0.007194244302809
-0.010861674323678,0.007194244302809
-0.089803308248520,0.007194244302809
0.064026147127151,0.007194244302809
-0.036808364093304,0.007194244302809
-0.021625485271215,0.007194244302809
0.081280291080475,0.007194244302809
0.002755063353106,0.007194244302809
-0.038042832165956,0.007194244302809
0.056117564439774,0.007194244302809
0.038636516779661,0.007194244302809
-0.058677658438683,0.007194244302809
-0.067827507853508,0.007194244302809
-0.059863112866879,0.007194244302809
-0.118310473859310,0.007194244302809
-0.035136904567480,0.007194244302809
0.013155760243535,0.007194244302809
-0.025448851287365,0.007194244302809
0.050348192453384,0.007194244302809
-0.026084918528795,0.007194244302809
-0.009451112709939,0.007194244302809
-0.030858894810081,0.007194244302809
0.012473855167627,0.007194244302809
-0.063521079719067,0.007194244302809
0.115966796875000,0.007194244302809
-0.115016438066959,0.007194244302809
0.087644226849079,0.007194244302809
0.131215229630470,0.007194244302809
0.163853764533997,0.007194244302809
0.040538851171732,0.007194244302809
0.062884844839573,0.007194244302809
-0.121195562183857,0.007194244302809
0.113267801702023,0.007194244302809
0.056325074285269,0.007194244302809
-0.047273028641939,0.007194244302809
-0.134027630090714,0.007194244302809
-0.100572437047958,0.007194244302809
0.024514816701412,0.007194244302809
0.090975619852543,0.007194244302809
0.054100982844830,0.007194244302809
-0.006259559653699,0.007194244302809
-0.013332431204617,0.007194244302809
-0.014722579158843,0.007194244302809
-0.098685570061207,0.007194244302809
-0.047981671988964,0.007194244302809
-0.119937509298325,0.007194244302809
0.036305017769337,0.007194244302809
0.070394627749920,0.007194244302809
-0.053536668419838,0.007194244302809
-0.011682169511914,0.007194244302809
0.035992670804262,0.007194244302809
-0.075638458132744,0.007194244302809
0.017143784090877,0.007194244302809
-0.071526452898979,0.007194244302809
0.025979714468122,0.007194244302809
0.035697281360626,0.007194244302809
0.025270046666265,0.007194244302809
0.049527648836374,0.007194244302809
-0.058619257062674,0.007194244302809
-0.067853540182114,0.007194244302809
-0.019107256084681,0.007194244302809
0.091688200831413,0.007194244302809
-0.104813799262047,0.007194244302809
0.109542384743690,0.007194244302809
-0.035479549318552,0.007194244302809
0.052903126925230,0.007194244302809
-0.025729769840837,0.007194244302809
0.067261599004269,0.007194244302809
0.055895946919918,0.007194244302809
0.114466853439808,0.007194244302809
0.147922560572624,0.007194244302809
0.048486713320017,0.007194244302809
-0.166781261563301,0.007194244302809
0.189662531018257,0.007194244302809
0.152712315320969,0.007194244302809
0.093549512326717,0.007194244302809
-0.056189030408859,0.007194244302809
0.056151442229748,0.007194244302809
-0.073203384876251,0.007194244302809
0.180210724473000,0.007194244302809
-0.115874379873276,0.007194244302809
0.170739784836769,0.007194244302809
0.037747066468000,0.007194244302809
-0.038176469504833,0.007194244302809
-0.056930080056190,0.007194244302809
0.009143892675638,0.007194244302809
0.128956064581871,0.007194244302809
-0.025331497192383,0.007194244302809
-0.008072004653513,0.007194244302809
0.004799609538168,0.007194244302809
-0.004026708193123,0.007194244302809
0.090307652950287,0.007194244302809
-0.097972199320793,0.007194244302809
-0.125568315386772,0.007194244302809
-0.027360472828150,0.007194244302809
0.000391653127735,0.007194244302809
-0.097595371305943,0.007194244302809
0.135406404733658,0.007194244302809
-0.061556767672300,0.007194244302809
-0.290916800498962,0.007194244302809
-0.048020943999290,0.007194244302809
-0.022129653021693,0.007194244302809
0.096371300518513,0.007194244302809
-0.038496695458889,0.007194244302809
0.100453570485115,0.007194244302809
-0.078995779156685,0.007194244302809
0.096671916544437,0.007194244302809
0.114740833640099,0.007194244302809
0.007247397210449,0.007194244302809
0.016073688864708,0.007194244302809
0.157064303755760,0.007194244302809
0.022692851722240,0.007194244302809
0.117418989539146,0.007194244302809
0.005749401636422,0.007194244302809
0.150212511420250,0.007194244302809
0.019394874572754,0.007194244302809
-0.057849653065205,0.007194244302809
-0.054923947900534,0.007194244302809
0.093204900622368,0.007194244302809
0.009461168199778,0.007194244302809
0.095863275229931,0.007194244302809
0.135639578104019,0.007194244302809
0.027545275166631,0.007194244302809
-0.037144288420677,0.007194244302809
-0.008493681438267,0.007194244302809
-0.219022810459137,0.007194244302809
0.032856062054634,0.007194244302809
0.026174016296864,0.007194244302809
-0.085015118122101,0.007194244302809
0.236617788672447,0.007194244302809
-0.047831449657679,0.007194244302809
0.077088937163353,0.007194244302809
0.032862219959497,0.007194244302809
0.021014327183366,0.007194244302809
-0.017384190112352,0.007194244302809
0.077731572091579,0.007194244302809
-0.126714155077934,0.007194244302809
-0.026201169937849,0.007194244302809
0.008956952020526,0.007194244302809
-0.032514467835426,0.007194244302809
0.125898167490959,0.007194244302809
-0.024438001215458,0.007194244302809
0.023602804169059,0.007194244302809
-0.162440314888954,0.007194244302809
0.176239877939224,0.007194244302809
-0.031043678522110,0.007194244302809
-0.155385330319405,0.007194244302809
-0.011434353888035,0.007194244302809
-0.052260469645262,0.007194244302809
-0.232495710253716,0.007194244302809
-0.107760190963745,0.007194244302809
-0.017869323492050,0.007194244302809
-0.049248389899731,0.007194244302809
0.058220881968737,0.007194244302809
-0.048603016883135,0.007194244302809
-0.164590656757355,0.007194244302809
0.023421555757523,0.007194244302809
0.059009570628405,0.007194244302809
0.042425688356161,0.007194244302809
-0.156446561217308,0.007194244302809
0.042430274188519,0.007194244302809
-0.116366110742092,0.007194244302809
-0.050804816186428,0.007194244302809
0.040187239646912,0.007194244302809
0.027113338932395,0.007194244302809
-0.037401102483273,0.007194244302809
-0.007333857938647,0.007194244302809
0.051867417991161,0.007194244302809
0.016678856685758,0.007194244302809
0.036968152970076,0.007194244302809
-0.137907311320305,0.007194244302809
-0.113593317568302,0.007194244302809
-0.141907140612602,0.007194244302809
0.023336611688137,0.007194244302809
-0.066717453300953,0.007194244302809
0.008790401741862,0.007194244302809
-0.082904405891895,0.007194244302809
0.110557332634926,0.007194244302809
0.016099313274026,0.007194244302809
-0.060602933168411,0.007194244302809
0.183522179722786,0.007194244302809
0.071758121252060,0.007194244302809
-0.147588267922401,0.007194244302809
0.091786652803421,0.007194244302809
0.015405435115099,0.007194244302809
-0.027815697714686,0.007194244302809
0.003809895366430,0.007194244302809
-0.112004198133945,0.007194244302809
0.070684380829334,0.007194244302809
0.021950922906399,0.007194244302809
-0.052687682211399,0.007194244302809
0.019049677997828,0.007194244302809
0.064118012785912,0.007194244302809
-0.078631654381752,0.007194244302809
0.026779433712363,0.007194244302809
0.035029739141464,0.007194244302809
0.053938392549753,0.007194244302809
0.127584904432297,0.007194244302809
0.068686470389366,0.007194244302809
-0.084485054016113,0.007194244302809
0.014871509745717,0.007194244302809
-0.101125352084637,0.007194244302809
-0.003900679061189,0.007194244302809
0.019686037674546,0.007194244302809
-0.124182358384132,0.007194244302809
0.127834305167198,0.007194244302809
-0.030554097145796,0.007194244302809
0.042947210371494,0.007194244302809
0.063214652240276,0.007194244302809
0.010441743768752,0.007194244302809
0.046671237796545,0.007194244302809
0.067577786743641,0.007194244302809
-0.052410483360291,0.007194244302809
-0.070714503526688,0.007194244302809
0.155323296785355,0.007194244302809
-0.063957259058952,0.007194244302809
0.070169955492020,0.007194244302809
0.032806076109409,0.007194244302809
0.165155738592148,0.007194244302809
-0.072816409170628,0.007194244302809
-0.112068869173527,0.007194244302809
-0.004254587460309,0.007194244302809
-0.011539939790964,0.007194244302809
0.013962367549539,0.007194244302809
0.024381574243307,0.007194244302809
0.031863700598478,0.007194244302809
0.008272343315184,0.007194244302809
0.002595454221591,0.007194244302809
0.067346706986427,0.007194244302809
-0.090256452560425,0.007194244302809
0.086962737143040,0.007194244302809
-0.145690053701401,0.007194244302809
0.042492922395468,0.007194244302809
0.113236382603645,0.007194244302809
0.044074755162001,0.007194244302809
0.074880413711071,0.007194244302809
-0.296224325895309,0.007194244302809
0.183068558573723,0.007194244302809
0.081230431795120,0.007194244302809
0.216062754392624,0.007194244302809
-0.047719039022923,0.007194244302809
-0.005881339311600,0.007194244302809
0.009044626727700,0.007194244302809
-0.002543709008023,0.007194244302809
-0.105759881436825,0.007194244302809
-0.117292232811451,0.007194244302809
-0.047515939921141,0.007194244302809
0.021321360021830,0.007194244302809
0.046765964478254,0.007194244302809
0.011889675632119,0.007194244302809
-0.109479218721390,0.007194244302809
-0.109917961061001,0.007194244302809
-0.102909773588181,0.007194244302809
-0.069042906165123,0.007194244302809
-0.066724702715874,0.007194244302809
0.065473392605782,0.007194244302809
0.096418239176273,0.007194244302809
0.001224515144713,0.007194244302809
-0.001747734844685,0.007194244302809
-0.112034685909748,0.007194244302809
-0.066631838679314,0.007194244302809
-0.005354377906770,0.007194244302809
0.066205471754074,0.007194244302809
0.022720487788320,0.007194244302809
-0.084665171802044,0.007194244302809
0.027930134907365,0.007194244302809
0.058638345450163,0.007194244302809
0.072014383971691,0.007194244302809
-0.070161633193493,0.007194244302809
0.052405912429094,0.007194244302809
-0.034710943698883,0.007194244302809
-0.016729459166527,0.007194244302809
-0.030772700905800,0.007194244302809
-0.016076652333140,0.007194244302809
0.013356395997107,0.007194244302809
-0.078782826662064,0.007194244302809
0.174884155392647,0.007194244302809
-0.058219928294420,0.007194244302809
0.030319545418024,0.007194244302809
-0.025211710482836,0.007194244302809
0.008343189023435,0.007194244302809
0.035065293312073,0.007194244302809
-0.024085871875286,0.007194244302809
0.025009743869305,0.007194244302809
0.103233218193054,0.007194244302809
0.093507282435894,0.007194244302809
0.065522246062756,0.007194244302809
0.045477278530598,0.007194244302809
-0.001338387723081,0.007194244302809
0.057848747819662,0.007194244302809
0.108232095837593,0.007194244302809
0.094225592911243,0.007194244302809
0.082075923681259,0.007194244302809
-0.061280831694603,0.007194244302809
-0.103485561907291,0.007194244302809
0.013668306171894,0.007194244302809
0.020437736064196,0.007194244302809
-0.154802352190018,0.007194244302809
0.072025083005428,0.007194244302809
-0.099468298256397,0.007194244302809
0.023764044046402,0.007194244302809
-0.055696085095406,0.007194244302809
-0.120702795684338,0.007194244302809
0.088310338556767,0.007194244302809
-0.054633185267448,0.007194244302809
-0.148215547204018,0.007194244302809
0.069400221109390,0.007194244302809
-0.001707853283733,0.007194244302809
0.022324770689011,0.007194244302809
-0.068947769701481,0.007194244302809
0.082924097776413,0.007194244302809
-0.058109845966101,0.007194244302809
0.132396206259727,0.007194244302809
-0.063917048275471,0.007194244302809
-0.070928953588009,0.007194244302809
0.020517172291875,0.007194244302809
0.100752323865891,0.007194244302809
0.054744463413954,0.007194244302809
-0.081561967730522,0.007194244302809
-0.053481332957745,0.007194244302809
0.023092830553651,0.007194244302809
0.159635812044144,0.007194244302809
0.000989307416603,0.007194244302809
0.024899160489440,0.007194244302809
0.037925831973553,0.007194244302809
0.088494941592216,0.007194244302809
0.030634699389338,0.007194244302809
-0.172567531466484,0.007194244302809
-0.030998382717371,0.007194244302809
-0.009426851756871,0.007194244302809
-0.026273358613253,0.007194244302809
0.106388278305531,0.007194244302809
-0.031685106456280,0.007194244302809
-0.024055406451225,0.007194244302809
0.041064850986004,0.007194244302809
-0.005099410656840,0.007194244302809
-0.026817338541150,0.007194244302809
0.000641680613626,0.007194244302809
0.008736980147660,0.007194244302809
0.027314534410834,0.007194244302809
-0.034334577620029,0.007194244302809
-0.060262165963650,0.007194244302809
-0.014864187687635,0.007194244302809
0.032262180000544,0.007194244302809
0.082114286720753,0.007194244302809
-0.035798490047455,0.007194244302809
-0.035921916365623,0.007194244302809
0.038892831653357,0.007194244302809
0.043332193046808,0.007194244302809
0.083219774067402,0.007194244302809
0.060976784676313,0.007194244302809
-0.080958604812622,0.007194244302809
-0.072392977774143,0.007194244302809
-0.044373821467161,0.007194244302809
-0.048958737403154,0.007194244302809
-0.025984542444348,0.007194244302809
0.070758052170277,0.007194244302809
0.118654437363148,0.007194244302809
0.019842479377985,0.007194244302809
-0.193705677986145,0.007194244302809
0.024769727140665,0.007194244302809
-0.079082168638706,0.007194244302809
-0.127556145191193,0.007194244302809
-0.052802145481110,0.007194244302809
0.063607163727283,0.007194244302809
0.099204257130623,0.007194244302809
0.143383249640465,0.007194244302809
-0.086104229092598,0.007194244302809
0.045555856078863,0.007194244302809
0.051956254988909,0.007194244302809
0.087526701390743,0.007194244302809
0.145565539598465,0.007194244302809
-0.008909496478736,0.007194244302809
-0.108996763825417,0.007194244302809
0.052167106419802,0.007194244302809
-0.021456496790051,0.007194244302809
0.064019896090031,0.007194244302809
-0.038137611001730,0.007194244302809
0.007713795173913,0.007194244302809
-0.016254356130958,0.007194244302809
0.140952274203300,0.007194244302809
-0.025303909555078,0.007194244302809
-0.158605188131332,0.007194244302809
-0.070496395230293,0.007194244302809
-0.100829958915710,0.007194244302809
-0.068611934781075,0.007194244302809
0.052690330892801,0.007194244302809
-0.089210346341133,0.007194244302809
0.043214637786150,0.007194244302809
0.081702172756195,0.007194244302809
0.068209499120712,0.007194244302809
-0.103369876742363,0.007194244302809
-0.070956401526928,0.007194244302809
0.058380972594023,0.007194244302809
0.075483195483685,0.007194244302809
-0.096041582524776,0.007194244302809
-0.040423233062029,0.007194244302809
-0.013589374721050,0.007194244302809
-0.079033747315407,0.007194244302809
-0.035887520760298,0.007194244302809
-0.086908370256424,0.007194244302809
-0.076341800391674,0.007194244302809
-0.014567247591913,0.007194244302809
-0.049039181321859,0.007194244302809
0.032522995024920,0.007194244302809
0.017988951876760,0.007194244302809
-0.047576799988747,0.007194244302809
0.037637270987034,0.007194244302809
-0.037021752446890,0.007194244302809
-0.038761172443628,0.007194244302809
0.026146352291107,0.007194244302809
0.092400036752224,0.007194244302809
0.062757104635239,0.007194244302809
-0.052926566451788,0.007194244302809
0.067137815058231,0.007194244302809
0.012253727763891,0.007194244302809
0.000812627549749,0.007194244302809
-0.013168416917324,0.007194244302809
0.022492833435535,0.007194244302809
-0.061029173433781,0.007194244302809
0.028578024357557,0.007194244302809
-0.061270553618670,0.007194244302809
-0.019444806501269,0.007194244302809
0.014040565118194,0.007194244302809
-0.037028949707747,0.007194244302809
0.000282259134110,0.007194244302809
-0.074656389653683,0.007194244302809
-0.068039678037167,0.007194244302809
-0.026550343260169,0.007194244302809
0.005858004093170,0.007194244302809
-0.028499023988843,0.007194244302809
0.074866734445095,0.007194244302809
0.024880548939109,0.007194244302809
-0.118276804685593,0.007194244302809
-0.120244935154915,0.007194244302809
0.004158381838351,0.007194244302809
-0.028203951194882,0.007194244302809
0.014531087130308,0.007194244302809
-0.089358747005463,0.007194244302809
-0.048743866384029,0.007194244302809
-0.063450075685978,0.007194244302809
-0.114291988313198,0.007194244302809
-0.161331489682198,0.007194244302809
0.008992715738714,0.007194244302809
-0.014323462732136,0.007194244302809
-0.204849004745483,0.007194244302809
0.018882803618908,0.007194244302809
-0.013323951512575,0.007194244302809
0.092535212635994,0.007194244302809
0.113402523100376,0.007194244302809
0.028363626450300,0.007194244302809
-0.069283515214920,0.007194244302809
0.039253130555153,0.007194244302809
0.026860956102610,0.007194244302809
-0.010378787294030,0.007194244302809
-0.023749805986881,0.007194244302809
0.058377213776112,0.007194244302809
0.132935717701912,0.007194244302809
-0.052906282246113,0.007194244302809
-0.006235211621970,0.007194244302809
-0.195336028933525,0.007194244302809
-0.141603887081146,0.007194244302809
-0.084611609578133,0.007194244302809
0.046447373926640,0.007194244302809
-0.132600381970406,0.007194244302809
-0.035506218671799,0.007194244302809
-0.011627947911620,0.007194244302809
-0.038970991969109,0.007194244302809
0.061146743595600,0.007194244302809
-0.089800789952278,0.007194244302809
-0.008125900290906,0.007194244302809
-0.073190964758396,0.007194244302809
-0.125611156225204,0.007194244302809
0.004354567267001,0.007194244302809
0.087893664836884,0.007194244302809
0.005695599131286,0.007194244302809
0.121427267789841,0.007194244302809
-0.081778705120087,0.007194244302809
0.013933138921857,0.007194244302809
0.014803466387093,0.007194244302809
0.013729292899370,0.007194244302809
-0.120372973382473,0.007194244302809
0.047586381435394,0.007194244302809
0.003216085722670,0.007194244302809
-0.017666893079877,0.007194244302809
0.161405473947525,0.007194244302809
-0.054059833288193,0.007194244302809
0.068180598318577,0.007194244302809
-0.068292446434498,0.007194244302809
0.027970476076007,0.007194244302809
0.161417141556740,0.007194244302809
-0.081320494413376,0.007194244302809
0.161850929260254,0.007194244302809
-0.246902927756310,0.007194244302809
0.007168012671173,0.007194244302809
0.034993723034859,0.007194244302809
0.103735864162445,0.007194244302809
-0.096198290586472,0.007194244302809
-0.321228176355362,0.007194244302809
-0.028966769576073,0.007194244302809
-0.040742024779320,0.007194244302809
0.181194782257080,0.007194244302809
-0.115927465260029,0.007194244302809
-0.032572731375694,0.007194244302809
0.002370378002524,0.007194244302809
0.046217173337936,0.007194244302809
-0.015377303585410,0.007194244302809
-0.019551815465093,0.007194244302809
-0.183367356657982,0.007194244302809
-0.068740554153919,0.007194244302809
-0.018011208623648,0.007194244302809
-0.026207018643618,0.007194244302809
0.109673708677292,0.007194244302809
-0.071899473667145,0.007194244302809
0.074740156531334,0.007194244302809
0.016035625711083,0.007194244302809
-0.043821364641190,0.007194244302809
0.075699627399445,0.007194244302809
-0.020646665245295,0.007194244302809
0.199337959289551,0.007194244302809
0.034506134688854,0.007194244302809
-0.126962944865227,0.007194244302809
-0.059921845793724,0.007194244302809
0.024434600025415,0.007194244302809
0.027642432600260,0.007194244302809
-0.065601371228695,0.007194244302809
0.018711308017373,0.007194244302809
0.088119417428970,0.007194244302809
-0.015298965387046,0.007194244302809
-0.042871329933405,0.007194244302809
-0.069476723670959,0.007194244302809
0.045093536376953,0.007194244302809
-0.023166939616203,0.007194244302809
-0.001827132422477,0.007194244302809
-0.173280462622643,0.007194244302809
-0.088789336383343,0.007194244302809
-0.075324036180973,0.007194244302809
-0.029452919960022,0.007194244302809
-0.024694783613086,0.007194244302809
0.037051234394312,0.007194244302809
-0.102312684059143,0.007194244302809
0.059414993971586,0.007194244302809
-0.011757577769458,0.007194244302809
-0.009963001124561,0.007194244302809
-0.069417841732502,0.007194244302809
0.016891065984964,0.007194244302809
0.001630162587389,0.007194244302809
-0.055074106901884,0.007194244302809
0.001477106357925,0.007194244302809
-0.087007723748684,0.007194244302809
0.037176560610533,0.007194244302809
-0.011872054077685,0.007194244302809
-0.006742530968040,0.007194244302809
-0.012878703884780,0.007194244302809
-0.087808109819889,0.007194244302809
-0.037644743919373,0.007194244302809
-0.155777394771576,0.007194244302809
-0.182793796062469,0.007194244302809
0.120854802429676,0.007194244302809
0.047516021877527,0.007194244302809
0.020312698557973,0.007194244302809
-0.054747391492128,0.007194244302809
0.055147081613541,0.007194244302809
0.173274070024490,0.007194244302809
0.103321000933647,0.007194244302809
0.030738897621632,0.007194244302809
-0.108640417456627,0.007194244302809
-0.078175209462643,0.007194244302809
-0.115015052258968,0.007194244302809
0.080081529915333,0.007194244302809
-0.045375101268291,0.007194244302809
-0.064433924853802,0.007194244302809
0.037151370197535,0.007194244302809
0.087293334305286,0.007194244302809
-0.103259265422821,0.007194244302809
-0.068014435470104,0.007194244302809
-0.231346815824509,0.007194244302809
0.156700953841209,0.007194244302809
0.043227691203356,0.007194244302809
-0.080586291849613,0.007194244302809
-0.085035361349583,0.007194244302809
-0.038267295807600,0.007194244302809
-0.042496059089899,0.007194244302809
0.150412231683731,0.007194244302809
0.083889029920101,0.007194244302809
-0.084736987948418,0.007194244302809
0.078785464167595,0.007194244302809
0.105479240417480,0.007194244302809
0.056519854813814,0.007194244302809
0.056502789258957,0.007194244302809
0.079607188701630,0.007194244302809
0.040881820023060,0.007194244302809
-0.130982622504234,0.007194244302809
-0.132735103368759,0.007194244302809
0.036632519215345,0.007194244302809
0.055823877453804,0.007194244302809
0.024585291743279,0.007194244302809
-0.069880962371826,0.007194244302809
-0.043500903993845,0.007194244302809
-0.043417554348707,0.007194244302809
0.185585528612137,0.007194244302809
-0.006282536312938,0.007194244302809
0.086132429540157,0.007194244302809
-0.006722924299538,0.007194244302809
0.074575945734978,0.007194244302809
-0.058109655976295,0.007194244302809
-0.099145613610744,0.007194244302809
0.060135733336210,0.007194244302809
-0.054076667875051,0.007194244302809
0.146090045571327,0.007194244302809
0.143698468804359,0.007194244302809
-0.030556708574295,0.007194244302809
-0.061654906719923,0.007194244302809
-0.069619983434677,0.007194244302809
0.034473288804293,0.007194244302809
0.048634324222803,0.007194244302809
0.019770629703999,0.007194244302809
0.000943881226704,0.007194244302809
0.108133263885975,0.007194244302809
-0.193724200129509,0.007194244302809
-0.044683873653412,0.007194244302809
0.057317901402712,0.007194244302809
0.149926036596298,0.007194244302809
0.010117802768946,0.007194244302809
0.129800692200661,0.007194244302809
-0.101256102323532,0.007194244302809
0.005497416947037,0.007194244302809
0.147440537810326,0.007194244302809
-0.156170800328255,0.007194244302809
0.057859409600496,0.007194244302809
-0.122295841574669,0.007194244302809
0.132505834102631,0.007194244302809
0.069053567945957,0.007194244302809
-0.017107974737883,0.007194244302809
-0.071204997599125,0.007194244302809
0.097271896898746,0.007194244302809
-0.061490155756474,0.007194244302809
0.030465053394437,0.007194244302809
-0.061488926410675,0.007194244302809
0.132174819707870,0.007194244302809
-0.141810998320580,0.007194244302809
0.022433914244175,0.007194244302809
0.097673505544662,0.007194244302809
0.067460179328918,0.007194244302809
0.022330576553941,0.007194244302809
0.006665119901299,0.007194244302809
0.010586989112198,0.007194244302809
0.017738122493029,0.007194244302809
-0.103798374533653,0.007194244302809
0.083562038838863,0.007194244302809
-0.186606273055077,0.007194244302809
0.059106454253197,0.007194244302809
0.133698731660843,0.007194244302809
-0.076380617916584,0.007194244302809
-0.015719946473837,0.007194244302809
-0.052584756165743,0.007194244302809
0.024548344314098,0.007194244302809
0.160433202981949,0.007194244302809
0.096555933356285,0.007194244302809
0.073262393474579,0.007194244302809
-0.067773878574371,0.007194244302809
-0.042715314775705,0.007194244302809
0.051058921962976,0.007194244302809
-0.239329829812050,0.007194244302809
-0.018078235909343,0.007194244302809
-0.009235554374754,0.007194244302809
0.099239610135555,0.007194244302809
-0.054339509457350,0.007194244302809
-0.043471410870552,0.007194244302809
-0.172532573342323,0.007194244302809
-0.121934115886688,0.007194244302809
-0.045907467603683,0.007194244302809
0.132763698697090,0.007194244302809
0.075873665511608,0.007194244302809
-0.074102126061916,0.007194244302809
-0.021263236179948,0.007194244302809
0.013043480925262,0.007194244302809
0.027578445151448,0.007194244302809
0.037336304783821,0.007194244302809
-0.004442707635462,0.007194244302809
0.057311717420816,0.007194244302809
-0.075287610292435,0.007194244302809
-0.114300198853016,0.007194244302809
-0.056972436606884,0.007194244302809
0.036712221801281,0.007194244302809
0.060959298163652,0.007194244302809
0.033502377569675,0.007194244302809
-0.124606840312481,0.007194244302809
-0.028755981475115,0.007194244302809
-0.233384579420090,0.007194244302809
0.018915683031082,0.007194244302809
-0.061141975224018,0.007194244302809
0.146371588110924,0.007194244302809
-0.063286073505878,0.007194244302809
-0.099155277013779,0.007194244302809
-0.112527020275593,0.007194244302809
0.023437505587935,0.007194244302809
-0.102926179766655,0.007194244302809
0.000344424828654,0.007194244302809
-0.017813576385379,0.007194244302809
0.087647065520287,0.007194244302809
-0.030325075611472,0.007194244302809
-0.031946137547493,0.007194244302809
0.047653134912252,0.007194244302809
0.086523994803429,0.007194244302809
-0.000784961099271,0.007194244302809
-0.027846332639456,0.007194244302809
-0.016499605029821,0.007194244302809
0.001442902721465,0.007194244302809
0.068203732371330,0.007194244302809
-0.063903868198395,0.007194244302809
0.012863082811236,0.007194244302809
-0.023328108713031,0.007194244302809
0.046824470162392,0.007194244302809
0.124844402074814,0.007194244302809
-0.009838350117207,0.007194244302809
0.032509710639715,0.007194244302809
-0.079996310174465,0.007194244302809
0.111709065735340,0.007194244302809
0.178684309124947,0.007194244302809
0.017447067424655,0.007194244302809
-0.060345273464918,0.007194244302809
0.140200078487396,0.007194244302809
-0.057050868868828,0.007194244302809
-0.020430071279407,0.007194244302809
-0.099677823483944,0.007194244302809
-0.124631874263287,0.007194244302809
-0.098224237561226,0.007194244302809
0.004026060923934,0.007194244302809
0.063333116471767,0.007194244302809
-0.026284782215953,0.007194244302809
-0.084517166018486,0.007194244302809
0.012661004438996,0.007194244302809
0.038571458309889,0.007194244302809
0.020279377698898,0.007194244302809
0.053651027381420,0.007194244302809
-0.083153776824474,0.007194244302809
-0.096311435103416,0.007194244302809
-0.122046560049057,0.007194244302809
-0.023122921586037,0.007194244302809
-0.001162311295047,0.007194244302809
0.057262718677521,0.007194244302809
0.061523199081421,0.007194244302809
-0.055521745234728,0.007194244302809
0.073238655924797,0.007194244302809
0.050379402935505,0.007194244302809
0.003566702594981,0.007194244302809
-0.020903635770082,0.007194244302809
-0.079158775508404,0.007194244302809
0.055126968771219,0.007194244302809
0.180039033293724,0.007194244302809
-0.000378638011171,0.007194244302809
0.079516798257828,0.007194244302809
0.055784292519093,0.007194244302809
0.148446202278137,0.007194244302809
0.033300377428532,0.007194244302809
0.012350022792816,0.007194244302809
-0.069078832864761,0.007194244302809
-0.048103053122759,0.007194244302809
-0.128366872668266,0.007194244302809
-0.050032094120979,0.007194244302809
0.094102032482624,0.007194244302809
0.003288274165243,0.007194244302809
0.073423780500889,0.007194244302809
-0.104900017380714,0.007194244302809
0.033794909715652,0.007194244302809
0.142428994178772,0.007194244302809
0.005270455963910,0.007194244302809
0.041899878531694,0.007194244302809
0.059673648327589,0.007194244302809
0.080271974205971,0.007194244302809
0.130616083741188,0.007194244302809
-0.056827295571566,0.007194244302809
-0.062591291964054,0.007194244302809
0.107618130743504,0.007194244302809
-0.048463866114616,0.007194244302809
0.020459918305278,0.007194244302809
-0.023669024929404,0.007194244302809
-0.015200002118945,0.007194244302809
-0.021844729781151,0.007194244302809
-0.178740918636322,0.007194244302809
0.209997549653053,0.007194244302809
0.007480693515390,0.007194244302809
-0.047190025448799,0.007194244302809
0.009066917933524,0.007194244302809
-0.074737846851349,0.007194244302809
-0.164732724428177,0.007194244302809
0.116447813808918,0.007194244302809
0.096781231462955,0.007194244302809
0.042399477213621,0.007194244302809
0.002071127528325,0.007194244302809
-0.031867213547230,0.007194244302809
0.172337993979454,0.007194244302809
0.008437246084213,0.007194244302809
-0.026335798203945,0.007194244302809
0.055237289518118,0.007194244302809
0.097564265131950,0.007194244302809
-0.004191467538476,0.007194244302809
0.068764723837376,0.007194244302809
0.087539270520210,0.007194244302809
0.039096765220165,0.007194244302809
-0.042787518352270,0.007194244302809
-0.040187098085880,0.007194244302809
0.046654365956783,0.007194244302809
-0.108582586050034,0.007194244302809
-0.319064080715179,0.007194244302809
-0.009221510030329,0.007194244302809
0.023077603429556,0.007194244302809
0.213505432009697,0.007194244302809
0.055700182914734,0.007194244302809
0.075460813939571,0.007194244302809
-0.049264762550592,0.007194244302809
-0.009126883000135,0.007194244302809
0.047933097928762,0.007194244302809
-0.014443657360971,0.007194244302809
-0.011770199052989,0.007194244302809
0.047932881861925,0.007194244302809
-0.004121844656765,0.007194244302809
0.166865691542625,0.007194244302809
0.101764969527721,0.007194244302809
-0.138855516910553,0.007194244302809
-0.065887078642845,0.007194244302809
-0.058205686509609,0.007194244302809
0.032869383692741,0.007194244302809
0.056860756129026,0.007194244302809
-0.049167573451996,0.007194244302809
-0.043498627841473,0.007194244302809
-0.026913261041045,0.007194244302809
-0.073439598083496,0.007194244302809
-0.168236106634140,0.007194244302809
0.015671027824283,0.007194244302809
0.005105337128043,0.007194244302809
-0.080660648643970,0.007194244302809
-0.061390221118927,0.007194244302809
-0.225096911191940,0.007194244302809
-0.046758349984884,0.007194244302809
-0.111962288618088,0.007194244302809
-0.105860397219658,0.007194244302809
-0.037483997642994,0.007194244302809
0.078012004494667,0.007194244302809
0.059739299118519,0.007194244302809
-0.040992263704538,0.007194244302809
0.067924171686172,0.007194244302809
-0.065738059580326,0.007194244302809
0.009073040448129,0.007194244302809
0.037808161228895,0.007194244302809
0.079621009528637,0.007194244302809
-0.071899615228176,0.007194244302809
0.206334024667740,0.007194244302809
-0.168305948376656,0.007194244302809
-0.115328930318356,0.007194244302809
0.064476527273655,0.007194244302809
0.125830084085464,0.007194244302809
-0.065077669918537,0.007194244302809
-0.078913107514381,0.007194244302809
-0.002089892514050,0.007194244302809
0.053976465016603,0.007194244302809
0.101099319756031,0.007194244302809
-0.062636606395245,0.007194244302809
0.034675050526857,0.007194244302809
-0.247020915150642,0.007194244302809
-0.071475319564342,0.007194244302809
0.052879311144352,0.007194244302809
0.172742545604706,0.007194244302809
0.017420576885343,0.007194244302809
0.075351379811764,0.007194244302809
-0.107436500489712,0.007194244302809
-0.016088644042611,0.007194244302809
0.086498662829399,0.007194244302809
0.076164223253727,0.007194244302809
-0.226653903722763,0.007194244302809
0.054194897413254,0.007194244302809
0.060040604323149,0.007194244302809
0.103695549070835,0.007194244302809
0.083407551050186,0.007194244302809
-0.028458861634135,0.007194244302809
0.004923546221107,0.007194244302809
0.106785699725151,0.007194244302809
0.041094496846199,0.007194244302809
0.084900632500648,0.007194244302809
0.094967581331730,0.007194244302809
-0.017953721806407,0.007194244302809
-0.103352434933186,0.007194244302809
-0.189823910593987,0.007194244302809
0.009344373829663,0.007194244302809
0.002496765460819,0.007194244302809
-0.092547714710236,0.007194244302809
0.068030171096325,0.007194244302809
0.054887186735868,0.007194244302809
0.074430242180824,0.007194244302809
0.062095709145069,0.007194244302809
-0.068487673997879,0.007194244302809
0.039599251002073,0.007194244302809
-0.089790962636471,0.007194244302809
0.073010787367821,0.007194244302809
0.021868588402867,0.007194244302809
-0.041135523468256,0.007194244302809
-0.168781504034996,0.007194244302809
0.007961173541844,0.007194244302809
-0.010366298258305,0.007194244302809
0.116783812642097,0.007194244302809
-0.051956404000521,0.007194244302809
0.000476884801174,0.007194244302809
-0.059910599142313,0.007194244302809
0.145861357450485,0.007194244302809
0.042561504989862,0.007194244302809
0.019649526104331,0.007194244302809
-0.052868738770485,0.007194244302809
-0.101036369800568,0.007194244302809
-0.044374369084835,0.007194244302809
-0.065643385052681,0.007194244302809
-0.112614318728447,0.007194244302809
0.074111796915531,0.007194244302809
-0.066157311201096,0.007194244302809
0.042036719620228,0.007194244302809
0.008321259170771,0.007194244302809
0.154214709997177,0.007194244302809
-0.097446024417877,0.007194244302809
-0.208738237619400,0.007194244302809
-0.122835606336594,0.007194244302809
0.022267716005445,0.007194244302809
0.087666399776936,0.007194244302809
0.065627329051495,0.007194244302809
-0.033125232905149,0.007194244302809
0.152667254209518,0.007194244302809
-0.060987669974566,0.007194244302809
-0.085453018546104,0.007194244302809
-0.011413489468396,0.007194244302809
0.027708427980542,0.007194244302809
0.031559165567160,0.007194244302809
0.002382053295150,0.007194244302809
-0.014200291596353,0.007194244302809
0.094401471316814,0.007194244302809
0.043654892593622,0.007194244302809
-0.154517024755478,0.007194244302809
0.010298254899681,0.007194244302809
0.020589934661984,0.007194244302809
0.030705988407135,0.007194244302809
-0.009542973712087,0.007194244302809
-0.119967751204967,0.007194244302809
-0.055339608341455,0.007194244302809
-0.068629011511803,0.007194244302809
0.017877606675029,0.007194244302809
-0.061842516064644,0.007194244302809
-0.102839142084122,0.007194244302809
-0.196462318301201,0.007194244302809
-0.089325152337551,0.007194244302809
0.003932052291930,0.007194244302809
-0.041440214961767,0.007194244302809
-0.123942725360394,0.007194244302809
0.055216450244188,0.007194244302809
-0.039540302008390,0.007194244302809
0.131826862692833,0.007194244302809
-0.118792362511158,0.007194244302809
-0.125054463744164,0.007194244302809
-0.039343710988760,0.007194244302809
0.041257146745920,0.007194244302809
-0.020901057869196,0.007194244302809
-0.125595182180405,0.007194244302809
-0.084240391850471,0.007194244302809
0.126497372984886,0.007194244302809
-0.038462597876787,0.007194244302809
0.011744656600058,0.007194244302809
-0.023097207769752,0.007194244302809
-0.156752198934555,0.007194244302809
0.050068594515324,0.007194244302809
0.059962715953588,0.007194244302809
-0.010085019282997,0.007194244302809
0.037331245839596,0.007194244302809
-0.073497086763382,0.007194244302809
0.093107730150223,0.007194244302809
-0.019108876585960,0.007194244302809
0.039798617362976,0.007194244302809
0.093728579580784,0.007194244302809
-0.003702210728079,0.007194244302809
-0.054762531071901,0.007194244302809
0.076410092413425,0.007194244302809
-0.063495784997940,0.007194244302809
0.016781227663159,0.007194244302809
0.023033594712615,0.007194244302809
0.038785543292761,0.007194244302809
0.084641322493553,0.007194244302809
0.032140370458364,0.007194244302809
0.041495613753796,0.007194244302809
-0.069895640015602,0.007194244302809
0.047929149121046,0.007194244302809
-0.049396552145481,0.007194244302809
-0.043132405728102,0.007194244302809
0.042133465409279,0.007194244302809
0.074272848665714,0.007194244302809
-0.186007440090179,0.007194244302809
0.056554939597845,0.007194244302809
-0.096519857645035,0.007194244302809
-0.078211173415184,0.007194244302809
-0.178517803549767,0.007194244302809
0.012543457560241,0.007194244302809
0.054872784763575,0.007194244302809
0.126669391989708,0.007194244302809
-0.093382947146893,0.007194244302809
0.029371397569776,0.007194244302809
-0.125739127397537,0.007194244302809
-0.029144326224923,0.007194244302809
0.096503414213657,0.007194244302809
0.084075599908829,0.007194244302809
-0.037008501589298,0.007194244302809
-0.176284462213516,0.007194244302809
0.037199757993221,0.007194244302809
-0.033019486814737,0.007194244302809
0.025775203481317,0.007194244302809
0.052462123334408,0.007194244302809
0.043244518339634,0.007194244302809
-0.021453633904457,0.007194244302809
0.008432728238404,0.007194244302809
-0.087469272315502,0.007194244302809
0.071769632399082,0.007194244302809
-0.084183387458324,0.007194244302809
-0.055951714515686,0.007194244302809
0.067306756973267,0.007194244302809
-0.045489396899939,0.007194244302809
-0.073615185916424,0.007194244302809
0.025438051670790,0.007194244302809
0.020982973277569,0.007194244302809
-0.120939083397388,0.007194244302809
-0.075070358812809,0.007194244302809
-0.030799133703113,0.007194244302809
-0.017567217350006,0.007194244302809
-0.061092115938663,0.007194244302809
-0.026201151311398,0.007194244302809
-0.020346460863948,0.007194244302809
0.103685423731804,0.007194244302809
-0.152639105916023,0.007194244302809
0.086618743836880,0.007194244302809
-0.045149106532335,0.007194244302809
-0.072958163917065,0.007194244302809
0.101735569536686,0.007194244302809
0.038366042077541,0.007194244302809
0.152314826846123,0.007194244302809
-0.058988384902477,0.007194244302809
0.027598991990089,0.007194244302809
0.038346424698830,0.007194244302809
-0.106360256671906,0.007194244302809
-0.013124577701092,0.007194244302809
0.045026190578938,0.007194244302809
0.012683440931141,0.007194244302809
-0.027958782389760,0.007194244302809
-0.132514774799347,0.007194244302809
-0.190563842654228,0.007194244302809
0.042851101607084,0.007194244302809
-0.039002697914839,0.007194244302809
0.006379064172506,0.007194244302809
0.088065266609192,0.007194244302809
0.077062733471394,0.007194244302809
0.016314446926117,0.007194244302809
0.026443636044860,0.007194244302809
-0.037472154945135,0.007194244302809
-0.103676542639732,0.007194244302809
0.093606352806091,0.007194244302809
-0.016728062182665,0.007194244302809
-0.052854496985674,0.007194244302809
0.156012460589409,0.007194244302809
-0.050972633063793,0.007194244302809
0.004955927841365,0.007194244302809
-0.063033632934093,0.007194244302809
0.040050141513348,0.007194244302809
0.075168855488300,0.007194244302809
0.045838847756386,0.007194244302809
-0.061198521405458,0.007194244302809
0.061914708465338,0.007194244302809
-0.004666322376579,0.007194244302809
-0.190292343497276,0.007194244302809
0.112257272005081,0.007194244302809
-0.009807697497308,0.007194244302809
0.147209882736206,0.007194244302809
-0.123621962964535,0.007194244302809
-0.010270223021507,0.007194244302809
0.175267338752747,0.007194244302809
-0.029609188437462,0.007194244302809
0.012370198965073,0.007194244302809
0.061270125210285,0.007194244302809
0.019186791032553,0.007194244302809
-0.038716945797205,0.007194244302809
0.113972082734108,0.007194244302809
-0.174474999308586,0.007194244302809
0.096056923270226,0.007194244302809
-0.031682685017586,0.007194244302809
0.062278121709824,0.007194244302809
0.052222650498152,0.007194244302809
0.122686631977558,0.007194244302809
-0.059385742992163,0.007194244302809
-0.029029352590442,0.007194244302809
-0.083453088998795,0.007194244302809
-0.077225029468536,0.007194244302809
0.019854454323649,0.007194244302809
-0.085672132670879,0.007194244302809
0.058844193816185,0.007194244302809
-0.004497903864831,0.007194244302809
0.171280547976494,0.007194244302809
0.095312409102917,0.007194244302809
-0.095432952046394,0.007194244302809
-0.056819390505552,0.007194244302809
-0.023108284920454,0.007194244302809
0.030343117192388,0.007194244302809
-0.037034001201391,0.007194244302809
-0.005226343870163,0.007194244302809
-0.100052662193775,0.007194244302809
-0.089357994496822,0.007194244302809
-0.024415392428637,0.007194244302809
-0.021081376820803,0.007194244302809
-0.054826151579618,0.007194244302809
0.061103850603104,0.007194244302809
-0.097059503197670,0.007194244302809
0.067512802779675,0.007194244302809
-0.031513873487711,0.007194244302809
0.097605556249619,0.007194244302809
0.025145035237074,0.007194244302809
-0.209987863898277,0.007194244302809
-0.075249873101711,0.007194244302809
-0.140051275491714,0.007194244302809
0.163247004151344,0.007194244302809
0.005718158558011,0.007194244302809
0.008847471326590,0.007194244302809
0.109405234456062,0.007194244302809
0.179417133331299,0.007194244302809
0.158116281032562,0.007194244302809
0.022290401160717,0.007194244302809
-0.063116684556007,0.007194244302809
-0.049688234925270,0.007194244302809
0.094219185411930,0.007194244302809
-0.030785270035267,0.007194244302809
-0.011026727035642,0.007194244302809
0.158626750111580,0.007194244302809
0.037134680896997,0.007194244302809
-0.051515117287636,0.007194244302809
0.100933887064457,0.007194244302809
0.153989434242249,0.007194244302809
0.055409308522940,0.007194244302809
0.066103376448154,0.007194244302809
0.005224543157965,0.007194244302809
0.173777222633362,0.007194244302809
0.090227790176868,0.007194244302809
0.074284799396992,0.007194244302809
0.149221345782280,0.007194244302809
-0.051889460533857,0.007194244302809
-0.041272889822721,0.007194244302809
0.027200929820538,0.007194244302809
0.101730190217495,0.007194244302809
-0.005024055019021,0.007194244302809
0.035659082233906,0.007194244302809
-0.127921730279922,0.007194244302809
-0.061477746814489,0.007194244302809
0.065394446253777,0.007194244302809
-0.097032137215137,0.007194244302809
-0.004832366481423,0.007194244302809
0.150027930736542,0.007194244302809
-0.101619608700275,0.007194244302809
0.057096898555756,0.007194244302809
0.086513638496399,0.007194244302809
0.102378457784653,0.007194244302809
-0.020473342388868,0.007194244302809
-0.057912819087505,0.007194244302809
0.113229818642139,0.007194244302809
-0.082092374563217,0.007194244302809
0.050542414188385,0.007194244302809
0.062251988798380,0.007194244302809
0.058517865836620,0.007194244302809
-0.074412271380424,0.007194244302809
0.049688406288624,0.007194244302809
-0.042529299855232,0.007194244302809
0.081240512430668,0.007194244302809
0.156641960144043,0.007194244302809
0.004703834652901,0.007194244302809
-0.053487509489059,0.007194244302809
0.059835549443960,0.007194244302809
0.015128249302506,0.007194244302809
0.051723621785641,0.007194244302809
-0.127131223678589,0.007194244302809
0.062868751585484,0.007194244302809
0.002500230446458,0.007194244302809
0.049545623362064,0.007194244302809
0.109140239655972,0.007194244302809
0.131905570626259,0.007194244302809
0.069476254284382,0.007194244302809
0.004953203257173,0.007194244302809
-0.006493681576103,0.007194244302809
0.102637909352779,0.007194244302809
0.120363175868988,0.007194244302809
0.075068622827530,0.007194244302809
0.117471002042294,0.007194244302809
-0.071198098361492,0.007194244302809
0.057198528200388,0.007194244302809
-0.068937554955482,0.007194244302809
-0.106509439647198,0.007194244302809
-0.031028892844915,0.007194244302809
0.103408850729465,0.007194244302809
0.172048524022102,0.007194244302809
-0.051639530807734,0.007194244302809
0.043189197778702,0.007194244302809
0.073889948427677,0.007194244302809
0.007528249174356,0.007194244302809
0.052168563008308,0.007194244302809
-0.037500385195017,0.007194244302809
0.111852288246155,0.007194244302809
0.068703889846802,0.007194244302809
-0.000688816478942,0.007194244302809
-0.098604075610638,0.007194244302809
0.076691091060638,0.007194244302809
-0.016664173454046,0.007194244302809
-0.002425818471238,0.007194244302809
0.105030946433544,0.007194244302809
-0.058912768959999,0.007194244302809
0.071173548698425,0.007194244302809
-0.001928689423949,0.007194244302809
0.028526717796922,0.007194244302809
-0.071731470525265,0.007194244302809
0.074482388794422,0.007194244302809
-0.039325013756752,0.007194244302809
0.042514871805906,0.007194244302809
0.091171294450760,0.007194244302809
0.043889869004488,0.007194244302809
-0.036974947899580,0.007194244302809
-0.051940020173788,0.007194244302809
-0.029517499729991,0.007194244302809
0.159254342317581,0.007194244302809
0.045505300164223,0.007194244302809
0.090832680463791,0.007194244302809
0.030506385490298,0.007194244302809
-0.028036490082741,0.007194244302809
0.081795439124107,0.007194244302809
-0.056940004229546,0.007194244302809
0.074710234999657,0.007194244302809
-0.019384814426303,0.007194244302809
-0.013498843647540,0.007194244302809
-0.003026337828487,0.007194244302809
0.065813422203064,0.007194244302809
0.138859689235687,0.007194244302809
0.071082808077335,0.007194244302809
-0.130332991480827,0.007194244302809
0.099837593734264,0.007194244302809
0.049942258745432,0.007194244302809
-0.100918784737587,0.007194244302809
0.134461164474487,0.007194244302809
0.045687466859818,0.007194244302809
0.041207317262888,0.007194244302809
0.067163504660130,0.007194244302809
-0.019130526110530,0.007194244302809
-0.059356756508350,0.007194244302809
-0.020662620663643,0.007194244302809
-0.043169580399990,0.007194244302809
0.198505893349648,0.007194244302809
0.043604690581560,0.007194244302809
0.187312141060829,0.007194244302809
0.042448889464140,0.007194244302809
0.006072923075408,0.007194244302809
-0.014125217683613,0.007194244302809
-0.131387904286385,0.007194244302809
0.085327938199043,0.007194244302809
0.153161630034447,0.007194244302809
-0.034113436937332,0.007194244302809
-0.026394316926599,0.007194244302809
0.009545342996716,0.007194244302809
0.036872208118439,0.007194244302809
0.154552102088928,0.007194244302809
0.154992505908012,0.007194244302809
-0.126811310648918,0.007194244302809
0.027574885636568,0.007194244302809
-0.066279157996178,0.007194244302809
-0.025864133611321,0.007194244302809
-0.083542421460152,0.007194244302809
0.014370382763445,0.007194244302809
-0.091339081525803,0.007194244302809
0.127884432673454,0.007194244302809
0.087712645530701,0.007194244302809
-0.052049282938242,0.007194244302809
0.092549592256546,0.007194244302809
-0.059371437877417,0.007194244302809
0.140715271234512,0.007194244302809
-0.186020672321320,0.007194244302809
0.056090313941240,0.007194244302809
0.029568487778306,0.007194244302809
-0.002923975000158,0.007194244302809
0.072140134871006,0.007194244302809
-0.169507727026939,0.007194244302809
0.044903516769409,0.007194244302809
0.046241540461779,0.007194244302809
0.167863830924034,0.007194244302809
0.126123085618019,0.007194244302809
0.051409687846899,0.007194244302809
-0.061486508697271,0.007194244302809
0.052517138421535,0.007194244302809
0.001976066967472,0.007194244302809
0.004040240775794,0.007194244302809
-0.040484979748726,0.007194244302809
0.047842290252447,0.007194244302809
-0.026723837479949,0.007194244302809
-0.025428868830204,0.007194244302809
-0.054183196276426,0.007194244302809
-0.101774282753468,0.007194244302809
-0.045264940708876,0.007194244302809
0.142914354801178,0.007194244302809
-0.007574625778943,0.007194244302809
-0.059272915124893,0.007194244302809
0.185520470142365,0.007194244302809
-0.029443364590406,0.007194244302809
-0.075615338981152,0.007194244302809
-0.016327397897840,0.007194244302809
0.147696495056152,0.007194244302809
-0.049201361835003,0.007194244302809
-0.105576507747173,0.007194244302809
0.142362311482430,0.007194244302809
-0.134527325630188,0.007194244302809
0.100777082145214,0.007194244302809
0.016231786459684,0.007194244302809
0.019285738468170,0.007194244302809
-0.057651251554489,0.007194244302809
0.029769189655781,0.007194244302809
0.014636345207691,0.007194244302809
0.000383715174394,0.007194244302809
-0.000950699031819,0.007194244302809
-0.032214444130659,0.007194244302809
0.037790827453136,0.007194244302809
0.240209266543388,0.007194244302809
-0.127616524696350,0.007194244302809
-0.011179160326719,0.007194244302809
-0.035350985825062,0.007194244302809
-0.001559846103191,0.007194244302809
-0.050489354878664,0.007194244302809
0.016578856855631,0.007194244302809
0.009246115572751,0.007194244302809
0.057411290705204,0.007194244302809
0.002605368848890,0.007194244302809
0.026162620633841,0.007194244302809
0.029093697667122,0.007194244302809
0.048288598656654,0.007194244302809
0.047548849135637,0.007194244302809
-0.119955904781818,0.007194244302809
0.205193623900414,0.007194244302809
0.050995163619518,0.007194244302809
-0.029562663286924,0.007194244302809
-0.125211358070374,0.007194244302809
-0.004519594833255,0.007194244302809
0.089415997266769,0.007194244302809
-0.003421059343964,0.007194244302809
-0.054101318120956,0.007194244302809
-0.000496223976370,0.007194244302809
-0.023543646559119,0.007194244302809
-0.082441285252571,0.007194244302809
0.148433044552803,0.007194244302809
-0.102952942252159,0.007194244302809
-0.052925143390894,0.007194244302809
0.078552365303040,0.007194244302809
0.027323525398970,0.007194244302809
-0.069009840488434,0.007194244302809
0.065846003592014,0.007194244302809
0.055510431528091,0.007194244302809
-0.044079694896936,0.007194244302809
-0.049554478377104,0.007194244302809
-0.055836312472820,0.007194244302809
0.083368867635727,0.007194244302809
-0.097872063517570,0.007194244302809
-0.097320489585400,0.007194244302809
0.136470809578896,0.007194244302809
-0.027146998792887,0.007194244302809
0.219612494111061,0.007194244302809
-0.007714820094407,0.007194244302809
0.108120523393154,0.007194244302809
0.134597122669220,0.007194244302809
0.009350198321044,0.007194244302809
0.092246510088444,0.007194244302809
-0.093146950006485,0.007194244302809
0.001349824829958,0.007194244302809
0.002376691671088,0.007194244302809
0.081564702093601,0.007194244302809
-0.005329401232302,0.007194244302809
-0.039626162499189,0.007194244302809
-0.061380170285702,0.007194244302809
-0.036900430917740,0.007194244302809
0.060749899595976,0.007194244302809
-0.028058832511306,0.007194244302809
-0.097623281180859,0.007194244302809
0.145915821194649,0.007194244302809
0.005806419067085,0.007194244302809
-0.036657612770796,0.007194244302809
0.020674502477050,0.007194244302809
0.062772199511528,0.007194244302809
0.055470220744610,0.007194244302809
-0.089783266186714,0.007194244302809
0.000236976571614,0.007194244302809
-0.124852418899536,0.007194244302809
0.033536996692419,0.007194244302809
0.203402757644653,0.007194244302809
-0.067040361464024,0.007194244302809
0.029607595875859,0.007194244302809
-0.072133027017117,0.007194244302809
0.022503022104502,0.007194244302809
0.104134902358055,0.007194244302809
0.142996162176132,0.007194244302809
0.031579867005348,0.007194244302809
-0.015256036072969,0.007194244302809
0.063234321773052,0.007194244302809
-0.090351566672325,0.007194244302809
-0.131245151162148,0.007194244302809
-0.086683154106140,0.007194244302809
-0.029214965179563,0.007194244302809
-0.031491193920374,0.007194244302809
0.142865806818008,0.007194244302809
0.021858569234610,0.007194244302809
0.032564777880907,0.007194244302809
0.054822694510221,0.007194244302809
-0.050622668117285,0.007194244302809
-0.031066294759512,0.007194244302809
0.063209801912308,0.007194244302809
-0.074580475687981,0.007194244302809
0.081864491105080,0.007194244302809
-0.034680441021919,0.007194244302809
0.021895697340369,0.007194244302809
0.065999887883663,0.007194244302809
-0.102791346609592,0.007194244302809
0.085102513432503,0.007194244302809
-0.003242343198508,0.007194244302809
0.037541948258877,0.007194244302809
-0.108000807464123,0.007194244302809
0.125203460454941,0.007194244302809
-0.083305634558201,0.007194244302809
-0.051927167922258,0.007194244302809
0.015220802277327,0.007194244302809
0.052343767136335,0.007194244302809
-0.056879170238972,0.007194244302809
-0.047303404659033,0.007194244302809
-0.035285826772451,0.007194244302809
-0.091272883117199,0.007194244302809
0.029896272346377,0.007194244302809
-0.060095455497503,0.007194244302809
0.014253725297749,0.007194244302809
-0.000507478776854,0.007194244302809
-0.048855781555176,0.007194244302809
-0.053484667092562,0.007194244302809
0.013561754487455,0.007194244302809
-0.120261691510677,0.007194244302809
-0.075311496853828,0.007194244302809
0.003860684810206,0.007194244302809
0.034215688705444,0.007194244302809
0.073277324438095,0.007194244302809
0.124796360731125,0.007194244302809
-0.126739427447319,0.007194244302809
0.060244046151638,0.007194244302809
-0.036306723952293,0.007194244302809
-0.122704699635506,0.007194244302809
-0.022749582305551,0.007194244302809
-0.092312656342983,0.007194244302809
0.018016552552581,0.007194244302809
-0.042732983827591,0.007194244302809
0.072399042546749,0.007194244302809
0.031514376401901,0.007194244302809
0.147025689482689,0.007194244302809
-0.200843498110771,0.007194244302809
0.034727264195681,0.007194244302809
-0.094922222197056,0.007194244302809
0.026285029947758,0.007194244302809
0.018683984875679,0.007194244302809
-0.002765296958387,0.007194244302809
0.049524217844009,0.007194244302809
-0.122133284807205,0.007194244302809
-0.004741979762912,0.007194244302809
0.051479749381542,0.007194244302809
0.025188781321049,0.007194244302809
0.127074703574181,0.007194244302809
-0.028088152408600,0.007194244302809
0.063791744410992,0.007194244302809
0.242567181587219,0.007194244302809
-0.032816570252180,0.007194244302809
-0.059663143008947,0.007194244302809
0.099181577563286,0.007194244302809
0.171031191945076,0.007194244302809
-0.016303943470120,0.007194244302809
-0.050215926021338,0.007194244302809
0.047746416181326,0.007194244302809
0.044143162667751,0.007194244302809
-0.059797912836075,0.007194244302809
0.057539351284504,0.007194244302809
-0.022982330992818,0.007194244302809
0.056352265179157,0.007194244302809
0.028297388926148,0.007194244302809
0.070289626717567,0.007194244302809
0.019330769777298,0.007194244302809
-0.028620708733797,0.007194244302809
0.054547779262066,0.007194244302809
-0.002302163280547,0.007194244302809
-0.007803781889379,0.007194244302809
-0.192141264677048,0.007194244302809
-0.060686934739351,0.007194244302809
0.044421479105949,0.007194244302809
0.016659311950207,0.007194244302809
-0.064381517469883,0.007194244302809
0.082400448620319,0.007194244302809
-0.065467506647110,0.007194244302809
-0.135798007249832,0.007194244302809
0.100862272083759,0.007194244302809
-0.018300402909517,0.007194244302809
-0.015214752405882,0.007194244302809
0.029843948781490,0.007194244302809
-0.152798220515251,0.007194244302809
0.144474714994431,0.007194244302809
-0.039611928164959,0.007194244302809
0.009623860009015,0.007194244302809
-0.036856289952993,0.007194244302809
-0.065166212618351,0.007194244302809
-0.204913482069969,0.007194244302809
-0.139309167861938,0.007194244302809
-0.059122674167156,0.007194244302809
0.177560985088348,0.007194244302809
0.090027831494808,0.007194244302809
-0.064437486231327,0.007194244302809
-0.000331998686306,0.007194244302809
-0.010449321940541,0.007194244302809
-0.114875882863998,0.007194244302809
-0.038922581821680,0.007194244302809
0.108104735612869,0.007194244302809
-0.077307239174843,0.007194244302809
0.032684270292521,0.007194244302809
0.133101224899292,0.007194244302809
0.031661838293076,0.007194244302809
0.019379496574402,0.007194244302809
0.051437735557556,0.007194244302809
0.006241333205253,0.007194244302809
-0.133570969104767,0.007194244302809
-0.038051735609770,0.007194244302809
-0.005155617836863,0.007194244302809
-0.054364044219255,0.007194244302809
0.136286929249763,0.007194244302809
-0.059090740978718,0.007194244302809
-0.024472542107105,0.007194244302809
0.082074314355850,0.007194244302809
0.040420155972242,0.007194244302809
-0.088977843523026,0.007194244302809
-0.038906373083591,0.007194244302809
-0.070883244276047,0.007194244302809
-0.036324702203274,0.007194244302809
0.183421880006790,0.007194244302809
-0.068142265081406,0.007194244302809
0.043023746460676,0.007194244302809
-0.106822438538074,0.007194244302809
0.027645915746689,0.007194244302809
0.094457738101482,0.007194244302809
0.088196612894535,0.007194244302809
-0.051225271075964,0.007194244302809
-0.051827076822519,0.007194244302809
0.043243777006865,0.007194244302809
0.170161888003349,0.007194244302809
-0.081515230238438,0.007194244302809
-0.033995792269707,0.007194244302809
-0.059833865612745,0.007194244302809
0.049772396683693,0.007194244302809
0.103077083826065,0.007194244302809
0.025762844830751,0.007194244302809
0.043396405875683,0.007194244302809
-0.027230145409703,0.007194244302809
-0.087317883968353,0.007194244302809
0.002586787100881,0.007194244302809
-0.108180545270443,0.007194244302809
0.092826575040817,0.007194244302809
-0.023436183109879,0.007194244302809
0.034495539963245,0.007194244302809
-0.180843710899353,0.007194244302809
0.133172988891602,0.007194244302809
0.017761031165719,0.007194244302809
-0.035451639443636,0.007194244302809
0.014328870922327,0.007194244302809
0.080111570656300,0.007194244302809
0.057502031326294,0.007194244302809
-0.025847427546978,0.007194244302809
0.101029433310032,0.007194244302809
-0.126336961984634,0.007194244302809
-0.019364373758435,0.007194244302809
-0.021309155970812,0.007194244302809
-0.063572876155376,0.007194244302809
0.084350660443306,0.007194244302809
-0.050788607448339,0.007194244302809
0.039341539144516,0.007194244302809
0.037750396877527,0.007194244302809
-0.003628460690379,0.007194244302809
0.042052928358316,0.007194244302809
-0.019510297104716,0.007194244302809
0.020251294597983,0.007194244302809
-0.045403186231852,0.007194244302809
0.031561393290758,0.007194244302809
-0.038661632686853,0.007194244302809
-0.009494031779468,0.007194244302809
0.025825351476669,0.007194244302809
-0.000600844097789,0.007194244302809
-0.074706286191940,0.007194244302809
0.032895419746637,0.007194244302809
0.012994401156902,0.007194244302809
0.022324722260237,0.007194244302809
0.034643333405256,0.007194244302809
0.046379279345274,0.007194244302809
-0.077703043818474,0.007194244302809
0.148365855216980,0.007194244302809
-0.095591090619564,0.007194244302809
-0.070459477603436,0.007194244302809
-0.151252686977386,0.007194244302809
0.007048437371850,0.007194244302809
0.127424418926239,0.007194244302809
-0.035797018557787,0.007194244302809
-0.054568760097027,0.007194244302809
-0.072091765701771,0.007194244302809
0.019661495462060,0.007194244302809
-0.155653372406960,0.007194244302809
0.053220871835947,0.007194244302809
-0.143313616514206,0.007194244302809
-0.055891372263432,0.007194244302809
-0.001281504868530,0.007194244302809
-0.008678740821779,0.007194244302809
-0.041294310241938,0.007194244302809
0.079246722161770,0.007194244302809
0.226761355996132,0.007194244302809
-0.038260586559772,0.007194244302809
0.042830269783735,0.007194244302809
-0.021273648366332,0.007194244302809
-0.187257230281830,0.007194244302809
0.013950107619166,0.007194244302809
0.140262559056282,0.007194244302809
-0.015537503175437,0.007194244302809
0.064913764595985,0.007194244302809
-0.007320317439735,0.007194244302809
-0.036094438284636,0.007194244302809
-0.033822912722826,0.007194244302809
0.098512127995491,0.007194244302809
0.168076217174530,0.007194244302809
0.077179849147797,0.007194244302809
0.102327696979046,0.007194244302809
0.019550828263164,0.007194244302809
0.241517126560211,0.007194244302809
-0.034093294292688,0.007194244302809
-0.051212012767792,0.007194244302809
-0.070239335298538,0.007194244302809
-0.106893442571163,0.007194244302809
-0.091721422970295,0.007194244302809
0.050899520516396,0.007194244302809
-0.087168544530869,0.007194244302809
0.038839939981699,0.007194244302809
0.084884159266949,0.007194244302809
-0.089074723422527,0.007194244302809
-0.030742099508643,0.007194244302809
0.121404223144054,0.007194244302809
0.002595443511382,0.007194244302809
0.067202806472778,0.007194244302809
-0.135610476136208,0.007194244302809
0.164181441068649,0.007194244302809
0.069231666624546,0.007194244302809
