mw,Sw
-0.019202321767807,0.024956881999969
0.113589063286781,0.024956600740552
0.005242213606834,0.024956600740552
0.073820397257805,0.024956911802292
0.154385969042778,0.024955824017525
-0.345140874385834,0.024955542758107
-0.098886109888554,0.024955542758107
-0.160751178860664,0.024955855682492
-0.247882127761841,0.024955824017525
0.057949617505074,0.024955542758107
-0.088630288839340,0.024955542758107
-0.096812188625336,0.024955855682492
-0.185679540038109,0.024956360459328
-0.105984613299370,0.024956081062555
-0.094963297247887,0.024956081062555
-0.011399805545807,0.024956392124295
0.060954980552197,0.024964476004243
0.128321796655655,0.024964306503534
0.147727698087692,0.024964306503534
-0.253077000379562,0.024964306503534
0.265426069498062,0.024963466450572
-0.116522677242756,0.024963293224573
-0.046588212251663,0.024963293224573
-0.115078695118427,0.024963302537799
0.120469279587269,0.024963466450572
-0.011316647753119,0.024963293224573
0.019920412451029,0.024963293224573
0.268247544765472,0.024963302537799
0.034981027245522,0.024963466450572
-0.105666704475880,0.024963295087218
-0.267370283603668,0.024963295087218
0.054364182054996,0.024963304400444
-0.200543731451035,0.024962855502963
-0.234151944518089,0.024962671101093
0.110846653580666,0.024962671101093
0.238482743501663,0.024963067844510
0.219038382172585,0.024962127208710
0.286306440830231,0.024961942806840
-0.082258895039558,0.024961942806840
0.063684970140457,0.024962337687612
0.088088028132915,0.024962127208710
0.024481037631631,0.024961942806840
0.126529246568680,0.024961942806840
0.062450863420963,0.024962337687612
-0.116862095892429,0.024962127208710
-0.127128243446350,0.024961942806840
-0.106165356934071,0.024961942806840
-0.247913733124733,0.024962337687612
-0.235985487699509,0.024982299655676
-0.009816260077059,0.024982299655676
0.040820769965649,0.024982299655676
-0.058147896081209,0.024986784905195
-0.095790661871433,0.024982299655676
-0.140105426311493,0.024982299655676
-0.071064315736294,0.024982299655676
0.032985173165798,0.024986784905195
0.147173538804054,0.024982299655676
-0.002942232880741,0.024982299655676
0.205950170755386,0.024982299655676
-0.016154121607542,0.024986784905195
0.097156293690205,0.024995578452945
-0.050287120044231,0.024995578452945
0.065515950322151,0.024995578452945
0.177435413002968,0.025000000372529
1.030626535415649,0.999769985675812
1.007441997528076,0.999932765960693
0.982107520103455,0.999928236007690
1.019624829292297,0.999455451965332
0.003648931626230,0.006666565313935
0.072306685149670,0.006666559260339
0.016356609761715,0.006666559260339
0.051735892891884,0.006666559260339
0.094595164060593,0.006666563916951
-0.163484007120132,0.006666661240160
-0.036276452243328,0.006666664965451
-0.068261876702309,0.006666664965451
-0.113264158368111,0.006666664965451
0.044709615409374,0.006666664965451
-0.031022507697344,0.006666661240160
-0.035243920981884,0.006666664965451
-0.081483513116837,0.006666664965451
-0.040290594100952,0.006666664965451
-0.034602768719196,0.006666664965451
0.008477130904794,0.006666661240160
0.026798915117979,0.006666664965451
0.061793327331543,0.006666664965451
0.071814492344856,0.006666664965451
-0.135163739323616,0.006666664965451
0.130190938711166,0.006666584871709
-0.066814608871937,0.006666593719274
-0.030700607225299,0.006666593719274
-0.066015265882015,0.006666593719274
0.055367179214954,0.006666587200016
-0.012308747507632,0.006666635628790
0.003723383648321,0.006666664034128
0.132012650370598,0.006666664034128
0.011303613893688,0.006666664034128
-0.061125818639994,0.006666664034128
-0.144558623433113,0.006666635163128
0.021537849679589,0.006666660774499
-0.113022863864899,0.006666660774499
-0.130197092890739,0.006666660774499
0.047959275543690,0.006666660774499
0.114042751491070,0.006666635163128
0.103937245905399,0.006666660774499
0.138851806521416,0.006666660774499
-0.051474526524544,0.006666660774499
0.023962598294020,0.006666660774499
0.036414939910173,0.006666635163128
0.003645744174719,0.006666660774499
0.056343216449022,0.006666660774499
0.023325446993113,0.006666660774499
-0.069521158933640,0.006666660774499
-0.074563011527061,0.006666641216725
-0.063821330666542,0.006666660308838
-0.136947706341743,0.006666660308838
-0.120052665472031,0.006666660308838
-0.003259564982727,0.006666660308838
0.022891199216247,0.006666649132967
-0.028210632503033,0.006666649598628
-0.047642439603806,0.006666649598628
-0.070526488125324,0.006666649598628
-0.034873772412539,0.006666649132967
0.018909839913249,0.006666663568467
0.077901996672153,0.006666663568467
0.000382542377338,0.006666663568467
0.108254119753838,0.006666663568467
-0.006444840691984,0.006666662171483
0.050165370106697,0.006666663568467
-0.025955384597182,0.006666663568467
0.033845067024231,0.006666663568467
0.091666512191296,0.006666663568467
-0.100137375295162,0.006666662171483
-0.087998248636723,0.006666663568467
-0.112633205950260,0.006666663568467
-0.048235084861517,0.006666663568467
-0.047783240675926,0.006666663568467
-0.166254609823227,0.006666662171483
-0.002601431449875,0.006666642613709
0.104225173592567,0.006666644010693
-0.066789224743843,0.006666644010693
0.008282725699246,0.006666644010693
0.123926438391209,0.006666644476354
-0.006404726300389,0.006666656117886
-0.052117288112640,0.006666656117886
0.030180709436536,0.006666656117886
-0.037600353360176,0.006666656117886
-0.006906514987350,0.006666657049209
0.092276856303215,0.006666656117886
-0.063237711787224,0.006666656117886
-0.046967074275017,0.006666656117886
-0.088363438844681,0.006666656117886
0.026512190699577,0.006666657049209
-0.005478838458657,0.006666656117886
-0.093456037342548,0.006666656117886
-0.019671021029353,0.006666656117886
0.046647597104311,0.006666656117886
-0.012857622466981,0.006666657049209
-0.089428134262562,0.006666656117886
-0.004616346210241,0.006666656117886
-0.064175926148891,0.006666656117886
0.005202468018979,0.006666656117886
0.018853034824133,0.006666657049209
0.165374070405960,0.006666355300695
0.151169538497925,0.006666341796517
-0.039006378501654,0.006666341796517
0.087134495377541,0.006666341796517
0.142171829938889,0.006666341796517
0.096441596746445,0.006666644010693
0.042148180305958,0.006666644010693
0.034804146736860,0.006666644010693
-0.011581160128117,0.006666644010693
-0.086807548999786,0.006666644942015
-0.168835967779160,0.006666664499789
0.075949400663376,0.006666664499789
0.152510076761246,0.006666664499789
0.036026012152433,0.006666664499789
-0.012617434374988,0.006666664034128
0.068875342607498,0.006666664499789
-0.068893246352673,0.006666664499789
0.137424856424332,0.006666664499789
0.159807711839676,0.006666664499789
-0.101865433156490,0.006666664034128
-0.036144681274891,0.006666664499789
0.141950070858002,0.006666664499789
-0.064893797039986,0.006666664499789
-0.082084827125072,0.006666664499789
0.022330146282911,0.006666664034128
0.006176874507219,0.006666648201644
0.076485157012939,0.006666648201644
0.050646163523197,0.006666648201644
-0.180233240127563,0.006666648201644
0.164475664496422,0.006666646338999
-0.002774321008474,0.006666659377515
-0.016292111948133,0.006666659377515
-0.008768294006586,0.006666659377515
-0.039982683956623,0.006666659377515
-0.086963586509228,0.006666659377515
-0.044151008129120,0.006666658911854
0.070728197693825,0.006666658911854
0.024196399375796,0.006666658911854
0.103834889829159,0.006666658911854
0.013330684043467,0.006666658911854
-0.190175577998161,0.006666658911854
0.024858806282282,0.006666658911854
0.087773680686951,0.006666658911854
-0.101881399750710,0.006666658911854
-0.001344879507087,0.006666658911854
-0.025979926809669,0.006666658911854
-0.005663054063916,0.006666658911854
-0.140589386224747,0.006666658911854
0.130136623978615,0.006666658911854
-0.120903328061104,0.006666658911854
-0.004914374090731,0.006666658911854
0.105486005544662,0.006666658911854
0.054802469909191,0.006666658911854
-0.081026487052441,0.006666658911854
0.100233346223831,0.006666658911854
0.107159920036793,0.006666659843177
0.018307602033019,0.006666659843177
0.105654872953892,0.006666659843177
-0.146535426378250,0.006666659843177
-0.024163657799363,0.006666658446193
-0.119373679161072,0.006666662637144
-0.092103250324726,0.006666662637144
0.120539158582687,0.006666662637144
0.030186556279659,0.006666662637144
-0.063494041562080,0.006666660774499
-0.094661772251129,0.006666662637144
0.148899987339973,0.006666662637144
-0.001481741666794,0.006666662637144
-0.119794659316540,0.006666662637144
0.032182242721319,0.006666660774499
-0.142323344945908,0.006666662637144
0.094572164118290,0.006666662637144
-0.102878749370575,0.006666662637144
-0.040631920099258,0.006666662637144
0.044755760580301,0.006666660774499
0.030779793858528,0.006666657980531
0.073456488549709,0.006666657980531
-0.076131865382195,0.006666657980531
0.025669364258647,0.006666657980531
-0.102664582431316,0.006666656583548
0.173924505710602,0.006666652392596
0.130818471312523,0.006666652392596
0.082636997103691,0.006666652392596
-0.064685076475143,0.006666652392596
-0.077815122902393,0.006666653789580
-0.088138610124588,0.006666652392596
0.078458435833454,0.006666652392596
-0.092895671725273,0.006666652392596
0.070000529289246,0.006666652392596
-0.077382400631905,0.006666653789580
0.142937839031219,0.006666652392596
-0.080579750239849,0.006666652392596
0.049068994820118,0.006666652392596
-0.135017529129982,0.006666652392596
0.130070582032204,0.006666653789580
-0.148050501942635,0.006666652392596
0.047994043678045,0.006666652392596
-0.001971957506612,0.006666652392596
-0.179636418819427,0.006666652392596
-0.180387541651726,0.006666653789580
0.155199363827705,0.006666580680758
-0.002321914071217,0.006666580680758
-0.051480785012245,0.006666580680758
-0.044737718999386,0.006666580680758
0.045921381562948,0.006666581612080
-0.043847221881151,0.006666444707662
0.055238839238882,0.006666444707662
0.089932329952717,0.006666444707662
0.205790281295776,0.006666444707662
0.002608383074403,0.006666455883533
0.014339913614094,0.006666664965451
0.038548346608877,0.006666664965451
0.197340652346611,0.006666664965451
-0.049404244869947,0.006666664965451
0.028387315571308,0.006666664499789
0.077659994363785,0.006666664965451
0.019316364079714,0.006666664965451
0.013408983126283,0.006666664965451
0.083838872611523,0.006666664965451
-0.121129207313061,0.006666664499789
0.020407715812325,0.006666664965451
-0.010385155677795,0.006666664965451
-0.086377158761024,0.006666664965451
0.061704505234957,0.006666664965451
-0.035401556640863,0.006666664499789
-0.020746780559421,0.006666664965451
0.078313954174519,0.006666664965451
0.002722797915339,0.006666664965451
-0.036550696939230,0.006666664965451
0.054052222520113,0.006666664499789
0.037185218185186,0.006666667293757
-0.056492846459150,0.006666667293757
-0.065300814807415,0.006666667293757
-0.057634003460407,0.006666667293757
-0.113871432840824,0.006666666828096
-0.033945672214031,0.006666660774499
0.012542555108666,0.006666660774499
-0.024619607254863,0.006666660774499
0.048345305025578,0.006666660774499
-0.025233445689082,0.006666660774499
-0.009219619445503,0.006666660774499
-0.029827505350113,0.006666660774499
0.011886128224432,0.006666660774499
-0.061269279569387,0.006666660774499
0.111510552465916,0.006666660774499
-0.110840529203415,0.006666660774499
0.084247782826424,0.006666660774499
0.126190781593323,0.006666660774499
0.157609775662422,0.006666660774499
0.038900949060917,0.006666660774499
0.060413524508476,0.006666660774499
-0.116788774728775,0.006666660774499
0.108913943171501,0.006666660774499
0.054098863154650,0.006666660774499
-0.045629866421223,0.006666660774499
-0.129292190074921,0.006666633766145
-0.097087047994137,0.006666633766145
0.023326359689236,0.006666633766145
0.087303876876831,0.006666633766145
0.051819182932377,0.006666635163128
-0.005932736676186,0.006666663568467
-0.012741331942379,0.006666663568467
-0.014079538173974,0.006666663568467
-0.094905279576778,0.006666663568467
-0.046073388308287,0.006666662171483
-0.115363143384457,0.006666663568467
0.035041429102421,0.006666663568467
0.067857295274734,0.006666663568467
-0.051443353295326,0.006666663568467
-0.011130201630294,0.006666662171483
0.034740749746561,0.006666663568467
-0.072719313204288,0.006666663568467
0.016596147790551,0.006666663568467
-0.068760946393013,0.006666663568467
0.025124458596110,0.006666662171483
0.034456398338079,0.006666663568467
0.024418776854873,0.006666663568467
0.047770000994205,0.006666663568467
-0.056336030364037,0.006666663568467
-0.065202742815018,0.006666662171483
-0.018555494025350,0.006666655652225
0.088100127875805,0.006666655652225
-0.101059637963772,0.006666655652225
0.105287194252014,0.006666655652225
-0.034295924007893,0.006666656117886
0.050764244049788,0.006666655652225
-0.024930559098721,0.006666655652225
0.064586222171783,0.006666655652225
0.053645238280296,0.006666655652225
0.110057830810547,0.006666656583548
0.142233312129974,0.006666655652225
0.046512849628925,0.006666655652225
-0.160711705684662,0.006666655652225
0.182413682341576,0.006666655652225
0.146874278783798,0.006666656583548
0.089891888201237,0.006666655652225
-0.054251719266176,0.006666655652225
0.053891185671091,0.006666655652225
-0.070630334317684,0.006666655652225
0.173345208168030,0.006666656583548
-0.111706942319870,0.006666655652225
0.164197981357574,0.006666655652225
0.036174487322569,0.006666655652225
-0.036912187933922,0.006666655652225
-0.054934903979301,0.006666656583548
0.008666403591633,0.006666569970548
0.123979702591896,0.006666564848274
-0.024542942643166,0.006666564848274
-0.007928345352411,0.006666564848274
0.004452240653336,0.006666569970548
-0.003869247622788,0.006666661240160
0.086918435990810,0.006666665431112
-0.094326399266720,0.006666665431112
-0.120891392230988,0.006666665431112
-0.026363478973508,0.006666664965451
0.000384023238439,0.006666661240160
-0.093963652849197,0.006666665431112
0.130332082509995,0.006666665431112
-0.059271622449160,0.006666665431112
-0.280072122812271,0.006666664965451
-0.046219654381275,0.006666661240160
-0.021317690610886,0.006666665431112
0.092755518853664,0.006666665431112
-0.037073183804750,0.006666665431112
0.096674829721451,0.006666664965451
-0.076048322021961,0.006666590925306
0.093035005033016,0.006666599772871
0.110428780317307,0.006666599772871
0.006951803807169,0.006666599772871
0.015437153168023,0.006666595116258
0.151145085692406,0.006666637025774
0.021844828501344,0.006666664499789
0.113031551241875,0.006666664499789
0.005534465424716,0.006666664499789
0.144598752260208,0.006666664034128
0.018643766641617,0.006666636560112
-0.055662468075752,0.006666661240160
-0.052846077829599,0.006666661240160
0.089747980237007,0.006666661240160
0.009132899343967,0.006666661240160
0.092254944145679,0.006666636560112
0.130597114562988,0.006666661240160
0.026541706174612,0.006666661240160
-0.035730753093958,0.006666661240160
-0.008151073008776,0.006666661240160
-0.210865512490273,0.006666636560112
0.031654056161642,0.006666661240160
0.025221684947610,0.006666661240160
-0.081812903285027,0.006666661240160
0.227801889181137,0.006666661240160
-0.046067770570517,0.006666642613709
0.074234075844288,0.006666660774499
0.031659875065088,0.006666660774499
0.020254671573639,0.006666660774499
-0.016709357500076,0.006666660774499
0.074893027544022,0.006666650064290
-0.121916525065899,0.006666650529951
-0.025159174576402,0.006666650529951
0.008685274049640,0.006666650529951
-0.031230363994837,0.006666650529951
0.121184147894382,0.006666664034128
-0.023544482886791,0.006666664034128
0.022701293230057,0.006666664034128
-0.156390383839607,0.006666664034128
0.169641122221947,0.006666662637144
-0.029893619939685,0.006666664034128
-0.149599000811577,0.006666664034128
-0.011026712134480,0.006666664034128
-0.050327371805906,0.006666664034128
-0.223822191357613,0.006666662637144
-0.103743650019169,0.006666664034128
-0.017221240326762,0.006666664034128
-0.047427836805582,0.006666664034128
0.056025877594948,0.006666664034128
-0.046800591051579,0.006666662637144
-0.158457532525063,0.006666644476354
0.022520639002323,0.006666646338999
0.056778915226460,0.006666646338999
0.040814686566591,0.006666646338999
-0.150622934103012,0.006666646338999
0.040879078209400,0.006666656583548
-0.111983925104141,0.006666656583548
-0.048872310668230,0.006666656583548
0.038719855248928,0.006666656583548
0.026142694056034,0.006666657514870
-0.035969424992800,0.006666656583548
-0.007025630678982,0.006666656583548
0.049963604658842,0.006666656583548
0.016089856624603,0.006666656583548
0.035629071295261,0.006666657514870
-0.132720246911049,0.006666656583548
-0.109314739704132,0.006666656583548
-0.136570632457733,0.006666656583548
0.022498846054077,0.006666656583548
-0.064182355999947,0.006666657514870
0.008496151305735,0.006666656583548
-0.079772509634495,0.006666656583548
0.106460593640804,0.006666656583548
0.015531967394054,0.006666656583548
-0.058296304196119,0.006666657514870
0.176725134253502,0.006666384171695
0.069132059812546,0.006666369736195
-0.142018511891365,0.006666369736195
0.088412232697010,0.006666369736195
0.014884939417243,0.006666369736195
-0.026776373386383,0.006666667293757
0.003667539916933,0.006666667293757
-0.107819199562073,0.006666667293757
0.068043284118176,0.006666667293757
0.021130733191967,0.006666667293757
-0.050719022750854,0.006666667293757
0.018337892368436,0.006666667293757
0.061722259968519,0.006666667293757
-0.075693607330322,0.006666667293757
0.025778830051422,0.006666667293757
0.033720862120390,0.006666667293757
0.051923003047705,0.006666667293757
0.122817732393742,0.006666667293757
0.066120021045208,0.006666667293757
-0.081328295171261,0.006666667293757
0.014315840788186,0.006666667293757
-0.097346842288971,0.006666667293757
-0.003754931502044,0.006666667293757
0.018950475379825,0.006666667293757
-0.119542323052883,0.006666667293757
0.123057827353477,0.006666667293757
-0.029412452131510,0.006666667293757
0.041342500597239,0.006666667293757
0.060852654278278,0.006666667293757
0.010051591321826,0.006666667293757
0.044927380979061,0.006666667293757
0.065052770078182,0.006666667293757
-0.050452183932066,0.006666667293757
-0.068072274327278,0.006666667293757
0.149519696831703,0.006666667293757
-0.061567515134811,0.006666667293757
0.067548081278801,0.006666667293757
0.031580287963152,0.006666667293757
0.158984735608101,0.006666667293757
-0.070095643401146,0.006666667293757
-0.107881449162960,0.006666667293757
-0.004095616284758,0.006666667293757
-0.011108754202724,0.006666667293757
0.013440668582916,0.006666667293757
0.023470563814044,0.006666667293757
0.030673122033477,0.006666667293757
0.007963249459863,0.006666667293757
0.002498475834727,0.006666667293757
0.064830318093300,0.006666667293757
-0.086884051561356,0.006666667293757
0.083713404834270,0.006666667293757
-0.140246391296387,0.006666667293757
0.040905188769102,0.006666667293757
0.109005339443684,0.006666667293757
0.042427916079760,0.006666667293757
0.072082526981831,0.006666667293757
-0.285155981779099,0.006666667293757
0.176228255033493,0.006666667293757
0.078195281326771,0.006666667293757
0.207989633083344,0.006666667293757
-0.045936033129692,0.006666667293757
-0.005661584902555,0.006666667293757
0.008706677705050,0.006666667293757
-0.002448664046824,0.006666667293757
-0.101808197796345,0.006666667293757
-0.112909644842148,0.006666667293757
-0.045740522444248,0.006666667293757
0.020524695515633,0.006666667293757
0.045018568634987,0.006666667293757
0.011445421725512,0.006666667293757
-0.105388559401035,0.006666667293757
-0.105810910463333,0.006666667293757
-0.099064581096172,0.006666667293757
-0.066463142633438,0.006666667293757
-0.064231552183628,0.006666667293757
0.063027001917362,0.006666667293757
0.092815600335598,0.006666667293757
0.001178761478513,0.006666667293757
-0.001682431204244,0.006666667293757
-0.107848539948463,0.006666667293757
-0.064142160117626,0.006666667293757
-0.005154313053936,0.006666667293757
0.063731722533703,0.006666667293757
0.021871544420719,0.006666667293757
-0.081501685082912,0.006666667293757
0.026886533945799,0.006666667293757
0.056447342038155,0.006666667293757
0.069323591887951,0.006666667293757
-0.067540071904659,0.006666667293757
0.050447784364223,0.006666667293757
-0.033413980156183,0.006666667293757
-0.016104368492961,0.006666667293757
-0.029622888192534,0.006666667293757
-0.015475952997804,0.006666667293757
0.012857338413596,0.006666667293757
-0.075839132070541,0.006666667293757
0.168349668383598,0.006666667293757
-0.056044559925795,0.006666667293757
0.029186664149165,0.006666667293757
-0.024269683286548,0.006666667293757
0.008031448349357,0.006666667293757
0.033755090087652,0.006666667293757
-0.023185910657048,0.006666667293757
0.024075264111161,0.006666667293757
0.099375940859318,0.006666667293757
0.089968569576740,0.006666564848274
0.063140057027340,0.006666576489806
0.043844070285559,0.006666576489806
-0.001222345395945,0.006666576489806
0.055732604116201,0.006666579749435
0.104103364050388,0.006666644942015
0.090731024742126,0.006666664965451
0.079035319387913,0.006666664965451
-0.058964952826500,0.006666664965451
-0.099610894918442,0.006666663568467
0.013072924688458,0.006666644942015
0.019700223580003,0.006666664965451
-0.148992076516151,0.006666664965451
0.069360025227070,0.006666664965451
-0.095743738114834,0.006666663568467
0.022791439667344,0.006666644942015
-0.053588878363371,0.006666664965451
-0.116166636347771,0.006666664965451
0.085036791861057,0.006666664965451
-0.052583862096071,0.006666663568467
-0.142762184143066,0.006666644942015
0.066833242774010,0.006666664965451
-0.001617901027203,0.006666664965451
0.021516751497984,0.006666664965451
-0.066363587975502,0.006666663568467
0.080050691962242,0.006666532251984
-0.055976390838623,0.006666663102806
0.127411454916000,0.006666663102806
-0.061566613614559,0.006666663102806
-0.068312764167786,0.006666662637144
0.019968960434198,0.006666531786323
0.096942760050297,0.006666660308838
0.052653964608908,0.006666660308838
-0.078559421002865,0.006666660308838
-0.051528718322515,0.006666660308838
0.022448379546404,0.006666531786323
0.153626084327698,0.006666660308838
0.000907353707589,0.006666660308838
0.023923823609948,0.006666660308838
0.036463044583797,0.006666660308838
0.085406757891178,0.006666531786323
0.029445054009557,0.006666660308838
-0.166164577007294,0.006666660308838
-0.029885126277804,0.006666660308838
-0.009120320901275,0.006666660308838
-0.025073256343603,0.006666531786323
0.102368123829365,0.006666660308838
-0.030546192079782,0.006666660308838
-0.023201571777463,0.006666660308838
0.039484772831202,0.006666660308838
-0.004944307729602,0.006666650995612
-0.025803981348872,0.006666651461273
0.000629039946944,0.006666651461273
0.008421860635281,0.006666651461273
0.026314031332731,0.006666647735983
-0.033066470175982,0.006666663102806
-0.057976119220257,0.006666663102806
-0.014274421148002,0.006666663102806
0.031091084703803,0.006666663102806
0.079090930521488,0.006666658446193
-0.034475684165955,0.006666663102806
-0.034545335918665,0.006666663102806
0.037473984062672,0.006666663102806
0.041747469455004,0.006666663102806
0.080155111849308,0.006666658446193
0.058683611452579,0.006666663102806
-0.077899239957333,0.006666663102806
-0.069653667509556,0.006666663102806
-0.042681436985731,0.006666663102806
-0.047084596008062,0.006666658446193
-0.025028433650732,0.006666663102806
0.068148575723171,0.006666663102806
0.114255316555500,0.006666663102806
0.019135441631079,0.006666663102806
-0.186423122882843,0.006666658446193
0.023784236982465,0.006666655186564
-0.076187267899513,0.006666655186564
-0.122850023210049,0.006666655186564
-0.050889190286398,0.006666655186564
0.061182878911495,0.006666658911854
0.095437541604042,0.006666655186564
0.137965798377991,0.006666655186564
-0.082946948707104,0.006666655186564
0.043793696910143,0.006666655186564
0.049968931823969,0.006666658911854
0.084196314215660,0.006666655186564
0.140066549181938,0.006666655186564
-0.008636573329568,0.006666655186564
-0.104984112083912,0.006666655186564
0.050171907991171,0.006666658911854
-0.020714759826660,0.006666655186564
0.061567835509777,0.006666655186564
-0.036772586405277,0.006666655186564
0.007365594618022,0.006666655186564
-0.015693008899689,0.006666658911854
0.135625660419464,0.006666655186564
-0.024418413639069,0.006666655186564
-0.152738928794861,0.006666655186564
-0.067922294139862,0.006666655186564
-0.097108468413353,0.006666658911854
-0.066062197089195,0.006666618399322
0.050655886530876,0.006666624918580
-0.085942722856998,0.006666624918580
0.041534248739481,0.006666624918580
0.078487657010555,0.006666625849903
0.065781749784946,0.006666652858257
-0.099438242614269,0.006666663102806
-0.068235881626606,0.006666663102806
0.056268837302923,0.006666663102806
0.072633147239685,0.006666662637144
-0.092332147061825,0.006666652858257
-0.038843579590321,0.006666663102806
-0.013012357056141,0.006666663102806
-0.076011426746845,0.006666663102806
-0.034576244652271,0.006666662637144
-0.083540186285973,0.006666652858257
-0.073420062661171,0.006666663102806
-0.013953692279756,0.006666663102806
-0.047137595713139,0.006666663102806
0.031278133392334,0.006666662637144
0.017414679750800,0.006666647270322
-0.045758020132780,0.006666660308838
0.036272052675486,0.006666660308838
-0.035597361624241,0.006666660308838
-0.037370689213276,0.006666659843177
0.024904323741794,0.006666588131338
0.088804043829441,0.006666656583548
0.060268703848124,0.006666656583548
-0.051092483103275,0.006666656583548
0.064476780593395,0.006666656117886
0.011553968302906,0.006666588131338
0.000663068611175,0.006666655186564
-0.012795578688383,0.006666655186564
0.021533200517297,0.006666655186564
-0.058871909976006,0.006666655186564
0.027268314734101,0.006666588131338
-0.059100393205881,0.006666655186564
-0.018837453797460,0.006666655186564
0.013396748341620,0.006666655186564
-0.035768449306488,0.006666655186564
0.000029810238630,0.006666588131338
-0.071986071765423,0.006666655186564
-0.065616585314274,0.006666655186564
-0.025677492842078,0.006666655186564
0.005516048520803,0.006666655186564
-0.027688296511769,0.006666591390967
0.071949839591980,0.006666655186564
0.023831374943256,0.006666655186564
-0.113976947963238,0.006666655186564
-0.115875422954559,0.006666655186564
0.004190157633275,0.006666655186564
-0.026981137692928,0.006666655186564
0.014157119207084,0.006666655186564
-0.085850909352303,0.006666655186564
-0.046694826334715,0.006666653323919
-0.060965310782194,0.006666660308838
-0.109930433332920,0.006666660308838
-0.155212327837944,0.006666660308838
0.008747770451009,0.006666660308838
-0.013640361838043,0.006666657980531
-0.197080925107002,0.006666660308838
0.018268318846822,0.006666660308838
-0.012735041789711,0.006666660308838
0.089168734848499,0.006666660308838
0.109313182532787,0.006666657980531
0.027417799457908,0.006666660308838
-0.066603690385818,0.006666660308838
0.037877514958382,0.006666660308838
0.025948369875550,0.006666660308838
-0.009843078441918,0.006666657980531
-0.022763296961784,0.006666658446193
0.056269440799952,0.006666659377515
0.128042086958885,0.006666659377515
-0.050855983048677,0.006666659377515
-0.005871918518096,0.006666657049209
-0.188196256756783,0.006666645873338
-0.136471807956696,0.006666645873338
-0.081609025597572,0.006666645873338
0.044552978128195,0.006666645873338
-0.127726733684540,0.006666647735983
-0.034338448196650,0.006666645873338
-0.011352380737662,0.006666645873338
-0.037673760205507,0.006666645873338
0.058703109622002,0.006666645873338
-0.086528196930885,0.006666647735983
-0.007981185801327,0.006666645873338
-0.070615112781525,0.006666645873338
-0.121076636016369,0.006666645873338
0.004032953176647,0.006666645873338
0.084526762366295,0.006666647735983
0.005323878023773,0.006666645873338
0.116731271147728,0.006666645873338
-0.078881978988647,0.006666645873338
0.013253624550998,0.006666645873338
0.014167558401823,0.006666647735983
0.013097194954753,0.006666641216725
-0.115974478423595,0.006666633300483
0.045709121972322,0.006666633300483
0.002996709430590,0.006666633300483
-0.017029857262969,0.006666635163128
0.155007034540176,0.006666579749435
-0.052446879446507,0.006666582543403
0.065226078033447,0.006666582543403
-0.066147699952126,0.006666582543403
0.026530236005783,0.006666587665677
0.155371949076653,0.006666662637144
-0.078335292637348,0.006666665431112
0.155750110745430,0.006666665431112
-0.237730771303177,0.006666665431112
0.006851489655674,0.006666665431112
0.033672295510769,0.006666662637144
0.099806495010853,0.006666665431112
-0.092657178640366,0.006666665431112
-0.309278905391693,0.006666665431112
-0.027933130040765,0.006666665431112
-0.039233610033989,0.006666662637144
0.174371197819710,0.006666665431112
-0.111649177968502,0.006666665431112
-0.031408969312906,0.006666665431112
0.002233116654679,0.006666665431112
0.044592898339033,0.006666593253613
-0.014728471636772,0.006666603498161
-0.018747003749013,0.006666603498161
-0.176441624760628,0.006666603498161
-0.066094093024731,0.006666599772871
-0.017403855919838,0.006666646804661
-0.025199752300978,0.006666664499789
0.105603836476803,0.006666664499789
-0.069184921681881,0.006666664499789
0.071962870657444,0.006666664034128
0.015434528701007,0.006666644010693
-0.042092241346836,0.006666662171483
0.072962887585163,0.006666662171483
-0.019783457741141,0.006666662171483
0.191981688141823,0.006666662171483
0.033214893192053,0.006666644010693
-0.122127257287502,0.006666662171483
-0.057591136544943,0.006666662171483
0.023613357916474,0.006666662171483
0.026701513677835,0.006666662171483
-0.063152126967907,0.006666644010693
0.018103916198015,0.006666662171483
0.084918618202209,0.006666662171483
-0.014635574072599,0.006666662171483
-0.041177526116371,0.006666662171483
-0.066855758428574,0.006666653789580
0.043501850217581,0.006666661705822
-0.022208092734218,0.006666661705822
-0.001665640971623,0.006666661705822
-0.166712313890457,0.006666661705822
-0.085320152342319,0.006666653323919
-0.072375468909740,0.006666653323919
-0.028218310326338,0.006666653323919
-0.023637959733605,0.006666653323919
0.035803135484457,0.006666653323919
-0.098542414605618,0.006666664034128
0.057124871760607,0.006666664034128
-0.011388356797397,0.006666664034128
-0.009660834446549,0.006666664034128
-0.066896811127663,0.006666663102806
0.016207326203585,0.006666664034128
0.001499154488556,0.006666664034128
-0.053086381405592,0.006666664034128
0.001351817161776,0.006666664034128
-0.083829455077648,0.006666663102806
0.035734858363867,0.006666664034128
-0.011498556472361,0.006666664034128
-0.006560695823282,0.006666664034128
-0.012467592954636,0.006666664034128
-0.084599934518337,0.006666663102806
-0.036216918379068,0.006666645407677
-0.149947240948677,0.006666647270322
-0.175954177975655,0.006666647270322
0.116348683834076,0.006666647270322
0.045744910836220,0.006666647270322
0.019676038995385,0.006666657980531
-0.052579451352358,0.006666657980531
0.053208846598864,0.006666657980531
0.166922062635422,0.006666657980531
0.099583901464939,0.006666658446193
0.029712665826082,0.006666657980531
-0.104458786547184,0.006666657980531
-0.075131900608540,0.006666657980531
-0.110595233738422,0.006666657980531
0.077208079397678,0.006666658911854
-0.043557357043028,0.006666657980531
-0.061904050409794,0.006666657980531
0.035885542631149,0.006666657980531
0.084153965115547,0.006666657980531
-0.099282242357731,0.006666658911854
-0.065350778400898,0.006666657980531
-0.222580298781395,0.006666657980531
0.150968194007874,0.006666657980531
0.041734822094440,0.006666657980531
-0.077456444501877,0.006666658911854
-0.081963568925858,0.006666405592114
-0.036985516548157,0.006666385103017
-0.041056275367737,0.006666385103017
0.144644051790237,0.006666385103017
0.080593138933182,0.006666385103017
0.963785529136658,0.998399496078491
1.002474665641785,0.999989807605743
1.004536032676697,0.999974727630615
1.005695104598999,0.999925374984741
1.000000000000000,1.000000000000000
0.997339844703674,0.999902248382568
0.984073221683502,0.999934315681458
0.991866946220398,0.999765217304230
0.003643479431048,0.007194242905825
0.074926547706127,0.007194243371487
0.016804771497846,0.007194243371487
0.053556289523840,0.007194243371487
0.098043076694012,0.007194229401648
-0.169875681400299,0.007194229401648
-0.037774339318275,0.007194229401648
-0.071001283824444,0.007194229401648
-0.117750331759453,0.007194229401648
0.046358902007341,0.007194229401648
-0.032272685319185,0.007194229401648
-0.036701727658510,0.007194229401648
-0.084606342017651,0.007194222882390
-0.041806723922491,0.007194217760116
-0.035894427448511,0.007194217760116
0.008895796723664,0.007194219157100
0.027803648263216,0.007194244302809
0.064161419868469,0.007194244302809
0.074571557343006,0.007194244302809
-0.140440613031387,0.007194244302809
0.135385692119598,0.007194244302809
-0.069298103451729,0.007194244302809
-0.031782340258360,0.007194244302809
-0.068471506237984,0.007194244302809
0.057624820619822,0.007194244302809
-0.012861201539636,0.007194244302809
0.003895663190633,0.007194244302809
0.137160688638687,0.007194244302809
0.011771807447076,0.007194244302809
-0.063466377556324,0.007194243837148
-0.150210931897163,0.007194243837148
0.022432696074247,0.007194244302809
-0.117350392043591,0.007194244302809
-0.135185211896896,0.007194243837148
0.049886457622051,0.007194243837148
0.118436381220818,0.007194242905825
0.108018934726715,0.007194244302809
0.144288703799248,0.007194244302809
-0.053425136953592,0.007194244302809
0.024940222501755,0.007194244302809
0.037771698087454,0.007194244302809
0.003834623144940,0.007194244302809
0.058577548712492,0.007194244302809
0.024278193712234,0.007194244302809
-0.072172120213509,0.007194244302809
-0.077494934201241,0.007194244302809
-0.066249564290047,0.007194244302809
-0.142214328050613,0.007194244302809
-0.124659143388271,0.007194244302809
-0.003338370937854,0.007194243837148
0.023825448006392,0.007194243837148
-0.029271472245455,0.007194244302809
-0.049463063478470,0.007194243837148
-0.073235355317593,0.007194243837148
-0.036198817193508,0.007194243837148
0.019610572606325,0.007194243837148
0.080873079597950,0.007194243837148
0.000344715197571,0.007194243837148
0.112403325736523,0.007194243837148
-0.006749798078090,0.007194243837148
0.052107580006123,0.007194243371487
-0.026986174285412,0.007194242905825
0.035135429352522,0.007194242905825
0.095201134681702,0.007194242905825
-0.104067094624043,0.007194244302809
-0.091435246169567,0.007194244302809
-0.117045834660530,0.007194244302809
-0.050148099660873,0.007194244302809
-0.049678716808558,0.007194244302809
-0.172750681638718,0.007194244302809
-0.002639545127749,0.007194244302809
0.108318068087101,0.007194244302809
-0.069334246218204,0.007194244302809
0.008651619777083,0.007194244302809
0.128781110048294,0.007194244302809
-0.006582182366401,0.007194244302809
-0.054069075733423,0.007194244302809
0.031423315405846,0.007194244302809
-0.038988664746284,0.007194244302809
-0.007104273885489,0.007194244302809
0.095966815948486,0.007194238249213
-0.065612092614174,0.007194243837148
-0.048709910362959,0.007194243837148
-0.091709718108177,0.007194243837148
0.027617380023003,0.007194243837148
-0.005637298803777,0.007194242905825
-0.097029335796833,0.007194242905825
-0.020379245281219,0.007194243371487
0.048537191003561,0.007194243837148
-0.013305336236954,0.007194242905825
-0.092845089733601,0.007194242905825
-0.004740223754197,0.007194243371487
-0.066596202552319,0.007194244302809
0.005458602681756,0.007194242905825
0.019636167213321,0.007194242905825
0.171577721834183,0.007194243371487
0.156836137175560,0.007194241043180
-0.040742538869381,0.007194244302809
0.090294487774372,0.007194244302809
0.147457808256149,0.007194244302809
0.099936656653881,0.007194243371487
0.043514758348465,0.007194244302809
0.035885661840439,0.007194244302809
-0.012305062264204,0.007194243837148
-0.090418413281441,0.007194243371487
-0.175512939691544,0.007194244302809
0.078773759305477,0.007194244302809
0.158301174640656,0.007194243837148
0.037310242652893,0.007194244302809
-0.013232649303973,0.007194242905825
0.071414239704609,0.007194242905825
-0.071705147624016,0.007194242440164
0.142629906535149,0.007194243837148
0.165887758135796,0.007194244302809
-0.105933204293251,0.007194244302809
-0.037670020014048,0.007194244302809
0.147318318486214,0.007194241974503
-0.067554213106632,0.007194241974503
-0.085412517189980,0.007194241974503
0.023064350709319,0.007194241974503
0.006445045582950,0.007194241974503
0.079482346773148,0.007194241974503
0.052640408277512,0.007194241974503
-0.187200561165810,0.007194241974503
0.170944407582283,0.007194241974503
-0.002670469228178,0.007194239180535
-0.016712954267859,0.007194239180535
-0.008897638879716,0.007194239180535
-0.041306331753731,0.007194240111858
-0.090118333697319,0.007194241974503
-0.045621871948242,0.007194241974503
0.073719084262848,0.007194241508842
0.025496400892735,0.007194206118584
0.108226053416729,0.007194206118584
0.014209285378456,0.007194206118584
-0.197196424007416,0.007194206118584
0.026184519752860,0.007194206118584
0.091541431844234,0.007194206118584
-0.105475112795830,0.007194206118584
-0.001035909284838,0.007194206118584
-0.026976356282830,0.007194188423455
-0.005891836714000,0.007194175850600
-0.146055325865746,0.007194175850600
0.135184019804001,0.007194179110229
-0.125381112098694,0.007194244302809
-0.004902010783553,0.007194244302809
0.109783560037613,0.007194244302809
0.057142898440361,0.007194244302809
-0.083953350782394,0.007194243837148
0.104329489171505,0.007194244302809
0.111249297857285,0.007194244302809
0.018958330154419,0.007194244302809
0.109698653221130,0.007194243837148
-0.152293235063553,0.007194244302809
-0.025178218260407,0.007194244302809
-0.124151237308979,0.007194244302809
-0.095836989581585,0.007194244302809
0.125037625432014,0.007194243371487
0.031177997589111,0.007194243371487
-0.066133394837379,0.007194243837148
-0.098507322371006,0.007194243837148
0.154492035508156,0.007194242905825
-0.001726753078401,0.007194242905825
-0.124647073447704,0.007194241043180
0.033287435770035,0.007194243837148
-0.147986412048340,0.007194243837148
0.098104208707809,0.007194243837148
-0.107010766863823,0.007194243837148
-0.042347818613052,0.007194243837148
0.046348996460438,0.007194243837148
0.031941905617714,0.007194243837148
0.076275095343590,0.007194243837148
-0.079119525849819,0.007194243837148
0.026633117347956,0.007194243837148
-0.106685362756252,0.007194243837148
0.180961772799492,0.007194243837148
0.136170834302902,0.007194244302809
0.086134918034077,0.007194243837148
-0.066905461251736,0.007194243837148
-0.080556452274323,0.007194243837148
-0.091257430613041,0.007194242905825
0.081806078553200,0.007194242905825
-0.096199139952660,0.007194242905825
0.073019877076149,0.007194242905825
-0.080090664327145,0.007194242905825
0.148788258433342,0.007194242905825
-0.083405174314976,0.007194242905825
0.051275882869959,0.007194242905825
-0.140032008290291,0.007194241508842
0.135335713624954,0.007194241043180
-0.153573676943779,0.007194241043180
0.050080530345440,0.007194241043180
-0.001778225763701,0.007194244302809
-0.186338737607002,0.007194244302809
-0.187125951051712,0.007194244302809
0.161133423447609,0.007194244302809
-0.002502033254132,0.007194244302809
-0.053569003939629,0.007194244302809
-0.046564210206270,0.007194244302809
0.047614090144634,0.007194244302809
-0.046279966831207,0.007194244302809
0.056652117520571,0.007194244302809
0.092692233622074,0.007194244302809
0.213047206401825,0.007194244302809
0.002035622252151,0.007194244302809
0.014823097735643,0.007194244302809
0.039971180260181,0.007194244302809
0.204926997423172,0.007194244302809
-0.051494978368282,0.007194228935987
0.029432162642479,0.007194243371487
0.080576635897160,0.007194243371487
0.019959362223744,0.007194242440164
0.013835005462170,0.007194243837148
0.087065190076828,0.007194241043180
-0.125817999243736,0.007194241043180
0.021168991923332,0.007194241508842
-0.010882701724768,0.007194243837148
-0.089757770299911,0.007194241043180
0.064071685075760,0.007194241043180
-0.036765795201063,0.007194241508842
-0.021624322980642,0.007194244302809
0.081325829029083,0.007194241043180
0.002800604328513,0.007194241043180
-0.037999272346497,0.007194241508842
0.056044962257147,0.007194236386567
0.038620587438345,0.007194243837148
-0.058693587779999,0.007194243837148
-0.067831479012966,0.007194244302809
-0.059904128313065,0.007194241508842
-0.118294820189476,0.007194243837148
-0.035121247172356,0.007194243837148
0.013184786774218,0.007194242905825
-0.025489868596196,0.007194241508842
0.050363849848509,0.007194243837148
-0.026069262996316,0.007194243837148
-0.009422086179256,0.007194242905825
-0.030868761241436,0.007194244302809
0.012518748641014,0.007194241043180
-0.063476189970970,0.007194241043180
0.116020604968071,0.007194239646196
-0.114986009895802,0.007194242905825
0.087657921016216,0.007194243837148
0.131228923797607,0.007194243837148
0.163866117596626,0.007194243837148
0.040602754801512,0.007194238249213
0.062948748469353,0.007194238249213
-0.121131658554077,0.007194238249213
0.113331705331802,0.007194238249213
0.056388977915049,0.007194238249213
-0.047209125012159,0.007194238249213
-0.133963719010353,0.007194238249213
-0.100508533418179,0.007194238249213
0.024453690275550,0.007194238714874
0.090881362557411,0.007194230798632
0.054006721824408,0.007194230798632
-0.006352366413921,0.007194231264293
-0.013350619934499,0.007194241043180
-0.014736666344106,0.007194242440164
-0.098699659109116,0.007194242440164
-0.047996714711189,0.007194241974503
-0.119993008673191,0.007194215431809
0.036249514669180,0.007194215431809
0.070339128375053,0.007194215431809
-0.053592171519995,0.007194215431809
-0.011737670749426,0.007194215431809
0.035937167704105,0.007194215431809
-0.075693957507610,0.007194215431809
0.017088282853365,0.007194215431809
-0.071459487080574,0.007194202393293
0.026054037734866,0.007194192614406
0.035771604627371,0.007194192614406
0.025342578068376,0.007194194942713
0.049523439258337,0.007194244302809
-0.058618705719709,0.007194244302809
-0.067852988839149,0.007194244302809
-0.019110269844532,0.007194244302809
0.091683462262154,0.007194244302809
-0.104814037680626,0.007194244302809
0.109542146325111,0.007194244302809
-0.035483349114656,0.007194244302809
0.052898392081261,0.007194244302809
-0.025730004534125,0.007194244302809
0.067261360585690,0.007194244302809
0.055892147123814,0.007194244302809
0.114468209445477,0.007194244302809
0.147931471467018,0.007194243371487
0.048495616763830,0.007194243371487
-0.166776075959206,0.007194243837148
0.189668282866478,0.007194243837148
0.152723759412766,0.007194242905825
0.093560963869095,0.007194242905825
-0.056172285228968,0.007194241508842
0.056145783513784,0.007194243837148
-0.073209039866924,0.007194243837148
0.180205062031746,0.007194243837148
-0.115880034863949,0.007194243837148
0.170734122395515,0.007194243837148
0.037741407752037,0.007194243837148
-0.038182128220797,0.007194243837148
-0.056935738772154,0.007194243837148
0.009138235822320,0.007194243837148
0.128950402140617,0.007194243837148
-0.025337154045701,0.007194243837148
-0.008077661506832,0.007194243837148
0.004798070527613,0.007194244302809
-0.004033763892949,0.007194243837148
0.090300597250462,0.007194243837148
-0.097978204488754,0.007194243837148
-0.125579550862312,0.007194242905825
-0.027371708303690,0.007194242905825
0.000380417564884,0.007194242905825
-0.097606606781483,0.007194242905825
0.135395169258118,0.007194242905825
-0.061568003147840,0.007194242905825
-0.290928035974503,0.007194242905825
-0.048032179474831,0.007194242905825
-0.022114187479019,0.007194241974503
0.096387758851051,0.007194241974503
-0.038480237126350,0.007194241974503
0.100469954311848,0.007194241974503
-0.078995779156685,0.007194244302809
0.096671916544437,0.007194244302809
0.114740833640099,0.007194244302809
0.007247397210449,0.007194244302809
0.016073688864708,0.007194244302809
0.157064303755760,0.007194244302809
0.022692851722240,0.007194244302809
0.117418989539146,0.007194244302809
0.005749401636422,0.007194244302809
0.150212511420250,0.007194244302809
0.019394874572754,0.007194244302809
-0.057849653065205,0.007194244302809
-0.054923947900534,0.007194244302809
0.093204900622368,0.007194244302809
0.009461168199778,0.007194244302809
0.095863275229931,0.007194244302809
0.135674580931664,0.007194232661277
0.027553809806705,0.007194243837148
-0.037135753780603,0.007194243837148
-0.008481973782182,0.007194242905825
-0.219015434384346,0.007194243837148
0.032840073108673,0.007194241974503
0.026158027350903,0.007194241974503
-0.085030063986778,0.007194242440164
0.236625164747238,0.007194243837148
-0.047847438603640,0.007194241974503
0.077072948217392,0.007194241974503
0.032847274094820,0.007194242440164
0.021013919264078,0.007194244302809
-0.017400179058313,0.007194241974503
0.077715583145618,0.007194241974503
-0.126729443669319,0.007194241974503
-0.026175681501627,0.007194238249213
0.008962544612586,0.007194243837148
-0.032508876174688,0.007194243837148
0.125899568200111,0.007194244302809
-0.024423601105809,0.007194242440164
0.023597307503223,0.007194243837148
-0.162445813417435,0.007194243837148
0.176229685544968,0.007194243371487
-0.031029278412461,0.007194242440164
-0.155390828847885,0.007194243837148
-0.011439850553870,0.007194243837148
-0.052270662039518,0.007194243371487
-0.232492253184319,0.007194244302809
-0.107775948941708,0.007194241974503
-0.017885085195303,0.007194241974503
-0.049267280846834,0.007194241043180
0.058210197836161,0.007194243371487
-0.048607822507620,0.007194244302809
-0.164595469832420,0.007194244302809
0.023417217656970,0.007194244302809
0.058987136930227,0.007194239646196
0.042403254657984,0.007194239646196
-0.156469002366066,0.007194239646196
0.042407840490341,0.007194239646196
-0.116388544440269,0.007194239646196
-0.050827249884605,0.007194239646196
0.040164805948734,0.007194239646196
0.027090903371572,0.007194239646196
-0.037379641085863,0.007194240111858
-0.007300765253603,0.007194234058261
0.051900509744883,0.007194234058261
0.016711439937353,0.007194234523922
0.036993160843849,0.007194240577519
-0.137887939810753,0.007194241974503
-0.113573946058750,0.007194241974503
-0.141886457800865,0.007194241974503
0.023412920534611,0.007194211706519
-0.066641144454479,0.007194211706519
0.008866711519659,0.007194211706519
-0.082828097045422,0.007194211706519
0.110633641481400,0.007194211706519
0.016175622120500,0.007194211706519
-0.060526624321938,0.007194211706519
0.183598488569260,0.007194211706519
0.071666046977043,0.007194196805358
-0.147690460085869,0.007194185629487
0.091684460639954,0.007194185629487
0.015305711887777,0.007194188423455
-0.027809908613563,0.007194244302809
0.003809135174379,0.007194244302809
-0.112004958093166,0.007194244302809
0.070688523352146,0.007194244302809
0.021957434713840,0.007194243837148
-0.052687358111143,0.007194244302809
0.019050002098083,0.007194244302809
0.064123235642910,0.007194244302809
-0.078625142574310,0.007194243837148
0.026779757812619,0.007194244302809
0.035030063241720,0.007194244302809
0.053943615406752,0.007194244302809
0.127583041787148,0.007194244302809
0.068674229085445,0.007194243371487
-0.084497295320034,0.007194243371487
0.014864386059344,0.007194243837148
-0.101133257150650,0.007194243837148
-0.003916420973837,0.007194242905825
0.019670296460390,0.007194242905825
-0.124205380678177,0.007194241508842
0.127842083573341,0.007194243837148
-0.030546318739653,0.007194243837148
0.042954988777637,0.007194243837148
0.063222430646420,0.007194243837148
0.010449521243572,0.007194243837148
0.046679016202688,0.007194243837148
0.067585565149784,0.007194243837148
-0.052402704954147,0.007194243837148
-0.070706725120544,0.007194243837148
0.155331075191498,0.007194243837148
-0.063949480652809,0.007194243837148
0.070177733898163,0.007194243837148
0.032808192074299,0.007194244302809
0.165165439248085,0.007194243837148
-0.072806708514690,0.007194243837148
-0.112060606479645,0.007194243837148
-0.004239139612764,0.007194242905825
-0.011524491943419,0.007194242905825
0.013977815397084,0.007194242905825
0.024397023022175,0.007194242905825
0.031879149377346,0.007194242905825
0.008287791162729,0.007194242905825
0.002610902069137,0.007194242905825
0.067362152040005,0.007194242905825
-0.090277716517448,0.007194241974503
0.086940109729767,0.007194241508842
-0.145712673664093,0.007194241508842
0.042470391839743,0.007194241508842
0.113236382603645,0.007194244302809
0.044074755162001,0.007194244302809
0.074880413711071,0.007194244302809
-0.296224325895309,0.007194244302809
0.183068558573723,0.007194244302809
0.081230431795120,0.007194244302809
0.216062754392624,0.007194244302809
-0.047719039022923,0.007194244302809
-0.005881339311600,0.007194244302809
0.009044626727700,0.007194244302809
-0.002543709008023,0.007194244302809
-0.105759881436825,0.007194244302809
-0.117292232811451,0.007194244302809
-0.047515939921141,0.007194244302809
0.021321360021830,0.007194244302809
0.046765964478254,0.007194244302809
0.011841555126011,0.007194231264293
-0.109490953385830,0.007194243371487
-0.109929695725441,0.007194243371487
-0.102925866842270,0.007194242905825
-0.069053053855896,0.007194243837148
-0.066702723503113,0.007194241508842
0.065495371818542,0.007194241508842
0.096438787877560,0.007194241974503
0.001214365009218,0.007194243837148
-0.001725752023049,0.007194241508842
-0.112012706696987,0.007194241508842
-0.066611289978027,0.007194241974503
-0.005353817250580,0.007194244302809
0.066227450966835,0.007194241508842
0.022742470726371,0.007194241508842
-0.084644146263599,0.007194241974503
0.027895089238882,0.007194237317890
0.058630656450987,0.007194243837148
0.072006694972515,0.007194243837148
-0.070163547992706,0.007194244302809
0.052386112511158,0.007194241974503
-0.034703385084867,0.007194243837148
-0.016721902415156,0.007194243837148
-0.030758690088987,0.007194243371487
-0.016096450388432,0.007194241974503
0.013363952748477,0.007194243837148
-0.078775271773338,0.007194243837148
0.174898162484169,0.007194243371487
-0.058224692940712,0.007194244302809
0.030341215431690,0.007194241508842
-0.025190040469170,0.007194241508842
0.008369161747396,0.007194240577519
0.035079982131720,0.007194242905825
-0.024079263210297,0.007194243837148
0.025016352534294,0.007194243837148
0.103239186108112,0.007194244302809
0.093538127839565,0.007194239180535
0.065553091466427,0.007194239180535
0.045508123934269,0.007194239180535
-0.001307541155256,0.007194239180535
0.057879593223333,0.007194239180535
0.108262941241264,0.007194239180535
0.094256438314915,0.007194239180535
0.082106769084930,0.007194239180535
-0.061310335993767,0.007194239646196
-0.103531062602997,0.007194232661277
0.013622806407511,0.007194232661277
0.020392937585711,0.007194233126938
-0.154774129390717,0.007194239180535
0.072046935558319,0.007194241043180
-0.099446445703506,0.007194241043180
0.023787381127477,0.007194240577519
-0.055609986186028,0.007194196339697
-0.120616696774960,0.007194196339697
0.088396437466145,0.007194196339697
-0.054547086358070,0.007194196339697
-0.148129448294640,0.007194196339697
0.069486320018768,0.007194196339697
-0.001621754607186,0.007194196339697
0.022410869598389,0.007194196339697
-0.069051660597324,0.007194174453616
0.082808800041676,0.007194158155471
-0.058225143700838,0.007194158155471
0.132283687591553,0.007194162346423
-0.063910514116287,0.007194243837148
-0.070929810404778,0.007194244302809
0.020516313612461,0.007194244302809
0.100757002830505,0.007194244302809
0.054751809686422,0.007194243837148
-0.081561602652073,0.007194244302809
-0.053480967879295,0.007194244302809
0.023098723962903,0.007194244302809
0.159643158316612,0.007194243837148
0.000989672145806,0.007194244302809
0.024899525567889,0.007194244302809
0.037931725382805,0.007194244302809
0.088492840528488,0.007194244302809
0.030620887875557,0.007194242905825
-0.172581344842911,0.007194242905825
-0.031006420031190,0.007194243837148
-0.009435767307878,0.007194243837148
-0.026291118934751,0.007194242440164
0.106370516121387,0.007194242440164
-0.031711082905531,0.007194240111858
-0.024046631529927,0.007194243837148
0.041073627769947,0.007194243837148
-0.005090634804219,0.007194243837148
-0.026808563619852,0.007194243837148
0.000650456291623,0.007194243837148
0.008745756000280,0.007194243837148
0.027323309332132,0.007194243837148
-0.034325800836086,0.007194243837148
-0.060253389179707,0.007194243837148
-0.014855411835015,0.007194243837148
0.032270956784487,0.007194243837148
0.082123063504696,0.007194243837148
-0.035796102136374,0.007194244302809
-0.035910971462727,0.007194243371487
0.038903776556253,0.007194243371487
0.043341513723135,0.007194243837148
0.083237200975418,0.007194242440164
0.060994215309620,0.007194242440164
-0.080941177904606,0.007194242440164
-0.072375550866127,0.007194242440164
-0.044356390833855,0.007194242440164
-0.048941306769848,0.007194242440164
-0.025967113673687,0.007194242440164
0.070775479078293,0.007194242440164
0.118630446493626,0.007194240577519
0.019816949963570,0.007194240111858
-0.193731203675270,0.007194240111858
0.024744307622313,0.007194240111858
-0.079082168638706,0.007194244302809
-0.127556145191193,0.007194244302809
-0.052802145481110,0.007194244302809
0.063607163727283,0.007194244302809
0.099204257130623,0.007194244302809
0.143383249640465,0.007194244302809
-0.086104229092598,0.007194244302809
0.045555856078863,0.007194244302809
0.051956254988909,0.007194244302809
0.087526701390743,0.007194244302809
0.145565539598465,0.007194244302809
-0.008909496478736,0.007194244302809
-0.108996763825417,0.007194244302809
0.052167106419802,0.007194244302809
-0.021456496790051,0.007194244302809
0.064019896090031,0.007194244302809
-0.038191903382540,0.007194225210696
0.007700554560870,0.007194243371487
-0.016267595812678,0.007194243371487
0.140934109687805,0.007194241974503
-0.025315361097455,0.007194243371487
-0.158580392599106,0.007194240111858
-0.070471592247486,0.007194240111858
-0.100806772708893,0.007194241043180
-0.068623386323452,0.007194243371487
0.052715133875608,0.007194240111858
-0.089185543358326,0.007194240111858
0.043237823992968,0.007194241043180
0.081702806055546,0.007194244302809
0.068234302103519,0.007194240111858
-0.103345073759556,0.007194240111858
-0.070932678878307,0.007194240577519
0.058341432362795,0.007194234058261
0.075474523007870,0.007194243837148
-0.096050255000591,0.007194243837148
-0.040425393730402,0.007194244302809
-0.013611713424325,0.007194241043180
-0.079025223851204,0.007194243837148
-0.035878993570805,0.007194243837148
-0.086892560124397,0.007194242905825
-0.076364137232304,0.007194241043180
-0.014558721333742,0.007194243837148
-0.049030654132366,0.007194243837148
0.032538805156946,0.007194242905825
0.017983578145504,0.007194244302809
-0.047552350908518,0.007194240577519
0.037661720067263,0.007194240577519
-0.036992449313402,0.007194238714874
-0.038744598627090,0.007194242440164
0.026153810322285,0.007194243837148
0.092407494783401,0.007194243837148
0.062763832509518,0.007194243837148
-0.052891761064529,0.007194236386567
0.067172616720200,0.007194236386567
0.012288531288505,0.007194236386567
0.000847431248985,0.007194236386567
-0.013133613392711,0.007194236386567
0.022527636960149,0.007194236386567
-0.060994368046522,0.007194236386567
0.028612827882171,0.007194236386567
-0.061303842812777,0.007194237317890
-0.019496142864227,0.007194227073342
0.013989228755236,0.007194227073342
-0.037079494446516,0.007194227539003
0.000282259134110,0.007194244302809
-0.074656389653683,0.007194244302809
-0.068039678037167,0.007194244302809
-0.026550343260169,0.007194244302809
0.005858004093170,0.007194244302809
-0.028499023988843,0.007194244302809
0.074866734445095,0.007194244302809
0.024880548939109,0.007194244302809
-0.118276804685593,0.007194244302809
-0.120244935154915,0.007194244302809
0.004158381838351,0.007194244302809
-0.028203951194882,0.007194244302809
0.014531087130308,0.007194244302809
-0.089358747005463,0.007194244302809
-0.048743866384029,0.007194244302809
-0.063450075685978,0.007194244302809
-0.114291988313198,0.007194244302809
-0.161331489682198,0.007194244302809
0.008992715738714,0.007194244302809
-0.014323462732136,0.007194244302809
-0.204849004745483,0.007194244302809
0.018882803618908,0.007194244302809
-0.013323951512575,0.007194244302809
0.092535212635994,0.007194244302809
0.113402523100376,0.007194244302809
0.028363626450300,0.007194244302809
-0.069283515214920,0.007194244302809
0.039253130555153,0.007194244302809
0.026860956102610,0.007194244302809
-0.010378787294030,0.007194244302809
-0.023749805986881,0.007194244302809
0.058377213776112,0.007194244302809
0.132935717701912,0.007194244302809
-0.052906282246113,0.007194244302809
-0.006235211621970,0.007194244302809
-0.195336028933525,0.007194244302809
-0.141603887081146,0.007194244302809
-0.084611609578133,0.007194244302809
0.046447373926640,0.007194244302809
-0.132600381970406,0.007194244302809
-0.035506218671799,0.007194244302809
-0.011627947911620,0.007194244302809
-0.038970991969109,0.007194244302809
0.061146743595600,0.007194244302809
-0.089800789952278,0.007194244302809
-0.008125900290906,0.007194244302809
-0.073190964758396,0.007194244302809
-0.125611156225204,0.007194244302809
0.004354567267001,0.007194244302809
0.087893664836884,0.007194244302809
0.005695599131286,0.007194244302809
0.121427267789841,0.007194244302809
-0.081778705120087,0.007194244302809
0.013933138921857,0.007194244302809
0.014803466387093,0.007194244302809
0.013729292899370,0.007194244302809
-0.120372973382473,0.007194244302809
0.047586381435394,0.007194244302809
0.003216085722670,0.007194244302809
-0.017666893079877,0.007194244302809
0.161405473947525,0.007194244302809
-0.054059833288193,0.007194244302809
0.068180598318577,0.007194244302809
-0.068292446434498,0.007194244302809
0.027970476076007,0.007194244302809
0.161417141556740,0.007194244302809
-0.081320494413376,0.007194244302809
0.161850929260254,0.007194244302809
-0.246902927756310,0.007194244302809
0.007168012671173,0.007194244302809
0.034993723034859,0.007194244302809
0.103735864162445,0.007194244302809
-0.096198290586472,0.007194244302809
-0.321228176355362,0.007194244302809
-0.028966769576073,0.007194244302809
-0.040742024779320,0.007194244302809
0.181194782257080,0.007194244302809
-0.115927465260029,0.007194244302809
-0.032572731375694,0.007194244302809
0.002370378002524,0.007194244302809
0.046217173337936,0.007194244302809
-0.015377303585410,0.007194244302809
-0.019551815465093,0.007194244302809
-0.183367356657982,0.007194244302809
-0.068740554153919,0.007194244302809
-0.018011208623648,0.007194244302809
-0.026207018643618,0.007194244302809
0.109673708677292,0.007194244302809
-0.071899473667145,0.007194244302809
0.074740156531334,0.007194244302809
0.016035625711083,0.007194244302809
-0.043821364641190,0.007194244302809
0.075699627399445,0.007194244302809
-0.020646665245295,0.007194244302809
0.199337959289551,0.007194244302809
0.034506134688854,0.007194244302809
-0.126962944865227,0.007194244302809
-0.059921845793724,0.007194244302809
0.024434600025415,0.007194244302809
0.027642432600260,0.007194244302809
-0.065601371228695,0.007194244302809
0.018711308017373,0.007194244302809
0.088119417428970,0.007194244302809
-0.015298965387046,0.007194244302809
-0.042871329933405,0.007194244302809
-0.069476723670959,0.007194244302809
0.045093536376953,0.007194244302809
-0.023166939616203,0.007194244302809
-0.001827132422477,0.007194244302809
-0.173280462622643,0.007194244302809
-0.088789336383343,0.007194244302809
-0.075324036180973,0.007194244302809
-0.029452919960022,0.007194244302809
-0.024694783613086,0.007194244302809
0.037051234394312,0.007194244302809
-0.102312684059143,0.007194244302809
0.059414993971586,0.007194244302809
-0.011757577769458,0.007194244302809
-0.009963001124561,0.007194244302809
-0.069417841732502,0.007194244302809
0.016891065984964,0.007194244302809
0.001630162587389,0.007194244302809
-0.055074106901884,0.007194244302809
0.001477106357925,0.007194244302809
-0.087007723748684,0.007194244302809
0.037176560610533,0.007194244302809
-0.011872054077685,0.007194244302809
-0.006742530968040,0.007194244302809
-0.012878703884780,0.007194244302809
-0.087808109819889,0.007194244302809
-0.037644743919373,0.007194244302809
-0.155777394771576,0.007194244302809
-0.182793796062469,0.007194244302809
0.120854802429676,0.007194244302809
0.047516021877527,0.007194244302809
0.020312698557973,0.007194244302809
-0.054747391492128,0.007194244302809
0.055147081613541,0.007194244302809
0.173274070024490,0.007194244302809
0.103321000933647,0.007194244302809
0.030738897621632,0.007194244302809
-0.108640417456627,0.007194244302809
-0.078175209462643,0.007194244302809
-0.115015052258968,0.007194244302809
0.080081529915333,0.007194244302809
-0.045375101268291,0.007194244302809
-0.064433924853802,0.007194244302809
0.037151370197535,0.007194244302809
0.087293334305286,0.007194244302809
-0.103259265422821,0.007194244302809
-0.068014435470104,0.007194244302809
-0.231346815824509,0.007194244302809
0.156700953841209,0.007194244302809
0.043227691203356,0.007194244302809
-0.080586291849613,0.007194244302809
-0.085035361349583,0.007194244302809
-0.038267295807600,0.007194244302809
-0.042496059089899,0.007194244302809
0.150412231683731,0.007194244302809
0.083889029920101,0.007194244302809
-0.084736987948418,0.007194244302809
0.078785464167595,0.007194244302809
0.105479240417480,0.007194244302809
0.056519854813814,0.007194244302809
0.056502789258957,0.007194244302809
0.079607188701630,0.007194244302809
0.040881820023060,0.007194244302809
-0.130982622504234,0.007194244302809
-0.132735103368759,0.007194244302809
0.036632519215345,0.007194244302809
0.055823877453804,0.007194244302809
0.024585291743279,0.007194244302809
-0.069880962371826,0.007194244302809
-0.043500903993845,0.007194244302809
-0.043417554348707,0.007194244302809
0.185585528612137,0.007194244302809
-0.006282536312938,0.007194244302809
0.086132429540157,0.007194244302809
-0.006722924299538,0.007194244302809
0.074575945734978,0.007194244302809
-0.058109655976295,0.007194244302809
-0.099145613610744,0.007194244302809
0.060135733336210,0.007194244302809
-0.054076667875051,0.007194244302809
0.146090045571327,0.007194244302809
0.143698468804359,0.007194244302809
-0.030556708574295,0.007194244302809
-0.061654906719923,0.007194244302809
-0.069619983434677,0.007194244302809
0.034473288804293,0.007194244302809
0.048634324222803,0.007194244302809
0.019770629703999,0.007194244302809
0.000943881226704,0.007194244302809
0.108133263885975,0.007194244302809
-0.193724200129509,0.007194244302809
-0.044683873653412,0.007194244302809
0.057317901402712,0.007194244302809
0.149926036596298,0.007194244302809
0.010117802768946,0.007194244302809
0.129800692200661,0.007194244302809
-0.101256102323532,0.007194244302809
0.005497416947037,0.007194244302809
0.147440537810326,0.007194244302809
-0.156170800328255,0.007194244302809
0.057859409600496,0.007194244302809
-0.122295841574669,0.007194244302809
0.132505834102631,0.007194244302809
0.069053567945957,0.007194244302809
-0.017107974737883,0.007194244302809
-0.071204997599125,0.007194244302809
0.097271896898746,0.007194244302809
-0.061490155756474,0.007194244302809
0.030465053394437,0.007194244302809
-0.061488926410675,0.007194244302809
0.132174819707870,0.007194244302809
-0.141810998320580,0.007194244302809
0.022433914244175,0.007194244302809
0.097673505544662,0.007194244302809
0.067460179328918,0.007194244302809
0.022330576553941,0.007194244302809
0.006665119901299,0.007194244302809
0.010586989112198,0.007194244302809
0.017738122493029,0.007194244302809
-0.103798374533653,0.007194244302809
0.083562038838863,0.007194244302809
-0.186606273055077,0.007194244302809
0.059106454253197,0.007194244302809
0.133698731660843,0.007194244302809
-0.076380617916584,0.007194244302809
-0.015719946473837,0.007194244302809
-0.052584756165743,0.007194244302809
0.024548344314098,0.007194244302809
0.160433202981949,0.007194244302809
0.096555933356285,0.007194244302809
0.073262393474579,0.007194244302809
-0.067773878574371,0.007194244302809
-0.042715314775705,0.007194244302809
0.051058921962976,0.007194244302809
-0.239329829812050,0.007194244302809
-0.018078235909343,0.007194244302809
-0.009235554374754,0.007194244302809
0.099239610135555,0.007194244302809
-0.054339509457350,0.007194244302809
-0.043471410870552,0.007194244302809
-0.172532573342323,0.007194244302809
-0.121934115886688,0.007194244302809
-0.045907467603683,0.007194244302809
0.132763698697090,0.007194244302809
0.075873665511608,0.007194244302809
-0.074102126061916,0.007194244302809
-0.021263236179948,0.007194244302809
0.013043480925262,0.007194244302809
0.027578445151448,0.007194244302809
0.037336304783821,0.007194244302809
-0.004442707635462,0.007194244302809
0.057311717420816,0.007194244302809
-0.075287610292435,0.007194244302809
-0.114300198853016,0.007194244302809
-0.056972436606884,0.007194244302809
0.036712221801281,0.007194244302809
0.060959298163652,0.007194244302809
0.033502377569675,0.007194244302809
-0.124606840312481,0.007194244302809
-0.028755981475115,0.007194244302809
-0.233384579420090,0.007194244302809
0.018915683031082,0.007194244302809
-0.061141975224018,0.007194244302809
0.146371588110924,0.007194244302809
-0.063286073505878,0.007194244302809
-0.099155277013779,0.007194244302809
-0.112527020275593,0.007194244302809
0.023437505587935,0.007194244302809
-0.102926179766655,0.007194244302809
0.000344424828654,0.007194244302809
-0.017813576385379,0.007194244302809
0.087647065520287,0.007194244302809
-0.030325075611472,0.007194244302809
-0.031946137547493,0.007194244302809
0.047653134912252,0.007194244302809
0.086523994803429,0.007194244302809
-0.000784961099271,0.007194244302809
-0.027846332639456,0.007194244302809
-0.016499605029821,0.007194244302809
0.001442902721465,0.007194244302809
0.068203732371330,0.007194244302809
-0.063903868198395,0.007194244302809
0.012863082811236,0.007194244302809
-0.023328108713031,0.007194244302809
0.046824470162392,0.007194244302809
0.124844402074814,0.007194244302809
-0.009838350117207,0.007194244302809
0.032509710639715,0.007194244302809
-0.079996310174465,0.007194244302809
0.111709065735340,0.007194244302809
0.178684309124947,0.007194244302809
0.017447067424655,0.007194244302809
-0.060345273464918,0.007194244302809
0.140200078487396,0.007194244302809
-0.057050868868828,0.007194244302809
-0.020430071279407,0.007194244302809
-0.099677823483944,0.007194244302809
-0.124631874263287,0.007194244302809
-0.098224237561226,0.007194244302809
0.004026060923934,0.007194244302809
0.063333116471767,0.007194244302809
-0.026284782215953,0.007194244302809
-0.084517166018486,0.007194244302809
0.012661004438996,0.007194244302809
0.038571458309889,0.007194244302809
0.020279377698898,0.007194244302809
0.053651027381420,0.007194244302809
-0.083153776824474,0.007194244302809
-0.096311435103416,0.007194244302809
-0.122046560049057,0.007194244302809
-0.023122921586037,0.007194244302809
-0.001162311295047,0.007194244302809
0.057262718677521,0.007194244302809
0.061523199081421,0.007194244302809
-0.055521745234728,0.007194244302809
0.073238655924797,0.007194244302809
0.050379402935505,0.007194244302809
0.003566702594981,0.007194244302809
-0.020903635770082,0.007194244302809
-0.079158775508404,0.007194244302809
0.055126968771219,0.007194244302809
0.180039033293724,0.007194244302809
-0.000378638011171,0.007194244302809
0.079516798257828,0.007194244302809
0.055784292519093,0.007194244302809
0.148446202278137,0.007194244302809
0.033300377428532,0.007194244302809
0.012350022792816,0.007194244302809
-0.069078832864761,0.007194244302809
-0.048103053122759,0.007194244302809
-0.128366872668266,0.007194244302809
-0.050032094120979,0.007194244302809
0.094102032482624,0.007194244302809
0.003288274165243,0.007194244302809
0.073423780500889,0.007194244302809
-0.104900017380714,0.007194244302809
0.033794909715652,0.007194244302809
0.142428994178772,0.007194244302809
0.005270455963910,0.007194244302809
0.041899878531694,0.007194244302809
0.059673648327589,0.007194244302809
0.080271974205971,0.007194244302809
0.130616083741188,0.007194244302809
-0.056827295571566,0.007194244302809
-0.062591291964054,0.007194244302809
0.107618130743504,0.007194244302809
-0.048463866114616,0.007194244302809
0.020459918305278,0.007194244302809
-0.023669024929404,0.007194244302809
-0.015200002118945,0.007194244302809
-0.021844729781151,0.007194244302809
-0.178740918636322,0.007194244302809
0.209997549653053,0.007194244302809
0.007480693515390,0.007194244302809
-0.047190025448799,0.007194244302809
0.009066917933524,0.007194244302809
-0.074737846851349,0.007194244302809
-0.164732724428177,0.007194244302809
0.116447813808918,0.007194244302809
0.096781231462955,0.007194244302809
0.042399477213621,0.007194244302809
0.002071127528325,0.007194244302809
-0.031867213547230,0.007194244302809
0.172337993979454,0.007194244302809
0.008437246084213,0.007194244302809
-0.026335798203945,0.007194244302809
0.055237289518118,0.007194244302809
0.097564265131950,0.007194244302809
-0.004191467538476,0.007194244302809
0.068764723837376,0.007194244302809
0.087539270520210,0.007194244302809
0.039096765220165,0.007194244302809
-0.042787518352270,0.007194244302809
-0.040187098085880,0.007194244302809
0.046654365956783,0.007194244302809
-0.108582586050034,0.007194244302809
-0.319064080715179,0.007194244302809
-0.009221510030329,0.007194244302809
0.023077603429556,0.007194244302809
0.213505432009697,0.007194244302809
0.055700182914734,0.007194244302809
0.075460813939571,0.007194244302809
-0.049264762550592,0.007194244302809
-0.009126883000135,0.007194244302809
0.047933097928762,0.007194244302809
-0.014443657360971,0.007194244302809
-0.011770199052989,0.007194244302809
0.047932881861925,0.007194244302809
-0.004121844656765,0.007194244302809
0.166865691542625,0.007194244302809
0.101764969527721,0.007194244302809
-0.138855516910553,0.007194244302809
-0.065887078642845,0.007194244302809
-0.058205686509609,0.007194244302809
0.032869383692741,0.007194244302809
0.056860756129026,0.007194244302809
-0.049167573451996,0.007194244302809
-0.043498627841473,0.007194244302809
-0.026913261041045,0.007194244302809
-0.073439598083496,0.007194244302809
-0.168236106634140,0.007194244302809
0.015671027824283,0.007194244302809
0.005105337128043,0.007194244302809
-0.080660648643970,0.007194244302809
-0.061390221118927,0.007194244302809
-0.225096911191940,0.007194244302809
-0.046758349984884,0.007194244302809
-0.111962288618088,0.007194244302809
-0.105860397219658,0.007194244302809
-0.037483997642994,0.007194244302809
0.078012004494667,0.007194244302809
0.059739299118519,0.007194244302809
-0.040992263704538,0.007194244302809
0.067924171686172,0.007194244302809
-0.065738059580326,0.007194244302809
0.009073040448129,0.007194244302809
0.037808161228895,0.007194244302809
0.079621009528637,0.007194244302809
-0.071899615228176,0.007194244302809
0.206334024667740,0.007194244302809
-0.168305948376656,0.007194244302809
-0.115328930318356,0.007194244302809
0.064476527273655,0.007194244302809
0.125830084085464,0.007194244302809
-0.065077669918537,0.007194244302809
-0.078913107514381,0.007194244302809
-0.002089892514050,0.007194244302809
0.053976465016603,0.007194244302809
0.101099319756031,0.007194244302809
-0.062636606395245,0.007194244302809
0.034675050526857,0.007194244302809
-0.247020915150642,0.007194244302809
-0.071475319564342,0.007194244302809
0.052879311144352,0.007194244302809
0.172742545604706,0.007194244302809
0.017420576885343,0.007194244302809
0.075351379811764,0.007194244302809
-0.107436500489712,0.007194244302809
-0.016088644042611,0.007194244302809
0.086498662829399,0.007194244302809
0.076164223253727,0.007194244302809
-0.226653903722763,0.007194244302809
0.054194897413254,0.007194244302809
0.060040604323149,0.007194244302809
0.103695549070835,0.007194244302809
0.083407551050186,0.007194244302809
-0.028458861634135,0.007194244302809
0.004923546221107,0.007194244302809
0.106785699725151,0.007194244302809
0.041094496846199,0.007194244302809
0.084900632500648,0.007194244302809
0.094967581331730,0.007194244302809
-0.017953721806407,0.007194244302809
-0.103352434933186,0.007194244302809
-0.189823910593987,0.007194244302809
0.009344373829663,0.007194244302809
0.002496765460819,0.007194244302809
-0.092547714710236,0.007194244302809
0.068030171096325,0.007194244302809
0.054887186735868,0.007194244302809
0.074430242180824,0.007194244302809
0.062095709145069,0.007194244302809
-0.068487673997879,0.007194244302809
0.039599251002073,0.007194244302809
-0.089790962636471,0.007194244302809
0.073010787367821,0.007194244302809
0.021868588402867,0.007194244302809
-0.041135523468256,0.007194244302809
-0.168781504034996,0.007194244302809
0.007961173541844,0.007194244302809
-0.010366298258305,0.007194244302809
0.116783812642097,0.007194244302809
-0.051956404000521,0.007194244302809
0.000476884801174,0.007194244302809
-0.059910599142313,0.007194244302809
0.145861357450485,0.007194244302809
0.042561504989862,0.007194244302809
0.019649526104331,0.007194244302809
-0.052868738770485,0.007194244302809
-0.101036369800568,0.007194244302809
-0.044374369084835,0.007194244302809
-0.065643385052681,0.007194244302809
-0.112614318728447,0.007194244302809
0.074111796915531,0.007194244302809
-0.066157311201096,0.007194244302809
0.042036719620228,0.007194244302809
0.008321259170771,0.007194244302809
0.154214709997177,0.007194244302809
-0.097446024417877,0.007194244302809
-0.208738237619400,0.007194244302809
-0.122835606336594,0.007194244302809
0.022267716005445,0.007194244302809
0.087666399776936,0.007194244302809
0.065627329051495,0.007194244302809
-0.033125232905149,0.007194244302809
0.152667254209518,0.007194244302809
-0.060987669974566,0.007194244302809
-0.085453018546104,0.007194244302809
-0.011413489468396,0.007194244302809
0.027708427980542,0.007194244302809
0.031559165567160,0.007194244302809
0.002382053295150,0.007194244302809
-0.014200291596353,0.007194244302809
0.094401471316814,0.007194244302809
0.043654892593622,0.007194244302809
-0.154517024755478,0.007194244302809
0.010298254899681,0.007194244302809
0.020589934661984,0.007194244302809
0.030749412253499,0.007194242905825
-0.009509341791272,0.007194243371487
-0.119934119284153,0.007194243371487
-0.055303692817688,0.007194243371487
-0.068496502935886,0.007194229867309
0.018010113388300,0.007194229867309
-0.061710007488728,0.007194229867309
-0.102706633508205,0.007194229867309
-0.196329817175865,0.007194229867309
-0.089192643761635,0.007194229867309
0.004064559005201,0.007194229867309
-0.041307706385851,0.007194229867309
-0.124102607369423,0.007194223348051
0.055039003491402,0.007194218691438
-0.039717748761177,0.007194218691438
0.131653696298599,0.007194220088422
-0.118782311677933,0.007194244302809
-0.125055789947510,0.007194244302809
-0.039345029741526,0.007194244302809
0.041264344006777,0.007194244302809
-0.020889751613140,0.007194244302809
-0.125594615936279,0.007194244302809
-0.084239833056927,0.007194244302809
0.126506447792053,0.007194244302809
-0.038451291620731,0.007194244302809
0.011745218187571,0.007194244302809
-0.023096647113562,0.007194244302809
-0.156743124127388,0.007194244302809
0.050065357238054,0.007194244302809
0.059941459447145,0.007194243837148
-0.010106276720762,0.007194243837148
0.037318874150515,0.007194244302809
-0.073510810732841,0.007194244302809
0.093080393970013,0.007194243837148
-0.019136210903525,0.007194243837148
0.039758637547493,0.007194242905825
0.093742087483406,0.007194244302809
-0.003688704920933,0.007194244302809
-0.054749026894569,0.007194244302809
0.076423600316048,0.007194244302809
-0.063482277095318,0.007194244302809
0.016794733703136,0.007194244302809
0.023047100752592,0.007194244302809
0.038799047470093,0.007194244302809
0.084654830396175,0.007194244302809
0.032153874635696,0.007194244302809
0.041509117931128,0.007194244302809
-0.069882132112980,0.007194244302809
0.047932822257280,0.007194244302809
-0.049379706382751,0.007194244302809
-0.043115559965372,0.007194244302809
0.042147811502218,0.007194244302809
0.074299670755863,0.007194243837148
-0.185980618000031,0.007194243837148
0.056581765413284,0.007194243837148
-0.096493035554886,0.007194243837148
-0.078184351325035,0.007194243837148
-0.178490981459618,0.007194243837148
0.012570281513035,0.007194243837148
0.054899610579014,0.007194243837148
0.126632466912270,0.007194243371487
-0.093422241508961,0.007194242905825
0.029332106932998,0.007194242905825
-0.125778242945671,0.007194242905825
-0.029144326224923,0.007194244302809
0.096503414213657,0.007194244302809
0.084075599908829,0.007194244302809
-0.037008501589298,0.007194244302809
-0.176284462213516,0.007194244302809
0.037199757993221,0.007194244302809
-0.033019486814737,0.007194244302809
0.025775203481317,0.007194244302809
0.052462123334408,0.007194244302809
0.043244518339634,0.007194244302809
-0.021453633904457,0.007194244302809
0.008432728238404,0.007194244302809
-0.087469272315502,0.007194244302809
0.071769632399082,0.007194244302809
-0.084183387458324,0.007194244302809
-0.055951714515686,0.007194244302809
0.067223198711872,0.007194238714874
-0.045509774237871,0.007194243837148
-0.073635563254356,0.007194243837148
0.025410100817680,0.007194243837148
0.020965348929167,0.007194243837148
-0.120900914072990,0.007194242905825
-0.075032189488411,0.007194242905825
-0.030763451009989,0.007194243371487
-0.017584841698408,0.007194243837148
-0.061053942888975,0.007194242905825
-0.026162980124354,0.007194242905825
-0.020310778170824,0.007194243371487
0.103686399757862,0.007194244302809
-0.152600929141045,0.007194242905825
0.086656913161278,0.007194242905825
-0.045112594962120,0.007194243371487
-0.073019020259380,0.007194241508842
0.101722218096256,0.007194244302809
0.038352690637112,0.007194244302809
0.152311503887177,0.007194244302809
-0.059022765606642,0.007194243371487
0.027612114325166,0.007194244302809
0.038359548896551,0.007194244302809
-0.106335930526257,0.007194243837148
-0.013158957473934,0.007194243371487
0.045039314776659,0.007194244302809
0.012696563266218,0.007194244302809
-0.027934452518821,0.007194243837148
-0.132523044943810,0.007194244302809
-0.190526217222214,0.007194243371487
0.042888730764389,0.007194243371487
-0.038957595825195,0.007194242440164
0.006404569838196,0.007194243837148
0.088076740503311,0.007194244302809
0.077074207365513,0.007194244302809
0.016324805095792,0.007194244302809
0.026497200131416,0.007194241974503
-0.037418592721224,0.007194241974503
-0.103622980415821,0.007194241974503
0.093659915030003,0.007194241974503
-0.016674498096108,0.007194241974503
-0.052800934761763,0.007194241974503
0.156066030263901,0.007194241974503
-0.050919070839882,0.007194241974503
0.004904692526907,0.007194241974503
-0.063112638890743,0.007194239180535
0.039971135556698,0.007194239180535
0.075091063976288,0.007194239180535
0.045838847756386,0.007194244302809
-0.061198521405458,0.007194244302809
0.061914708465338,0.007194244302809
-0.004666322376579,0.007194244302809
-0.190292343497276,0.007194244302809
0.112257272005081,0.007194244302809
-0.009807697497308,0.007194244302809
0.147209882736206,0.007194244302809
-0.123621962964535,0.007194244302809
-0.010270223021507,0.007194244302809
0.175267338752747,0.007194244302809
-0.029609188437462,0.007194244302809
0.012370198965073,0.007194244302809
0.061270125210285,0.007194244302809
0.019186791032553,0.007194244302809
-0.038716945797205,0.007194244302809
0.113972082734108,0.007194244302809
-0.174474999308586,0.007194244302809
0.096056923270226,0.007194244302809
-0.031682685017586,0.007194244302809
0.062278121709824,0.007194244302809
0.052222650498152,0.007194244302809
0.122686631977558,0.007194244302809
-0.059385742992163,0.007194244302809
-0.029029352590442,0.007194244302809
-0.083453088998795,0.007194244302809
-0.077225029468536,0.007194244302809
0.019854454323649,0.007194244302809
-0.085672132670879,0.007194244302809
0.058844193816185,0.007194244302809
-0.004497903864831,0.007194244302809
0.171280547976494,0.007194244302809
0.095312409102917,0.007194244302809
-0.095432952046394,0.007194244302809
-0.056819390505552,0.007194244302809
-0.023108284920454,0.007194244302809
0.030343117192388,0.007194244302809
-0.037034001201391,0.007194244302809
-0.005226343870163,0.007194244302809
-0.100052662193775,0.007194244302809
-0.089357994496822,0.007194244302809
-0.024415392428637,0.007194244302809
-0.021081376820803,0.007194244302809
-0.054826151579618,0.007194244302809
0.061103850603104,0.007194244302809
-0.097059503197670,0.007194244302809
0.067512802779675,0.007194244302809
-0.031513873487711,0.007194244302809
0.097605556249619,0.007194244302809
0.025145035237074,0.007194244302809
-0.209987863898277,0.007194244302809
-0.075249873101711,0.007194244302809
-0.140051275491714,0.007194244302809
0.163247004151344,0.007194244302809
0.005718158558011,0.007194244302809
0.008847471326590,0.007194244302809
0.109405234456062,0.007194244302809
0.179417133331299,0.007194244302809
0.158116281032562,0.007194244302809
0.022290401160717,0.007194244302809
-0.063116684556007,0.007194244302809
-0.049688234925270,0.007194244302809
0.094219185411930,0.007194244302809
-0.030785270035267,0.007194244302809
-0.011026727035642,0.007194244302809
0.158626750111580,0.007194244302809
0.037134680896997,0.007194244302809
-0.051515117287636,0.007194244302809
0.100933887064457,0.007194244302809
0.153989434242249,0.007194244302809
0.055409308522940,0.007194244302809
0.066103376448154,0.007194244302809
0.005224543157965,0.007194244302809
0.173777222633362,0.007194244302809
0.090227790176868,0.007194244302809
0.074284799396992,0.007194244302809
0.149221345782280,0.007194244302809
-0.051889460533857,0.007194244302809
-0.041272889822721,0.007194244302809
0.027200929820538,0.007194244302809
0.101730190217495,0.007194244302809
-0.005024055019021,0.007194244302809
0.035659082233906,0.007194244302809
-0.127921730279922,0.007194244302809
-0.061477746814489,0.007194244302809
0.065394446253777,0.007194244302809
-0.097032137215137,0.007194244302809
-0.004832366481423,0.007194244302809
0.150027930736542,0.007194244302809
-0.101619608700275,0.007194244302809
0.057096898555756,0.007194244302809
0.086513638496399,0.007194244302809
0.102378457784653,0.007194244302809
-0.020473342388868,0.007194244302809
-0.057912819087505,0.007194244302809
0.113229818642139,0.007194244302809
-0.082092374563217,0.007194244302809
0.050542414188385,0.007194244302809
0.062251988798380,0.007194244302809
0.058517865836620,0.007194244302809
-0.074412271380424,0.007194244302809
0.049688406288624,0.007194244302809
-0.042529299855232,0.007194244302809
0.081240512430668,0.007194244302809
0.156641960144043,0.007194244302809
0.004703834652901,0.007194244302809
-0.053487509489059,0.007194244302809
0.059835549443960,0.007194244302809
0.015128249302506,0.007194244302809
0.051723621785641,0.007194244302809
-0.127131223678589,0.007194244302809
0.062868751585484,0.007194244302809
0.002500230446458,0.007194244302809
0.049545623362064,0.007194244302809
0.109140239655972,0.007194244302809
0.131905570626259,0.007194244302809
0.069476254284382,0.007194244302809
0.004953203257173,0.007194244302809
-0.006493681576103,0.007194244302809
0.102637909352779,0.007194244302809
0.120363175868988,0.007194244302809
0.075068622827530,0.007194244302809
0.117471002042294,0.007194244302809
-0.071198098361492,0.007194244302809
0.057198528200388,0.007194244302809
-0.068937554955482,0.007194244302809
-0.106509439647198,0.007194244302809
-0.031028892844915,0.007194244302809
0.103408850729465,0.007194244302809
0.172048524022102,0.007194244302809
-0.051639530807734,0.007194244302809
0.043189197778702,0.007194244302809
0.073889948427677,0.007194244302809
0.007528249174356,0.007194244302809
0.052168563008308,0.007194244302809
-0.037500385195017,0.007194244302809
0.111852288246155,0.007194244302809
0.068703889846802,0.007194244302809
-0.000688816478942,0.007194244302809
-0.098604075610638,0.007194244302809
0.076691091060638,0.007194244302809
-0.016664173454046,0.007194244302809
-0.002425818471238,0.007194244302809
0.105030946433544,0.007194244302809
-0.058912768959999,0.007194244302809
0.071173548698425,0.007194244302809
-0.001928689423949,0.007194244302809
0.028526717796922,0.007194244302809
-0.071731470525265,0.007194244302809
0.074482388794422,0.007194244302809
-0.039325013756752,0.007194244302809
0.042514871805906,0.007194244302809
0.091171294450760,0.007194244302809
0.043889869004488,0.007194244302809
-0.036974947899580,0.007194244302809
-0.051940020173788,0.007194244302809
-0.029517499729991,0.007194244302809
0.159254342317581,0.007194244302809
0.045505300164223,0.007194244302809
0.090832680463791,0.007194244302809
0.030506385490298,0.007194244302809
-0.028036490082741,0.007194244302809
0.081795439124107,0.007194244302809
-0.056940004229546,0.007194244302809
0.074710234999657,0.007194244302809
-0.019384814426303,0.007194244302809
-0.013498843647540,0.007194244302809
-0.003026337828487,0.007194244302809
0.065813422203064,0.007194244302809
0.138859689235687,0.007194244302809
0.071082808077335,0.007194244302809
-0.130332991480827,0.007194244302809
0.099837593734264,0.007194244302809
0.049942258745432,0.007194244302809
-0.100918784737587,0.007194244302809
0.134461164474487,0.007194244302809
0.045687466859818,0.007194244302809
0.041207317262888,0.007194244302809
0.067163504660130,0.007194244302809
-0.019130526110530,0.007194244302809
-0.059356756508350,0.007194244302809
-0.020662620663643,0.007194244302809
-0.043169580399990,0.007194244302809
0.198505893349648,0.007194244302809
0.043604690581560,0.007194244302809
0.187312141060829,0.007194244302809
0.042448889464140,0.007194244302809
0.006072923075408,0.007194244302809
-0.014125217683613,0.007194244302809
-0.131387904286385,0.007194244302809
0.085327938199043,0.007194244302809
0.153161630034447,0.007194244302809
-0.034113436937332,0.007194244302809
-0.026394316926599,0.007194244302809
0.009545342996716,0.007194244302809
0.036872208118439,0.007194244302809
0.154552102088928,0.007194244302809
0.154992505908012,0.007194244302809
-0.126811310648918,0.007194244302809
0.027574885636568,0.007194244302809
-0.066279157996178,0.007194244302809
-0.025864133611321,0.007194244302809
-0.083542421460152,0.007194244302809
0.014370382763445,0.007194244302809
-0.091339081525803,0.007194244302809
0.127884432673454,0.007194244302809
0.087712645530701,0.007194244302809
-0.052049282938242,0.007194244302809
0.092549592256546,0.007194244302809
-0.059371437877417,0.007194244302809
0.140715271234512,0.007194244302809
-0.186020672321320,0.007194244302809
0.056090313941240,0.007194244302809
0.029568487778306,0.007194244302809
-0.002923975000158,0.007194244302809
0.072140134871006,0.007194244302809
-0.169507727026939,0.007194244302809
0.044903516769409,0.007194244302809
0.046241540461779,0.007194244302809
0.167863830924034,0.007194244302809
0.126123085618019,0.007194244302809
0.051409687846899,0.007194244302809
-0.061486508697271,0.007194244302809
0.052517138421535,0.007194244302809
0.001976066967472,0.007194244302809
0.004040240775794,0.007194244302809
-0.040484979748726,0.007194244302809
0.047842290252447,0.007194244302809
-0.026723837479949,0.007194244302809
-0.025428868830204,0.007194244302809
-0.054183196276426,0.007194244302809
-0.101774282753468,0.007194244302809
-0.045264940708876,0.007194244302809
0.142914354801178,0.007194244302809
-0.007574625778943,0.007194244302809
-0.059272915124893,0.007194244302809
0.185520470142365,0.007194244302809
-0.029443364590406,0.007194244302809
-0.075615338981152,0.007194244302809
-0.016327397897840,0.007194244302809
0.147696495056152,0.007194244302809
-0.049201361835003,0.007194244302809
-0.105576507747173,0.007194244302809
0.142362311482430,0.007194244302809
-0.134527325630188,0.007194244302809
0.100777082145214,0.007194244302809
0.016231786459684,0.007194244302809
0.019285738468170,0.007194244302809
-0.057651251554489,0.007194244302809
0.029769189655781,0.007194244302809
0.014636345207691,0.007194244302809
0.000383715174394,0.007194244302809
-0.000950699031819,0.007194244302809
-0.032214444130659,0.007194244302809
0.037790827453136,0.007194244302809
0.240209266543388,0.007194244302809
-0.127616524696350,0.007194244302809
-0.011179160326719,0.007194244302809
-0.035350985825062,0.007194244302809
-0.001559846103191,0.007194244302809
-0.050489354878664,0.007194244302809
0.016578856855631,0.007194244302809
0.009246115572751,0.007194244302809
0.057411290705204,0.007194244302809
0.002605368848890,0.007194244302809
0.026162620633841,0.007194244302809
0.029093697667122,0.007194244302809
0.048288598656654,0.007194244302809
0.047548849135637,0.007194244302809
-0.119955904781818,0.007194244302809
0.205193623900414,0.007194244302809
0.050995163619518,0.007194244302809
-0.029562663286924,0.007194244302809
-0.125211358070374,0.007194244302809
-0.004519594833255,0.007194244302809
0.089415997266769,0.007194244302809
-0.003421059343964,0.007194244302809
-0.054101318120956,0.007194244302809
-0.000496223976370,0.007194244302809
-0.023543646559119,0.007194244302809
-0.082441285252571,0.007194244302809
0.148433044552803,0.007194244302809
-0.102952942252159,0.007194244302809
-0.052925143390894,0.007194244302809
0.078552365303040,0.007194244302809
0.027323525398970,0.007194244302809
-0.069009840488434,0.007194244302809
0.065846003592014,0.007194244302809
0.055510431528091,0.007194244302809
-0.044079694896936,0.007194244302809
-0.049554478377104,0.007194244302809
-0.055836312472820,0.007194244302809
0.083368867635727,0.007194244302809
-0.097872063517570,0.007194244302809
-0.097320489585400,0.007194244302809
0.136470809578896,0.007194244302809
-0.027146998792887,0.007194244302809
0.219612494111061,0.007194244302809
-0.007714820094407,0.007194244302809
0.108120523393154,0.007194244302809
0.134597122669220,0.007194244302809
0.009350198321044,0.007194244302809
0.092246510088444,0.007194244302809
-0.093146950006485,0.007194244302809
0.001349824829958,0.007194244302809
0.002376691671088,0.007194244302809
0.081564702093601,0.007194244302809
-0.005329401232302,0.007194244302809
-0.039626162499189,0.007194244302809
-0.061380170285702,0.007194244302809
-0.036900430917740,0.007194244302809
0.060749899595976,0.007194244302809
-0.028058832511306,0.007194244302809
-0.097623281180859,0.007194244302809
0.145915821194649,0.007194244302809
0.005806419067085,0.007194244302809
-0.036657612770796,0.007194244302809
0.020674502477050,0.007194244302809
0.062772199511528,0.007194244302809
0.055470220744610,0.007194244302809
-0.089783266186714,0.007194244302809
0.000236976571614,0.007194244302809
-0.124852418899536,0.007194244302809
0.033536996692419,0.007194244302809
0.203402757644653,0.007194244302809
-0.067040361464024,0.007194244302809
0.029607595875859,0.007194244302809
-0.072133027017117,0.007194244302809
0.022503022104502,0.007194244302809
0.104134902358055,0.007194244302809
0.142996162176132,0.007194244302809
0.031579867005348,0.007194244302809
-0.015256036072969,0.007194244302809
0.063234321773052,0.007194244302809
-0.090351566672325,0.007194244302809
-0.131245151162148,0.007194244302809
-0.086683154106140,0.007194244302809
-0.029214965179563,0.007194244302809
-0.031491193920374,0.007194244302809
0.142865806818008,0.007194244302809
0.021858569234610,0.007194244302809
0.032564777880907,0.007194244302809
0.054822694510221,0.007194244302809
-0.050622668117285,0.007194244302809
-0.031066294759512,0.007194244302809
0.063209801912308,0.007194244302809
-0.074580475687981,0.007194244302809
0.081864491105080,0.007194244302809
-0.034680441021919,0.007194244302809
0.021895697340369,0.007194244302809
0.065999887883663,0.007194244302809
-0.102791346609592,0.007194244302809
0.085102513432503,0.007194244302809
-0.003242343198508,0.007194244302809
0.037541948258877,0.007194244302809
-0.108000807464123,0.007194244302809
0.125203460454941,0.007194244302809
-0.083305634558201,0.007194244302809
-0.051927167922258,0.007194244302809
0.015220802277327,0.007194244302809
0.052343767136335,0.007194244302809
-0.056879170238972,0.007194244302809
-0.047303404659033,0.007194244302809
-0.035285826772451,0.007194244302809
-0.091272883117199,0.007194244302809
0.029896272346377,0.007194244302809
-0.060095455497503,0.007194244302809
0.014253725297749,0.007194244302809
-0.000507478776854,0.007194244302809
-0.048855781555176,0.007194244302809
-0.053484667092562,0.007194244302809
0.013561754487455,0.007194244302809
-0.120261691510677,0.007194244302809
-0.075311496853828,0.007194244302809
0.003860684810206,0.007194244302809
0.034215688705444,0.007194244302809
0.073277324438095,0.007194244302809
0.124796360731125,0.007194244302809
-0.126739427447319,0.007194244302809
0.060244046151638,0.007194244302809
-0.036306723952293,0.007194244302809
-0.122704699635506,0.007194244302809
-0.022749582305551,0.007194244302809
-0.092312656342983,0.007194244302809
0.018016552552581,0.007194244302809
-0.042732983827591,0.007194244302809
0.072399042546749,0.007194244302809
0.031514376401901,0.007194244302809
0.147025689482689,0.007194244302809
-0.200843498110771,0.007194244302809
0.034727264195681,0.007194244302809
-0.094922222197056,0.007194244302809
0.026285029947758,0.007194244302809
0.018683984875679,0.007194244302809
-0.002765296958387,0.007194244302809
0.049524217844009,0.007194244302809
-0.122133284807205,0.007194244302809
-0.004741979762912,0.007194244302809
0.051479749381542,0.007194244302809
0.025188781321049,0.007194244302809
0.127074703574181,0.007194244302809
-0.028088152408600,0.007194244302809
0.063791744410992,0.007194244302809
0.242567181587219,0.007194244302809
-0.032816570252180,0.007194244302809
-0.059663143008947,0.007194244302809
0.099181577563286,0.007194244302809
0.171031191945076,0.007194244302809
-0.016303943470120,0.007194244302809
-0.050215926021338,0.007194244302809
0.047746416181326,0.007194244302809
0.044143162667751,0.007194244302809
-0.059797912836075,0.007194244302809
0.057539351284504,0.007194244302809
-0.022982330992818,0.007194244302809
0.056352265179157,0.007194244302809
0.028297388926148,0.007194244302809
0.070289626717567,0.007194244302809
0.019330769777298,0.007194244302809
-0.028620708733797,0.007194244302809
0.054547779262066,0.007194244302809
-0.002302163280547,0.007194244302809
-0.007803781889379,0.007194244302809
-0.192141264677048,0.007194244302809
-0.060686934739351,0.007194244302809
0.044421479105949,0.007194244302809
0.016659311950207,0.007194244302809
-0.064381517469883,0.007194244302809
0.082400448620319,0.007194244302809
-0.065467506647110,0.007194244302809
-0.135798007249832,0.007194244302809
0.100862272083759,0.007194244302809
-0.018300402909517,0.007194244302809
-0.015214752405882,0.007194244302809
0.029843948781490,0.007194244302809
-0.152798220515251,0.007194244302809
0.144474714994431,0.007194244302809
-0.039611928164959,0.007194244302809
0.009623860009015,0.007194244302809
-0.036856289952993,0.007194244302809
-0.065166212618351,0.007194244302809
-0.204913482069969,0.007194244302809
-0.139309167861938,0.007194244302809
-0.059122674167156,0.007194244302809
0.177560985088348,0.007194244302809
0.090027831494808,0.007194244302809
-0.064437486231327,0.007194244302809
-0.000331998686306,0.007194244302809
-0.010449321940541,0.007194244302809
-0.114875882863998,0.007194244302809
-0.038922581821680,0.007194244302809
0.108104735612869,0.007194244302809
-0.077307239174843,0.007194244302809
0.032684270292521,0.007194244302809
0.133101224899292,0.007194244302809
0.031661838293076,0.007194244302809
0.019379496574402,0.007194244302809
0.051437735557556,0.007194244302809
0.006241333205253,0.007194244302809
-0.133570969104767,0.007194244302809
-0.038051735609770,0.007194244302809
-0.005155617836863,0.007194244302809
-0.054364044219255,0.007194244302809
0.136286929249763,0.007194244302809
-0.059090740978718,0.007194244302809
-0.024472542107105,0.007194244302809
0.082074314355850,0.007194244302809
0.040420155972242,0.007194244302809
-0.088977843523026,0.007194244302809
-0.038906373083591,0.007194244302809
-0.070883244276047,0.007194244302809
-0.036324702203274,0.007194244302809
0.183421880006790,0.007194244302809
-0.068142265081406,0.007194244302809
0.043023746460676,0.007194244302809
-0.106822438538074,0.007194244302809
0.027645915746689,0.007194244302809
0.094457738101482,0.007194244302809
0.088196612894535,0.007194244302809
-0.051225271075964,0.007194244302809
-0.051827076822519,0.007194244302809
0.043243777006865,0.007194244302809
0.170161888003349,0.007194244302809
-0.081515230238438,0.007194244302809
-0.033995792269707,0.007194244302809
-0.059833865612745,0.007194244302809
0.049772396683693,0.007194244302809
0.103077083826065,0.007194244302809
0.025762844830751,0.007194244302809
0.043396405875683,0.007194244302809
-0.027230145409703,0.007194244302809
-0.087317883968353,0.007194244302809
0.002586787100881,0.007194244302809
-0.108180545270443,0.007194244302809
0.092826575040817,0.007194244302809
-0.023436183109879,0.007194244302809
0.034495539963245,0.007194244302809
-0.180843710899353,0.007194244302809
0.133172988891602,0.007194244302809
0.017761031165719,0.007194244302809
-0.035451639443636,0.007194244302809
0.014328870922327,0.007194244302809
0.080111570656300,0.007194244302809
0.057502031326294,0.007194244302809
-0.025847427546978,0.007194244302809
0.101029433310032,0.007194244302809
-0.126336961984634,0.007194244302809
-0.019364373758435,0.007194244302809
-0.021309155970812,0.007194244302809
-0.063572876155376,0.007194244302809
0.084350660443306,0.007194244302809
-0.050788607448339,0.007194244302809
0.039341539144516,0.007194244302809
0.037750396877527,0.007194244302809
-0.003628460690379,0.007194244302809
0.042052928358316,0.007194244302809
-0.019510297104716,0.007194244302809
0.020251294597983,0.007194244302809
-0.045403186231852,0.007194244302809
0.031561393290758,0.007194244302809
-0.038661632686853,0.007194244302809
-0.009494031779468,0.007194244302809
0.025825351476669,0.007194244302809
-0.000600844097789,0.007194244302809
-0.074706286191940,0.007194244302809
0.032895419746637,0.007194244302809
0.012994401156902,0.007194244302809
0.022324722260237,0.007194244302809
0.034643333405256,0.007194244302809
0.046379279345274,0.007194244302809
-0.077703043818474,0.007194244302809
0.148365855216980,0.007194244302809
-0.095591090619564,0.007194244302809
-0.070459477603436,0.007194244302809
-0.151252686977386,0.007194244302809
0.007048437371850,0.007194244302809
0.127424418926239,0.007194244302809
-0.035797018557787,0.007194244302809
-0.054568760097027,0.007194244302809
-0.072091765701771,0.007194244302809
0.019661495462060,0.007194244302809
-0.155653372406960,0.007194244302809
0.053220871835947,0.007194244302809
-0.143313616514206,0.007194244302809
-0.055891372263432,0.007194244302809
-0.001281504868530,0.007194244302809
-0.008678740821779,0.007194244302809
-0.041294310241938,0.007194244302809
0.079246722161770,0.007194244302809
0.226761355996132,0.007194244302809
-0.038260586559772,0.007194244302809
0.042830269783735,0.007194244302809
-0.021273648366332,0.007194244302809
-0.187257230281830,0.007194244302809
0.013950107619166,0.007194244302809
0.140262559056282,0.007194244302809
-0.015537503175437,0.007194244302809
0.064913764595985,0.007194244302809
-0.007320317439735,0.007194244302809
-0.036094438284636,0.007194244302809
-0.033822912722826,0.007194244302809
0.098512127995491,0.007194244302809
0.168076217174530,0.007194244302809
0.077179849147797,0.007194244302809
0.102327696979046,0.007194244302809
0.019550828263164,0.007194244302809
0.241517126560211,0.007194244302809
-0.034093294292688,0.007194244302809
-0.051212012767792,0.007194244302809
-0.070239335298538,0.007194244302809
-0.106893442571163,0.007194244302809
-0.091721422970295,0.007194244302809
0.050899520516396,0.007194244302809
-0.087168544530869,0.007194244302809
0.038839939981699,0.007194244302809
0.084884159266949,0.007194244302809
-0.089074723422527,0.007194244302809
-0.030742099508643,0.007194244302809
0.121404223144054,0.007194244302809
0.002595443511382,0.007194244302809
0.067202806472778,0.007194244302809
-0.135610476136208,0.007194244302809
0.164181441068649,0.007194244302809
